877 64
214 -0.6068688 0.27679446 -0.3119296 -0.34103382 -0.30922103 -0.22233604 -0.09710897 -0.103242174 0.5807148 -0.6091645 0.6806969 -0.2615702 0.12933852 0.10957556 0.060604993 0.19562295 -0.54950863 0.54495907 -0.033319976 0.44180182 0.100420155 -0.40484494 0.8918791 -0.30544746 0.5777926 -0.30625412 -0.08148269 0.6247188 0.5501168 -0.44658405 0.6603678 0.7697718 0.38575485 0.24708712 -0.26139936 0.0727212 -0.04479416 0.14814082 -1.1615129 -1.0388377 0.007770383 0.078046314 0.045016546 -0.7075529 -0.23397768 0.55377805 -0.033256914 0.028587686 0.07459486 0.716092 0.36489564 -0.5102771 0.43399715 0.5109596 0.18227741 -0.18662655 0.3162581 -0.16917178 0.15446453 0.07219407 0.42923033 0.24981165 -0.3289325 0.08050132
458 -0.19885954 0.3416575 -0.52339554 -0.20733653 -0.122113906 -0.27356854 0.14127089 -0.68357617 0.25308236 -0.3495333 0.36783156 -0.19216235 -0.061686307 0.33464643 0.03250991 -0.08089879 -0.75141966 0.43637455 -0.11124351 0.41996044 -0.3849262 -0.68013585 0.7683611 -0.42043608 0.7368624 -0.025655704 -0.32783905 0.46827108 0.43537855 -0.5567425 0.5314036 0.6196069 0.23866627 -0.0012041696 0.06028726 0.12462688 -0.1930029 0.4578572 -0.75477 -0.8490405 -0.0034677451 0.13853587 -0.2264484 -0.15297478 -0.39512253 0.27424675 -0.4619031 0.106959134 -0.34769925 0.5862759 0.14159872 -0.27528745 0.45696068 0.154901 0.2347792 -0.21004349 -0.41498318 -0.1523064 0.3639201 0.23722513 0.24756107 0.010337021 -0.76043653 -0.18520306
34 0.015324443 -0.03589377 -0.42233604 -0.05843784 0.068308435 -0.07382195 -0.09806259 -0.25354376 0.163496 0.104353294 0.4294055 0.12067877 -0.44149724 -0.5333021 -0.18533091 0.30220732 -0.0764088 0.9397312 0.14542185 0.6434698 -0.4285534 -0.2812776 0.60922605 0.39374006 0.5878976 0.6112515 0.07117812 0.16255377 -0.055539623 -0.25973907 0.2748392 0.7519429 -0.7150547 0.21902394 0.84883857 0.057582855 0.065909006 -0.38903502 -1.3616786 -0.4441788 -0.84510624 0.4789819 0.16302131 0.12948756 -0.37022015 -0.34995827 0.18892163 0.8414714 -0.53668684 0.028316312 0.3227482 0.17283426 1.2533076 0.21641245 -0.6561854 0.25541997 -0.53198767 0.45973584 0.8868273 -0.05058087 0.26738256 0.7314682 0.13535053 -0.15039733
619 -0.035796624 -0.08341963 -0.32860658 -0.27478117 0.067131095 -0.1035547 -0.015769402 -0.23897876 0.17180361 0.052322365 0.4308506 -0.05954547 -0.25361145 -0.516769 -0.06988954 0.34298143 0.18024598 0.7785002 0.05782523 0.61760205 -0.3969808 0.025787089 0.6347223 0.16087012 0.61802745 0.55680346 -0.0714783 0.36054558 -0.36195058 -0.46269864 0.43904626 0.47263092 -0.76764077 0.1587548 0.9327996 -0.016290557 0.17201844 -0.28872284 -1.3487443 -0.33009064 -0.9929352 0.2378491 0.30041948 -0.16589232 -0.3069337 -0.26357123 0.22632451 1.0557759 -0.7868165 0.34479144 0.44125924 0.10170896 1.4829305 0.24338365 -0.64304084 0.21346967 -0.5371301 0.2538796 1.0352266 -0.24236526 0.11379298 0.8311718 0.18628025 -0.26582634
148 0.0034162642 0.65453935 -0.05408978 -0.489591 -0.069846354 0.671165 -0.7270245 0.2016697 -0.38686827 -0.23933774 0.5445669 -0.22822368 -0.4788813 -0.32677642 0.65736717 0.5018122 -0.19282939 -0.10070142 0.2941355 -0.072536364 -0.112145185 -0.20460923 0.4170246 -0.15746965 0.46926463 -0.28485292 -0.28679883 0.05562354 0.14967707 -0.6801165 0.054598417 0.3047996 -0.15743768 -0.28093335 0.12994614 0.9425051 -0.26739928 -0.21800464 0.17064846 0.27491462 -0.53947693 0.28625003 -0.5767172 0.12862234 -0.08140103 0.28938 -0.16905095 -0.11685145 -0.18706766 -0.24278286 -0.21760777 -0.23045333 -0.6510354 0.2743423 0.21808688 -0.055331007 -0.5138265 0.28804237 0.0530218 -0.7842811 0.22739407 0.7354871 0.424989 -0.35811678
540 0.078276224 0.32664084 0.15694922 -0.654085 0.051778775 0.6102974 -0.7292552 0.36046746 -0.38513526 -0.19235864 0.03775547 -0.39424974 0.103658535 -0.20387004 0.77795535 0.6037137 -0.24004021 0.35043496 0.09172462 -0.06718443 0.16719256 -0.05170862 0.23910008 -0.610412 0.2427852 -0.6485739 -0.37881777 0.29834992 0.017799206 -0.33823803 -0.1095327 0.48965487 0.13328445 0.061232686 0.19712345 1.0268031 -0.11877333 -0.40526173 0.38429585 -0.15379469 -0.43390825 0.12513708 -0.38186666 0.066619836 0.37989348 0.03782607 -0.13347407 -0.16632597 -0.19870482 -0.16337907 -0.17423475 0.020949708 -0.4859888 0.49329084 0.1442452 0.15792805 -0.07194749 0.3053817 0.47313422 -0.6458049 0.08051176 0.83978444 0.2936513 -0.42643902
162 0.33683252 0.45695013 -0.2785934 0.32741484 0.07121897 0.2028924 -0.38432926 0.2570845 -0.2182714 -0.36968526 -0.3028807 -0.54696167 0.13595323 0.066320986 0.21674804 -0.23136497 -0.11784218 0.0032731488 -0.18938787 0.3068685 -0.117401525 -0.2731721 0.1514806 -0.34410748 0.19593479 -0.034544595 -0.1270066 0.420914 -0.15467863 0.45496902 -0.07398495 0.37644002 -0.17858037 -0.0031640271 -0.09416156 0.20548004 -0.2210947 -0.17940682 -0.5528152 -0.7076361 -0.043246783 -0.20825581 0.062837064 -0.33821154 0.20463528 -0.3851118 -0.21433946 -0.20114718 0.010687737 0.5736648 -0.56741184 -0.5578274 0.067433774 -0.013030253 -0.18850026 0.32775903 -0.6385941 -0.5025198 0.6894695 0.0062682587 0.49680078 0.93946815 -0.40942803 0.096515656
729 0.49495408 0.7071836 -0.73131233 0.15715884 0.08675037 0.13689691 -0.55952597 0.5504902 -0.2990216 -0.12881993 -0.40833777 -0.18247285 0.18169117 0.20949405 0.43532026 0.08511621 -0.24281229 0.011361395 -0.035564456 0.24066405 -0.036759622 -0.38070813 0.122189 -0.29271635 0.39246386 0.18133105 -0.14798805 0.7341027 -0.11349881 0.31676295 0.033691794 0.13884507 -0.28950557 0.064012334 -0.2064308 0.11679656 -0.17117769 -0.2659827 -0.8903433 -0.4262445 -0.015595802 -0.17780313 0.051927976 -0.40395382 -0.07200533 -0.15457287 -0.32270676 -0.05001268 -0.034107044 0.8155502 -0.38981938 -0.49084926 0.30711445 -0.40385932 -0.09369441 0.24841009 -0.46245363 -0.14905569 0.62052655 -0.056918345 0.3218839 0.9795246 -0.5422643 0.060842566
285 0.24550898 0.4640354 0.33557034 -0.7063124 -0.33110434 0.015781354 -0.30990243 -0.23254126 -0.59919137 0.25191492 0.48631677 -0.64300144 -0.30463946 -0.6480499 0.27681726 0.4485855 0.052289188 0.38003585 -0.12327674 -0.00760738 -0.23491475 0.18702608 0.43125162 -0.21579203 0.5816012 0.052969728 -0.1501286 0.22414821 -0.31232175 -1.0231278 0.6435717 -0.09719087 0.8415257 0.15360849 -0.107630864 0.20422262 -0.0078037824 -0.52302456 -0.08665455 -0.8920139 -0.14037447 -0.30780694 0.2496255 0.44440514 0.62380576 -0.26046062 -0.26422128 -0.35121667 -0.11441631 0.16202822 0.14310348 -0.35127544 0.19052665 0.30072924 0.38261557 0.61763984 0.08121883 0.33375952 -0.043703206 0.09518361 -0.113351576 1.1056101 0.5349856 0.019908845
642 0.00039965776 0.23624948 0.340954 -0.61105144 -0.28288966 0.35847694 -0.12966295 -0.5232948 -0.68004376 0.3521114 0.47474423 -0.69472575 -0.4870905 -0.5654309 0.2062355 0.08870803 0.09518286 0.31239402 -0.050461832 -0.044178747 -0.29525647 0.27884525 0.5528329 -0.16429347 0.7026095 -0.050991148 -0.2182488 0.080851555 -0.42202544 -1.0951232 0.4978582 -0.2711544 0.6022013 0.4412016 0.22452553 0.18199268 -0.0014957567 -0.6701752 -0.48662433 -0.8922115 -0.13597105 -0.29529202 0.3929179 0.57283086 0.456105 -0.15700574 -0.13780758 -0.32230815 -0.15257375 0.02957463 0.16163296 -0.10957086 0.20091958 0.4949029 0.27040136 0.5878084 -0.08710302 0.29174164 0.04849236 -0.22081234 0.19123657 1.177679 0.6869275 0.0033769056
42 0.066514306 0.0030182507 -0.4086955 -0.24852392 -0.4132994 0.4580219 -0.066711254 -0.18776639 0.07609111 0.29863378 0.14514227 -0.6322608 0.16447793 -0.063339524 -0.32627633 0.12269987 -0.03770913 0.745006 -0.26003402 0.29669687 0.37142897 -0.458072 0.8916195 -0.3384991 0.6986499 0.086371146 0.10244062 0.36342862 0.2404342 -0.49582452 0.3004826 0.80014443 -0.0285045 0.09711206 0.8483392 -0.16078372 -0.08861552 0.8688034 -0.9004043 -0.7061428 0.22934589 0.21455602 -0.3377212 0.3371243 -0.026704421 -0.37030488 0.3602167 0.57795554 -0.34710062 -0.04077236 -0.41122964 -0.49584284 0.42462188 -0.43795645 0.09180224 0.33423364 -0.50643325 0.38490993 0.46815154 0.5439252 0.14167278 0.15735456 -0.21385275 -0.053472117
887 -0.019975888 0.64900714 -0.6142066 -0.34371918 -0.66362286 0.06962486 0.15282914 -0.26779297 -0.31810582 0.446646 -0.1767629 -0.19243324 0.3603145 -0.46626383 -0.102699034 0.093129195 -0.14057572 0.44306266 0.1002961 0.42798978 0.38071007 -0.43490767 0.30937576 0.05875029 0.31269467 0.21567424 0.18504474 0.8842453 0.38606766 -0.24360837 0.18475904 0.64022255 0.017390402 0.28140226 0.17869252 -0.1704964 -0.3972702 0.6037278 -0.70089793 -0.32549283 0.28235233 -0.1379517 0.23622906 0.23312587 0.0044000098 0.15547554 0.2662785 0.21196216 -0.20162559 0.113756455 -0.479088 -0.5423892 0.5566276 0.067372754 0.22440949 0.55151653 -0.6614034 0.17030495 -0.01575735 0.51100785 0.22328743 0.03408584 -0.21909904 0.49336648
108 0.10581632 0.33619532 -0.5965576 -0.025238955 0.37649298 -0.1619688 -0.022383511 0.3414934 -0.31128484 0.32239175 0.17066072 -0.2374742 0.059481848 -0.35437444 -0.08303949 -0.07635738 0.2927415 0.29136884 0.057396572 0.029226346 -0.23548804 0.1629962 0.33884123 -0.20530972 0.07882398 0.15204372 -0.066303365 0.5383602 -0.07048186 -0.46133703 0.5665959 0.685351 -0.38674906 0.19588871 -0.058600135 -0.055406194 -0.37041768 -0.26361576 -0.32673165 0.051798575 -0.32535505 0.1739782 -0.33944058 0.21023785 -0.23987441 0.025368972 -0.3716465 0.1569196 -0.18350542 -0.1209343 -0.07951 -0.052730847 0.46301672 0.06608555 -0.115493804 0.8158759 -0.3086709 0.07343653 0.5041046 -0.32020867 -0.046328343 0.4397764 -0.01171405 0.120085664
595 0.19148046 0.2731656 -0.64026314 -0.6896532 0.37822422 -0.13761148 -0.2855461 0.5449247 -0.42340463 0.28470513 0.446472 -0.15698491 0.18675716 -0.16200611 -0.28268203 0.053955246 -0.04449905 0.20910183 0.35328257 -0.11410317 -0.17487672 0.05783247 0.13497014 -0.2085096 0.16639028 0.3075091 0.020007262 0.6152543 -0.046824988 -0.46090218 0.73327684 0.5981961 -0.4444242 0.064826205 0.15273851 0.21265554 -0.27447802 -0.35505307 -0.488878 -0.00013826221 -0.59101874 -0.073146306 0.057930507 0.10090423 -0.21234095 0.00932327 -0.24179378 0.3843191 -0.19884832 -0.07056348 0.18746956 0.32790127 0.08127321 0.012109442 -0.02048257 0.7692683 -0.58416384 -0.08942608 0.45957166 -0.34331888 -0.47406912 0.5375125 -0.20746186 0.090524085
241 -0.30542877 0.37439921 -0.29874012 -0.4262004 -0.802697 -0.19339564 -0.07968155 0.041074764 0.50762475 0.07329776 0.33389175 -0.19209874 -0.098449856 0.6297645 -0.16603199 0.2728064 -0.40026543 -0.03215261 -0.2216331 0.12836346 0.20010298 -0.22981694 0.3812805 0.06376146 0.33206934 -0.102936745 0.05978894 0.32043174 0.17795286 -0.1772078 0.122804224 0.81924576 0.31590375 -0.07759538 -0.08901671 -0.21735793 -0.29010624 0.047855776 -0.9240685 -0.7805268 -0.026038531 0.11363363 -0.34276372 -0.09472363 -0.18794301 -0.018069686 -0.33789364 -0.22173329 -0.17490356 0.39976418 -0.004786854 -0.022170078 0.060413785 0.010396158 -0.1190089 0.005818231 -0.4393245 -0.47399032 0.41549078 -0.07316496 0.8404189 0.1632483 -0.20615509 0.20190188
573 -0.14754088 0.5930794 0.12876493 0.005419672 -0.36867005 0.030459741 -0.057422172 0.16868402 0.2303483 -0.108834945 0.13503039 -0.533381 -0.30401886 -0.10842754 0.21182081 0.44513425 -0.048250172 -0.1781534 0.1571555 0.496929 -0.26855114 -0.60644424 0.075344056 -0.033634823 0.4431556 -0.07907559 -0.12545729 0.60103947 0.1422932 -0.08419268 0.16721876 0.029145272 0.24260353 -0.080427006 -0.0998565 0.027842363 -0.22944263 -0.1291523 -0.5530359 -0.8240043 0.022914497 0.12374369 -0.40769574 0.046937987 -0.06513418 0.082538046 -0.18892288 -0.44561404 0.06115942 -0.2189244 -0.6023905 -0.06391112 0.26770827 0.20140776 0.09814858 0.25435102 -0.31499597 -0.6553473 0.18051317 -0.44186616 0.3335633 0.008140094 -0.33030045 -0.07099154
124 -0.7263962 0.07602128 0.03940683 -0.44363886 -0.3986988 -0.0970946 -0.46537095 0.2505511 0.18055384 -0.1375813 0.39218807 0.3647161 -0.874384 0.25485078 -0.019095903 0.08105936 -0.5078304 -0.40442896 0.27825803 0.8220494 0.2793135 0.19427675 0.43710747 0.08541055 -0.21593447 0.6505214 0.32210532 0.48798358 -0.26836655 -0.48533258 0.47074613 0.24327993 -0.034075346 0.2344575 0.2114678 0.81102765 -0.08164113 0.43502605 -0.3250755 -0.43849188 -0.32564324 0.4377597 -0.38204926 -0.41559294 0.108569935 -0.17698364 -0.4751047 0.2783676 0.26274016 0.71628046 -0.04534252 -0.17372572 -0.043680944 0.43868175 0.3584827 0.28326625 0.19467562 0.04334088 0.14365451 -0.18035838 0.53594625 0.48069602 0.5095389 -0.039376628
498 -0.8976444 0.14107282 -0.124447234 -0.2361787 -0.4342147 -0.040746473 -0.51409674 0.36777803 0.078831054 -0.005413955 0.19570129 0.19703124 -0.7166949 0.16617347 0.21012525 0.21865107 -0.21999538 -0.14730996 0.22327863 0.47222057 0.40823874 0.17922015 0.62338203 0.15044653 -0.62595266 0.47909355 0.32706916 0.29477236 -0.22456932 -0.24987829 0.2665051 0.24134749 0.2753123 0.39670172 0.1136308 0.67401505 -0.25250605 0.5177767 -0.62155145 -0.37175012 -0.20337705 0.63197315 -0.17037536 -0.26793566 0.30833107 0.21598162 -0.21022077 0.06948332 0.17167395 0.54990304 0.002014562 -0.074008375 -0.12995842 0.16004501 0.2733624 0.4117125 0.19087228 -0.10779133 0.3272119 -0.20206776 0.60990226 0.37013412 0.42224303 -0.03701175
87 -0.09753037 0.7857182 -0.106618956 -0.13200329 -0.43461624 0.21399495 -0.6423586 0.02362965 -0.18422188 -0.46303466 -0.052947104 -0.2689506 -0.4098186 0.30861402 -0.065561816 0.22271177 -0.20340301 -0.0040965374 -0.568739 0.4120956 0.122273855 -0.009713944 0.061931074 0.0041290782 0.017135054 -0.08228833 -0.25106245 0.15556024 0.00029046152 -0.03065886 0.09880453 0.40037614 -0.19501792 -0.0010080326 -0.18695958 0.07967534 -0.29294676 -0.6095614 -0.0035707054 -0.34345794 0.20772932 -0.40201283 -0.38831913 -0.29986224 -0.47038156 -0.7484364 -0.82497585 0.11817004 0.18319887 -0.027328542 0.017454693 -0.25219715 -0.0790659 0.520687 -0.42640582 0.15224063 -0.6408469 -0.3586325 0.8521519 0.052595507 0.48876137 0.16625221 0.19100623 0.1672772
773 -0.07050185 0.79606813 0.017967863 -0.55167186 -0.19770455 0.4270207 -0.6091435 0.28454885 -0.052485533 -0.17097633 -0.14244796 -0.14652677 -0.46202272 0.12910318 0.27855682 0.28341416 0.23222964 -0.6871173 -0.9747299 0.80268073 0.23182544 -0.09813352 0.26472968 -0.12447226 -0.07848715 -0.20937946 -0.39054704 0.12011284 -0.1367969 0.032174382 0.8004763 0.51637447 -0.14480503 -0.09872142 -0.19757691 0.06618059 -0.007720616 -0.66093916 -0.021878773 -0.2459889 0.24634609 -0.38878882 -0.20270737 -0.5317771 -0.18187323 -0.46126065 -0.9248569 0.5468002 0.23342259 0.06446391 0.18078351 -0.18685521 0.12842095 0.10381947 -0.2644008 0.3551091 -0.3493376 0.18341662 0.5841697 0.44301006 0.6104943 0.33337644 0.35989696 0.2106379
128 -0.47680086 0.03973481 -0.714788 -0.43624228 -0.73108685 0.4470457 -0.27999815 -0.3752083 0.74255955 0.102270715 0.6247981 -0.26390293 0.0890928 -0.083542936 -0.08096739 0.095308736 0.029597221 0.36764097 -0.22188233 0.48910064 0.43555993 -0.3750823 0.47714737 0.05147438 0.7421587 -0.02902488 0.1933061 -0.1768011 -0.11155743 -0.73968875 0.39680007 0.8175343 -0.044619903 0.34061283 0.2289361 -0.2534223 0.19944425 0.8748914 -0.7343083 -1.0785756 -0.30962485 -0.18833221 -0.6496811 0.12737152 0.37926388 0.10693018 0.44628108 0.0728988 -0.16458629 0.04309145 0.4121341 -0.4402526 0.111925796 -0.7360775 -0.11604636 -0.015950326 -0.29545572 -0.11061954 0.582686 -0.08440087 0.3116201 0.7144751 -0.6786767 0.15231243
315 -0.27125385 -0.074854806 -0.84251183 -0.5400105 -0.32138956 0.5068635 -0.3085639 -0.5833159 0.46759632 0.1196599 0.40418842 -0.43752372 -0.0796549 -0.16249786 -0.48063245 0.348625 0.045416664 0.5480628 -0.13436157 0.45658764 0.6265832 -0.4694143 0.7391255 0.023052452 0.8967922 0.173559 -0.029003134 0.14021283 0.018323928 -0.58437693 0.33859304 0.8429462 -0.101011164 0.33011222 0.42035303 -0.27243698 -0.010506389 0.7549989 -0.9824405 -0.79129136 -0.21188295 0.012831565 -0.7379605 0.14180858 0.31859526 0.14008889 0.7168885 0.44416356 -0.26104507 -0.12994413 0.07610755 -0.8065604 0.23365669 -0.5316121 0.049089823 0.15249057 -0.25944427 0.15291037 0.417556 0.08678426 0.29339394 0.45314237 -0.4278623 0.23246114
109 -0.12386943 0.13180484 0.26264152 -0.4476099 -0.14071216 0.6919382 -0.67361486 0.6447651 -0.25380152 -0.09999661 0.26517862 0.48251686 -0.4242548 -0.29031956 0.21545441 0.17738867 -0.13994923 0.32639197 0.63170964 0.5742766 -0.18295735 0.13864283 0.83313394 -0.9270068 0.24389052 0.29921696 -0.11214694 -0.08112835 -0.5278593 -0.34040028 -0.047169898 0.5380628 0.73722166 -0.07164381 -0.14891306 -0.095504455 -0.06274713 -0.29459462 0.39800462 -0.82058924 -0.11300096 -0.085792705 0.28200662 0.19279262 -0.072196126 0.18091956 -0.23944399 0.6975937 0.08007255 0.06581505 -0.040072247 -0.73868257 -0.19062346 0.60552907 -0.583162 -0.33384535 -0.24434774 0.014448636 0.28990355 -0.568919 0.3011755 0.7476926 0.2728495 0.32756
846 -0.16696072 0.15700366 0.1557278 -0.49412045 -0.09604934 0.7643708 -0.58856076 0.65936726 -0.7709205 -0.18256278 0.11131332 0.14236511 -0.22998922 -0.3182534 0.40147245 0.42619637 -0.44841406 0.50346875 0.6097488 0.5124904 0.32494137 0.11479683 0.61703146 -0.86807734 0.1885728 -0.042309687 -0.013625488 -0.04654848 -0.54318494 -0.2033054 -0.046994403 0.52276367 0.528816 -0.063977316 -0.35564297 0.17568314 0.21922062 -0.21690015 0.11919826 -0.83199346 -0.44973317 -0.19572279 0.14556567 0.3828849 -0.21971437 -0.09113784 -0.46636257 0.37701502 0.0005257616 -0.0021961066 0.28472513 -0.9142162 -0.23412347 0.5842522 -0.24063946 -0.15456602 -0.2207649 0.16599195 0.32173055 -0.6921363 0.124840565 0.6006929 0.48784402 0.116873324
1 0.122786306 0.40436333 0.44178164 -0.23216659 -0.18026692 0.092147365 -0.15136312 -0.0066588405 -0.279864 0.093053035 -0.09198701 -0.19853458 -0.042140465 0.04532654 0.58330756 0.26637444 -0.10637824 -0.062042255 -0.2679501 -0.30203757 -0.16898842 -0.057617247 0.14190964 -0.25223312 -0.101465754 0.05665015 -0.55746573 0.14695185 -0.46526334 -0.5352679 0.35293233 0.7761377 0.57779735 -0.08864627 0.18686476 1.1911265 0.18463765 -0.30675796 0.10874616 -0.24318606 -0.6675975 -0.14776842 0.115587614 0.025777096 0.42928606 -0.22681823 -0.18145025 0.49364316 -0.2693542 0.22830161 0.09494165 -0.39255354 -0.010634747 0.596375 0.47179148 0.29160863 -0.09756584 0.82389766 0.24497992 -0.38304967 0.007596635 0.780174 0.6052497 0.0979883
368 -0.14353111 0.5170039 0.39969 -0.45904273 -0.06537971 0.15376383 -0.32903036 -0.019864157 -0.24275616 0.19715787 -0.39983258 -0.26880926 -0.10180333 -0.021823525 0.5511473 0.517291 -0.10545975 -0.15288813 -0.3929842 -0.23979568 -0.04551479 -0.36327204 0.2398268 -0.2245711 -0.14124165 -0.0064937295 -0.3681991 0.38358805 -0.26874435 -0.54627544 0.56106776 0.56875795 0.28887436 0.07107026 -0.1773259 0.85779375 -0.026292661 -0.29192087 0.24529314 -0.2891984 -0.050674975 0.15480706 0.079575576 -0.029387739 0.3356755 0.078848064 -0.08852265 0.35394382 0.024350552 0.12399907 0.005821534 -0.38330325 -0.35776246 -0.038717143 0.1959382 0.22078179 0.14150026 0.37906757 0.3506133 -0.5640314 0.2804355 0.95051783 0.8023825 -0.46587065
310 -0.044677738 0.015532783 -0.6012299 -0.3701856 0.14423446 -0.71724105 0.01507314 0.61541015 -0.33514735 0.25394636 0.64361775 0.13667983 -0.08637063 -0.24041913 0.03568816 -0.31975555 0.036222156 0.32324225 0.33543184 0.35408622 -0.37783358 0.34755418 -0.21902163 0.3639804 0.10355375 0.05316658 -0.22949141 -0.108338244 0.58242756 -0.9172208 0.9304684 0.39770108 -0.045503907 0.34769693 0.18611258 -0.23104754 -0.14053182 -0.26872513 -0.8571525 -0.19026266 -0.22389631 -0.4160725 -0.031246081 0.25333288 0.26212162 -0.43583533 -0.6735427 0.6468969 -0.27861762 0.4585245 -0.6510545 0.0048214113 0.73079735 0.035083227 -0.09138313 0.67180264 -0.6825917 -0.120420024 0.603804 -0.4573718 -0.5261188 0.43716568 0.49683762 0.12052309
646 0.013374743 0.018164579 -0.6336724 -0.3387981 0.30367306 -0.48943126 -0.27870125 0.25969595 -0.18753187 0.3234587 0.516446 0.372631 -0.14626461 -0.44343144 0.08307722 0.08159981 -0.05147458 0.19201617 0.37709573 0.34118754 -0.40696874 0.38733894 -0.12975962 0.519531 0.10600457 0.29920423 -0.37519905 -0.10670571 0.38141808 -0.220076 0.6128159 0.43324193 -0.07703688 0.27558723 -0.094164796 -0.29453263 -0.26995072 0.03595481 -0.77948624 -0.19737011 -0.54911613 -0.011104598 0.014964938 0.065505594 0.03626956 -0.20910661 -0.5892579 0.9071659 -0.14071333 0.2659141 -0.6689132 -0.1826448 0.73650414 0.3224218 0.139362 0.7596819 -0.87813437 0.10548071 0.9072135 -0.71774036 -0.2906429 0.050268233 0.20787683 -0.42645606
827 -0.36975554 0.60006684 -0.16106607 -0.17100726 0.6181072 -0.26164538 -0.48250395 0.21803726 -0.40753242 0.36246547 0.21637516 0.023957962 -0.20717609 0.076967 0.003428632 0.043196045 0.08413719 -0.4600459 -0.038915977 0.3806223 -0.340759 -0.10470495 0.15894763 -0.10381889 -0.040857714 0.38446522 -0.17113449 0.85356987 -0.21106312 -0.15100375 0.7040557 0.63460046 -0.20885582 0.40588313 0.0925306 0.051209513 -0.15707107 -0.0023715417 0.022405995 0.19284867 -0.32109332 0.32981664 0.08585762 -0.07776466 0.137012 -0.2388421 -0.035287477 0.47740248 -0.19105656 -0.16366483 0.16418235 -0.2763776 0.20364726 -0.037858274 0.0733992 0.4991604 -0.1854668 0.28068665 0.31699136 -0.53560835 0.12837934 0.42559436 0.14034472 -0.31730574
79 -0.14195977 0.5118478 -0.33157742 0.006330267 -0.06555169 0.98004097 -0.16135773 0.55947953 -0.14897229 -0.27733913 -0.08730813 -0.17000885 -0.5803097 -0.13091241 0.046423063 -0.19516143 0.20469487 -0.59956914 -0.0093284 0.52481425 0.0337656 0.32779428 0.4431587 -0.19705945 -0.18539445 0.16038084 0.20847256 0.062001362 -0.15547498 0.01635879 0.16908078 0.5276586 0.08478477 0.36321554 0.24446042 0.20422311 -0.435106 0.17472443 0.21751316 -0.58640814 -0.31846547 -0.3347521 0.09717388 -0.18202202 -0.095607504 0.022592187 -0.63442224 0.12577598 0.1353479 0.3838137 -0.39881414 -0.2893996 -0.26702413 0.31578925 -0.1326425 -0.19146374 -0.011665007 -0.17595409 0.6882196 0.039909612 0.18046899 0.57712716 0.16441627 -0.19557598
766 -0.17996643 0.28912336 -0.050492965 -0.53852284 -0.35453945 0.37202844 -0.13965404 0.46353966 -0.1444139 -0.18163608 0.28752092 0.22070676 -0.5226915 -0.16910179 -0.19319214 -0.22769195 0.025149535 -0.28633866 -0.3030107 0.11071568 0.23556963 0.14723401 0.39262348 -0.33425683 -0.43649772 0.59523875 -0.08046131 0.36998042 -0.43512288 -0.10276965 0.18244372 0.09951736 0.33358353 0.33368886 -0.12266975 0.15755975 0.12880462 0.28537065 -0.016670438 -0.61169004 -0.31749192 0.52570814 0.04923162 -0.014738611 0.036493413 -0.049072497 -0.41053772 0.68689865 -0.0058562937 0.4561541 -0.39586088 -0.2846153 -0.35696697 0.25920445 -0.12885304 0.060274176 0.0008679795 -0.04682691 0.199024 -0.4517186 0.26838294 0.74102855 0.42249689 -0.19003369
62 0.46263817 0.8346396 -0.33943653 -0.119145334 0.26315904 -0.41365546 -0.36906198 0.4453073 -0.5448225 -0.2915762 0.12575957 -0.047871213 -0.19619958 -0.18610343 -0.08326493 0.015625188 0.24649064 -0.24512467 -0.4427902 0.40344524 -0.034397274 0.2252245 0.34256202 -0.56483096 0.40541193 0.4463623 0.3062733 0.62648267 -0.0030141969 0.10303694 0.5166167 0.58217925 -0.376983 0.17658758 0.4486568 -0.07133869 -0.35599163 -0.5640913 -0.2778084 -0.1914369 -0.25464436 -0.13785268 -0.4022274 -0.1554657 0.015545743 0.021873208 -0.77112436 -0.020374866 -0.41757804 0.1163755 0.32347614 -0.24928874 -0.06856736 0.23623797 -0.9245178 0.47524253 -0.4277012 -0.22896658 0.71058136 0.20779595 -0.22215578 0.5983032 0.08510806 0.14469284
585 0.42097732 0.63396394 -0.47420722 -8.880957e-05 0.15113403 -0.33125344 -0.06863746 0.26684222 -0.6840396 0.09594492 0.13721551 0.090274796 -0.32628697 -0.31310526 -0.12314031 -0.07507782 0.042896654 0.2045333 -0.30503085 0.3595664 -0.18051706 0.22928627 0.2480421 -0.63143194 0.26692238 0.5082443 -0.10522279 0.53918225 0.06333583 -0.028297678 0.6954114 0.5613525 -0.30320287 0.17568438 0.032986395 -0.22813931 -0.50284433 -0.34125933 -0.37548077 -0.121865295 -0.34961644 -0.068207204 -0.27121565 -0.30264667 -0.010238531 0.12603703 -0.4625221 -0.03856346 -0.44501823 -0.25770262 0.14316636 -0.07244527 0.10503415 0.26706493 -0.75463945 0.6375886 -0.45044187 -0.09131615 0.80232495 0.15182418 -0.1379148 0.54453987 0.060821034 0.21038772
363 0.32558337 0.66250104 -0.2069981 0.478469 -0.17304997 0.062220547 -0.38110763 0.23592907 -0.1157157 -0.038055528 -0.4128626 -0.56352174 -0.1001175 -0.119956695 0.28243288 0.1949569 -0.21295044 -0.2681319 -0.032461867 0.35387143 -0.31548974 -0.29989344 0.17611668 -0.20338728 0.17781919 -0.1823309 -0.29269505 0.44082147 0.21235384 0.3350802 0.33189818 0.011683597 -0.08695399 0.09445705 0.09778766 0.35189325 -0.18739332 -0.103909165 -0.5444031 -0.56330025 -0.0090856645 0.10657529 -0.03358624 -0.5152793 0.19859102 -0.24676988 -0.4071199 -0.103298396 -0.101513445 0.7817587 -0.47788802 -0.65624154 0.1989543 -0.4446837 -0.28134918 0.16999266 -0.7175203 -0.7006224 0.62852764 0.2086934 0.4413834 1.048699 -0.45376414 0.3638484
114 -0.7727437 -0.05864692 -0.6062801 -0.33805043 0.039125524 -0.15488899 0.6830786 -0.1979987 0.39373562 -0.6356573 0.6414718 -0.49049142 -0.04064718 0.100062974 0.14220674 0.25055733 -0.58589256 0.40237418 -0.19038932 0.50640357 -0.2744004 -0.36055094 0.5400715 -0.6382419 0.9086158 0.4426305 -0.6331004 0.23799422 0.060775235 -0.63062793 0.48292544 1.1295505 0.64742124 0.36220026 -0.19633432 -0.16381648 0.16972142 0.20357451 -1.1212211 -1.2333541 0.013812824 0.40353104 -0.41162515 -0.31227696 -0.109513044 -0.07117492 -0.1919808 0.22320242 -0.098629035 0.63684875 -0.02742007 -0.022149751 -0.0029353537 -0.21522133 -0.094200306 -0.24308102 -0.54397327 0.24101402 0.38942555 0.5405677 0.43854865 0.470033 -0.90688384 -0.21912748
684 -0.58058125 -0.10550847 -0.9106152 -0.21022716 -0.13920152 0.09645894 0.4455165 -0.4410022 0.4544518 -0.6155619 0.5021906 -0.4638357 -0.06282902 0.3046943 0.09293228 0.2206293 -0.62478256 0.39022207 -0.16367045 0.5960162 -0.1615331 -0.321445 0.5868823 -0.53211594 1.1360775 0.28028584 -0.7550912 0.19968775 0.29822126 -0.7335805 0.61481017 0.8612779 0.42812017 0.2541427 -0.006092701 -0.16679157 0.024277844 0.31518796 -1.2374189 -0.93387926 -0.00020269823 0.5221203 -0.54282886 -0.24097455 -0.16929004 0.09959353 -0.28441152 0.547498 -0.3056292 0.6733826 0.088778734 -0.30139434 -0.07766546 0.07983741 0.24213737 -0.35071808 -0.42965913 0.26508823 0.41664785 0.4674387 0.5115012 0.58373076 -0.7602801 -0.36750975
300 -0.011676021 0.42534205 0.36096993 -0.5994299 -0.13722855 0.23162232 -0.42297384 -0.34139606 -0.6829619 0.19262107 0.46687168 -0.67618865 -0.5136835 -0.6023852 0.39393786 0.37415805 0.10484853 0.39839593 -0.17838462 -0.013116849 -0.38838524 0.13524233 0.5047114 -0.2721955 0.562088 0.07784685 0.074841216 0.24525976 -0.19866632 -0.8935379 0.66899526 -0.25088874 0.76837826 0.15274028 -0.07620325 0.05132918 -0.07705125 -0.38492754 -0.18718347 -0.7242562 -0.26587754 -0.47242215 0.4027859 0.41642746 0.45246613 -0.18344547 -0.22699125 -0.14335772 -0.27213782 0.033094417 0.05392476 -0.2698564 0.07398089 0.34216508 0.4752244 0.7463349 0.25853702 0.30154538 0.12757593 -0.0074144816 -0.08294327 1.1226624 0.65122795 0.19082971
647 0.0918715 0.25342363 0.28210735 -0.7050412 0.1264203 0.26656795 -0.1865791 -0.089854725 -0.64403194 0.11133275 0.74087733 -0.6800212 -0.46572676 -0.65848833 0.3394265 0.015004599 -0.0985658 0.21644054 -0.08814278 0.073483594 -0.56197894 0.066017374 0.35704893 -0.18464439 0.5616259 -0.055284664 -0.2098156 0.096181795 -0.22085701 -0.9637918 0.5150621 -0.1878521 0.3567155 0.3536795 0.021335786 -0.13577569 0.07704824 -0.7268205 -0.24281417 -0.7727464 -0.09392114 -0.09458216 0.31861067 0.49174824 0.48620135 -0.21529426 -0.16541648 -0.3983394 -0.17150511 0.15488234 0.18487874 -0.11932911 0.3738413 0.37348855 0.37199733 0.62621427 -0.08783773 0.33641538 0.038967196 0.0058022635 0.32829645 1.1592911 0.67142206 0.39183226
269 0.25625476 0.3841957 -0.6728805 0.42578146 0.11595117 0.33076882 -0.44641373 0.46276465 -0.27530527 -0.15867649 -0.23228148 -0.53217036 0.012157731 0.12778805 0.4271403 0.057957835 -0.1265298 -0.042129256 -0.07039108 0.22568826 -0.10360501 -0.17773494 0.1093671 -0.2831542 0.48864985 -0.0050754338 -0.11676675 0.38428202 -0.3560537 0.32563367 -0.08528059 0.26172084 -0.078823246 0.0248085 0.06966275 0.22195253 -0.2433866 -0.009180448 -0.71706384 -0.48214585 -0.06835322 -0.27087736 0.12835772 -0.35322723 -0.16276173 -0.15962996 -0.45859227 0.12527698 0.16420475 0.89294547 -0.6022955 -0.7137306 0.15298383 -0.4316129 -0.20571359 0.24599142 -0.60790884 -0.44356725 0.5612584 0.067105815 0.3337981 1.0679542 -0.5757098 0.35145718
613 0.276837 0.561317 -0.7451837 0.28938124 -0.092092305 0.46972016 -0.49441987 0.6949615 -0.1893762 0.14362347 -0.03856145 -0.3154613 0.106877424 0.11183225 0.4471861 0.09509108 -0.15199049 -0.19224973 -0.17298543 0.35406324 -0.32283273 -0.24748439 0.26636368 -0.16945525 0.52445006 0.12313824 -0.16197085 0.29740962 -0.38125327 0.33511737 -0.07101724 0.21552733 -0.44688988 0.21690473 -0.007917517 0.17552523 0.22601742 0.07505887 -0.72048783 -0.6039594 -0.35043776 -0.35423157 0.17172988 -0.39424917 -0.047516987 -0.24843264 -0.53011465 0.0064293016 0.34557047 1.1088191 -0.7451018 -0.85382384 0.082680866 -0.5612604 -0.21382266 0.32731554 -0.70826584 -0.5666093 0.64770246 -0.031809453 -0.06414517 1.1213276 -0.30652103 0.4914981
312 0.032064345 0.5421925 -0.52078736 -0.25025293 0.28282976 -0.15030044 -0.043187797 0.33363003 -0.14323585 0.60543865 0.14721934 0.13716637 0.053903896 -0.17430675 0.025238676 0.016970202 0.25669762 0.12111932 0.16790871 -0.13827409 -0.18562306 -0.05478296 0.4508496 -0.102492355 0.10654241 0.11319442 -0.07689974 0.7820955 -0.17306402 -0.32563752 0.51795465 0.35821825 -0.18915293 0.19672726 0.0009262102 0.022904979 -0.24228281 -0.36770797 -0.44801816 -0.0015184961 -0.22616649 0.08958364 -0.24905154 0.18941665 -0.35371792 0.19080284 -0.081018224 0.46334425 -0.14816543 -0.21676579 -0.138307 0.084062636 0.20916165 -0.045919847 0.009860748 0.6716581 -0.40623653 0.39876285 0.72081196 -0.114911385 -0.4859964 0.7636283 -0.005591719 -0.00012358496
414 -0.04916565 0.514169 -0.6877118 -0.26234105 0.42449173 -0.11107466 0.13341478 0.24697395 -0.3341373 0.6240053 0.39053372 0.032331154 0.25182626 -0.305211 0.02246544 0.058605306 -0.047515087 0.26175138 0.08271784 -0.07911156 -0.32937473 -0.009478936 0.17170565 0.0110730305 0.24078912 0.19218856 0.0018898447 0.51441026 0.05757498 -0.27426565 0.43982124 0.6272584 -0.065255865 0.21059327 0.10899688 0.030549888 -0.37761137 -0.19491765 -0.3813036 0.044817396 -0.15743558 -0.11826229 -0.025343355 0.15535533 -0.041080512 0.18941736 -0.22037748 0.3233064 -0.20881982 -0.083350755 0.07687782 0.042684734 0.10323387 0.12970604 -0.23740011 0.746042 -0.5112278 -0.10452895 0.6583189 -0.17321047 -0.4020312 0.8872748 0.19820674 -0.07079773
643 -0.15501794 -0.3130612 -0.48680627 -0.06745267 -0.28406283 0.2129376 -0.20543694 -0.2943924 0.87056774 -0.14404781 0.4776401 -0.40371615 -0.092475265 0.055996962 0.23669039 0.41730663 -0.44077575 0.2661304 -0.36403906 0.22847489 0.1837456 -0.30592927 0.7356171 -0.370195 0.76322234 0.1376265 -0.1603801 -0.20437075 0.2641961 -0.55299735 0.4131358 0.7214958 0.07379866 0.1983447 0.12710318 -0.36554703 0.18999317 0.8100053 -1.0305856 -1.4390802 -0.2545797 0.16904011 -0.3520514 0.024621028 0.14956501 -0.05995024 0.21615607 0.48840234 -0.4281402 0.24841261 0.22024086 -0.37326497 -0.2574744 -0.48594823 0.08460703 0.07363515 -0.32227632 -0.08601328 0.80859643 0.12961893 0.67347085 0.44686216 -0.60836786 -0.21826069
293 -0.28876963 0.18877843 0.20963235 -0.37334833 -0.1260012 0.2822834 -0.3464348 0.48985696 -0.0022444539 -0.06474324 0.36201888 -0.03402988 -0.46681225 -0.19135618 0.117090635 0.30909705 -0.39072463 -0.21143717 0.05056064 0.23580165 0.33569232 0.17244247 0.27369115 -0.030400164 -0.5240889 0.8158832 0.2148049 0.40641296 -0.3308354 -0.41552588 0.31665564 0.0724277 0.23006289 0.051646404 0.15260133 0.54547197 0.027304519 0.3229379 -0.36911255 -0.3093154 -0.018942378 0.50086606 -0.033836335 -0.17574972 0.21406767 0.036759537 -0.7562249 0.32701293 0.1195844 0.68853724 -0.44837335 -0.3979251 -0.08017455 0.26433718 0.17777096 0.3055162 0.046149146 0.12588677 0.4572501 -0.54065293 0.43556547 0.49146995 0.28546408 -0.25972286
645 -0.12182769 0.36077166 -0.089073926 -0.4644154 -0.4013293 0.24375287 -0.08778362 0.4543437 -0.24594349 -0.16939525 0.40998098 0.11555157 -0.656834 -0.12720916 0.0026648617 -0.49235478 -0.09323187 -0.24267402 -0.21083128 0.25779167 -0.022149753 0.19183251 0.21788011 -0.25716788 -0.18722953 0.64398324 0.076781794 0.54749644 -0.42119768 -0.3553383 0.1977903 0.056973178 0.25527325 0.16180085 0.25657445 0.33644655 0.03359343 0.34185308 0.030239629 -0.60435665 -0.2524967 0.49610162 -0.05544599 -0.064697355 -0.09876833 0.06758177 -0.6568288 0.44498885 0.38711116 0.2543645 -0.3809062 -0.45508137 -0.3734273 0.5389415 -0.052535936 0.04132344 -0.06986271 0.09404572 0.0998548 -0.43726173 0.1819775 0.6284164 0.17825209 -0.15898994
311 0.06811808 0.02585359 -0.38259703 -0.022428133 0.42985314 0.1415335 -0.47109082 0.16577108 -0.80626035 0.19145446 0.41477683 -0.33799165 -0.3257353 -0.30652863 -0.09642584 -0.22404929 0.30112937 0.3895086 0.05517146 -0.50283223 -0.6852943 0.11086131 0.08256189 0.24321984 0.23706217 0.020364726 0.09764699 0.5280898 -0.11701447 -0.15882082 0.5401745 0.24760284 0.28549036 0.3362731 -0.1438391 1.0965044 -0.2575079 -0.42919362 -0.45892555 -0.25670493 -0.75834394 0.5147986 -0.14366122 0.17643127 -0.18776794 0.27690417 -0.3962694 0.47820958 -0.765831 -0.18428971 0.026969329 -0.74264497 0.30402374 -0.04229886 -0.2321861 0.5816695 -0.44043687 -0.15219273 0.17567654 0.1790961 0.16939975 0.99897814 -0.07177547 -0.19406462
354 0.28497806 0.05336548 -0.38464278 0.18319835 0.04682572 0.10530665 -0.589773 0.2811612 -0.8002859 0.49979314 0.19135131 -0.33217344 -0.39909032 -0.34541994 -0.060195994 -0.03867255 0.29678223 0.6552022 0.13825844 -0.5702356 -0.49185386 0.080637746 0.020430861 0.17579348 0.48836967 0.16478792 0.012140922 0.20857671 -0.08277347 -0.15850411 0.33216557 0.19035435 -0.060732737 0.3797471 -0.16061617 1.2594689 -0.57682383 -0.44590533 -0.492383 -0.60128784 -0.6131388 0.37658018 0.036574893 0.20073825 -0.095545545 0.39648315 -0.7917898 0.3024424 -0.3948707 0.108561195 0.037180822 -0.5466125 0.15251067 -0.41657585 -0.26520547 0.34750322 -0.20513862 -0.16179529 0.31600145 0.15509766 0.08859174 1.0330669 -0.037787527 -0.012913411
66 -0.24071328 0.29823032 0.08837886 -0.57987446 -0.078856744 0.2482697 -0.23235306 0.8907493 -0.20736048 -0.0339127 0.22785947 -0.12021287 -0.9007005 0.03767099 -0.008316937 0.058553703 -0.180026 -0.15422502 -0.2848959 0.35448346 -0.07799646 0.028620213 0.48231924 -0.067887 -0.7054437 0.68868905 -0.05307038 0.20457174 -0.5501497 -0.33398792 0.35432193 0.08210562 0.21164373 -0.033742003 0.048654363 0.4558516 0.116403915 0.2180938 -0.5682555 -0.34807554 -0.035220496 0.24595131 -0.18938236 -0.3426973 0.25860274 -0.0828688 -0.29662812 0.072078824 0.21103327 0.1660651 -0.5904132 -0.41513166 0.070191905 0.33721435 0.25821745 0.1591922 -0.107519485 -0.13898797 0.28249085 -0.20174107 0.6652878 0.15342504 0.18725026 -0.08741674
551 -0.45067847 0.20814505 0.096462145 -0.3397739 -0.4201351 0.16545807 -0.07136214 0.59771293 -0.07091782 -0.29896703 0.23943472 0.21873961 -0.32436064 -0.101741634 0.03912361 0.12286144 0.074930534 -0.17976095 -0.29506776 0.08324399 0.21633914 -0.09009396 0.29734755 0.14887297 -0.26784375 0.61480486 0.12502478 -0.1895514 -0.51451725 -0.36103833 0.18736574 0.11541684 0.32823524 0.3876297 0.25345463 0.14073531 -0.14392082 0.29985675 -0.37572342 -0.61929953 -0.22487389 0.78445464 -0.22831321 -0.29964763 0.58055544 -0.07206859 -0.3365896 0.5846147 0.5307207 -0.018191867 -0.26159322 -0.56296 -0.026928224 0.22695117 -0.030086596 0.03121405 -0.21691856 0.23230387 0.40957677 -0.69989216 0.59688157 0.65498513 0.15100195 -0.6240388
166 0.50445235 0.5679265 -0.6270971 0.32882583 0.119453914 0.15010047 -0.24027112 0.5503176 -0.4930812 -0.17432296 -0.1791594 -0.15915205 0.22742096 0.3423341 0.49376118 0.38541853 0.04671232 0.009469272 0.17270966 0.233218 -0.10763836 -0.03994539 0.31310546 -0.085944615 0.637146 0.059503645 -0.15349738 0.82148373 -0.13470033 0.109647915 0.19504148 0.13688414 -0.04570709 0.28230315 -0.06496235 -0.006460371 0.11485287 -0.0039943983 -0.9434693 -0.043228786 -0.036922596 -0.18819647 0.021183873 0.005401404 0.0484042 -0.07770751 -0.20785679 0.19619313 -0.2250432 0.9815068 -0.11043912 -0.48548886 0.28640622 -0.3040666 0.21563417 0.47540775 -0.556003 -0.31300524 0.7637605 -0.04560793 -0.17974646 0.7923324 -0.6724646 0.26858515
386 0.52073365 0.4797229 -0.71323645 0.20059451 0.18421467 0.41075227 -0.5155036 0.6738851 -0.20182052 0.070002005 -0.18195927 -0.25898504 0.30022168 0.12043009 0.63288105 0.33691218 -0.30140707 -0.08760075 0.15227172 0.22133678 0.10577361 -0.112508126 0.24496344 -0.085413985 0.43099222 0.20016092 -0.61457527 0.6803283 0.0036826888 0.0982776 0.33058563 0.41663098 -0.15518165 0.18677253 0.04541954 0.2875559 0.08675507 -0.18705529 -0.6665129 -0.21191992 0.039855797 -0.2853921 -0.07389381 -0.28792486 -0.16572183 -0.2118391 -0.257719 -0.003278553 -0.10936679 0.83167493 -0.28419685 -0.53979045 0.46213338 -0.18698777 0.37493578 0.42737988 -0.49891543 -0.41412556 0.7826689 -0.36346865 -0.28002912 0.7656256 -0.75249964 0.24754079
284 -0.3106465 0.12847704 -0.1311209 0.1583802 -0.41088176 -0.29789892 -0.39969945 0.25226825 -0.28858787 0.38191304 0.10687854 -0.5671382 0.4334652 0.31750578 -0.52884144 0.3687762 0.1505484 -0.10555737 0.08068458 0.6334716 -0.09489576 -0.34674487 0.11453537 -0.5241049 0.23671646 0.08685917 0.121052705 0.048623282 0.056542583 -0.3557934 0.3534652 0.3563461 -0.068841636 0.22132204 0.47026134 -0.4233456 0.23973456 0.76045376 -0.7342825 -0.56469166 -0.058235567 0.015587397 -0.5644989 -0.22017235 -0.12352068 -0.12940931 0.35862684 -0.027991481 -0.5477991 -0.19505624 -0.4243312 -0.5820539 0.17902167 -0.32291093 0.29082665 0.13021497 -0.60046494 0.5483463 0.283139 -0.06456805 0.48335263 0.9280367 -0.010879928 -0.05686653
708 -0.47316095 0.1702442 0.41793555 -0.12866053 -0.23767209 -0.039825223 -0.28417 0.29540744 0.22301623 -0.2113006 -0.19791546 -0.57351553 0.30785108 0.07342321 -0.45197096 0.13724062 0.08670009 -0.48963532 0.12834904 0.41618907 -0.1358441 -0.7261309 0.09555996 -0.15225615 0.064139925 0.3280812 -0.023246834 -0.016470967 0.014906381 -0.06097905 0.27443868 0.58566767 0.2996886 0.18926482 0.24221154 -0.021449208 -0.30198634 0.7510811 -0.25757736 -0.6130973 -0.34040114 0.46031696 -0.14603604 -0.22092232 0.083223596 0.051362544 0.14340383 0.12537396 0.4737492 -0.57934964 -0.41857365 -0.50004053 -0.22074588 -0.11317865 -0.11694285 -0.0682438 -0.72831166 0.5417896 0.50733817 -0.27242646 0.57118356 0.92013484 0.2907255 -0.16401725
232 -0.3393345 0.33983728 -0.9077447 0.22441325 -0.25672874 0.26620582 -0.10998753 0.22595114 0.154994 -0.2727172 0.31712908 -0.038065623 -0.25031355 0.02868449 0.5588708 0.483033 0.2711848 -0.031070784 0.23232158 0.634081 -0.37747675 -0.18306993 0.4068696 -0.6736877 0.8200612 -0.32407883 -0.90791166 -0.001772498 0.21160796 0.07349938 -0.37490094 0.34146532 -0.086027175 0.5337552 -0.24985708 0.53145134 0.12153883 0.51707244 -0.3126144 -0.6285942 2.5334164e-05 -0.3455768 -0.33870283 -0.44846985 -0.00628063 0.020391835 0.2481098 0.3590085 -0.26578882 0.9366924 -0.5630252 -0.19860661 -0.4394412 0.27385095 0.008952381 0.30495816 -0.44060978 -0.40229928 0.040820476 -0.2560669 0.18049577 0.6175883 -0.42521676 0.33309504
524 -0.107276514 0.40640807 -0.37942052 0.3688217 -0.076668784 0.6085912 -0.35189152 0.6356648 0.24128768 -0.08164186 -0.26671043 -0.37484905 -0.37998745 -0.1371193 -0.21742365 0.062270727 0.0007793717 -0.46795538 0.13789774 0.62183386 -0.22774032 0.039070826 0.46223918 -0.7761547 0.5524082 -0.12995298 -0.3897903 0.030790182 -0.087618925 0.2794444 0.03751495 0.1505961 -0.11112195 0.6263821 0.22484054 0.14428294 -0.33360246 0.21241605 -0.33807364 -0.4858061 -0.013690738 -0.29569188 -0.065392844 -0.42330968 0.016274335 -0.010586055 -0.6159036 0.15474097 -0.3284061 0.6522015 -0.80575484 -0.33969924 -0.42811882 0.07482479 0.08330127 -0.041939773 -0.20802723 -0.37337598 0.15410508 -0.115324266 0.5396364 0.4890318 -0.27526248 -0.027762014
100 -0.6948707 0.7329462 0.54242224 -0.4650041 0.035798106 1.1103971 -0.75494254 -0.6699641 -0.75677645 0.607176 0.7036938 -0.2523463 -0.44964403 -0.74641937 0.71964836 0.15275455 0.4434434 0.8088174 0.43661767 0.2554974 0.18500791 0.021478122 0.3684426 0.1427555 1.2961925 -0.051210407 0.07249818 -0.18446349 0.24105501 -1.3172758 0.89920884 0.014982701 0.21691193 0.2808597 0.36575854 -0.17803873 -0.1768951 -0.21545671 -0.48023695 0.050709054 -0.76486504 0.7034514 -0.17547977 -0.23177746 0.32927543 0.018415201 -0.3969506 -0.15242767 -0.3285257 0.32317054 -0.19724987 -0.32743388 -0.3370616 0.36743176 -0.03250501 -0.0074499054 -0.6173237 0.51469123 0.4410488 0.089027256 0.02365898 0.5379275 1.1498477 0.20060836
661 -0.531877 0.6478019 0.21548563 -0.4080773 0.03719982 1.1435148 -0.6316195 -0.32232 -0.7603804 0.41376778 0.6472345 -0.15164961 -0.5859676 -0.6288478 0.6360049 0.1386198 0.33249414 0.6051566 0.5241251 -0.0060372627 0.083478585 -0.14650567 0.61618334 0.16609375 0.9336749 -0.21900767 -0.0139182275 -0.09147206 0.41558996 -1.2455305 0.5878309 -0.082390286 0.11504663 0.12164755 0.08416497 -0.0074831727 -0.08741007 -0.38809484 -0.18339337 0.017356846 -0.3302263 0.45937163 0.15603699 -0.02788843 0.4400402 0.10699335 -0.34039947 -0.15745236 -0.1495134 0.1264104 -0.37813726 0.041621715 -0.43505254 0.14579122 -0.18056996 0.36516964 -0.53497857 0.46228048 0.28776932 -0.03158547 0.19851212 0.3433796 1.0164684 0.06572447
545 -0.24040847 0.21076097 0.12524952 -0.5238942 -0.25833398 0.16256815 -0.38323048 0.56234664 -0.16836114 0.07207915 0.0810715 -0.05794757 -0.60146844 -0.109614074 -0.046139948 0.039403614 -0.021628397 -0.38218912 0.0029209293 0.2966039 0.17536907 0.16948786 0.20742251 -0.13678679 -0.65320563 0.6461565 -0.040181115 0.39399123 -0.3679682 -0.57000786 0.19473968 0.26391885 0.29293036 0.33017245 0.1609508 0.45061263 -0.13048224 0.3701684 -0.41525832 -0.3108825 -0.12621 0.27056512 -0.27242124 -0.21123216 0.49237213 -0.10325852 -0.2564465 0.5327669 0.33815962 0.44675162 -0.343291 -0.6086042 -0.34152907 0.28657973 0.015021388 0.15804505 -0.069378816 0.11529738 0.27631646 -0.34102494 0.30080763 0.5500325 0.17359121 -0.21805613
30 -0.10408955 0.05263033 -0.586841 -1.0094868 -0.15881482 -0.4781028 -0.4960606 0.083288155 -0.5663545 -0.13942668 0.6124298 0.36209 -0.51257384 -0.59350526 0.17926686 0.04581114 0.22151966 0.060687788 0.2594274 -0.09225708 -0.26092163 0.16378625 -0.2858776 0.42232054 0.044869553 0.51852244 0.044494845 0.26945454 0.05060602 0.025220588 0.7328297 0.6603969 -0.038320053 0.3453454 -0.17412883 0.2259348 -0.15871075 -0.15763922 -0.3641388 -0.13298592 -0.5429523 0.14391595 0.1926518 -0.15932964 0.3398947 0.089118995 -0.8994187 0.5892239 -0.18445554 0.35135287 -0.6899261 -0.046350252 0.6071768 -0.071591265 0.47152007 0.13397364 -0.9639623 0.008399164 0.71538264 -0.70766956 -0.1717329 -0.1834945 0.044000305 -0.48736084
616 -0.05483012 -0.05858804 -0.5523174 -0.21228668 0.30828798 -0.58985347 -0.17156246 0.4070547 -0.17708704 0.38776487 0.43962017 0.24519722 -0.21423359 -0.5726587 0.10840697 0.28591204 -0.02769013 0.031862028 0.1831218 0.2540455 -0.28955474 0.3336266 -0.105846725 0.47991604 -0.030315937 0.3227336 -0.30500215 0.07179627 0.4637648 -0.10728027 0.76010954 0.40220395 -0.036321398 0.30771202 -0.007255583 -0.16428742 -0.5145129 -0.1754038 -0.8681874 -0.11296598 -0.5266956 -0.11426483 -0.032466546 0.1988239 0.13039851 0.035435658 -0.3849177 0.5284748 -0.20840278 0.24757013 -0.44278285 -0.1257121 0.4298104 0.06892502 -0.053006154 0.6570428 -0.7176233 -0.047665585 0.74983275 -0.56273884 -0.3731614 0.30538112 0.17906928 -0.009626121
273 -0.23153056 0.2044366 -0.3215778 -0.7928929 -0.19479786 -0.024202943 -0.3479677 0.096686296 -0.6373062 -0.38031548 0.7196343 0.07498049 -0.9879444 -0.37412912 -0.09461156 -0.40056193 0.17252961 0.06952366 -0.021956246 -0.009439303 0.20969307 0.51103336 -0.3618779 0.46268556 0.42568257 0.42836246 0.023472773 0.07951396 0.447884 -0.18921465 0.45387572 0.41683465 0.23229532 0.009680941 0.009445193 0.9189438 -0.051261876 -0.20520163 -0.40850508 -0.25943142 -0.81695986 0.09200807 0.118724324 -0.027980972 0.24362627 0.5511323 -0.9372111 0.538393 -0.3471241 0.581459 -0.9992997 -0.2121932 0.32233772 -0.103970766 0.25304386 -0.18742074 -0.8646816 0.26868033 0.6276234 -0.6399612 -0.109153695 0.16327964 0.023701217 -0.39826182
652 -0.20340604 0.34988618 -0.3511718 -0.6208902 0.02753345 -0.17334019 -0.64460945 -0.09028217 -0.6422923 -0.58500504 0.39728588 0.2527242 -0.82226455 -0.65878224 0.0264027 -0.29126883 0.14863545 0.15923563 0.3693682 -0.20192762 0.1982288 0.4488019 -0.26909944 0.31923696 0.51934177 0.4506941 0.040157 0.23843497 0.48832107 -0.39326853 0.54375035 0.39658526 -0.1747001 0.3923687 -0.026345992 0.44562688 0.30155817 -0.10977059 -0.6239656 -0.44781643 -0.66639316 0.06049387 0.16276656 -0.5338011 0.43190962 0.693933 -1.0371269 0.63636476 -0.14658737 0.32355103 -0.7148962 0.011587148 0.43205512 0.15680988 0.1862315 0.07628374 -0.8160572 0.020779299 0.9002728 -0.76791304 -0.30890292 -0.0003058441 -0.048343077 -0.74555916
86 -0.17422904 0.37428 0.25464118 -0.284946 0.11669265 0.070022374 -0.17397438 0.12702957 -0.026731504 -0.010111167 -0.20466486 -0.06107863 -0.6245756 0.28101727 0.17376697 0.011453681 0.19902658 -0.21733998 0.038440943 0.38420832 0.06130751 -0.121135175 0.44419897 -0.08221022 -0.02531677 0.2422835 0.37954393 0.5473725 -0.43461618 -0.400017 0.37642318 0.45281726 -0.065206826 0.100286126 -0.05447839 0.20367497 -0.4787814 0.29508263 0.06363166 0.012252955 -0.4186618 0.1759196 -0.027799115 -0.26704788 0.5914527 -0.044845372 -0.16063671 0.67830616 0.1473989 0.073038265 -0.24660385 -0.4834537 -0.51933587 -0.107034184 -0.123583004 0.09003373 -0.3132204 0.31531477 0.33619076 -0.42800823 0.37217477 0.7563519 0.6445509 -0.27949572
415 -0.17141709 0.5174752 0.23093005 -0.36827898 0.04385078 0.35214585 -0.11551317 0.036894582 -0.40916866 -0.33742243 -0.15500689 -0.0971355 -0.82757187 0.4013492 -0.19240938 0.044081688 0.16778149 -0.28278887 -0.23938537 0.79016626 0.33154884 0.14178577 0.5149624 -0.114743546 -0.1227691 0.3158257 -0.03393527 0.11977245 -0.20736863 -0.23494032 0.7997413 0.26751566 -0.14665136 -0.037291553 0.28255484 0.13339949 -0.4039175 0.13612953 0.074256286 -0.2699945 -0.19208162 0.352613 -0.22013743 -0.4321421 0.33716533 -0.010439696 -0.2175029 0.5835002 0.23107672 0.21684039 0.0793391 -0.33381018 -0.2919672 -0.033232857 -0.43083462 0.14012532 -0.33225596 0.13320497 0.36471543 0.15167047 0.50024825 0.7142247 0.75537485 0.038597725
201 0.29654813 0.6642068 0.16177742 -0.55200034 -0.21437 0.6267889 -0.21872364 -0.26309454 -0.56101894 0.8786018 0.03918151 -0.33593145 0.5351657 -0.15766203 0.6903684 0.19431347 -0.11376604 0.56417227 0.15494542 0.10176492 0.49174652 -0.45060334 0.5556199 0.15069818 0.6775475 0.05019325 -0.09281217 0.4587339 0.18777575 -0.5661378 0.427691 0.4121787 0.27107456 0.06534257 0.093363374 -0.31238088 -0.15566646 -0.31987512 -0.41551322 -0.3744331 0.51993144 -0.49834985 0.28656557 0.5316269 0.103454456 -0.10920399 -0.11352896 -0.48523206 0.011088312 0.32230186 -0.08709781 -0.06746063 0.38393423 0.40887967 0.26441985 0.7016471 -0.5307809 0.50359446 0.4846822 -0.09018494 0.26427698 0.3704375 0.08749908 -0.055012587
658 0.21596561 0.43078932 0.15562181 -0.5699823 0.05154862 0.6873936 -0.22404055 -0.40568185 -0.57076734 0.6904942 -0.061272547 -0.01380165 0.6228463 -0.40105924 0.6110227 0.13392873 0.18350747 0.42062446 0.06808072 0.161122 0.52014256 -0.35126978 0.5490957 -0.04965618 0.5303599 -0.029318878 0.10735864 0.5633262 0.28756788 -0.26722446 0.41860044 0.2127765 0.46815696 0.1310103 -0.09208646 -0.14093943 -0.040110584 -0.15360469 -0.59044385 -0.29584074 0.42487463 -0.41670418 0.5202224 0.4681139 0.06347086 -0.09909841 -0.04965439 -0.41146508 -0.08399862 0.24253052 -0.14219679 -0.0278565 0.33588144 0.4562981 0.04221999 0.72137374 -0.5803971 0.26340494 0.5763093 -0.22094093 0.20218243 0.5555408 0.06487163 0.079964094
135 -0.4353289 0.0073828716 0.19713558 -0.7253889 -0.2719427 0.58389515 -0.57705253 0.65671605 -0.76627725 0.060572304 -0.074256994 -0.112976536 -0.26165086 -0.10301934 0.7766366 0.45041123 -0.18863831 0.545711 0.32573974 0.37912983 0.1190171 0.30204323 0.6674553 -0.7542659 0.06124851 -0.14477988 0.151059 0.10962584 -0.49031842 -0.33707452 -0.012589 0.19697306 0.472422 -0.23385063 0.06504945 0.28568402 0.28943214 -0.34390998 0.07578705 -0.54253465 -0.32835102 -0.213695 0.07796249 -0.027704457 -0.1899284 -0.07095732 -0.6665506 0.115933664 -0.2932197 0.2578096 0.13187717 -0.41032162 -0.5372672 0.84640884 -0.10778436 0.23780355 -0.33191958 0.51556516 0.4349155 -0.44431418 -0.008290006 0.3117827 0.14786468 0.096780986
876 -0.32180783 0.108216524 0.16362639 -0.73730785 -0.20934334 0.702215 -0.57266146 0.5618348 -0.66873884 0.054503657 -0.04758318 0.014665484 0.05077363 -0.3761688 0.7587247 0.6355331 -0.4208352 0.60887825 0.2680467 0.32966265 0.07781997 0.017227946 0.38497677 -0.9023967 -0.25395313 -0.17449819 -0.009393006 0.1554653 -0.4164299 -0.34108648 -0.05778984 0.45704845 0.6166898 -0.18243964 -0.17748143 0.37987062 0.2356731 -0.54355794 0.08614254 -0.6400284 -0.2800867 -0.008490715 0.15046197 -0.05829931 -0.43193877 -0.110357895 -0.5826167 0.276118 -0.00030628146 0.38431224 0.4267698 -0.5903276 -0.53538257 0.9717631 -0.3397427 0.30039856 -0.5495905 0.3558277 0.53524953 -0.27363274 0.20076263 0.45359483 0.3086132 0.078158855
68 -0.20392288 0.8654875 0.2171796 -0.6512956 0.12152802 0.5601128 -0.9323898 0.4604384 -0.14373735 -0.35546407 0.5225901 0.23973069 -1.2560374 -0.6789046 0.57810736 0.17667837 0.11132268 -0.014380341 0.30114082 -0.19766936 0.45322496 -0.26622388 0.7602848 -0.15849304 0.5181279 0.08640597 -0.7890208 0.2709417 0.5430936 -0.61092997 0.56916225 0.2968152 -0.22692497 -0.24760069 0.47936773 0.7591265 -0.25858948 0.47129828 -0.31345963 0.51985234 -0.5641794 0.37420085 0.007352794 -0.31283107 -0.15352325 -0.009335681 0.16521206 0.14758171 -0.18528408 0.31469795 0.020809345 0.009434101 -0.5658174 -0.1694288 -0.30531466 -0.4298932 -0.43059623 0.07667074 -0.071292065 -0.47538236 0.08669284 0.89346606 0.49921137 0.02355125
901 -0.07560774 0.9709946 0.048588596 -0.71450156 0.040705 0.374736 -1.0885166 0.31656593 -0.22155014 -0.59141743 0.57459414 0.26028922 -1.3556423 -0.8357066 0.6563254 0.17288405 0.11396073 0.16762403 0.101464376 -0.12774973 0.29917362 -0.2897545 1.0689802 -0.11056205 0.6847068 -0.044793412 -0.7993347 0.21125214 0.7070556 -0.68011487 0.55800194 0.40177834 -0.09361006 -0.24874133 0.5586767 0.8224974 -0.39439553 0.6043691 -0.13296627 0.45958152 -0.5932602 0.46733636 -0.07227677 -0.26099387 -0.113033235 -0.0809444 0.09887642 0.3645932 -0.16976894 0.07272997 0.08943653 -0.121203184 -0.718645 0.028512305 -0.38749185 -0.40223253 -0.31507272 0.13961357 0.24771246 -0.47923917 0.15305398 0.851157 0.49782062 -0.04104554
112 -0.28824762 0.24019904 0.2596386 -0.54119676 -0.20080313 0.28044352 -0.24937472 0.5004931 -0.0682638 -0.1557444 0.16985992 -0.005542336 -0.6769053 -0.2829999 0.026241085 0.19286506 -0.41972956 -0.10307314 0.043868147 0.19197826 0.22515048 0.1244066 0.35006803 -0.11687345 -0.48413482 0.9449021 0.15957454 0.3455423 -0.38874617 -0.36926246 0.24442542 0.14252186 0.21612969 0.0639045 0.17716317 0.6056392 0.05552307 0.377102 -0.26927948 -0.43287352 -0.01270229 0.40707138 -0.10893875 -0.09091541 0.24092121 0.10892657 -0.6772628 0.21522133 0.1335388 0.4633605 -0.42967233 -0.49479327 -0.06193282 0.28914657 0.18694481 0.21547753 -0.10539175 0.15134269 0.44934013 -0.48740527 0.4478989 0.42036915 0.37460804 -0.1417702
416 0.035666496 0.5640984 0.72254354 -0.23716289 -0.30520442 0.12715118 -0.35824487 0.36212912 -0.18437806 0.14669251 0.5160004 -0.085939504 -0.31258896 0.36967734 0.3452384 0.1703852 -0.24816407 -0.5064264 -0.13294959 0.452121 0.17810906 0.1652954 0.015641738 -0.045225274 -0.24509594 0.4049112 0.28320885 1.0379933 -0.27698997 -0.33349207 0.16393767 0.14648871 0.20624742 0.12832077 0.5166219 0.69150627 -0.41602135 0.3940476 -0.1041098 -0.18766877 -0.24387817 0.60628736 0.22184893 -0.20264365 0.064995684 0.17760368 -0.8222329 0.10834778 0.08102294 0.03227795 -0.4248322 -0.24807751 0.3715928 0.18239671 -0.05512726 0.46029446 -0.09260458 0.1021943 0.37498078 -0.21956746 0.19586098 0.48850003 -0.10151814 -0.49034885
719 -0.5644824 0.22099799 -0.3069143 -0.016927341 -0.9150278 0.0035065443 -0.3858141 0.23362234 0.6944809 -0.21636258 0.5799492 -0.29126462 -0.36008364 0.3850913 -0.21346496 0.18434599 -0.77007437 0.23748764 -0.042387053 0.49952856 -0.14390239 -0.30405742 0.7236724 0.20203128 0.21839447 0.29364282 0.08310163 0.5271141 0.50169045 -0.30972826 0.26163986 0.5853773 0.49689746 -0.24895754 0.19987118 0.14102754 0.15391341 0.3076317 -0.7529268 -0.96073437 -0.3498938 -0.4854794 0.09433236 0.2324378 -0.29677424 -0.21687865 -0.15192701 -0.5136001 -0.14750287 0.49639288 0.49840114 -0.33173123 0.34586528 0.08688527 0.048438523 0.1821947 -0.12771074 -0.44930312 0.42773262 -0.05595036 0.92358565 0.42955428 -0.39621487 0.25685704
18 -0.12553002 0.48061723 -0.32802626 -0.66126436 -0.5311154 0.5225372 -0.23986804 0.11483488 -0.08404188 0.11727618 0.51133496 -0.37925762 -0.31184092 0.05065713 0.8055226 0.30947146 -0.5905304 -0.08523406 -0.07143912 0.0043290164 0.2839472 0.15359193 0.31382582 0.1178789 -0.12991524 0.04635162 0.1842879 0.1335994 -0.4294775 -0.23709713 -0.050990637 0.13022788 0.31311974 -0.35339105 0.3679865 0.078332 -0.16931498 -0.5518298 0.0028250436 -1.0046617 -0.53224415 -0.35152638 -0.51792324 0.23340951 -0.36016595 0.2845825 -1.2432766 0.02336973 -0.15426894 -0.46921676 0.42972115 -0.7603938 -0.41501233 1.005108 -0.4688017 0.049597714 -1.0197737 -0.017132808 0.8246061 0.25157365 -0.067968555 0.47179323 -0.033190124 -0.091651745
472 -0.019154334 0.3314845 -0.16733932 -0.5477814 -0.30351338 0.47792476 -0.24542575 0.23255622 -0.0022591176 0.07007305 0.2073981 -0.18920477 -0.4269105 -0.24340712 0.48870018 0.21539998 -0.12999435 0.09227647 0.010968178 0.13474584 0.2590745 0.03420099 0.20626912 0.06313741 -0.15058498 -0.024761643 -0.15325041 0.36600086 -0.59620416 -0.21955608 -0.064740986 0.13660875 0.19780688 -0.29837894 0.5485172 0.13926134 -0.24649268 -0.57801706 0.008135725 -0.60185236 -0.45768988 -0.34163606 -0.27091113 0.4687046 -0.5326543 0.049935266 -1.1966436 -0.0828436 -0.060205296 -0.21539347 0.63923204 -0.677201 -0.3932718 0.82333153 -0.42077735 -0.040597584 -0.947006 -0.28263023 0.66907656 0.25774354 0.21750116 0.4038535 0.11810034 0.052883487
840 -0.22738028 0.03721789 -0.29383102 -0.5039676 -0.08538294 0.39266136 -0.30854642 -0.11631914 -0.26981997 0.5818187 0.3505624 0.14715835 -0.26891568 -0.18869352 0.215903 0.42034695 0.13394792 -0.017416453 -0.08110234 0.3641613 -0.24312915 -0.48134467 0.47878745 -0.3063674 0.1118161 0.2798011 -0.07713536 0.35572147 -0.09379096 -0.34464386 -0.13201132 0.11180817 -0.4521848 0.56980467 0.20843282 0.72204834 -0.21910247 0.37060407 0.17841758 -0.23997128 -0.3799781 -0.34041196 -0.5286794 0.23030697 0.22907615 -0.043616466 0.019004097 0.7193938 0.16389333 -0.28054786 -0.05981697 -0.64053357 -0.74347305 -0.55594593 -0.0575984 0.66573465 -0.11503924 0.4734175 0.21685645 -0.21706213 0.53621244 0.58348095 0.32426727 -0.15597074
191 0.030481385 0.25839528 -0.6223616 -0.6207773 -0.19877125 0.825553 -0.5862767 -0.39188972 0.46032357 0.36753422 0.5250731 -0.37338537 -0.2511599 0.04794879 1.2313366 0.26712748 0.2343159 0.1301804 -0.31167778 0.5176782 -0.0124641815 0.1099111 0.10145571 0.19235848 0.11308796 0.053249404 -0.57453257 0.04114574 -0.313046 -0.39323434 0.12225845 0.14772016 0.024845732 0.103155434 0.36575142 0.44011784 0.0002069746 -0.289113 -0.75424755 -0.25392994 -0.84821355 -0.57934195 -0.52736866 0.2950531 0.07752045 0.23700617 -0.97107214 0.32884476 -0.51875395 -0.031093102 0.48170787 -1.2751727 -0.08977993 -0.02022635 -0.35012287 0.5198603 -0.17561992 1.007055 0.31928292 0.081712425 -0.096104495 0.5140531 0.6623275 -0.33111516
332 0.27080172 0.25795692 -0.80623406 -0.72230816 -0.0671374 0.72701854 -0.5513276 -0.4473759 0.25387087 0.41725862 0.4682918 -0.22788166 -0.14719416 0.3106478 1.1673089 0.27078742 0.2386069 0.025829215 -0.141221 0.41440967 -0.068892404 -0.07825848 0.31944153 -0.03342392 -0.20126523 -0.2041366 -0.417185 -0.012665688 -0.2555649 -0.56256 0.060501847 0.018842332 0.095669754 0.09879184 0.4471312 0.36211064 0.21058485 -0.45780542 -0.59573 -0.08191665 -0.59316635 -0.5355393 -0.37453786 0.0008190387 -0.2006343 0.2753145 -1.1555619 0.34078622 -0.46103102 -0.15058218 0.2843326 -0.99503934 0.0582911 -0.13553011 -0.49810877 0.5138984 -0.18051426 0.8861514 0.28437412 -0.36282447 0.0950847 0.5405529 0.6827532 -0.3731905
130 -0.0146053415 0.00037548944 -0.3247557 -0.062332876 0.15864632 0.29924864 -0.48144794 0.06342455 -0.32102814 0.5563414 0.3939313 0.32720897 -0.07909145 -0.6284887 -0.031856917 0.23044899 0.04383544 0.043208618 0.023140293 -0.20688818 -0.2203287 0.2717614 0.2601352 -0.05349484 -0.1492525 0.28818592 0.19017608 0.81560063 -0.08233622 -0.86466825 0.663527 0.7197998 -0.40012825 0.10018256 -0.32638085 0.47270158 -0.7231451 -0.11304057 -0.47578606 -0.08159468 0.32480028 0.030124696 -0.16407613 0.09957065 0.14071871 -0.12003212 -0.19011953 0.42486918 -0.121980906 -0.20249075 0.13558896 -0.57429904 0.6398743 -0.5290439 -0.42980894 0.7948303 -0.5594732 0.14329186 -0.021804117 -0.07204642 -0.123660676 0.7768242 -0.42522588 -0.33733305
756 0.19753157 0.18167603 -0.28697145 -0.13905706 0.55979115 0.021654777 -0.042629868 0.051072195 -0.29099786 0.56800026 0.44985747 -0.00914437 -0.08419593 -0.3043775 0.028596712 -0.046103593 -0.10859444 0.22015195 -0.07113146 0.048939772 -0.12146541 0.39372614 0.1825231 -0.030141147 0.11038847 0.089432135 0.08130586 0.78702694 -0.16650306 -0.2942666 0.66504055 0.7355869 -0.39484468 0.094734125 -0.19936274 0.29648677 -0.42828527 -0.09125626 -0.45550022 -0.10791683 -0.016536018 0.04491309 -0.13270599 -0.021609284 0.010212275 0.049343787 0.007886113 0.39638767 -0.32142144 -0.20232931 0.11770373 -0.12537344 0.4892151 -0.29238197 -0.4052983 0.9199411 -0.64648104 0.06275228 0.21077494 -0.2624063 -0.094963655 0.70674634 -0.07044731 -0.08310126
307 -0.104454376 0.7256407 0.07624923 -0.27997345 0.14018555 0.47927836 -0.037758853 0.04613856 -0.48329768 -0.392552 -0.073281445 -0.05157494 -0.74141943 0.30263394 -0.067745134 0.10044595 0.33765787 -0.513153 -0.4989932 0.49622303 0.10819791 -0.16643776 0.30209166 -0.13970074 -0.2949701 0.15726529 -0.10141155 0.27926582 -0.24656452 -0.26720572 0.8131566 0.50234556 -0.103445865 -0.10607504 0.40439326 0.13961947 -0.018401481 -0.42237243 -0.044843655 -0.4031674 0.062376052 0.044454265 -0.043538004 -0.58597344 0.112813726 -0.19359322 -0.7015862 0.7691764 0.41840583 0.19909284 -0.016173007 -0.13328126 -0.22348168 0.030448817 -0.686256 0.11326199 -0.36376312 0.058929898 0.65245396 0.39381108 0.5990565 0.54206985 0.57165766 0.34726858
456 -0.5696572 0.8517793 0.02042449 -0.19166595 -0.3455953 0.14716701 -0.495539 -0.12845536 -0.56672686 -0.40738553 0.10776297 0.025085134 -0.5429892 0.43605033 -0.074951015 0.32026508 -0.13259883 -0.35134667 -0.36102343 0.7743185 0.15778416 -0.07677138 0.4723904 -0.075360484 -0.14230993 -0.039693467 -0.40085596 -0.18985672 -0.24443892 -0.45671925 0.3623814 0.23029786 -0.13994622 -0.32083553 -0.0010159964 -0.08403633 -0.2526432 -0.48233306 0.362057 -0.5269027 0.13006315 -0.3496697 -0.63018996 -0.26939693 0.04500308 -0.2611547 -0.9303172 0.8320037 0.3305395 -0.039091878 -0.19135027 -0.34103584 0.38670886 0.17853141 -0.50003594 0.2657293 -0.34688765 -0.57259655 0.8941709 0.40791664 0.46623957 0.6838929 0.1687328 0.56604815
537 -0.08708868 0.4263592 -0.39647356 -0.08569486 -0.37418503 0.44561276 0.024401806 0.35255605 -0.3334412 -0.17144775 -0.07828673 0.010579395 -0.50119597 0.052701827 0.15472484 -0.07183609 0.20518935 -0.6124056 -0.027199725 0.35255358 0.041140277 0.09787492 0.5295628 -0.45773822 -0.112554856 0.40445423 0.083342396 0.25449684 -0.2218894 -0.16134472 0.35135508 0.46341673 -0.059945337 0.40815634 0.21631777 0.24517792 -0.32802984 0.006412984 0.18077375 -0.25169885 -0.31203824 0.2098552 0.20161557 -0.4186385 0.09303766 -0.049064435 -0.32238144 0.2145632 -0.025247335 0.12575667 -0.064590305 -0.52544785 -0.5282222 -0.1750164 -0.06742779 -0.21541633 -0.20426795 0.085047685 0.15973867 -0.5477378 0.4146454 0.7511356 0.43934384 -0.17585637
83 0.1577553 0.8346343 -0.40506786 0.012323671 -0.08459359 0.02634566 -0.5841765 -0.296515 -0.8439787 -0.49057794 0.1223951 -0.039489478 -0.707936 -0.07045185 -0.036840215 0.17665426 -0.31467646 -0.4834421 -0.6935221 0.26681322 0.11036466 0.19143169 0.39144328 -0.49732754 -0.21166155 0.70300025 0.1642198 0.7137002 0.017708918 0.27648684 0.34992716 1.2628541 0.13208479 0.66880983 0.24356835 -0.37791654 -0.36621857 -0.4624671 -0.1979299 0.04956571 -0.2746407 -0.22495496 -0.7039734 -0.8262266 -0.42581737 0.67971545 -0.9747729 0.356335 0.3864049 -0.11714831 0.07730627 -0.2133085 -0.045456786 0.5620196 -0.56082225 -0.027372805 -0.33601555 -0.0656138 0.89179003 0.14263752 0.15076786 0.5893081 0.3457558 0.41237536
439 0.13496566 1.0038935 -0.3987984 0.055999357 -0.08160499 0.10617155 -0.5730052 -0.24569741 -0.8720211 -0.5355985 0.26639163 -0.024160676 -0.72245795 -0.17215961 -0.2376771 0.09403556 -0.3472489 -0.21899423 -0.78298354 0.46288884 0.27198607 0.11920767 0.43541405 -0.47720495 -0.18540281 0.8793938 0.27821314 0.6838829 -0.10520238 0.32158926 0.45375964 1.177593 0.1568652 0.8475357 0.1536025 -0.36522305 -0.31650752 -0.38528895 -0.22401644 -0.13458492 -0.31877765 -0.3195072 -0.71088785 -0.7795033 -0.39988592 0.81918985 -1.1998887 0.19875 0.38436508 0.07784102 0.051934216 -0.042844232 -0.24324939 0.4163167 -0.54411626 0.015669758 -0.2564746 0.078968205 0.9728772 -0.072302505 0.110336125 0.6141424 0.28886566 0.40235177
37 0.08213214 -0.17715986 -0.31436753 -0.17360897 0.2535465 0.08169148 0.09633294 -0.19972503 0.153795 0.25061557 0.42776123 0.33254912 -0.3095658 -0.6496465 -0.06276941 0.17886613 0.24990205 0.8878306 0.08761332 0.57954544 -0.32877985 -0.0893471 0.8015963 0.27787378 0.70023155 0.558644 -0.116504155 0.2875982 -0.19351567 -0.4073876 0.45414272 0.68642294 -0.5315024 0.27907953 1.1341268 0.18072663 0.13177902 -0.27501696 -1.0955534 -0.19327174 -0.7467508 0.20746924 0.28573477 -0.37698743 -0.3984814 -0.40475473 0.14171362 0.7038122 -0.46970633 0.14619333 0.3147059 0.12862831 1.5009233 0.35069078 -0.74990165 0.21919979 -0.57575184 0.2566069 0.9618461 -0.15212299 0.06533293 1.1429371 -0.027236963 -0.09573983
797 -0.12639193 0.018394275 -0.15687928 -0.26968294 0.091165595 0.08817981 -0.108684674 -0.28502735 0.22614814 0.23442218 0.46672723 0.004884637 -0.20544046 -0.63745147 0.0926536 0.36781517 0.12444361 0.7633589 -0.051085074 0.5246859 -0.41273895 -0.035708036 0.9403533 0.10538103 0.6250813 0.4712711 -0.09203351 0.32997903 -0.40448847 -0.29709196 0.47424135 0.57586694 -0.66872615 0.22117119 0.9274683 0.04113672 0.07563242 -0.3099273 -1.2072903 -0.20912243 -0.8572755 0.25098202 0.38571376 -0.031631 -0.19906284 -0.34241456 0.40700734 0.86830705 -0.681232 0.35150394 0.27430993 0.04248296 1.7433192 0.17297217 -0.5680674 0.08197724 -0.5620043 0.34781632 0.9260617 -0.23735286 0.14739048 1.0098765 -0.08677923 0.150189
262 0.06416485 0.49610364 0.27512017 -0.5871877 -0.17913166 0.19248891 -0.05142196 -0.16981097 -0.7498229 0.32360485 0.46981135 -0.6671582 -0.6477316 -0.32614684 0.44614452 0.3245393 0.13760151 0.3571235 -0.121273376 0.018054718 -0.47996855 0.18507235 0.573014 -0.2913717 0.5950948 -0.012311563 -0.007459287 0.14932743 -0.32864097 -0.966078 0.60632396 -0.36543378 0.8450494 0.12654169 -0.055486277 0.108568124 -0.06224521 -0.63777477 -0.27685404 -1.0181487 -0.36365193 -0.1754742 0.05890468 0.27949548 0.36526257 -0.063794084 -0.042814318 -0.4239671 -0.14871375 0.16847315 -0.12799767 -0.15915558 0.11240652 0.33518282 0.27037254 0.46527055 0.052982416 0.09563478 -0.018988483 0.14957678 -0.30698693 1.2066133 0.7526055 0.1960063
835 0.3232181 0.24167752 0.12129475 -0.62053746 -0.19448833 0.44375277 -0.11085267 -0.31480783 -0.6482391 0.5993844 0.5772517 -0.8235569 -0.44754693 -0.6267686 0.3985317 0.28443158 0.11993245 0.2362132 -0.14649329 -0.17650029 -0.25647983 0.16461678 0.55994034 -0.15363291 0.6125772 0.064244844 -0.22427255 0.021016411 -0.14299525 -1.0553402 0.24050702 -0.3003683 0.82994485 0.29249302 0.2879692 0.20446469 0.04356718 -0.5413265 -0.29822928 -0.6727853 -0.11774003 -0.06510249 0.35003415 0.4966078 0.18706067 -0.41570053 -0.13295023 -0.33232355 -0.0017315671 0.24975705 0.054066304 -0.26631132 -0.0060417163 0.6241292 0.29782003 0.61771697 -0.08342583 0.41901985 0.2655101 -0.10319541 0.06947458 1.1881225 0.46213925 0.031659003
181 -0.2994113 0.5062607 -0.14072241 -0.24849136 -0.8891621 0.01360891 -0.0297651 -0.14482585 0.36540234 -0.050153174 0.26360938 -0.11109995 -0.3098927 -0.20484824 -0.24021012 0.39517936 -0.33494195 0.19290215 0.11705769 0.25559518 -0.04720153 -0.78513414 0.32905173 -0.23658934 0.006338018 -0.5509812 0.058505435 0.37907696 0.1652789 0.09578 0.1497514 0.45198408 0.15239796 -0.084811546 0.22868054 0.014800509 -0.32396215 -0.32667542 -0.76711774 -0.7062446 0.0824526 0.11769349 0.0463656 -0.47389647 0.14678209 0.15098488 -0.1890189 -0.2183873 -0.01660089 0.4572219 0.11713681 -0.08242645 -0.19409166 -0.04572698 0.46867314 0.46991372 -0.054474726 -0.5329084 0.42142084 -0.20711571 0.46810463 0.5845081 -0.27182576 0.029155664
861 -0.15988894 0.4767362 -0.45332605 -0.2747776 -0.9959379 0.12865616 -0.27874196 -0.28527176 0.54822 0.026205614 0.46840978 -0.16559027 -0.2525836 0.06410034 0.06245331 0.18266506 -0.40815976 0.010155745 -0.08751674 0.47489932 0.061556596 -0.43638235 0.32647026 -0.22386256 0.12943168 -0.3688955 0.17768909 0.14579655 0.16992874 0.07796697 -0.13553165 0.6538586 0.67418516 0.08376667 -0.092871994 0.15025349 -0.24429365 0.27867073 -0.80695 -0.88374686 -0.18153417 0.11045338 -0.28653198 -0.46695873 -0.41256297 0.1323734 -0.085698545 -0.4096003 -0.13820405 0.43728912 0.057335604 0.12569593 0.028540766 0.1088765 0.25549546 -0.019174151 -0.19674538 -0.46644855 0.6935595 -0.18135303 0.17233334 0.6120293 -0.18931854 0.24839732
338 0.19166453 0.6437602 -0.43836358 -0.13363346 0.14520323 -0.32349873 -0.17486092 0.17579432 -0.18650575 0.44154543 0.30885187 -0.043049917 -0.009876099 0.04572768 -0.09124145 0.03740102 0.23439041 0.19588017 0.106883526 -0.14882176 -0.47909102 -0.20053524 0.1438357 -0.045043044 0.13554934 0.28560218 -0.28497007 0.6101784 -0.22059554 -0.28043538 0.5101899 0.682814 -0.31633818 0.33766884 0.09747611 0.00093333144 -0.070336245 -0.0912933 -0.4283817 0.11437775 -0.058737036 -0.17992939 -0.09601302 0.18679868 -0.023206042 -0.07174293 -0.3390119 0.3223209 -0.42376173 -0.26466566 0.2830342 0.15648513 0.3158237 0.019785766 -0.036571503 0.72184765 -0.4332839 0.11539605 0.49845073 -0.5291007 -0.17970406 0.6998623 -0.15772216 0.05943222
15 -0.43997365 0.21093401 -0.55801535 -0.21531454 -0.6277902 -0.12271602 -0.5032112 -0.053663068 0.83243346 -0.5078103 0.45688683 -0.3242841 -0.55763507 -0.012413919 0.498415 0.19267622 0.13487388 0.15155843 0.15683964 0.021242583 0.7361305 -0.36594748 0.5517558 -0.2743329 0.8281735 -0.3128337 0.2651803 0.4082157 0.48441467 -0.3266139 0.16712314 0.8624669 0.17456938 -0.13100107 0.06324885 0.3561213 0.35660017 0.13571092 -0.852043 -0.45421168 -0.3302073 -0.16483729 -0.19685829 -0.6877799 0.030176785 0.12010088 0.011435322 -0.2253916 0.12904756 0.6725958 -0.017960764 -0.15490961 0.20864984 -0.03715091 0.64056677 0.13229966 0.06047072 -0.1520321 0.39850327 -0.055446163 0.4230563 0.429099 -0.25242844 0.4411796
372 -0.5664383 0.34725162 -0.430907 -0.34036875 -0.3853518 0.3537495 -0.80475473 0.26095256 0.59882015 -0.096295804 0.40733108 -0.05559026 -0.5538091 0.033254888 0.16315544 0.18848713 0.36885738 -0.058141697 0.07793386 -0.0010857945 0.8611172 -0.3056839 0.49430162 0.22006011 0.6786307 -0.4176501 -0.61427623 0.06866706 0.86455894 -0.20612787 0.060897708 0.94302416 0.19232982 -0.59705395 -0.06939566 0.6270502 0.25016356 0.29832786 -0.66912365 0.019650541 -0.580935 -0.00914263 -0.12494019 -0.46843833 0.1851037 0.108778566 -0.2135095 -0.049298108 -0.057909846 0.15655239 -0.13464148 -0.15437366 0.21665844 0.06825132 0.44397363 -0.10617186 0.099817604 -0.33587632 0.088482834 -0.13057116 0.17854296 0.6545155 0.033180065 0.63311774
168 0.2139014 0.13392678 0.34038407 -0.63318527 -0.43080568 -0.22293986 -0.0016571343 0.47049835 0.24788882 -0.7861041 -0.06728749 -0.81112874 -0.27799308 -0.44991565 -0.13033098 0.85937136 -0.5297841 0.52138937 -0.8037247 1.141705 -0.2120848 -0.94033563 0.30899146 0.08016034 0.34641942 -0.4938665 0.09907213 0.17399971 0.8188663 -0.47583535 0.22275563 0.46441814 0.46020037 0.69761664 0.63266635 0.25491408 -0.22592744 -0.35880324 0.10472842 -0.6218683 -0.041428547 -0.1346392 -0.054302882 -0.3125217 -0.88935333 0.4608446 0.1638263 0.2812125 0.31868818 0.9361667 -0.34258354 -1.0681974 0.05038295 0.24014015 -0.38327006 0.6187661 -0.41543207 -0.1895465 1.0085405 -0.71979964 0.16029301 1.3410507 0.40238705 0.1921484
379 0.31147337 0.33356786 0.43616617 -0.60794735 -0.30449513 -0.14566292 0.094149604 0.44738835 0.33941302 -0.8606255 -0.0022391677 -0.9705559 -0.18748291 -0.52003086 -0.20500195 0.81711787 -0.50205815 0.41368976 -0.6081968 0.9421456 -0.1700409 -1.1155933 0.2003682 0.023407273 0.15755743 -0.49720183 0.107507296 0.27818385 0.6915502 -0.5449551 0.2847362 0.22056937 0.27727926 0.56784886 0.6375986 0.50476843 -0.17386664 -0.40189463 0.11158047 -0.69016165 -0.03913001 -0.024135062 0.08513225 -0.26138276 -0.6185583 0.07232378 -0.0071479036 0.3212956 0.15411213 0.7465564 -0.3077238 -1.0501438 -0.043619648 0.2338308 -0.47709394 0.79043627 -0.5755735 -0.1429773 0.91174674 -0.50016534 0.34728533 1.1004225 0.13784742 0.12908383
82 0.37489355 -0.11249325 -0.39723366 0.06788727 0.2967978 -0.0196906 -0.070882805 0.03467372 0.18160638 0.305607 0.22810398 0.3006612 0.2170401 -0.2923016 0.11682117 0.28237993 0.09660955 0.08071041 0.18199356 0.4055477 -0.38880754 0.2531816 0.2282544 0.7075679 0.24593705 0.30737737 -0.36016193 0.7963396 0.14373504 -0.34280047 0.4546471 0.5280861 -0.0216013 0.3674423 0.1786994 -0.2689976 -0.38418707 -0.1970371 -0.7376542 0.06400895 -0.54449385 -0.021010919 -0.09893871 0.2485873 -0.39505193 0.03133852 -0.42730403 0.6094477 -0.30954465 0.36015594 -0.10678535 -0.35101566 0.3850251 0.23114401 0.17764637 0.6812736 -0.55291545 0.052033786 0.8757788 -0.29004592 -0.35146853 0.4217601 0.24942271 -0.20121153
329 0.6484458 -0.109899186 -0.5602533 0.066877194 0.19949366 -0.12791015 -0.21691942 0.14538905 0.36683717 0.52456534 0.46154258 0.3436496 0.022982806 -0.12783109 0.43772194 0.43153584 0.011903509 0.4109064 0.26684877 0.50737697 -0.31673574 0.28661382 0.29909903 0.69358474 0.41260052 0.42338258 -0.6139236 0.5358324 -0.05758252 -0.32101354 0.4751417 0.45187864 0.30148044 0.40824616 0.31857336 -0.5212243 -0.36982206 0.05125805 -1.3358151 0.16217217 -0.84595644 -0.18210247 -0.2530853 -0.04416417 -0.5083032 0.222369 -0.77092135 0.46098045 0.018748943 0.63618827 0.22447777 -0.60015833 0.5971264 -0.11572869 -0.39752853 0.9079685 -0.62356484 0.44242787 0.79580253 -0.21898736 -0.3081799 0.4166865 0.4395472 -0.41139752
546 -0.2477079 0.42676568 -0.1498208 -0.40467897 0.8539048 0.33829817 -0.5698195 -0.18831442 -0.20277654 0.33783022 -0.18984154 -0.16467015 -0.4087251 0.17299503 0.027298745 0.11770839 -0.04122908 -0.060695004 0.44060814 -0.4392605 0.12530309 -0.22417477 0.19280554 -0.03009728 0.08973059 0.10578737 -0.24273324 0.08159794 -0.031554308 -0.4876123 0.5977731 0.54769266 -0.2687753 0.018855 -0.27616084 0.2999962 -0.12458208 0.04995779 0.5131081 -0.13708481 -0.8814973 0.33449286 0.12009835 0.0066987863 0.1960117 -0.20780322 -0.411902 0.41527718 -0.048930883 0.08663314 -0.14968696 -0.27832538 0.42497256 0.48031035 0.022322597 0.3607118 -0.22305326 0.4980183 0.066395216 -0.32610384 -0.5894199 0.88655454 0.080029316 0.1971483
352 -0.4173122 0.45557413 -0.05271428 -0.39754343 0.004305589 0.57625866 -0.100492015 0.6082861 -0.021835068 -0.26524386 0.6730554 -0.72940844 -0.5845606 0.39972568 0.046253793 0.04074643 0.5787543 -0.446785 -0.15632492 0.26103315 0.45138815 0.30179855 0.43713155 -0.078056574 -0.37194005 0.7162604 -0.018780053 0.5239682 0.05524332 -0.48713297 -0.04494776 0.16903111 0.044976246 -0.118199594 -0.14042218 0.21917379 -0.78940374 -0.17240213 0.19290324 -0.48210222 -0.31806812 0.020430386 0.34024325 -0.39059946 0.2908535 -0.047684982 -0.33450675 0.30143002 -0.059857298 0.035204105 -0.3466077 -0.57757807 -0.12332334 0.36489278 0.009286145 -0.2656283 0.029435089 -0.069527626 0.2716423 -0.11240588 0.10641316 0.54246444 0.0017433892 0.06287331
72 -0.2779518 -0.29881042 -0.8625222 -0.5478706 0.035306394 -0.6066531 -0.3736769 0.4418646 -0.20345862 -0.032244693 1.1076875 -0.10732729 -0.5945128 -0.6042688 -0.56116873 -0.343421 -0.2993607 0.06107505 0.30472293 0.7829028 -0.12778993 0.6992161 -0.43777105 0.037856463 0.699462 0.54922277 -0.26911995 0.05411695 0.5998705 -0.698569 0.6250931 0.656296 0.71697754 -0.027043367 0.044672534 0.23485158 0.5377835 -0.8288071 -0.9334861 -0.20958537 -0.6184694 -0.18456769 0.15711242 0.10691796 1.091432 0.6081081 -0.78656477 0.7323275 -0.11167498 0.7506158 -0.7445946 -0.1352205 0.81581604 -0.054061584 -0.26159713 0.44334203 -0.772307 0.1654859 0.8302128 -0.46338525 0.033128045 0.41345012 0.102605626 -0.29558492
857 -0.42169234 -0.2780169 -1.0219934 -0.48217684 -0.033474285 -0.49594128 -0.4326969 1.0197358 -0.025039203 -0.19305764 0.97053325 -0.18289082 -0.4722338 -0.48372555 -0.46513012 -0.5601067 -0.39575812 0.1371945 0.5053078 1.0780678 0.1609477 0.6781886 -0.16430661 0.10842543 0.95676154 0.5223384 -0.57609284 -0.070309706 0.6976507 -0.81730133 0.49340767 0.63083357 0.47391978 -0.10335638 -0.007497342 0.3225301 0.9504039 -0.82612854 -1.1014198 -0.64585227 -0.6175396 -0.2515437 0.48977226 0.31767836 0.7051936 0.60047776 -0.7386148 0.93921626 -0.33973518 0.7438405 -0.7357982 -0.35928077 0.81441903 -0.34738436 -0.33896494 0.044531636 -0.94387376 0.30504096 1.041231 -0.4875872 0.05998216 0.6808336 0.50130504 -0.27740225
341 0.23126969 0.6166949 -0.39755845 0.2612987 0.16871178 0.07764073 -0.46772066 0.7133939 -0.1842287 -0.2998231 -0.18485613 -0.4707212 0.24907833 -0.028145054 0.16673839 0.030733453 -0.35225725 -0.1976068 -0.112187356 0.149426 -0.23343806 -0.19834946 0.33030212 -0.30052617 0.27611718 0.15282166 -0.20990323 0.5218501 -0.13647954 0.3915566 0.029176164 0.36325288 -0.38312188 0.31810114 -0.03407471 0.25151297 0.078316644 -0.17973527 -0.64118195 -0.6762243 -0.09387815 -0.37817934 0.12304083 -0.2975987 0.039156023 -0.3544665 -0.48060796 -0.033974566 0.07427394 0.72059596 -0.5301124 -0.809556 0.27577132 -0.47418478 -0.18515094 0.102515794 -0.556967 -0.40691507 0.5419935 0.12733501 0.56956846 0.9483396 -0.5790751 0.36079407
116 -0.4670433 0.15909642 -0.49579775 -0.15479319 -0.3467012 -0.24625814 0.496446 -0.28556874 0.3964179 -0.5319156 0.36667812 -0.18212973 -0.18992251 0.3029863 0.17639352 0.22021 -0.9152827 0.32870907 -0.13295615 0.76303387 0.033517282 -0.23243302 0.71156555 -0.42553598 0.9289762 0.0012808148 -0.7834596 0.36663103 0.2646919 -0.66601145 0.7837066 0.67545265 0.49578753 0.38237193 -0.04282775 -0.329653 0.12997453 0.3316941 -1.1205581 -0.9199999 0.058440223 0.23135954 -0.3683307 -0.30078673 -0.44433615 0.20532982 -0.646435 0.34079534 -0.20659177 0.56351113 0.180974 -0.24200837 0.17837583 -0.054493852 0.23441358 -0.11306078 -0.48988205 0.12766519 0.49875405 0.4977376 0.31485865 0.27763903 -0.81911105 -0.5107063
239 0.397411 0.68790954 -0.5490498 0.3296514 0.058953457 -0.20815085 -0.4969024 -0.1395719 -0.17521894 0.0011897113 0.20827818 -0.13784854 -0.29084897 -0.5632445 -0.05782164 -0.058684103 0.11551334 0.51280546 0.41690955 -0.3775236 0.32010546 0.49009794 0.34086543 0.03619055 0.23635392 0.6850047 -0.22099215 0.2311019 -0.17506745 -0.74135005 1.1406022 0.6349224 -0.6520296 0.63686085 0.03552121 0.16378516 0.15322432 0.015127411 -0.1848617 -0.65958995 -0.027342368 -0.1696587 -0.042584457 -0.17768314 0.12596388 0.94740766 -0.66314524 0.6709612 -0.5761385 -0.22285642 -0.09953018 0.01816426 -0.032797255 0.1760769 -0.4965787 0.80211043 -0.6638424 0.43014365 1.2118429 -0.48301414 -0.38004723 0.3468701 -0.13374846 0.3348635
601 0.29361552 0.7013882 -0.40723124 0.38679132 0.2453566 -0.23599039 -0.117668375 0.19087997 -0.30825987 0.04514966 0.0038598538 -0.18393706 -0.11105025 -0.2583286 0.12895778 -0.1672452 -0.22919384 0.4259973 0.3545063 -0.40941814 0.08985772 0.17318098 0.55033636 0.20798828 0.36247444 -0.018762149 -0.11101629 0.56190884 -0.1893972 -0.6903563 0.930095 0.52324545 -0.62664604 0.51182157 0.25560147 0.099510215 -0.040849235 -0.097314164 -0.0069562984 -0.42160904 -0.21470527 -0.23850268 -0.04934331 -0.103183545 0.03346851 0.76589835 -0.4415958 0.2654049 -0.37960243 -0.28336033 -0.058202114 -0.14715384 0.5078186 0.42297938 -0.37552714 0.6365105 -0.43396598 0.51441836 0.85627526 -0.54127073 -0.3984343 0.5787725 0.06449542 0.1664531
69 -0.73697907 0.26798368 0.3012161 -0.13228083 0.09022816 0.16346863 -0.78215027 0.05937722 -0.29305848 0.055017985 -0.10018504 -0.038395163 -1.1821879 0.53448313 0.23711668 0.023976006 0.18838052 0.13595489 0.6029392 -0.2736437 0.43092754 -0.21282764 0.6750395 -0.35266486 0.31363457 0.46314517 -0.52464336 0.21101962 -0.33828512 -0.5369883 -0.066505335 0.8589572 0.005888663 0.0068357205 -0.004089509 0.09019311 0.0029747104 -0.25596142 0.40867496 -0.09906386 -0.15418734 0.16735744 0.1868167 0.4361385 0.46661133 0.23037423 -0.15207812 0.89746326 0.40133762 -0.17436785 0.010107473 -0.5115359 0.51925105 0.19462636 0.10726009 0.00796658 -0.54552585 -0.35225368 0.36572662 -0.4961871 -0.15883063 0.755838 0.27817464 0.20059238
892 -0.6246889 0.31148732 0.33168942 -0.43889654 -0.21837533 -0.17490104 -0.6245544 0.12023055 -0.40055034 0.046472054 0.13343716 -0.3028645 -1.306822 0.4852757 0.051189642 -0.027722042 0.024157234 0.17199203 0.2923093 0.23460466 0.15094258 0.1054333 1.1218642 -0.47326905 0.15479626 0.03929092 -0.34437543 0.058855128 -0.09957169 -0.61853355 -0.07485552 0.5621534 -0.0043295813 -0.15901662 -0.051766403 -0.40942645 0.16348675 -0.2886764 0.32491368 -0.07937748 -0.24929655 0.041940544 -0.17746922 0.09565698 0.8551141 -0.073331006 -0.67383444 0.8147032 0.5285802 -0.46952692 -0.23418401 -0.12898421 0.752956 0.340471 -0.37408465 0.29499978 -0.76427466 -0.7402711 0.9202494 -0.1413576 0.15468194 0.9163285 0.6289863 0.7194532
261 0.0826908 0.007296113 -0.38624597 -0.55107796 -0.12800927 0.31878954 -0.049069252 -0.18032588 0.025915226 0.25230914 0.42411432 0.064243 -0.09630682 0.14300145 -0.0719684 0.09862406 -0.045528952 0.28883752 -0.12979855 0.09591752 -0.26400757 -0.0045821704 0.19521008 -0.0625122 0.26280648 0.44052595 0.092583716 0.10852294 -0.3068867 -0.5360479 0.38253748 0.59135854 -0.55946636 0.3390807 0.066778585 0.045709454 -0.4766925 0.46635586 -0.0008521329 -0.38202208 -0.21501204 -0.40451583 -0.5887965 0.3173016 0.16860364 -0.038987078 0.4318276 0.7378227 0.09845615 -0.36510542 -0.31567982 -0.91253644 -0.51721317 -0.41364735 -0.05166039 0.9923935 -0.044380743 0.4308507 0.22349562 -0.31135085 0.16889617 0.39756158 0.095083 0.11236998
31 0.2904695 0.29876927 -0.070701055 -0.33496958 -0.06698167 0.63543475 -0.5278662 0.2039689 0.28567532 0.2942411 0.14882144 -0.5484226 -0.44697124 0.13193762 0.8211253 0.6144959 0.29837316 0.28683904 -0.15789175 0.5940771 0.00037826822 -0.0039627193 0.17855148 -0.3108056 0.37864113 -0.19317459 -0.7618488 -0.17532685 -0.18937732 -0.7368463 -0.07374731 0.26328626 0.7847098 0.03545237 0.2041017 0.58084005 0.0365705 -0.62030905 -0.47875234 -0.21199737 -0.38417602 -0.62970966 -0.38444555 0.017828709 0.17186159 0.018602794 -0.71753764 0.34106147 -0.062200185 0.18251209 0.44141626 -0.32142636 0.1564333 0.20269948 0.06355138 0.39555174 -0.23813753 1.12661 0.17175359 -0.29058942 0.35707533 0.5944564 0.85429245 0.36349687
464 0.19777891 0.35979384 0.14120595 -0.29049432 -0.12845136 0.5567137 -0.23998216 0.11483986 0.19235678 -0.01678872 -0.12629066 -0.4190994 -0.29302877 -0.06735504 0.67084837 0.19718137 0.3495387 0.15810089 -0.119192794 0.15878832 -0.17962033 0.002302659 0.02025312 -0.112871855 0.020755434 -0.15260251 -0.85653937 0.015308725 -0.4539521 -0.70575714 0.1617504 0.6165699 0.5134924 -0.18417706 -0.062265083 0.9503252 0.32743558 -0.30616137 -0.3385572 -0.41715735 -0.26978916 -0.29846784 -0.15559791 -0.1609957 0.66260666 0.07663602 -0.39577484 0.40430883 -0.032977086 0.23386648 0.45496175 -0.27606156 0.24419923 0.52006763 0.32040572 0.42154017 -0.39071405 1.1037254 0.36682913 -0.5197609 0.1504758 0.8595495 0.8556663 0.34534448
425 0.015672563 -0.115129285 -0.49826384 -0.052508 0.39530018 0.054938924 -0.5092759 0.2984349 -0.5329011 0.43031424 0.2655724 0.04093434 -0.39782313 -0.21922912 -0.14171652 -0.2877677 0.2545033 0.6283149 0.0025936244 -0.35091975 -0.49607396 0.31254765 0.06842458 0.034612015 0.25014186 0.16407558 0.24282002 0.45481694 0.052227378 -0.442385 0.9229592 0.6108569 -0.18026856 0.060063742 -0.30581847 0.6616853 -0.5869085 -0.12884179 -0.34829426 -0.07599536 -0.33732894 0.3904908 -0.14959362 0.16443665 0.20917542 -0.015258588 -0.28875867 0.26239026 -0.34752265 -0.30519664 0.045486186 -0.49660692 0.6789754 -0.064202234 -0.35492092 0.7352696 -0.46103552 0.19889845 0.31010678 -0.001611752 0.08012559 0.81964713 -0.24974497 0.046052255
19 -0.35157326 0.5539916 -0.24705483 0.011884552 -0.27798155 -0.0784746 -0.005077751 -0.12544125 0.6543724 -0.16566923 0.36597416 -0.19607544 -0.2862802 0.020019194 -0.16518326 0.6692558 -0.329959 0.2865377 -0.701584 0.30521786 0.03625716 -0.54355025 0.75864714 -0.3138717 0.29741767 0.295707 -0.016178107 -0.2492867 0.09011335 -0.78350085 0.417362 0.69686294 0.4102162 -0.0053584143 -0.06321144 -0.27081326 0.5246256 0.44751707 -0.9272368 -1.2557548 -0.4818072 0.5545095 0.023951152 0.021495676 0.28014305 0.04806294 0.016381634 -0.0467795 -0.17669791 0.24130765 -0.15849698 -0.08599588 -0.035264477 -0.15770747 0.10436708 -0.12518549 -0.34722862 -0.26192892 0.86745536 0.18980317 0.6284154 0.118486404 -0.8264043 -0.07071358
864 -0.39653152 0.49475694 -0.18182972 -0.27648103 -0.40918925 -0.16748837 0.16762169 -0.13192852 0.37781215 -0.18576679 0.5164874 -0.2094243 -0.41585124 0.45118895 -0.34008667 0.036310013 -0.26530662 -0.033851292 -0.40397424 0.33007425 0.25966817 -0.4428496 0.38533866 -0.47511336 0.10435859 0.15823628 0.037357915 -0.35021335 0.37396854 -0.49448895 0.09210583 0.81762457 0.5919862 -0.16011348 -0.33562163 -0.40103385 0.18530597 0.20997517 -0.9223774 -1.0965115 -0.13949811 0.34311613 -0.15646826 0.15686694 -0.035197727 -0.10922108 -0.021685733 -0.06893104 0.052489515 0.19508727 -0.02101333 0.0020206766 0.04629797 -0.026106395 0.2960266 -0.031092761 -0.44377673 -0.287117 0.6449544 0.076302834 0.70765126 0.45936853 -0.3215454 -0.20553663
35 0.07100651 -0.0017009943 -0.27330902 -0.12720194 -0.064607956 -0.00828465 -0.148603 -0.16784057 0.23589648 0.40554854 0.3909512 0.297202 -0.22763672 -0.50347626 -0.07268299 0.3984326 0.21700358 0.7433923 0.06828183 0.76752084 -0.323173 -0.06729888 0.49108922 0.19320889 0.6382377 0.56765926 -0.0025938412 0.10829099 -0.23700088 -0.38773486 0.31910208 0.77597666 -0.73869073 0.14047477 0.91836023 0.034808863 -0.042510048 -0.3905033 -1.2893146 -0.5201459 -0.64958847 0.46864912 0.19602986 -0.28398815 -0.3087858 -0.2780695 0.27857068 0.7926903 -0.6919158 0.1198853 0.5459882 0.32433477 1.3219585 0.18721204 -0.58958864 0.26836145 -0.5541971 0.6116734 0.91088873 -0.26358 0.2520589 0.98063856 -0.1427891 -0.02618249
465 0.014896858 -0.042290136 -0.32172126 -0.15811732 -0.009131513 -0.032836717 0.023151875 -0.41888326 0.26093808 0.16087894 0.34565768 -0.04236432 -0.33922905 -0.53785735 0.08653472 0.22882275 0.18746473 0.8348918 0.26834542 0.46002302 -0.27507555 -0.17940262 0.5754622 0.06485309 0.63043314 0.5859456 0.030967103 0.18259671 -0.36786795 -0.37943858 0.4960603 0.6089936 -0.73521286 0.2981235 0.84128636 0.13254862 0.11929366 -0.3213652 -1.2239243 -0.424957 -0.89807737 0.4239224 0.18897109 -0.055652287 -0.305638 -0.35796964 0.17282614 0.9226783 -0.73901767 0.1979861 0.46212956 0.4439608 1.5147743 0.2200447 -0.59845966 0.27833754 -0.589922 0.31289545 1.137171 -0.11992045 0.3590622 0.949624 -0.08266771 -0.14437786
102 -0.22786418 0.35615325 0.16739479 -0.4568832 -0.052707143 0.17850447 0.20161147 0.0057452656 -0.13939866 -0.22139888 0.69450486 -0.4209 -0.6802915 -0.0018245459 0.32160103 -0.089909926 0.24534415 -0.5256867 0.2865239 0.13827471 0.3141229 0.06466801 0.091544636 0.19072184 0.10838196 0.27536118 0.119319424 0.4604201 -0.27386603 0.017332017 0.50479066 0.041277226 0.081161834 0.14553642 0.10078189 0.47497702 -0.47788435 -0.31375822 -0.20886678 -0.5369129 -0.44559425 -0.0038559125 0.123206496 0.32313514 -0.1004204 0.08469801 -0.612915 -0.28859827 -0.12575713 -0.3454721 -0.32453197 -0.5021829 -0.36383787 0.36965996 -0.31687942 0.32399452 -0.103424914 0.04347007 0.29606262 0.057187792 0.07107268 0.60105926 0.05689381 -0.12359352
895 -0.5788173 0.2741939 0.14820349 -0.97735256 -0.18963815 0.6311325 -0.44413456 0.52625763 -0.91765606 0.039048467 0.092940696 -0.16474095 -0.11856551 -0.56190056 0.6656449 0.47786507 -0.33076003 0.3767106 0.44244826 0.1653613 0.19947703 0.18812634 0.41238216 -0.9034041 -0.08317614 0.095920146 -0.09482651 0.1956833 -0.31544143 -0.4401698 -0.10695728 0.47312286 0.6638663 -0.17563221 0.0913235 0.24445538 0.08083933 -0.36199686 0.052007206 -0.58509064 -0.38657296 -0.3874595 0.13873225 0.13682155 -0.23899227 -0.07227646 -0.6624292 0.1922259 -0.058632065 0.4439234 0.21893942 -0.5606207 -0.61502963 0.92022425 -0.31486046 0.14437334 -0.34401447 0.29753125 0.5746314 -0.52494806 -0.10692628 0.2586108 0.3098254 -0.0019013409
185 0.8412381 0.023705421 0.15696871 -0.46347332 0.15358943 1.0261271 -0.4476863 0.8069132 0.06750122 -0.08262509 0.37179747 0.09055793 -0.7724581 0.11912945 0.67055774 -0.069164954 0.096729174 0.42502853 -0.417092 0.36738878 0.14747557 0.04470718 0.39906207 -0.41379172 0.60629386 -0.47493657 -0.23737344 -0.52495694 -0.14968991 -0.007887345 0.15886365 0.20473096 -0.026412144 0.5125884 0.06743338 0.10735225 0.082068026 -0.13719697 -0.6885151 -0.4026663 -0.27275422 -0.6424842 -0.09806939 0.016627455 0.16345428 0.2132182 -0.8525482 -0.16047804 -0.08419478 0.03439301 0.07506053 -0.10343795 0.59680814 -0.53022647 0.3161629 0.40721145 -0.0568482 -0.0037419365 -0.49268743 0.25962278 -0.12613158 1.3669815 0.6086239 0.6962372
818 0.3989375 0.12616801 0.45282868 -0.5798248 0.33485377 0.4319142 -0.44708368 0.44297546 -0.28428903 0.35274035 0.5591881 -0.24693975 -0.4892454 -0.58063465 0.7316886 -0.2775052 0.24100539 0.6685026 -0.3484602 0.1120962 0.005274721 0.34478688 0.51240844 -0.14408842 0.8918774 -0.105113775 0.028325317 -0.48769087 -0.008006681 -0.54525054 0.24315979 0.13988708 0.27921656 0.5696038 0.23622508 -0.18012328 0.31615955 -0.47736403 -0.5062586 -0.8229587 0.34213537 -0.41788724 0.06847393 -0.10247518 0.29625693 -0.1821708 -0.64887565 0.13106094 0.13430485 0.24274704 -0.096215844 0.23455474 0.11182104 -0.015967963 0.6322753 0.90178835 -0.7965311 0.43145922 -0.30494034 0.059363045 0.50198036 1.0722563 0.5584505 0.43154782
25 -0.29149032 0.71930885 -0.33579445 -0.77366406 -0.26754496 0.2638489 -0.7181988 0.20848072 -0.1628741 -0.023528714 0.67740065 -0.49616 -0.71318203 -0.26803842 0.33561376 0.3074931 -0.09456137 0.36755836 0.07362324 0.5295028 0.0025802995 -0.15772763 0.87637836 -0.46260732 0.6087949 0.4408796 -0.1001286 0.7038577 -0.119952284 -0.90331286 0.72135866 1.0548618 0.3957766 0.3566726 0.25947794 0.32746217 -0.024040453 -0.12836687 -1.147605 -1.1849447 -0.6272731 0.011080009 -0.18308353 -0.24782082 0.09328297 0.10852045 -0.6666629 0.6245401 -0.29113898 0.45300958 -0.15378046 -0.5876314 0.4755078 0.19212931 -0.19685246 0.7452703 -0.8451627 -0.018616416 1.046807 -0.41228208 0.45678136 1.6030986 0.16859953 0.033163793
898 -0.273331 0.7061084 -0.31812227 -0.7881758 -0.24885792 0.25438285 -0.71869534 0.18897831 -0.17110589 -0.04674533 0.6589426 -0.5334272 -0.71667886 -0.25587058 0.3409708 0.3171352 -0.10023043 0.38879386 0.07721971 0.49860767 0.013721557 -0.1470095 0.86369187 -0.49328014 0.61628866 0.43090504 -0.09657708 0.7042245 -0.14266424 -0.93045795 0.72079813 1.0458498 0.40047124 0.3547091 0.25879207 0.30639997 -0.0011794118 -0.12041128 -1.1427042 -1.1886481 -0.60000145 0.035214446 -0.18326578 -0.27542794 0.10205806 0.11659101 -0.6426212 0.6368337 -0.3116078 0.46630332 -0.14496867 -0.5931725 0.4826448 0.18528591 -0.22272392 0.73986983 -0.8514817 -0.04831237 1.037404 -0.38812265 0.43333706 1.6078775 0.16130464 0.03780758
206 -0.099662766 0.099238135 -0.40238014 -0.49695086 -0.6150702 -0.21447186 -0.54365975 -0.21487467 0.5566951 -0.16167383 0.43024155 -0.3275921 -0.33742008 -0.06390706 0.13703613 0.30348846 -0.052757736 0.27176273 -0.16843386 0.36856887 0.42269582 -0.60919625 0.5640377 -0.2947884 0.6175084 -0.32861325 0.19432546 0.3109582 0.1552444 -0.06703449 -0.17888243 0.50970906 0.5594328 -0.06300627 0.28023478 0.07272398 -0.20282233 -0.05446398 -0.84745514 -0.7303062 -0.27307904 -0.041669432 -0.25549358 -0.83893865 -0.06769452 0.13162526 -0.06692672 -0.2901482 -0.22957371 0.28050926 -0.087790035 0.08048632 0.06169041 0.12963404 0.6245874 0.25000745 0.010665132 -0.5157291 0.07194539 -0.2220161 0.41873008 0.69221336 -0.6478283 0.334522
822 -0.47716776 0.3776005 -0.2288885 -0.2055244 -0.3967957 0.15766518 -0.6872 -0.023422182 0.5561648 -0.71485007 0.6712957 -0.42828718 -0.4980254 -0.4353531 0.34589526 0.21818042 -0.2834978 0.05939429 -0.27136838 -0.007003218 0.44310027 -0.45216498 0.65704125 -0.21484452 0.7766708 -0.1488245 0.36156183 0.09696716 0.50452375 -0.28175482 -0.28188583 0.90045726 0.26463753 0.035289686 0.057765152 0.16461454 0.01649048 0.23438591 -0.9069355 -0.76543087 -0.4215902 -0.04317643 -0.09115056 -0.44282198 -0.3175479 0.579559 0.106977925 -0.5246589 -0.21783498 0.48830748 -0.012791423 -0.22008689 0.40126413 -0.13733463 0.31943417 0.25278896 0.079813786 -0.41481477 0.29730168 -0.07738092 0.70670414 0.3622179 -0.18572426 0.45924035
177 0.037461206 -0.062238272 0.27112058 -0.44856346 0.034387805 0.6029819 -0.6355946 -0.097884476 -0.6171955 0.71976453 0.69296 -0.47307765 -0.12875824 -0.6872249 0.6853708 0.036182012 0.15406919 0.79257476 0.06101606 0.056642316 0.1755367 0.13747096 0.5707003 -0.30180794 0.7249572 -0.49312288 -0.081981786 0.31422716 0.049476877 -0.52722305 0.4254867 -0.042728577 0.5973675 0.2471967 0.013638608 0.30637154 0.16584855 -0.6389708 -0.27807122 -0.34587157 0.16530009 -0.054054707 0.30054325 0.3535446 0.101341024 -0.16679108 -0.2199157 -0.4238743 0.17765325 0.18493077 -0.49739698 -0.21451232 0.042064518 0.31945983 0.13477814 0.50707036 -0.41942424 0.80027974 0.5378893 -0.07412761 0.41100392 0.56513387 0.5159411 0.09253991
230 -0.52607477 0.17052338 0.5316481 -0.26715353 -0.18431951 -0.27868748 -0.6039882 0.32645082 -0.46278867 0.140951 0.4259715 -0.23921224 -1.3296374 0.33248466 -0.14183912 -0.090569854 -0.44326907 0.08249552 0.1496528 0.5600361 -0.1894167 -0.014106503 1.4598104 -0.52835 -0.042607065 -0.037297588 -0.70047075 0.005683969 -0.002172687 -0.63722 0.11682376 0.18225183 0.2492684 -0.21018355 0.013667886 -0.49931782 0.33707172 -0.47681108 -0.12841249 0.002151856 -0.12587646 -0.44929278 -0.5957292 0.25351825 0.33725914 -0.15110895 -0.80092037 0.7712429 0.31754202 -0.21483277 -0.46422058 -0.1722428 0.87604904 0.29416904 -0.26568845 -0.13217461 -0.6211041 -0.43814915 0.646606 0.028429322 -0.020543747 1.1715758 0.50988024 0.6553302
508 -0.21410325 0.23774305 0.70535284 -0.69862676 0.24375369 -0.06523372 -0.23227985 -0.0052846665 -0.11808831 0.0025945597 0.38865292 -0.09158748 -0.31140688 0.1966915 -0.09224102 -0.39870724 0.052052516 0.050326567 -0.35720977 0.054245945 -0.16126995 -0.37887654 0.850152 -0.086171284 -0.09523686 -0.30250207 -0.6217436 0.091336265 0.13954955 -0.75919306 0.006621928 0.110216714 0.27339867 0.16137935 -0.28112563 -0.66465616 0.17452194 -0.27155802 -0.537983 -0.34551388 -0.048833992 -0.74319625 -0.37318707 0.119132705 0.18498993 -0.35974604 -0.8496049 0.45841676 -0.023407703 -0.031545375 -0.6023647 0.28973415 0.77730817 -0.1747589 0.28795546 0.30474997 -0.58336323 -0.35801983 0.17220254 0.0544406 -0.08522301 0.97467744 0.4120178 0.45325077
93 -0.014315672 0.14305535 0.13702613 -0.088528626 -0.58274466 -0.02271965 0.06411281 -0.059437178 -0.0134354625 -0.3905907 0.0041828495 -0.2826602 -0.013970738 0.15559156 -0.29025313 0.09728763 -0.09454192 0.13041008 -0.21156223 0.49023968 -0.045808565 -1.0790585 -0.25397384 -0.06372657 0.35694662 -0.021553349 -0.21453914 0.78171355 -0.03816051 -0.19500685 0.20481017 0.23645133 0.081847295 -0.3584977 0.09465294 0.24556065 0.097424544 0.115331374 0.032862585 -0.9738279 -0.24751739 -0.096426874 -0.39067617 -0.197869 -0.29814324 0.032363757 -0.054453462 -0.45324674 -0.07490532 0.11202972 -0.5467738 -0.03169598 0.036198936 0.050262537 0.009884534 0.47731638 -0.24708939 -0.511006 0.637107 -0.40243503 0.78034306 1.0320019 0.15592502 -0.4154741
477 0.2871252 0.03219047 0.58734 0.011479019 -0.94033235 0.06744604 -0.10500465 -0.015875326 -0.107122615 -0.29349628 0.31487232 -0.2014541 -0.06134211 0.14982106 -0.10996426 0.023772502 -0.15904757 -0.37928435 0.012032231 0.50381714 -0.0910545 -0.6644774 -0.04854654 -0.093567684 0.27428126 0.29153988 -0.35669726 1.119883 0.12493677 -0.4879172 0.38462266 0.33653986 -0.052443124 -0.36590165 0.11495281 0.112531476 -0.13350317 -0.022785181 0.13837095 -0.98694754 -0.24829285 0.034508374 -0.32187244 -0.37767604 -0.25617748 -0.034839116 0.13150114 -0.28116515 0.10601766 0.40752232 -0.6145223 0.10274181 0.04554248 0.11829438 -0.031015124 0.7715457 -0.15297966 -0.46167022 0.5203958 -0.50534606 0.7772645 0.8155784 -0.016753182 -0.5564114
278 0.48589015 0.72201645 -0.41240293 0.12706064 0.19404103 -0.44511044 -0.0992083 0.2399468 -0.6641417 -0.033378355 0.2613884 -0.13694775 -0.46172702 -0.17705949 -0.024553744 0.09651723 0.16477077 -0.41720298 -0.19826432 0.2580012 -0.18496038 0.32268593 0.34072855 -0.6952308 0.39085695 0.5908803 0.046935815 0.40613624 0.14869413 0.03877066 0.61077005 0.5819743 -0.46354958 0.2882277 0.12027564 -0.116917394 -0.30766785 -0.3858921 -0.38486964 -0.20543747 -0.17294292 -0.12677564 -0.51190567 -0.10573038 0.07917493 -0.08061343 -0.73713595 0.008202795 -0.12688945 0.12383982 0.3491383 -0.28923762 0.0010757495 0.35724118 -0.8793463 0.48158252 -0.5239038 -0.1733921 0.69096303 0.03689948 -0.11783624 0.48116678 0.025408711 0.18128794
830 0.218744 0.72329926 -0.50778854 -0.07062956 0.24040742 -0.325614 -0.14414378 0.31013 -0.6593985 -0.16000453 0.14110978 0.147874 -0.108923286 -0.4005869 -0.076282755 -0.030148117 -0.093993716 0.08826337 -0.24711466 0.15921627 -0.43908167 0.17332743 0.3340797 -0.51315236 0.22513418 0.337634 -0.10806971 0.5651731 0.009599734 -0.048820496 0.7239227 0.5920318 -0.4144796 0.19107376 0.16964774 -0.064372554 -0.4342832 -0.27064526 -0.519672 -0.18006773 -0.4853424 -0.10335869 -0.4339992 -0.15339497 -0.040753253 0.038049612 -0.52633345 0.2182395 -0.1589599 -0.060288273 0.26746607 -0.2715703 -0.048579186 0.46106005 -0.78188 0.7680302 -0.22215085 -0.25099164 0.8107197 0.2084195 -0.2864538 0.49845785 0.14318186 0.22715405
526 -0.706315 0.49328768 -0.2334656 -0.5091304 -0.5437043 0.1952553 -0.3512078 -0.28368914 0.46661112 -0.34849167 0.4644678 -0.43050218 0.009954167 0.0683871 -0.43889827 0.45670405 -0.6171121 0.09018803 0.22700283 0.44362062 0.2546675 -0.21002974 0.5670217 0.17692338 0.36316562 -0.2779058 0.41817102 0.624386 0.24919699 -0.21992584 -0.0031396404 0.4484417 0.23306574 0.10648147 -0.0776914 0.08363402 -0.1883767 0.23393607 -1.0450338 -0.5921684 0.12343754 -0.0072256117 -0.106952436 -0.829059 -0.00767362 0.42309773 -0.0069069527 0.17536813 0.26075038 0.40726396 0.018828139 0.09460863 0.19084102 0.1787235 0.44055948 0.20173495 0.018189084 -0.17725828 0.42745382 0.20920523 0.36600485 0.5444907 -0.26958442 0.36154586
883 -0.14869459 0.36535802 -0.021895563 -0.08487039 -0.14064759 0.7624132 0.0040828288 0.26704884 -0.15694168 0.023036063 -0.07515438 -0.022511031 -0.49011993 0.2353229 0.17363036 -0.14861053 0.11320644 -0.68906033 -0.03686541 0.68235296 0.099886276 0.2652953 0.46771285 -0.34197792 -0.21199217 0.27338836 0.11867208 0.4539823 -0.0811698 -0.20411949 0.39733288 0.51806337 0.030920388 0.34652674 0.008572886 0.15306038 -0.5307463 -0.08098927 0.24496505 -0.4238279 -0.43886018 0.13630724 0.2553014 -0.35231578 0.17368688 0.14174023 -0.3437265 0.30871886 0.20229465 0.2263916 -0.1874147 -0.59193546 -0.40087274 -0.1596857 -0.13836932 0.057531994 -0.08112059 0.019693712 0.4990217 -0.35324928 0.30051628 0.68087393 0.49708405 0.06040264
61 0.40494338 0.82387567 -0.49142408 0.0138930585 0.25687975 -0.2447904 -0.16803822 -0.029662892 -0.6055606 -0.3173195 0.14300965 -0.13187352 -0.15010288 -0.13081089 -0.31003538 0.0568575 0.0469493 -0.1601907 -0.17166494 0.09036463 -0.07777555 0.113154285 0.5072578 -0.5440076 0.31735024 0.48754877 0.027407119 0.35809126 0.14258787 0.029919965 0.63970816 0.42357978 -0.45939162 0.42159545 -0.073228784 0.068472266 -0.26567426 -0.31531 -0.17165612 -0.41226536 -0.16277747 -0.07506293 -0.48097154 -0.1924871 -0.10021715 0.0463689 -0.67702055 0.39724183 -0.3963513 0.13463771 0.47638118 -0.039604377 0.25648943 0.2732384 -0.9549043 0.8902248 -0.3831891 -0.075577416 0.93067455 -0.08327527 -0.21281777 0.37360653 0.28575748 0.23451734
692 0.21706404 0.5877224 -0.35187286 -0.03775628 0.1842952 -0.2841543 -0.01736851 0.20010579 -0.4733998 0.19939008 -0.07794738 0.042302545 -0.26431927 -0.20019555 0.007816394 0.0073748613 -0.07482042 -0.021931851 -0.20882504 0.15652362 -0.26066637 0.2521597 0.42971155 -0.415791 0.0664425 0.4494662 0.04629175 0.52466136 -0.0033328398 -0.24452767 0.7322395 0.5608815 -0.49191356 0.37969306 0.045515273 0.034379482 -0.4336636 -0.37946945 -0.33739194 -0.15465221 -0.25988945 -0.18913607 -0.4461853 -0.17777613 0.053489495 -0.013449448 -0.44678703 0.2514321 -0.299258 -0.114498444 0.37403157 -0.22715244 0.24713063 0.3326647 -0.7162157 0.8063713 -0.3412745 -0.21179235 0.8722306 0.047796473 -0.23539026 0.48010197 -0.004892345 0.5032987
633 -0.3082457 -0.12654774 0.100235395 -0.16105969 -0.047755957 -0.16307858 -0.35576838 0.13948748 -0.15650524 0.081775464 0.22372833 -0.63779145 0.29642642 -0.048907656 -0.63362443 0.072332405 -0.01715955 0.026055342 0.11925782 0.5561766 -0.18639918 -0.30906972 0.17462432 -0.68567365 -0.07596273 -0.10247905 -0.096659146 -0.19105208 0.13172972 -0.3961365 0.40190145 0.19226319 -0.05008859 0.38416407 0.2282868 -0.5807212 0.35668674 0.34592983 -0.88650876 -0.8002966 0.11420513 -0.09012202 -0.5083487 -0.06444376 0.056482993 -0.37376446 0.03047067 0.12541454 -0.47138557 -0.21809722 -0.62549955 -0.32493347 0.5779379 -0.45475256 0.5879116 0.51936626 -0.93455935 0.4913461 -0.1505079 -0.051729478 0.74285275 1.1389543 0.47343653 0.079520985
197 -0.038100336 0.11219926 -0.09985655 -0.596961 0.30592456 0.7596005 -0.4335529 -0.37682885 -0.6798559 0.7945639 0.3653636 -0.2843551 -0.14793056 -0.64364547 0.6579803 0.28933632 -0.1907931 0.65516514 -0.02719589 0.14883563 0.17630626 0.066852435 0.46368182 -0.3095966 0.4507117 -0.07795063 -0.04871936 0.5699266 -0.10281184 -0.5800813 0.14677475 0.0420769 0.8727063 0.20987761 -0.00025237282 0.17287892 0.44610646 -0.26689824 -0.32914183 -0.1516471 0.24705957 -0.48339888 0.6628662 0.3510599 0.07765962 -0.362211 -0.34683198 -0.36125353 -0.03400135 0.40372294 0.006583293 -0.37984884 0.011230414 0.760743 0.2929189 0.64918274 -0.16736993 0.7445799 0.7905195 -0.057915773 0.4648835 0.69088024 0.36192656 0.10123525
