873 64
117 0.4630325 0.48115498 0.25125048 -0.19298764 -0.0815682 0.062371645 0.0010188268 -0.47639033 0.32389757 -0.07588385 -0.23463352 -0.31990576 -0.61977947 -0.36287463 -0.23617913 0.7902194 -0.35029927 -0.4925332 -0.32036802 -0.55723554 0.48312366 -0.56494087 -0.121429466 0.26784542 0.49643636 -0.50984466 -0.21035853 -0.7335127 -0.14320835 -0.8621737 -0.5074008 0.35780427 0.5160907 -0.17696646 -0.1790795 -0.2904997 -0.521858 0.23611157 -0.4220456 -0.48736176 0.16940033 -0.17760554 0.2707064 0.005166553 -0.5749104 0.77504486 -0.4755195 -0.20888023 -0.2775593 -0.14648603 0.16535297 -0.2073735 -0.5342007 -0.3046931 0.023530072 -0.17306548 -0.38782763 0.058193162 0.36488637 -0.30970857 -0.17855449 0.6383294 0.46737894 0.18457584
788 0.39510724 0.35899246 0.4898112 0.029939461 0.06432208 0.06589632 0.18952331 -0.31089684 0.21303672 -0.45566043 0.12607516 0.0885098 -0.6787319 -0.069849744 0.021537842 0.8392602 -0.55851406 -0.3845439 0.024147805 -0.2080229 0.2923129 -0.5449292 -0.097978 0.3534313 0.38669565 -0.7259793 -0.2803191 -0.4638307 -0.111504465 -0.7099193 -0.26728484 0.599503 0.6722112 -0.35802177 0.025100052 -0.32118094 -0.5322485 0.19389662 -0.26172248 -0.59097046 0.5683365 -0.35678154 0.37161136 -0.15586756 -0.36475772 0.41833442 -0.18235986 -0.3262953 -0.5750448 -0.44725156 0.44175193 -0.27413025 -0.39106464 -0.36338574 -0.12829429 0.040171035 -0.28479108 0.52952236 0.19045666 -0.6117697 -0.23888355 0.5945127 0.60298306 0.15898634
312 0.08824451 -0.08760805 0.19405472 -0.11040412 0.04867908 0.16029786 0.45887572 0.13799949 0.090935685 0.35641307 0.029286232 0.33908537 0.04126117 -0.05053681 0.14137076 0.055179138 -0.43641677 -0.011040423 0.17132549 -0.36806896 -0.17511417 -0.093001425 0.005467947 -0.011904276 0.3763438 0.23004821 0.32408378 -0.45593265 -0.081727065 -0.22744785 -0.34224984 -0.043112304 0.43981743 0.89670914 -0.07505359 0.35897452 -0.43153659 -0.39139768 0.010723911 -0.27971843 0.66457283 0.3209117 0.09713975 0.092770875 0.09896241 0.40500978 0.16027908 -0.36715865 0.18878525 -0.41703773 0.22073482 0.0048958245 0.0012902432 0.28627715 0.1497098 -0.41722885 -0.34272784 0.34881726 0.04966346 -0.29066068 -0.088628605 -0.23206966 0.2355994 0.47215742
793 0.28554854 -0.18490677 0.16170232 -0.3802668 -0.5555866 -0.103618756 0.3415647 0.42695823 -0.42048493 0.538589 0.17566136 0.16515553 -0.04549612 -0.010686464 0.15969177 0.26574257 -0.26633954 0.23717938 0.1234193 -0.2598621 -0.07082541 -0.0800326 -0.1936997 -0.045279946 0.2938618 0.22929186 0.3960689 -0.31579998 -0.40439054 -0.2226548 -0.31720862 0.18414664 0.36326957 0.94419056 -0.027204338 -0.00066514843 -0.3817375 -0.41463023 -0.061118733 -0.3033713 0.6645806 0.21728422 0.20236918 -0.037841145 -0.019929959 0.22708522 0.097400226 -0.13641354 0.17442942 -0.16890971 0.008997903 -0.22504616 -0.05423252 0.26487884 -0.08352467 -0.56952786 -0.23656997 0.73289496 0.21387294 -0.6446317 -0.093454175 -0.2836271 -0.004298831 0.1860347
19 0.12282006 0.82450604 -0.016572734 0.6016992 0.26748523 0.29139024 0.31107026 0.64711034 0.6896004 -0.5041913 0.2671269 0.24942793 0.010187246 -0.75797427 0.29013124 0.42575058 0.36361855 -0.065974414 0.17065662 -0.21148951 0.23500581 -0.83868134 -0.57856125 -0.6137358 -0.1199526 -0.27710995 0.32945132 -0.5641436 -0.6009281 0.37410915 -0.39151487 0.11222355 0.38541022 -0.28174978 0.5649578 -0.21081848 -0.29403535 -0.09306326 0.45792535 0.6912809 0.3111222 0.49041238 -0.35879654 -0.14593138 0.1521824 0.387339 -0.15056883 -0.18752655 -0.039613597 0.081534766 -0.08671465 0.10615757 -0.28385672 0.14677761 -0.22001414 0.0791598 -0.89270365 0.80191106 0.06555144 0.019151194 -0.1094625 0.17796011 -0.5041487 0.37337512
528 0.50781167 0.25204012 0.09313128 0.75930035 0.12758896 0.66804296 0.4387839 0.84027565 0.9133245 -0.31029293 0.11395502 -0.03473302 0.34868485 -0.25912586 -0.013162679 0.2564374 0.32878938 0.1684695 0.27329755 -0.56048244 -0.19984414 -0.5615542 -0.48754418 -0.72973555 0.32818055 -0.24426791 0.32557467 -0.4863536 -0.12964222 0.40214998 -0.39710915 0.031876698 0.33526477 -0.6929327 0.53355 -0.080683194 -0.16858996 0.36296 0.12872963 0.5257921 0.678428 0.1564158 0.08923418 -0.3658951 -0.36986375 0.41307083 -0.34290665 -0.25011703 0.10435613 0.38729748 0.17435493 -0.28153646 0.030725917 0.07108134 -0.44774693 0.31499845 -0.57709605 0.46534204 -0.26308617 0.10092898 -0.097271785 0.17425247 -0.24306661 0.21505792
302 -0.2965397 0.046684768 0.45603132 0.08067098 -0.38251516 -0.1713169 0.36569175 0.55081326 -0.28942296 -0.3530455 0.138296 -0.339751 -0.49892837 0.3738446 -0.21711548 0.71050465 0.013896811 -0.40382347 0.3824564 -0.6107529 -0.2513309 0.12787743 -0.60667664 -0.19223475 -0.060946282 -0.3196419 -0.63895357 -0.6323143 -0.5743748 0.058878563 -0.4818558 -0.04211083 0.17544186 0.10491941 0.040354077 0.46373177 -0.8677088 -0.19784443 -0.16041574 -0.29296333 -0.6322335 0.64064544 0.19474657 -0.09442741 -0.07361305 0.012301959 0.06089109 -0.35386837 -0.13779709 -0.03718419 0.58329797 -0.4354237 -0.07431307 0.5021577 -0.24669865 -0.31057435 -0.21870624 0.16717386 -0.0126551865 -0.6706895 -0.11943858 0.06870685 0.6527899 0.9634674
835 -0.16815712 -0.029430196 0.22630474 -0.04269466 -0.5444571 -0.15510152 0.49902716 0.3449371 -0.10765553 -0.41611454 0.36411056 -0.3088063 -0.4956408 0.6952915 -0.22526152 0.5776265 -0.22039133 -0.71682066 0.4928201 -0.88142145 -0.076472424 0.075890504 -0.8131604 -0.24418727 0.2547088 -0.34585395 -0.34834054 -0.37903658 -0.30419305 0.16105592 -0.34138826 -0.016493237 0.14424904 0.012208573 -0.08072699 0.18441315 -0.6829006 -0.2119063 -0.23728926 -0.29762357 -0.2135113 0.78400165 0.19644013 -0.08575187 0.18398121 0.09277607 -0.010113296 -0.40990928 -0.28866157 -0.13528554 0.37910646 -0.55188113 -0.23856598 0.53817123 -0.21221462 -0.17874987 -0.33371985 -0.010085095 0.035450622 -0.8103513 -0.1512842 0.38164416 0.514259 1.1639445
86 0.012680512 -0.060605425 0.17962538 -0.048926573 -0.027956491 -0.0056568533 0.25608277 0.08445309 -0.084223196 0.28718463 -0.1577745 0.0216799 -0.3488356 -0.101096205 0.14232568 0.25682336 -0.010129088 -0.23303014 0.11346127 0.12305524 0.3067468 -0.20277594 -0.19233723 -0.12372599 0.6305625 0.19603197 -0.052140042 -0.54742557 -0.34437653 0.015817052 -0.64502966 0.38524535 0.16550422 -0.16410144 0.06537027 0.33406088 -0.2836604 -0.02390763 -0.1262987 -0.029655028 0.21062657 0.1990522 0.4189192 0.067940265 -0.27796108 0.36043656 -0.54762006 -0.18465336 -0.033046093 0.24524054 0.96431476 -0.3065671 0.107899524 -0.59088355 0.09953591 -0.0717982 -0.21957235 -0.049464293 0.038906343 -0.5938487 0.12996121 0.053324398 0.09106423 0.20011352
886 0.39002755 -0.10885007 0.29660177 -0.13598965 0.0032362312 0.115570046 0.27044442 0.2805601 -0.21540916 0.37925062 0.0076658824 -0.119247474 -0.2409421 0.06170281 0.37809563 0.3572867 0.27175 0.03581794 -0.039737903 0.2498431 0.22512011 -0.1794634 0.18495107 -0.151801 0.5697465 -0.034075048 -0.30106342 -0.8421314 -0.29526925 0.038130954 -0.4408688 0.45461816 0.24965906 -0.18379253 0.02605297 0.049768135 -0.39250082 0.08920804 -0.24592544 0.11959897 0.23068838 0.14838655 0.5756395 -0.048988022 -0.26871943 0.0064234096 -0.6421249 -0.33407885 -0.15642443 0.18343796 0.8484666 -0.3890383 -0.22854541 -0.36195844 -0.015734611 -0.28222907 -0.26634553 -0.088583104 0.14402719 -0.2761467 0.11709352 0.3856967 0.115340926 0.27463713
212 -0.25413367 0.43763992 0.5423651 0.44749257 0.3461811 0.28371936 0.5959506 0.5345181 0.3438653 -0.023540745 0.42441538 0.14394169 -0.09965411 -0.37927383 -0.078305975 0.28586143 -0.0068551176 -0.35615712 0.2790947 0.029410513 0.36540216 -0.3979666 -0.45468515 -0.36776155 0.023866916 0.2646716 0.26705158 -0.6954045 0.016049402 -0.027115338 -0.35047305 -0.2797284 0.3325474 -0.3240231 0.042814236 -0.64494985 0.21720238 -0.19246227 -0.037850205 0.33966622 0.42147592 0.20071268 -0.30528 -0.52237445 0.7181845 0.1448526 -0.20836578 -0.552681 -0.3184602 0.32411662 0.15121925 -0.16082701 -0.12322159 0.25841206 -0.4670787 -0.30718896 0.16235393 0.29472947 -0.5775073 -0.1590779 0.30178505 0.006210775 -0.2577449 -0.06889594
897 -0.116430804 0.75084245 0.57595915 0.53221154 0.36498246 0.49315163 0.33975533 0.5474668 0.33679038 -0.014608759 0.50354505 0.2910862 0.033766847 -0.20825978 0.04285376 0.35994434 -0.03235524 -0.32039857 0.41189992 -0.14999147 0.34930485 -0.359954 -0.42333198 -0.38006353 0.11549513 -0.16135634 -0.067306824 -0.7014941 -0.22164793 -0.014480986 -0.54934627 -0.38397565 0.6863718 -0.5307053 0.07034394 -0.33220825 0.32229742 -0.24631925 -0.05006909 0.5094503 0.52308476 0.13332649 -0.16626155 -0.52586627 0.4914763 0.2540164 -0.074023865 -0.5876402 0.11210429 0.17873232 0.042624556 -0.07242659 0.008395995 0.15108357 -0.37047175 -0.02230984 -0.0882932 0.41846973 -0.87750024 0.061316077 0.22495282 -0.09167985 -0.35961053 -0.3127894
38 -0.18192898 0.60630095 0.33892688 0.11319761 0.09395579 0.3859458 0.10416496 0.14281723 -0.41319916 0.3697874 0.5640423 -0.0096719405 0.58082867 0.09075888 0.35553813 0.65360385 -0.567821 -0.6955885 0.07090609 -0.062566504 -0.22148912 -0.60193276 0.31376272 -0.52798563 -0.17480825 0.011226545 -0.06993534 -0.6535245 -0.10564755 -0.23590024 -0.33006856 -0.06049241 0.18961938 0.12566352 -0.23346238 -0.29481313 -0.6389876 -0.32136604 0.05639241 0.28089634 0.2212038 -0.06829122 0.17253838 -0.2140536 0.0918267 -0.09727686 -0.1961599 -0.030400353 -0.3831338 -0.30775273 0.54705226 0.058686294 -0.7824386 -0.40467834 -0.24357773 0.4016836 -0.3738467 0.033950765 -0.49901757 0.6928715 0.41048732 0.0012666106 0.030381056 0.12792179
903 -0.1929388 0.6916226 0.27469322 0.17939736 -0.07983163 0.10094682 0.105188884 0.37757108 -0.26825476 0.6410764 0.5925527 -0.24564807 0.8221061 0.13036606 0.20179035 0.68777424 -0.50028783 -0.6215279 -0.083206825 -0.14610882 -0.026436368 -0.6615265 0.009576379 -0.6215572 0.0030923202 0.027517408 -0.040838856 -0.54399294 -0.17932788 -0.5139454 -0.64501196 -0.11267841 0.20591031 -0.019672887 -0.19920927 -0.19650085 -0.85481334 -0.14469168 0.18098316 0.43730214 0.15016079 0.24749702 0.20200296 -0.2335226 0.01093768 0.034374297 -0.5440942 -0.105994 -0.55213535 -0.18968815 0.39554772 0.12041819 -0.8524711 -0.46836475 -0.22828665 0.31165764 -0.2202257 0.059539825 -0.59816545 0.76149243 0.37595415 0.11516279 0.041469898 0.072857335
269 0.22722536 0.05681527 1.3804678 -0.2537181 -0.379941 -0.26600644 0.8428386 0.23814063 -0.14048694 0.285705 0.086671375 0.33417472 0.16020343 -0.65502214 -0.17862424 0.1480754 0.2681461 -0.2532555 0.217524 -0.5117471 0.8803885 -0.058795102 -0.5333224 0.039781976 -0.07839037 -0.105643466 0.582433 -0.37010145 -0.32054043 -0.061091222 -0.32636574 -0.22673152 0.43045056 -0.056185897 0.38293135 0.010427098 -0.030239789 -0.8192955 0.0662625 -0.32719037 0.43970633 0.008502245 -0.32065734 -0.23311399 0.16019273 0.19468114 0.101142585 -0.35766342 -0.5557625 -0.40522414 0.1825582 0.15065384 0.12496838 0.3314802 -0.42436227 0.5556382 -0.3459124 -0.039128374 0.25526989 0.15329643 0.44307926 -0.22119449 0.12274024 0.13018152
636 0.07460291 0.25116128 1.1343015 0.25056636 -0.4311895 -0.15457568 0.58295584 0.5148735 -0.0748026 0.37338966 0.10732797 0.7534341 -0.07526271 -0.65289325 -0.37071708 0.22431874 0.38766915 0.07813292 0.53878653 -0.492827 0.70661557 -0.42935035 -0.54094154 -0.19578172 -0.44578543 0.10207271 0.17925794 -0.8071608 -0.29494 0.026204962 -0.15065907 -0.15108642 0.3609029 -0.40452448 0.2558817 0.0033681402 0.24498732 -0.6307432 -0.006844094 0.16647804 0.30366105 -0.037954602 -0.254132 -0.4470133 0.30389974 0.14747287 -0.12081761 -0.086674266 -0.36153448 -0.40977633 0.14269087 -0.11745265 -0.008322936 0.15238445 -0.27288312 0.43939388 -0.36211863 -0.036567204 0.34556362 0.3003462 0.36504114 -0.3629688 0.28231966 0.1245619
118 -0.39003277 0.06707325 0.5456255 0.3511408 -0.42010698 -0.15167393 0.037183188 0.14289887 0.1186388 0.09972286 0.17308334 0.17435426 0.011269315 0.38005012 -0.0026121265 0.68914956 -0.17310299 -1.1413275 -0.54363245 -1.0102596 -0.43220386 0.03556872 -0.70344454 -1.228064 -0.40065113 -0.42080322 -0.17321499 -0.4098257 -0.8962156 -0.6754078 0.22759177 0.45546383 0.37245595 0.3412854 0.36985207 -0.168245 -0.8674654 -0.20357782 -0.36452946 0.06678045 -0.027268447 0.06288438 -0.17632706 -0.35905102 -0.47631532 -0.033431966 -0.665785 -0.1294311 -0.47479603 -0.15590398 0.58336806 0.073013835 -0.7541082 -0.13204508 -0.25106558 -0.3504915 -0.3701313 0.27026424 -0.19793893 0.14651571 0.006562532 -0.0953586 -0.011521691 0.59510237
698 -0.13546912 0.45614585 0.22773182 0.35995075 -0.045893706 0.23299912 -0.18052979 0.38075966 -0.18717124 0.3552219 0.38084254 -0.08163678 0.3923386 0.27699566 0.17093907 0.8561171 -0.42193294 -0.8613661 -0.039455783 -0.6647036 -0.512502 -0.32423934 0.189967 -1.2863007 -0.41257367 -0.023312265 -0.3105804 -0.44049862 -0.45212343 -0.46686327 0.087777995 0.031027282 0.3783663 0.0132062845 -0.1314559 -0.17487979 -0.87919545 -0.54363877 -0.18940628 0.33257255 0.16294093 -0.27233225 0.13541467 -0.4604478 -0.31502602 -0.18921462 -0.47887176 -0.23447502 -0.59979624 -0.0464544 0.53355914 0.14688727 -0.77768415 -0.494072 -0.54879117 0.054062083 -0.4475959 0.12217414 -0.5274798 0.6212734 0.47211364 -0.0703398 0.08967289 0.3390038
305 -0.18834133 0.3653323 0.73084563 -0.19080004 0.09315266 0.1204463 -0.1795091 0.19028592 0.4060149 0.035610694 0.16909109 -0.14046521 -0.38354316 -0.33021146 0.2595797 0.21587221 -0.32882243 -0.31773502 0.016492015 -0.32143915 0.5025124 0.018927779 -0.5903985 -0.20151213 0.33584407 -0.2805294 -0.2753787 -0.7514017 -0.098667085 0.16730517 0.0071118805 0.25265604 -0.14419264 -0.1125304 0.6661334 -0.18207471 -0.087314 -0.09710856 0.16728432 -0.256356 0.46192428 -0.32137567 0.44394344 -0.10276238 -0.2598629 0.27887502 -0.38214746 -0.2940924 -0.007036603 0.37438625 0.88279986 -0.45900762 -0.45632765 0.08567781 0.055785008 -0.22123748 -0.46403998 0.10060674 -0.027239546 -0.518583 -0.31656593 0.2081005 0.41434446 -0.06363889
772 0.11130884 0.40382764 0.6731343 -0.42185566 -0.27542225 0.14573234 -0.10401176 -0.04272288 0.8535946 0.1535495 0.042389404 0.08823905 -0.4090926 0.022109032 0.120731056 0.64946926 -0.20263855 -0.5422862 -0.0016456358 -0.28679946 0.02983895 -0.18366018 -0.47351083 -0.4832657 0.3742539 -0.25061694 -0.47983333 -0.4041871 -0.30077034 -0.26918536 0.31404528 0.008029267 -0.013933687 -0.2496038 0.15405436 -0.16239828 -0.52967954 0.17350367 -0.08341083 -0.29175982 0.09995421 -0.5068938 0.25619018 -0.12120143 -0.80172795 0.54970634 -0.4561192 -0.27611163 -0.06710695 0.16939847 0.9917591 -0.2738198 -0.6492211 0.10878364 0.065243706 -0.37788856 -0.5274447 0.056762364 -0.071453065 -0.4071334 -0.15348484 0.47887117 0.39071465 -0.26106608
175 0.41646662 1.1291816 -0.02532093 0.37722123 0.31068182 0.04294197 0.16668114 0.8639397 0.42793217 -0.64038056 -0.28564522 0.3934711 0.012151112 -0.46903512 0.24228628 0.4073748 0.72772956 -0.19021036 0.19795999 -0.05726737 0.2617011 -0.5451293 -0.48397774 -0.9525885 0.33110645 0.5220238 0.5253639 -0.26567495 -0.42268136 0.027809018 -0.4653447 0.33327347 0.5555463 -0.30387008 0.25708356 -0.4129871 -0.59924585 -0.28350687 0.21233088 0.15389192 0.15746523 0.9844219 -0.05573462 -0.0075697545 0.24850368 0.6234326 -0.000115078394 -0.27300504 0.14922926 0.23731455 -0.29706997 0.1010124 -0.21310276 0.30601865 -0.3798677 -0.012772716 -0.99062926 0.4598738 -0.09930999 -0.39028755 -0.5915568 0.15125822 -0.39692217 0.55433536
727 0.3327478 0.72697383 0.26841608 0.15281528 0.2824701 0.13471122 -0.064104535 0.7954352 0.697287 -0.27046254 -0.065878235 0.08830478 0.113122635 -0.26526135 0.20467484 0.16163398 0.6782326 -0.07427061 0.45674032 -0.16723755 -0.13626677 -0.33767703 -0.3810127 -0.80633146 0.5610991 0.5727664 0.41860554 -0.2110406 -0.045916535 0.036687203 -0.41121995 0.32328734 0.6639425 0.10898422 0.06201539 -0.6293502 -0.22752382 -0.26675308 0.20696661 0.06344594 0.11407776 0.49760926 0.40453553 0.2302176 0.48984936 0.4505031 0.07328386 -0.48056114 0.33848953 -0.14361171 -0.26174864 0.1053139 -0.30772883 0.5782737 -0.47516182 0.35547492 -1.0921443 0.34496355 0.19991745 -0.24205033 -0.5050465 0.48502377 -0.2834027 0.4023005
494 0.21681565 -0.18416005 0.4261033 -0.3764864 0.085012995 0.28371415 0.04049591 0.2618665 -0.40044072 0.57903564 0.24991791 -0.2935876 -0.25644413 -0.007545592 0.02251629 0.3356031 0.15796293 -0.24638985 0.36063913 -0.26848757 0.12987895 -0.2308865 -0.23861134 -0.22602077 0.49257386 -0.057904433 -0.07683563 -0.45115244 -0.6456343 0.369434 -0.60059357 0.48874727 0.008967115 -0.35417116 -0.29943687 0.27917317 -0.3621997 0.22171772 -0.112024486 -0.20641923 -0.050713003 0.4854866 0.40122673 0.03200777 -0.6284315 0.2166977 -0.39185905 -0.3777939 -0.48851126 0.13528863 0.5349904 -0.31725916 -0.068890825 -0.2585269 0.115879506 0.16537085 -0.57306147 -0.2782589 0.2731198 -0.70206165 0.20321777 0.1875224 0.43365857 0.7405922
156 0.21988511 0.33603308 0.2949768 0.257874 -0.4240256 -0.30458516 0.7068128 0.65128946 0.2580685 0.77973515 0.06516748 0.123438545 0.3509966 -0.1345881 -0.28702652 0.4098094 -0.1821962 0.039367087 0.7558625 -0.18391417 0.41017428 -0.3503378 -0.22704828 0.0210185 0.41718373 -0.024913328 0.50397146 -0.09014382 -0.11624144 -0.4077078 -0.022424068 -0.26715153 0.6842371 0.333442 -0.2017851 0.51094925 -0.65516037 -0.8265679 -0.04587123 -0.1205852 0.73372674 0.34489998 -0.20492801 -0.15570544 0.017449418 0.5277815 0.47582963 -0.22400609 0.4986111 -0.1550379 0.14442198 0.515832 0.094282344 0.5095946 -0.0042165327 -0.11936003 -0.4357004 -0.09621743 -0.049003083 -0.16626893 -0.042095326 0.0048026694 0.11022304 0.19702938
603 -0.043394618 -0.03331124 0.15140362 0.054337565 -0.12614293 -0.23305762 0.5794408 0.48676485 0.36572507 0.3898662 0.28336367 0.01670926 0.326278 -0.1916133 -0.2752882 0.44403815 -0.2983228 0.14343281 0.49142262 -0.16256571 0.50526255 -0.19538479 -0.27702364 -0.016161028 0.20410942 0.2633791 0.2186472 -0.12821057 -0.18336007 -0.45862633 -0.17654355 -0.38074347 0.65569764 0.52617186 0.14193991 0.21610473 -0.2277623 -0.875741 -0.27019176 -0.10782579 0.78714424 0.4206117 -0.08211024 0.06893473 -0.07453518 0.45924458 0.3448532 -0.3245808 0.45760083 0.07896076 -0.28120086 0.22089267 0.056758013 0.30986658 0.08545758 -0.36585733 -0.6258732 -0.13408867 -0.2379459 0.043934193 -0.2630885 -0.111965336 0.27831534 0.14477825
272 0.033716448 -0.0142881265 -0.13148707 -0.38164064 -0.21836945 0.16445775 0.3709501 0.11297609 -0.23012482 0.13790777 0.93704945 0.038723 -0.04059591 0.45003262 0.16873208 1.1921229 -0.751313 -0.76561856 -0.09787015 -0.22436251 0.13179749 0.08696253 0.028130962 -0.405003 0.40297827 0.009595611 -0.20453687 -0.29061574 -0.38878378 -0.5741588 -0.7079922 0.54748774 0.07578236 0.26628748 0.38533399 0.1593244 -0.07039625 -0.46671426 0.47041783 -0.091426894 0.33887047 0.15627791 0.45610857 0.1412755 0.18255356 -0.40404645 -0.21616484 -0.26534697 -0.008080393 0.124082804 0.62036216 -0.20243298 -0.2802063 -0.003893688 -0.09172812 -0.07923113 -0.10214908 -0.05639847 0.45143643 0.07085069 0.6125687 0.21969713 0.18990204 0.3267598
605 0.35590786 0.122704096 0.30508116 0.30375522 -0.3322448 0.0013546246 0.12643348 -0.14643006 -0.5756033 0.22198784 0.6300792 -0.15362298 0.16788805 -0.12069712 -0.12253562 1.2049601 -0.5187705 -0.33461365 -0.07763444 -0.071225345 -0.17272966 -0.011637621 -0.4586295 -0.5325266 0.47248703 0.06121838 -0.09442728 -0.27453554 -0.15059273 -0.15546857 -0.9771759 0.30883503 -0.16026254 0.0016335441 0.09510143 0.13401833 0.013448469 -0.5680525 -0.042208094 0.10837142 0.24581318 -0.013717591 0.5856167 0.37526903 -0.07769972 -0.32125413 -0.376635 -0.2882567 -0.021261621 0.025633661 0.62746245 -0.3631777 0.08012027 0.020838365 0.40127003 -0.14606906 0.08442423 0.18734144 0.5576719 -0.30048993 0.5678898 0.4269618 -0.026363077 0.2589679
241 0.079546444 0.6961472 0.3812845 0.35697585 0.27387106 0.37681624 0.5718563 0.8707711 0.52109617 -0.10642477 0.46302837 -0.0017925291 0.24634437 -0.22349942 0.07098232 0.62000835 0.22696328 -0.03660752 0.40350395 -0.23575206 0.09046736 -0.06422407 -0.1517507 -0.14562745 -0.0556702 -0.28477654 0.23153464 -0.36747882 -0.24561931 -0.100658976 -0.25644398 -0.14108896 0.29306838 -0.06368866 0.3219714 -0.05891677 0.21347429 -0.33518556 -0.07184869 0.6303241 0.5393877 0.19356056 0.05329045 -0.50924444 0.16952914 0.60579586 -0.29706737 -0.22944434 -0.03336183 0.16900389 0.111140035 -0.16453828 -0.17859568 -0.0537199 -0.27710333 0.19085436 -0.5207738 0.35694242 -0.6371032 0.29168627 0.0781855 0.09053141 -0.42557374 -0.008108401
630 0.07612035 0.7477571 0.8019403 0.16038008 0.31504807 0.2804864 0.19463407 1.3997104 0.42723358 0.15025704 0.09045485 0.65385365 0.15411933 -0.5187371 0.08096469 0.24747756 0.47410396 -0.22390074 0.37369937 0.030550692 -0.30248365 -0.26203135 -0.3258437 -0.15101434 0.20962827 -0.17554913 -0.3812118 -0.4194453 0.102478914 -0.39359576 -0.681317 0.43122888 0.5395088 -0.27677146 -0.05558892 -0.45984617 0.10372499 -0.059942193 -0.11591556 0.39252082 -0.025249638 -0.023749886 0.51821375 0.045785163 0.40580982 0.607143 -0.7502664 -0.12710232 0.2636537 0.52614367 -0.28312573 0.12735654 0.3652058 0.10138886 -0.27450338 -0.007309912 -0.5933359 0.6135767 -0.7029398 0.18496402 0.098852806 -0.044775505 0.11788652 0.5116889
265 0.26187488 0.34718007 0.31770808 0.30835176 -0.5589314 0.6949935 0.556765 0.8227878 -0.078380965 -0.20293726 0.0012643569 0.4802167 0.3013253 -0.47814453 -0.13484782 0.11578248 0.96043897 -0.56007624 0.27513078 -0.7270454 -0.46704707 -0.14554577 -0.12007252 -0.12734684 0.76366574 0.30076426 0.25379318 -0.6743788 -0.17431815 -0.6252042 -0.45294255 -0.08801822 0.4730345 0.66228616 0.11432037 -0.78779453 -0.22700834 -0.09781785 -0.37233388 -0.53225327 0.88685596 0.97486925 -0.47246101 0.5024905 -0.45950493 -0.17440146 0.32407892 -0.0781911 0.6324067 -0.0061634746 0.5006445 -0.3929305 -0.2171487 1.0829979 -0.14686292 -0.07226602 -0.7721546 0.49303904 0.45430645 -0.55200577 -0.38004658 0.13707072 -0.12628633 0.34392083
801 0.28659195 0.4056019 0.11293447 -0.13758233 -0.64001894 0.68448716 0.41923726 0.57392275 -0.020590138 -0.3227192 0.044232793 0.5607871 0.06435667 -0.61199814 -0.3452947 0.023221271 1.062369 -0.428214 0.20034853 -0.81712365 -0.43850195 -0.4218393 -0.37395564 -0.0006917984 1.0129125 0.2703282 0.24970858 -0.6846926 -0.081120074 -0.51721656 -0.42784074 -0.08436748 0.7224595 0.63842595 0.14475407 -0.558832 -0.30596608 -0.17764035 -0.49306196 -0.2673858 0.9357755 0.9008321 -0.46137056 0.1176616 -0.72994566 -0.24072146 0.4499775 -0.20053166 0.7434382 0.19736029 0.46235874 -0.30266324 -0.29394633 1.1836804 -0.24264382 0.13252537 -0.78695947 0.7956282 0.27511752 -0.52439 -0.37353486 0.09645244 0.15189856 0.3427092
71 0.3523352 0.6394725 0.22069488 0.5448757 0.072763 -0.15017296 0.5122833 0.7496757 0.058755238 -0.20125093 0.30564094 -0.016624726 0.3932026 -0.077757105 0.46591192 0.09714951 -0.054925952 -0.15987201 0.42827362 0.11928703 0.75528026 -0.07990592 -0.22626583 -0.17426315 0.41122195 -0.13176458 -0.010490978 -0.48445666 -0.21146365 0.065185614 -0.38269284 -0.27871746 0.9311222 0.50767386 0.4941334 0.26785243 0.09802799 -0.92476803 -0.41986534 0.41753304 1.0009419 0.3792752 -0.017554607 0.379783 -0.22342794 0.5982013 0.36795306 -0.02327964 0.3807196 0.061922546 -0.6351581 0.27311453 0.0031388085 0.46841338 -0.14173166 -0.43009153 -0.67409295 -0.0060226917 -0.180517 0.16688797 -0.37258682 -0.26014528 0.06918997 0.034555323
458 0.34638426 0.9630772 0.4025973 0.5823075 0.12716901 -0.010000282 0.40029106 0.7857896 0.21708046 -0.58294463 0.39973167 0.24653499 0.33514935 -0.36171558 0.45885536 0.24323604 0.0055449805 -0.3395865 0.40067703 0.12879679 0.43972975 -0.08949393 -0.41244236 -0.2115329 0.34167147 -0.10077116 -0.08602588 -0.48567975 -0.08790027 0.077158354 -0.5070656 -0.052633736 0.37851566 0.46154565 0.60000914 -0.13740477 -0.2548522 -0.33625492 -0.4203292 0.73123574 0.84747434 0.10987244 0.2947558 0.13844857 0.027628645 0.57949644 0.40511212 -0.19108276 0.2482975 0.096532054 -0.5811245 0.22449136 -0.22527029 0.3088687 -0.18731897 -0.42595565 -0.6655127 -0.13215522 -0.19457912 0.12066707 -0.26908347 -0.22017555 -0.13326374 -0.21435301
102 -0.04483053 -0.05865837 0.2761032 0.0077857715 0.3033232 0.18733616 0.28494102 -0.028035833 -0.34997174 0.0011926268 0.48276404 0.15472014 -0.29415885 -0.1384508 -0.24463955 0.35006684 -0.23049317 -0.55966777 0.1572635 -0.4121222 0.27201983 -0.14896035 -0.30089277 -0.25517726 0.18560806 0.11321378 -0.35208532 -0.21714576 -0.06630078 0.24152046 -0.5150573 0.12531547 -0.060460094 -0.21944161 0.16869813 0.37248498 0.11388515 -0.43667775 -0.3785439 -0.019918593 0.5363839 -0.31114438 0.73680824 -0.08877178 0.09059771 -0.18502899 -0.42609727 -0.071113564 0.32325637 -0.20164402 0.6182592 -0.17367768 -0.20112512 0.75904953 0.1696669 -0.32173988 0.097117536 0.18464251 -0.028364997 -0.49054754 0.48086685 0.20296955 -0.06855711 0.4810647
408 0.056073852 -0.12702316 0.397814 -0.20586643 0.1872937 0.30796304 0.25039178 -0.11001268 -0.30014533 0.23852782 -0.0018442124 0.08770133 -0.5070096 0.009122838 0.06637734 0.44189143 0.0182317 -0.2791314 -0.101229794 -0.19278173 0.36431915 -0.30501473 -0.42314982 -0.28607982 0.2622073 -0.0045497394 -0.34445956 -0.45405406 -0.2209929 0.3454391 -0.6957481 0.155967 -0.17731531 -0.250408 0.10801916 0.095315285 -0.3575397 -0.35633227 -0.10666037 0.027896525 0.24815962 -0.15135382 0.6208974 -0.10191897 -0.016575381 0.13218813 -0.1708945 -0.3485757 0.30958965 -0.14355494 0.70476764 -0.26646635 0.2309628 0.20894887 0.19230327 -0.13425276 -0.114893615 -0.028275197 0.10786609 -0.40871248 0.36389187 0.47635564 0.14580944 0.33428282
160 0.043852948 0.30154702 0.5396314 -0.18401909 -0.04977048 0.19591723 -0.036615342 0.02449064 0.50613075 0.17759307 0.2471433 0.096885815 -0.28440005 -0.046097793 0.07781318 0.028438961 -0.16884516 -0.3776008 0.038261343 -0.43045813 0.41218933 -0.03511242 -0.6509163 -0.290189 0.517453 -0.2295638 -0.07643925 -0.8999622 -0.010901116 0.36193204 -0.0752619 0.23543556 -0.18613678 -0.18816237 0.47715518 -0.19023688 -0.18808892 0.0082610035 0.13822877 0.0059781093 0.383305 -0.31093872 0.5483477 -0.15628701 -0.43913984 0.3636076 -0.31124595 -0.21682355 0.056219157 0.3209084 1.1285218 -0.418406 -0.58014333 -0.024721498 0.096058935 -0.028839532 -0.47890335 0.33564672 0.12660787 -0.42656425 -0.21731633 0.11891497 0.4438192 -0.13623701
545 -0.053985402 0.3937742 0.29655835 -0.34196594 -0.108349375 0.17026311 -0.00693616 0.22919594 0.06365197 0.3464666 0.020612333 0.40362448 -0.15495273 -0.22441739 0.3962565 0.028971137 -0.23063566 -0.051429223 -0.028488433 -0.27432567 0.58889747 0.045281313 -0.5234404 -0.23088388 0.4710888 0.15689136 -0.33589423 -0.759874 -0.25224617 0.06312471 -0.47384772 0.4064608 0.024345772 -0.16471215 0.4046183 -0.17488524 -0.27368626 0.374538 -0.23186374 -0.19653553 0.5150663 -0.11989883 0.63214815 0.048929673 -0.22777733 0.20413192 -0.42380425 -0.4377569 -0.052945238 0.34003687 0.8035474 -0.44673556 -0.35921216 -0.20197034 0.19520098 -0.19604397 -0.23572068 -0.08108335 -0.0062090433 -0.54103 -0.27548546 0.15368806 0.3819927 0.15659559
301 -0.1578558 0.1501974 0.5275477 0.040341426 -0.5137152 -0.30520713 0.36783546 0.5931278 -0.20172745 -0.15073355 0.49084538 -0.35375053 -0.5705471 0.6792253 0.038534455 0.66905844 -0.17781892 -0.5407401 0.2909481 -0.84386104 -0.13489446 0.07898346 -0.5164655 -0.12715559 0.3429586 -0.31856456 -0.6517873 -0.48866403 -0.45682782 -0.105416484 -0.41115674 0.2770338 0.118316576 -0.0051580323 0.0894318 0.6382465 -0.55598974 -0.11687621 -0.1483869 -0.3643439 -0.5618564 0.62955517 0.24721202 -0.13047856 -0.028469283 0.03965297 0.088999264 -0.44519755 0.0050030667 -0.11557788 0.37836504 -0.4675398 0.109896615 0.5681968 -0.1684905 -0.12216997 -0.3006709 0.19021255 0.05111423 -0.80941457 -0.14450863 0.116115965 0.5109372 0.69898224
696 -0.20237045 -0.261772 0.43183643 0.15503262 -0.6999989 -0.27158102 0.4700562 0.47078344 -0.2781758 -0.26727095 0.28897688 -0.20893343 -0.44050375 0.711739 -0.14707239 0.82060575 -0.16195177 -0.40030017 0.36178514 -0.83091795 -0.047400232 0.16758151 -0.65657014 -0.21530432 0.24970627 -0.29105222 -0.39741862 -0.4733016 -0.4707206 0.07159312 -0.37851474 0.029670045 0.15830624 -0.13720162 0.039152317 0.5223379 -0.60399914 -0.1186646 -0.04717919 -0.28484008 -0.21853174 0.67973053 -0.11340029 0.17248042 -0.09452416 0.06468488 0.19762759 -0.6846952 -0.13897802 -0.25169557 0.20258874 -0.6243176 -0.308929 0.44028515 -0.12966889 -0.16061646 -0.13115765 0.27435926 -0.3430245 -0.82490176 -0.33821917 0.33816272 0.51082575 0.8620266
139 0.2047636 0.69226795 0.4621111 0.4903033 -0.11436518 0.24783058 0.15911093 0.62430406 0.51543456 -0.45463625 -0.17877883 0.23069538 0.33314797 -0.21987104 -0.16007584 0.34257442 1.020113 0.013331304 0.414113 -0.39298856 -0.13924359 -0.3211176 -0.34037384 -0.499396 0.8229429 0.6705308 0.34593776 -0.0625783 -0.30880675 -0.20799561 -0.49142656 0.44091696 0.55989575 0.13875902 -0.04489426 -1.1168698 -0.21272162 0.011787503 0.11525733 -0.12010528 0.52241933 0.6368764 0.21778871 0.41357765 0.23827732 0.7694154 -0.13449667 -0.29720324 0.6581707 0.07514961 -0.23625259 0.015837818 -0.15790284 0.59792405 -0.5167743 0.43754098 -1.1028109 0.49959078 0.22242141 -0.35747606 -0.6052164 0.63712543 -0.048557438 0.41467994
401 -0.22723433 0.57635945 0.38157752 0.32240084 -0.22081779 0.23847379 -0.087515414 0.59755653 0.60502094 -0.35897818 -0.44056422 0.16672297 0.36113635 -0.3180823 0.28744647 0.29621744 0.605024 -0.040002856 0.6026634 -0.25269032 -0.09337574 -0.2775871 -0.51130927 -0.62097204 0.51946735 0.49726814 0.23954672 0.019391859 -0.19560006 0.08406327 -0.60427946 0.41019967 0.76560163 0.18099926 -0.3246372 -1.1334944 -0.044076834 -0.13553403 0.24938071 0.13194801 0.58247256 0.7005567 0.55643034 0.22079049 0.18880601 0.66472965 0.06672915 -0.313782 0.45407018 -0.19796623 0.028602608 0.13266121 -0.28074896 0.6766747 -0.43775764 0.26347902 -1.3031464 0.5587957 0.30486345 -0.21877979 -0.34322122 0.70022106 -0.27813354 0.44089425
221 0.59279054 0.5508407 0.53512895 -0.5157342 -0.20788267 0.28657222 -0.11954498 -0.06977736 0.25748023 0.067386165 -0.09668248 0.13494195 -0.3547496 -1.134143 -0.03427572 1.0888114 -0.35774404 -0.37583762 0.43778327 -0.8216945 0.15010573 -0.77179325 -0.071159214 0.08264615 0.59280306 -0.48411784 -0.509927 -0.2642163 0.30919316 -0.58133787 -0.072908856 0.17516448 0.1263873 -0.15297595 -0.18541889 -0.40328878 -0.464604 0.051478 -0.21039979 -0.95164156 0.123410776 0.14621468 0.4453636 0.5645218 -0.55521894 0.87024 -0.50637114 -0.06028829 -0.15821324 -0.4231848 -0.28011096 0.39504158 -0.26276353 -0.18047492 -0.25629258 -0.78884584 -0.5279133 0.30005458 0.07737983 -0.87934995 -0.06403963 0.6701707 0.71978873 0.90994376
501 0.65300184 0.6172511 0.40731174 -0.41249007 -0.4231025 0.15185663 -0.111961104 -0.08037849 0.009641914 0.1566173 -0.017203018 0.20683612 -0.15711719 -1.22247 0.11581438 0.87669986 -0.21280643 -0.35294425 0.47038063 -0.70270675 0.31422296 -0.7230683 -0.18390895 0.28002355 0.4387948 -0.4579756 -0.48156673 -0.26954243 0.22676551 -0.62211096 -0.17372198 0.2432422 0.08175395 -0.2056851 -0.26286614 -0.5080875 -0.5496385 0.07087653 -0.04353539 -0.8370343 0.107250586 0.28453234 0.48826647 0.64498806 -0.50570774 0.71476847 -0.49388438 0.23540297 -0.25268447 -0.2792256 -0.22879776 0.28124455 -0.13682778 -0.1588117 -0.22009239 -0.6779514 -0.25505146 0.019548569 -0.10452458 -0.5575487 0.018503051 0.5403545 0.63783556 0.91040677
870 0.25284505 -0.6560277 0.21003258 -0.041462574 -0.23686908 0.56302285 0.5429063 0.53277254 -0.13644855 0.32036567 -0.31131554 0.6003736 0.37243825 0.13308571 0.15758127 0.3058228 -0.20554365 -0.06909488 0.21756437 -0.07215155 -0.33539018 -0.13932592 -0.20406455 0.29485995 0.28081587 0.23578872 0.32013237 -0.6801407 -0.23434448 -0.16224322 -0.3854233 0.40224776 0.4910175 0.7358704 -0.16446763 -0.015821658 -0.57213014 -0.75274736 -0.30377597 -0.2664734 0.8366657 0.14844851 0.06343955 0.16028327 0.09000183 0.55302966 0.122428596 -0.69842136 0.10512419 -0.16854656 0.12731682 0.13802841 -0.03382731 0.20848519 0.29744092 -0.45090237 -0.36762044 0.55264723 0.33250242 -0.14942093 -0.11799785 -0.50383806 0.5397192 0.36184508
197 -0.025833208 0.21142086 -0.15258662 0.06350333 -0.809598 -0.39130822 0.52092576 0.26653638 -0.20310324 -0.095830664 0.39865628 -0.2413125 0.029753909 0.47609532 -0.16514573 1.0820866 -0.4704237 -0.48123217 0.42275557 -0.47354752 -0.4026842 0.1012406 -1.2463826 -0.2364011 -0.16239618 -0.3501498 -0.47332212 -0.10978014 -0.0042911875 0.033037487 -0.28237748 -0.62247133 0.4609144 0.2194896 -0.11783108 0.018547175 -0.69656295 -0.29235736 -0.25857812 -0.39958683 0.32521522 0.5196743 -0.21346185 0.043101065 -0.020610902 0.0007404483 0.021373587 -0.47394383 -0.7989469 -0.1859686 0.0363545 -0.29513973 -0.0698924 0.3574633 -0.48597285 -0.12660809 -0.47764236 0.12990957 -0.07299249 -1.0103744 -0.5649424 0.13314198 0.39858127 0.9672565
584 0.39022195 0.15787838 -0.18294272 -0.52631927 -1.1456681 -0.34135395 0.4699886 0.75638074 -0.13807899 -0.011624728 0.7678979 -0.5095564 -0.17799659 0.57175386 0.005480109 1.0214288 0.18314411 -0.13706057 0.38006014 -0.6225331 -0.58301944 0.30756167 -1.0048336 -0.18724687 0.16107382 -0.30463088 -0.40063298 -0.43901896 -0.26511192 0.13069695 -0.52293235 -0.4814029 0.5554041 0.47718984 0.026903326 0.21446592 -0.63615984 -0.24265453 0.17410357 -0.5717349 0.464848 0.4682217 0.1849374 -0.24308454 0.05744397 0.19218944 -0.24052152 0.058245525 -0.64259464 -0.14177415 -0.27997535 -0.008247393 -0.50795734 -0.23243515 -0.31851473 -0.34768945 -0.29876447 0.32869354 -0.025560694 -1.084067 -0.34767 -0.19511488 0.33787084 0.96095634
656 -0.32439288 0.15305388 0.8574349 -0.2085905 0.12024807 -0.031755198 -0.13118494 0.15546608 0.33969355 0.30511183 0.1971832 0.35963947 -0.02795221 -0.43529788 0.31856737 0.10466494 -0.44150004 -0.34107888 0.011482554 -0.388461 0.30166176 -0.20081644 -0.52651227 -0.19607823 0.62195677 -0.5356309 -0.3354118 -0.81685257 -0.04409011 -0.031251784 -0.1682748 0.11460653 -0.10593377 -0.2762842 0.8841948 -0.20302615 0.03251804 -0.15672135 -0.014122712 -0.04864197 0.082566984 -0.26608238 0.58374923 -0.1672781 -0.41507614 -0.115023345 -0.44229898 -0.46122164 -0.02735427 0.13886596 0.7948147 -0.36717206 -0.64744043 0.17694813 0.37659326 -0.27382767 -0.48899156 0.45527616 0.05924775 -0.73928094 -0.38032645 0.43468174 -0.17153908 -0.16220798
62 0.34611222 0.21676272 0.33050817 -0.19991411 -0.29319102 -0.25505015 0.15247184 0.34918642 -0.42309523 0.34873447 -0.31410855 0.2300965 -0.26080734 -0.31033236 -0.2041779 0.565694 0.25052232 -0.33282495 0.2642374 -0.88275224 0.29967412 -0.31664997 -0.2618913 0.12586793 0.39883065 0.25072324 0.4977961 -0.13048336 -0.014519241 -0.48389956 -0.43154934 0.37793106 -0.10880178 0.43698475 0.76705605 0.36334264 0.26065603 -0.32434154 -0.40392882 -0.63949925 0.6333777 -0.13501036 0.30286625 -0.22954933 0.12816416 0.12578493 0.43365857 -0.7465712 0.188327 -0.39966488 0.59685767 0.3022807 0.032227773 0.2418487 0.05279643 -0.28754002 -0.15368569 0.7228014 -0.22018382 -0.24154317 0.5359525 -0.40281615 0.20332585 0.4650303
481 0.3378297 0.2845723 0.54592204 -0.07071444 -0.30266285 -0.009885125 0.19681162 0.47110283 -0.37219095 0.35957974 -0.3217114 0.16556741 -0.09713649 -0.068302386 -0.18426707 0.41792232 -0.12685676 -0.35273883 0.22666265 -0.71928173 0.3386546 -0.17000024 -0.14957207 -0.02409579 0.23058604 0.44887865 0.60871524 -0.15700118 0.1256143 -0.42975542 -0.34318385 0.25344244 0.07419256 0.54895145 0.42342094 0.44183347 0.37893397 -0.24390799 -0.4328731 -0.6498589 0.6984947 -0.018612118 0.017127492 -0.19454646 0.16443844 0.10155818 0.18247543 -0.67425036 0.2997614 -0.5221393 0.43131843 0.17251106 0.19739647 0.29066345 0.0026486663 -0.464619 -0.20937495 0.78812134 0.09252582 -0.3346646 0.4292415 -0.4249246 0.12996662 0.36067277
842 -0.013952912 0.22218966 -0.14247498 -0.4598824 -0.032987367 0.24133645 0.28858316 0.5708239 -0.09132483 0.17204878 0.82631326 0.041316435 0.39487755 0.11258292 0.13823746 0.6713683 -0.6611531 -0.9960912 -0.24614319 -0.30533886 -0.12597223 -0.11797246 0.09091296 -0.6201001 0.49369478 0.25846803 0.06342199 -0.83717054 -0.042282313 -0.09940835 -1.0103259 0.15194964 -0.04892819 0.118668415 0.38249692 0.061116993 -0.57202154 -0.7504344 0.4053458 -0.21534069 0.51323193 0.003760298 0.010542363 0.09070929 -0.29789808 -0.4076496 -0.29924837 -0.0036252704 -0.044484362 -0.09475114 0.30832 -0.23538078 -0.9322104 -0.26130003 -0.1150172 0.14575632 0.018440617 0.14522743 -0.13987069 0.4394716 0.43604013 -0.04138206 0.46009967 0.0947752
34 0.16419773 0.3424398 0.122034855 0.30480433 -0.6975426 0.5835372 0.420531 0.75546885 -0.08420319 -0.35185903 -0.019747403 0.51615614 0.31437728 -0.40728217 0.008187405 0.06791262 0.7982117 -0.35817555 0.1467047 -0.6508044 -0.37548584 -0.6049402 -0.24510469 0.043058693 0.7878767 0.2489728 0.29393876 -0.7103307 -0.2582993 -0.5183785 -0.16322668 -0.11191358 0.7117027 0.81654567 0.23391019 -0.92939025 -0.11100348 -0.08885117 -0.40178257 -0.4544818 0.8867941 0.8587875 -0.61592394 0.39129505 -0.37502044 -0.2437642 0.46591535 -0.103866234 0.5141101 -0.06277063 0.7358223 -0.40756246 -0.18277529 1.1190135 -0.12824923 -0.099330425 -0.9700805 0.78035176 0.41558844 -0.60947144 -0.28502968 0.244309 -0.021474747 0.5466417
465 0.45142978 0.49989793 0.12910086 -0.052072063 -0.65052193 0.6188307 0.58851194 0.70486706 -0.21868667 -0.21338186 -0.017091569 0.46081612 0.3282164 -0.57979584 -0.1518065 0.068765156 1.0841228 -0.46506137 0.26707217 -0.96238154 -0.373111 -0.3988295 -0.4735046 -0.042839438 1.0073507 0.14378306 0.4586999 -0.6706963 -0.09018391 -0.58701414 -0.35034415 0.078679204 0.9262974 0.5842566 0.0014523908 -0.83055156 -0.080242746 -0.19947687 -0.28024954 -0.46200255 0.8948896 0.8838565 -0.31667888 0.2978869 -0.52183646 -0.17564544 0.27943364 -0.099181525 0.7070543 0.039673105 0.4392896 -0.2327807 -0.10706983 0.9951585 -0.0063042203 0.15464886 -0.76021016 1.0146996 0.4162969 -0.5187136 -0.4321215 0.22951603 -0.081780106 0.33298331
193 0.14533773 0.90069586 0.5369939 0.28733578 -0.11035097 0.57877684 0.42694068 0.859609 0.43832606 -0.09791324 0.25867695 -0.10342347 0.14788553 -0.5012375 0.47005025 -0.064320564 -0.26941925 -0.41241995 0.34114954 -0.6175378 0.30436987 -0.04436072 0.21126997 -0.1985747 -0.10392036 -0.13731736 0.18074647 -0.609827 -0.43282244 0.15360175 -0.6927959 0.37722257 0.25747344 -0.22313014 0.15866847 -0.2928851 -0.34288788 -0.31502813 -0.32046515 0.8067659 0.5755181 0.60213 -0.13560425 -0.20781934 0.08765418 0.28685218 -0.4781805 -0.09028919 -0.11313437 0.23459743 0.122705914 -0.071680054 0.20217378 -0.08673621 0.016383277 0.24831608 -0.21290232 0.3172297 -0.5351391 -0.031882714 0.21093096 0.39317033 -0.24014269 -0.011338438
526 0.026703818 1.010313 0.54602623 0.55135167 -0.12079141 0.18768488 0.7450983 0.82150996 0.40764293 -0.05613456 0.42314872 -0.09927449 -0.02926069 -0.23515029 0.5995492 0.27884373 -0.06856835 0.04845371 0.2994472 -0.44227293 -0.00026807678 -0.5928853 -0.1321215 -0.048231594 0.013016014 0.16379716 0.34907943 -0.22384235 -0.26577872 0.16700326 -0.5647397 0.22939792 -0.01347389 0.19408748 0.3467997 -0.6113778 -0.17335877 -0.8733847 -0.29868454 0.95331055 0.46311408 0.4704184 -0.070075296 -0.23704097 -0.07473289 -0.028149372 -0.12773855 -0.17586976 -0.3811844 0.20965801 0.049406096 0.0032828716 0.033618953 -0.13190956 -0.45279518 -0.10056096 -0.23086561 0.13671048 -0.27418014 0.016220512 0.081257075 0.35439232 0.017431961 0.05911094
264 -0.56492317 0.19203672 0.09416816 0.42856774 -0.51127136 -0.30877516 0.6650008 0.2089594 0.32560045 0.3431177 -0.13059768 0.27009737 -0.028543131 -0.31276247 -0.3044473 0.56887573 -0.2796248 -0.085757874 0.49684685 0.1442072 0.46510187 -0.100366086 -0.38151932 -0.03885961 0.27448994 0.21981403 0.24384198 -0.3227392 0.111550145 -0.27973688 -0.352795 -0.20811334 0.16399351 0.5290589 0.07081167 -0.33147943 -0.35884508 -0.43474105 0.1832202 0.42495772 0.2801642 0.23120071 0.20337981 -0.4566228 -0.07116789 0.21079372 0.3150553 -0.17604047 0.061722618 -0.17899671 -0.13605396 0.21830748 -0.0832728 0.59325993 0.27350554 -0.06393259 -0.18610618 0.26814246 -0.48450223 0.15998502 -0.21796697 -0.3003763 0.018470459 0.6285989
680 0.015278751 -0.24975613 0.40685472 0.062219713 -0.53632164 -0.053983234 0.6633748 0.5692918 -0.10426997 0.4992253 -0.13722312 0.123327486 0.111132026 -0.28244352 -0.310514 0.2853027 -0.43198866 0.012401991 0.49131545 -0.16437201 0.43562466 -0.37314093 -0.34800586 -0.2680259 0.0841077 0.57340676 0.07486726 -0.15969749 -0.08207314 -0.40581438 -0.28172857 -0.10734174 0.8233681 0.66100067 -0.1805482 0.08776583 -0.14106406 -0.7627671 0.0786586 -0.24209139 0.48326632 0.37624288 0.015697503 -0.081084155 -0.079438806 0.19071138 0.7048274 -0.4145887 0.28160867 -0.04237698 0.21546732 0.05298423 -0.10737099 0.567945 0.2889246 -0.15618122 -0.13124003 0.35602802 -0.13849862 0.10709372 -0.079999715 -0.18123864 -0.050768748 0.11276142
307 0.31390035 0.13568285 0.50875354 -0.13138887 -0.069119446 -0.17765392 -0.09195531 0.12724087 0.076109335 0.6888477 -0.5598627 -0.5550062 0.1740012 -0.28250986 -0.005137566 0.38842857 0.27411342 -0.33021426 0.2899844 -0.19371986 0.859454 -0.052007847 -0.48325878 -0.2125386 0.2963943 -0.4085557 0.2970771 -0.5845248 -0.68687576 -0.11516124 -0.40052336 0.3618913 0.11516079 0.20600758 0.40068087 0.23385485 0.12978956 -0.024462724 -0.55463445 -0.39312586 0.38167638 -0.05658288 0.26560423 0.08291861 0.13451613 0.03637572 -0.071528666 -0.5149925 -0.84566694 -0.56361276 1.2775217 -0.21719906 0.06372709 0.032504324 -0.4349871 -0.21827786 -0.31947193 -0.029036917 -0.30767724 0.021723777 0.598603 -0.08212547 0.16667706 -0.24158137
676 0.5044945 0.090833314 0.49747992 -0.18718629 -0.0056365477 -0.17152411 -0.15668572 0.22585326 0.13513009 0.7346441 -0.46532404 -0.48067623 0.27745977 -0.4137676 -0.26121563 0.37323412 0.31576914 -0.62539035 0.2909492 -0.24194045 0.92401 -0.37215924 -0.53513354 -0.019346556 0.21540579 -0.50037926 0.5825686 -0.564938 -0.77943724 0.12378379 -0.40620884 0.33196872 -0.05879933 0.119899094 0.5633851 0.1167085 0.008974685 0.019648774 -0.562369 -0.12394336 0.41614133 0.04908385 0.13602807 0.20885152 0.08560483 0.060782116 -0.18686616 -0.42366102 -0.8560709 -0.4398906 1.2814293 -0.15556054 0.035288893 0.115247995 -0.14867735 0.04253495 -0.30326372 -0.09869221 -0.23670466 -0.009548453 0.7347628 -0.1462914 0.15724525 -0.008301572
473 -0.22312902 -0.056190424 0.094543144 0.12610295 -0.33050016 -0.12423939 0.73498744 0.3848199 -0.08036735 0.4858177 -0.08444966 0.096284986 0.054306846 -0.21831502 0.0024528834 0.40950063 -0.54280955 0.29126018 0.52047753 -0.031861585 0.10007412 -0.41915074 -0.29348475 -0.07367628 0.08174376 0.35807306 0.061557233 -0.34533724 -0.08159795 -0.40678683 -0.1377392 -0.27724776 0.38818893 0.54137534 0.18420804 0.03519909 -0.14960188 -0.54145235 0.065266736 -0.1968957 0.67941266 0.20689656 0.10414606 -0.016586976 -0.11610238 0.23708425 0.35410774 -0.36290815 0.16755374 -0.13095728 -0.03490293 0.09268882 -0.3489641 0.5830359 -0.13408414 -0.39441013 -0.16098474 0.44902658 -0.26416978 0.17748149 -0.2814574 0.00087804947 0.039033726 0.5396665
135 0.16730103 0.2227862 0.15915805 0.28198746 -0.43508127 -0.15374058 -0.09723246 -0.012732206 -0.037345253 -0.29165512 0.20225832 -0.1952716 -0.5401593 -0.20445058 -0.06749855 0.7776691 -0.04556385 -0.9231432 0.52462834 -0.31927988 -0.12241197 0.120522834 -0.2873083 0.15412441 0.06090253 -0.5179811 -0.37037143 -0.20997308 0.0021926044 -0.389327 -0.640054 0.28720385 0.50822693 0.16640948 -0.4826928 -0.15048937 -0.44129118 -0.048028957 -0.13099225 -0.50413126 0.68963945 0.009808525 0.24410495 0.20343907 -0.16919716 -0.45694113 -0.19835813 -0.8605683 -1.4234589 0.09977101 0.1165901 0.05804995 -0.34964547 -0.13800687 0.06675678 0.16584747 -0.5980504 0.39331052 0.1843549 -0.6897787 -0.04402714 0.16333322 0.7039614 0.68587357
435 0.3602551 0.33493245 0.12460996 0.3518 -0.5724592 -0.3277439 0.043785833 -0.23300676 -0.28797907 -0.13609704 -0.0463851 -0.17585188 -0.32753667 0.026055893 0.03786289 0.8052102 -0.13692321 -1.0291985 0.421594 -0.19084898 -0.19108737 0.28197187 -0.47537106 0.14192133 0.07381387 -0.32669333 -0.1826158 -0.3344712 -0.11091034 -0.22240429 -0.7339554 0.34484068 0.45071584 -0.062098764 -0.06413267 -0.09451664 -0.5005832 -0.22415501 -0.22772802 -0.39663187 0.9644937 0.011408929 0.25076675 0.12920414 -0.22992541 -0.69056004 0.06912178 -0.7171611 -1.3016802 0.123517886 0.28002983 0.072458394 -0.59287226 -0.24447194 -0.020607654 0.28957215 -0.66021276 0.5204523 0.37760434 -0.502962 -0.13001996 0.21074854 0.9388786 0.8409118
174 -0.40909916 0.29308155 0.3592557 0.21133178 -0.39838156 -0.35538158 0.54398423 0.30366918 0.36840278 0.4663271 0.021933453 0.5345477 0.33178547 -0.10579181 0.09256798 0.6334834 -0.4610406 0.12972221 0.884537 0.055744518 0.29590875 -0.0678694 -0.2899426 -0.0088025015 0.5669717 0.25205532 0.07619738 -0.03880732 0.011678639 -0.40949634 -0.31972623 -0.0238781 0.28981695 0.4176139 0.14326744 0.15107171 -0.5009674 -0.15130398 0.20555893 0.10460529 0.55094475 0.24540046 -0.13183305 -0.31421396 0.08225778 0.3303788 0.3141672 -0.14478756 -0.09158967 -0.04801805 -0.29673824 0.233175 -0.048160322 0.5231885 -0.09347227 -0.16540338 -0.12148639 0.29650587 -0.18167327 -0.059276592 0.0036649664 -0.2032851 -0.013432785 0.6798603
833 -0.48324743 -0.27668792 -0.040421788 -0.054840844 -0.3039923 0.14881659 0.52423495 0.31846094 0.21358474 0.37105313 0.25084153 0.7425726 0.30199775 -0.0031637074 0.15762669 0.1781056 -0.61695194 0.35224518 0.4910571 -0.04725226 0.36303684 -0.097769365 -0.4931285 0.063278824 0.6674471 0.53725964 0.23475121 -0.61018467 0.028147671 -0.3612776 -0.0103592295 -0.084786884 0.11213581 0.21302003 0.44788015 -0.12600496 -0.15194373 -0.39791787 -0.091072924 -0.12645403 0.6145278 0.4005756 0.092339724 0.02685355 -0.30798617 0.1533876 0.22618528 -0.23477562 -0.1986216 -0.16755645 -0.086453676 0.056325912 -0.50849545 0.70596826 0.49418986 -0.043521684 -0.2608934 0.2566395 -0.5304336 -0.51895124 -0.18173145 0.02809825 -0.08639018 0.46507916
151 -0.25943023 0.687634 0.68069255 0.16186444 -0.04868514 0.3735607 -0.17131488 0.67586553 0.7564478 -0.38353902 -0.62344265 0.1355326 0.11392312 -0.34710398 0.18081708 0.32151765 0.55818963 -0.21711099 0.61955553 -0.1241096 -0.02831398 -0.29346806 -0.5099418 -0.8554871 0.3033931 0.47647822 0.41802034 0.10555586 -0.41357556 0.12917908 -0.47060955 0.0873637 0.43841022 -0.031899087 -0.12753911 -0.9042856 -0.16748327 -0.4032111 0.38932034 0.07500184 0.58780557 0.5687318 0.32238954 0.34547147 -0.04899942 0.7484048 -0.055934634 -0.14902702 0.6636871 -0.22169809 -0.11398285 0.24660689 -0.4332538 0.25098908 -0.21826753 0.4013751 -1.1405772 0.5238155 0.11233023 -0.21025728 -0.31330332 0.14419292 -0.27255848 0.5052558
559 -0.3705033 0.8890579 0.6029858 0.6365497 0.09783325 0.1071558 -0.16647209 0.7839277 0.23578271 -0.4911698 -0.08090075 -0.19879045 -0.09359305 -0.2389061 0.24081007 0.3309517 0.11373606 0.24626164 0.6237425 -0.2910497 -0.03347197 -0.24514005 -0.3886418 -0.7190226 0.28859493 0.05195734 0.5927746 0.045800433 0.1001594 0.121384375 -0.9580641 -0.09784271 0.60901755 0.3637573 0.15579334 -0.52775764 -0.10575135 -0.14161493 0.29218167 0.17181711 0.5283509 0.42041257 0.2738126 0.18595953 0.09017956 0.91496086 -0.15735641 -0.09737821 0.36800903 -0.056242518 -0.37608486 0.5494455 -0.38092715 0.42892748 -0.6048554 0.0067992676 -1.1353798 0.76249796 0.5365908 0.056753326 -0.33482325 0.3680243 -0.3048852 0.20928787
230 -0.06132954 0.8774343 0.7717307 -0.077063166 -0.15498118 0.6808766 -0.2509919 -0.457901 0.3635853 0.031247595 -0.40983328 -0.5047108 0.28351906 0.54276687 -0.8632941 0.81995076 0.29040527 -0.18575676 -0.25822726 -0.5154185 1.1244568 -0.87165254 -0.38700947 0.0930094 -0.006780158 -0.52998435 -0.2894374 -0.52038527 -0.13758783 -0.54762864 -0.4754971 0.10309134 0.52935356 -0.004714137 0.046802726 0.056679342 -0.6565747 -0.19408461 -0.48257753 -0.23201391 0.3311604 0.0600919 0.67469174 0.094021 0.272536 -0.1570401 -0.16067104 -0.1504868 0.041012004 -0.61357415 0.77270883 0.30735737 -0.3303406 0.027816951 0.04297664 -0.44407374 -0.02560083 0.6276794 -0.115610346 -0.6343259 0.37923136 0.20693102 0.44844648 0.39557478
809 0.3209032 0.6954031 0.41705376 -0.23991439 -0.30573222 0.41135877 -0.32730705 -0.69803697 0.6855429 0.059701342 -0.34302762 -0.41506764 -0.19803397 -0.035390534 -0.73985875 1.073319 -0.19970164 -0.41014978 -0.16234742 -0.4978002 0.82370687 -0.8851197 -0.3324641 0.005275072 0.060200498 -0.44569483 -0.060899977 -0.65084654 -0.17301264 -0.7115574 -0.5403836 0.512952 0.44053936 -0.27319145 -0.4735855 -0.20853986 -0.60322803 0.059394848 -0.649275 -0.27567413 0.21755591 -0.18584265 0.6123803 0.0921071 -0.21552974 0.24950187 -0.40902495 -0.2502891 -0.2051634 -0.28225335 0.435929 0.051770266 -0.40185502 -0.056898776 -0.027940476 -0.5289662 -0.13310431 0.29185593 -0.2076444 -0.41751394 0.0012279587 0.55974126 0.8499862 0.13404864
43 0.46139753 0.29435253 0.51463723 -0.0828511 -0.030920612 0.36099213 0.13093953 -0.2930057 0.12280009 -0.23644207 0.085153356 -0.06369463 -0.5879638 -0.054017678 0.027535684 0.5668547 -0.31333068 -0.46713042 -0.07686715 -0.37229666 0.44417813 -0.57578725 0.13058053 0.52053225 0.3776462 -1.0306904 -0.36071584 -0.32616937 0.017432852 -0.81210995 -0.6890727 0.44845414 1.0112847 -0.41302243 -0.13608412 -0.40164396 -0.17799787 -0.102244616 -0.24315627 -0.5530509 0.70177597 -0.19728383 0.23814468 -0.1627692 -0.6288574 0.6659607 -0.100780495 -0.36471766 -0.56943226 -0.13468291 0.47157305 -0.27546167 -0.29817793 -0.09835104 0.11178419 -0.17566146 -0.3310559 0.4116516 0.19797999 -0.37783495 -0.12374147 0.72465384 0.6556509 0.24132687
393 0.24188505 0.22769935 0.6495904 -0.12973024 0.16602343 0.2571431 0.13154952 -0.4333657 -0.1024139 -0.086299405 -0.08964681 -0.06095353 -0.29345295 0.029573644 0.15917039 0.35735646 -0.055367332 -0.23569387 0.07239488 -0.083704636 0.38564068 -0.39532372 -0.0533994 0.38732734 0.43477842 -0.62278897 -0.023540888 -0.06308318 -0.049795356 -0.803167 -0.6200573 0.5772418 0.6391433 -0.06462854 -0.030549379 -0.10943687 -0.42056736 -8.340205e-05 -0.12549806 0.07096037 0.49778414 -0.05909785 0.1752849 -0.3450982 -0.6208251 0.6005459 -0.36713424 -0.022116834 -0.35606462 -0.054656934 0.6225332 -0.24215795 -0.4235108 -0.38407597 0.10624272 -0.079893105 -0.38464814 0.34688163 0.09671775 -0.7687963 0.1764901 0.62883556 0.62254703 0.27651766
406 0.042024236 0.2562728 0.122527145 0.16810387 -0.74575883 -0.52005154 0.07554807 -0.27659947 0.1873582 -0.17533742 0.7291494 -0.2386049 -0.21914843 0.49799412 0.10161248 0.7478753 -0.4444847 -0.78100127 0.16757058 -0.52404034 -0.39692742 0.22170874 -1.0031554 -0.34739697 -0.1831162 -0.39682347 -0.4447629 -0.46668088 -0.05191369 -0.19645992 -0.57557213 -0.13486706 0.556529 0.10765336 -0.72482944 0.1309382 -0.20593137 -0.20522147 -0.42000836 -0.55763465 0.2641413 0.2936416 -0.3108927 0.24249204 0.04289081 -0.1384986 -0.3726988 -0.48467508 -1.0590446 -0.11823078 0.371642 0.32143748 -0.4831862 -0.036148358 -0.33326817 -0.24325527 -0.49058825 0.31254712 0.21315476 -0.6243809 -0.4305763 -0.012222404 0.33266413 0.993188
204 -0.22051007 0.81761175 0.91804045 0.34968057 -0.23360138 0.37276712 0.11638038 0.9551471 0.48313332 -0.17717709 0.07322425 0.3545366 0.038422555 -0.42817476 0.25896776 0.16578718 -0.20579408 0.13530122 0.22292978 -0.57332534 -0.060085624 -0.21086268 -0.49912998 -0.011450495 -0.010359401 -0.014255583 0.044917885 -0.958873 -0.26359364 0.14291242 -0.24619468 0.0028204601 -0.40671405 -0.2732144 0.8378099 0.27073395 0.0055496716 0.04963215 -0.3175014 0.24238928 0.5266814 0.17540714 -0.09950468 -0.24575329 -0.22563249 0.09154686 -0.24097766 0.008833527 0.05133129 0.775875 0.72502834 -0.087134436 -0.019972108 -0.23516014 -0.3389522 0.0834149 -0.10141258 0.17286095 -0.25590152 0.2467929 -0.0027238426 0.7584213 -0.51395726 0.096605845
747 -0.40837643 1.0151542 0.84241307 0.49749023 -0.25955686 0.28183037 -0.2799844 1.0181662 0.24795027 0.020131946 0.21079984 0.054039665 0.22834426 -0.39964747 -0.05201552 0.47584382 -0.23823008 0.112964764 0.61359257 -0.70398843 -0.01190098 -0.14059296 -0.4389198 -0.13958019 -0.175662 -0.46303105 -0.0034118542 -0.85843205 -0.4153038 0.19869746 -0.4774761 -0.083134666 -0.015846444 -0.30346912 0.86371154 -0.18793073 0.44952068 -0.31981233 0.10365325 0.28848612 0.5575165 0.25585508 -0.06844712 -0.1199732 -0.19965377 0.27837986 -0.11634204 0.11883685 0.33048368 0.60030776 -0.08691413 -0.21606864 -0.26912755 -0.3264624 -0.28464037 -0.05557425 -0.25102633 0.16834785 -0.37429222 0.21025696 0.090553 0.34081244 -0.39778388 0.20639603
82 0.09627129 -0.09806023 0.012678213 0.18129875 -0.1942962 -0.058733646 -0.0453355 0.3362276 0.09247704 0.26032224 0.4252918 0.45621985 0.42864805 0.07351188 -0.33115542 0.16248304 -0.30708128 0.09687879 0.14752246 -0.17404224 0.2084848 -0.5653568 -0.068143256 6.978601e-05 0.7740347 0.31141138 0.21335186 -0.59820217 0.11201747 -0.40103292 0.09470383 0.04806122 0.2970886 1.1168345 0.09621202 0.17166445 -0.043317135 -0.8010041 -0.21339883 -0.35209325 0.8478142 0.6580179 -0.36266634 0.40958908 -0.41382182 0.37233686 -0.053910635 -0.3390298 0.21720575 -0.20082904 0.38889065 -0.32519853 -0.21320598 0.42684817 0.23447287 0.07324927 -0.47370818 0.3602361 -0.10224137 -0.27507022 -0.044828825 -0.2981167 0.12968525 0.30957714
681 0.33671176 0.008295656 0.34694043 0.071348205 -0.09487041 0.23356496 0.09482767 0.09470945 -0.103199676 0.22345875 0.21190044 0.4454864 0.18525022 0.19165206 -0.081622146 0.25539508 -0.3315813 0.076920174 0.1492596 -0.3193909 0.18194391 0.084207244 0.17273232 -0.027688641 0.73788285 0.25112358 0.44499502 -0.35828096 -0.1003308 -0.539579 -0.26928687 -0.22118685 0.4251598 0.79799986 0.0047128554 0.04747899 -0.15647975 -0.68859315 -0.32038233 -0.33348802 0.2718323 0.4089036 0.05299507 0.17070815 -0.2586886 0.17777184 0.29951403 -0.3987654 0.1578488 -0.0852928 0.18905273 0.06964046 -0.03573702 0.4201566 0.25672147 -0.47205856 -0.54910547 0.4575959 -0.058992095 -0.2758091 0.085352965 -0.3966624 0.23183537 0.50005466
251 -0.050061014 0.35254917 0.52033925 0.4899422 -0.16686139 0.15127027 0.22138885 0.48534924 0.65979946 0.23381132 -0.0041461173 -0.3229057 -0.23471321 0.2842241 -0.8797492 0.17465766 -0.0078028245 -0.17838503 0.14424565 -0.19042094 0.4835991 -0.6269948 -0.65800077 -0.77780175 -0.11525063 -0.00026034346 0.23437819 -0.33709946 -0.053858813 -0.43499812 -0.10481623 -0.15477762 0.4983554 0.048005592 -0.31388426 -0.22657871 -0.5697489 -0.72248256 -0.14486727 0.08595051 0.01121318 0.100858636 0.744642 -0.15397677 -0.022801705 -0.43786144 -0.2993933 0.32685602 0.008113954 -0.35414296 0.47465882 0.0528139 0.20710303 0.46836054 -0.17522092 -0.05284424 0.5590756 0.76041025 -0.5474702 0.20005108 -0.24587312 -0.1635966 0.15398926 0.6443859
423 0.08176176 0.27600282 0.70160997 0.37029034 -0.17406793 0.19818681 0.009362466 0.5689507 0.29952434 0.15616952 0.23660839 -0.17167714 -0.17459959 0.46180916 -0.40306956 0.40667126 0.25153673 0.14543357 0.03858882 -0.1932776 0.23568115 -0.19008085 -0.6947942 -0.65857166 -0.19915877 -0.18848568 -0.0042102668 -0.5034004 -0.24337347 -0.70724183 -0.07618822 0.10775921 -0.03952334 0.1820474 -0.27478868 -0.36715478 -0.77395433 -0.7755641 -0.31031314 -0.372067 -0.109320424 -0.23003227 0.42346466 0.12466689 0.25168082 -0.28186095 -0.36748454 -0.0011496099 0.1404395 -0.5132611 0.5598611 -0.22854431 0.097844176 0.62514114 -0.4283873 -0.19788115 0.44861364 0.8865506 -0.31034604 -0.023913857 -0.28717482 -0.17980552 -0.076986805 1.0023022
163 -0.13107099 0.096976615 0.6559396 -0.013050555 -0.31961435 -0.27037272 0.3232486 0.5586323 -0.33314115 -0.059486635 0.3899991 -0.1572442 -0.7011338 0.75103146 0.1130553 0.88808537 -0.19880357 -0.64997786 0.32783556 -0.61215526 -0.11235897 0.10151048 -0.5296594 -0.15785347 0.26596397 -0.5237608 -0.6601193 -0.42752814 -0.41421878 0.01977443 -0.376155 0.23697317 0.16108762 -0.108283035 0.07670001 0.46365574 -0.653569 -0.27505392 -0.1002839 -0.1681111 -0.47238785 0.64221334 0.16039097 -0.15588914 -0.3509527 0.11006807 -0.004286755 -0.6675881 -0.024626395 -0.3737024 0.45151287 -0.3996922 0.056513608 0.44773316 0.07543543 -0.32721663 -0.18614168 -0.18155418 -0.121030696 -0.75969094 -0.23803456 0.05235602 0.60792357 0.7680704
220 0.34035426 0.31891954 0.82504505 0.2792875 -0.3709466 0.31576177 0.5058868 0.3949992 0.2298101 0.22708146 0.7561343 0.13433512 0.37299508 -0.44921052 -0.13322714 0.1257458 0.14442801 -0.7651355 -0.12435893 -0.30675295 0.4228232 -0.6380226 0.15430644 -0.4296188 0.33802304 -0.16881722 -0.014136229 -0.13595904 0.15060475 -0.37724814 -1.2462232 -0.19172572 0.18739136 0.16809247 0.19337626 0.3710717 0.187231 -0.5252927 0.008619844 0.49466854 -0.1450899 -0.35115328 0.19803785 -0.6068031 -0.0253665 0.030230591 -0.30693886 -0.5515013 -0.62014616 -0.059781365 0.21091108 0.052142147 -0.05944778 -0.49853754 -0.99545664 0.68427587 -0.8239174 -0.064789064 -0.32079834 -0.08256718 0.1441403 0.09320159 -0.53133833 -0.054883868
372 -0.0010904444 0.6372703 0.65418655 0.28074306 -0.29351288 0.61564904 0.5296961 0.44252586 0.20962906 0.14565286 0.7779398 0.092243485 0.35163838 -0.18374081 -0.07240563 0.34213042 -0.27529913 -0.47496417 -0.19031583 -0.17361249 -0.14168881 -0.48161837 0.3283364 -0.6091774 0.113372125 -0.12573385 0.10765792 -0.2625212 0.059115574 -0.3916557 -0.6389704 -0.033413455 0.3800942 -0.02312806 0.33714876 0.14109938 -0.18946815 -0.52626944 0.1304728 0.4860853 0.28219014 0.014340802 0.15125157 -0.15869816 -0.0996818 -0.13134855 -0.4976468 -0.25764805 -0.6251971 0.031800054 0.09309559 0.13799818 -0.34665653 -0.4506716 -0.43850905 0.5110339 -0.6109199 -0.017965937 -0.55267346 0.3344201 0.09095058 0.2659402 -0.52949977 -0.36163533
99 -0.32631925 1.1362165 0.30457667 0.84215593 -0.09324328 0.5105266 0.41661972 1.4196256 0.101530544 -0.33797485 -0.1121772 -0.13268837 -0.36906222 -0.32912585 0.49468 0.098386325 0.009511363 0.089600384 0.5139948 -0.6703198 0.19564246 -0.28095925 0.029904854 -0.2654076 0.22868206 -0.5258791 -0.08114423 -0.41361967 -0.57799774 0.3518095 -0.80329484 0.11529786 0.3033744 -0.6656135 0.23364982 -0.13686782 -0.33895794 -0.47151405 -0.35810542 0.4268507 0.45274058 0.45678368 -0.16832007 -0.5502574 -0.08842598 0.52884555 0.081802875 -0.15026027 -0.025264595 -0.4207689 0.018227592 0.3415238 -0.29481685 -0.040353566 -0.21721919 -0.022741742 -0.63221914 0.632784 -0.4163877 0.061591037 0.017962765 0.27276498 -0.6367655 -0.08276457
860 -0.25139928 0.81334406 -0.03409896 0.66311693 0.11184148 0.2575353 0.33658952 1.2112104 0.4145967 -0.3117162 0.098230705 -0.27669775 -0.03817834 -0.31220707 0.10825861 0.34135085 0.36100194 -0.106150754 0.08519071 -0.299431 0.03715734 -0.40841904 -0.2409424 -0.46111035 0.00075530086 -0.1410764 0.21179967 -0.69016045 -0.52058804 0.34086582 -0.901341 0.045068435 0.15880431 -0.657176 0.2713532 -0.061819386 -0.36361474 -0.097060755 -0.09007607 0.6130795 0.5990951 0.45400548 -0.14831488 -0.39845413 -0.26065218 0.75968444 0.13965102 -0.44431546 -0.15350518 -0.03251766 -0.19762817 0.1201743 -0.17734276 -0.08688271 -0.34297687 0.30297852 -0.6091983 0.680596 -0.4012632 0.018851588 0.05132282 0.20403709 -0.49362212 0.109103456
108 0.32074928 -0.06121366 0.2783399 0.018619172 -0.24144888 0.18347229 0.22794525 0.02519146 -0.22250523 0.41172072 0.07466352 0.013142984 0.12940912 -0.18309651 -0.19488655 0.039976574 -0.3042675 -0.1365994 0.08560327 -0.45976636 -0.06886002 0.008480371 0.08109237 -0.06689606 0.16876137 0.29887518 0.33223552 -0.40376508 -0.034287646 -0.40891287 -0.3356461 0.19041128 0.2503091 0.78387904 0.11657179 0.15111548 -0.29343978 -0.21939133 -0.09064661 -0.46084806 0.59307134 0.44399664 0.10092996 -0.1373532 0.16693424 0.61305624 0.17094736 -0.39090538 0.4027932 -0.14473799 0.20904319 0.08844711 0.05260663 0.4156291 0.048103176 -0.4552119 -0.17461708 0.6062855 0.009921633 -0.31809044 -0.12531346 -0.17791691 0.27098146 0.5632634
360 -0.100268565 0.1149814 0.11878429 -0.06330111 -0.043187186 0.040243827 0.35038912 0.27287552 0.352499 0.5171603 0.16096717 0.29791844 0.24471168 0.013836601 -0.25355768 0.47427735 -0.33723018 0.15140468 0.3815256 -0.009667312 -0.019489469 -0.19116922 -0.17755283 -0.047727995 0.49523318 0.22804366 0.48325005 -0.30921075 -0.018594295 -0.28282225 -0.09611081 -0.27324128 0.43415582 0.50095063 0.32167044 0.18611683 -0.28017476 -0.5875811 -0.3397777 -0.37373668 0.49870375 0.62564737 0.12113157 0.05739221 -0.22212434 0.381862 0.07342103 -0.39197433 0.19136941 -0.103255264 -0.35337737 0.025870634 -0.001599689 0.41526678 -0.12924233 -0.31081656 -0.39420518 0.07852273 -0.15868823 0.17029214 0.014151897 -0.16710395 -0.063212 0.6433068
292 0.2842748 0.26677448 0.13332969 -0.23088558 0.08822552 0.26116893 0.29530478 0.35468078 -0.36575988 0.50452095 0.38912198 -0.025208643 0.30243906 0.11188911 0.29426664 0.83203375 -0.6671671 -1.0528626 -0.12384481 -0.16676958 -0.17218602 -0.5087448 0.13156947 -0.5865002 0.26539046 -0.12499975 -0.23407596 -0.73024076 -0.21341994 -0.28995413 -0.84040874 0.3766449 -0.2893174 0.11930347 0.2412521 0.09656318 -0.39771065 -0.5786732 0.5147459 -0.016553901 0.4224337 0.108866766 0.18880521 0.17719145 -0.3055064 -0.11368323 -0.54231465 -0.31020445 -0.17141478 -0.16661845 0.25160837 -0.48837525 -0.9036002 -0.25117037 0.093563996 0.47460237 -0.13830262 0.10027321 0.2173627 0.21963899 0.22093308 0.16321012 0.8316538 0.1887013
342 0.47518575 0.10549251 0.0691446 0.19188835 -0.27373955 0.24783766 0.16950637 0.25029483 -0.4448101 0.44105005 0.429767 -0.2153875 0.64598656 -0.07291425 0.14225625 0.7244722 -0.6570404 -0.70551986 -0.12321585 -0.00027474997 -0.21066806 -0.21467425 -0.05627344 -0.21827513 0.27037358 -0.49329937 -0.26088044 -0.69577485 -0.31109816 -0.51067704 -0.76728624 0.52015346 0.0795277 -0.43282306 0.07702028 0.18771975 -0.06978541 -0.33141702 0.35215437 0.17579803 0.53205585 0.27993822 0.51755506 0.005020283 -0.100267105 -0.11121871 -0.6337643 -0.22045065 -0.06924867 -0.24540016 0.3490756 -0.22973952 -0.6734077 -0.48409665 0.1633067 0.21586213 -0.10264356 -0.06393096 0.25623992 -0.11127121 0.30923703 0.28811222 0.68480426 0.21931437
155 0.3045192 0.099486284 0.14634298 -0.3856193 -0.1978721 -0.062096365 0.009963592 0.06296649 -0.444588 0.06529456 0.45777494 0.056258027 -0.19396763 -0.2329886 -0.17749684 0.7140792 -0.5163238 0.12297392 -0.31978622 0.07629902 -0.31321794 -0.013855995 -0.3777043 -0.6766992 0.8030602 -0.2940623 0.16302231 -0.3051065 -0.209102 0.024341267 -0.31477776 0.34450936 0.32109952 0.5288456 0.2413232 -0.29415938 -0.16571869 -0.3694389 -0.08162399 -0.011639303 -0.031501688 0.1836686 0.54057276 0.32231286 0.07389361 0.21075338 -0.19304128 -0.76745605 -0.029961394 -0.15326081 0.9792706 0.10109346 0.20757058 0.06530492 0.10818166 -0.337327 0.10264677 0.01915036 0.6630974 -0.3234447 0.4805466 0.08678656 -0.30609858 0.7418461
440 -0.037811406 0.009007929 0.0002284251 -0.48731166 -0.601447 0.15258941 0.19136183 -0.10679346 -0.17858575 0.35162243 0.7048816 -0.026226578 -0.043648887 -0.16741478 0.157251 0.7511968 -0.5194475 -0.6738649 -0.30816528 0.09650455 0.3516033 -0.22372195 -0.37111646 -0.80549556 0.5425044 -0.113476336 0.04259304 0.06404697 0.022707118 0.09167318 -0.7526912 0.43152857 0.5500492 0.32010433 0.49695477 0.09641582 0.217353 -0.12493814 -0.009407277 -0.007424894 0.4535277 -0.3769527 0.29802105 0.13515462 0.22750273 -0.06865918 -0.23526043 -0.40464884 -0.24685001 0.24491273 0.7719309 -0.10150025 0.21493681 -0.079315744 -0.13026203 -0.16178803 0.008828113 0.06940162 0.6440813 -0.044658642 0.5317502 0.19031881 0.03542752 0.44131514
685 -0.022231108 0.056556888 0.36227494 -0.036184803 -0.31330746 0.0076535526 0.49113002 0.6321918 0.20249662 0.74248093 0.32523808 0.22173998 -0.040888686 -0.30856046 -0.15027073 0.5629893 -0.2691205 0.123075835 0.5107827 -0.20392977 0.2603649 -0.054491896 -0.20083158 -0.028685126 0.34005952 0.14348115 0.43456042 -0.16531445 -0.062733926 -0.44879133 -0.10089127 -0.23876666 0.504535 0.4660211 0.020132206 0.6859926 -0.36819088 -0.49198422 -0.3925835 -0.16934477 0.67592627 0.38240117 0.024517484 -0.061791226 0.0010550449 0.63199335 0.37570995 -0.3190048 0.18609796 -0.17873524 -0.16325451 0.18733598 0.44696695 0.38988632 -0.058760416 -0.13286044 -0.69122696 -0.154566 0.15635058 0.05608194 -0.14391273 -0.21279426 0.18951946 0.17739195
459 0.21759994 -0.089993425 0.017613033 -0.20912753 -0.1378347 0.28972185 0.22181161 0.3464445 -0.18262313 0.36854202 -0.24736242 0.2387984 -0.09573036 0.016251286 0.106665425 0.2605504 -0.32306078 0.18371971 0.35845304 -0.44290668 -0.114559636 -0.26315156 0.11731519 -0.18235546 0.24404122 0.30353296 0.17824833 -0.3252879 -0.21807748 -0.3679687 -0.15475701 -0.11536622 0.38484454 0.8343043 0.32359597 0.17764051 -0.17937732 -0.48739776 -0.050524373 -0.29351643 0.59313905 0.23440613 0.18943422 0.22698753 -0.09825092 0.40463614 0.1190709 -0.49202085 0.23125704 -0.3303041 0.054522544 0.13996944 -0.09269187 0.56787694 -0.056485552 -0.3956398 -0.3535616 0.39805213 0.13150412 -0.51627636 0.06738795 -0.07267803 0.18264714 0.3952416
61 0.49578944 0.054091953 0.37103295 -0.3897354 -0.4385513 -0.074977696 0.32393315 0.32341838 -0.08813804 0.233713 -0.07053927 0.2712172 -0.07322028 -0.2970968 -0.10312765 0.5108126 0.22882774 -0.28274506 -0.018881552 -0.6776327 0.31040052 -0.3287633 -0.12400545 0.023558052 0.097364016 0.37673068 0.62014186 -0.17034921 -0.09301592 -0.5982139 -0.28609705 0.23888843 -0.23095554 0.46105656 0.6241713 0.3905896 0.29822147 -0.12418017 -0.24737637 -0.40406072 0.8749906 0.054710366 0.36176282 -0.34847704 -0.16699536 -0.04741586 0.24113278 -0.78348774 0.27945402 -0.5065521 0.51849085 0.23361734 0.46193662 0.21861364 -0.17100883 -0.20924188 -0.28508568 0.7744289 -0.21818285 -0.3351916 0.344598 -0.63035315 0.23388468 0.3438637
585 0.51709884 0.30427316 0.37758774 -0.19054238 -0.44181034 -0.29757467 0.19608092 0.19022831 -0.24349806 0.33259985 -0.28944364 0.33362702 -0.10976183 0.027288808 -0.4678455 0.48504692 0.12392669 -0.3162082 0.27093 -0.6567446 0.16691492 -0.2957828 0.021199161 -0.1773465 0.31290558 0.34869766 0.54956734 -0.26729745 0.049385205 -0.20192476 -0.14004803 0.36275825 0.16061744 0.52948356 0.42353857 0.3418848 0.21513602 -0.1423253 -0.34752738 -0.5819714 0.5763147 -0.052617136 0.0771813 -0.2011655 0.06355829 0.28088585 0.28884012 -0.6568535 0.2838121 -0.39219546 0.6012903 0.10064329 0.16113146 0.27452528 0.06474047 -0.45471692 -0.39186874 0.8910004 0.13306504 -0.21212581 0.32189488 -0.325926 0.10543456 0.3769552
650 0.108193815 -0.16538934 0.33531177 -0.21038003 -0.26623636 0.1352674 0.41331184 0.26849172 -0.12588431 0.4056255 -0.03594354 0.19269049 -0.02669851 0.025611565 0.011604984 0.12408688 -0.3049137 -0.12799124 0.20234884 -0.36922544 -0.2300204 -0.42237937 0.18299666 0.09458803 0.4269913 0.31929708 0.21975544 -0.32526097 -0.21317841 -0.2783045 -0.21790506 0.04413508 0.3829319 0.7620351 0.038199484 0.21883495 -0.47407517 -0.46618477 -0.13490231 -0.30325556 0.44324368 0.22121312 0.19193278 0.23435956 0.037197955 0.4959962 0.35409328 -0.38619414 0.10508972 -0.14700168 0.2133074 -0.00035190402 0.16291742 0.48647556 -0.13167226 -0.61605626 -0.30394012 0.62776685 0.2418409 0.055204164 0.08524213 -0.2786925 0.15681532 0.5912782
602 -0.013836109 0.6493969 0.87724143 0.79746675 0.2715333 0.4089693 0.1942021 0.48787582 0.3852468 -0.038583826 0.44217888 -0.23612446 0.15023902 -0.3806022 0.39237726 0.49031064 -0.053114556 0.03017738 0.49019536 -0.26810405 0.3126892 -0.8773533 -0.12120436 -0.27225024 -0.34086248 -0.10739767 0.15988138 -0.2697452 -0.31045008 -0.06470438 -0.62918985 0.23554157 -0.23010117 -0.07984114 0.28271386 -0.3443222 0.12766919 -0.35884565 -0.23124799 0.5790322 0.40144673 0.69911087 -0.26960218 0.13478343 0.0014160399 0.013099605 -0.22823028 -0.40942967 -0.1900728 0.22310488 0.09912502 -0.24824739 0.012833261 -0.08415777 0.043900263 0.1245384 -0.48390788 0.18321748 -0.78498536 0.027300067 -0.1127096 -0.10767666 -0.18875949 0.24325302
299 0.24518186 -0.5079052 0.64829534 -0.5727942 -0.2332335 -0.47731164 0.16509445 0.25069 -0.35760224 -0.024686098 0.3327507 -0.039209217 -0.025459813 -0.22792271 0.12318351 0.49686024 -0.3628697 -0.17001203 -0.28116307 -0.49510798 -0.09042992 -0.3628656 0.44687134 -0.4505179 0.406862 0.29900363 0.20504034 -0.3107531 0.27304047 0.013142933 -0.44668412 -0.27457723 0.3025698 0.11114391 0.1235577 0.2267801 -0.8922303 -0.37990057 0.13460915 -0.25580385 0.49004787 0.52316505 0.029490909 -0.057078563 -0.10845693 0.3013463 0.02939055 0.2733307 -0.004404841 -0.33884028 1.0030783 -0.25141683 -0.37980583 0.6037702 -0.41031274 -0.8566792 -0.40272385 0.5092247 0.3221984 -0.3951471 0.108280286 -0.25917065 0.23467906 0.17840044
798 0.353008 -0.30756217 0.5840438 -0.5878077 0.061755754 -0.42668617 0.21748151 0.23927814 -0.34994134 -0.11354632 0.09556487 0.0208189 -0.02672746 0.03305219 -0.11086704 0.5547904 -0.249703 0.09573557 -0.38923272 -0.5622994 -0.12835358 -0.21754761 0.27686214 -0.5913522 0.5201353 0.22939683 0.36286503 -0.27119482 0.20462628 -0.13486072 -0.4804355 -0.20009936 0.44226176 0.07329354 0.102939494 0.27632594 -0.8751967 -0.5373973 0.4473266 -0.060109068 0.7273495 0.53378266 -0.10986645 0.010398078 -0.37168646 0.14774595 -0.09284186 0.25423607 -0.008949368 -0.39336053 0.984187 -0.2946668 -0.594028 0.74955726 -0.5159848 -0.97975373 -0.26291227 0.4466966 0.30825385 -0.3731448 0.03489154 -0.16340508 0.20993955 0.30274954
37 0.29997525 0.5564015 0.4816557 0.038926218 -0.6983559 0.3140323 0.53742677 0.5907504 -0.11295391 -0.58242494 -0.16374198 0.6310983 0.31820908 -0.6002395 -0.30238083 0.028292812 0.8449214 -0.40220094 0.14809476 -0.5648225 -0.66775686 -0.36617023 -0.14261757 -0.17389071 0.8803474 0.17077063 0.18232267 -0.8324653 -0.18389879 -0.7132352 -0.100818254 -0.11864786 0.5657582 0.46797428 0.11019868 -0.6899141 -0.32026142 0.011505001 -0.24887589 -0.67173976 0.93153995 0.9815012 -0.5803527 0.23549128 -0.2450405 -0.032721132 0.2790822 -0.22852427 0.54038 0.036469508 0.51662713 -0.30304766 -0.22501504 1.0903999 -0.18717028 -0.06011456 -0.93299216 0.6476595 0.37129804 -0.6038724 -0.31065324 0.005326561 -0.0005128419 0.3014135
797 0.13631609 0.29208547 0.24677207 0.2807576 -0.7133892 0.6059867 0.56850535 0.6384374 0.00279784 -0.49781272 0.0037645432 0.8034792 0.05916421 -0.5205759 -0.25608537 -0.037403118 0.8098352 -0.3757288 0.19207937 -0.84130806 -0.38222906 -0.3130961 -0.1287747 -0.22524054 1.0014747 0.18474796 0.36122563 -0.8282909 -0.19988352 -0.6648603 -0.43180507 -0.13472459 0.6590796 0.51052475 0.13456073 -0.82801735 -0.18093503 -0.17164785 -0.3655964 -0.56563437 0.9528994 0.8135523 -0.44391647 0.24732538 -0.5143925 -0.19046813 0.3731271 -0.11191934 0.9064367 -0.032993715 0.4175876 -0.17690066 -0.27628794 1.057084 -0.14702746 0.20613088 -0.87480307 0.7955062 0.39139932 -0.636698 -0.37837663 0.22030748 -0.15164445 0.52528304
97 0.71434116 0.4738918 0.5690187 -0.78851837 -0.4121233 0.45317957 -0.39127746 0.5716924 0.052609053 0.72609127 0.30461934 0.4266623 0.20887579 -0.40465602 -0.075894184 0.95007163 -0.14615297 -0.9755494 0.0760929 -0.4548141 0.2612466 0.37413254 0.3146956 -0.016532212 0.13947168 0.104431145 0.1785572 -0.49345398 -1.1595558 -0.2656271 -0.8488501 0.044514257 0.71486336 0.80167687 0.58974856 0.84228367 -0.104170464 -0.040007222 0.04790483 -0.3587807 0.87903345 1.13982 -0.05172766 0.058771607 -0.69198763 -0.26885697 0.334989 -0.71660256 0.51739997 -0.40084207 0.5557526 0.2597525 -0.015885862 0.6176259 -0.65049917 -0.0054397844 -0.024603002 1.4092531 -0.32442805 0.1685977 -0.56848896 -0.26254925 0.93896353 0.012187139
807 0.625443 0.42201343 0.45025498 -0.5913436 -0.59895384 0.28852794 -0.17846182 0.27071512 0.023329519 0.674668 0.11743105 0.5479505 -0.015320289 -0.38958406 0.10834405 0.62890494 -0.2556708 -0.6074252 0.013648653 -0.37483382 0.031884167 0.3397084 0.026386812 0.22159626 0.07727787 0.2488195 0.13706449 -0.62221265 -1.0355797 -0.21269037 -0.88867414 0.0027826405 0.7373577 0.84240884 0.5220838 0.6631758 0.051242474 -0.03583687 -0.06470532 -0.4126861 0.85801387 1.1431953 0.008265782 0.04462452 -0.64910245 -0.22789806 0.37754628 -0.87108743 0.45846495 -0.5339245 0.54197586 0.31307858 0.06831655 0.6242589 -0.62924254 -0.2694383 -0.023206597 1.5316224 -0.20792761 0.06075434 -0.43532306 -0.2695573 0.63783956 -0.07170159
72 0.15534233 0.387828 0.20295773 -0.72292864 0.021399815 0.3500296 -0.55685675 1.4621547 0.10972564 0.020084077 0.480427 0.7373092 0.09904137 0.39453512 -0.32369435 0.49264228 0.22917181 -0.6194138 -0.1109503 -1.2373775 0.6780871 -0.35190514 0.033684846 -1.1203121 0.90265083 -0.58716244 -0.055567082 -0.49227023 -0.12843305 0.05989722 -1.1052513 0.20569573 -0.10232827 0.4540678 0.35279205 -0.19634128 -0.73900443 -0.94737023 0.12714304 -0.8406968 0.83718246 0.5071674 -0.32921854 -0.2579728 -0.061750643 -0.30679044 -0.45686316 -0.43474844 -0.09299178 -0.49613255 0.104715414 -0.11382529 -0.964395 0.37890962 0.22201134 -0.24752386 0.14430623 0.5953324 0.50867796 -0.28441873 -0.63278645 -0.18768153 0.28810883 -0.3903586
778 0.21218051 0.42109743 0.20003763 -0.7780141 0.27712825 0.33459693 -0.41503876 1.6959203 -0.04474752 0.4287343 0.32899797 0.5562631 0.26933658 0.6238408 -0.2042663 0.6748639 0.23155509 -0.6837599 0.026027119 -1.3826056 0.6271151 -0.39083907 0.08670606 -1.2744862 0.77739614 -0.4833915 -0.11342755 -0.5906703 -0.2948622 0.07245667 -0.9489715 0.3021001 -0.14451067 0.3987861 0.38614836 -0.003435632 -0.7080692 -0.9241145 0.35472417 -0.8157388 0.8402205 0.6491182 -0.33800554 -0.19150063 -0.078533635 -0.01118506 -0.5059324 -0.5323771 -0.104396336 -0.70361483 0.092764944 -0.105982065 -0.79590714 0.18575116 0.30033594 0.0056892796 -0.01966894 0.8564672 0.3711878 -0.31102216 -0.41051576 -0.17272067 0.29782215 -0.21764499
615 -0.054699413 0.0468785 0.12403642 -0.111275055 -0.120922625 -0.022336213 0.24362713 0.16562167 -0.26572466 0.2527968 -0.4094215 0.0071913837 -0.3199653 0.13063218 0.3270981 0.24756974 0.052854065 -0.11907536 0.4137687 0.19086945 0.32072398 -0.1621087 0.017830824 -0.24073865 0.57115555 0.061966747 -0.15065354 -0.80472386 -0.23800215 0.047405936 -0.66620487 0.5215509 -0.04001992 -0.22267741 0.0038051328 0.21787508 -0.36465016 0.12683108 -0.2270243 0.043589123 0.2977391 0.39484066 0.34918633 -0.18897183 -0.037437703 0.24346831 -0.4970719 -0.49846885 -0.061149385 0.15762752 1.0516664 -0.3280348 -0.012161618 -0.3975433 0.031143466 -0.28968078 -0.3001455 -0.0643281 0.17844287 -0.33628002 0.06460899 0.60332704 0.016727693 0.22296199
817 0.2411023 -0.12095463 0.4190977 0.31573236 0.060509123 0.053511117 0.12689704 -0.07514052 -0.5023042 0.22781448 0.2377394 -0.06439112 -0.40376297 -0.03793913 -0.12296436 0.6616647 -0.46231458 -0.00219644 -0.21676743 -0.07513753 0.09123607 -0.049988937 -0.5963851 -0.4744439 0.53006315 -0.17504923 0.06808656 -0.36572924 -0.17413574 0.030145613 -0.89981544 0.031886224 -0.11595275 0.085936256 0.075257406 -0.29735762 -0.17601295 -0.3523612 -0.085310556 0.11300776 0.27650583 0.25671276 0.78403115 0.32073596 -0.12513785 -0.20213158 -0.26515305 -0.5509747 0.26353607 -0.05389322 0.81356543 -0.3627079 0.09208732 -0.054031305 0.10715592 -0.32921693 0.15466963 -0.07677399 0.28159833 -0.41027573 0.60916644 -0.0016255367 -0.1226262 0.36902535
59 0.4145895 0.6106574 0.93194216 0.40256014 -0.13203803 0.121521644 -0.18348141 1.0216933 0.5199701 -0.05275571 0.38679639 0.0078925 -0.10942998 -0.30237666 -0.26217347 0.50246984 0.86743224 0.10617999 -0.20726986 -0.11536152 0.26909485 -0.2807083 -0.41424984 -0.77618295 0.173671 0.08086076 0.24131933 -0.02961298 -0.22062379 -0.6458743 -0.65915734 0.6183945 0.12819749 -0.28730604 -0.8980828 -0.1782161 -0.6047431 -0.1969037 -0.30021167 0.09561436 -0.60318595 -0.19400331 0.46588552 0.38698602 0.5449064 0.45701182 -0.5778961 -0.22684644 0.2458653 -0.18400286 0.1355008 -0.22039586 -0.122215346 0.56736314 -0.5051681 -0.15862966 -0.46574536 0.64325744 -0.19109541 0.12102084 -0.5838119 -0.12777631 -0.21972327 1.3013282
633 0.53741735 0.49186784 0.72836053 0.32436743 -0.072218776 0.56009 -0.28535378 1.0334265 0.36435527 -0.009443602 0.4596499 -0.17701319 -0.16177134 -0.33621722 -0.39085996 0.31260714 0.77461463 0.34621435 -0.13675575 -0.13996056 0.18592359 -0.36631203 -0.4713621 -0.5169375 0.29306793 0.25248513 0.33502266 -0.0561907 -0.22009961 -0.4735789 -0.4477062 0.6637867 0.035786185 -0.02004015 -0.644761 -0.15185803 -0.619168 -0.054915894 -0.33134836 0.09179946 -0.6203989 -0.13626935 0.5463745 0.38393795 0.55287385 0.4206114 -0.68955725 -0.2930371 0.39680165 -0.25645268 0.105126 -0.15198442 -0.29418448 0.6111902 -0.4334657 -0.12921166 -0.48004845 0.5344123 -0.04320064 0.17546135 -0.5750709 -0.08974114 -0.15442824 1.2405304
297 -0.3965487 0.36182624 0.14101672 -0.02152748 -0.070015825 0.4026549 -0.13427706 0.3720124 -0.41356248 0.4059477 1.1840812 0.10300022 -0.29225674 -0.8815631 -0.63615185 0.74598074 -0.4275046 -0.6420137 0.4157813 -0.8536964 0.36438558 -0.34355018 -0.3945229 -0.15911856 0.649837 0.23026238 -0.19903539 -0.63859254 -0.45882976 -0.031049158 -0.44710967 0.094681814 -0.28392223 -0.07444728 -0.22666506 0.010325048 -0.29976818 -0.080566965 -1.0328231 -0.3784963 0.39892116 0.058911163 0.95114326 -0.27926853 -0.021019097 -0.6244579 0.0361024 -0.25453007 0.7538002 -0.3653986 0.7598699 -0.18509616 -0.06560804 1.3406798 0.07750777 -0.049384758 -0.09418224 0.5685102 0.30544356 -0.9389927 0.84653157 0.92852896 0.33831483 0.22232981
362 -0.49833184 -0.023527285 0.18801244 0.01120815 0.002805469 0.4139948 -0.16550282 0.3659908 -0.19536743 0.30979884 1.0719601 -0.05048365 -0.3543332 -0.79265296 -0.5303769 0.5204501 -0.40152276 -0.6606542 0.16940373 -0.6355563 0.39849612 -0.15869994 -0.5967154 -0.19029787 0.6055521 0.1631373 -0.019335782 -0.44926393 -0.6144107 0.01767726 -0.5447375 0.11278144 -0.36966786 0.01142312 -0.20080172 -0.018407334 -0.45559993 0.051784296 -1.0513206 -0.46593854 0.6757007 -0.16942568 0.8860469 -0.4138196 0.10429125 -0.5254958 0.026272641 -0.26450217 0.55404305 -0.3077225 0.68692255 -0.2247427 0.016727444 1.1072145 0.07475256 0.011593255 -0.27715823 0.52757335 0.13405304 -0.7958632 0.88432056 0.9293826 0.19713001 0.27062032
339 0.28389874 -0.1461293 0.15706387 -0.010961471 -0.33023313 0.1394247 0.18969052 0.123014145 -0.095092185 0.29181883 0.16288853 0.52909225 0.25093025 0.14617732 -0.043170344 0.24785687 -0.19181167 0.123354554 0.15616594 -0.2463031 0.19135089 -0.14822863 0.11313706 -0.048978426 0.5725861 0.33804753 0.46911845 -0.28801128 -0.19019453 -0.38360432 -0.22677673 0.07012077 0.37374607 0.9328349 0.24940503 0.1278467 -0.22809081 -0.70761526 -0.29119062 -0.37836918 0.43256986 0.4819488 -0.14938284 0.019104674 -0.26704845 0.11394047 0.04236774 -0.16766638 0.30219036 -0.08680932 0.2885028 -0.21514621 0.07688882 0.43486652 0.1588208 -0.43614912 -0.6533226 0.51655513 -0.120518886 -0.1589461 0.03750362 -0.2817041 0.2198488 0.62509495
285 -0.36371726 -0.018921124 0.37371907 -0.05753504 -0.37027836 -0.1810344 0.38147417 0.5332385 -0.09730367 -0.16970675 0.35297537 -0.32931215 -0.55145645 0.60657436 0.069328 0.77634346 0.102256864 -0.75204843 0.27570507 -0.60414463 0.053605486 0.06078126 -0.6889374 -0.30345517 0.18763964 -0.5520554 -0.5813374 -0.54218686 -0.56880176 -0.023032798 -0.40801948 0.045571424 0.21818307 0.09814811 0.09063505 0.4769494 -0.7657306 -0.24167457 -0.18885723 -0.29231304 -0.5499331 0.65741396 0.3634247 -0.119366586 -0.091348924 0.04507614 0.12003856 -0.6647525 0.023920732 -0.13430516 0.34193444 -0.4934154 0.050451767 0.6157073 -0.01953793 -0.18013781 -0.1533917 0.091251515 0.13625117 -0.75867546 -0.21471082 0.003960128 0.5803375 0.95171124
284 0.36920217 0.40526858 0.7365722 0.14608413 0.07027185 0.3791007 -0.08941587 0.8847973 0.29546043 0.36613306 0.09056806 0.3207913 -0.0038704162 -0.24231751 -0.06959512 0.30176726 0.5087746 0.26027605 0.09690367 -0.13297318 0.13538207 -0.36704466 -0.21782999 -0.28635442 0.48018774 0.6186407 0.13793358 -0.09065187 -0.13111326 -0.3843965 -0.58852655 0.7974542 0.37467742 -0.17405017 -0.34033623 -0.36753872 0.013727259 -0.054129682 0.12151247 0.52795434 -0.19745061 0.16423951 0.27224183 0.49752125 0.34209514 0.5462327 -0.26630268 -0.37533697 0.2507579 -0.0044097267 -0.29247263 -0.18764153 -0.19249645 0.38213605 -0.13344413 -0.10973442 -0.95796573 0.10952091 0.06425373 0.12570408 -0.56544256 0.07168968 -0.15788151 0.84630746
467 0.37569356 0.06710145 0.6791632 0.3081473 0.05091622 -0.08725677 0.11518059 0.30647835 0.014565449 0.7023874 0.14338137 0.28907987 0.1656566 -0.38585415 0.024821302 0.9816486 0.13663243 0.073698394 0.53342444 0.30767825 -0.4374752 -0.2569756 -0.05069277 0.053326055 0.41806167 0.14171413 0.30798307 -0.13968435 -0.041113526 -0.6678893 -0.012898103 0.28662232 -0.23301229 0.18074082 -0.077102244 0.14566718 -0.19865236 -0.27481353 0.35088912 -0.096729815 0.32010064 0.4642971 0.22536226 0.40479836 0.24434434 0.50855327 0.042644694 -0.045784228 0.0005185141 -0.12508036 -0.2905191 0.34287336 -0.016855095 0.37897563 -0.14173302 -0.35302055 -0.56410104 0.24013206 -0.11765733 -0.2459213 -0.4374703 0.14690255 0.4027814 0.7947704
383 0.4921348 -0.13540456 0.18166365 -0.2577675 -0.41418436 -0.0133186905 0.34309492 0.35314345 -0.27856243 0.51020473 -0.0033745961 0.1861598 -0.10865739 0.09811081 0.06820439 0.36439705 -0.15158531 0.13529213 0.23207173 -0.24701706 -0.26372704 -0.15087652 -0.118324384 -0.015804572 0.33722302 0.11191625 0.33303565 -0.39198205 -0.3545955 -0.14053361 -0.1914929 0.21041067 0.44376037 0.98948896 0.070385456 0.04167379 -0.429748 -0.46418616 0.07977912 -0.25700578 0.5494635 0.2971766 0.20350301 -0.008786301 0.072880685 0.28843167 0.006600792 -0.25168866 0.109224886 -0.028439067 0.035635907 -0.24770851 0.09742217 0.23797311 -0.0073163197 -0.89687544 -0.2786205 0.69354886 0.12760252 -0.41860372 -0.13324873 -0.21074875 -0.071262345 0.16152318
235 -0.041771717 1.150745 0.36684966 0.79108256 0.105971456 0.14989366 0.6001673 0.59875983 0.39066577 -0.14458488 0.6106565 0.10373031 -0.24569985 -0.36150062 0.11227795 0.17770074 0.13068256 0.15309547 0.5107431 -0.51484036 -0.19201167 -0.4385832 -0.16407537 -0.50436693 0.2396617 0.19068448 -0.24392477 -0.42511478 -0.71072155 0.27804932 -0.556649 0.121759064 0.45585418 -0.16057141 0.7298397 -0.43023145 -0.12910898 -0.48794496 -0.55557346 0.69053817 0.51152223 0.7102293 -0.09315438 -0.14181782 -0.22028567 0.440744 -0.3371853 0.24612987 -0.41462454 -0.07998461 -0.12574413 -0.1361175 -0.031545423 0.09517217 -0.4962648 0.001754798 -0.28758252 0.22368062 -0.20715971 0.0927801 0.08713954 0.25397187 -0.09344547 -0.23301956
668 -0.14574409 1.2950925 0.268415 0.78261656 -0.14771771 0.4878952 0.66638273 1.1366504 0.15343486 -0.10562015 0.3133383 0.08245999 -0.21256223 -0.46789718 0.34319615 0.20043908 0.0432693 -0.11000875 0.23698278 -0.5605155 -0.09072418 -0.09653567 0.10064006 -0.22330736 -0.0020471762 -0.22642747 -0.18475682 -0.3983817 -0.5888017 0.36653805 -0.42122415 -0.17046165 0.11228898 -0.16382803 0.36862183 -0.19077456 -0.25335056 -0.4908481 -0.4001757 0.67951566 0.41827658 0.47962308 0.11614797 -0.243604 -0.1593643 0.7475821 -0.13811147 -0.25286123 -0.47115213 -0.24169323 -0.066983014 -0.20295665 0.060867053 -0.12290052 -0.4811344 -0.05774852 -0.47494847 0.4818802 -0.3109292 0.11332574 0.48533207 0.28772324 -0.1388774 -0.14801209
658 -0.18245135 0.24486917 -0.11235376 0.114464 -0.7141016 -0.3791902 0.85871536 0.14397857 -0.014697876 0.0026167945 0.053249188 0.007688536 0.1904626 0.4500991 -0.07547866 0.8224839 -0.45619953 -0.2985061 0.97781646 -0.048256423 -0.06572961 0.26430684 -0.8863035 -0.12563208 0.14604838 0.14492883 -0.029899385 -0.17510681 -0.07163741 -0.1483467 -0.011915244 -0.38140398 0.28901106 0.18720786 0.018908758 -0.1429106 -0.17430584 -0.44776648 0.09027624 0.13994089 0.3747813 0.44240198 -0.14674218 -0.16342786 -0.107489936 0.11276116 0.12510827 -0.28159538 -0.28933644 -0.24389094 -0.27609515 -0.07528462 -0.26743737 0.3539923 -0.31541038 0.011905503 -0.20958506 0.16486688 -0.39857697 -0.5102288 -0.3920952 -0.1077796 0.21068524 1.2973561
225 0.25357488 -0.29194805 0.4997736 -0.33348644 -0.8072781 -0.3948214 0.2782392 0.6816069 -0.4738686 -0.033895716 0.4949303 -0.27226582 -0.52920455 0.55495435 -0.54828775 0.3965151 -0.2876767 -0.023485428 -0.2486538 -0.08440757 -0.32709914 0.003647314 -0.5502754 -0.52453566 0.26207575 -0.3349015 0.665129 -0.5455384 0.06208942 -0.252401 -0.69490206 0.5905096 0.96500456 1.1614052 0.14058648 -0.3282037 -0.80609 -0.48546094 -0.26151213 -0.5261856 -0.30336347 0.38491973 0.6955185 0.56902677 -0.19585419 0.10331082 -0.92389446 0.01812267 -0.04568181 -0.09774875 0.5452902 -0.033490814 0.18978725 0.23985523 0.17657933 -0.4080061 -0.19387871 0.9658817 0.22317113 -0.23547015 -0.23069863 0.120231085 -0.027574241 -0.14965276
469 -0.17666979 -0.071645014 0.18817468 -0.024803331 -0.56501055 -0.1742969 0.29732028 0.5979876 -0.28057784 -0.036343753 0.4404817 -0.41203344 -0.28385782 0.288948 -0.33811086 0.4122407 -0.5384194 -0.02475814 -0.280392 -0.12505618 0.17258689 0.09963575 -0.3358037 -0.827304 -0.12559953 -0.27349925 0.6192069 -0.3815798 0.16927224 -0.4257954 -0.58537245 0.6691846 0.8185113 0.46213037 0.0768169 -0.21746561 -0.53510034 -0.33042878 -0.17188981 -0.52357084 -0.49332017 0.20382702 0.5987623 0.36273053 0.085773274 0.09882658 -0.82636464 -0.39945737 0.003972066 -0.22976539 0.8881414 -0.23330803 0.3281895 0.26942813 0.091890045 -0.35334778 -0.012412962 0.25689644 0.42451653 -0.12351537 -0.22393277 0.19192363 0.15919796 0.09259081
214 0.3745621 1.0577564 0.40862602 0.5558043 -0.05354961 0.08467155 0.6084744 0.46643654 0.52762246 -0.35709187 0.51035225 0.04191287 -0.021666838 -0.04621677 0.22086166 -0.0680367 0.060240462 -0.41473374 0.43070388 -0.376017 0.24940893 -0.13348457 0.023454526 -0.11886665 0.1776241 -0.074100025 0.063544266 -0.5852151 -0.42991862 0.12529987 -0.43260828 0.21160777 0.30350366 0.26449528 0.586413 -0.29067892 -0.2197758 -0.719736 -0.80071056 1.2681032 0.9110193 0.6510062 -0.18487966 -0.055445474 -0.18606842 0.7229563 0.019948024 -0.19502868 -0.10043894 0.16709052 -0.4258585 0.02282507 -0.016820077 0.2533118 -0.18337263 -0.34160143 -0.48704782 0.07592015 -0.06864886 0.29927775 -0.04217207 -0.1560564 -0.13370728 0.055962756
129 0.28672454 -0.5031868 -0.03505239 0.30431223 0.067400366 0.8883198 0.038240734 0.7745605 -0.2715735 0.8034638 -0.003982432 0.37128806 -0.3183536 -0.5692959 -0.5514436 0.3260433 -0.117521845 -0.3999206 0.5395979 -0.33940032 0.45108005 -0.30666155 0.35353094 -0.26234177 0.057082303 0.14725222 0.3949024 -0.5897339 0.06832383 -0.26626393 -0.07391376 0.15126564 0.08168801 0.7382328 0.24432601 -0.18849897 -0.66282994 -0.44670013 -0.29075474 -0.055883896 0.41058818 0.29446396 -0.383375 -0.29523695 0.40207112 0.033718567 0.011957515 -0.12475846 0.14245161 -0.22535422 -0.06291644 -0.21330704 -0.009486629 -0.024264403 -0.002954659 -0.7096396 -0.094200656 1.1113701 0.23808387 -0.21920863 -0.10490992 -0.19969207 -0.21965767 0.71425533
856 -0.10620676 -0.15753803 0.14267547 0.34047696 0.20986989 0.69744426 0.44039595 0.93070567 0.16381136 0.7227037 0.15749662 0.38511705 -0.49289408 -0.792096 -0.28370795 0.49528158 -0.10378426 -0.49216515 0.8870885 0.043218277 0.5080572 -0.4749074 0.41626924 -0.4444801 -0.01720688 0.13822721 0.23662207 -0.6844636 0.14697048 -0.26616496 0.027269946 0.32133767 -0.090723395 0.44186133 0.14007293 -0.29107627 -0.13249408 -0.35159165 -0.16088429 -0.1606725 0.34885156 0.24226335 -0.361112 -0.42235813 0.26432198 -0.39656317 -0.19887051 -0.032200005 -0.05374295 -0.007885164 -0.3229485 0.18616767 -0.033519957 -0.39889452 0.09158432 -0.47623268 0.32061595 1.0379603 0.0062236 -0.24332981 -0.031957615 -0.017814813 -0.34564465 0.656933
542 0.31808034 0.66979617 0.19388847 0.42530635 0.12648974 0.8058392 0.28426984 0.8200326 0.5334889 0.022056967 0.44334966 0.064491265 -0.057891414 -0.6406049 0.29688606 0.36570853 -0.19227563 -0.30751443 0.3097389 0.07986509 0.59590834 -0.39510688 -0.15316506 -0.43705717 0.053718075 -0.24265255 0.5536682 -0.722908 -0.06952753 0.27270734 -0.11020746 0.011959756 0.2350858 -0.46291596 0.15242106 -0.64654464 0.16049795 -0.42536178 -0.24897116 0.35981342 0.0923964 0.5286624 -0.4863961 -0.40408054 0.37487757 0.23891406 -0.31556585 -0.33862272 0.0910043 -0.044479415 -0.10196392 0.18532938 -0.116409086 -0.1696449 -0.288243 -0.1908788 -0.21022056 0.66914064 -0.53049064 -0.25972745 0.19478138 -0.08668003 -0.15996759 0.14727846
66 0.061551545 0.37186477 0.8056711 -0.17381938 -0.31204647 0.43223795 0.034412436 0.25031853 0.28554428 0.31036747 -0.034492116 -0.19679464 -0.29178262 -0.09758358 0.12534733 0.117124416 -0.13449062 -0.17071612 -0.053848445 -0.3469473 0.60876864 -0.13197744 -0.4654926 -0.50207716 0.38665557 -0.45022193 -0.022777623 -0.606527 -0.40716982 0.21933939 0.18041883 -0.07338436 -0.013139929 -0.13035677 0.2059109 0.268185 0.41854143 0.045589324 0.08742088 -0.12889887 0.35177457 -0.36682636 0.76245123 -0.17699815 0.006770183 0.14996535 -0.49188492 -0.18811086 -0.13015455 0.19134957 0.8454665 -0.3691983 -0.51831007 0.13687861 0.3333355 -0.029404497 -0.41439533 0.19395621 0.1664598 -0.21653812 -0.4315709 0.3428132 0.18221441 0.099757314
627 -0.06405843 0.3547618 0.451323 -0.44118717 0.014336094 0.10623624 -0.040648714 0.31347626 0.30341423 0.060678594 0.08082747 0.23381832 -0.21736456 -0.10159678 0.23329207 0.2735335 -0.23505308 -0.07471357 -0.29569715 -0.28628916 0.5393475 -0.09363425 -0.4295764 -0.2327698 0.5383138 -0.10451005 -0.18930346 -0.6577929 -0.35656583 0.25716212 -0.25090373 0.09258265 -0.03215649 -0.0857156 0.33282682 -0.09417762 0.06650674 -0.023417545 -0.15261592 -0.1658163 0.26545534 -0.24654065 0.61512464 -0.07976788 -0.524599 0.38907266 -0.47799152 -0.43728662 -0.33110234 0.31545267 0.8213022 -0.64283186 -0.24692138 -0.0932637 0.08694126 -0.21481203 -0.36843225 0.09121142 0.023012964 -0.3694892 -0.32477283 0.44205138 0.08291198 0.14266975
226 0.1537157 -0.1325986 0.27884683 0.04604551 -0.91262645 0.6925684 -0.0019614631 -0.13200969 0.45531732 -0.12842885 0.3681668 -0.22640094 -0.41942436 -0.22840747 -0.25081864 0.3047075 0.2983997 -0.59070474 0.50072527 -0.107243374 0.43458673 -0.7699508 -0.3721804 0.3272771 0.33119884 -0.6174132 -0.23563498 -0.13291255 -0.019713704 -0.59740055 -0.94321966 0.26422772 0.53040993 -0.037943274 0.23573911 -0.14543977 -0.14446391 -0.42016038 -0.5288314 -0.83923274 0.870957 -0.42510104 0.12962832 -0.25818652 -0.19510488 0.3333249 0.16961868 -0.6726766 -1.0157517 0.11428398 0.34762967 0.106645435 -0.5563142 -0.007955206 0.031364754 -0.025809253 -0.27108032 0.4622492 0.5237096 -0.27701813 0.25616676 0.3883483 0.8095613 0.3913934
334 0.30403 0.1245008 0.083573945 0.16402605 -0.87884086 0.7003425 -0.17926534 0.045759644 0.27119315 -0.32840186 0.48168978 -0.09294669 -0.45920086 -0.29369542 0.019838097 0.42333817 0.2631466 -0.6399499 0.21822824 -0.43323392 0.6004571 -0.9473134 -0.38486633 0.20692834 0.29079923 -0.7046276 -0.47655958 0.06248574 -0.18862715 -0.4906778 -0.8796485 0.15815026 0.61286354 -0.13376799 0.25810972 -0.34436134 -0.25843704 -0.3467804 -0.6650417 -0.9505663 0.6603384 -0.68938756 -0.08138672 -0.41209644 -0.47492692 0.46203694 0.39065805 -0.7016429 -1.0657176 0.08002337 0.6407778 -0.049442314 -0.5971251 0.0151956985 -0.20824058 0.07893402 -0.43223292 0.6700217 0.7003232 -0.10236766 0.037593864 -0.0226531 0.9205999 0.391813
14 0.25421226 0.16956218 0.39954782 0.21611391 0.1471192 0.5375891 -0.2091811 0.32394648 0.11604532 0.19738315 0.21308061 -0.4341272 -0.3024346 0.43080893 -0.41836897 0.5880063 0.3466334 -0.046985876 -0.07238599 -0.48425052 0.35707107 0.11515437 -0.54411393 -0.6484142 0.39562428 0.031069988 0.1745585 -0.71841276 -0.29085946 -0.5539366 -0.2573454 0.12195702 -0.028933462 0.26984555 -0.38077882 -0.09331109 -0.5244738 -1.0039741 -0.42112976 -0.5438621 -0.010822734 -0.45259118 0.26827985 -0.1169145 0.07848407 -0.14497328 -0.37549895 0.0041360743 0.21987323 -0.47730485 0.581653 0.10824925 0.45342317 0.5871471 -0.23660897 -0.27154708 0.49149337 0.9203352 -0.19834146 -0.31448552 -0.47864407 -0.023361413 -0.2122508 0.7170268
622 -0.08937958 -0.022358663 0.5534169 0.36588642 -0.12419647 0.1425376 0.07677078 0.73712534 0.47151336 0.08704039 0.18869168 -0.27527988 -0.17150548 0.5881522 -0.100206934 0.39322418 0.42227772 0.06400017 -0.10508792 -0.35418212 0.18989286 0.012783122 -0.5606977 -0.61299634 0.15463117 -0.04945163 0.1579619 -0.45564067 -0.37313277 -0.70370173 -0.2024185 0.27906618 -0.104708925 0.17315431 -0.34416735 -0.26510656 -0.71807575 -0.7150776 -0.4554789 -0.33368364 -0.023969946 -0.43375975 0.4277432 0.2662432 0.0069977706 -0.26673815 -0.48703098 -0.009727196 0.102452174 -0.6053913 0.48157424 -0.06119952 0.37753177 0.6885269 -0.31621617 -0.17712611 0.31267944 0.9633635 -0.023676405 -0.3417665 -0.59955996 0.0445897 0.043682214 0.9780798
31 -0.18785115 0.11031047 0.55382836 0.2086855 -0.6324709 -0.23886491 0.032895297 -0.090165205 0.25143462 -0.11752211 0.6140526 0.08921711 -0.21900068 0.36139864 -0.06646925 0.88542855 -0.3028481 -0.39455897 -0.3874881 -1.0161984 -0.122842744 0.4413588 -0.9975116 -1.0550592 -0.2840152 -0.5383263 -0.45885196 0.044077475 -0.49383396 -0.54497856 -0.16297506 0.30305165 0.6924055 0.2912369 -0.024390463 -0.106716745 -0.41700163 -0.20069775 -0.62883484 -0.016383648 0.0050467537 0.16099577 -0.1569691 0.19055894 -0.36091208 -0.14389463 -0.742251 -0.60513 -0.53264195 -0.1271099 0.46104884 0.2340869 -0.6135537 -0.37163958 -0.08743212 -0.41333023 -0.57644963 0.5768255 0.3356504 -0.13264057 0.17311707 -0.5365342 -0.11666389 0.87720996
732 0.15274788 0.25848138 0.43461868 0.3076378 -0.51056606 -0.21204463 0.08910319 -0.10767546 0.07185144 -0.369526 0.5218217 0.13652617 -0.25127965 0.20525423 -0.2441836 0.763086 -0.32376423 -0.09195139 -0.18661346 -0.89248407 -0.28272733 0.48567227 -1.103269 -1.3442148 -0.29373658 -0.71447116 -0.44483364 -0.22603501 -0.5654747 -0.34768325 -0.25718936 0.27460337 0.527891 0.21853502 -0.24164608 -0.31154668 -0.4977974 -0.30570513 -0.67880285 -0.45540315 0.23519567 0.3352243 -0.4466574 0.53913814 -0.2235643 0.008059018 -0.5028713 -0.6865528 -0.59799284 -0.15482615 0.5328413 0.41875392 -0.9199666 -0.33657768 -0.043895066 -0.25592992 -0.711053 0.40713832 0.39205906 -0.30586308 0.0682164 -0.566073 0.2687939 0.9603649
853 -0.20390296 0.13117047 0.5010028 0.44170874 -0.1877927 0.09265765 0.3442629 0.39207962 0.1852823 0.0860825 0.13191271 0.54513466 -0.058049135 -0.6006915 -0.22316618 0.14096972 -0.3195518 0.021272827 0.6573651 -0.17884299 0.58397657 -0.35060352 -0.3419457 0.096282385 0.56979966 0.16635497 0.20440738 -0.31594852 -0.021021413 0.18335293 -0.13375466 -0.0068590455 0.06673156 -0.23435007 -0.12554108 -0.2944286 0.19235082 -0.20040824 0.16664103 0.15397225 0.41663897 0.0497151 0.04236056 -0.942877 0.16611183 0.07502733 -0.27504307 -0.3838823 -0.5312386 0.10623512 0.19711359 0.08619614 0.058191918 0.12651601 -0.5966093 -0.46574104 -0.10003779 -0.1722781 -0.3295708 0.21632427 -0.2757227 -0.11383911 -0.04867695 0.45108974
783 0.020253157 -0.5187092 0.20254487 0.18899438 -0.18274154 0.6024855 0.016874732 0.41928086 -0.107606865 0.4315996 -0.19506197 0.4098874 0.10838822 -0.33122215 -0.04271604 0.32867455 -0.3385144 -0.09704123 0.16773379 -0.3366604 -0.0009574553 -0.3506867 0.1716462 0.037684243 0.027562026 0.219451 0.14055392 -0.84436315 -0.029091116 -0.21117534 -0.1959442 0.3422103 0.13310131 0.8547527 -0.0011782408 0.08237195 -0.50175035 -0.5610586 -0.5032058 -0.3058378 0.5803086 0.23439755 -0.22599877 -0.26131323 0.19532917 0.4399752 -0.055326328 -0.21919489 0.20841482 -0.14656916 -0.01101203 -0.075708866 -0.076475285 0.338568 0.14042884 -0.69268954 -0.2238339 0.9131272 0.2751317 0.02307718 0.0654278 -0.5284239 0.17325376 0.652422
182 0.3366904 0.07969028 0.12170159 0.1742807 -0.80963796 0.89061564 -0.33920643 -0.10144705 0.19676198 -0.35667822 0.24651891 -0.36860532 -0.845424 -0.19536042 -0.031208176 0.34620753 0.29532906 -0.7268363 0.17539072 -0.3664425 0.23459566 -0.7120194 -0.16354579 0.015883923 0.3661642 -0.86287814 -0.2400519 -0.3206555 -0.29173067 -0.6916805 -0.6995054 0.298587 0.7170144 0.10207024 0.10726014 -0.33788577 -0.13680671 -0.39260432 -0.5183524 -0.71622854 0.7345542 -0.24157056 0.15083979 -0.31958175 -0.38139653 0.65710896 0.44053763 -0.4842643 -1.1554105 -0.06782858 0.15948543 0.1166909 -0.6995749 -0.07132801 -0.5017325 0.009388649 -0.4671616 0.3989188 0.38255414 -0.54302776 0.006230749 0.00843765 0.98685676 0.24788374
547 -0.11572428 0.54972106 0.6830568 -0.4416162 0.0011387619 0.14043845 0.027450694 0.24222946 0.56607324 0.22935334 0.019019626 0.18620063 -0.3770609 -0.3107097 0.116061814 0.13065648 -0.17275554 -0.3222527 -0.1485625 -0.39827347 0.35534868 -0.15403172 -0.43791717 -0.3901889 0.63595873 -0.250977 -0.13608797 -0.7842015 -0.30424273 0.3834208 0.1386141 0.055546384 0.017908312 -0.16619141 0.56186974 -0.11884273 -0.09467042 -0.036942568 -0.17608373 -0.25125337 0.15341158 -0.43873873 0.7393264 -0.04117145 -0.48275137 0.096923955 -0.18647268 -0.31168512 -0.2365849 0.49640033 0.949822 -0.3976519 -0.50101084 0.23624362 0.117251344 -0.030009175 -0.5983134 0.25703627 -0.0041219667 -0.31927016 -0.3054294 0.2801707 0.32429448 -0.005340982
293 0.013811692 0.3315907 0.68303245 -0.16098623 0.15157215 0.16475691 -0.14885499 0.2349124 0.56536806 0.17455752 0.23382753 0.051631156 -0.3481861 -0.2556902 0.2519051 0.1506091 -0.36640716 -0.18604669 -0.16152784 -0.37313017 0.3992974 -0.14083862 -0.55070734 -0.11579621 0.41206497 -0.15999225 -0.2603407 -0.8867529 -0.15114915 0.12160831 -0.034527533 0.19728096 -0.17289667 -0.09468899 0.4445195 -0.23732218 -0.059720993 -0.046156075 0.22136712 -0.2084717 0.37347424 -0.26936433 0.63543075 -0.13692091 -0.46075088 0.20069964 -0.33919585 -0.3456867 0.037035834 0.48201498 1.003018 -0.3277084 -0.56622046 0.03066087 -0.031564496 -0.009186651 -0.41520736 0.27043438 0.1980702 -0.5218213 -0.16222985 0.08677543 0.31339687 0.024740404
205 0.46651295 0.82702893 1.3001683 0.21676569 -1.4592066 -0.078489676 0.33599353 0.29115623 0.009326362 0.024867808 0.9636655 0.3729912 0.37203792 -0.3437695 -0.4216752 0.6438596 0.3203637 -1.2887882 0.19944447 -0.6764433 0.33728868 -0.31322423 -0.20427014 0.1695523 -0.0082634 -0.6394743 -0.023639392 -0.10658699 -0.3485174 -0.750648 -1.7250504 -0.33057836 0.7489554 0.3078583 0.1629971 0.38736305 -0.08018407 -0.5754034 -0.37578025 0.5034202 -0.13649268 0.3198044 -0.08677636 -0.13129418 -0.018254895 -0.4899496 -0.10734225 -0.77382225 0.15068826 -0.010932573 0.09947132 -0.10061083 -0.27847266 -0.54845417 -1.8213953 0.68185157 -1.8688734 0.37260646 -0.83430547 -0.07987773 -0.06801312 0.27632508 -0.48667932 0.24664615
867 0.38909504 0.80316997 1.443497 0.18827628 -1.2058728 -0.013470938 0.37411538 0.31660813 0.00866672 0.13933136 0.91832405 0.28247505 0.3874769 -0.3697747 -0.4336476 0.61189955 0.23188807 -1.2684213 0.20966312 -0.59968513 0.2943986 -0.4264893 -0.1358674 0.049400553 -0.103266016 -0.4988175 -0.10374697 -0.14690302 -0.39561522 -0.7587962 -1.673844 -0.30347922 0.61559004 0.24609399 0.22012427 0.26773688 -0.07951387 -0.4796806 -0.390013 0.5435566 -0.24836135 0.22968094 0.079654664 -0.20264232 -0.055394214 -0.62711424 -0.24255233 -0.6138458 0.13176383 -0.04098096 0.25069025 -0.049485113 -0.2369968 -0.6641927 -1.8952315 0.77316743 -1.8231924 0.34485313 -0.8754597 -0.09357504 0.01977278 0.301732 -0.42340055 0.3761095
