880 64
305 0.1456709 -0.085712425 -0.13841704 -0.19358529 0.61586636 -0.39355645 0.25198355 -0.52665025 -0.15882981 0.019081982 0.15351336 0.62213767 -0.12675007 -0.15428835 0.49716625 0.34097466 0.16378495 -0.06363386 0.15063742 0.5394955 -0.43368977 -0.55490685 -0.06732353 0.26700553 -0.4757535 -0.16635548 -0.005495631 -0.3887992 -0.03247756 -0.10213754 0.063051976 0.07218617 -0.44006488 -0.15745974 0.28780288 0.96524423 -0.08805562 0.50538 -0.22950155 0.009319912 -0.30422992 -0.5009067 -0.021029422 -0.31714448 0.49123675 -0.51044077 -0.061952613 -0.5821811 -0.054506645 0.4719107 -0.082303345 -0.43006364 -0.06998738 0.13888949 0.08559823 -0.39506963 -0.31745493 -0.10581057 -0.12085651 0.23528992 -0.049051926 -0.011637173 -0.07982424 -0.15830632
545 -0.016938383 -0.3322176 0.089226685 -0.26144406 0.636017 -0.35626844 -0.060797792 -0.32026032 -0.23381677 0.19401479 0.07804738 0.8261364 -0.25495917 0.14975221 0.41950893 0.30982417 0.13037656 -0.086826175 -0.03812976 0.44485757 -0.20107152 -0.21540946 0.25988528 0.31349668 -0.5113577 -0.062124383 -0.023279482 -0.110511445 -0.1430388 -0.15420048 0.018166795 0.17425637 -0.3736813 -0.10302451 0.12346438 0.6808406 0.20657814 0.63218904 -0.19989984 0.0144825615 -0.3879308 -0.3783847 -0.10234244 -0.2767963 0.36838076 -0.5756399 -0.021891037 -0.17976417 0.047036834 0.29464987 -0.34142017 -0.46517682 -0.3253369 0.3720222 0.19926898 0.035162274 -0.5824904 -0.281495 -0.26564395 0.27943698 -0.34901154 -0.009184479 -0.11237865 0.06644163
31 -0.56723624 -0.081097454 -0.118550986 -0.47281104 0.50327873 -0.3111743 -0.3272172 -1.0141242 -0.10553292 -0.14829676 -0.07935904 0.4176704 -0.61130774 0.43534824 -0.30553734 0.4095794 -0.72634506 0.111832164 -0.44356316 0.3792113 -0.31392044 -0.37915343 0.20107895 -0.26265994 -0.13439561 -0.7167966 -0.005966175 -0.22165285 -1.2114899 -0.13759527 -0.031067217 -0.3255806 0.3906583 0.4823175 0.6232566 0.34216502 -0.12554795 0.28050822 -0.7494214 0.23373082 -1.0497438 0.35731983 -0.49012145 -0.44704524 -0.39109477 -0.2071625 0.32606956 -0.07838584 -0.028503314 0.5180418 0.0027401391 0.59424025 -0.18239775 0.43759328 0.32351184 -0.08788755 0.3788693 -0.24251302 -0.058305454 -0.39151588 -0.17084122 0.36642098 0.23146045 -0.48696023
382 -0.17213292 -0.18507457 -0.27150872 -0.3559971 0.644866 -0.42437035 0.05891586 -0.29522455 -0.2485497 0.27261814 -0.26166037 0.3094917 -0.53395414 0.35509443 -0.4730954 0.41759935 -0.5695363 -0.24969657 -0.37879875 0.4084495 -0.1358666 -0.77996415 0.079561934 -0.04038101 -0.23718219 -0.6021765 0.15912487 -0.26277032 -0.85535204 0.2029182 0.21268322 0.07430976 0.3443271 0.52665687 0.57423276 0.18818334 -0.28790492 0.84065986 -0.7433335 -0.0634288 -1.2227025 0.1603276 -0.06458486 -0.3531582 -0.29151663 -0.4097394 0.3556315 -0.25819364 0.20759444 0.6076672 -0.50741 0.5993347 -0.17339462 0.23172985 0.32580942 0.1624171 0.39566326 -0.0042619295 -0.17661433 0.25604084 -0.12268543 0.02082302 0.39227763 -0.060222182
215 -0.05515364 -0.018471286 -0.5256326 -0.58309835 1.0368422 -0.23054701 -0.14301881 -0.42008963 -0.24329014 0.13473587 -0.22994144 0.6435382 -0.24258752 0.24721456 0.17737883 0.44595745 -0.07876876 -0.5356937 0.009248664 0.53406817 -0.15455836 -0.1923648 0.11770665 0.68626696 -0.4059929 -0.32024124 0.10523485 -0.796877 -0.4521937 -0.4741634 0.076646045 0.14595404 0.013374118 0.3620181 0.32199153 0.8892045 -0.031825792 0.37970456 -0.603275 0.022218158 -0.65597355 -0.26020393 -0.2021786 -0.46830487 0.23590708 -0.5740814 -0.32056972 -0.50842875 0.43046635 0.15730654 -0.25120172 -0.05553401 -0.5748036 0.25426695 0.17369582 -0.54241556 -0.5204773 -0.024580833 -0.25277084 -0.04809458 -0.10705412 0.28434342 -0.2827519 -0.30712697
772 -0.4084217 0.03568584 -0.41170153 -0.6710513 0.9420019 -0.4525731 0.12701845 -0.5712154 -0.34981236 -0.007985772 -0.16518812 0.5579352 -0.30541298 0.24592863 0.35518494 0.18255562 -0.017413659 -0.42228577 0.12379818 0.35119358 -0.3309761 -0.35887998 0.0065714535 0.49539346 -0.35480008 -0.31994283 0.3827546 -0.46072534 -0.3966183 -0.45839503 0.11524161 -0.0012425559 -0.07642553 0.29202366 0.17745866 0.7188557 -0.014780425 0.35159823 -0.36968198 -0.112852454 -0.4774645 -0.28996983 -0.06525385 -0.7569048 0.3558787 -0.42024583 -0.2039149 -0.5029199 0.415918 0.21919383 -0.30861017 -0.17762515 -0.3889039 0.16194524 0.10566315 -0.40168044 -0.34510797 0.3353038 -0.15131815 0.0341297 -0.16425537 0.18591365 -0.25117418 -0.34693167
108 0.23507373 -0.0861087 0.11146285 0.035626523 0.18747064 -0.39157924 0.10750469 0.13255523 -0.29930535 -0.70404506 0.3916442 0.044071283 -0.41315475 0.21155709 -0.019955233 -0.05531365 -0.36747757 -0.19436131 -0.30242184 0.63620144 0.00317989 -0.13298175 -0.40087476 0.2710824 -0.00783937 -0.06793202 -0.059815623 0.12326664 -0.45862627 -0.14431418 -0.3832241 -0.055721235 -0.47196105 0.4810554 -0.12991065 -0.45788142 -0.29646292 0.29809576 -0.34990737 0.16230871 0.3230701 0.10702896 -0.052037697 -0.12496561 0.22485612 -0.62921035 0.21495469 -0.40642875 -0.33140063 -0.092576735 -0.20041068 0.20972592 0.29016936 0.43006125 0.026870873 0.13423966 -0.015209849 -0.57153994 -0.08752449 0.2614079 -0.37698326 -0.15343097 0.32406303 -0.42422682
353 0.41425154 -0.14769375 -0.13240026 -0.49694434 0.25193727 -0.48423925 0.18287282 0.030794762 0.09868782 -0.5413538 0.20933816 0.07192051 -0.56331635 -0.08369182 0.019165387 0.11202492 -0.29067776 0.11241839 -0.34882507 0.6399122 0.19080308 -0.0135619575 -0.65586436 0.2854613 0.10478147 0.3511448 -0.084597394 0.32288295 -0.6475153 0.03490883 -0.28566206 -0.12552744 -0.7042019 0.75695705 0.17624208 -0.29665127 0.15999654 0.21141392 -0.37125063 0.2407437 0.29441962 -0.043416306 0.15565088 -0.16344155 0.28862873 0.08528113 0.5594337 0.09213888 -0.13195765 -0.3053532 -0.2271368 0.06867081 0.12866892 0.4027634 0.2621006 -0.021931836 -0.2285387 -0.90916 0.19972278 0.45162997 -0.40094218 -0.091705866 0.3848672 -0.7201469
206 0.29435644 0.38158923 -0.3584333 0.1319962 -0.05186116 -0.07626596 0.2751527 -0.30897543 0.16333658 0.197957 0.1488902 0.329588 -0.31705892 -0.17318282 0.074772544 0.46781492 -0.17308606 -0.29465404 0.17492326 0.029263917 -0.48180136 -0.28285244 0.658796 -0.6712772 -0.35505998 0.45867217 -0.21897529 0.20023862 -0.5482503 0.48593244 -0.19271392 0.32643 -0.6561902 0.08173412 0.26323718 0.039758474 0.07292342 0.10319933 -0.20555146 -0.8747631 -0.17562973 0.27840865 0.24759719 0.06775559 -0.123830706 -0.2223154 -0.371558 -0.5054095 -1.0294057 0.8564486 -0.06997304 0.25729388 0.28133607 0.29471037 0.18114589 -0.49805623 -0.16986665 -0.35382348 -0.28069434 -0.27009556 -0.4497822 0.24446718 0.24737577 -0.004619025
478 0.122096315 0.12749514 -0.310455 -0.30276766 -0.08570635 -0.33236584 -0.08340866 -0.36942756 0.20237976 -0.101907 0.08237183 0.5679378 0.27125326 -0.25642198 0.14936215 0.45582032 -0.14208417 -0.21020299 0.08117097 0.036092747 -0.20489192 -0.07727823 0.19058047 -0.36070004 -0.53349483 0.45328343 -0.23388574 0.37064162 -0.63929635 -0.112074085 -0.031902704 0.51391846 -0.6933173 0.03603562 0.22830883 -0.27441525 0.11938946 0.35362598 -0.032485075 -0.7032542 -0.37936527 0.14834249 0.030582394 0.28985575 -0.54103804 -0.27353993 -0.29679418 -0.3634986 -0.71918267 1.0447196 -0.025969252 0.40541267 0.22638163 0.38810667 0.061816104 -0.7963417 -0.354689 -0.48624402 -0.16523029 0.03677299 -0.6752739 0.15377943 0.53501713 0.69254786
86 0.016232016 -0.43965968 -0.0074458094 -0.2749472 0.53700256 -0.1100055 -0.023126692 -0.5151234 -0.3883178 0.21498439 -0.007365833 0.5970246 0.22604541 -0.1515574 0.47156316 -0.0380865 0.16641334 -0.08603629 -0.3538242 0.7085375 0.033844046 -0.340246 0.56233275 0.18796833 -0.40006554 -0.06990616 0.3804434 -0.0024847686 0.03670538 0.04787458 -0.10371667 0.16849142 -0.42227286 0.100822166 0.09929739 0.17480214 -0.1827546 0.44066915 -0.23403707 0.070111535 -0.34844682 0.038901478 -0.44449136 -0.0608162 0.45382944 -0.043847717 -0.012370499 -0.1321989 -0.15344779 0.26862392 -0.48403525 -0.13922928 -0.20226057 0.6170125 0.21114512 0.18282089 -0.009883677 -0.33150837 -0.17966034 0.344455 -0.51899564 -0.09750442 0.042202756 0.09725902
607 -0.3693312 -0.8119557 0.19613242 -0.06343674 0.45872077 0.0059484867 -0.25936177 -0.66444516 -0.08445361 -0.1330422 0.16834013 0.6886786 -0.04759033 -0.22899292 0.26360238 -0.034541905 -0.17326556 0.038728107 -0.58781886 0.47008905 0.20235188 -0.07034361 -0.026648125 0.23063822 -0.24137805 0.25027025 0.23025204 -0.10976315 -0.18613745 -0.2684346 0.08949342 -0.34382915 -0.07987401 -0.014589099 -0.25562787 0.21793975 -0.35233402 0.8567014 -0.051108982 0.36179367 -0.6560722 0.2897326 0.3643457 -0.20661406 0.5211797 -0.30112892 0.38935304 -0.22622661 -0.36203507 0.48889893 -0.5461422 -0.24367084 -0.013302582 0.43023938 -0.051856052 0.47491285 0.07965549 -0.39667824 0.31994638 0.05816565 -0.95436645 0.05529984 0.3332068 0.15378849
211 -0.33691648 0.34476206 -0.13372786 -0.40460438 0.19180039 -0.8505739 0.2608929 0.6083354 0.36250275 0.4089132 -0.04658656 0.0037274128 -0.22759415 -0.92838967 0.40257168 0.6118761 -0.074766956 0.21075556 -0.29740092 0.892734 0.512179 -0.4395783 -0.04851329 -0.3110928 -0.70893764 0.73084366 0.02255206 0.113452405 -0.74693936 -0.043463163 0.30282098 0.03336457 -0.64177465 0.19470562 0.6469379 0.21982183 -0.076687515 0.86834 0.047515552 -0.2995506 0.19018514 0.43131962 0.33514282 -0.37648207 0.25567412 -0.08080422 -0.1237647 -0.47171712 -0.15842019 0.1442987 -0.16930906 0.30155593 -0.03745105 0.54307276 -0.06695314 -0.5420816 -0.2745406 -0.20653427 -0.7077719 -0.7020338 0.26079062 0.19472547 -0.33480823 -0.22453047
529 -0.21915926 0.2257669 0.010357445 -0.3957051 0.53971416 -1.0174656 0.26780272 0.63627285 0.29539728 0.036641143 0.17197014 -0.05809604 -0.15452957 -0.9281089 0.6127493 0.4849022 0.07882124 0.034960713 -0.5229541 0.8986425 0.5716367 -0.46771955 0.16832039 -0.23026352 -0.8310843 0.43317917 0.2827708 0.015696827 -0.7109932 -0.117304035 0.26716688 -0.048850093 -0.50062007 0.580476 0.37556562 0.6195694 -0.00369263 0.8615334 0.15654515 -0.45106107 0.13510875 0.23152992 0.12033288 -0.2018726 0.39743626 0.09148009 -0.2802769 -0.4665946 -0.1472529 -0.05871632 -0.48376217 0.5631503 0.26477897 0.4551014 -0.022043692 -0.35169125 -0.2944735 0.05371175 -0.38759014 -0.5906436 0.12184185 -0.12933832 -0.35177827 -0.051016234
821 0.36066762 0.26250964 -0.48339453 -0.2305512 -0.04404368 -0.32292557 0.112805404 -0.12750524 -0.29724482 0.24558724 0.025063846 0.5759488 -0.28175998 0.16918984 0.21601647 0.35447615 0.09333153 0.17103407 -0.15518491 -0.06078441 0.009078817 -0.1702096 0.2939082 -0.6593507 -0.5346305 0.18135563 -0.0812068 0.2134418 -0.6304563 0.31902093 -0.28385 0.4577535 -0.7990396 -0.2916749 0.19634436 0.055786688 -0.017931167 0.036836028 -0.18172312 -0.88817525 -0.47541907 0.15446335 0.2802924 0.29443237 -0.37044206 -0.18464518 -0.102363296 -0.35506383 -0.80866605 1.1863081 -0.30651215 0.29991314 -0.038195614 0.28747734 -0.1564479 -0.62761664 -0.46596742 -0.46998835 -0.40198964 -0.23514678 -0.29854834 0.287898 0.22547185 0.149758
241 0.11243311 -0.021254579 -0.63473475 -0.21982877 -0.3797851 -0.38750803 -0.07174217 -0.18736188 0.09974499 -0.3728394 0.254502 0.13060997 -0.19532236 -0.4226426 0.48970583 0.18853863 -0.25987512 -0.20463721 0.00080274744 0.32004797 -0.7199536 0.11113187 -0.23844497 -0.53895295 -0.45500278 0.08259393 0.05300248 -0.2755271 -0.2624073 0.04232491 -0.3029681 0.2379403 -0.39259943 0.24542916 0.25496557 0.11408298 0.4261652 0.22841091 -0.034774683 -0.5595189 -0.11156707 0.1588857 0.3790141 0.30447134 -0.5603649 -0.30996656 -0.4368269 -0.5708968 -0.43774745 0.7088039 0.28078598 -0.16364579 0.27779308 0.27337697 -0.022028979 -0.5261711 -0.3479686 -0.6007089 -0.081357464 -0.13499227 -0.73876953 0.25477585 0.12791349 0.42332655
458 0.4109538 0.04457119 -0.31333974 -0.070943765 -0.33947682 -0.4489385 0.2204778 -0.012606491 -0.43947142 -0.043057743 -0.06431271 0.15391658 -0.1434159 -0.45668584 -0.10366321 0.055846907 -0.4536916 0.11977373 0.1618095 -0.1357771 -0.80014586 -0.21270427 -0.06161774 -0.21317951 -0.2204172 -0.08556489 -0.49087334 -0.62319964 -0.7624815 -0.045685276 -0.36967316 0.2559102 -0.4325826 0.60142815 -0.46361405 -0.087891825 0.18306181 0.2153291 0.20903675 -0.14949133 0.20863824 0.3874275 0.34363562 0.35701057 -0.15308405 -0.24686289 0.058432978 -0.96004635 -0.3077939 0.4625067 -0.015400691 0.016459992 -0.00847236 0.93771094 0.21346572 -0.14291087 -0.40749818 -0.7285061 -0.37583926 -0.22312713 -0.17933875 0.64148545 0.033947304 0.64606947
193 0.5392896 0.4107296 -0.7738716 -0.3119735 -0.04618053 -0.3836561 0.16517529 -0.45774156 0.30708367 0.057887223 0.29817408 0.3081895 0.24059638 -0.50563085 0.08669698 0.3538047 -0.29186034 0.106835775 -0.040708654 -0.16203141 -0.3511094 -0.27418563 0.0060038925 -0.6834142 -0.47428858 0.3525794 -0.34649497 0.3336354 -0.37454602 0.18021083 -0.20087051 0.103539445 -0.50773823 0.14306892 0.4525691 0.18222255 0.29492235 0.3123881 -0.18425214 -0.35469577 -0.3058139 0.28230834 -0.0893765 -0.0660069 -0.08321395 0.066728674 -0.046826705 -0.17329101 -0.87022644 0.8631822 -0.4665414 0.068791136 0.19345208 0.3813012 -0.024796521 -0.39414656 -0.26480353 -0.6633128 -0.28961304 0.007535062 -0.94938624 0.51612693 0.40053126 0.42145878
380 -0.03333166 0.041270345 -0.6498123 -0.24141166 -0.20995192 -0.054910135 0.09255204 -0.34471574 0.39916107 -0.33386388 0.45652786 0.25727397 -0.012599749 -0.50622267 0.041571748 0.606979 -0.31122774 0.16670376 -0.015167194 -0.008471706 -0.31982982 -0.18222342 0.43892008 -0.646461 -0.7793425 0.67143494 -0.36225304 0.24619226 -0.44584092 -0.019801488 0.11225573 0.13621095 -0.2832771 0.031375676 0.072659396 0.008058742 0.03230442 -0.09979599 -0.13655703 -0.7223662 -0.279664 0.38067934 -0.094797395 0.21409626 -0.2857285 -0.40112978 -0.17539772 -0.6189991 -0.7992945 0.79427254 -0.18856294 -0.31153676 0.23663273 0.3319538 0.23113436 -0.41338515 -0.6484162 -0.60895157 -0.47732368 0.12144417 -0.8011843 0.28644055 0.20147221 0.6505414
269 -0.42573723 0.30841225 0.2759234 -0.29289094 0.23826125 -0.26824456 -0.20590608 0.1160448 0.40781376 0.15534595 0.4135999 0.021822887 -0.7932595 -0.4597885 0.28270984 -0.18995416 -0.1524752 -0.11454502 -0.073010914 0.31216004 -0.31082585 0.13348508 -0.11410134 -0.43272498 -0.40381747 0.24407029 0.111508586 -0.26718855 -0.33715078 -0.6305878 -0.6520501 -0.043436166 -1.1558852 0.05579488 0.35675928 -0.466266 -0.27799675 0.4210516 -0.5115995 -0.21581265 -0.030927315 -0.15451142 -0.61435145 -0.06679262 -0.20155355 -0.61683404 0.00046830907 -0.10650812 -0.11466263 0.76210713 -0.2446916 -0.28717297 0.44850343 0.041817408 0.49576157 -0.13905752 -0.8655256 -0.20099306 0.20679891 -0.32738724 0.12713856 0.5716132 0.44469592 -0.063732386
710 -0.5637655 0.330877 0.09469687 -0.14011753 0.23864444 -0.18433812 -0.22433622 0.16072905 0.24976653 0.17278361 0.501971 -0.043203242 -1.0921481 -0.6199897 0.29269558 0.11894122 -0.056802355 0.13448448 -0.05880156 0.49981838 -0.21218425 0.13144512 -0.027405659 -0.16744673 -0.31109294 0.26136136 0.09449111 -0.21394579 -0.3986838 -0.48689875 -0.5504431 0.25316423 -0.7965943 -0.15674101 0.12524375 -0.32564554 0.014654182 0.43004775 -0.60940295 -0.4538313 -0.10345376 -0.06308242 -0.28096008 -0.010640867 -0.31070858 -0.5032156 0.17810781 -0.048107967 -0.17684466 0.6662871 -0.28866097 -0.18838245 0.26908717 0.275766 0.49789485 -0.13949548 -0.8388128 -0.3653996 0.16453798 -0.6360944 0.13829675 0.6174844 0.39797872 0.07777994
295 -0.18546543 -0.11956009 -0.713487 0.0023591174 0.59118384 -0.6880633 0.26607642 -0.5033652 -0.1380296 -0.119704515 0.12881733 0.022936475 0.9209299 0.08118442 0.36264968 0.20065504 -0.16227211 -0.020273304 -0.3314912 0.47249615 0.41004437 0.20050587 0.57449144 0.739004 -0.54630035 0.093081236 0.5330342 -0.4422771 -0.5523918 -0.044138625 0.14241104 -0.350043 -0.32964092 0.3842886 0.32374156 0.24649303 -0.032070346 0.4456302 -0.23365578 -0.3188031 -0.31730053 0.056800723 -0.4885271 -0.026977392 0.6252192 -0.7039692 -0.25608534 -0.09273128 -0.30686516 0.17869252 -0.48730087 0.18961391 -0.5718672 -0.072402775 -0.08862134 -0.23966625 -0.3780465 -0.4372493 -0.4677667 -0.27831262 -0.16796605 0.19814073 0.18363586 -0.57169086
393 -0.4163463 0.06652847 -0.40414372 -0.051933333 0.2909636 -0.6268109 0.43067792 -0.4250897 -0.20958146 0.12001276 -0.0037477808 0.32056618 0.6895261 0.07310178 0.2854082 0.008653364 -0.09594183 -0.18666361 -0.054586884 0.71047026 0.16284674 -0.11373586 0.7944369 0.54593927 -0.5833621 -0.0045532268 0.75126123 -0.20347185 -0.29564872 -0.22573723 -0.17021696 -0.34059644 -0.39262286 0.4836191 0.14515212 0.4159201 0.13086419 0.5162563 -0.226443 0.0016096735 -0.33246118 0.18594283 -0.24810095 -0.043181773 0.31876072 -0.55765116 -0.20988202 -0.080783606 -0.35574687 -0.06417109 -0.55998594 0.44336078 -0.47539586 0.4356019 -0.13963868 0.16663252 -0.22466795 -0.022561595 -0.28440303 0.18825343 -0.23560409 0.50419647 0.15597333 -0.42876732
162 -0.38861033 0.3700961 0.21583512 -0.26338196 0.41673356 -0.1710956 -0.24631977 0.12913273 0.4159451 0.22173621 0.28067225 -0.09584742 -1.109853 -0.48543504 0.32342392 -0.33796242 -0.026532324 -0.12743932 -0.009290961 0.51789176 -0.19335322 0.110246256 0.13261546 -0.18144196 -0.4643776 0.0721626 0.0070946286 -0.16296472 -0.045268293 -0.3741715 -0.45052707 0.19018525 -0.7699677 -0.09978395 0.28126255 -0.40910375 -0.110590205 0.46088272 -0.33421093 -0.24936208 -0.24485907 -0.15564017 -0.29890722 0.11899396 -0.30127102 -0.55782026 0.068996795 -0.33484563 -0.2798482 0.6614559 -0.20932718 -0.15706855 0.25862873 0.3023308 0.60488063 -0.45005852 -0.60335004 -0.23937291 0.45709053 -0.44808686 -0.009276283 0.42323765 0.46636295 0.16531634
853 0.12580039 0.2173007 0.06353898 -0.6197007 0.4445705 -0.14508523 0.09668681 0.030868517 0.2907465 0.6883365 0.19722508 0.11739185 0.033930734 -0.5702647 0.10262567 0.21640602 -0.22071774 -0.08052702 0.17964709 0.6392706 -0.30455294 -0.044532925 -0.16344343 -0.29779238 -0.13156019 0.083581604 0.28324774 0.5499838 -0.18160458 -0.14584205 -1.0236235 -0.10105637 -0.58668035 -0.35285312 0.25701332 0.079399765 0.2138963 0.066727154 -0.14166611 -0.19159615 0.09281992 -0.1911047 0.19466765 0.09403723 -0.35857195 0.03204829 -0.111861184 -0.55149084 -0.04084418 0.47006732 0.21120618 0.024569355 -0.07655166 0.49533278 -0.1067688 -0.3471046 -0.3881326 -0.63187927 -0.034121152 0.028173782 -0.19545004 0.40805358 0.25913894 0.05952682
299 -0.23015335 -0.13214676 -0.15616414 -0.586403 0.13369736 -0.6068439 0.303221 -0.708266 -0.24374932 -0.375835 0.6610508 -0.36858216 -0.75511235 -0.03390453 -0.04273751 0.23240705 -0.13113372 -0.017216941 -0.33328754 0.27630723 0.13043225 -0.27704638 -0.019144515 0.7016256 0.3317119 -0.30792093 -0.26372266 0.20120467 -0.4853554 0.23354839 -0.68270725 0.6027749 -0.51456636 0.19594857 0.29234082 -0.4030096 -0.7394476 0.86041903 0.21559538 0.41279674 0.04508621 -0.08073915 -0.117473714 0.05627455 0.48547658 -0.61700225 0.029424362 -0.8185219 -0.23585175 -0.27686888 -0.010592676 -0.15648502 0.24657995 0.2619689 -0.17828776 0.20426455 -0.47924516 -0.37320098 -0.41706192 -0.12112437 -0.07601563 -0.025226992 0.969259 -0.08502249
404 0.08888934 -0.05869737 -0.23753181 -0.72657716 0.13059303 -0.5531062 0.2640707 -0.75905186 -0.08458953 -0.57821184 0.5715731 -0.71707827 -0.9534686 -0.1825757 0.04570237 -0.041687913 -0.10120932 -0.10466639 -0.53588104 0.37066886 0.16203465 -0.42929465 0.020535234 0.50018543 0.09362058 -0.37939975 -0.0005162998 0.07132039 -0.57101834 0.18281326 -0.60416496 0.46858895 -0.7752244 0.20379107 0.46249196 -0.12399049 -0.8850696 0.7405376 0.21564557 0.4444492 0.10451364 -0.054000136 -0.044361386 -0.22596107 0.68401265 -0.6107927 -0.07272576 -0.79227996 -0.16050264 -0.38293666 -0.0049929093 -0.08685975 0.1629278 -0.10848792 0.2512118 0.17087471 -0.5463646 -0.266808 -0.35523146 0.16111602 -0.26174447 0.1433446 1.0696535 0.0030849942
8 0.1410959 0.09018818 -0.47942552 -0.079568006 0.04752035 0.33603668 -0.14698865 -0.48658866 -0.620296 0.15626459 0.300289 0.12413912 -0.5219217 -0.44022885 0.012429094 0.14512303 0.30952698 0.34433064 0.38406906 0.086255886 -0.7551648 -0.09807561 -0.29595637 0.27014136 -0.7411644 0.10938695 0.6958317 0.3740443 0.2928413 -0.046625305 -0.0072687375 0.3910507 -0.48282272 0.63496286 0.064216234 0.8966489 0.21970722 0.15982227 -0.31881115 -0.18521442 -0.41720885 -0.1764424 0.3712771 -0.23242341 0.08237969 -0.46096134 -0.064713575 -0.88015395 -0.22719418 0.41805235 0.27324834 0.11391234 -0.6272091 0.5690643 -0.03924635 -0.18434897 -0.6638914 -1.2445365 -0.09808394 -0.22492397 -0.5720257 -0.0622888 -0.012080708 -0.011752132
551 -0.117127866 -0.02217517 -0.08580639 -0.19419797 0.40362677 0.12677643 -0.022802413 -0.3032971 -0.41266373 -0.080805406 -0.12327922 0.1622624 -0.29952687 -0.19693156 0.5289493 0.37428153 0.15427698 0.52786916 0.22595409 0.0775193 -0.7071483 -0.24451077 -0.0022742066 0.56495845 -0.6233927 -0.29020256 0.3903571 -0.09780242 -0.035264503 -0.0904781 0.19726667 0.14884809 -0.34484452 0.11668156 0.03125676 1.0848478 -0.14226611 0.41766736 -0.48314914 0.22774705 -0.30145207 -0.28407112 -0.0993968 0.11159812 0.48790675 -0.38722056 0.09313614 -0.77599776 -0.3805989 0.27970114 -0.14525288 -0.33502743 -0.36797178 0.6893961 0.26346546 -0.18864712 -0.40326712 -0.5605173 -0.33497193 0.20522892 -0.35926133 -0.018617216 -0.41275117 0.24558274
141 0.22473954 -0.06980444 -0.048263885 -0.742535 0.37260428 -0.54209614 0.07272997 0.087782994 0.2162189 0.124375045 -0.39360303 -0.08605199 -0.066679195 -0.5307952 0.38198334 0.08311197 0.014911817 -0.13064367 0.02956728 0.5024344 -0.10970101 -0.27760005 -0.46803135 -0.249335 -0.15073313 0.56017935 -0.075369984 0.27979782 -0.49171427 0.00027633083 -0.38259143 0.33236682 -0.7562869 0.12472547 0.40178376 -0.1884971 -0.08372111 0.13979076 -0.42928568 -0.21116698 0.016959183 0.40209636 0.2800218 0.24409783 0.089140035 0.2816194 0.22123468 -0.085847914 -0.020265069 0.1825697 0.060747832 0.33396107 -0.1266454 0.44450858 0.17694107 -0.42024466 0.17604633 -0.615792 -0.42169225 -0.11181472 -0.62172437 0.13967097 0.06545561 -0.21526408
736 -0.36966863 0.36804327 0.06024633 -0.49992752 0.13840854 -0.52888745 0.12735344 0.41247728 0.67495066 0.41183522 -0.3268477 -0.20589364 -0.13261922 -0.6094164 0.24652661 0.47966126 -0.1977132 -0.1332883 0.15349951 0.6812438 0.14819644 -0.25011998 -0.15403314 -0.3582457 -0.7059819 0.45956352 -0.027285315 -0.0042186347 -0.73884505 0.05128169 -0.062938526 0.09594267 -0.79038996 0.23836482 0.57256454 0.034088552 -0.22772098 0.4605924 0.008138271 -0.020442784 0.14195481 0.46448517 0.5542562 -0.32631952 0.038137957 -0.0747351 0.07595872 -0.25817123 -0.3449723 0.40735748 0.05298463 -0.07110745 -0.026350882 0.74085957 0.10149042 -0.47542763 -0.021432512 0.041923624 -0.89458334 -0.3380581 -0.22532138 -0.054162744 0.12364285 -0.29172644
275 0.48921907 0.14381114 -0.22954233 -0.45721582 0.1991423 -0.47759965 0.17952111 0.07511252 0.14787503 0.31135237 0.1635259 0.56696475 -0.38100797 -0.49969202 -0.29385734 0.060380273 0.06459254 0.16633475 -0.03881369 0.53015727 -0.42600954 0.10144376 0.20996454 -0.22846596 -0.45658505 0.29735592 0.23850314 0.4780652 -0.43286538 -0.503119 -1.3436688 -0.13292238 -0.09168002 -0.46592695 0.3225238 -0.024423143 -0.18052986 -0.18390045 0.34763202 -0.21863171 0.035160393 -0.25858027 0.12903602 0.1975628 -0.14254875 0.08948542 0.09172805 -0.41410857 -0.0845771 0.8887348 0.14696853 0.16147514 0.20420137 0.602998 -0.51501584 -0.44767168 -0.23575027 -0.23299524 -0.05310869 0.2655006 -0.4908312 0.7030319 0.38261458 0.26652914
887 0.689039 0.23415232 -0.011772535 -0.1326077 0.17737883 -0.35070452 0.37363032 0.16958119 -0.079576924 -0.10375838 0.37296754 0.45233473 -0.62639904 -0.23658557 -0.14279874 -0.2457849 -0.065221876 0.038965054 0.019606208 0.40624893 -0.2791524 0.4730295 0.23919278 -0.2303485 -0.53993005 0.03745962 0.4614693 0.22725739 -0.61372584 -0.3912319 -1.1921282 -0.08463065 0.0787294 -0.15729597 0.14535765 -0.28210965 0.014378617 -0.07047692 0.16559118 0.13507257 -0.04784967 -0.08594865 0.27253532 -0.046323817 -0.06747463 0.27961856 0.4518082 -0.57976305 0.23418081 0.740185 -0.045151364 0.15877391 0.61595696 0.5305415 -0.48363015 -0.58027244 0.0074037807 -0.35691875 -0.20111373 0.14548475 -0.3139515 0.4074757 0.57369375 0.028253173
175 0.41910824 0.011301412 -0.68223345 -0.00675056 -0.5380344 -0.060829613 0.37989593 -0.3685896 0.018021226 0.198844 0.26288 -0.030909944 -0.57675165 0.20291008 0.23795283 -0.12671548 -0.1402996 0.5618745 -0.17712754 -0.3612449 -0.46601602 -0.119938195 -0.23709819 -0.37027436 -1.2640729 -0.3751228 0.39964405 -0.11522796 -0.6455544 0.15414692 -0.41895175 0.37374452 -0.75741476 0.8408168 -0.42056113 0.15318057 0.6656346 0.27304536 -0.7552408 -0.065858245 -0.11276712 0.36724654 0.37666368 -0.23032126 -0.101987705 -0.17118707 0.26160914 -0.7779833 0.11677411 0.21192619 -0.015014801 0.29797122 0.022056112 0.88754267 -0.07286507 -0.60953623 -0.35816628 -0.5361924 -0.20612757 0.0038364783 -0.7244842 0.8108214 0.9569936 0.43872112
643 0.39440247 0.045811765 -0.7086978 0.12375754 -0.5902816 -0.19092745 0.3837433 -0.2509119 0.034873564 -0.02285037 0.38667905 0.12933667 -0.38408718 -0.11624921 0.22436489 -0.01640864 -0.38049254 0.5322138 0.23575598 -0.22992708 -0.100746885 0.108086355 0.043165803 -0.583531 -1.1869884 -0.090504944 0.24716818 -0.09522243 -0.7657711 0.18291803 -0.63295186 0.22142173 -0.7568403 0.55944693 -0.6178863 0.27246007 0.23546545 0.4244749 -0.50101614 -0.22895126 0.15847078 0.20438656 0.25873655 -0.2602728 -0.010678646 -0.0812446 0.2448487 -0.74713194 -0.16728525 0.34733576 -0.10490006 0.2966722 -0.20803481 0.8509174 0.31294754 -0.5283935 0.23215951 -0.67389345 -0.24643892 0.029405106 -0.57530123 0.2753634 0.64749616 0.5628142
79 -0.50672567 -0.28865254 -0.028786771 0.079852335 0.38385302 -0.32599822 0.12296898 -0.028250925 -0.16467433 0.20949261 0.08563216 0.359702 0.06660161 -0.33409342 0.5640488 0.089646414 0.013637692 0.3264751 0.15460484 0.20315759 -0.26263425 -0.5126503 0.24983421 -0.12469918 -0.12648301 0.11938788 0.016810047 0.13496387 -0.1860455 -0.23437917 -0.40360132 -0.50830966 -0.35954848 -0.40461564 0.7401115 0.08570016 0.11697234 1.0501893 -0.2835464 -0.07365397 0.07966874 -0.20955414 -0.17632864 0.28745756 -0.20142823 -0.59907037 -0.20019846 -0.4578075 -0.03849973 0.38527468 0.081254154 -0.06360657 -0.20794587 0.5479599 0.45219535 0.047595687 -0.4976156 0.081382796 0.19198416 -0.013550502 -0.25119498 -0.12041268 0.24912748 -0.26847112
638 -0.4761213 -0.4722609 -0.03639471 0.006277621 0.47903612 -0.28108078 0.20806387 0.111880936 -0.30616432 0.09476946 -0.13548152 0.31952754 0.09645799 -0.47419763 0.3362858 0.09476162 0.032772224 0.40679678 0.15079652 0.31198773 -0.44692588 -0.2954047 0.29383063 -0.1467234 -0.2353188 -0.09553659 0.18550374 0.15984754 -0.42667237 -0.3931225 -0.27316448 -0.6160969 -0.4248759 -0.4081622 1.009052 0.21113206 0.1645683 0.95557916 -0.25734395 -0.04496343 -0.048610315 -0.26256242 -0.046085425 0.039786663 -0.19101094 -0.7679191 -0.09420191 -0.3329376 -0.09982203 0.5269873 0.10995513 -0.17270586 -0.2184724 0.4683149 0.34176257 -0.009768713 -0.24168274 0.030656548 0.27450004 -0.0506002 -0.09613267 -0.21338242 0.368272 0.020606602
812 0.17257528 -0.27286565 0.24348739 0.09395398 0.5412043 -0.28002277 0.27941996 -0.19624725 -0.2962599 -0.3476973 0.51957667 0.46474883 -0.31923702 0.19967392 0.20577225 -0.0836063 -0.22447136 0.14995216 -0.54245436 0.339464 0.36113605 0.1131183 0.3293458 -0.16450165 -0.103371374 -0.16462864 -0.02966677 0.68934035 -0.19196141 0.19880791 -0.18404417 -0.07968606 -0.5223805 0.30575922 -0.43624383 0.29387674 -0.060109574 0.7925243 -0.2736114 0.37496284 -0.50913656 -0.06341605 -0.07544112 -0.039588608 0.2625768 -0.07302699 0.11501781 -0.13071638 -0.18403134 0.09195953 -0.54765004 -0.12803087 0.29553744 0.59582293 -0.08035525 0.124666266 0.2948963 -0.043882232 0.098268785 0.23540328 -0.33789876 0.19392699 0.2421692 -0.30004823
197 -0.17728402 -0.13950421 -0.26609698 -0.87666965 0.7020424 -0.46583807 -0.15588276 -0.1735849 0.34287396 0.07103157 0.42965513 0.41924757 -0.5841913 0.5963058 -0.17466488 0.03231013 -0.37162676 -0.17061935 -0.7223068 0.34022614 0.112443626 -0.046711452 0.5457264 0.010364209 0.5579354 -0.0028317294 0.24329805 -0.33180535 -1.0333221 0.22789226 0.413931 -0.22493242 0.49479058 0.7222891 0.39003468 -0.16971432 -0.06425615 -0.14180335 -0.95994174 0.20123185 -0.27376243 -0.18411808 -0.18095593 -0.5650266 -0.06491302 -0.4695077 0.077665165 -0.91970944 0.29244244 0.21914828 -0.12595768 0.37784955 0.09846173 0.60217524 -0.21501756 -0.686726 -0.5212512 -0.63923824 -0.31575876 -0.27033237 0.12939739 0.39881784 0.22620387 -0.07781438
875 -0.15704083 -0.1439681 -0.13670218 -0.57041067 0.760518 -0.46063533 0.21672513 -0.581473 0.523086 -0.010017509 0.7055066 0.44979966 -0.53438675 0.3698642 -0.029630717 0.02071117 -0.40148598 -0.210727 -0.97365874 0.33510628 0.104328856 0.102930464 0.590547 0.041399665 0.2998776 0.04305906 0.15774387 -0.5210425 -1.0826223 0.15976931 0.30327576 -0.12317782 0.2924698 0.6426662 0.2477051 -0.14252482 -0.38421518 -0.2330889 -0.9369083 0.514332 -0.52714485 -0.1649999 -0.37349865 -0.4135334 -0.37149265 -0.560211 0.07546421 -0.86154276 0.25848916 0.19085899 -0.05662326 0.32974687 0.037566666 0.40942514 -0.3903284 -0.708447 -0.5724973 -0.65277976 -0.36964288 -0.26670948 0.25069797 0.64923257 0.13828194 -0.29421878
339 0.3584953 -0.04355997 0.06774393 -0.22769791 0.25961405 -0.41744035 -0.12059344 0.08254556 -0.55477107 -0.4624382 0.21059076 -0.1358741 -0.48260465 0.022324976 -0.08698092 0.31261027 -0.55740005 0.08594771 -0.41027215 0.40116185 0.1960909 -0.21761756 0.05663867 0.26775044 -0.02581727 -0.13794133 -0.33831397 0.124450594 -0.4694938 -0.35378733 -0.6496912 -0.107243374 -0.50131285 0.21545349 -0.14865974 -0.23723376 -0.24539487 0.2789683 -0.45094162 0.3162107 0.22718826 0.52043957 -0.018894108 -0.5358533 0.10186736 -0.3225097 0.53707314 -0.3494654 -0.16993463 0.09957396 -0.11182432 0.008426304 0.22133692 0.2691231 0.22274967 0.18569453 0.1342348 -0.6362874 0.15278135 0.28939065 -0.27374923 0.07404019 0.30785245 -0.4000507
71 0.33084396 -0.20966174 0.20198254 -0.317088 -0.08041389 -0.34596094 0.35653684 0.10881667 -0.5148533 0.070571356 -0.13129736 -0.18765233 -0.037880983 -0.37346402 0.03286896 -0.16844176 -0.88817185 0.19413467 0.09045716 0.24959674 -0.7440063 0.034527674 -0.015756674 -0.369736 -0.2651617 0.2088477 -0.5974414 -0.2878626 -0.8248468 -0.302245 -0.3918112 0.2030284 -0.5071356 0.29231152 -0.42774433 -0.13679934 -0.05572883 -0.082710184 -0.07975832 -0.22570658 0.15803307 0.53278834 0.2892128 0.38006666 0.27920115 0.041166853 0.08011961 -1.042425 -0.24470265 0.43422943 -0.36305773 -0.004681231 0.18894286 0.25038296 0.31847015 -0.17961982 -0.24424276 -0.51269615 -0.2721136 -0.17091832 -0.1246452 0.6087241 -0.25961384 0.31700644
24 -0.05726556 0.28300613 0.1324234 -0.5656934 0.95394653 -0.48569116 0.64223295 -0.19921263 -0.27461657 -0.8067955 0.62594736 -0.21067367 -0.45742118 -0.04334194 -0.16852425 0.09611139 -0.3500192 0.1861393 -0.3946892 0.24705398 -0.3638975 0.05710423 0.2348861 0.39453104 0.5880633 -0.39502642 -0.39761817 -0.22485916 -0.72532576 -0.0019592685 -0.59713 0.10492399 -0.55212635 0.017491587 0.30054823 -0.21216384 -0.86001015 0.18283424 0.027108772 0.12937371 -0.34835935 0.1837503 -0.5544907 0.39365366 0.42640755 -0.3555553 -0.0066969204 -0.70842093 -0.24722229 0.1070772 -0.013746524 -0.6551351 -0.16667517 0.19096883 -0.33039805 0.5220937 -0.21659863 -0.46169057 -0.08708476 0.13708413 0.23233104 0.24316072 0.46341363 -0.10774919
589 -0.01885201 0.10072902 0.18629622 -0.39008704 0.66413194 -0.48785827 0.7839211 -0.258958 -0.16105787 -0.5758702 0.34333977 0.0095249815 -0.33297646 -0.011851599 -0.10938979 -0.21106902 -0.45222276 0.15192382 -0.39948845 0.31907228 -0.025684087 -0.036350217 0.050286334 0.3758747 0.38881224 -0.08469798 -0.3979129 -0.20330027 -0.47297603 0.09990538 -0.8381442 0.2475148 -0.5601806 -0.10339345 0.20715946 -0.17161876 -0.9363853 0.07104581 -0.26799443 0.19636331 -0.124340735 0.13516578 -0.3050366 0.22862262 0.38220182 -0.50000346 0.036326684 -0.4805041 -0.21378292 0.037897665 -0.09011182 -0.27815863 -0.31165177 0.19473623 -0.16531019 0.47654667 -0.28577054 -0.3974614 -0.14260417 0.046372555 -0.015802646 0.053522024 0.54171515 -0.123746246
498 0.2819071 -0.20125456 0.24723957 -0.34430867 0.50850123 -0.10218103 0.33883217 -0.8555458 -0.2594135 0.07374707 0.18244942 0.9461036 -0.068920024 -0.36362514 0.3620558 0.50785005 0.3841378 -0.31365398 0.150442 0.21613793 -0.28098813 -0.23085302 0.29540056 0.3584862 -0.8027908 -0.37444696 -0.42479086 -0.25901943 0.14569604 -0.11422909 -0.17594893 -0.11794699 -0.47326142 -0.028874813 0.05365397 0.6064489 0.03361896 0.528127 -0.017517516 -0.13779096 -0.3058703 -0.20943503 -0.054244973 -0.103463955 0.11677791 -0.36099365 -0.308302 -0.16765572 -0.401055 0.5441405 -0.025164375 -0.0220177 0.023248665 0.16848539 -0.02612343 -0.14175925 -0.52084136 -0.111522846 -0.30339327 0.30354506 -0.34099713 0.21404025 -0.30046582 0.03640039
169 -0.93669486 0.18243143 -1.4741285 -0.18516913 -0.29152167 -0.42150036 -1.0924622 -1.5868003 -0.5367362 -0.60792446 0.37121403 0.31044936 -0.31642106 -0.8348737 -0.9487995 0.73364323 0.32148477 -0.09637609 0.14213644 -0.114398375 -0.4521408 -1.5027758 -0.43971035 0.9276403 0.29759717 0.2267749 0.13690162 0.012576797 -1.1933455 0.2939646 -1.1732965 -1.1564547 -1.7199645 0.98063517 0.311565 -0.0013762065 -0.03326995 0.51969737 -1.6163405 0.18811585 -0.34354872 -0.32270643 -0.27228236 -0.49443546 -0.085432224 -1.8104216 0.8499019 -1.4489933 -0.47793934 0.826781 -1.0301769 0.5436001 -0.09139838 0.37744626 -0.040752225 -1.7569494 -0.53796405 -0.5469146 -0.59182733 0.34927016 -0.86565924 0.44786012 0.26954722 0.46167305
889 -0.8796062 0.17282674 -1.5374553 -0.17363101 -0.29060644 -0.37726784 -1.1354975 -1.5760754 -0.5422585 -0.6254309 0.3746818 0.30738008 -0.31182683 -0.85227937 -0.9393973 0.74273556 0.34036452 -0.09425775 0.10143628 -0.12309061 -0.42105404 -1.5092375 -0.42545402 0.9463305 0.3132173 0.19253585 0.21808319 -0.025495432 -1.1800543 0.2994403 -1.198707 -1.1727064 -1.7290422 0.94654804 0.31854552 -0.05353159 -0.01316599 0.52684194 -1.6198586 0.21443728 -0.29978067 -0.35566533 -0.2307736 -0.54674613 -0.096516706 -1.8012631 0.80956197 -1.4910837 -0.4641073 0.78672475 -1.0905429 0.5356436 -0.06801592 0.42120674 -0.058188476 -1.7802441 -0.5547955 -0.58117855 -0.60680705 0.3459029 -0.9208923 0.45191365 0.26566344 0.46940443
58 -0.09470472 0.09629777 -0.92109114 -0.501677 -0.27450326 0.49828053 -0.087934576 -0.55968 -0.688451 -0.47624645 0.2380647 0.44394264 -0.5638454 -0.62898207 0.22137678 0.05124691 -0.17840709 0.04952595 0.14024468 0.06291823 -0.69019485 -0.0027984574 0.14650418 -0.34332713 -0.84431237 0.15217066 -0.26892453 -0.077365965 -0.168164 0.3653146 -0.15847713 0.40731347 -0.7552198 0.43522525 0.62921613 0.4795608 0.4854671 0.28804436 0.17108157 -0.6041782 -0.39740932 -0.052217808 0.387581 -0.18464234 -0.52999634 0.0850289 0.06440514 -0.8589378 -0.18820249 0.5106179 0.048339825 0.3661168 -0.09991335 0.41807792 -0.10670997 -0.5596029 -0.051226307 -0.7653701 -0.24906054 -0.025491938 -0.4671682 0.35266858 0.09008001 0.47482377
402 0.11019521 0.008360003 -0.958328 -0.92322236 -0.34012032 0.35711932 -0.081041135 -0.8127968 -0.6235428 -0.5623833 0.5898224 0.6071664 -0.48947296 -0.4406477 0.16123673 0.22723526 -0.1279799 0.020145949 -0.13276531 -0.26348102 -0.8005522 -0.08798563 0.31889156 -0.32482007 -0.5981091 0.22514611 -0.34757254 0.16315135 -0.036206365 0.15553597 -0.39288774 0.61995566 -0.8609076 0.7531941 0.8051681 0.50223845 0.6767183 0.29933193 0.11404087 -0.75977707 -0.42232 -0.06473844 0.045760468 -0.03367489 -0.5030655 -0.081261605 0.062238485 -0.7795765 -0.56238586 0.5288762 0.14387338 0.115989245 0.08001841 0.38615248 -0.053941038 -0.66869605 0.23978573 -0.47841695 -0.32534567 -0.33545342 -0.4034706 0.3736268 0.16150928 0.41388854
352 -0.2071422 -0.4946689 0.3819055 -0.266139 0.48120618 -0.25577432 0.5833078 0.10459493 -0.30653077 -0.18922311 -0.23526074 0.4076782 0.27947792 -0.38691154 0.44770968 0.1507436 -0.25605264 0.13519827 -0.021083767 0.4814438 -0.01107695 -0.49346206 0.5542834 0.11062072 -0.36162817 0.07340009 0.0063915015 -0.23920645 -0.27076352 -0.0391943 -0.13865246 -0.13428153 -0.14725307 -0.2992136 0.52982795 -0.12860376 0.008841242 0.48646516 -0.17509173 0.19333343 -0.00065140484 -0.29364315 -0.05486004 -0.0832532 0.1378985 -0.8680831 -0.087686285 -0.10911706 -0.36446583 0.49755815 -0.2207321 -0.2558198 -0.81333977 0.0048131943 0.37557507 0.23223768 -0.35791185 -0.23289888 -0.34492022 0.27263123 -0.27317086 0.052124344 0.5976542 0.40534884
264 0.44637448 0.21471705 0.10612667 -0.40350866 0.31676945 -0.5218468 -0.1867499 0.04973317 -0.40086818 -0.09700914 0.098422825 -0.043444265 -0.3348165 0.20389824 0.002125649 -0.023338165 -0.38653588 -0.2617318 0.0504817 0.26618665 -0.30400285 0.49488878 0.17799242 -0.14776088 -0.20532422 0.19569914 0.1427268 0.01362807 -0.67967 -0.3689758 -0.61971045 -0.062190358 0.020967362 0.06323431 0.11628426 -0.36177188 -0.15252452 0.010601326 -0.029604513 0.017850148 0.23940195 -0.16446505 0.2790678 -0.2593802 -0.18186818 0.060197394 0.21442045 -0.67657185 0.02021362 0.34255302 0.17688006 -0.12024113 0.48411784 0.710035 -0.084546626 -0.12063336 -0.14780574 -0.70098245 -0.4082547 -0.13761522 -0.27481326 0.24419309 0.16843136 -0.2057511
653 0.5176236 0.038783133 0.25179258 -0.31129494 0.099668756 -0.5489352 0.27338547 0.011625117 -0.36700237 -0.34051272 0.5252621 -0.15924013 -0.44066888 0.03144644 -0.3326421 -0.006329349 -0.4209431 -0.34160247 -0.11507254 0.5913093 -0.3013923 0.26669067 -0.08994745 0.17507386 -0.20412087 0.36307073 -0.11124365 0.1991412 -0.7084631 -0.58978385 -0.46466827 -0.08111085 0.09016849 0.26575783 -0.07180256 -0.67274576 0.11814369 0.3653936 -0.37323898 0.25576672 0.33786765 -0.09704498 -0.015395132 -0.15699326 -0.10171744 0.11815241 0.21327582 -0.46969822 -0.27656874 0.15833573 -0.18153918 -0.114808485 0.35001165 0.6396824 -0.2060443 -0.3465967 -0.24103503 -0.6141504 -0.34002894 0.08218847 -0.15927555 0.28958607 0.18056569 -0.22089012
140 0.1630924 -0.35154346 -0.98803896 -0.35935107 -0.74119073 -0.2708893 0.4093851 -0.7415763 -0.16686109 -0.36102867 0.0379369 0.46808144 -0.37087992 -0.79124457 0.23750353 0.2606252 -0.14368984 -0.29789135 0.023329826 0.22481665 -0.40297273 -0.5090536 0.08760806 -0.2797444 -0.2593022 -0.1559797 -0.15859678 -0.6486888 -0.8589069 0.11950993 -0.52292 0.43207258 -0.5880983 0.5752633 0.033119127 0.26489642 0.659389 -0.26723707 0.46121243 -0.4543288 0.23525861 -0.18464029 0.58526576 0.08070202 -0.45726427 -0.4125599 0.18191081 -0.52256626 -0.41931066 1.077641 -0.17885727 0.31536376 -0.11139337 0.65979224 0.31981912 -0.9979214 -0.24098547 -0.89583474 -0.17653674 0.060710985 -0.4818528 0.53234947 -0.2668951 0.2691698
745 -0.08262696 0.0474164 -0.9710856 -0.4234199 -0.6393758 -0.21027897 0.31171656 -0.42254868 -0.04947348 -0.3161493 0.22121286 0.42664182 -0.40605333 -0.68664944 0.4542208 0.05456035 -0.1429697 -0.5157903 0.37993732 0.15831904 -0.33848298 -0.3351014 0.17322698 -0.4170515 -0.28276834 -0.19854116 -0.17422886 -0.63523096 -0.9002364 0.22821698 -0.20756145 0.28879306 -0.71281826 0.68954253 -0.067329645 0.2535245 0.55351675 -0.39797753 0.4215316 -0.14473672 0.33494124 -0.16089088 0.3559757 0.3199476 -0.3939937 -0.25505015 0.075778626 -0.70807236 -0.52804154 1.0634803 -0.27964738 0.25230446 0.023748579 0.5707207 0.27366298 -0.83667034 -0.3370084 -0.7924948 -0.18879932 0.1078914 -0.39207417 0.7579843 -0.111191526 0.28770617
147 0.23801425 -0.30229503 0.14905384 -0.20167947 0.7225128 -0.62749577 0.11391544 -0.11654784 -0.40728506 0.15154743 0.3513049 0.7245113 -0.5551565 0.2492221 0.15026736 0.060076166 -0.86227196 -0.04708721 -0.24464162 0.30734658 -0.0019571173 -0.21095549 0.04020384 -0.5018735 -0.07518535 -0.44005477 0.4286866 -0.5242193 -0.41511968 -0.057201866 -0.031162878 0.18867958 0.11489867 0.85194135 -0.036646876 0.20613597 -0.24700956 0.4343033 0.15289897 0.25419778 -0.6907844 -0.09663576 -0.002019096 0.30990285 -0.35603136 -0.07823703 0.16564119 -0.05220602 -0.67672384 -0.05624558 0.58715165 0.15089096 0.38985926 -0.10893096 0.29357505 -0.18305579 -0.32969117 -0.5012421 -0.046321504 -0.12357498 -0.16346648 -0.06470016 0.43885383 -1.0020483
673 0.30899683 -0.33516058 0.30894828 -0.5861208 0.7377339 -0.55397063 0.15837681 -0.030750511 -0.63363945 0.10764278 0.2903163 0.12710562 -0.21750875 0.20110522 0.34003618 0.1543272 -0.8064148 -0.006825292 0.08684497 0.32891777 -0.13845855 -0.15633237 0.17862651 -0.749165 -0.087493315 -0.06337755 -0.080991596 -0.22086367 -0.33999765 -0.117169745 0.17634201 0.23107103 0.1620766 0.9036026 -0.21106671 0.06765007 -0.28994498 0.27531284 -0.0030420308 -0.121964455 -0.3731873 0.10040451 0.38234377 0.48168513 -0.22794503 -0.23865058 0.20496625 0.10857678 -0.31391168 -0.008564855 0.2940948 0.15714264 0.37736872 0.17362179 -0.08499609 -0.5145968 -0.45035827 -0.6394178 -0.18332475 -0.10539193 -0.34629825 -0.08954408 0.6542476 -1.1692799
174 0.4258582 0.25415522 0.048649736 -0.35977742 0.3056043 -0.6645207 0.076755606 0.017146653 -0.3480171 -0.4677593 0.13146688 0.20920241 -0.52272815 0.07664384 -0.15634707 -0.11967947 -0.25299516 -0.16286826 -0.20655754 0.572293 -0.3520876 0.20403156 0.081054755 -0.07130494 -0.067338616 0.33468637 0.2968546 0.030698083 -0.44163948 -0.37864774 -0.71672064 -0.07224656 0.19394863 0.28187495 0.03876156 -0.43664733 -0.06944442 0.04327201 -0.009963508 0.20125401 0.52034825 0.008542372 0.2553226 -0.26241103 -0.5055971 -0.14000995 0.23559323 -0.566654 0.09871923 0.23171225 -0.00590561 -0.16926351 0.40147462 0.7542135 -0.114338376 -0.23167561 -0.11619366 -0.41125414 -0.37610883 -0.1733494 -0.25938788 0.24624497 0.30920377 0.011860934
680 0.5880194 0.17826259 0.27072194 -0.17824742 0.38020095 -0.33624548 0.059840016 0.20412508 -0.06870779 -0.2131485 0.73054886 -0.30117682 -0.6390635 0.11976043 -0.23771475 -0.160394 -0.4324192 -0.15951607 0.06439222 0.2927788 -0.06758163 -0.021666206 -0.016931264 0.052432954 0.038709704 0.103911035 0.036077637 -0.031250983 -0.35298085 -0.48812473 -0.51780736 0.18211626 -0.15832609 0.111517906 0.24500622 -0.33861938 -0.059262767 0.5272867 -0.41636437 -0.018009622 0.2315642 0.19500583 0.15606916 -0.42767823 0.05060546 -0.043877084 0.44977725 -0.3041642 -0.12392219 0.08046694 -0.27208057 -0.302247 0.5351429 0.6663789 0.23429601 -0.33159363 -0.20972976 -0.47601292 -0.22544259 0.2876869 0.11158143 0.58799106 0.3912663 -0.27662864
155 -0.1396515 -0.58530045 0.2735113 0.034051724 0.34499747 -0.20051235 0.09429785 -0.7268153 -0.19734219 -0.3753819 0.115203924 0.5288784 0.1702735 -0.35913643 0.16559994 0.0642452 -0.15899964 0.22401671 -0.37228265 0.481643 0.3033322 0.23307765 0.26022774 -0.1884005 -0.075561054 0.02034418 -0.043839425 0.16455969 -0.6497018 0.12403446 -0.105862424 -0.12161776 0.12420556 0.35462135 -0.19810224 0.19924834 -0.48053518 0.76679504 -0.03716856 0.24293949 -1.0086019 -0.26813328 0.1373269 -0.3902801 0.5841184 -0.66118056 0.8184597 -0.07876587 -0.3111108 0.35220727 0.26144955 -0.068437204 0.10882616 0.7008743 0.2135773 0.42234814 0.3475631 -0.29767248 0.49236783 0.22661132 -0.2719054 0.12123507 0.4401609 -0.14205576
130 0.30272287 -0.045127057 0.21438931 -0.30442372 0.035546448 -0.22671573 -0.2364693 -0.37927383 0.2640392 -0.37293306 0.87508905 0.022223752 -0.15048243 -0.09677743 0.16024302 -0.41946924 -0.5192381 0.085812554 -0.696526 0.66126037 -0.3052057 0.15896307 0.11906164 0.16236292 0.17687507 -0.25429252 -0.002232323 -0.0019683864 -0.48182034 -0.38779345 -0.5332573 0.2561344 -0.30449986 0.5936378 -0.14493148 -0.03226469 -0.23761936 0.2513312 -0.052341335 0.34959358 -0.00018675473 -0.12358519 -0.28165448 -0.078394 0.44639397 -0.6916052 0.29094347 -0.37319532 0.1802885 0.39685452 -0.21572183 -0.099006474 0.45806664 0.3872257 -0.23583063 0.26990974 0.22827695 -0.19638306 -0.56089187 0.43221274 -0.38259354 -0.25449178 0.6874502 -0.6963385
792 0.04457754 -0.06254678 0.278253 -0.6772818 0.057670712 -0.21399762 -0.15805602 -0.43631023 0.31887177 -0.5989717 0.93957543 -0.07109164 -0.54442763 0.17488939 0.25314134 -0.47084948 -0.57957447 0.29931882 -0.6629244 0.7140905 -0.13801914 0.066227764 0.39973137 0.254543 0.71656334 -0.29047394 -0.13695346 0.020877391 -0.20128898 0.15328647 -0.049162947 0.35798457 -0.6217961 0.13330378 -0.25690335 0.25034952 -0.9007585 0.6707979 -0.10299574 -0.12627576 -0.19906846 -0.16621982 -0.7593684 -0.08821059 -0.004431838 -0.6062281 0.49170727 -0.065157965 0.031886548 0.69142884 0.17170717 0.09984017 0.2841683 0.25975752 0.35716462 0.28348467 -0.1720619 -0.2957987 -0.37165362 -0.21850978 -0.32558134 0.4280966 0.96206725 -0.6545098
301 -0.05523275 -0.6368637 -0.11749728 -0.8825549 1.1554948 -0.46645966 0.07975558 -0.60529995 0.006323426 -0.22731522 0.5594131 0.4990369 -0.39308068 0.26060513 -0.20863244 0.37499824 -0.5104927 -0.09410082 -0.7062541 -0.14347552 0.041512042 -0.5196458 0.8176735 0.077341646 0.07197473 -0.21832198 0.37436724 -0.7529208 -0.63060963 0.706629 0.24397834 0.17840414 0.2643327 0.59731174 0.40171885 -0.26688242 -0.2839795 0.2956691 -0.74636036 0.42637283 -0.20015313 -0.5875359 -0.23146756 -0.17702116 -0.013340307 -0.27738944 0.14700024 -0.6067502 -0.38897732 0.016540878 -0.36443406 0.3886753 0.4880478 0.04223226 -0.24878676 -0.4237164 -0.47722045 -0.5505418 0.052525494 -0.18165825 -0.5159911 0.6432745 0.23620982 -0.4737328
647 0.1998468 -0.540487 0.3325866 -0.44739345 0.78930837 -0.554157 -0.2567603 -0.47732225 -0.047911715 -0.29061362 0.5824172 0.3830401 -0.47504315 0.5452118 0.09319594 0.5587056 -0.5625201 -0.05727609 -0.99291784 -0.20217241 -0.042205404 -0.21225661 0.85723025 0.12280314 0.013303464 -0.19932236 0.53159285 -0.56356436 -0.5005017 0.66717374 0.21854414 0.097778946 0.21867391 0.70600265 0.45634225 0.029855028 -0.23388255 0.53447825 -0.44091302 0.4708819 -0.27501547 -0.43939894 -0.21934827 -0.2326471 -0.1783675 -0.25488847 0.2844836 -0.5331233 -0.50185794 0.026517598 -0.18811147 0.33217552 0.46673486 -0.25962204 0.2391848 -0.6252916 -0.425048 -0.5550592 -0.084035344 -0.083081 -0.3358699 0.19599865 0.28342128 -0.46048042
15 -0.15149894 0.52635247 -0.60827917 -0.090313025 -0.16732687 -0.18036984 0.060126252 -0.36598638 0.36272177 -0.118823126 0.64128184 0.42451558 0.08728635 -0.34148362 0.28587154 0.29091826 -0.36420134 -0.27515545 0.18653883 0.0704235 -0.43711707 -0.32900667 0.41322032 -0.40658972 -0.48223746 0.59814 -0.09830946 -0.15091461 -0.2605711 0.25198352 0.1526821 0.2424426 -0.7131807 0.023744142 0.35992005 -0.14384839 0.18817003 0.44048023 -0.21490043 -0.4642774 -0.24988025 0.2835081 0.32631764 0.11077005 -0.050837208 -0.050891362 0.113430396 -0.13139974 -1.1749772 1.0369748 -0.3667396 0.1860886 0.13731791 0.37026396 0.19048248 -0.56458193 -0.3249312 -0.32924515 -0.04617069 -0.07836593 -0.60529405 0.29620656 0.17504239 0.4470267
539 0.041219566 0.5145489 -0.4169439 -0.32358295 -0.25312418 0.21674292 -0.25400242 -0.12090136 -0.2950978 -0.28493452 0.040136114 0.6857585 -0.04901875 -0.49304515 0.006203026 0.20399825 -0.40533206 0.11231306 -0.08513677 -0.018060371 -0.32409164 -0.25067264 -0.13264012 -0.4530408 -0.86631864 0.088403076 -0.40135774 0.13233338 -0.24669145 0.23802151 -0.13969418 0.23314606 -0.8249936 0.18691172 0.41994914 0.06470508 0.27981713 0.17172359 -0.25724214 -0.72252065 -0.20205176 -0.03354148 -0.009148951 0.016555667 -0.10321364 -0.22282651 -0.29428256 -0.5681281 -0.5621044 0.92820215 0.18528333 0.00017829685 0.007576855 0.3146601 -0.32794753 -0.74362147 -0.16518843 -0.5112065 -0.14512427 -0.022097848 -0.6275823 0.3515217 0.15768395 0.27657557
109 -0.6027546 -0.12430737 -0.32539934 -0.12176386 0.6048083 -1.3114694 0.12939811 -0.39959452 -0.010872136 0.16176693 -0.022258412 0.1621594 0.47436908 -0.19082649 0.4570932 0.045572054 0.007465863 0.112286836 -0.07865693 0.47803402 0.443697 0.1823713 0.76014656 0.53308004 -0.70787513 0.05166788 0.46781862 -0.27825078 -0.64372873 -0.6298886 -0.19081691 -0.23468584 -0.40654737 0.9104794 0.59087384 0.9134006 0.19874083 0.7910843 -0.5056513 -0.3987855 0.13222076 -0.039518643 -0.27275273 0.026394257 0.386752 -0.55663484 -0.07232433 -0.11911157 -0.35806492 0.16448952 -0.09451986 0.6795194 -0.4060896 0.3227701 -0.0012143874 -0.03401351 -0.17247103 0.17223349 -0.016991293 0.036932044 0.13690454 0.40322313 0.1905839 -0.35478818
858 -0.7782227 -0.025587082 -0.67162335 -0.44445324 0.40899476 -0.7628737 0.18994303 -0.22380798 0.07172006 0.003007044 0.13716307 0.54844755 0.49200818 -0.13861936 0.4027703 -0.0056197224 0.19824466 0.08699539 -0.3571392 0.7254106 0.3200242 0.09829052 0.52597034 0.68636554 -0.9246328 -0.20178337 0.58808124 -0.06681609 -0.51656675 -0.92820114 -0.22698843 -0.10725934 -0.35652006 0.9845057 0.36420852 0.6057189 0.077333614 0.5980653 -0.6830624 -0.1650569 -0.08955336 0.09370295 -0.071212724 -0.10010989 0.23119329 -0.6489979 -0.054143783 -0.16564092 -0.46159124 0.10697622 -0.1008905 0.6199741 -0.4875617 0.14594987 0.35689738 -0.201624 -0.104956634 0.16575678 0.056252982 -0.030767182 0.17862743 0.36380765 -0.12161906 -0.49723288
293 -0.028716208 -0.0817948 -0.1504863 -0.16968867 0.44741842 -0.48274443 0.16623755 -0.41160306 -0.24641994 0.13794917 0.024436798 0.65409887 -0.24214147 -0.26283723 0.60052556 0.41916147 -0.011507522 0.08931781 0.21268189 0.5118145 -0.38209856 -0.58227295 0.005890177 0.3960234 -0.56114537 -0.12337858 -0.035019968 -0.41051266 -0.017259225 -0.056386497 -0.10799011 0.005425876 -0.33748144 -0.32264113 0.26068717 0.7991298 -0.19053316 0.6087629 -0.1588069 -0.057914536 -0.26975778 -0.62175846 0.059139132 -0.06088558 0.48506555 -0.56249213 -0.24101698 -0.6412445 -0.1257816 0.50579154 -0.08056582 -0.43896776 0.0035567926 0.2009739 -0.02111592 -0.18476634 -0.21122195 -0.34443203 -0.31060812 0.20697695 -0.12898088 -0.07141119 -0.08184586 -0.17202665
766 -0.110107765 -0.490036 -0.11545116 -0.2092486 0.49850565 -0.59518397 0.119879484 0.011023173 -0.18621735 0.27710167 0.12482302 0.64248395 -0.036200676 -0.4540003 0.6693084 0.42083538 0.038544208 0.1254114 0.06351419 0.45828122 -0.18400043 -0.46644303 0.04775425 0.17969766 -0.29528722 0.07015917 0.29051083 -0.36823744 -0.078556724 -0.44806218 -0.17639698 0.0933163 -0.4691128 0.16328415 0.13442008 0.761718 0.13749862 0.6811855 -0.13067874 0.00064282055 -0.19269775 -0.36058205 -0.27617326 -0.545756 0.34375048 -0.34988678 0.06077174 -0.27298847 -0.292045 0.20480116 -0.09392863 -0.19939922 -0.35687253 0.2229979 0.1890519 0.045448806 -0.3432777 0.19368543 -0.47362095 -0.16213231 -0.21311273 0.07036544 -0.04369905 -0.12836672
288 0.30488697 -0.15750532 -0.8279841 -0.51230794 -0.6546061 -0.33969933 0.4176152 -0.57226133 -0.45592132 -0.17916629 -0.11366702 0.09060612 -0.37521398 -0.5653402 -0.049204443 -0.015371207 -0.44632104 -0.18517207 0.44276804 0.096592516 -0.7107827 -0.1062477 0.10464894 -0.44687414 0.01210164 -0.31965292 -0.28394678 -0.9825241 -0.873072 0.15371752 -0.32506838 0.22416382 -0.6187337 0.90961903 -0.33728635 0.024539517 0.33611035 0.12271493 0.24081945 -0.46586165 0.27256706 -0.02778335 0.39883626 0.34283513 -0.41677514 -0.7722186 0.23494053 -0.9565507 -0.5251792 0.94383806 -0.30206513 0.33920887 0.024085738 0.65995425 0.40835008 -0.5811555 -0.3686509 -0.8839605 0.056663033 0.23889811 0.17566326 0.691429 -0.2441635 0.5575481
905 0.12498266 -0.2603625 -0.8661875 -0.39916435 -0.5398179 -0.52265984 0.42306834 -0.39931348 -0.36266136 -0.24757656 -0.22701359 0.11227486 -0.32216483 -0.66195965 -0.024486488 -0.072208956 -0.65663785 -0.19914703 0.25779253 0.15816626 -0.855224 -0.21211813 0.0019998772 -0.4070144 -0.19874197 -0.33920544 -0.34987217 -0.86081845 -1.0916301 0.04326039 -0.097385556 0.1553518 -0.7198549 0.9520371 -0.35462755 -0.20796731 0.5654554 0.1018476 0.28916848 -0.34544146 0.20868824 -0.1034938 0.50411415 0.39235383 -0.30566695 -0.5957159 0.28550643 -0.86400914 -0.44888392 0.71828955 -0.17547122 0.5035479 -0.06158656 0.6677259 0.62059903 -0.7080415 -0.40566388 -0.9757642 -0.17055021 0.31922397 0.15888721 0.73633957 -0.21033216 0.41564065
669 -0.6639103 0.0686599 0.050307456 -0.045263097 0.37011278 0.075479835 -0.060409565 0.24887866 0.19612446 0.27391362 0.2841287 0.25799525 -0.40032804 -0.47821313 0.50300175 -0.15438442 -0.07862063 0.2581825 0.15332638 0.35260177 -0.14687836 0.0392974 0.2030105 -0.2606419 -0.19259216 -0.19638342 0.10414595 0.07254408 -0.19182776 -0.782055 -0.2283992 -0.15701292 -0.6900523 -0.16689621 0.78038365 -0.15091282 -0.18453898 0.6656636 -0.3487409 -0.32285842 -0.19754797 -0.29427156 -0.29688033 0.24503331 0.09296265 -0.66989505 -0.044633668 -0.39696234 -0.1528732 0.32067373 -0.40649658 -0.27095923 0.11252241 0.24929628 0.527 0.20308734 -1.0652658 -0.057298306 0.25633085 -0.26755452 0.060318194 0.1736561 0.58096623 -0.09697851
360 0.4105524 -0.23454723 -0.1302034 -0.284788 0.35706523 -0.19805609 -0.014844173 0.042934705 -0.3973465 -0.6663465 0.47578874 -0.26640236 -0.30377468 0.2453486 -0.1824342 -0.07816494 -0.5317055 0.03588607 -0.2273406 0.43128005 -0.14813748 0.16183384 0.14740047 0.022731526 -0.1448738 0.24114478 0.10585877 0.085301906 -0.3531639 -0.5724951 -0.325836 0.018540472 -0.25876608 0.056874767 0.09124542 -0.6156129 -0.18454506 0.2238787 -0.16917402 -0.17695987 0.46814537 0.15548857 0.3668562 -0.4054907 -0.11123282 0.14886878 0.28987688 -0.7541745 -0.07031315 0.08399183 -0.1610362 -0.13142692 0.25364792 0.44502217 -0.14307296 0.06702659 -0.37153417 -0.6259148 -0.21318263 0.17032208 -0.4980115 0.00888143 0.44254786 -0.092633106
28 0.16027914 -0.07684285 0.2830904 -0.457411 0.7052396 -0.59013474 0.35875687 -0.6997797 0.2126123 -0.07155027 0.6859084 0.7314087 -0.62891746 0.4782302 0.26503277 0.13969299 -1.1506909 -0.21910211 -0.3678314 0.07822824 0.07388409 -0.24605152 0.88114727 -0.092497036 0.01931266 0.0462182 0.3109161 -0.6674444 -1.112464 -0.14393777 0.3875458 -0.07714264 0.24100679 0.98145276 0.16053492 0.13953282 -0.37921983 0.3375707 -0.308818 0.08290378 -0.27697822 -0.26310205 -0.24349768 0.22661859 -0.47568172 -0.26700452 0.35163707 -0.4187813 -0.084118456 0.46374768 0.6759334 0.5750934 0.6702839 -0.30440885 0.16819528 -0.5669573 -1.2549069 -0.31256926 0.13932744 -0.30137825 0.06592027 0.10812458 0.1620723 -0.76666033
818 -0.003091092 -0.024594272 0.24834591 -0.34054914 0.44713327 -0.5358228 0.24137948 -0.6683328 0.25235036 -0.0130452225 0.83659565 0.6698027 -0.3948348 0.664358 0.24863093 -0.047455218 -1.0198312 -0.050332263 -0.38773102 -0.0022779515 -0.1679542 -0.35427663 0.9247988 0.0071428786 -0.024499651 -0.0802508 0.3334226 -0.442618 -0.5974992 -0.16673818 0.28682932 -0.1743729 0.23023705 1.058315 0.37884825 0.08236273 -0.39770415 0.27649483 -0.25644496 0.16377926 -0.52152985 -0.22953866 -0.2653816 0.06828675 -0.5039641 -0.2919555 0.52949953 -0.18026851 -0.22287948 0.37809777 0.50175804 0.767428 0.7014235 -0.1307059 0.20997177 -0.515099 -0.9257152 -0.42660755 -0.18315303 -0.42037 0.12549457 0.07711973 0.23572665 -0.6515941
783 0.68381083 -0.15356238 0.28091195 -0.20984551 0.39530247 -0.44785324 -0.11553642 -0.039355025 0.12234671 -0.59288675 0.2297396 -0.10309919 -0.31849745 -0.09985272 -0.021959294 0.10714325 -0.35895136 0.0663423 -0.10914251 0.55616087 0.12206875 -0.13415739 -0.5333128 0.18254364 0.17952731 -0.14333728 -0.3119111 0.055898152 -0.4227791 -0.068832636 -0.7144766 0.0070261396 -0.6601726 0.5709119 -0.2111076 -0.15076458 -0.2592513 0.4793599 -0.41919467 0.08453241 -0.12156336 0.30283305 -0.17176475 -0.28962293 0.0021530418 -0.2060448 0.26291323 -0.20606482 -0.27630532 -0.19773266 -0.2932141 0.46818215 0.35730803 0.5606566 -0.07106065 0.027449269 -0.20730245 -0.67960376 0.22633006 0.48822 -0.5382317 -0.21635544 0.4649117 -0.7385242
690 0.494302 0.041364778 0.12332422 -0.22006933 0.24911147 -0.42925715 -0.111881584 -0.06434186 0.013068059 -0.29970586 0.589881 -0.38948962 -0.59590155 -0.011647334 -0.43525198 -0.23566411 -0.37484562 -0.12309397 -0.11112181 0.7226161 -0.081484206 -0.0062033446 0.13008076 0.0135497395 -0.10635733 0.044579487 -0.035579044 -0.03641241 -0.44946036 -0.6769471 -0.31269678 -0.042240564 -0.22858644 0.052611705 0.16341588 -0.55536056 -0.08855061 0.46069238 -0.3113816 0.06200551 0.31421658 0.24837637 0.12284859 -0.5312349 -0.042028595 0.0014852537 0.27107844 -0.41046283 -0.1855599 0.15731049 -0.1487483 -0.2025861 0.45141768 0.7285748 0.17372149 -0.2516317 -0.21827711 -0.5810359 -0.0149438875 0.17352659 0.061400153 0.31588984 0.3060187 -0.14856426
38 -0.32901454 -0.027608084 0.04525394 -0.327399 0.073022515 -0.16380773 0.5491768 -0.023050075 0.07999057 -0.08169511 -0.20414226 -0.07057657 0.04118384 -0.115212016 -0.021869766 0.5624743 -0.35721254 -0.4429682 0.5148848 1.098581 -0.020211846 0.17234771 0.33642745 -0.89402497 -0.65459895 0.21717225 0.5408378 0.1883294 -0.635215 0.13151106 -0.14674954 0.3254739 0.007274951 0.48125 0.44789708 0.06223404 -0.36752722 0.31663615 -0.09583497 -0.22819062 -0.11333312 0.58449024 0.40760705 -0.4699641 -0.13561249 -0.06926465 -0.457387 -0.3136036 -0.3935181 0.648102 -0.3002585 -0.33347923 -0.08487263 0.18803145 0.43530297 -0.47648937 0.47592118 -0.32180718 -0.4450649 0.16280577 -0.3463455 -0.22111787 0.05289662 0.033786837
342 -0.4405711 -0.25685456 -0.24096884 -0.5736917 -0.3616625 -0.33621785 0.6206375 -0.39393008 -0.066161945 0.27468774 0.40391567 -0.064341165 0.25670475 -0.37599966 0.11937734 0.5451859 -0.054148126 -0.33342215 -0.26100707 0.960498 -0.09532325 -0.27229905 0.6295339 -0.31899443 -0.7600823 0.04304933 0.13270248 0.3455436 0.0060267514 0.14965226 -0.1458074 -0.15970372 -0.25036284 0.47082564 0.6486937 -0.07152861 -0.6282112 0.59524876 -0.36173964 0.03445274 -0.7150869 0.22404528 0.124689445 -0.6272844 0.034176987 -0.23573236 0.23310782 -0.30059484 -0.45327693 0.10485822 -0.6650077 -0.37819034 -0.3909355 0.19159809 0.09168518 -0.21490757 0.17505966 0.27178 -0.62369263 -0.15003613 -0.48885474 -0.2495832 -0.43812183 -0.24360625
756 0.4257846 -0.04476773 0.11339933 -0.06090504 0.112550445 -0.33349276 -0.044755917 -0.10231783 -0.22611594 -0.4314859 0.41169924 0.0055714883 -0.2357242 -0.07018284 -0.09482258 -0.20565476 -0.33581433 0.03450881 -0.73536575 0.6100405 -0.24977823 0.053027928 -0.08087967 0.27997127 0.42438194 -0.13717091 0.039719515 0.3945528 -0.6449754 -0.37169042 -0.5000468 0.11339276 -0.47480503 0.6289769 -0.031441607 -0.09036168 -0.04587666 0.3954044 -0.14877598 0.32587212 0.09829735 0.18608662 -0.0045475024 -0.1888414 0.22681765 -0.5022056 0.3366025 -0.48145568 0.11328319 0.32822853 0.08333985 0.25369596 0.28878182 0.37052885 -0.20502715 0.32648218 -0.066013984 -0.069042474 -0.31220907 0.28268707 -0.35356346 0.077736154 0.47436428 -0.6187804
687 -0.059854068 -0.40482494 -0.0010212619 -0.01239684 0.66652197 -0.16520561 0.1424825 -0.43909422 -0.23443095 0.048205886 0.17403533 0.5934249 0.26265147 -0.016694576 0.50460154 -0.041206475 0.1883788 0.015829016 -0.1088996 0.5259373 -0.0739241 -0.32632947 0.6097642 0.06863401 -0.25023633 -0.08187913 0.3514506 0.03537091 -0.1409243 0.012594827 -0.10196435 0.066057146 -0.2398427 0.24308518 -0.0005912069 0.2872981 -0.023001453 0.6538786 -0.13449933 -0.10998858 -0.43038782 -0.06897046 -0.23776324 0.010679061 0.24860449 -0.4832923 -0.006690422 -0.17321008 -0.3622052 0.36363918 -0.6117675 0.062065713 -0.070823595 0.5179101 0.08177233 0.4951209 -0.017574541 -0.30190805 -0.34664068 0.48373616 -0.29952615 0.059964348 -0.13069515 -0.052115425
3 0.85628223 -0.3479369 -0.5431409 -0.039741594 -0.59164554 -0.56696576 0.27278534 -0.038367163 0.26238775 -0.107575126 -0.04455829 -0.08333104 -0.6268454 -0.17946039 -0.023291769 -0.17661047 -0.5202027 0.60748774 0.15103316 -0.18085006 -0.5215545 -0.40458834 0.33702138 -0.26134554 -0.57921 -0.13439299 0.1542903 -0.2443505 -0.373832 -0.007896902 -0.20979913 0.20151924 -1.0695316 0.5041987 -0.50522 -0.14402235 0.132522 0.17613626 -0.21352899 0.02502007 0.029823344 0.1468104 0.27261594 -0.26005512 -0.11427302 0.1612636 0.13883463 -1.2541738 -0.16545779 0.42646933 -0.20951477 0.019028064 0.10966448 0.93157965 0.15551347 -0.26143447 -0.11075813 -0.63379455 -0.21139543 -0.09003625 0.3001931 0.25776148 0.49626938 0.2749367
904 0.72432774 -0.1333791 -0.63048536 0.09201591 -0.24684584 -0.42882943 0.43464682 -0.112873234 0.50208515 -0.29457873 -0.2685181 -0.053280406 -0.60870135 -0.34859005 -0.06597965 0.17743233 -0.6809057 0.5087524 0.18300013 -0.3965466 -0.3668629 -0.13522571 0.49984095 -0.24303025 -1.1152537 0.03521048 -0.1531 -0.42999184 -0.63031435 -0.21006054 -0.17670664 -0.1203179 -1.0725862 0.8757598 -0.7267611 -0.06653063 0.2240692 -0.034713645 -0.47342935 0.03606893 0.24624306 0.17899269 0.100875944 -0.25797397 0.31881592 0.07551686 -0.09827647 -1.4190464 -0.45076385 0.40847626 -0.13883683 -0.050890002 0.23165277 0.9613058 0.09647359 -0.11967228 -0.6147179 -0.49646914 -0.14240663 -0.14622633 -0.0007053058 0.079524055 0.17364664 0.26805812
43 -0.54211414 0.02194972 -0.47402626 -0.20086692 0.51021516 -1.2522098 0.41399541 -0.024252962 0.3175369 0.119909875 0.5963546 0.30066174 0.60855037 0.13786109 0.38728726 0.3662934 0.0017399434 0.38053578 0.025448034 0.5852711 0.60527194 -0.07979628 0.75170445 0.43499404 -0.5430007 -0.10524782 0.44330126 -0.35238692 -0.5764055 -0.37633073 -0.16616067 -0.43968534 -0.37304133 0.68127054 0.36857653 0.48663092 0.16943644 0.94657606 -0.50768787 -0.43848988 -0.30983397 0.09372069 -0.15482464 -0.0785355 0.34761715 -0.53576255 -0.13357091 -0.37245533 -0.059107825 -0.15070535 -0.42236516 0.41130868 -0.5202908 0.030187033 -0.036688477 -0.13452892 -0.2628001 0.07737322 -0.22050633 0.09999984 -0.31098217 0.25684568 -0.07004287 -0.40591827
788 -0.60035807 0.11655662 -0.47379014 -0.6323723 0.47178632 -1.0537217 0.3315366 0.31572142 0.021181256 0.16135907 0.4510469 0.4172479 0.37339315 -0.17140077 0.578534 0.40722513 0.19586019 0.25011623 -0.27617264 0.82574695 0.54317045 -0.34906465 0.6940004 0.50567085 -0.72095585 -0.09045922 0.63273364 -0.14091624 -0.5188457 -0.4848055 -0.13679203 -0.36432463 -0.40278667 0.7921821 0.34066978 0.8262776 -0.058671582 0.58740634 -0.34802735 -0.35623378 -0.02187178 0.027249178 -0.32844815 -0.16206874 0.4602191 -0.46321756 -0.16886221 -0.39709064 -0.19249323 -0.066918455 -0.2173261 0.58327943 -0.083659925 0.30840063 0.1817656 -0.13489348 -0.12816846 0.13604245 -0.14162129 0.10982106 0.1031422 0.30460304 -0.06748144 -0.2775932
512 -0.6003 -0.412703 -0.3327122 0.06854216 0.80915594 0.07840615 0.075288415 0.2472893 -0.2133601 0.29631406 0.029159818 0.49726248 0.0023817953 -0.253377 0.6157148 0.35115016 0.061473984 0.35132015 0.2980929 0.39381287 -0.28294685 -0.25470048 0.43545502 -0.10483855 -0.25151047 -0.13072237 0.03401295 0.058107212 -0.42827863 -0.2765274 -0.49229953 -0.54246217 -0.5717382 -0.074315995 0.94384706 0.07515501 0.1335779 0.45930618 -0.51376 -0.013605333 -0.12916185 -0.29957008 -0.24663837 0.24879451 0.19326046 -0.62699986 -0.13807234 -0.4215923 -0.18124285 0.3290103 -0.105242215 -0.3005589 0.31990865 0.21211034 0.62320167 0.353641 -0.6516512 0.15998226 0.30480656 0.011976452 -0.17566489 -0.1270729 0.47407568 -0.10865088
618 0.5496252 0.047048487 0.12816046 -0.73507047 0.12240267 -0.45847964 -0.32808074 -0.6388567 0.3402628 -0.5173363 0.9267875 0.2703052 0.20991994 -0.027947102 0.17984854 -0.5973483 -0.33029646 -0.2485232 -0.6409408 0.49862266 -0.57133657 0.098950826 0.15955818 0.2600196 0.29084507 0.23385198 0.12863664 -0.2700832 -0.8483262 -0.16674274 -0.33177498 0.063562565 -0.13191389 0.6114695 -0.23531972 0.037668128 -0.17238449 -0.045265593 -0.50298107 0.7702982 0.2665396 -0.27103618 -0.27735674 0.009182885 0.24844323 -0.8424547 0.57161146 -0.44868442 0.19724654 0.25384733 -0.19781353 0.0015467559 0.5211803 0.41436547 -0.41718948 -0.20240991 -0.014835134 0.15494272 -0.83762646 0.42429906 -0.50274444 0.13562891 0.81652427 -0.90297395
287 -0.68713105 -0.021641579 -0.24664614 -0.33305332 0.51676124 -0.34513214 -0.24316728 -1.2392867 -0.13402393 -0.22933716 0.0679143 0.5035352 -0.32209247 0.37119845 -0.20900944 0.17839697 -0.16779788 0.22081819 -0.47906494 0.56002074 -0.4477858 -0.44860572 0.33593512 -0.53342205 -0.20115511 -0.44091853 -0.15263535 -0.24893263 -1.3207012 0.007635875 0.041322492 -0.39835432 0.42719522 0.29538262 0.33156314 0.20135726 -0.17456017 0.044591725 -1.0551796 0.34006318 -0.7705995 0.53932333 -0.2122913 -0.7608721 -0.15264511 -0.48251715 0.41993392 -0.44361746 0.12951691 0.29027173 0.029964063 0.53410894 -0.12747933 0.28064278 0.107639775 -0.2808257 0.12725416 -0.32440487 0.033550993 -0.55000246 -0.049561393 0.031152854 0.19377838 -0.5274442
406 -0.67398894 0.015707184 -0.22781876 -0.5913569 0.69818527 -0.38228682 0.12842566 -0.69646907 0.39367396 0.0648636 0.14208661 0.54630005 -0.2548065 0.59282684 -0.23157896 -0.16174744 -0.16330685 0.0322853 -0.6398784 0.28206378 -0.015495878 -0.18568252 0.3450601 -0.13863435 0.09762006 -0.06232055 -0.066291556 -0.09242323 -1.199134 0.40136164 0.10129411 -0.2919691 -0.019708145 0.34896487 0.47111824 0.15968719 -0.15962191 -0.25261396 -0.60831654 0.10023894 -0.59780496 0.5525201 -0.2101109 -0.9636724 -0.53765154 -0.4159153 -0.26821876 -0.5912434 0.49650246 0.048148848 -0.09217113 0.27683377 0.06433917 0.6881573 -0.1754178 -0.35736495 -0.006398629 -0.17913254 0.06861775 -0.41294757 0.03976993 0.30554837 0.25048015 -0.4901734
271 -1.194381 -1.1077896 -0.79983705 -0.4639637 -0.43556544 -0.6420403 1.0823315 -0.9461854 -0.35118014 0.085999265 1.0365568 -0.06972016 -0.5083312 0.37712952 0.010089224 0.9018996 0.3003383 -0.10468391 -0.24230546 -0.1279242 -0.48985067 -0.4497628 0.3391399 0.20574771 -0.46551847 0.0170441 -0.7924599 0.102622956 -1.1684728 0.007644977 -0.360648 0.5039744 -0.8202436 1.4366982 0.16514027 0.86070895 0.20055883 0.49161774 -1.9381291 0.46160543 -0.1885236 0.5783129 0.48505032 0.22873798 0.2678302 -2.0551155 0.6320786 -0.25614232 -1.0913659 0.92335993 -0.031407773 -0.20149504 -0.05912776 -0.6212761 0.31371567 -1.2381278 -0.25093395 -1.0534358 -0.1879631 0.27978927 -0.30802968 0.94212115 1.0065058 -0.2628782
867 -1.1839644 -1.1133898 -0.8178509 -0.4677968 -0.422232 -0.6461366 1.0772576 -0.9562453 -0.34634334 0.07685335 1.0404226 -0.034939796 -0.48064458 0.39540616 -0.011848066 0.90805876 0.2898705 -0.12167344 -0.23005992 -0.10076019 -0.47629166 -0.45429307 0.32701752 0.20722602 -0.40642253 0.029656133 -0.82835746 0.100233756 -1.1709163 -0.028381847 -0.34040624 0.50001717 -0.81374365 1.4111478 0.16725507 0.8625241 0.20214407 0.47771922 -1.9101211 0.4365718 -0.19672446 0.5694551 0.4656219 0.2534735 0.24060872 -2.0720582 0.61986214 -0.23320839 -1.1042117 0.938819 -0.0056140414 -0.21345495 -0.023208072 -0.65773046 0.3738683 -1.2397686 -0.28137642 -1.0527838 -0.173486 0.2986646 -0.30200672 0.92917156 0.9852723 -0.27912152
118 -0.21828 0.037968136 0.1449897 -0.3332955 0.49343795 -0.5308248 -0.14660142 -0.5504672 0.16043131 0.019877767 -0.5049132 0.32012212 -0.62913793 0.28377217 -0.4357964 0.67273176 -0.7940421 -0.303275 -0.37771606 0.81702226 -0.32625943 -0.70218915 0.419849 -0.471057 -0.454491 -0.6363566 0.42798617 -0.4679365 -0.9495108 0.21561736 0.1858014 -0.019976255 0.25412518 0.81541437 0.7192621 0.2543255 -0.058224346 0.5269818 -0.6850739 -0.16625223 -0.98576593 0.48952457 -0.1744136 -0.114580974 -0.36354747 -0.28196168 0.36679405 0.0898999 -0.025364736 0.80096734 0.066142425 0.46688777 -0.29415146 0.13249634 0.34477797 -0.097835705 0.45596525 -0.027426204 -0.3223848 0.1829676 -0.31109813 0.010029656 0.4567545 -0.011392566
854 -0.100465 -0.060260013 -0.005352074 -0.39635584 0.7782923 -0.470866 0.10484716 -0.44945678 -0.05284775 0.070251554 -0.62924385 0.44505683 -0.49132562 0.2421822 -0.24180561 0.6171492 -0.4623885 -0.3213155 -0.40004227 0.33209592 -0.3288389 -0.7834554 0.26015124 -0.2614878 -0.32913446 -0.58196807 0.38893476 -0.355918 -0.37342963 0.38616404 0.2008797 0.37730554 0.35491118 0.62580794 0.19011119 0.095947616 -0.2958565 0.9296444 -0.72320575 -0.18267035 -0.99941057 0.2889607 -0.034054134 -0.5666213 -0.14415197 -0.3958483 -0.022781251 -0.058394443 0.26825163 0.64926225 -0.43114603 0.3203276 -0.051939636 0.4098791 0.5617008 -0.19449887 0.10877613 0.082168825 -0.26128635 0.28239095 -0.28966704 0.06736952 -0.05818542 -0.03388755
82 0.20068622 -0.3395618 0.1789896 -0.11749063 -0.009155098 -0.35109064 -0.17634486 0.038367856 -0.7909034 -0.20334359 0.12410201 0.08132042 -0.8376938 -0.1786608 -0.34863132 0.17692502 -0.61721987 0.0109285135 -0.24847318 0.45994383 0.4072248 0.091999486 -0.28504083 0.1962972 0.27755645 -0.31251857 -0.29975092 -0.0028089264 -0.59098035 -0.3513178 -0.0592382 -0.15680158 -0.5295729 0.30456674 0.09169748 -0.11215718 -0.16706774 0.43852243 -0.28097197 0.26898748 0.34691426 0.76036924 -0.07739634 -0.82537603 0.1803376 -0.5459749 0.69866806 -0.67316157 -0.22588149 0.25171086 -0.18247549 -0.10679866 0.06717537 0.24140137 -0.25573933 0.056205638 0.01607738 -0.55135834 0.18179409 0.46855414 -0.3462054 0.19811267 0.23938209 -0.21951114
616 0.34777477 -0.19564584 0.08665672 -0.29078808 -0.12156134 -0.37585482 0.16505288 -0.43023992 -0.7062706 -0.10016141 0.06972838 -0.2103402 -0.5507074 -0.34618166 -0.2684749 0.5817576 -0.43681875 -0.043098748 -0.049919676 0.8341915 0.43179226 -0.111414894 -0.06846814 0.29098713 0.28590712 -0.40604493 -0.020423384 -0.066522166 -0.18249981 0.011950155 -0.42214388 -0.3150422 -0.63650554 0.5272153 -0.064039595 -0.074235134 -0.18148 0.25079116 -0.26190728 0.55052835 0.44881892 0.4732529 0.05989454 -0.41937032 0.06629272 -0.41169402 0.40791672 -0.41144356 0.091655865 0.1053785 0.06508606 -0.2436475 0.12599693 0.59743613 0.06709933 0.109331556 -0.38564214 -0.27731836 0.22566065 -0.047097184 -0.50358224 -0.25999853 0.19232042 -0.85803586
5 -0.86369085 -0.045423333 -0.083186075 0.108319335 0.77528644 -0.8666368 0.5883901 -0.47031853 0.1257378 0.26418567 0.5480951 0.44312903 0.056846425 0.5076456 -0.026918598 0.36493227 -0.038955018 0.5767306 0.08670649 0.26504582 0.12925234 -0.5146823 0.84101033 0.010545885 0.18927658 -0.093187794 0.3388442 -0.24751528 -0.70841795 -0.61640024 0.09761377 -0.31901598 -0.41390255 0.96143854 0.43169767 0.58024263 -0.098852016 1.1747562 0.046900798 -0.46625686 -0.013779289 -0.121557556 -0.1027626 0.3967862 0.024106394 -0.9706098 -0.10880898 0.0074975938 -0.073002875 0.39998144 0.8245573 0.6523644 -0.12003128 0.48984247 0.50558364 -0.33425733 -0.39739135 0.37408754 0.5426751 -0.19306174 -0.3988892 0.58932346 0.10268136 -0.20201701
588 -0.64991546 -0.0812813 -0.15284415 0.012625918 0.83038926 -0.9382379 0.52947 -0.5834044 0.10174724 0.22312275 0.6116553 0.5204726 0.05575576 0.52714026 0.25358346 0.22441317 -0.11719528 0.75502884 0.17683713 0.25461337 0.09765409 -0.39322302 0.9660989 -0.060312446 0.25378215 0.11162593 0.5181539 -0.2668299 -0.8257721 -0.93623793 -0.17142774 -0.26335204 -0.39356658 1.1071141 0.43092853 0.5763324 -0.22855237 1.0736717 -0.22557285 -0.52748585 -0.1779794 -0.10670862 -0.28907335 0.37406453 -0.10454743 -0.8892375 0.111963935 0.07106667 -0.037435398 0.40983143 0.55943525 0.80484104 -0.1216238 0.32869592 0.55770653 -0.16922663 -0.30318883 0.2972668 0.4909298 -0.118297555 -0.27446765 0.46291137 0.30166262 -0.25291598
135 -0.6588081 -0.15071195 -0.42318693 -0.3314168 0.7294753 -1.0743011 0.099443726 -0.32146165 0.123661116 -0.56154734 0.077000104 0.31361735 0.03381989 0.11484514 0.020669287 0.23246287 -0.37045282 0.012435448 0.2672612 0.33047482 0.035653908 -0.2995703 0.6033814 0.31700265 -0.022718308 -0.09417787 -0.11060124 -0.3963511 -0.9828295 -0.22209601 -0.047439273 -0.0993427 0.21571973 0.2449012 0.13510555 0.49628788 0.25787574 -0.03895636 -0.51812303 -0.06889822 -0.68392813 0.17807749 -0.75164324 -0.6162373 0.26121953 -0.86306536 -0.3414554 -0.54616916 0.33394635 -0.14637376 -0.4719421 0.4333989 -0.37856397 0.43012428 -0.2705739 -0.8230641 -0.40844393 -0.114638425 -0.041577555 -0.18171933 -0.061255053 -0.033474863 -0.19169801 -0.37622982
621 -0.17148696 0.09901895 -0.303794 -0.34239128 0.873579 -0.95099723 -0.072633035 -0.192984 0.1849674 -0.5992282 0.011606663 0.1812576 0.117244504 0.13255067 0.11092662 0.25444552 -0.20994806 0.2891509 0.5604125 0.25883862 -0.015523018 -0.690223 0.8401899 0.4313108 0.37439957 -0.2173527 0.276095 -0.25677 -0.924907 -0.65358293 -0.6616377 -0.5989838 -0.5625868 0.6448616 0.13654122 0.27042362 -0.079246335 0.5299816 -0.24713121 -0.18233892 -0.63009477 -0.055758856 -0.11736174 -0.36081445 -0.05537152 -0.90051866 0.012101092 -0.3531395 0.5770371 -0.36788982 -0.28888997 0.36970714 -0.39079168 0.22540979 -0.18213874 -0.4114525 -0.059261456 0.11778745 0.31504714 -0.013785498 -0.34915492 0.47679195 0.13625327 -0.020202035
116 0.5166713 -0.4880163 -0.36409837 -0.0050075194 -0.3091407 -0.3318557 0.08971729 -0.26656172 0.09105432 0.16937786 0.031079443 0.08253779 -0.43570095 -0.48478168 0.00043754716 -0.07152687 -0.7279881 0.54292685 0.15538481 -0.25481448 -0.5613296 -0.1916109 0.15418911 0.14892957 -0.38927922 -0.290589 -0.55851173 -0.43796882 -0.6231044 -0.13742088 -0.1548713 0.06897675 -0.80384237 0.42226428 -0.6002116 -0.03155384 0.015225231 0.281277 -0.06984776 -0.07989631 0.12731558 0.64709496 0.6069191 0.33589116 0.2758654 -0.3893621 -0.037275933 -1.420359 -0.36510646 0.59030676 -0.18592943 -0.36067924 -0.27854815 0.96377075 0.15991277 -0.39709926 -0.5221924 -0.5554459 -0.20423363 -0.1302925 -0.062453885 0.28167704 -0.119958736 0.41251725
684 0.56096905 -0.3662176 -0.2910787 0.17926069 -0.46823445 -0.42094016 0.37866214 -0.22011214 0.16538212 -0.07406247 0.09829804 0.1566801 -0.60867023 -0.26020083 -0.09554156 -0.20252043 -0.5366603 0.7297293 0.23425451 -0.08942847 -0.56589675 -0.035816595 0.38495266 -0.121921286 -0.4252036 -0.2250808 -0.20927651 -0.49412513 -0.7376804 -0.12296288 -0.3093254 0.057358537 -1.2696909 0.41098678 -0.73205924 0.20969968 0.056665387 0.23673368 -0.30664518 0.12674287 0.17933366 0.42661223 0.6067316 0.24600165 0.1595162 -0.27140296 -0.006973772 -1.4667324 -0.45271614 0.43203592 -0.09964403 -0.21718869 -0.028523702 0.9039712 0.09858231 -0.2299884 -0.6277227 -0.534153 -0.40555334 -0.19500145 0.06542633 0.23505096 0.047862433 0.5000008
84 0.20692225 -0.25702676 0.31656677 -0.48257992 -0.08213299 -0.19883677 0.6168167 0.22082238 -0.1585307 -0.046946548 -0.049799148 0.07921492 -0.32535347 0.008222552 0.37112537 0.5257309 -0.2900647 -0.60815585 0.31130072 0.6908828 -0.25397465 0.20313111 0.14629173 -0.5446363 -0.4011529 0.26376623 -0.19343415 -0.32083043 -0.19823185 -0.33492216 -0.43622857 0.36331686 -0.104847305 0.1619766 0.20782585 -0.19801195 0.08888937 0.36529163 0.3013804 -0.45502955 -0.17146851 -0.07447021 -0.29604223 0.06124061 -0.26841652 -0.23378001 0.018456621 -0.43360123 -0.113729194 0.56543756 0.0929416 -0.16060689 -0.36542213 0.27882302 -0.099491954 -0.20018128 -0.23475347 -0.83310324 -0.15109822 -0.7664756 -0.4288269 0.2552494 0.09464282 -0.0970303
671 0.3175089 -0.16015552 0.07744092 -0.46187797 0.0062915096 -0.093116984 0.14183512 0.04799526 -0.4645815 -0.33817312 0.08811063 0.16710992 -0.27581513 0.100430295 0.3245668 0.8012613 -0.59542304 -0.39872566 0.10604149 1.0807533 -0.3131998 0.5277502 0.3327629 -0.54192865 -0.1732678 0.31695253 0.2004978 -0.29261625 -0.501436 -0.39287132 -0.5867756 0.49528423 0.1738476 0.25548398 0.30976954 -0.25843102 -0.14954181 -0.296089 -0.040721864 -0.06828994 0.01632357 0.1730266 0.2304756 0.27966613 -0.42761138 -0.044406567 -0.39955953 -0.21572147 -0.052386828 0.3208229 0.08991612 -0.020738777 -0.16709223 0.55171597 0.23906893 -0.19028898 0.017175991 -0.3489536 -0.09063739 -0.48620296 -0.48183918 0.071786776 0.11500095 0.06582967
138 -0.6699592 -0.10612836 -0.47820467 -0.3180102 0.91523385 -0.74147886 -0.17508526 -0.28133732 0.25800258 -0.7010706 0.16811909 0.028812096 -0.039928142 0.25922 0.4184733 0.4753602 0.0715122 0.51956785 0.29086044 0.34192094 0.13406691 -0.4477473 1.0072552 0.39359316 0.25500152 -0.037525672 0.4951431 -0.27756947 -0.81756926 -0.82461256 -0.75856006 -0.6542481 -0.5440778 0.58118993 0.25479183 0.38772 0.04530169 0.4337242 -0.43945584 -0.23420283 -0.5122195 0.1520826 -0.10922287 -0.2503054 0.11461238 -0.96207696 -0.007303426 -0.37036893 0.6686776 0.19903533 0.065727025 0.31935856 -0.3255881 0.15374966 0.065620795 -0.697012 -0.5150025 0.4087395 0.29262105 -0.063538656 -0.39984095 0.16392343 0.04135633 0.029187484
471 -0.5406006 -0.06986629 -0.3556118 0.0042778156 0.6801612 -0.6155627 0.32970715 -0.23633735 0.18500076 -0.57843846 0.09201898 0.3435181 -0.040156703 0.039490826 0.55193233 0.36209902 0.25990394 0.6232741 0.4785879 0.39493272 0.07816919 -0.67870545 0.68770766 0.10194559 0.28801978 0.15719515 0.3905466 -0.23083708 -0.44925398 -0.77141696 -0.3834815 -0.9418646 -0.83961684 0.17149296 0.8434156 0.32704523 -0.22215556 0.63072824 -0.17777562 -0.33574885 -0.49386778 -0.08751195 0.1301772 0.018167578 -0.057394087 -0.8817039 0.27125922 -0.62371886 0.44926426 -0.092546135 -0.23949546 0.27066022 -0.27545363 0.42595518 0.27370003 -0.6848663 -0.4726259 0.37501705 0.48683372 -0.054371327 -0.6031308 0.18181725 0.23974152 -0.052442633
12 0.19376318 -0.14334987 0.51624954 -0.43343967 -0.25494018 -0.40593922 0.69062763 0.2962739 0.06958287 -0.03550594 -0.2979014 0.39347357 -0.35220167 -0.18617946 0.13173203 0.15559882 -0.29832786 -0.31538683 0.5022075 0.33740628 -0.7610625 0.3654574 0.15646313 -0.43623438 -1.0899155 0.19835909 -0.034110688 0.09110069 -0.503706 -0.26812753 -0.15391251 0.3023563 -0.44625974 0.22231768 0.084839396 -0.26861295 0.5953881 0.5208321 -0.0063408157 -0.4284214 -0.48515496 0.065929405 -0.28566235 0.5720738 0.4485148 -0.44579324 0.11339383 -0.6459077 0.040985294 -0.11791848 -0.058262203 -0.11293442 -0.15253133 0.019378917 0.14752723 -0.6055734 -0.27575386 -0.5911499 -0.18327035 -0.7032183 -0.40072873 0.6296011 0.64297664 -0.11989579
720 0.43453267 -0.32043695 0.29514977 -0.05931804 -0.15592477 -0.101337366 0.59096056 0.13813688 0.16102451 -0.18130107 0.08035097 0.6482364 -0.31090042 -0.32743704 0.19524707 0.32815397 -0.054703746 -0.47111034 0.044048823 0.35403407 -0.49496734 0.20222539 -0.12943074 -0.43731478 -0.33900642 0.10742499 -0.069382064 -0.4781692 0.22363274 -0.3045927 -0.36749867 0.620208 -0.42307538 0.07842688 0.67801297 -0.03264336 0.54789966 0.5443068 0.08558442 -0.46867684 -0.4914712 0.32500392 -0.39462203 0.13958351 -0.14349042 -0.64503545 -0.24614827 -0.36618143 0.1976271 0.2577517 -0.07598726 -0.36414295 -0.17601672 0.22921565 0.4513012 -0.40065545 -0.6380451 -0.4702798 0.11544669 -0.66921103 -0.059457086 0.28928486 0.26067933 -0.015764227
243 0.21103196 -0.36055318 -0.22781947 -0.34879723 0.044293053 -0.4896763 -0.2500221 -0.8255194 -0.8142334 0.13857841 0.29926807 0.14888932 -1.047038 0.056916304 -0.28111255 0.5210688 -0.7157817 0.14802466 -0.11262898 0.50247616 0.42812112 -0.09020471 -0.2735923 -0.43430835 0.13617295 -0.3824963 -0.74491805 -0.092560835 -1.1483284 -0.5154667 -0.6179179 -0.2771541 -0.03143924 0.21311069 0.02857663 0.11517254 -0.27162898 0.24438696 -0.35233948 0.013343128 0.1581517 1.3222177 -0.31999934 -0.8866548 0.34216627 -0.7474106 1.1320068 -0.85610425 -0.06751804 0.32200807 -0.13375494 -0.07215997 -0.13242276 0.25655982 0.267593 -0.08234096 0.2952102 -0.4562925 0.07110255 0.24225053 -0.04377912 0.19344524 -0.008277888 -0.48986086
329 0.3674457 -0.15108253 -0.27087498 -0.38317406 -0.05380356 -0.019957764 -0.025173554 -0.46905595 -0.9531794 0.15650167 0.38911322 0.19631903 -0.9319737 0.21375239 -0.35241038 0.40818122 -0.67871654 0.09803144 -0.22223064 0.54393154 0.47139955 -0.122674085 -0.19211717 -0.15467712 0.006330888 -0.13938314 -0.52955854 -0.15641089 -1.0000194 -0.4806675 -0.6951031 -0.3692906 -0.36561418 0.21159823 0.22108206 0.09131321 -0.31579247 0.36870882 -0.3165749 0.09870144 0.49105632 1.3256975 -0.2936968 -0.7053922 0.37410286 -0.74797225 1.0916635 -0.62306833 -0.09709099 0.13997567 -0.07806441 -0.15202193 -0.2533045 0.3109139 0.23095869 -0.037782308 0.2970609 -0.85142016 -0.093164355 0.37502614 -0.25948656 0.20492747 0.12217191 -0.46825138
254 0.3478312 0.11087685 -0.2683046 -0.07368075 0.72650933 -0.033106722 -0.17873093 -0.2131922 -0.2652216 -0.06388149 -0.11924659 0.10985087 -0.486498 -0.43588698 0.3686969 0.31208235 -0.042178296 0.5551414 0.31970486 -0.30169764 -1.0553958 -0.6440986 0.5049579 0.8182468 -0.62550163 -0.1534554 0.32226765 -0.11093873 0.29008952 0.08443473 0.22692588 0.17613436 -0.790983 0.46885574 0.11097387 0.87393457 -0.22917736 0.44886717 -0.3858472 0.17709957 -0.4710034 -0.5298299 -0.022696052 0.020152466 0.7052021 -0.6792816 -0.19393691 -1.1295538 -0.46876532 0.12102551 -0.3088368 -0.16301511 -0.5629237 0.78614175 -0.038125504 -0.05996211 -0.5526475 -0.7103156 -0.27366835 0.060030114 -0.16192836 -0.044429194 -0.25002652 0.13206574
488 0.46266797 -0.23221305 -0.09746437 -0.22224918 0.8434823 -0.1853216 -0.03240357 -0.23884416 -0.26735368 0.13276494 0.013730879 0.32850593 -0.52681935 -0.32803765 0.41653967 0.2650291 -0.08703674 0.54847443 0.19970489 -0.44280294 -1.1852095 -0.7527897 0.42642707 0.9409305 -0.5714086 -0.15456745 0.3990805 -0.17248084 0.2497519 0.28758976 0.24478881 0.2589371 -0.91295505 0.61347055 0.03394917 0.82519984 -0.11799593 0.47152326 -0.4930805 0.41398042 -0.5623382 -0.67068815 0.000781218 -0.028913353 0.641165 -0.7977885 -0.12057641 -1.4615518 -0.4822754 0.14293809 -0.40902576 -0.2108753 -0.42731127 0.79805243 -0.093830585 0.02873251 -0.5815535 -0.8608732 -0.04343232 0.14856401 -0.48894653 -0.042914256 -0.20677236 0.38340706
276 0.5315847 0.3809334 -0.62655264 -0.21557121 -0.10730987 -0.44997883 -0.3531532 -0.4412903 -0.14867173 0.019380243 0.19243832 0.34386903 -0.4193396 -0.015386411 -0.039102476 0.4351886 0.0064932713 0.3991527 0.08840085 -0.083255425 0.039328698 -0.2922689 0.14396863 -0.5576976 -1.1017915 -0.02509408 0.21516873 0.39406466 -0.42137593 0.18861263 -0.46336547 0.44147253 -0.36449957 -0.16374172 0.22305377 -0.019128596 0.282364 -0.0019018112 0.120430656 -0.74421984 -0.37966502 0.22819602 0.4809548 0.20993796 -0.1763528 -0.5455605 -0.23109245 -0.047171146 -0.8161341 0.95969665 -0.39030176 0.26493177 -0.07278818 0.2651614 -0.09749467 -0.42198315 -0.34430996 -0.4104572 -0.5358243 0.076580524 -0.53875273 0.18146853 0.09135826 -0.0811234
837 0.2604097 0.022121675 -0.14057131 0.2126714 -0.2007809 -0.13221812 0.47080237 -0.44519737 0.20465092 -0.107736945 0.3124382 0.3477202 0.06388069 -0.47281048 -0.046442572 0.18905003 0.07029264 -0.27895516 -0.19696075 0.15004179 0.04456545 -0.3999742 0.49086282 -0.767259 -0.6990462 0.3224071 0.25447306 0.22395696 -0.32500795 0.12336598 0.076023445 0.3289051 -0.39800966 0.25017825 0.58255213 0.22643793 0.24512173 0.40602216 0.07207894 -0.62880915 -0.6384609 0.39714873 0.33663848 0.044203438 0.09996309 0.09954312 -0.14472108 -0.14494166 -0.39171568 0.7996508 -0.34748667 0.14947923 -0.13249698 0.5405427 -0.025746066 -0.17396861 -0.22734159 -0.20076144 -0.7378922 0.45746636 -0.5005571 -0.058283206 0.26698446 0.34950846
290 -0.17255269 -0.3570548 0.07074698 -0.20692328 0.82685125 -0.5718372 0.41609085 -0.1438273 -0.4256896 -0.8676149 0.23697904 0.015221785 0.27801877 -0.20681335 0.4414655 0.39457425 -0.34338403 -0.6774291 0.14324954 0.27796867 -0.12889466 -0.17589073 0.17131165 -0.4403885 0.015244206 0.034986302 -0.49272475 -0.37784547 -1.2646189 0.13682753 -0.341434 -0.5311481 0.14136417 0.15661198 0.30727232 0.17648034 0.12835947 0.42981672 -0.270958 -0.52878034 -0.7045212 0.44735685 -0.54410934 -0.06174005 0.38122112 -0.7692685 0.12022915 -0.56256765 0.19949354 0.27049404 -0.046269037 -0.24324013 -0.92764914 0.10975436 0.21994044 -0.5048313 -0.13135888 -0.11279169 0.043172836 -0.5795009 0.24875906 0.2437023 0.32483688 -0.6991317
472 -0.30059052 -0.28364614 0.101269215 -0.01495618 0.7751354 -0.425555 0.12787522 -0.09119143 -0.380635 -0.92697966 0.37046725 -0.18183623 0.04497929 -0.14245607 0.33870852 0.27381274 0.1334594 -0.5434399 0.012500981 0.19350445 -0.02331416 -0.19954278 0.13366173 -0.19446468 -0.13480902 0.085584365 -0.46855077 -0.29407224 -1.0004686 0.18062143 -0.3035535 -0.5421049 0.09596295 -0.061366607 0.51364726 0.1581128 0.08222182 0.17982921 -0.21430874 -0.21246046 -0.7664676 0.4757536 -0.68100655 -0.031682234 0.21537915 -0.69560194 0.19417179 -0.6235019 0.03515797 0.19244754 -0.007978015 -0.13370277 -0.9386211 0.30798325 0.34802887 -0.46380964 -0.26791006 -0.15909757 0.10394178 -0.27113745 0.24349695 0.34771147 0.1891516 -0.5641598
212 0.18111975 0.092138186 -0.25834027 -0.23149806 0.4567913 -0.2374708 -0.09138192 -0.28399414 0.15369247 -0.036000405 0.05657205 0.10984533 0.23841316 -0.56951725 0.307177 0.30924034 -0.14167859 0.23958647 0.08906156 0.38742998 -0.94164586 0.07132816 -0.08100517 -0.6171964 -0.53567207 0.25170097 0.012178043 0.15075326 -0.30468976 0.21312296 -0.65131664 0.5540289 -0.4842502 0.20105189 0.5417848 -0.31194818 0.10381025 0.24959941 -0.14784278 -0.58089167 0.34765282 0.08544694 0.33310726 0.23335424 -0.10631014 -0.11944485 -0.01347433 -0.33828506 -0.093451075 0.43168834 0.40196428 -0.12732144 -0.33786422 0.22790341 -0.13850757 -0.5574814 -0.13869794 -0.79793024 -0.12735704 -0.06445622 -0.4321681 0.6736477 0.0675492 0.03523695
897 0.2857907 0.08837827 -0.442629 -0.2925053 0.39568904 -0.13618745 -0.31295383 0.14819555 0.13988243 -0.24081703 0.18850383 0.07063778 0.0815479 -0.81178725 0.35409102 0.08933404 -0.38573024 0.0500954 0.028453732 0.37983668 -0.8270447 -0.035771262 0.09725666 -0.63358796 -0.4712283 0.16473384 -0.17415763 -0.14064014 -0.4534544 0.04523189 -0.52970475 0.504163 -0.29609895 0.3771689 0.31557092 -0.088022314 0.6521556 0.21451728 0.03691789 -0.68504626 0.19662562 0.11642746 0.48848942 0.44548196 -0.10407562 -0.26214406 -0.10018462 -0.30742592 -0.40867448 0.5661452 0.37831026 -0.1598529 -0.27176803 0.49740857 -0.15471806 -0.5667171 -0.41561952 -0.92367226 -0.015809458 -0.11417349 -0.42234185 0.6172789 0.017393272 0.2836482
732 -0.45935747 0.074063994 -0.077597 -0.3456451 0.53550166 -0.4415794 0.03881932 -1.2161607 0.0014826709 -0.27352342 -0.07634133 0.41955888 -0.4960916 0.23433132 -0.29490286 0.2802339 -0.35399386 0.016315138 -0.5894229 0.5700091 -0.33423185 -0.7206619 0.123521514 -0.6799906 -0.47526044 -0.3794009 0.057823557 -0.34308156 -1.3535476 0.053910106 0.1305273 -0.35133237 0.49180394 0.35593867 0.5773189 0.24187765 -0.30077147 0.27504197 -0.9698855 0.068799846 -0.96829337 0.70506716 -0.15007944 -0.5102345 -0.6174991 -0.341744 0.4818598 -0.32816204 0.24351324 0.4781701 -0.0032774701 0.56798357 -0.1779633 0.22807194 0.23719971 -0.15489122 0.2515216 -0.10577291 -0.15836963 -0.16638485 -0.2702799 0.3115663 0.3348619 -0.36439893
420 -0.45751157 0.11408094 -0.40981832 -0.18100356 0.8917412 -1.0278217 0.08727016 -0.31671518 0.22153305 -0.826907 0.20697838 0.32320303 0.2079172 -0.29991287 0.060748465 0.3428981 -0.22039813 -0.36609247 0.54024637 0.73740613 0.42591697 -0.22469577 0.6809506 0.37472263 0.090338856 0.10967582 -0.18757793 -0.30829617 -1.1638483 -0.4049922 0.22735536 -0.2753313 0.19022083 0.6323246 0.22321792 0.52700865 0.33783993 -0.07861729 -0.6888779 0.5641913 -0.8142183 0.21820985 -0.41351604 -0.6566126 0.40003932 -0.47622535 -0.74415493 -0.40703595 0.020135857 0.13520981 -0.42799854 0.6136559 -0.39867705 -0.005534752 -0.013673995 -0.6541448 -0.36945862 -0.44581205 -0.04375232 0.045047283 -0.08082055 0.20321202 0.20748992 -0.29356965
312 0.15506034 0.012073194 -0.07614198 -0.16305229 0.27886948 -0.2050664 0.09255304 0.18323477 -0.3114828 -0.5901822 0.5072639 -0.14154513 -0.3222558 0.18481621 0.043561455 -0.13907798 -0.43611595 -0.064840816 -0.09940092 0.53159195 -0.20725697 -0.19185087 0.22136924 0.16993797 0.049732838 -0.392532 -0.089760765 0.35620174 -0.42321005 -0.335268 -0.34410807 0.02470484 -0.3975498 0.5606145 -0.16374153 -0.45994213 -0.43173292 0.35667348 -0.20277068 0.21376348 0.21179254 0.08863327 0.023395786 -0.48560846 0.52362347 -0.3616861 0.31798583 -0.43929166 -0.35375485 0.031834662 -0.3116507 0.055561118 0.18189679 0.4743607 -0.06260264 0.22152884 0.01478311 -0.39675373 0.1803027 0.3611371 -0.250765 0.22630577 0.14464174 -0.47303492
721 0.62633145 -0.0798372 0.14778659 -0.054409597 0.47453025 -0.21154255 0.13279426 0.058154505 -0.33741653 -0.490867 0.33260772 -0.31959173 -0.36339253 0.06594244 -0.058283307 0.015886828 -0.5161289 0.04722829 -0.34886193 0.38347632 -0.058086798 0.0032323496 0.38121912 0.001489816 0.13735767 -0.4155672 0.033261232 0.023884112 -0.529111 -0.14337525 -0.75370187 0.07708611 -0.43452516 0.6161144 -0.12460017 -0.3570197 -0.225729 0.46289006 -0.30032477 -0.0121207405 0.25147018 0.24335976 -0.17187572 -0.42380232 0.103098385 -0.29986 0.30975437 -0.5395977 -0.15479347 -0.053127386 -0.43919155 0.124907404 -0.10363015 0.46571684 0.10700183 0.28864965 0.090581276 -0.19438533 -0.104312696 0.28961292 -0.25251883 -0.07288245 0.250609 -0.573683
160 0.08773072 -0.26748794 -0.07641611 -0.18212679 0.61726683 -0.33941278 0.2784939 -0.49156815 -0.17336252 0.14088914 0.10613096 0.5637248 -0.29078102 -0.09144119 0.57588536 0.31481495 0.021832822 0.054577712 0.044696454 0.65619886 -0.536994 -0.5130527 0.14843515 0.37118515 -0.40787625 0.11134248 0.26345554 -0.47379088 -0.041036274 -0.28955463 0.028767914 0.03130275 -0.3374007 -0.25859356 0.2736878 0.89052033 -0.04466485 0.3785648 -0.38528553 -0.04333555 -0.43137574 -0.63849986 0.114014834 -0.32291466 0.3315068 -0.5507206 -0.11614671 -0.57211185 -0.049095932 0.4565002 -0.24176866 -0.33069274 -0.3326107 0.3577535 0.06612225 -0.33524063 -0.30575174 -0.118064076 -0.06389344 0.23940967 -0.12151455 -0.049728382 -0.023987606 -0.09347154
672 0.08889624 -0.22094737 0.08018195 -0.2907767 0.40522367 -0.4094554 0.34189022 -0.3073924 -0.11613599 0.15113991 0.05414989 0.7395999 -0.413356 -0.1279264 0.5210077 0.41063008 0.19851956 -0.07889708 0.06730674 0.63117397 -0.336013 -0.3539276 0.29334286 0.49724925 -0.43907782 -0.16667879 0.039804302 -0.24025798 -0.08800331 -0.17934896 0.022910723 0.0806164 -0.16356766 0.009306945 0.19387296 0.7131077 0.24159265 0.5967526 -0.36606157 0.12690371 -0.42655176 -0.41470668 -0.1169118 -0.1420219 0.331876 -0.34222415 -0.01908568 -0.33081132 -0.061535124 0.34130955 -0.0915338 -0.51715493 -0.26922935 0.24173035 0.07409612 -0.18041243 -0.39948934 -0.29038113 -0.37662363 0.26511654 -0.2887887 -0.10863548 -0.027701527 -0.07241417
93 -0.14373334 0.17014804 0.3778432 -0.4084323 0.29855362 -0.16475 0.13553452 -0.29700786 -0.26728866 -0.0010175528 0.09796694 0.004353684 -0.0664313 -0.3083002 0.21505542 0.29954386 0.050863992 0.50970125 0.3446134 0.4154221 -0.31478643 0.43276158 -0.6682613 0.22406566 -0.6407681 0.34109426 -0.05151187 0.20108838 -0.5501673 0.09453193 -0.11423169 0.6258905 -0.5421732 0.32211074 0.59009004 -0.2500561 0.3234113 -0.21234389 -0.11804664 -0.51848495 -0.81076187 -0.020658879 0.11052356 0.1786482 -0.21672468 0.13736781 -0.23940627 -0.76662314 -0.21375917 0.9710843 0.16041642 0.008456806 -0.078149155 0.10347643 0.061373714 -0.45508537 0.069926664 -0.27492785 -0.15992032 -0.0015237055 -0.40439117 0.4891957 0.12199112 -0.21054085
573 -0.045225337 -0.029848345 0.47827324 -0.63249296 0.090106286 -0.122581266 0.26018602 0.14000401 -0.2988059 -0.032189302 -0.51216286 -0.3017961 0.042021718 -0.04995242 0.1811382 0.48443913 -0.3057702 0.005871364 -0.025118964 0.4354608 -0.45390004 0.18083188 -0.016387993 -0.5894144 -0.48177168 0.41361678 -0.0800882 0.02387811 -0.44953027 0.11876104 -0.32094374 0.022064475 -0.26870224 -0.20989901 0.19908112 -0.1056143 -0.019842729 0.27461904 -0.08672228 -0.36580554 -0.12336945 0.048028484 0.12507342 0.29803085 -0.16439357 -0.044042826 -0.19147646 -0.64562637 -0.39157307 0.61334276 0.040050127 0.103756376 -0.2721343 0.3468584 0.1478846 -0.49727878 -0.17042902 -0.38803187 -0.45871595 -0.08144422 -0.42075136 0.5358761 -0.007437927 -0.39309078
500 0.15458661 0.045084387 0.06728875 -0.6582008 0.049658492 -0.8481529 0.37509042 -0.45807937 -0.38373 -0.4610441 0.59063816 -0.6039164 -0.8564498 -0.4232338 0.045678593 0.039102577 -0.021979086 -0.044553123 -0.5619309 0.341619 0.13185014 -0.37154377 0.059242938 0.7954771 0.13275836 -0.2918388 -0.07454835 0.20260616 -0.5636782 0.29477715 -0.6910254 0.6105598 -0.6965849 0.19793747 0.35794535 -0.04132148 -0.92425185 0.8376577 -0.03153185 0.67926556 0.1406394 0.01522879 -0.13156399 -0.10263615 0.49555725 -0.73476225 0.053792834 -0.7392208 -0.2766829 -0.3103906 -0.018783035 0.035771497 0.33492905 -0.033562493 0.022256097 -0.11948609 -0.64368933 -0.30077797 -0.26228684 0.052763 -0.1006632 0.122155406 1.0307308 -0.16112362
0 -0.39224526 -0.050789163 -0.30662745 -0.8923756 1.0606252 -0.34721723 0.22463502 -0.62246823 0.07722459 -0.15684839 -0.117965944 0.84346277 -0.029839711 0.32707787 0.3470025 0.096629895 -0.50321347 -0.6606105 -0.23152128 0.25990102 -0.6873613 -0.22174667 0.43390852 0.66164356 -0.035991993 -0.038464934 0.300127 -0.7051065 -1.0998151 -0.35515553 0.3419345 0.17321157 0.0760963 0.5224137 0.09568154 0.6133258 0.11348484 0.12764642 -0.80224717 0.19985683 -0.3769233 -0.35597047 0.07417475 -0.38895464 0.2309509 -0.70677876 -0.13913903 -0.75877225 0.8184802 -0.2089385 -0.21269873 0.16650084 -0.36038816 0.22371843 -0.1698296 -0.83720994 -0.781919 -0.14545368 -0.194531 -0.042513162 0.11049455 0.39856532 -0.23787016 -0.074902184
536 -0.39375994 0.0014908023 -0.25071427 -0.8481308 0.7568752 -0.39835712 0.2815784 -0.532946 0.57132804 -0.21514902 0.24310012 0.7748008 -0.21007648 0.21207187 0.10982369 0.08850967 -0.673716 -0.43175554 -0.4243774 0.28160748 -0.22304946 -0.12291564 0.48089898 0.434903 0.29699108 -0.1347495 0.18354614 -0.5990843 -0.89601105 -0.045703445 0.135401 -0.22723141 0.22601037 0.51441246 0.22933361 0.12333359 0.06622669 -0.18678604 -0.83880675 0.34902808 -0.4646764 -0.047635276 -0.24352705 -0.47332752 0.28458092 -0.7886427 -0.5687895 -0.7323669 0.6152326 -0.27739596 -0.11585169 0.47067475 -0.16041967 0.4462974 -0.23653373 -0.6266885 -0.950057 -0.3825861 -0.03536222 -0.33313945 0.06540464 0.46375588 -0.27732027 -0.24216858
35 0.00182344 0.5092756 -0.68559504 -0.74753827 0.27199864 -0.5811569 0.13416485 -0.53852224 -1.0133679 -0.6750131 0.6358952 0.31224275 -0.6464508 -0.3204663 -0.7700807 0.9963614 -0.6751582 0.3665859 -0.13708803 0.3540863 -0.018640945 -0.054630544 0.05572523 0.0833589 -0.27918723 0.20258965 -0.34411415 -0.17332645 -0.46157557 -0.19270976 -0.34107828 -0.87482285 -1.0295352 1.015672 -0.0013433924 0.2824238 0.086869806 0.05310263 -0.81041944 -0.33315787 0.13968754 0.81064886 -0.5526826 0.09121042 0.2972619 -0.65015376 0.53352416 -0.37324038 -0.7337047 0.069463655 0.18071464 0.29295227 0.70113117 -0.09161094 -0.4803467 -0.024773046 -0.116122484 -0.56374395 0.4989581 0.78763354 -0.20801386 0.23340955 0.8991002 0.030812206
392 -0.4013647 0.46627608 -0.7192198 -0.5816677 0.3056942 -0.47848576 -0.08265336 -0.45054755 -1.284143 -0.82750213 0.7380477 0.21608807 -0.7106119 -0.4603102 -0.7107462 0.79096323 -0.6620595 0.23588909 -0.19802149 0.4457619 -0.019791136 -0.16620865 0.009559015 0.22223486 -0.26954684 0.005194912 -0.3234486 -0.30955815 -0.24522552 -0.12640236 -0.24446589 -0.7537714 -0.8964387 1.0625128 -0.0064456267 0.33757296 -0.011187968 0.17411897 -0.96374625 -0.3656162 0.073349535 0.9052773 -0.29818308 -0.09129767 0.30989265 -0.63478434 0.38797307 -0.5049554 -0.6795283 0.1755063 0.081736974 0.59287393 0.865095 0.14279051 -0.4509026 -0.23997428 -0.10806978 -0.5333448 0.31579924 0.8823945 -0.1952386 0.20304585 1.036137 -0.07186143
102 -0.095096774 -0.15303412 0.42424038 -0.0997208 0.82949805 -0.31277132 0.33710307 -0.18010254 -0.40824485 -0.3637891 0.14095113 0.13668406 0.15872058 -0.1664687 0.45241392 -0.09807662 -0.16221297 -0.25946307 -0.2654587 0.33714586 0.047102977 -0.016735623 0.18907839 0.06880928 0.096281655 -0.2924111 0.01991727 -0.18522698 -0.6179454 0.4997378 -0.18090855 -0.4609178 -0.19437109 -0.16225733 0.20399445 0.01958402 -0.24287844 0.25964102 -0.44189018 -0.42217758 -0.36315078 -0.14680688 -0.029946828 0.26152045 0.540616 -0.43094316 -0.046845537 -0.56857467 -0.73373866 0.07835057 0.22368327 -0.5384792 -0.5100822 0.021584082 0.31513435 -0.11825307 -0.48389742 -0.32969692 -0.2657218 -0.20373896 -0.27702102 -0.1680032 0.25470242 -0.21382444
249 -0.42504337 0.3067178 -0.6524701 -0.18259306 1.0301296 -1.2151768 0.0046838177 -0.3356351 -0.12501292 -0.9127316 0.36312732 0.2575682 0.33026904 -0.32308686 0.047416832 0.025193987 -0.23845658 -0.6055151 0.44752336 0.8094268 0.6439043 -0.36078987 0.8256663 0.25991628 -0.06538384 0.10964171 -0.14487013 -0.3061707 -0.9535677 -0.42386734 0.09613671 -0.3152227 0.25374073 0.82725626 0.09240033 0.5243439 0.37595943 -0.04058732 -0.5525788 0.64082015 -0.924293 0.13334489 -0.013718821 -0.7041248 0.4324862 -0.36476037 -0.7760809 -0.3763797 -0.15850912 0.369048 -0.79168785 0.48051292 -0.48662 -0.12607495 -0.057589266 -0.2814179 -0.31344193 -0.25072455 -0.04251956 0.29095316 -0.32108864 0.21887462 0.51051086 -0.3689147
862 -0.3924551 0.3686305 -0.6787576 -0.16928862 0.88652426 -0.92987865 0.1016853 -0.31866917 -0.37635684 -0.7843086 0.22080305 0.23147926 0.33391398 -0.26969692 0.16132635 -0.027781183 -0.3038254 -0.63903755 0.34674808 0.97257036 0.9078753 -0.23930942 0.65028495 0.19350296 -0.34003124 -0.029333169 0.01974796 -0.22927988 -0.6636173 -0.4002879 0.019737087 -0.37004027 0.22394031 0.8089346 0.031780798 0.3929325 0.28568262 0.23515221 -0.2281815 0.31162494 -0.76743376 0.12635517 0.07155962 -0.61217296 0.49550614 -0.029052626 -0.6887016 -0.18038675 -0.24518518 0.56553596 -0.8955627 0.54528475 -0.34625766 -0.10692899 0.08072229 -0.10984523 -0.3916749 -0.15370055 -0.095321454 0.28276268 -0.37554494 0.35178438 0.4717544 -0.30004862
57 -0.3906075 -0.18310644 0.20109841 -0.063690074 0.78769034 -0.17190476 0.8684379 -0.06353648 -0.21464136 -0.27771455 -0.21426676 0.49014562 0.36934942 -0.55405813 0.12754053 0.44257647 -0.41920537 0.021673653 0.1607594 0.49760547 0.23171517 -0.30509362 0.773447 -0.18039401 -0.5489054 0.1429033 0.4842543 -0.42822683 -0.60528564 -0.29150766 -0.39960635 0.019461822 -0.37329328 0.07912213 0.4700518 -0.24372481 -0.18511046 0.5893411 0.0068169707 0.2902418 -0.2965408 0.095723696 0.42841485 -0.61397165 -0.056632493 -0.25675184 -0.6050658 -0.07343476 -0.28529558 0.6332237 -0.11738449 -0.3401918 -1.0862479 0.024517454 0.5136441 0.009615627 -0.14225504 -0.42323512 -0.48273298 0.5511419 -0.3899653 -0.37624466 1.0703909 0.4932473
427 0.29088846 0.099222444 0.047704425 -0.5385095 0.37314835 -0.5603102 0.21413806 -0.04005593 -0.28683153 -0.21510878 0.06062691 -0.029579965 -0.32505128 0.35634708 0.085977376 -0.34244674 0.11266384 -0.11476266 -0.5066843 0.37014282 -0.022995237 -0.006503849 0.11705523 0.60301054 -0.20333183 -0.086376145 -0.27224422 0.13117738 -0.67779344 -0.17481628 -0.19067217 0.3125306 -0.7052129 0.41867977 0.023754712 -0.39785698 -0.49385986 0.117108576 -0.64657533 0.16564527 -0.05143019 0.2522122 0.24888864 -0.33243173 -0.35338375 -0.10800795 0.12703322 -0.20129296 -0.13699709 0.3595986 -0.3256764 0.26861915 0.09711221 0.46513626 -0.167791 0.25505015 0.32557487 -0.2874726 0.32328022 0.16085964 -0.14296553 -0.19391957 0.11773495 -0.50018525
159 -0.23785965 -0.07415656 0.513277 -0.31556317 0.53811365 -0.4723595 0.3919173 -0.7357047 0.041815806 -0.05339888 0.76310706 0.71344906 -0.49917752 0.6139403 0.07168229 -0.20174722 -0.9498513 0.2119648 -0.2299853 0.14389467 -0.2769762 -0.015028282 1.0519042 -0.0030628678 0.0135776745 -0.023313561 0.22492889 -0.53078496 -0.9413739 -0.25622106 0.30503786 -0.05997877 0.18203036 1.3074692 0.17379169 0.18793333 -0.49361423 0.4886816 -0.23973277 0.31974152 -0.35437065 -0.3084152 -0.112373605 0.23778918 -0.4505633 -0.20176913 0.47840416 -0.19109832 -0.14688323 0.24565819 0.5967229 0.6256199 0.59694487 -0.11280818 0.20174746 -0.604041 -1.0566076 -0.30692968 -0.02500248 -0.3579896 0.06630365 0.35308233 0.33530515 -0.35599726
