884 64
102 0.2076934 0.15620777 -0.06890225 0.08835788 0.58061343 0.39836052 0.2476344 0.517682 0.539698 0.49893647 -0.17707679 0.005206278 0.64112735 -0.33027157 0.10352727 0.51035076 -0.36335224 -0.08594194 -0.09652958 -0.2720459 -0.55700743 0.85355043 0.68111324 -0.03044859 -0.07241455 0.21272457 0.14090249 -0.2684709 0.0066669676 0.6060885 -0.44874015 -0.52174073 -0.37339693 0.054691147 -0.33941892 -0.05807568 -0.30439362 -0.30670512 0.3815571 0.12988412 0.2299466 0.36544994 0.2742423 0.2254333 0.2690753 0.3693484 -0.46904707 0.24789014 -0.4912118 -0.5349514 0.2643896 0.115092404 -0.31613198 0.030040514 -0.1548083 -0.22919574 0.1950051 -0.07593687 0.14342277 0.3315641 0.09565213 0.2932857 0.3937039 -0.116722725
430 0.5114171 0.08182829 0.014077858 0.12557238 0.4765745 0.57089543 0.42374742 0.53405195 0.43573022 0.8062547 -0.14405015 0.04961595 0.532775 -0.5505219 0.08353198 0.25115192 -0.23345944 0.053518225 -0.21976104 -0.15346111 -0.5300725 1.0542413 0.62250966 0.024117298 0.091503695 0.18682957 -0.0097674215 -0.38873398 -0.034233492 0.67284524 -0.34177527 -0.5479285 -0.23890458 0.22633748 -0.2725955 0.04119071 -0.14734994 -0.05567808 0.2198653 0.11862627 0.4389138 0.24699678 0.4274371 0.23834233 0.3373133 0.21172121 -0.56993407 0.17874691 -0.4459815 -0.5587656 0.17323393 -0.05720312 -0.14096095 -0.12868442 -0.13841248 -0.510554 0.40068844 -0.019990923 0.06853625 0.20534784 -0.18250133 0.2239016 0.46495688 0.3209914
21 0.9698196 0.8793215 -0.31235874 0.513498 -0.2740106 0.26723784 -0.45314825 0.738538 0.7503531 0.5502684 -0.5949788 -0.512736 0.62430793 -0.57916576 0.5282088 -0.07598677 0.17801963 0.25574693 -0.49685705 0.45216432 0.19132735 0.526294 -0.4149612 0.13262679 0.60555464 0.0036353488 0.14178385 0.7468694 -0.46458247 -0.45149693 -0.18065259 -0.19062161 -0.45709234 1.2117056 -0.25717235 -0.5359261 -0.43714833 -0.7032837 0.3921623 0.33599767 0.2303269 -0.07147304 -1.0738755 -0.38610053 -0.59825164 -0.17200023 0.60825866 -0.023162901 0.05410513 -0.36109042 -0.50269073 -0.45498565 0.039609205 -1.4436994 0.42383197 0.17121874 0.2532007 -0.064849555 0.07304667 -0.35492453 -0.069599815 0.75748974 0.2035022 -0.00830178
457 0.8467265 0.7528465 -0.2903344 0.514097 -0.3634839 0.24745674 -0.1296692 0.7134964 0.717744 0.64131975 -0.485239 -0.59962875 0.5966747 -0.37716156 0.55314296 -0.10436997 0.20606478 0.21676795 -0.49634945 0.508701 0.10083213 0.5384542 -0.4875078 -0.027781755 0.61751866 0.04287047 -0.0032403036 0.6413351 -0.3306897 -0.5991686 -0.20579979 -0.031681065 -0.5742825 1.1811613 -0.30180645 -0.5770616 -0.36233947 -0.56204194 0.41111052 0.455046 0.2623608 -0.0011017409 -0.95684665 -0.26438963 -0.61065507 -0.19999653 0.61021334 0.06455173 0.10915804 -0.4503812 -0.47318417 -0.36054012 0.03651954 -1.2580001 0.59786403 0.5436273 0.3254634 -0.10937915 0.13371941 -0.15497774 0.020038456 0.7853663 0.24896845 0.013509519
269 -0.25010726 0.24899934 -0.09729373 -0.4795767 -0.2572554 0.08279683 0.60484064 0.47998914 0.42731047 0.6671897 -0.47946194 -0.16700856 0.651477 -0.56974703 -0.3936906 0.113938525 0.3691336 0.27703863 -0.23286214 -1.0418007 0.05684544 0.35249594 -0.13095348 0.31563172 0.03746573 0.2574089 -0.7028483 0.09705252 -0.17218077 0.4019597 -0.080921814 -0.87173826 -0.20294641 -0.3891331 -0.5556429 -0.12036704 -0.34562516 -0.40952623 0.29323024 0.054839566 -0.6285709 0.25079116 -0.90240026 0.23962623 -0.27840096 -0.19388174 0.46233338 0.030759422 -0.259584 0.09276667 0.034947895 -0.3107007 0.2669077 0.035407692 0.009774808 -0.14653932 -0.020981263 -0.31449738 0.12407962 -0.0055276835 -0.50770676 -0.046859242 0.530392 0.25052553
636 -0.5884356 0.17582358 -0.13381483 -0.65585023 -0.28878483 -0.09574731 0.611866 0.35990843 0.35235825 0.70913553 -0.4132554 -0.52594763 0.35030133 -0.19723544 -0.1210516 0.21728344 -0.02752006 0.19096701 -0.023991942 -0.83850235 0.14818303 0.28862238 -0.38183326 -0.0783807 -0.028121023 0.4501824 -0.2863495 0.15438724 -0.1222851 0.24354376 -0.23772787 -1.2981141 -0.56777656 -0.117760494 -0.20291416 -0.29384035 -0.3499326 -0.6230279 0.514001 0.3512691 -0.5995408 -0.116265 -0.71279675 0.28279093 -0.62056017 -0.27785304 0.27442878 0.08741584 -0.15419313 -0.18180068 -0.075610705 -0.2867627 0.40770152 -0.050256636 -0.222728 -0.15861434 -0.1115657 -0.381101 -0.0519505 -0.2210117 -0.46200812 0.0010638448 0.49972382 0.18773426
35 -0.2139096 -0.1888803 -0.051252283 0.11364022 -0.13779585 0.8086668 0.51963496 0.98644644 0.8131157 0.6885168 -0.3903579 -1.0094672 1.1925029 -0.4315817 0.5073723 0.1243915 -0.045060612 -0.32246083 -0.6321832 0.67180586 -0.15828374 -0.2678483 -0.014303942 0.15955684 0.19234318 0.18246168 -0.49506393 -0.5202816 0.70481026 0.2857745 0.51456594 -0.35559365 -0.06967251 0.40097645 0.09793154 -0.8278337 0.0973526 -0.78221357 -0.1647396 0.95111746 -0.9426139 0.33139983 -0.24088043 0.38442287 0.12418569 -0.5480023 0.86801857 -0.33264142 -0.23828584 -0.51220626 0.44495365 -0.156405 0.04659232 -0.10191251 0.85562915 -0.2765449 -0.15102163 -0.4571378 -0.22475086 0.47420114 0.2723998 0.11818062 0.44376144 -0.5554823
392 -0.060160574 -0.14314859 -0.13870133 0.30381545 -0.4108162 0.95109916 0.4650961 0.87212384 0.65111655 0.51344126 -0.5684842 -1.0562007 1.1897553 -0.80161965 0.5681366 0.107704766 -0.11798564 -0.48942998 -0.66680104 0.54711205 -0.2507055 -0.28248832 -0.07133114 0.032953277 0.17629354 0.033749446 -0.387307 -0.48715737 0.46906123 0.17352739 0.6108722 -0.49800667 -0.033832222 0.35923538 0.17554343 -0.91353387 -0.22486994 -0.6512468 0.07066717 0.9144884 -1.1282088 0.11896828 -0.36764216 0.28876454 -0.17698126 -0.27901563 0.88737017 -0.14747049 -0.09435336 -0.7192292 0.445145 -0.09014907 -0.095317595 0.1552691 1.0039806 -0.3170138 -0.33537018 -0.39192846 -0.38846198 0.28101578 0.20313342 0.081905685 0.34699833 -0.7770963
86 0.2307251 -0.115975924 -0.22050208 -0.16171503 0.044376273 0.57145846 0.11408747 0.3296292 0.39666584 0.15672898 -0.024397837 -0.33907244 -0.037414357 -0.51193315 0.075899325 0.5962514 0.035755493 -0.18982622 0.08072529 0.03742636 -0.41221723 0.115011424 -0.046423364 0.033589534 -0.3418938 -0.2319678 -0.3974968 -0.90826255 -0.32035717 0.25804785 -0.3353473 -0.20005806 -0.12617251 0.29888287 0.09247985 0.190551 -0.4871357 -0.07319368 0.37706167 0.033982288 -0.035078365 0.02262291 -0.17829204 -0.3164666 0.3711073 0.0028971536 -0.46109504 0.21071479 0.5552613 -0.40548334 0.21538477 -0.10131038 0.18095586 -0.42791525 -0.073142916 -0.14976235 0.103001155 0.17226104 -0.3314385 -0.12976457 0.003962913 0.24762343 0.18526396 0.37563843
628 0.37471864 0.1664594 -0.14806584 -0.23382892 0.11310019 0.4669947 -0.12587443 0.2323475 0.34017697 0.09952119 -0.11557892 -0.15514323 0.31309232 -0.40069374 0.23332399 0.47333905 0.058382943 -0.17242108 0.052211326 -0.18177636 -0.56169415 0.17632838 -0.13197558 -0.16317873 -0.3681779 -0.2815109 -0.050012704 -0.8713032 -0.18039024 0.32615268 -0.5116131 -0.21955496 -0.29240584 0.3731649 -0.06773639 0.30871177 -0.22433974 -0.23541404 0.42330432 -0.13962154 -0.16223915 -0.11295179 0.24102877 -0.4748578 0.33052814 -0.35177317 -0.40504116 0.118413456 0.6407788 -0.56454796 0.3107903 -0.1678196 0.24388775 -0.30246872 0.1735115 0.024016107 0.2928117 -0.18114612 -0.46729618 -0.008388097 0.14027824 -0.12689689 0.33983493 0.66237366
277 0.77843726 -0.1795802 -1.0553473 0.26542935 0.10935094 -0.0145079745 0.2891133 0.98044366 0.68248767 0.7514133 -1.4755323 -0.7391208 0.31350008 -0.3146538 -0.012520483 0.5420908 -0.11096004 0.2995988 -0.95450217 -0.024745846 -0.0102642635 0.27608916 0.18664555 0.0986515 0.09308213 -0.75116605 0.30746517 -0.32575682 -0.53878504 0.3809605 0.2893705 -1.0161351 -0.3793072 0.2219704 -0.3795119 -0.025914172 -0.13153996 -0.8622662 -0.29579175 -0.17850845 -0.36413312 -0.31273472 -0.38680315 -0.4659163 0.18487155 0.21504733 0.07788857 0.2859907 0.08808238 0.013290707 0.516398 -0.6589064 0.66373545 -0.26475376 0.31605795 -0.4711651 0.735388 0.1943543 0.41394082 -0.08145026 0.08761215 -0.87139666 0.12312642 -0.4412317
789 0.92600554 -0.13053332 -0.99945974 0.07270492 0.19237292 -0.03597537 0.35686898 1.0383643 0.565346 0.7238298 -1.3820734 -0.3855749 0.23677833 -0.116466835 0.049667165 0.5711312 -0.038873523 0.12899326 -1.1864605 -0.06421815 0.15161686 -0.00050019583 0.32871124 0.057692602 0.12604427 -0.70153683 0.46693748 -0.36962017 -0.13188916 0.21628545 -0.1141527 -0.88481426 -0.24121709 0.21858793 -0.2465813 0.044229902 -0.30043736 -0.8970828 -0.26001596 -0.0718705 -0.3492079 -0.33344844 -0.20671101 -0.5671324 0.2672793 0.15167046 -0.09743951 0.13682905 0.084010094 -0.09325823 0.67815846 -0.52943534 0.7397889 -0.18388836 0.28773096 -0.6089928 0.59271353 0.24739136 0.31598687 0.10730365 0.15728106 -0.79552776 0.39295864 -0.3659148
62 -0.21988067 -0.17529148 -0.40779462 0.22095321 0.3897303 0.6500255 0.9388899 0.54278547 0.4330199 0.4799735 -0.31919888 -0.42409617 0.318239 -0.14974128 -0.452783 0.332779 0.31538093 0.10438319 -0.24018617 -0.574731 0.100945845 0.3474523 0.60369426 0.108097345 0.24932574 -0.081797324 -0.46560824 -0.46409816 0.088121414 0.62860286 -0.05185219 -0.5864542 -0.21528213 -0.104724 -0.6239967 -0.45404133 -0.21496953 -0.32378393 -0.23314998 0.34250537 -0.30159104 -0.4141745 0.27167964 0.15225016 0.30885598 -0.20755291 0.57720786 -0.05913054 -0.36638194 -0.11700759 0.066564165 0.31071252 0.0845677 -0.30988103 0.29358587 -0.3355338 0.15146758 0.04294749 -0.25111106 0.7096859 -0.6587486 0.01638819 0.5468263 -0.052892037
839 -0.18090804 -0.1396385 -0.14327367 0.3691298 0.27570766 0.4842688 0.9267935 0.65365785 0.6651748 0.78158 -0.5258592 -0.531446 0.30264157 -0.16404378 -0.38410282 0.27887073 0.46399608 0.21559598 -0.25292608 -0.5365601 -0.03597807 0.31514126 0.39012495 0.18671602 0.18867674 0.091058254 -0.8355057 -0.31154364 -0.22951931 0.58726794 -0.27335882 -0.3830297 -0.29848233 -0.057206493 -0.8373991 -0.52262545 -0.26318273 -0.4236083 -0.049042273 0.5721623 -0.40383747 -0.3895203 0.3382833 -0.03689043 0.24157348 -0.071430914 0.5149336 0.09223854 -0.3021889 -0.025966594 0.1490406 0.3130691 -0.14988941 -0.26248017 0.43629462 -0.1472587 0.2049373 0.1507073 -0.0011988442 0.5858229 -0.6789018 -0.21728024 0.4651403 -0.2708915
276 -0.08012233 0.39927447 -0.48938167 0.082964376 -0.3939224 0.21140997 0.03143718 0.5436844 0.17057796 0.07870216 -0.36471796 -0.0746118 0.42350674 -0.007098667 0.38341302 0.27562752 0.88039505 -0.15777919 -0.47448957 0.2622845 0.5993862 0.37177038 -0.5303273 -0.36109096 0.118135706 -0.19374335 0.1191417 0.0008357838 -0.4258981 0.18027796 -0.20418793 -0.2268019 0.09354343 0.29416218 -0.31385148 0.37766153 -0.57740086 -0.7146097 0.7243557 0.3928009 -0.08510102 -0.3812537 -0.56130725 -0.09139197 0.07825424 -0.035402372 0.22258317 0.1378458 0.009056031 -0.5692407 0.27749377 -0.21749924 0.23881914 -0.95078015 0.6105656 0.40931112 0.9075326 -0.32702458 -0.48877123 -0.2274795 -0.15634567 0.2826569 0.17744818 0.37487826
837 -0.009444132 -0.17433734 -0.3305182 -0.13843884 -0.18174253 0.34520712 -0.1314788 0.279672 0.5135523 0.17213152 -0.2909553 -0.10897201 0.0502108 -0.3163761 0.46736366 0.06211521 0.573729 0.04171888 0.03922068 -0.04407534 0.17412643 0.13380666 -0.34980625 -0.17591868 0.17355451 -0.27088925 0.44214517 -0.19345279 -0.34783143 0.44706762 -0.21338749 -0.09128955 0.0650263 0.29533976 0.31250754 -0.04741364 -0.35974592 -0.37525418 0.7380027 0.30178052 0.3903282 -0.36659244 -0.2835175 -0.15184017 -0.17502534 -0.22813824 0.04979034 0.270854 0.42259717 -0.54128957 -0.20066322 -0.4732734 0.4679404 -0.55822307 0.3742075 0.07254492 1.1067791 -0.23842621 -0.42041683 -0.33215353 0.15183191 0.40898696 -0.062072296 0.39947405
235 -0.1783553 0.27269876 -0.5264285 0.31922457 -0.5804075 0.4805969 0.09815945 0.43404132 0.21104969 0.49419877 -0.18231302 -0.6456679 0.61172175 -0.14012016 0.32319298 0.20629606 0.42208558 0.42908135 -0.35801655 -0.041193325 0.8083789 0.4142842 -0.26930156 -0.3056464 0.1497814 -0.14884439 0.46779725 0.17975311 -0.10697916 0.026648205 -0.015692037 -0.2993555 -0.18854776 0.5222402 -0.058884025 -0.3111208 -0.59336734 -0.69099486 0.78385884 0.41733253 0.18912983 -0.22618248 -0.6218138 0.08226457 -0.23693943 -0.232833 0.36009708 0.026997155 -0.061637666 -1.0362139 0.12439498 -0.13617945 0.28988025 -0.95823336 -0.07107352 0.38781098 -0.1405907 -0.45998603 -0.22507483 -0.15522368 -0.32053366 0.42013687 -0.3545208 0.38930458
763 0.101350665 0.1734851 -0.60113525 0.5690546 -0.5723919 0.4692213 -0.17608069 0.62273216 0.11922267 0.4657511 -0.007540662 -0.53146535 0.9039137 -0.05499733 0.42747423 0.36841837 0.86237526 0.5663456 -0.444462 0.14594185 1.1851577 0.4915378 -0.12622383 -0.20051731 -0.045744378 -0.3133692 0.33073723 -0.022810942 0.123287536 -0.23827237 -0.06607993 -0.3729439 -0.45615536 0.5503818 -0.31591785 -0.5081783 -0.51929855 -0.5825598 0.69053936 0.32607907 0.030249292 0.04407587 -0.5072266 0.17636266 -0.3407132 -0.31081495 0.3672345 0.17023718 -0.14036375 -1.0088133 0.18162961 -0.3106426 0.34450495 -0.50095314 0.09658123 0.38099855 0.0037846423 -0.32323167 -0.2614464 0.019576546 -0.25850087 0.42530954 -0.5122188 0.7447978
262 0.55618054 0.11865087 -0.9279665 0.49388787 0.207576 0.255959 -0.39764073 0.19411117 1.0567946 0.55152774 -0.20336038 0.2942987 0.15429777 -0.1709575 -0.11101468 -0.018319648 0.49985546 -0.5385832 -0.73988086 -0.08688947 -0.35252643 0.25548553 0.13474837 0.0071723647 -0.588141 -0.15754205 -0.20441547 -0.40331048 -0.070272215 0.17119284 -0.2124099 -0.58817357 0.15785721 -0.121112235 0.16808006 -0.6436149 -0.22330318 0.043322634 -0.085053295 0.42280045 -0.3161007 0.55399245 -0.2618193 -1.0818647 0.025683023 -0.13450451 0.045509454 0.11487916 0.020587048 -0.84308374 0.94877595 -0.010020103 0.37336332 -0.37821484 -0.03428677 -0.25680476 0.050787058 -0.06721902 0.40138444 0.06573181 0.39615047 0.27504668 0.85092604 0.4265114
835 0.40350986 0.28105366 -0.82600766 0.44294587 0.27126452 0.22226585 -0.2416387 0.05192725 1.0019393 0.25930017 -0.016755091 0.21477033 0.097871184 -0.19310896 0.28383115 -0.21880801 0.29772463 -0.42039487 -0.7207371 0.006190642 -0.30057147 0.29493 -0.029822866 0.4217564 -0.23952031 -0.19863832 -0.11305257 -0.5548617 0.43459624 0.11824237 -0.35542092 -0.36508065 -0.029979063 0.027850064 0.51921844 -1.0841479 -0.27534175 -0.10665291 -0.089321814 0.6433607 -0.5548876 0.34787357 -0.23525141 -1.1016034 -0.45612016 0.023588218 0.0885655 0.5161231 0.2359373 -0.7157234 0.9731367 -0.29847664 0.57496417 -0.553147 -0.15551445 -0.42340603 0.010417204 -0.31779316 0.24941404 0.046405047 0.3405373 0.0051485756 0.8038853 0.35425824
108 -0.34965548 -0.31020325 -0.25357282 0.16345274 0.38486865 0.0414802 0.26436186 0.16937977 0.5204705 0.37102115 0.16857035 -0.23826839 0.68160903 -0.12822731 -0.077708356 0.23511945 0.22938211 -0.11860366 -0.08866393 -0.08324633 -0.10174667 0.107599534 -0.07805961 0.17372073 0.3402555 -0.29205558 0.07743866 -0.45500416 -0.14740749 0.3725056 -0.25066018 -0.36911425 -0.07682387 0.13169424 -0.320774 -0.58475983 -0.10219176 -0.0208035 0.20470552 0.32159987 -0.367139 -0.016908295 0.032317016 -9.477702e-05 0.09641797 -0.4230315 0.15621026 -0.31845137 0.14860651 -0.24718419 0.17602973 0.29986638 -0.38753116 -0.30255142 0.6328398 -0.12482413 0.19490941 0.12360162 0.17361818 0.8405239 -0.19640447 -0.21208465 0.6133317 -0.121230416
827 -0.079502136 0.037828535 -0.33705938 0.08968451 0.34966442 0.22597574 -0.11717714 0.45418805 -0.22818924 0.11775154 0.24192345 -0.3128582 0.6458317 -0.2661349 0.000489687 0.4551041 -0.19361627 0.07868126 0.2796481 -0.0678925 -0.21743782 0.053610887 -0.25593057 0.016898526 -0.079080105 0.14551745 -0.5260721 -0.68220675 -0.038743515 0.53540045 -0.3523007 -0.04976044 -0.10628289 0.2410926 -0.3814779 -0.069140285 -0.5609378 -0.041660856 0.52914745 0.2592712 -0.46467477 0.287902 0.35095793 -0.4545827 0.47636965 -0.21803345 -0.09223617 -0.23898052 0.84029603 -0.17306125 0.48261777 0.21291932 0.16700605 -0.29306972 0.51533186 -0.100897126 0.26333463 -0.20878321 -0.39987865 0.33647457 -0.10318022 -0.0097916275 0.50689834 0.18000418
241 -0.046289545 0.3129336 -0.062471986 0.037639163 -0.30072284 0.16415745 0.21205768 0.49292254 0.025521195 0.4652612 0.0025840483 -0.22946763 0.04476247 -0.7413883 0.08275992 -0.07733719 0.028475026 0.5341246 -0.6965101 -0.111935385 0.706218 0.33031037 -0.1915168 -0.0058697197 0.32144102 -0.2091554 -0.0053051445 0.37951067 0.12976518 -0.27193308 -0.3728055 -0.45018825 -0.25917742 -0.02086474 -0.333286 0.023208033 -0.44814447 -0.63802767 0.50640845 0.15411437 0.10788691 -0.34092042 -0.65544116 -0.010759727 -0.29779696 -0.29465702 0.34588417 0.076882705 -0.13211109 -0.7240448 0.17583954 -0.13408881 0.2081699 -0.5718831 0.28118798 0.09004685 0.61436796 0.08728245 -0.080161 -0.023703014 0.55181605 0.38010365 -0.010577948 0.17442869
667 -0.07936593 0.2855618 -0.40800387 0.12716663 -0.16303018 -0.0618394 0.22485562 0.3410313 -0.18021919 0.5570924 -0.3095531 -0.32699624 0.020521026 -0.8947258 0.13529369 -0.035901345 0.08111713 0.42362288 -0.75777113 -0.05171923 0.586072 0.13935713 0.036980934 -0.039410803 0.70741755 -0.36559686 -0.1684168 0.2630943 -0.009274369 -0.54642236 -0.48307604 -0.5670084 -0.27800918 0.43255803 -0.15319791 0.07116397 -0.23373652 -0.5422045 0.36496985 0.34250095 0.10544143 -0.37705478 -0.8166591 0.18978183 -0.2686455 -0.18510263 0.048181783 0.0715013 -0.16865438 -0.7446923 0.16026574 -0.079423174 0.40186802 -0.4942551 0.400098 -0.02254719 0.47005972 0.030531514 -0.18554261 0.12614839 0.42561528 0.33367443 -0.23233342 0.47625035
151 0.13737616 0.5153344 0.31007478 0.26183093 -0.073556215 0.34855413 -0.11362449 0.49400932 0.76922125 0.49213955 0.07644641 -0.46670315 0.48321474 -0.9248648 0.3422496 0.19684039 0.14046508 -0.65255046 -0.9441551 0.25749084 0.12534177 -0.5820808 -0.1269479 -0.36086363 0.100254096 -0.013179134 -0.39997458 0.2792419 -0.12408563 -0.20757698 0.086536564 -0.18219179 -0.6136366 0.8978505 -0.3513488 -0.506281 -0.2759524 -0.33619496 0.48695004 -0.19837584 0.06869403 0.1241674 -0.5356123 0.393298 -0.9869274 -0.62953526 0.4209092 -0.12706582 0.24521689 -0.67865705 -0.38533995 -0.18524374 -0.11472752 -0.8540958 0.5505541 -0.42243052 0.25908545 -0.44094086 -0.07987399 0.3973429 0.11172994 0.11609469 -0.03962507 -0.011053064
727 -0.17773478 0.48520052 0.19023663 0.38142398 0.04414845 0.6309852 -0.3781239 0.23446287 0.3818268 0.6850995 0.16304004 -0.4447031 0.5964468 -0.73379636 0.15312465 0.4224763 0.2846059 -0.64398724 -0.74249715 0.24881382 0.14345132 -0.5655538 0.20671333 -0.4332104 0.23833887 0.09942735 -0.5183788 0.18957531 -0.11393562 -0.1545865 0.24099955 -0.13810323 -0.64147985 0.55172 -0.19279681 -0.47407997 -0.4539935 -0.53218657 0.38493672 -0.17427991 0.10564439 -0.21513964 -0.568781 0.28477952 -0.77375346 -0.6169917 0.21757972 0.31156018 0.27887395 -0.45066893 -0.31351888 0.012554291 0.0062305783 -1.0437794 0.38955554 -0.61629426 0.38140377 -0.318576 0.006147765 0.29715613 0.10764868 -0.1568159 -0.14721224 0.16889748
293 -0.024164228 0.23894808 -0.18978268 -0.023136918 -0.024963532 0.79945225 0.34531114 0.27621657 0.32859144 0.37418327 -0.4815993 -0.34237248 0.36616573 0.15912099 -0.3509308 0.25898448 0.16682544 0.098608285 -0.30844602 0.47712523 0.017497163 0.4759762 0.16728663 0.22272159 -0.024166936 0.12632437 0.041756954 -0.08014625 -0.37756208 0.43741342 -0.46422148 -0.27140057 -0.76104325 0.17019567 0.07174347 0.20047337 -0.6790215 0.19694652 0.30623725 0.073023476 -0.45116305 0.26728335 -0.20023644 -0.075499974 0.10023516 0.15646327 -0.31778702 -0.31267434 0.45498133 -0.59728396 0.43336964 -0.30602074 -0.094185814 -0.13987303 -0.037206892 -0.8149038 0.23074251 0.1547732 -0.07107432 -0.22533977 0.519405 0.4767866 -0.13281941 0.48378992
545 0.010076646 0.29051766 0.017332915 -0.15230519 -0.10378824 0.54660743 0.2677023 0.17169242 0.26039347 0.4074389 -0.24097615 -0.36518204 0.41378307 -0.20983744 -0.31408232 0.26846325 0.06519445 -0.01399835 -0.0919206 0.26512867 -0.27548146 0.31800768 0.23799258 0.119003356 -0.18703336 0.18809369 -0.1612701 -0.39368534 -0.27828622 0.45006812 -0.67428666 -0.20356967 -0.4950363 -0.057557553 -0.036030382 0.15581925 -0.36551237 0.038862377 0.26649782 0.34873465 -0.28989 -0.030807639 -0.26793692 -0.27915323 0.36200213 -0.047689404 -0.35408607 -0.3455883 0.5965866 -0.7237952 0.525279 -0.4236138 -0.13390677 -0.07075241 -0.108888835 -0.57496655 0.44563466 -0.032733236 -0.061622545 -0.3253216 0.4806261 0.401697 -0.089619264 0.25564703
259 0.3691411 -0.11509263 0.32437304 -0.2276082 0.79171365 0.03047066 0.88293254 0.26221606 0.7446386 0.5175249 -0.7750242 -0.20298423 0.7275439 -0.3590886 0.82660365 0.39232475 -0.060854364 0.37682685 -0.5806543 -0.3663696 -0.67887145 1.1250944 0.6920141 -0.03690135 0.36744314 -0.38337553 0.3997525 -0.0619041 -0.50113934 0.047438573 -0.41086876 -0.7556746 -0.3696048 0.16874586 -0.55296737 -0.5843067 0.15511389 -0.9759083 -0.11547754 0.15890308 -0.049367506 -0.0012993438 0.0139808655 0.22578399 -0.15472989 0.19205056 0.18805039 0.29774258 -0.41600728 0.21504563 0.54300505 -0.34031677 0.5104995 -0.38049528 -0.30401686 -0.82106876 0.17126966 0.13032016 0.068780646 0.15718015 0.21052413 0.5293538 -0.061520573 0.0058148266
523 0.32277027 0.074281625 0.5199201 -0.22268312 0.76353556 0.021849548 0.91893554 0.17821336 0.9369443 0.6006223 -0.65135175 -0.20313574 0.89953184 -0.20198151 1.0515358 0.3995298 0.06788321 0.48164263 -0.52786297 -0.34969062 -0.70427346 1.156929 0.53467846 -0.02706564 0.2916092 -0.35356066 0.5169035 0.02485577 -0.38805315 0.026240326 -0.45190573 -0.8971392 -0.43164706 0.22506008 -0.5096998 -0.53676707 0.24393615 -0.9716336 -0.10241854 0.2140778 -0.32420915 0.017818926 0.18247654 0.086177394 -0.051330056 0.11435069 0.11896086 0.28052446 -0.35949203 0.09289041 0.52485335 -0.6061108 0.47951794 -0.57940686 -0.30202308 -0.9129734 0.15734778 0.05094492 -0.09466131 0.27779445 0.24016786 0.4277684 -0.26268074 0.26334932
32 -0.123439595 0.19188052 0.24973881 -0.18018652 -0.059484262 -0.053618204 0.10911654 0.4680743 0.3053223 0.7323141 0.5807337 -0.9398018 -0.17542434 -0.26726595 -0.28320023 0.088620774 -0.10335738 -0.5485455 -0.41040036 -0.17582339 0.3728643 0.40441537 0.14173833 -0.28945863 -0.21872908 -0.34265143 -0.28360158 -0.22392783 -0.27478677 -0.026368372 0.16895805 -0.5750723 0.041302755 -0.101286486 -0.3090072 -0.26277336 -0.5293101 -0.61973846 0.8004312 -0.11471236 -0.28120917 -0.40894112 -0.27688304 -0.1771903 -0.26048586 -0.281796 -0.27465543 -0.06543341 0.34185845 -0.35870585 -0.2291127 -0.31946954 0.14304174 -0.20547622 0.24901256 -0.9002739 0.31068847 0.22732994 -0.18822837 -0.672331 -0.1391647 0.22631319 0.27539477 0.33268297
623 -0.13966137 0.011606153 0.10787796 -0.37543055 -0.49173728 -0.22442055 0.098764256 0.9556218 0.41847542 0.8739531 0.37943894 -1.0005344 -0.16169843 -0.27569634 -0.23491165 -0.12463612 -0.30817375 -0.46614835 -0.10943918 -0.3939164 0.5656688 0.329362 -0.019520191 -0.35382518 0.10390988 0.12155086 -0.10156236 -0.10300834 -0.04893159 0.006873765 -0.18854749 -0.8996901 -0.18441302 0.17462346 -0.17576674 -0.43727872 -0.45039728 -0.5063378 0.8069475 -0.10469423 -0.35858852 -0.24548167 -0.69143677 0.075461 -0.04648327 -0.50473297 -0.30048367 -0.01348992 0.40893775 -0.25770074 0.17344733 -0.2054824 0.17615508 -0.159773 -0.24991933 -0.67642075 0.006563938 -0.11860657 0.0751697 -0.36941528 -0.36243585 0.15397894 0.32304358 0.27017075
181 -0.030830646 0.07024864 -0.391714 -0.036660567 0.0891919 0.1459856 0.090786524 0.31641412 0.16873984 0.60249233 -0.19959809 -0.23762758 0.00329922 -0.17103955 -0.24411148 -0.11797545 0.44664666 0.4203181 -0.74911153 0.1779818 0.30632603 0.15461919 -0.46825358 -0.046739567 0.009981647 0.21097153 0.2602548 0.35570422 -0.038495135 -0.10771489 0.06918452 -0.6859588 0.027132152 -0.19599395 -0.30272225 0.08526293 -0.092089705 -0.52214617 0.61733377 0.46930328 0.0015256262 -0.33282825 -0.5911605 0.025195295 -0.3309943 -0.10851512 0.02726508 -0.15343915 -0.26639608 -0.5304104 0.34728086 -0.1768774 0.46636394 -0.81194866 0.3054138 0.053792007 0.63212585 0.009912387 -0.29375502 -0.4022796 0.19754565 0.6421459 0.39728644 0.6875119
602 0.16044168 0.67001534 -0.42269433 -0.06644902 -0.09244168 0.20668691 0.034122087 0.13515905 0.023217574 0.6534457 -0.70162475 -0.23916665 -0.021683708 -0.3757415 0.074938305 -0.30321577 0.23054758 0.24202922 -0.39411944 0.07214788 0.74452996 0.06130404 0.008842973 -0.21828352 0.13441159 -0.003614918 0.18445206 0.36093733 -0.25744873 -0.1279232 -0.044550367 -0.5726973 0.10426602 -0.2123533 -0.51729476 -0.00040688098 0.03490885 -0.70736605 0.8692814 0.45088392 0.22510464 -0.31853962 -0.9053373 0.18508393 -0.26764894 -0.41906813 0.0998875 -0.1246245 0.23898281 -0.54953825 0.42620322 -0.033208717 0.37577125 -0.60496473 0.45882216 0.052815814 0.61137384 -0.0924804 -0.44760212 0.19436806 0.081951335 0.43197444 0.12539825 0.6960668
290 0.4579751 0.19971532 0.44970393 -0.19132406 0.80267423 0.14824331 0.46191317 0.09016521 0.6664098 0.32960102 -0.5452703 -0.19224155 0.6837007 -0.4156434 0.685163 0.5017196 0.18985334 0.08553134 -0.7311408 -0.4075707 -0.26994234 0.980537 0.8712391 0.18096566 0.007167551 -0.38878855 0.6187171 -0.036234915 -0.33317295 0.29693878 -0.31280124 -0.8470572 -0.24211635 -0.082908235 -0.12435471 -0.51044476 0.15954266 -0.9398894 0.086620025 0.18967539 0.11778292 0.19076234 0.18120156 0.2569593 0.19312192 0.5030894 -0.03165715 0.13729352 -0.35602587 0.11336447 0.38363826 -0.33167475 0.16639997 -0.10107822 -0.07459372 -0.7655249 0.1816452 0.2573217 -0.1191422 0.23812106 0.02729964 0.2708974 0.051891554 0.29353705
472 0.29511184 -0.023845429 0.30924773 -0.13068783 0.5868756 0.19233975 0.60069954 0.11431015 0.72367126 0.44731253 -0.49398744 -0.07928972 0.58825994 -0.22684264 0.69997096 0.2650449 0.023267962 0.44825724 -0.43711802 -0.34712112 -0.53708965 0.9661347 0.7672352 0.08453627 0.19714832 -0.4053249 0.61632264 -0.10056986 -0.21749234 0.39131275 -0.4867429 -0.79731816 -0.3028321 -0.0047647986 -0.10001254 -0.5773078 0.09169826 -0.7261359 -0.08771938 0.03170266 0.032148417 0.23611142 0.1950664 0.17958045 -0.11164608 0.21424122 0.16713549 0.30662024 -0.354299 0.4420099 0.5040797 -0.37837982 0.29856518 -0.26525736 -0.19491218 -0.5736482 0.30035952 0.24271461 -0.14904335 0.08542609 0.08313655 0.46793342 -0.07026471 0.18196246
817 0.39700872 0.005630106 0.081397906 0.22814001 0.40564507 0.6152181 0.03546954 0.28798983 0.6955815 0.5699094 -0.06815104 -0.1660284 0.020833049 -0.43806008 0.5208179 0.6732385 -0.28438494 -0.0808782 0.29062647 -0.3573102 -0.77736413 0.66728854 0.21205933 -0.31425938 -0.16692966 -0.0021769162 -0.1800061 -0.40752208 -0.06605204 0.4658605 -0.22536758 -0.21094958 -0.16655895 0.07031835 -0.24142464 0.033010624 -0.11250271 0.08005871 0.49585813 0.1097664 -0.042332992 0.12583448 -0.05063549 0.0053464514 0.26486334 0.195962 -0.31486857 0.20173618 0.18116511 -0.49528053 0.27690554 0.06399395 -0.04240004 0.0973281 0.12042871 -0.3383574 0.6182513 0.04542205 0.08440499 0.105887614 0.16793467 0.26323372 0.47490993 0.31570083
162 -0.123961076 0.21948583 -0.088412866 -0.5718598 -0.15990022 0.046692934 0.3966308 0.44472247 0.27996746 0.5813927 -0.25149682 -0.33767465 0.5278864 -0.40406016 -0.263587 -0.0362376 0.26997128 0.25639468 -0.47032604 -0.850855 0.0892572 0.20921758 -0.13951613 0.3682818 0.13137189 -0.0050972663 -0.58223534 0.18108118 -0.014247169 0.25861204 -0.32378903 -0.7516385 -0.31875092 -0.49720126 -0.5791451 -0.065913096 -0.34216243 -0.27691627 0.52562135 0.19718756 -0.5530608 -0.04786082 -0.9260884 0.051791273 -0.07541029 -0.043944478 0.30204406 0.1461294 -0.23352952 -0.11525449 0.07699969 -0.21932162 0.37650722 0.01593175 0.002225941 -0.25098813 -0.009583029 0.01817087 0.13708878 -0.07398903 -0.6433094 0.092474505 0.2615708 0.1642221
871 -0.22764064 0.09010858 -0.26149952 -0.57715374 -0.30288592 0.14575364 0.52183723 0.38057768 0.5096769 0.7346786 -0.31 -0.14811884 0.5406288 -0.5525848 -0.39206028 -0.13619448 0.4195832 0.23844692 -0.07494813 -0.86848587 0.1979294 0.12321886 -0.11948051 0.5074969 0.046512026 -0.027367098 -0.7512587 0.04292038 -0.116278306 0.35240674 -0.18326454 -0.9203264 -0.32544786 -0.4387118 -0.25668958 -0.20285869 -0.34139907 -0.40978906 0.39851657 0.2662754 -0.42539075 -0.20755182 -0.9999669 0.15967336 -0.21068439 -0.00010535813 0.29269037 -0.11541006 -0.112694025 -0.26837662 0.0287332 -0.34769267 0.19745256 0.012464242 -0.06260962 -0.3054966 -0.08860378 -0.2325985 0.31016606 -0.019541096 -0.541179 0.07069515 0.35524026 0.06383147
14 0.35016274 0.61097634 -0.6325781 0.36570764 0.06386363 0.08797973 0.46301642 0.9616507 0.19649139 0.98692966 0.091097675 -0.6153877 0.14678141 0.07835346 -0.24717668 0.13818087 -0.090242006 0.0044323406 -0.50001776 -0.4014337 -0.34732172 0.2850304 0.4209252 0.5264598 0.31263807 0.017527541 0.78838 -0.50914586 -0.44033435 -0.056237247 0.02295689 -0.11673494 0.28856435 -0.23884588 0.05455411 -0.77212495 -0.55296344 0.032051954 0.22371487 0.09530423 -0.18806309 0.23547716 -0.103624694 -0.013683214 0.251662 0.33140376 -0.40770936 -0.10381749 -0.07814419 -0.25643268 0.4264094 -0.34779406 0.34405604 0.2149038 0.3161409 -0.14487267 0.3704565 -0.3475187 0.49251705 0.8288656 0.08904591 -0.15363811 0.33851945 -0.065339796
754 0.75552005 0.19450675 -0.5693616 0.7288083 0.29199502 0.50754166 0.5249548 1.2897999 0.44480902 0.26847783 0.17148815 -0.6246913 0.09537382 -0.05692925 -0.08751212 0.15148275 -0.3680001 -0.005191139 -0.37772283 -0.28864172 -0.8547777 -0.0014427563 0.27857256 0.67862123 0.51309025 0.022304112 0.8714604 -0.5006113 -0.14649674 0.08838698 -0.469151 -0.24341461 0.0671159 -0.33545884 -0.08864122 -0.5408708 -0.39750472 0.013877818 0.6799094 0.25957975 0.032860126 0.09670318 -0.26462573 0.30512926 0.043377057 0.012429733 -0.31339613 -0.17739429 0.19784862 -0.8618423 0.33997455 -0.018659456 0.67871976 0.5218911 0.9264635 -0.26719117 0.31989393 -0.1608845 -0.0033737572 0.52691 -0.14586835 -0.5694663 -0.022870082 -0.009948514
206 0.116418935 0.2282855 -0.46109697 -0.3018243 0.25282896 0.09450787 -0.106071085 0.437592 0.1899455 0.16504523 -0.40794292 -0.2114442 0.1398866 -0.31423363 0.2233401 0.05396003 0.62737834 0.5261458 -0.084027946 0.017388314 0.61375135 0.3474878 -0.24470541 -0.20093828 0.20297317 0.26968783 0.31622288 0.37604454 -0.44849223 -0.09596554 0.2558339 -0.31934845 0.1337457 0.08516415 -0.32547712 -0.17683487 -0.5932244 -0.7508653 0.8461747 0.42204392 -0.18012398 -0.5526101 -0.7737367 0.035026833 -0.27756694 -0.38032618 0.1275999 0.07057834 0.011638679 -0.7792585 0.35493642 -0.28042594 0.3156551 -0.4576442 0.47282678 0.037920337 0.60746616 -0.13657895 -0.15900594 -0.44331974 -0.09433517 0.3990083 0.12377128 0.64093596
565 0.19726253 0.7017382 -0.5829624 -0.054197714 0.36170095 -0.099680215 0.38830268 0.24151158 0.28580493 0.5162734 -0.0054019443 -0.45083657 0.101905406 -1.0644555 0.5333298 -0.3937287 0.39884758 0.29857364 -0.011669454 0.1201431 0.77464175 0.22484122 0.3096761 -0.017681925 0.20975006 -0.12161849 0.2643838 0.38618615 0.008888643 -0.27407336 0.14088556 -0.6800713 0.13791381 0.18129924 -0.61982894 0.26365358 -0.17978722 -0.48934242 0.85377425 0.76258504 0.061345574 -0.5792103 -1.1366911 0.15106727 -0.39270645 -0.19010414 0.15721197 0.20131892 0.46297097 -1.0862238 0.28362894 -0.3993663 0.22527614 -0.38620475 0.30663013 0.009384989 0.7049709 -0.10118103 -0.11046435 -0.36898348 0.19812413 0.43134403 -0.1945753 0.38958588
161 -0.2677194 -0.09365059 -0.05639733 0.28487867 0.41035953 -0.3826166 0.1253678 -0.40224537 0.5402752 0.5271446 0.19602321 -0.37295032 0.51816756 -0.34250632 0.043743227 0.3652176 -0.09923424 -0.104936466 -0.6195266 -0.35963768 0.31461772 -0.202304 -0.18747158 0.29911464 0.3592169 -0.13827775 -0.3310719 -0.57302225 0.047533054 -0.013036708 0.11853358 -0.46896452 -0.17016792 0.14015846 -0.39720058 -0.37161148 -0.14409912 -0.0336836 -0.1677192 0.66298765 -0.14253321 0.03336411 -0.68250895 0.31382045 -0.2769063 -0.18136649 -0.115911245 0.09965944 0.08496746 -0.09436573 -0.20199914 -0.17366451 -0.25859863 -0.18480371 0.66702086 -0.3887647 0.23791778 -0.2849647 -0.13559732 0.67830306 -0.018026643 -0.10884749 0.38019407 0.35421377
685 -0.43795696 -0.08769754 -0.114749566 0.20946522 0.09700103 -0.0755604 0.07860757 -0.16896394 0.6152618 0.4022663 0.10939214 -0.22647949 0.78211755 -0.11957734 -0.08555487 0.37379697 0.46616304 -0.04603009 -0.42472458 -0.36087498 0.39363205 -0.16291802 0.041725468 0.2819548 0.43203253 -0.1735292 0.057938002 -0.6967591 0.28285712 -0.12272868 -0.16638134 -0.50523263 -0.016467292 0.19429669 -0.32993203 -0.6639653 -0.6316757 0.02264181 -0.056933906 0.4840898 -0.08103703 0.2631943 -0.7224686 0.3020275 -0.22221819 -0.29879972 0.19993226 0.12779126 -0.14990805 0.048839364 -0.00034470815 -0.0721437 -0.27581245 -0.049417384 0.43869632 -0.045634057 0.0057697687 0.040508967 -0.09126429 0.263783 -0.100350715 -0.13840033 0.40630528 0.018761203
192 -0.121953264 0.16031595 -0.039750975 -0.52254516 -0.63395673 -0.30058414 0.6175547 0.5384864 0.064118624 0.699227 0.18145235 -0.720167 0.13608488 -0.008824273 -0.14540492 0.17057368 -0.3658835 -0.03510471 -0.21199124 -0.54519033 0.26844987 0.35373828 -0.5358059 -0.37998986 0.07715144 0.29893237 0.09722238 0.24284317 -0.19600412 0.0881015 -0.16536614 -1.1906766 -0.5072983 0.31325328 0.0696767 -0.43312022 -0.37065408 -0.4042226 0.6736801 0.4201442 -0.33745265 -0.21709605 -0.5799649 0.14664368 -0.46099782 -0.6156689 0.03643226 0.04993009 0.09757052 -0.34797743 0.16567646 -0.010144604 0.29973033 -0.016425831 -0.19822638 -0.19978152 0.40650877 -0.014960682 -0.25215274 -0.38288623 -0.35225844 0.11580911 0.3437041 0.27823263
530 -0.3739822 0.1958527 -0.13653186 -0.4674986 -0.4192207 -0.25754234 0.87393284 0.72710156 0.21924685 0.85882515 0.21047279 -0.8446278 0.015992047 -0.011361678 -0.24116458 0.2042048 -0.15610704 0.054523595 -0.3579184 -0.709473 0.4995884 0.32019892 -0.6446984 -0.6067192 0.05672247 0.288332 0.047356058 -0.023220148 -0.17264923 0.38418385 -0.165167 -1.0523359 -0.6255322 0.28633416 -0.056335784 -0.59168327 -0.45891297 -0.5809656 0.809072 0.45972714 -0.34078842 -0.3002998 -0.40699667 0.14923239 -0.32683727 -0.41617948 0.054694235 0.13775977 0.17060424 -0.31846544 0.35047027 -0.079384655 0.45080936 -0.23828284 -0.17861633 0.015274781 0.5751282 -0.20619926 -0.25525498 -0.41725093 -0.4059098 0.04428771 0.21224411 0.3160668
63 0.3136896 0.16758302 -0.6762867 -0.34341875 -0.11041309 0.34509206 -0.30215806 0.6503417 0.05374702 0.7831398 -0.03928058 -0.14888042 0.59160596 -0.4881229 0.119798325 0.0150009375 0.38785744 0.7844886 -0.41382748 0.2405717 0.24916086 0.49632713 -0.3494588 -0.36708668 0.2563261 -0.46960554 0.19610088 -0.1263811 -0.44083112 -0.36866096 -0.51260686 -0.27704167 -0.15128522 -0.01318729 -0.12551202 -0.10666159 -0.1809497 -0.7109526 0.9483721 0.5467921 0.13168429 -0.39622855 -1.0585377 -0.119179815 -0.22721832 -0.3812589 0.2911878 -0.06239107 -0.009435954 -1.0406225 -0.0076766973 -0.42996556 0.32657126 0.09246332 0.42787728 0.26844934 0.63745797 -0.58996016 -0.3320001 -0.029034885 -0.0011807564 -0.057099797 -0.30144233 0.557371
380 0.3398434 0.11108988 -0.49667096 -0.15757741 -0.102032036 0.44790736 -0.122106545 0.6055772 0.097520776 0.6487882 -0.0632459 -0.12793061 0.5805435 -0.38853306 0.064333856 -0.019358944 0.38820517 0.73016477 -0.55072135 0.23710032 0.45958462 0.5133796 -0.20111242 -0.3640821 0.26988217 -0.443897 0.07588996 0.009542024 -0.33046305 -0.32652107 -0.055358764 -0.25859982 -0.055666376 0.14430217 -0.04295938 0.17907454 -0.30303666 -0.6674785 0.96891224 0.49655056 0.28447697 -0.4191598 -1.0325346 0.11309434 -0.3814359 -0.25389484 0.13924378 0.09361767 0.07447343 -0.9317944 0.04743714 -0.2536308 0.40012422 -0.11048216 0.26618117 0.30422923 0.6092358 -0.12537153 -0.17946272 0.016164182 -0.06176195 0.08294747 -0.06517535 0.48608047
710 -0.390669 0.031416718 -0.3275578 -0.5484809 0.115509875 0.014166381 0.5589118 0.41530225 0.40949592 0.5763811 -0.33069354 -0.5128231 0.7293091 -0.6667813 -0.17410776 -0.016727772 0.5571664 0.14279555 -0.09483053 -0.9689834 -0.1484372 0.16053541 -0.03783081 0.15615922 0.268369 0.08651402 -0.5061261 0.36368427 -0.2872934 0.26305756 -0.3851499 -1.076575 -0.44279978 -0.42936704 -0.24629122 -0.1634267 -0.22057272 -0.3636956 0.39586863 0.17148799 -0.3991551 -0.17720118 -1.0365512 0.17314337 -0.1308532 -0.10569246 0.25654757 0.11681256 -0.13903347 -0.13627873 -0.22380473 -0.29652318 0.3247224 -0.07342666 0.020215705 -0.29477784 -0.0906126 -0.1213617 0.13813044 -0.1117366 -0.5101673 0.09579108 0.40623528 -0.11005033
155 0.41539317 -0.085015394 0.26739582 0.6906106 0.6564475 0.7103686 0.29380077 0.39191243 0.8496678 0.03782863 0.33453774 0.021042043 0.022169642 -0.36513707 0.6301639 0.4005606 -0.071734555 -0.2567288 0.1673739 -0.5449872 -0.40276188 0.256377 -0.035006657 0.501816 -0.008849078 0.21998666 0.19946143 -0.7868915 -0.29816535 0.47457686 0.09240207 -0.22929779 -0.27053553 -0.030853603 -0.08001061 -0.115497224 -0.34623662 -0.16019438 0.8490124 0.14579755 -0.0849287 0.15698145 -0.4751012 -0.06810057 0.19405897 0.26448783 0.046494044 -0.020163454 0.14682277 -0.27437004 0.50533193 0.24943759 -0.24645816 0.1899336 -0.071037985 -0.2986997 0.37570578 0.081876665 0.11040909 0.2969838 0.25204274 -0.120055884 0.31650487 0.37932846
426 0.23522677 -0.15185125 0.4226245 0.3608071 0.38830525 0.49056616 0.009914431 0.18515806 0.56120557 0.38939196 0.2132594 -0.3311921 -0.06768955 -0.37453812 0.47369808 0.6670434 -0.19462597 -0.6162703 0.1014875 -0.33480173 -0.4225815 -0.12072946 -0.4552648 0.44074237 -0.12807935 -0.06530208 -0.0138371065 -0.72705156 -0.34249726 0.7592496 -0.37303758 -0.08727169 -0.36364242 0.15801856 -0.06873 0.33219847 -0.3127622 -0.15793546 0.33503166 0.19356191 0.021637715 0.028093359 -0.15689848 -0.2229532 -0.10042206 -0.023898095 0.122341186 -0.041808885 0.43025708 -0.6093907 0.50996363 0.36995092 0.082529716 -0.03382618 0.047596112 -0.41172698 0.5445697 0.17288604 0.13638656 0.26993194 0.20307294 0.24331333 0.23835677 0.09165124
57 0.1118108 0.087328725 -0.5695588 -0.5150174 -0.50768733 0.20283383 0.19178143 0.5097094 0.3773682 0.68842155 -0.35159752 -0.033488303 0.3062771 -0.82860905 0.3703074 0.9273694 -0.08795455 -0.1689325 -0.07184401 -0.6431263 0.15205202 0.5006723 0.3590295 0.13081114 -0.18836494 -0.3846861 0.062673286 0.2475727 -0.24493723 0.92252976 0.23189716 -0.43755823 0.42737427 0.79992485 0.27719027 -0.0087016625 -0.24800617 0.2656231 0.20968081 0.37072104 0.5764377 -0.009381369 0.31988552 -0.15778433 0.18434945 0.0485349 -0.46939164 0.010947635 0.1447524 -0.46219614 0.27299595 -0.24633713 -0.03627233 -0.11635029 -0.14341262 -0.5217156 0.9818178 0.6069241 -0.22378737 -0.031807218 0.26160935 -0.19921 0.7028577 0.21095927
352 0.4733363 0.120218046 -0.029607829 -0.24726032 -0.30559027 0.18062745 0.13258538 0.43452066 0.43502226 0.5520464 -0.35796633 0.18039401 0.35368586 -0.5590214 0.004969279 0.55472046 -0.17916149 -0.29854813 0.07119135 -0.6619522 -0.1323287 0.709629 0.4620194 0.048228543 -0.11886113 0.02154253 -0.04716891 -0.23526195 -0.045014173 0.8045838 0.22317132 -0.64500874 -0.1907753 0.47782272 0.061239764 -0.013583449 -0.20175529 0.15232919 0.36356136 0.09620359 0.7376106 -0.061899245 0.12705667 -0.14563924 0.33998406 0.041466497 -0.38954952 -0.053943187 0.21189272 -0.5481969 0.36813772 0.14161696 -0.040670954 -0.055388752 -0.116743684 -0.47163343 0.7060374 0.33946514 -0.2750976 -0.10214959 0.04903403 0.04308646 0.40948436 0.04314556
17 0.11337366 0.41165972 -0.4310087 0.32837686 0.14918853 0.23738931 -0.1351388 0.2515255 0.70634544 0.47299618 0.0123057375 0.59559846 1.0697745 -0.13234828 0.07130746 0.5666488 -0.1959417 0.102867365 -0.52694046 0.22605957 -0.46562293 0.0582961 0.3809393 0.74331534 0.32270038 0.3748469 -0.06785571 -0.17486387 -0.13640319 0.19010939 -0.011250342 -0.69996834 0.67346144 0.52199095 -0.2708256 -0.5689757 -0.20053744 -0.07547964 -0.00026051095 0.52826685 -0.06809516 -0.31442755 0.22401434 -0.0052719675 0.40179107 0.26963902 0.2555992 0.101925775 0.404706 -0.17781675 0.3614455 0.37917203 -0.3964394 -0.21113601 0.35006952 -0.5979194 -0.06720737 -0.15847938 0.42785463 0.5798327 -0.29821068 0.35308433 0.7391774 0.2707562
381 -0.105870634 -0.16074814 -0.40442193 0.09170436 -0.21014103 -0.08896487 0.061350197 0.17377676 0.8650303 0.34619135 -0.06585661 0.1772893 0.7158783 -0.34201226 0.0041288007 0.44016564 0.171257 -0.51325244 -0.5032873 0.3439117 -0.5511158 0.41070318 0.0154746305 0.6899734 0.4711856 0.18077111 0.008578762 -0.20593582 -0.4504223 0.2627528 -0.019386409 -0.23121284 0.36948845 0.2208627 0.05048629 -0.41480422 -0.3212886 -0.20317002 0.18246588 0.61166173 -0.27804065 -0.1851217 0.22966427 -0.38591042 0.3833794 -0.2449066 0.31033295 0.09709856 -0.099045485 -0.16076022 0.07131886 0.20645626 -0.36893526 -0.25262314 0.6275861 -0.33977854 -0.52795666 -0.15884708 0.66560245 0.69084424 -0.12502787 -0.08976946 0.80217016 0.20785432
71 0.019164305 0.6764995 -0.3509977 0.28070098 -0.028679812 -0.27305079 -0.06652537 0.11347367 0.40556976 0.57755893 0.3936448 -0.83057666 0.83741987 -0.06851612 0.22499906 -0.017860515 -0.101319894 0.5065351 -0.15171164 -0.20354041 0.29224405 0.18405591 0.082506485 0.07006571 0.3993763 -0.09694012 0.043053675 -0.06578199 0.22153099 -0.17460485 0.21056579 -0.39024943 -0.6991783 0.33919257 -0.9325869 0.048501212 -0.37061185 -0.059781644 0.3142926 0.37919658 0.23641922 0.048906982 -0.28216532 -0.25498 -0.1758821 -0.6004082 0.078852884 -0.124862604 -0.5599389 0.06256852 -0.49890998 -0.06960812 0.19355747 -0.14108373 0.53930765 -0.147925 0.2856388 0.2907342 -0.14095733 0.039216336 0.09878016 0.22274432 0.42605036 0.6971884
573 -0.028794147 0.36788172 -0.2508595 -0.13534667 0.019759843 -0.25853413 0.19319186 0.0682306 -0.22827579 0.3264461 0.082688324 -0.7094879 0.17443964 -0.095201895 -0.23094237 -0.06353615 0.02124964 0.2532813 -0.36145362 -0.3015358 0.25351867 0.032125644 0.15851822 0.09132476 0.15348686 -0.0901279 0.36749882 0.09231939 -0.19090953 -0.25945592 -0.00027285627 -1.0335788 -0.39333558 0.12501454 -0.48351064 -0.2640603 -0.47806087 -0.61909175 0.6319575 0.40352273 -0.11533396 -0.28667793 -0.44453588 -0.04571157 -0.041121203 -0.023782644 -0.1524311 -0.07090734 0.010604276 -0.22507824 -0.30289358 -0.16489781 0.3381078 -0.1501961 -0.29527083 -0.00011410919 0.5681475 -0.049248267 0.026913198 -0.1905111 0.044974267 0.0025419309 0.53679585 0.4336316
692 -0.2025556 -0.23305285 -0.3736299 0.49923313 0.4178324 0.2430552 0.97528845 0.39285374 0.47576368 0.30851498 -0.27282777 -0.3492977 0.61283183 -0.26531002 -0.49008664 0.32250196 0.5997475 -0.012934292 -0.3645091 -0.20428993 -0.037118144 -0.0058281505 0.4033112 0.1972811 0.15812437 0.07271751 -0.25299174 -0.43792495 0.016148014 0.6027431 -0.12717661 -0.39134526 -0.15166345 0.18780124 -0.52563614 -0.3966929 -0.21527033 -0.23482092 -0.00015676167 0.29403102 -0.3755666 -0.4202273 0.029086504 0.03597043 0.26175812 -0.526263 0.40071642 0.060004827 -0.20193852 0.014137042 -0.0705564 0.64293104 0.103168614 -0.23760238 0.3428454 -0.19203812 0.22332829 0.12635405 0.060593802 0.7762737 -0.54430777 0.17078191 0.45966142 -0.21886505
866 -0.0258872 -0.039553136 -0.12967928 0.10285525 -0.3411054 0.94708085 0.42472035 0.88046193 0.587346 0.5702442 -0.43849924 -1.0845095 1.5205541 -0.6877732 0.6791143 0.106497064 -0.19357702 -0.4036267 -0.5931152 0.6395381 -0.22963333 -0.35076797 0.16360861 -0.26271823 0.2273145 0.13599911 -0.31708008 -0.6232798 0.6544105 0.1847194 0.52795386 -0.39449218 -0.05704485 0.64368874 0.0484647 -1.0209769 -0.22748962 -0.6478216 0.031930305 0.8623707 -0.85357046 0.13902906 -0.23719227 0.39353487 -0.26789114 -0.23521191 0.6812389 -0.03503831 -0.3265952 -0.69417036 0.44678384 -0.27685788 -0.15820622 0.044302292 0.9810932 -0.28865805 -0.24741982 -0.35604894 -0.41499028 0.3678953 0.25942135 0.0066383327 0.5386618 -0.62543964
494 0.3168669 -0.095269024 -0.40500697 0.033855543 0.01320596 0.5574947 -0.32761425 0.26683155 0.40449157 0.26319972 -0.1854068 -0.11607913 0.19142139 -0.5879137 -0.11607321 -0.035672005 0.22375692 -0.491485 -0.08904872 -0.16818745 -0.43907446 0.11947597 -0.38569656 0.0031066118 -0.34037015 -0.17359455 -0.37921703 -0.34569815 -0.19924287 0.40626392 -0.24187475 -0.5456867 -0.09196071 -0.22305945 0.069849774 0.3229684 0.025147159 -0.078743294 0.81067854 -0.104878955 -0.08549596 0.27140042 -0.2245053 -0.5380141 0.29756877 0.07207931 -0.2712811 0.13200043 0.43304548 -0.20274013 0.29231107 -0.2843625 0.074785866 -0.4920822 0.27202523 -0.50607145 -0.061646592 0.477409 0.14173195 -0.10190324 -0.15631382 0.28339848 0.5001488 0.79701114
89 0.37803507 -0.057481345 -0.022755926 0.31702107 0.005155379 0.22444986 0.47369704 -0.27028018 -0.25171372 0.35443607 -0.39398125 -0.2265103 -0.18954118 -0.58263415 -0.060886625 -0.028347554 0.1422971 0.14394662 -0.91490257 -0.16831636 -0.23934443 0.24216683 -0.21515565 -0.04640729 -0.37988615 -0.0027102828 -0.015009366 0.09699787 0.10886886 0.49369282 -0.34907094 -0.71867144 0.14370403 -0.5195253 -0.18969335 -0.44280148 0.035616957 -0.7830319 0.41590258 -0.011507244 -0.24329357 -0.1804276 -0.59364164 0.042187776 -0.28963602 -0.067144364 -0.0023060937 0.0043572197 -0.12835978 -0.22671838 -0.2584449 -0.22204556 0.39759305 -0.6359238 -0.2213038 -0.5717821 0.062444672 0.5263084 -0.07685793 -0.22961967 -0.38030726 0.34479696 0.81122255 0.820977
566 0.5098174 -0.0699728 0.05632413 0.16363667 -0.15730982 0.12234104 0.41811687 -0.33900183 -0.2116147 0.41355267 -0.2951101 -0.342448 -0.15378267 -0.36787742 -0.24298163 -0.061771985 -0.14364724 0.26389876 -0.6515273 -0.24026631 0.031860657 0.21252638 -0.26430422 -0.30561194 -0.057564236 -0.11270813 0.20024912 -0.118697 0.0050007985 0.60307497 -0.20280634 -0.56647646 0.04765454 -0.57559484 -0.3587039 -0.18373798 -0.022418803 -0.4600098 0.40777496 0.05778317 -0.3278407 -0.27720588 -0.34872726 -0.13915339 -0.17738463 -0.20053686 0.2800772 0.18517691 -0.015379226 -0.266069 -0.003415034 -0.5551707 0.266403 -0.6489203 0.05935113 -0.5979153 0.00080368185 0.3833668 0.090756916 -0.2478384 -0.26337186 0.5455203 0.7103976 0.8070146
4 -0.32746086 0.17647149 0.06088526 -0.16275407 -0.11423216 0.30804017 0.76587677 0.63165766 -0.13865744 0.5085372 -0.31686708 -0.6333255 0.2813034 -0.11107095 -0.56275827 0.067167364 -0.37278643 0.12973775 -0.24182832 0.03602887 0.17640167 0.5571726 -0.029721024 0.14463204 -0.24705498 0.230754 -0.34680423 -0.33113465 -0.1043888 0.49368608 -0.9566251 -0.31060177 -0.6586133 0.50985205 0.15693463 0.13206527 -0.34586266 -0.004442486 0.04859951 0.6382258 -0.7230821 0.29790658 -0.43557477 0.18972036 -0.07624909 0.34675506 -0.27006426 -0.09315319 0.59560335 -0.786485 0.72983474 0.067752436 -0.62246674 -0.2766597 -0.27942216 -0.88532394 0.5358315 -0.36319265 -0.41055185 0.03831498 0.37209564 0.6929346 -0.053535007 0.33622694
610 -0.29321456 0.12293686 -0.042925607 -0.004371212 -0.2441628 0.15848424 0.29998767 0.49913946 0.040566273 0.5325804 -0.36212274 -0.45043814 0.6092197 -0.013159749 -0.6187029 -0.09096981 -0.22802879 -0.14804047 -0.24684608 0.028666103 0.16418584 0.6325556 0.24089245 0.19938551 -0.38851762 -0.021809418 -0.13200536 -0.23698542 -0.113469884 0.48322022 -0.8172695 -0.3343037 -0.714193 0.3405099 0.19042392 0.13752927 -0.31010273 -0.08763658 0.0382771 0.63728863 -0.6621527 0.14221875 -0.4172286 0.17409979 -0.11503108 0.23188698 -0.41988048 -0.21379577 0.4903287 -0.58042264 0.5780075 -0.09267754 -0.39981246 -0.14720409 -0.112234294 -0.73705494 0.32040748 -0.12180343 -0.26493922 -0.23293301 0.29755715 0.7598434 -0.21645127 0.56428057
480 0.24259028 0.49631545 -0.7650542 0.37060985 0.015651876 -0.027024437 0.31373227 1.0120451 0.62878996 0.8660764 0.17745729 -0.73560166 -0.06526955 0.15764725 -0.38505775 0.21611066 -0.057607118 0.13372362 -0.50478464 -0.3221182 -0.31743756 0.17425239 0.57776123 0.31077957 -0.018854667 0.39759457 0.69624937 -0.28889143 -0.124628425 0.18744487 -0.17424108 -0.17450984 0.25627232 -0.35173896 0.059218723 -0.7937575 -0.66386247 0.16561855 0.2705542 0.1625212 -0.4338681 -0.21011928 -0.40523472 -0.035497803 0.14334992 0.21779649 -0.31572685 -0.19931476 -0.17789583 -0.06422154 0.9244051 -0.37874025 0.50284237 -0.028224569 0.1465543 -0.3183543 0.22487658 -0.46961254 0.548964 0.6984094 0.28210697 0.42405275 0.23165525 -0.25066742
305 -0.050174262 0.40904185 -0.1448022 0.13082555 -0.1812674 0.8397702 0.25253627 0.22483152 0.2178052 0.51278996 -0.27561355 -0.29000896 0.30517408 -0.11516392 -0.45024642 0.1831165 -0.029219707 -0.08488984 -0.19266506 0.25772303 -0.059139166 0.37147298 0.309767 0.15644978 0.0975064 0.12788525 -0.124382086 -0.03243425 -0.43825388 0.3561826 -0.58454365 -0.24556504 -0.5768112 0.4336484 -0.16298951 0.2832291 -0.7821919 -0.03717602 0.12756722 0.14830934 -0.59770644 0.39154097 -0.142598 -0.108649224 0.13510776 0.21358113 -0.28358766 -0.16803035 0.40110287 -0.846979 0.48213738 -0.2639774 -0.19145346 -0.19998986 -0.12615941 -0.46097308 0.18260588 0.28475538 -0.22813311 -0.22096248 0.35016873 0.48733544 -0.09987205 0.39338124
656 0.18274504 0.58671474 -0.10365447 -0.20826359 -0.2970188 0.7951574 0.3686575 0.059525695 0.29117978 0.49349213 -0.23160091 -0.3446057 0.69685906 -0.13154492 -0.29210073 0.022431005 0.043442562 -0.0026229748 -0.14095807 0.30364513 -0.18841204 0.25249788 0.27401447 0.23257312 0.0992123 0.036648262 -0.11181995 -0.1942269 -0.15106493 0.5118468 -0.5808532 -0.5531214 -0.6606546 0.115564525 0.29605034 0.121786065 -0.56473494 -0.17233719 -0.033286452 0.20871574 -0.35458222 0.14784397 -0.23898639 -0.01496564 0.27919218 0.6079247 -0.2871084 -0.28468966 0.36560622 -0.8848125 0.47810802 -0.17067839 -0.2781978 -0.09320008 -0.1450278 -0.64668113 0.56870496 -0.022631915 0.0044263885 -0.33375537 0.30338207 0.27989373 -0.016863877 0.5505552
218 -0.5506317 0.4457593 -0.30718505 0.061292026 -0.047786932 -0.2713709 -0.046418868 0.114050895 0.50893277 0.40176007 0.6386138 -0.37950853 0.9687789 -0.107408665 -0.004363361 0.053655524 0.19477129 -0.17644888 -0.35678855 -0.343566 -0.055031102 0.0029645865 0.39896983 0.31366712 0.34745795 -0.4909231 -0.059415918 -0.5051406 0.020670183 0.08687448 -0.16880472 -0.33427393 -0.10425177 -0.05348541 -0.50223285 -0.24939181 -0.47931162 -0.12562232 0.054372292 0.7089955 -0.085189395 0.4910216 -0.76014966 0.25461978 -0.048272766 -0.33712575 0.50333893 -0.09411129 -0.08292084 0.1420678 0.14887668 -0.09541394 -0.27501 -0.23089065 0.65257967 0.14727002 0.2539483 -0.022206549 -0.2584755 0.15551667 -0.5383569 -0.16938849 0.77193075 0.117897846
690 -0.34351015 0.047596168 -0.12846518 0.3500402 0.11554073 -0.09318464 -0.053628586 -0.26311624 0.4411934 0.21687187 0.06855659 -0.40459904 0.6413493 -0.29960015 -0.06545735 0.3005103 0.3334936 -0.0716829 -0.5203808 -0.5824349 0.20582959 0.12663151 -0.0016731708 0.41877028 0.51602507 -0.18525906 -0.18409851 -0.3188361 0.21926226 -0.08436369 -0.10016439 -0.43739974 -0.21502185 0.12525275 -0.21272093 -0.6246944 -0.4630093 -0.03790802 -0.15654305 0.48353842 -0.19336462 0.24620807 -0.801653 0.23324956 -0.028125174 -0.1907497 -0.041254554 0.039471347 -0.08359392 0.059746075 0.15728432 -0.14718951 -0.21425226 -0.1581282 0.7437566 -0.1427954 0.06942579 0.031076172 -0.22347696 0.13144189 -0.36012036 -0.21747582 0.8350437 0.08879484
6 0.13539967 -0.08777972 0.003666037 0.18078268 0.7369099 0.0010969973 0.0325887 0.0032869533 -0.16449013 -0.16005935 -0.016508527 -0.12632987 0.10300881 -0.17721683 0.33501112 0.315826 -0.11488192 -0.046140287 -0.35698104 0.1304027 -0.3813701 0.16905953 0.21378884 0.033353273 -0.279962 0.0068933666 -0.24853826 -0.16901298 0.18277454 0.67400527 0.0104750665 -0.44918275 0.3199328 -0.3634587 -0.12745543 -0.19827187 0.08101427 -0.29223594 0.76515955 0.22706199 -0.17725621 0.8780756 -0.9176926 -0.17017436 -0.4782223 -0.5727618 0.19800605 0.07000348 -0.09460893 0.36975524 0.17265455 -0.23084441 -0.071417145 -0.7858666 0.10483993 -0.63848954 0.4168708 0.1633919 0.22858463 0.2902581 -0.28706017 0.12002874 0.399297 0.65142703
377 0.15734415 -0.21242815 0.019093331 0.009726659 0.28633925 0.27488962 0.030762877 -0.08610584 0.26747757 -0.15574972 -0.17130803 0.048713095 0.019164775 -0.2842963 0.029954009 -0.24685003 0.097227454 -0.32207912 -0.26753855 -0.1867808 -0.27223012 0.165585 -0.22997084 0.23811005 0.0016509539 0.18071641 -0.32289863 -0.37988684 -0.046106562 0.88728374 -0.052804396 -0.59031963 0.17570709 -0.38798958 -0.1984544 0.21302623 0.26054657 -0.44891253 0.8095408 0.4442605 -0.49147597 0.376435 -0.48625338 -0.5759946 -0.35936248 -0.45295912 0.111058645 0.13409457 -0.13901962 -0.036063656 0.5872958 -0.6798197 -0.17612177 -0.7974625 0.31853917 -0.74019337 -0.3234716 0.19915108 0.8075245 0.09586554 -0.26293737 0.13345195 0.7037964 0.5964678
288 0.523486 0.6331909 -0.3585199 0.42265433 -0.17866589 0.32523316 0.12168485 0.82479507 0.6263008 0.86696583 -0.061967436 -0.59702003 0.5500471 -0.23208214 0.2386922 -0.063169666 0.23254313 0.012409063 -0.6128728 0.26088747 0.35309687 0.26868147 -0.188178 -0.044786084 0.60200375 0.04772308 -0.14733483 0.52328134 -0.15265942 -0.78189266 -0.40688396 -0.074763335 -0.74922985 0.90489393 -0.2324643 -0.20416602 -0.2514016 -0.549436 0.11198746 0.53308547 0.51830983 0.106591664 -1.0143372 -0.15362023 -0.7888308 -0.68246424 0.501591 -0.21401373 -0.031130943 -0.28938752 -0.4766546 -0.17277867 0.0054312986 -1.0525973 0.5120618 0.16429238 0.13310835 -0.27145225 0.15317887 -0.22314459 0.48800617 0.44052845 0.15170203 0.26836398
559 0.402876 0.49484023 0.1053335 0.3895381 -0.18030751 0.5632037 0.21148896 0.8506513 0.5757597 0.4968366 0.1134259 -0.38696173 0.5926268 -0.6552566 0.1882667 -0.06571509 0.16180979 -0.17619306 -0.64169794 0.17556712 0.2254665 -0.31872836 -0.19746073 -0.06381257 0.48065135 0.015369735 -0.44044268 0.41074306 -0.010992709 -0.6199832 0.01891137 0.25667477 -0.5906585 0.9849718 -0.15978855 -0.47702965 -0.29086396 -0.34867492 0.14011395 0.2450995 0.07283698 0.18554972 -0.9035252 0.25988528 -0.70531416 -0.61587363 0.36551812 -0.23057623 0.119488664 -0.32922608 -0.54598504 0.006626528 0.023621753 -1.2175796 0.40595993 -0.20138463 0.36313507 -0.4596795 -0.031977687 0.29269925 0.047188498 0.3055403 0.18643022 0.28807724
61 -0.10441033 -0.46139377 -0.37950668 0.45099077 0.21943809 0.7249183 0.9762919 0.31951898 0.43236345 0.6638551 -0.14648172 -0.39135724 0.5303873 -0.3504942 -0.29760453 0.38223436 0.19505621 0.16319862 -0.15640908 -0.4758118 0.2784431 0.45248935 0.53270227 0.26690894 0.2830225 -0.081738554 -0.4536685 -0.3699583 -0.28921854 0.35971123 -0.14018232 -0.5222355 -0.19728647 -0.32310417 -0.5523278 -0.5313947 -0.17606725 -0.11355592 -0.19442879 0.4235274 -0.35652107 -0.20207344 0.19154486 -0.23609763 0.19795205 -0.17403656 0.5714925 0.18402442 -0.28542706 -0.19310674 0.05478285 0.25440785 -0.20265312 -0.40290934 0.08463375 -0.025299799 0.16831715 0.3022028 0.044400156 0.54383373 -0.6632166 -0.35731515 0.29421964 -0.10415783
830 -0.2555107 -0.17549205 -0.4705887 0.41413632 0.1869639 0.3228221 0.8045334 0.31569126 0.58140296 0.52937096 -0.46430293 -0.30054712 0.48895606 -0.3551766 -0.4703023 0.36098176 0.17393945 -0.12670164 -0.23333722 -0.4369103 0.015362155 0.15110914 0.5366687 0.27436474 0.2345737 0.11417373 -0.2551079 -0.22319514 -0.07048591 0.53479826 -0.14146966 -0.53113973 -0.3325856 0.13807148 -0.49972084 -0.4328875 -0.24423715 -0.17174459 -0.16287212 0.37292007 -0.3922553 -0.47186252 0.39883897 -0.10737976 0.042105462 -0.57981056 0.41558054 -0.04963701 -0.18758556 -0.14746566 -0.07905984 0.4763961 -0.20036133 -0.016504144 0.395509 -0.2202945 0.38591036 0.10492185 -0.05273495 0.72910005 -0.5359112 0.0423569 0.4433583 -0.2646171
432 0.27940515 -0.07216323 -0.002287952 -0.3630304 0.17786133 0.58162415 -0.036477014 0.49569923 0.35459927 0.5403918 0.010066099 -0.22320643 -0.002206827 -0.32524994 0.016227135 0.5389431 -0.09401335 -0.17997277 0.1147319 -0.0022182716 -0.5858822 0.21826564 0.04484382 0.0023718243 -0.38838226 0.06950733 -0.124203295 -0.8788436 -0.24570554 0.2747361 -0.21049248 -0.36299857 -0.024621803 0.21530826 0.079397984 0.29877147 -0.26031697 -0.13977847 0.5712232 -0.026238898 -0.1335432 0.19657953 -0.032326516 -0.43824488 0.18052751 -0.20333731 -0.5954113 0.18246348 0.78486747 -0.43717182 0.30039385 -0.009764376 0.10686746 -0.31308845 0.39871448 -0.29605034 0.30178538 0.121407695 -0.16739208 -0.10120872 0.13820362 0.1472988 0.10093543 0.25816348
843 0.29981732 -0.10339241 -0.10628185 -0.17404209 -0.04447326 0.44560742 -0.011462388 0.35125247 0.41634506 0.26128316 -0.011335709 -0.07013762 0.036148086 -0.22992653 0.0414544 0.56740105 -0.11900413 -0.27434194 0.07378435 -0.057640944 -0.35869882 0.22938053 -0.14297068 -0.0036138084 -0.23476283 -0.053808093 -0.41735664 -0.8497715 -0.1355456 0.566513 -0.3823461 -0.25428683 -0.19353305 -0.036097363 0.06949689 0.27345926 -0.45018095 -0.37274453 0.33851224 0.04906204 -0.050609414 0.22020659 -0.164269 -0.4568345 0.30549425 -0.21315394 -0.32555744 0.20809111 0.59429944 -0.42269343 0.27845865 0.003340838 0.13172075 -0.30033764 0.14607427 -0.07074934 0.22833274 0.027737884 -0.008676114 -0.18083219 0.10456397 0.16321418 0.21401162 0.31509846
31 0.32601753 0.14933707 -0.37444273 0.027832782 0.4802026 0.31969866 0.35027814 0.13541682 0.570777 -0.22004327 0.04245779 -0.62027687 -0.1729671 -0.37978664 0.9199439 0.07964783 0.23720698 -0.30136707 -0.61069304 -0.12630351 -0.4242641 0.5041566 0.22012635 0.1808438 -0.4657614 -0.12065507 0.53508264 -0.1955758 -0.5804765 0.48116502 0.07741836 -0.850468 -0.044243257 0.088192314 -0.018284092 -1.0788666 0.38748643 -0.11944721 -0.09949543 0.17880236 -0.8543355 0.45371357 -0.88795066 -0.72755146 -0.29941332 -0.06635574 -0.13197708 -0.17485583 0.22221683 -0.19488592 1.0167563 0.37902123 -0.08209483 -0.34049225 -0.27596942 -0.6293493 0.33591717 -0.19832797 0.012039473 0.48618397 0.23546925 0.893006 -0.02862412 0.11153768
447 0.5059522 0.45014158 -0.5177085 0.22070357 0.6693977 0.14077163 0.54373246 -0.008335215 0.56824476 -0.23150642 -0.26256746 -0.5921135 0.058382317 -0.57880497 1.0972701 0.34549558 0.3866737 -0.21657257 -0.5986194 -0.1843519 -0.36551607 0.65522563 0.16993187 0.27724245 -0.5992064 -0.20834574 0.55263615 -0.067542456 -0.47602627 0.3859859 -0.13514799 -0.57015747 -0.12195762 -0.18014553 0.0874052 -1.0432576 0.15229142 -0.22084352 0.019154165 0.267948 -0.8218783 0.30091354 -1.034477 -0.7597696 -0.59491885 -0.2151054 0.046584412 0.032136783 0.08178673 -0.31097 1.0829169 0.3880923 -0.17726514 -0.17978235 -0.3227775 -0.89919096 0.02657225 -0.15932624 -0.042638708 0.7840815 0.16638033 0.7204958 -0.11275787 0.3581417
251 0.0886483 0.40903854 -0.24598414 0.2559931 -0.0720771 -0.55681413 0.0959158 0.61131513 0.2321921 0.6104323 0.16382298 -0.644622 -0.23276128 -0.22596459 -0.49581438 0.2413616 0.07340516 0.54571426 -0.5135279 0.08714513 0.030125858 0.07871256 0.20899783 0.26592258 0.186759 -0.009983326 0.76542693 -0.2120571 -0.37453353 -0.28702107 -0.0005454553 -0.795425 0.063167244 0.03842423 -0.21439637 -0.77771854 -0.50675696 -0.28709123 0.11642636 0.3233668 0.041719366 -0.105676 -0.6589567 -0.04610004 -0.0915687 0.34248936 -0.30149376 -0.18657374 -0.21040685 0.012817815 0.15995155 -0.36774766 0.31618473 -0.025457105 0.27301994 -0.10089813 0.6027272 -0.39546788 0.36402398 0.011242271 0.16442995 -0.04273125 0.55671287 -0.1985591
303 0.4774024 0.17075898 -0.9539003 0.099835284 0.06747974 0.20553696 -0.35881323 0.3238928 1.2562951 0.47795412 -0.1618424 0.25054348 0.10719262 -0.10116375 -0.23924138 -0.07454207 0.5295711 -0.52713764 -0.85108244 0.2080657 -0.45725805 0.43328142 0.019373506 0.044308025 -0.41189536 -0.10575295 0.21097621 -0.5076091 0.0034142535 0.31142384 -0.05991979 -0.3721593 0.11524524 -0.24329442 0.23002388 -0.6455493 0.023998529 0.16575333 -0.014476838 0.45562398 -0.3210286 0.27826253 -0.03701455 -0.9995331 -0.018092155 -0.091267884 0.09835476 0.1171183 0.09460954 -0.7207506 0.60055345 0.07528422 0.44295016 -0.42350233 0.08954445 -0.35234317 0.047782782 -0.1118277 0.28138468 0.11139413 0.4100773 0.29084188 0.72803354 0.5322996
642 0.6061241 0.34006232 -1.0845752 0.3932745 0.024223164 0.27427542 -0.34128147 0.26645494 1.09441 0.49731028 -0.2892872 0.20046751 -0.018552305 -0.30301383 0.14476751 -0.18962872 0.51242465 -0.4069 -0.7284224 0.13235913 -0.3020715 0.494337 -0.08839902 0.2339209 -0.4383094 -0.22955687 -0.3112726 -0.5586966 0.280885 0.019320242 -0.11221514 -0.33012992 -0.11916908 -0.08177324 0.40206107 -0.9341143 -0.2752132 -0.0548995 -0.11811218 0.6573249 -0.41815564 0.40246233 -0.261433 -0.9961234 -0.05945005 0.17421302 -0.054520387 0.25835064 0.17252688 -0.60395765 0.6621101 -0.054354124 0.33603632 -0.37690628 0.0010066091 -0.31984207 0.1822352 -0.23205437 0.29914394 0.042661417 0.3377944 0.10243903 0.93999517 0.34935865
312 -0.33129248 -0.40676758 -0.16821137 0.19642524 0.19156113 -0.03002107 0.29819137 0.042139716 0.5556063 0.446378 0.06835047 -0.14338908 0.821699 -0.29085892 0.15518871 0.39150158 0.04598603 -0.13123757 -0.08187325 -0.08534125 -0.27192593 -0.022866253 0.3715878 0.30623698 0.35776332 -0.41004524 -0.13294509 -0.4137367 -0.013526292 0.2455575 0.05378062 -0.094763316 0.010079314 0.30365154 -0.33846083 -0.6463562 -0.11615396 0.09174646 0.34144646 0.46170312 -0.33796558 0.29185346 -0.093804866 -0.13095151 0.048566878 -0.1628439 0.10007533 -0.1340467 0.09698236 -0.29476777 -0.018169949 0.11917901 -0.40410087 -0.1565433 0.8171959 -0.16724594 0.13626578 -0.037952427 0.27502587 0.46911225 -0.23957105 -0.018365076 0.6097553 0.02053819
757 -0.24409908 -0.54161483 0.07324879 0.2708449 0.08335024 0.3287966 0.38510177 0.37319234 0.57898915 0.62750775 -0.09234642 -0.3346868 1.0679435 -0.30748457 0.16405627 0.13704896 0.031631656 -0.40427175 -0.2710722 0.40905428 -0.19135559 -0.21845885 0.0623538 0.35599247 0.26902512 0.04269442 -0.080728866 -0.42378077 0.45849544 0.22458737 0.38791704 -0.46928447 0.06764161 0.41200775 -0.09462979 -0.7669142 0.019772531 -0.4168223 0.044971943 0.69094634 -0.85277337 0.3318255 -0.20990975 0.4571747 0.0066964137 -0.36132205 0.5279736 -0.22731182 0.033022746 -0.28814054 0.23408334 0.03740601 -0.24654771 0.16297534 0.8479928 -0.12552968 0.11722115 0.068248555 -0.24496195 0.6047275 0.17882933 0.120437905 0.45187852 -0.50627816
436 0.36404026 0.20255426 -0.9199272 0.48597753 0.3386611 0.07524904 0.20235506 0.43365768 0.25624996 0.49152786 0.09578962 -0.3762521 0.36231455 -0.2700087 -0.39498767 0.466959 -0.072078094 0.028785113 -0.6306713 -0.11723509 -0.34485248 -0.10640231 0.29931372 0.37222368 0.135951 0.28843418 0.23745877 -0.6213616 -0.24550843 0.16183552 0.24387379 -0.22603877 0.020102773 -0.1728091 -0.2982725 -0.6186401 -0.37244433 0.28737274 0.029589973 0.26316643 -0.24657941 -0.3115145 -0.29550844 -0.052871715 0.31737489 0.30358785 -0.16464566 -0.551799 -0.3088452 -0.13304679 0.5280223 -0.008603791 0.06640491 0.20075701 0.5955113 -0.28625166 0.3159768 -0.37430176 0.54684633 0.6949738 -0.18042976 -0.17608453 0.28992015 -0.17110783
66 -0.0315029 0.39693826 -0.35710132 -0.30282053 0.05470993 0.6946221 0.08614457 0.28553504 0.081571214 0.25984365 -0.34195837 -0.075434685 0.22585216 -0.103379406 -0.29543504 -0.11576106 -0.08383841 0.10962447 -0.09303915 0.3216392 0.067069784 0.5682242 0.3189303 0.3360998 0.17181626 0.27431127 -0.0072100842 -0.27289656 -0.17756206 0.4959922 -0.5293729 -0.7055654 -0.46687937 0.27082938 -0.25083643 0.021398274 -0.65980333 -0.062233936 -0.034137715 0.1311985 -0.3104288 0.23721866 -0.33058664 -0.04398491 -0.20304666 0.46213257 -0.42064175 -0.32244742 0.49451932 -0.6998598 0.43656024 -0.3060479 0.027491797 -0.07049451 -0.09171462 -0.48581555 0.29056412 0.18817584 0.10361928 -0.11075383 0.44778198 0.31156215 -0.2113603 0.371619
720 -0.061570454 0.22915451 -0.35944572 -0.2622701 -0.38070613 0.2118064 0.11155028 -0.058019377 -0.0633415 0.19170476 -0.018083593 -0.28116068 0.042520903 -0.7025109 -0.21048164 -0.13360214 0.3836065 0.80855983 -0.5952485 -0.48579624 0.046528865 0.27229506 0.09262611 0.08413532 0.27110577 0.05614223 -0.16382274 -0.026627818 -0.25602132 0.32789886 -0.6941951 -0.68178433 -0.77428365 0.14415303 -0.21413127 0.060101323 -0.4195605 -0.8053986 0.06386265 0.3374765 -0.22103646 -0.4019574 -0.62829864 0.21021649 0.34332946 0.2703925 0.1162162 0.004552522 -0.106696874 0.019907905 0.1461901 -0.46339247 0.18041563 -0.19800594 0.22405891 -0.24789396 0.56746507 0.23145194 0.27864257 -0.09404238 -0.078939445 0.31373474 -0.50651413 0.027495997
133 -0.35043085 0.56874865 -0.23432949 -0.274518 0.16052018 -0.26041096 0.56229585 0.56803304 -0.3892009 0.04651566 0.22814634 -0.53920877 0.42591318 -0.47937796 -0.33617675 -0.038774833 -0.2322894 -0.11743175 -0.5505847 -0.5351682 0.2612615 0.5258014 -0.12564516 -0.3845945 0.30029538 -0.41499355 0.29230902 0.22100432 -0.20421465 0.077357516 -0.34832266 -0.41749984 -0.31280228 0.034986928 -0.079658225 -0.66205925 -0.4231687 -0.3252831 0.5569067 0.49053505 -0.31142378 -0.32635304 -0.45606878 0.27703568 -0.24808471 -0.10343889 -0.4375438 0.11538064 0.034562275 -0.38061938 -0.13354628 -0.32737833 0.28285128 -0.21046616 -0.1200031 -0.13763829 0.7772403 0.14394036 0.025503218 -0.2970889 -0.16618143 0.21555366 0.5293826 0.61190194
291 0.059576187 0.37832424 -0.29298413 0.21611138 -0.025324188 0.43968946 0.23894021 0.7103696 0.29638118 0.6208447 -0.16547428 -0.41196296 0.5991544 -0.47352764 0.1478719 0.39076477 0.40560806 -0.01682654 -0.38047212 0.4401178 0.1898692 -0.66395557 -0.14426543 -0.19788031 0.49560332 -0.17333716 -0.55732864 0.034041647 -0.08450436 0.22550195 0.30194524 -0.12640695 -1.5394826 0.3957502 -0.6493939 -0.20337607 -0.01006716 -0.16622002 -0.012769569 0.047297776 -0.512661 0.1250509 -1.1316966 0.24628748 -0.59023935 -1.5386417 -0.046229534 0.17655651 -0.3286274 -0.23281032 -0.2517855 -0.14416899 0.39338174 -0.89844424 0.20894395 -0.0097298315 0.6752595 -0.33333427 -0.10989662 0.7086254 0.29603198 0.16451755 -0.14644258 0.7685707
904 -0.044813417 0.34811452 -0.17462589 0.26182368 0.07151745 0.50575745 0.058365103 0.55265075 0.416713 0.52366877 -0.21143635 -0.31814185 0.7706589 -0.45419648 0.22885042 0.4344187 0.22313748 -0.063766725 -0.19598843 0.40116584 0.20698977 -0.74949527 0.035568103 -0.10917873 0.5390986 -0.20919882 -0.42863086 0.1834725 -0.11511091 0.10793885 0.18580839 -0.14019585 -1.3109864 0.56422216 -0.48312178 -0.28787142 -0.1480721 -0.0785503 0.19048214 -0.038508266 -0.4408893 -0.04058478 -0.9608998 0.25735188 -0.47055557 -1.4076244 0.22010729 0.2709723 -0.38601038 -0.4101032 -0.28201014 -0.11471025 0.45896462 -0.7847346 0.27390426 -0.030629843 0.7125182 -0.3253218 -0.08563232 0.76424074 0.13998736 0.20374674 -0.3170749 0.75697094
535 0.17830463 0.45481005 -0.248827 -0.14227772 -0.13715908 0.66742504 0.2885121 -0.008293243 0.1826758 0.33814132 -0.22646719 -0.19814138 0.2535341 -0.07816135 -0.3793781 0.2225282 0.008120313 0.1524574 0.055573348 0.33853105 -0.25189695 0.4736085 0.38483515 0.50192773 -0.031583108 -0.13299066 -0.15627922 -0.33636403 -0.35292313 0.5295218 -0.64803994 -0.45882982 -0.6618937 0.06040962 -0.006828945 0.030053822 -0.76131546 -0.31929544 -0.20898333 0.41282433 -0.37227726 0.23486553 -0.3552971 0.032283597 0.17186901 0.16697226 -0.2687701 -0.08857537 0.66236585 -1.0686145 0.40630138 -0.30148807 0.042823855 -0.07123748 -0.03096681 -0.6189675 0.20631522 -0.022764867 -0.2891914 -0.08330681 0.57430094 0.5929206 -0.2890676 0.11023874
60 0.115342245 -0.2148654 -0.31743336 -0.29936188 0.26883474 -0.25695708 0.4871985 0.24214733 0.5332436 -0.26628077 -0.14227986 -0.33455953 0.5739655 0.08726613 0.3301708 0.5750046 0.7707846 0.10219462 0.068129234 -0.09651775 -0.21741259 0.009979577 0.54402256 0.116255395 0.2979916 -0.03162891 -0.27601042 -0.48968765 -0.15065177 0.3885757 -0.6220708 -0.025590418 -0.50749105 0.04263421 0.012752282 -0.4852867 0.13728954 -0.5159039 0.21489607 0.60016274 0.15729748 0.64018095 0.21748431 -0.6141036 -0.48619252 -0.101997 0.40062654 -0.19102906 0.5359581 0.1814927 0.30069315 -0.08816043 -0.35876828 0.083377756 0.52094513 -0.8851309 -0.22854507 0.236314 -0.5256962 0.6183547 0.1890717 0.37075338 0.38506877 0.20581186
587 -0.18357916 -0.42165035 -0.18144818 -0.28458625 0.24475841 -0.16322342 0.58875734 0.046121128 0.28691983 -0.06092587 0.024661725 -0.30099106 0.80659944 0.14342391 0.007112762 0.6683458 0.5159147 -0.2353205 0.048895054 -0.078428045 -0.3163953 0.052740328 0.5697392 0.3069247 0.36732107 -0.29222164 -0.096452445 -0.30731702 -0.095662154 0.08004128 -0.37276953 -0.19878297 -0.3250696 -0.18643908 -0.06198147 -0.46948677 -0.38874158 -0.39756176 0.15808141 0.5482238 0.0011988883 0.34306094 0.28979343 -0.04179399 -0.5035365 -0.48957163 0.33302808 -0.110679105 0.4120834 0.1519147 0.316129 -0.06933946 -0.34093702 0.028685972 0.72130656 -0.38014424 -0.010432242 -0.00908575 0.042406663 1.0060302 0.33571762 0.36704957 0.7771087 -0.042799857
146 0.39212888 0.4174868 -0.45298952 0.29624194 0.27013993 0.01929682 -0.08774785 0.49129584 1.0409685 0.4122912 0.1870949 0.41391703 0.6854518 -0.19398513 -0.0061090365 0.1444853 0.031441744 -0.09872724 -0.650398 0.12765491 -0.5315785 0.54299474 -0.14643878 0.4173826 0.2481098 0.43373266 -0.2435588 -0.41525757 -0.058124904 0.053729404 -0.083782904 -0.5342531 0.5890337 0.03520259 -0.19972178 -0.50571865 0.07749196 0.24046865 -0.30451122 0.52530473 -0.119265705 0.3581719 0.28549245 -0.67347896 0.5490381 -0.013001758 0.12426598 0.03576081 0.17588834 -0.42588887 0.40405363 -0.01003313 0.07160088 -0.313649 0.19694708 -0.3627004 -0.11000072 -0.031744547 0.39810184 0.30947834 0.0973587 0.25571573 1.0662755 0.19677247
836 0.27918178 0.53623366 -0.6923489 0.18889356 0.23866902 0.12373495 -0.24374151 0.57589924 0.67373055 0.4704959 0.33492374 0.6305182 0.57584 -0.12349769 -0.105137326 0.5122093 -0.32693595 0.40549663 -0.76680654 0.25891936 -0.6222665 0.3027036 0.4372533 0.4123207 0.1570409 0.35315976 0.1583201 -0.22265542 -0.31048828 0.039235324 -0.33120927 -0.71125615 0.5653795 0.18177556 -0.22957827 -0.5274147 -0.29556006 0.1214166 -0.24937484 0.6098101 -0.067387946 -0.12965015 -0.03778756 -0.36755207 0.41108978 0.030964887 0.027199117 0.016403133 0.34642097 -0.14150192 0.7076651 0.27451557 0.037170265 -0.16704592 0.39870593 -0.40164435 -0.17279588 -0.15513659 0.6502179 0.35706228 -0.059711453 0.36853352 0.7635422 0.010314699
141 -0.2618831 0.4761044 -0.23553246 0.44697496 0.051062323 0.33019453 0.24258639 0.16407517 -0.4795531 0.25035402 -0.19766349 -0.4608702 0.40429932 -0.34471184 -0.20383984 -0.1212901 -0.21369217 0.19812514 -0.5404062 -0.8358305 0.18239464 0.20745912 -0.18123773 -0.5150574 0.13477468 -0.23031734 0.0436973 -0.3768395 -0.17420861 0.34542575 -0.4186398 -0.033467792 -0.07426469 -0.19051045 0.195312 -0.79536015 0.15822446 -0.25547668 1.021243 0.28065938 0.1669017 -0.24719653 -0.255569 -0.059738446 -0.3098505 -0.37660038 0.2017918 -0.30334693 0.06355869 0.013082396 -0.13366419 0.101768315 0.22159842 -0.5875871 -0.007461756 -0.13078828 -0.012255472 0.4572752 -0.17670095 -0.20109847 -0.37098664 0.4530147 0.6949915 0.48214203
542 -0.311084 0.49510825 -0.33958533 0.14593591 0.0312241 0.07959055 0.08998466 0.25152242 -0.23397069 0.7449378 -0.578875 -0.5190757 0.3004045 -0.568879 0.043419395 -0.12151268 -0.067352444 0.33319268 -0.3296709 -0.19740087 0.4541656 0.082458615 -0.5368161 -0.5467951 0.24366406 -0.2880573 -0.077293925 -0.25472194 -0.80100733 -0.22944376 -0.29865158 -0.31719586 -0.28191158 0.09002607 -0.20429306 -0.23677878 -0.11386291 -0.20750362 0.86125785 0.03426853 0.36077604 -0.37753543 -0.30777398 0.028883202 -0.7741836 -0.28462532 0.53621703 -0.42535046 -0.092177026 -0.62419105 0.21644738 -0.05536815 0.104249835 -0.3951045 0.24144945 -0.014604295 0.2976713 0.39604363 -0.12740526 0.098631 0.016041754 0.54478204 0.14597696 0.487995
410 0.54793894 0.32318634 0.3356114 -0.2548265 0.5677386 0.2501598 0.12950571 0.43179902 0.58849347 0.6034773 -0.3424085 0.2910404 0.5653603 -0.5402672 0.17374262 0.5542759 0.23089716 0.121488 -0.05146553 -0.712007 -0.14157258 0.6937016 0.775308 -0.16323648 0.29583266 -0.068668 -0.068111725 -0.16211669 -0.2266369 0.88573843 -0.22020271 -0.5781106 -0.37623355 0.21358803 -0.29346 -0.48399833 -0.38002053 0.0480965 0.37414145 -0.039786223 0.27716145 0.32280788 0.105183385 0.15097517 0.41746387 0.23173581 -0.09332699 0.16071413 0.011788293 -0.2823005 0.2711721 -0.024601536 0.015294766 -0.14765698 -0.40628248 -0.19137166 -0.14918777 0.0901655 -0.09271082 -0.022841208 0.17518465 0.35731772 0.16878307 0.09856406
502 0.122371525 -0.10047131 -0.1751532 0.16572233 -0.19953674 1.042233 0.5537894 0.970422 0.61693907 0.5213922 -0.4186117 -1.0142854 1.2169974 -0.66455084 0.5147095 0.1524039 -0.21018879 -0.46084714 -0.48148578 0.7236916 -0.16928825 -0.21241914 -0.08204336 -0.0068686777 0.10480458 0.083049156 -0.47881678 -0.45888665 0.54838485 0.2822491 0.43392184 -0.36223477 -0.13202669 0.6290702 0.11120778 -0.821503 -0.20427166 -0.72030884 -0.029877337 0.8745421 -1.1108643 0.06834597 -0.34080812 0.41534242 -0.23790883 -0.34827173 0.6811576 -0.2696641 -0.111269735 -0.56313294 0.30328655 -0.017652614 -0.18507776 -0.018284574 0.92596835 -0.30684066 -0.17311713 -0.37436587 -0.5240476 0.48048967 0.2654526 0.061267808 0.2977744 -0.7013325
659 -0.25456467 -0.07817119 -0.44950697 0.63034236 0.62152946 0.07819563 0.060776155 0.4609027 -0.011090546 0.5731861 -0.12609339 -0.46427378 0.8444715 -0.1942032 0.024013959 0.160527 -0.011831324 -0.33031684 -0.28252232 -0.19485554 0.04269305 0.4231005 -0.060256347 0.14725685 0.37457082 -0.2792527 0.26266813 -0.6485381 -0.37414214 0.35129508 -0.25881845 -0.13674188 -0.015210399 0.024700448 -0.012818703 -0.9045252 -0.06385504 -0.027174933 0.27306995 0.2869853 -0.073967315 -0.26345506 -0.05506334 0.1695464 -0.41011024 -0.42068863 0.21821651 -0.104370944 0.37783608 0.24428406 0.034494944 0.18273938 -0.13770619 0.07780573 0.71741533 -0.1771451 -0.18696426 0.1355482 -0.017440297 0.7081764 -0.2232627 0.08370308 0.903279 -0.06033571
178 0.4501233 0.17228787 0.42100888 -0.29933938 0.67278206 0.14044257 0.83014596 0.12933764 0.7714589 0.632033 -0.6309708 -0.1796806 0.7659466 -0.24966608 0.9607345 0.4498594 0.010880148 0.48521397 -0.41828522 -0.31240937 -0.63025177 1.0784993 0.68657506 -0.1547147 0.27732918 -0.29600355 0.51331776 -0.051569987 -0.26663432 0.073207036 -0.48128915 -0.7922879 -0.38080785 0.22764018 -0.5185752 -0.5295464 0.1968755 -0.996144 -0.13204092 0.08071667 -0.16522881 0.08296711 0.15471174 0.04578487 -0.023645326 0.075530715 -0.0033725207 0.33263603 -0.2741828 0.06737518 0.57356787 -0.46733278 0.23822673 -0.29654518 -0.2751632 -0.77218807 0.3017692 0.09801333 -0.055923216 0.18538195 0.09172443 0.59872025 -0.045956004 0.14989741
677 -0.27096736 -0.31700924 -0.32398844 0.39685327 0.23894909 0.28124946 0.81608266 0.5735242 0.57116383 0.4344907 -0.47227174 -0.30412152 0.43273902 0.023607928 -0.36313295 0.3329458 0.308747 0.09947546 -0.25872785 -0.36082765 -0.035322055 0.2673332 0.28360164 0.28742382 0.291899 0.04909614 -0.38125664 -0.47003084 -0.109301075 0.5735606 -0.06563228 -0.5929203 -0.2033109 -0.18781134 -0.45256695 -0.53969085 -0.20015475 -0.2851916 0.05038771 0.5042539 -0.37583244 -0.08716815 0.3855959 -0.037025515 0.22621089 -0.4037989 0.53895205 0.036343995 -0.20724143 -0.07727621 0.03888208 0.49289283 -0.021432865 -0.25052363 0.26715404 -0.05649792 0.23669834 0.14164533 0.017357206 0.45764387 -0.5159112 -0.19333865 0.50603193 -0.14505285
3 -0.15882891 0.58252466 0.14089273 -0.02816964 -0.0007780158 0.46959212 -0.20301478 0.39375654 0.4983529 0.24230547 0.053232655 -0.029884955 0.7475362 -0.60588515 0.24016038 0.13223769 0.20349911 -0.00426172 -0.22661065 0.33022076 0.09303 -0.7422617 0.27874154 -0.20682685 0.5409982 -0.20385224 -0.36250317 -0.059118554 -0.07122233 0.022476394 -0.14189067 -0.1178858 -0.8232229 0.5092216 -0.4020461 -0.27314422 -0.41447064 -0.19651942 0.26367807 0.35005912 -0.039885152 -0.23351957 -0.757985 0.034372248 -0.64076686 -1.0697168 -0.03688228 -0.025655555 -0.47702903 -0.56996053 -0.46850383 0.081335746 -0.10597698 -0.8808596 0.27730635 -0.038911846 0.24928159 -0.4119045 -0.03074335 0.44333997 0.20984598 0.04681279 -0.053959582 0.3802833
643 -0.16069065 0.7431779 0.06943037 0.32127774 0.1904806 0.44550702 0.07300528 0.24204591 0.3506511 0.56285113 -0.2528067 -0.31620577 0.8019001 -0.5687126 0.32692018 0.44725677 0.13128154 -0.5112443 -0.54026645 0.16738501 0.34974334 -0.6818273 -0.104104966 -0.27896944 0.676046 0.3028049 -0.17459394 -0.3448917 -0.059046138 -0.31995162 0.13137095 0.25146568 -0.5812156 0.4526228 -0.32955196 -0.17674012 -0.4427498 -0.6218119 0.45827577 0.17653836 0.39196378 -0.43082315 -0.6291766 -0.4678515 -0.9543676 -0.5754196 0.29280025 0.5243918 0.19298397 -0.786049 -0.17251594 0.069956705 0.49032268 -0.7412983 0.23566395 0.15576378 0.5171268 -0.2793211 -0.25293145 0.19916715 0.3854934 0.14440773 0.0708012 0.48255196
160 -0.19046475 0.27798262 -0.18524948 -0.03779097 -0.14406978 0.86483675 0.3752965 0.18414159 0.28188264 0.35077077 -0.31729287 -0.18560506 0.4319282 0.074999645 -0.3924991 0.14690721 -0.17832786 0.06692246 -0.19230624 0.2995748 0.021545462 0.5945451 0.33035532 -0.0051583885 -0.00866843 0.17373006 -0.030575335 -0.24296686 -0.54761964 0.33535975 -0.4706738 -0.25904486 -0.68607605 0.22134879 -0.057397895 0.18606679 -0.62320966 -0.045471888 0.14828332 -0.041921496 -0.42717972 0.27867922 -0.3383219 -0.12159102 0.15336005 0.1821444 -0.24252695 -0.15329534 0.44109282 -0.6440573 0.5584112 -0.25221047 -0.055307463 -0.2812693 -0.041837677 -0.85161257 0.26179063 0.29667157 -0.1359162 -0.11176497 0.544128 0.5303095 -0.071271114 0.36812845
551 -0.066730276 0.5827792 0.10571192 0.3482702 -0.50603884 0.7645147 0.06964785 0.13719136 0.19515714 0.3363614 -0.4008888 0.10285595 0.32635823 -0.5015161 -0.24742079 0.21093386 -0.38133228 -0.0055647423 0.48994902 0.37023187 0.04767886 0.2053305 0.35245383 -0.17337173 -0.1060088 -0.08391166 -0.114308245 -0.38498837 -0.08080118 0.30032992 -0.2765432 -0.49990103 -0.66884595 0.23892844 -0.13177751 0.051405817 -0.65831727 -0.28930822 0.002850513 0.17278789 -0.23193339 0.51231444 -0.5613739 -0.6288072 0.39913356 -0.197613 -0.16929774 -0.11447649 0.6495769 -0.69870484 0.139989 -0.15852098 -0.08354134 -0.03618416 -0.14032882 -0.40835872 0.29394478 0.05459451 -0.25824586 0.099424645 0.41191417 0.5857711 -0.1515791 0.2656586
230 0.80961084 -0.09818618 -1.041527 -0.075299785 0.27598476 -0.0027068704 -0.1881877 0.99617785 0.37283927 0.4267506 -1.0131558 -0.56496274 0.26076722 -0.001548418 -0.47044906 0.59466076 -0.1376335 -0.0043878793 -0.73555666 0.15137579 0.026636895 -0.11705992 0.33024025 0.0103976475 0.0043344633 -0.47672507 0.42918944 -0.32014507 -0.040250905 0.2974872 0.10508218 -0.97869545 -0.07275667 0.15381037 -0.35698596 -0.08839924 -0.2414356 -0.81319124 -0.13218285 -0.15840302 -0.19877651 0.011202933 -0.28216872 -0.49525872 -0.001431628 0.071644045 -0.40534994 0.42351133 0.26775965 -0.011400416 0.6366617 -0.46216837 0.5276557 -0.22174273 0.30600086 -0.5204909 0.6815314 0.45144153 0.5375232 0.105766915 0.13583322 -0.7738507 0.31904736 -0.31470382
456 0.33525005 -0.013942423 -0.3846713 0.28495577 0.10822429 -0.22047582 0.25627464 0.6702602 0.2352062 0.83859336 -1.1129034 -0.5286864 0.20243996 -0.29234105 -0.24695736 0.70098144 0.18051015 0.45005608 -0.5916832 -0.071358 -0.010042423 0.5180294 0.04380332 -0.04842893 0.09156221 -0.6911622 0.04520754 -0.19474538 -0.43283132 0.33164397 0.29649097 -1.0307187 -0.41844997 0.12645343 -0.44248527 -0.1370096 -0.015931372 -0.86447704 -0.088828586 -0.16092291 -0.2199149 -0.3226346 -0.25518125 -0.43783355 0.34822124 0.28051528 -0.07732448 0.0034850205 0.027120855 0.25161916 0.45527264 -0.41563603 0.8234569 -0.38688996 0.09749754 -0.48776382 0.6615644 0.35458353 0.46417424 -0.02377176 -0.21474928 -0.6662302 0.101398334 -0.08455332
266 0.063702114 -0.4687737 -0.5959515 -0.10252005 0.08013892 0.53317374 0.30043262 0.5787083 0.47794086 0.24479516 -0.3124915 -0.15064016 0.329963 -0.52073693 -0.17694911 0.53762025 -0.12201924 0.2733068 -0.35054147 -0.391781 -0.6792784 -0.3758121 0.36799258 -0.08953982 0.39012775 -0.5899398 -0.22707185 -0.26199734 -0.42037296 0.43516198 0.32546064 -0.226173 0.34385028 0.15233229 -0.050404064 0.4389661 -0.6014695 -0.40347868 -0.11423471 0.34868896 0.08286683 0.20939049 -0.18336004 -0.60443807 -0.09385786 -0.29787 -0.6884868 -0.056409363 1.0966722 -0.6910321 -0.015695348 0.13193431 -0.21822219 -0.32557708 -0.0119861355 -0.9621856 0.21785887 -0.020601353 -0.22895238 -0.14702737 0.53045934 -0.15979303 0.32789972 0.20391151
525 0.08309449 -0.3339693 -0.7016003 -0.06665964 -0.116757415 0.45306656 0.22919363 0.5545446 0.41215116 0.16097899 -0.22713315 -0.3085405 0.45564598 -0.42488158 -0.055518568 0.55061287 -0.10004682 0.2448216 -0.32821283 -0.38239568 -0.74596417 -0.31013188 0.3715839 0.10995777 0.05590204 -0.641848 -0.062270965 -0.094273485 -0.40307856 0.40480062 0.20463999 -0.12140031 0.21352363 0.20719467 -0.4488231 0.4666551 -0.41433367 -0.3185089 -0.1718523 0.26101995 0.059436843 0.19454524 0.011878759 -0.5995353 -0.043499142 -0.26747924 -0.6351366 0.17954794 0.9332772 -0.56871575 0.17618841 0.27676558 -0.34375733 -0.54464346 -0.076442376 -0.6707197 0.20605397 0.028821798 -0.29660526 -0.3118092 0.44901738 -0.022532111 0.16648859 0.36499512
128 -0.3969856 0.33219185 0.25829226 0.24738742 -0.04289282 0.6679967 0.031100208 0.47530726 0.49495503 0.6014506 -0.33609527 -0.41809607 0.15136606 -0.7144949 0.7675777 0.35054854 0.16629754 -0.6026783 -0.33171582 -0.08098127 0.2186946 -0.07846447 -0.46166226 -0.3830015 0.44827965 0.17112173 0.109261125 -0.1921802 -0.33913985 -0.07102883 -0.033855025 0.17133102 -0.23409915 0.27870023 0.07337953 0.19957198 -0.4668633 -0.5815808 0.4309637 0.2410686 0.49934056 -0.1364209 -0.5805989 -0.13992426 -0.38867542 -0.2539416 0.33403203 0.21813855 0.56835264 -0.8239025 -0.39073408 0.17980771 0.877948 -0.62321484 0.606955 0.03959708 0.98124236 -0.14370541 0.17053784 0.27475446 0.020487001 0.3827862 -0.18052718 0.536185
799 -0.45885643 0.44564277 0.18725835 -0.09902815 -0.08677927 0.73767316 -0.013552518 0.6019158 0.5914607 0.53698015 -0.37021986 -0.23449987 0.2853354 -0.70750296 0.5904368 0.35068646 0.23285905 -0.52117044 -0.25093192 -0.10576326 0.118106626 -0.42126986 -0.47496292 -0.10191298 0.3447371 0.38248083 0.17765665 -0.26645964 -0.21460289 -0.06069676 -0.31835586 -0.0835072 -0.2497915 0.6814112 0.18632224 0.10821185 -0.44470978 -0.7748575 0.6370592 0.235511 0.5267507 -0.3095584 -0.51587105 -0.37484702 -0.50423634 -0.36062846 0.25916767 0.35398737 0.60396886 -0.8424215 -0.33295763 0.19412604 0.89091104 -0.8455632 0.76195425 0.12876515 0.8613615 -0.12436763 0.27818584 0.26078197 0.16041018 0.5125593 -0.07241281 0.6473768
46 0.4935746 0.4704353 -0.82359636 0.49731314 0.052700587 -0.06416384 -0.5427738 0.73040015 1.2857713 0.50660425 -0.11067728 0.23981813 0.26503322 -0.1318355 -0.061136257 0.07306004 0.42310128 -0.43927366 -1.0124089 0.27191144 -0.7407343 0.37851334 0.080098175 0.09691215 0.043402947 -0.035557363 0.058106728 -0.36120445 -0.06141791 0.008027981 0.063681446 -0.61315984 0.49822935 -0.089183815 0.24186121 -0.8706964 -0.26019067 0.23311949 0.06669483 0.39917618 -0.3043739 0.04747039 -0.18345244 -0.8451846 -0.033168696 0.037003905 0.089783326 0.2781333 -0.023658719 -0.7007582 0.6634676 -0.16747011 0.6206378 -0.39831537 0.16723056 -0.26471078 -0.3523649 -0.4961325 0.36080727 0.26278496 0.13144907 0.10097792 1.061691 0.27806133
647 0.7163615 0.43808734 -0.7168108 0.24639566 0.18013053 0.20326029 -0.5088918 0.48152128 1.0789255 0.6785755 -0.16538118 0.37695187 0.05917047 -0.11919312 -0.1184736 -0.03473538 0.29858753 -0.28601408 -1.2000692 0.1374514 -0.57812357 0.3990208 0.05277204 0.06626189 -0.024790486 0.09566298 -0.08002135 -0.44578174 -0.075461686 0.089146405 -0.037570536 -0.5397322 0.16741619 -0.12413546 0.2623996 -0.78523326 -0.17629182 0.28461185 -0.031463437 0.5083946 -0.4776401 0.2979569 -0.2713191 -0.8983722 0.13700156 -0.030227503 -0.028925434 0.091113076 0.13440654 -0.468881 0.8117942 0.012924437 0.31112245 -0.4115257 0.06189928 -0.09068882 -0.032689422 -0.34488934 0.41000333 0.3071151 0.14708002 0.028159054 0.9656636 0.081282295
103 -0.120591424 0.46227935 -0.57984453 0.29512075 0.18507062 0.052114714 -0.118959896 0.44467524 0.78462267 0.3779735 0.18460992 0.4069226 0.8875323 -0.19552669 -0.16632572 0.51632106 -0.23451754 0.49870196 -0.533325 0.22124714 -0.57667667 -0.039838284 0.81275296 0.40251225 0.42779478 0.33118188 -0.008077669 -0.18342711 -0.18442614 0.34971064 -0.031479992 -0.54549533 0.5338975 0.19986267 -0.21024375 -0.5463961 -0.19124009 -0.31038338 -0.40639892 0.5027918 -0.19805053 -0.15782112 0.30200946 0.10119032 0.53246236 0.1072235 0.25244552 0.16834167 0.63272494 -0.3382334 0.21698102 0.3021069 -0.16037638 -0.18128246 0.34639475 -0.7327866 -0.124031655 0.21487527 0.32136163 0.38906908 -0.32715183 0.483949 0.70577204 0.37947816
558 -0.28743172 0.1055887 -0.3637378 0.15071282 0.44469446 0.21212822 0.26571482 0.17626923 0.8231258 0.4940426 0.17197269 0.2084193 0.78010285 -0.5142572 -0.014561178 0.49754304 -0.2265619 0.2560307 -0.2663136 0.17699257 -0.21291216 0.015033654 0.4008681 0.6354592 0.55718124 0.11050541 0.0068219923 -0.12134434 -0.11609947 0.1736495 -0.10711523 -0.404583 0.16931407 0.14504924 -0.14535297 -0.85656404 -0.2902546 -0.10017223 0.076518 0.40649688 0.00901989 0.1873691 0.3207749 -0.23320353 0.116260424 -0.005360939 0.013863507 0.07663013 0.5210126 -0.08865251 0.2075333 0.43634593 -0.43181345 -0.31806433 0.51353735 -0.32992083 -0.28642437 0.08520451 0.2734391 0.55903757 -0.45799822 0.41248754 0.42818803 0.020865181
121 0.2059083 0.19214061 -0.30606797 -0.071538195 0.41305602 -0.117983095 0.44260913 0.062227514 1.0687873 0.43857405 0.23118776 0.16201837 0.66641533 -0.49885803 0.23242906 0.57861674 0.054337952 0.34976077 -0.5314553 0.11498322 -0.22324446 0.4277837 0.26947838 0.26098087 0.33985066 0.076315194 -0.08355491 -0.32881585 0.0536334 0.22905146 -0.28557354 -0.6760424 0.14017257 0.15795432 -0.034500953 -0.58456784 -0.13929407 -0.12500493 0.36315343 0.38609672 -0.09155973 0.5620895 0.80992055 -0.42505407 0.081311986 0.1619971 -0.04256414 0.21154533 0.57931304 -0.072733656 0.36858016 0.28386363 -0.6270571 -0.20328549 0.82160765 -0.14588256 -0.34488666 -0.011226346 -0.1165428 0.44451296 -0.40610072 0.76179826 0.2497331 0.15713836
42 0.021033157 0.2947383 0.31431547 0.37408996 0.01490694 0.17373498 0.1426438 0.58785695 0.71132344 0.21950272 0.33130008 -0.46337193 0.74146545 -0.41146287 0.04797846 0.12304577 0.23712675 -0.41480997 -0.76565766 0.28290316 0.15778406 -0.49951154 -0.41862833 -0.21255173 0.072427005 -0.19335862 -0.39765158 0.19161338 -0.013833881 -0.23685959 0.13596036 0.15537813 -0.44483772 0.9820127 -0.53431815 -0.8040104 -0.34081388 -0.1616414 0.3785242 0.20396362 0.050311152 0.15744191 -0.6522753 0.8173791 -0.67886317 -0.4313136 0.6097808 0.0665164 0.24682693 -0.5256135 -0.36141524 -0.12828131 0.17612411 -1.0563887 0.47359872 -0.77938807 0.32886568 -0.47532716 0.012331699 0.20891827 0.01757624 0.19719398 0.058309138 -0.17659621
887 -0.036586467 0.24593215 0.12238454 0.27976108 0.27820304 -0.26612994 0.16745266 0.36987442 0.23601948 -0.07441412 0.14890051 -0.32351425 0.39018393 0.09201541 -0.34117913 0.37464908 0.18956196 -0.26507494 -1.075651 -0.20836015 0.007666682 -0.28026164 -0.37044418 0.011347226 -0.07034859 -0.24680997 -0.29147696 -0.28418437 -0.06799165 0.033681855 -0.3248083 0.08439972 -0.340896 0.6607405 -0.6387244 -0.8948511 -0.6061746 -0.013047868 0.5025183 0.5798297 0.41186398 -0.05472808 -0.41485724 0.8464686 -0.34102413 -0.12135157 0.69010615 -0.05113645 -0.18196099 -0.4293348 -0.22934365 -0.38426203 -0.1169143 -0.5783169 0.21998414 -0.39498484 0.26284844 -0.5825478 -0.19358356 -0.28455445 -0.2662007 0.21816841 0.37954217 0.17692906
408 0.6004826 0.008573354 0.4069629 -0.124642104 0.063383564 0.6112062 0.22750685 0.40436965 0.06915884 0.3543689 -0.265896 -0.008109026 0.44535598 -0.24330556 -0.1845173 0.23522465 0.08571789 0.054577585 0.13997942 -0.46440086 -0.22778058 0.8860383 0.30013302 -0.055886447 -0.11566772 0.07991457 -0.5443732 -0.467797 -0.3425637 0.49981627 -0.31362373 -0.48161328 -0.318767 0.14848246 -0.030375086 -0.18472402 -0.3892754 0.14282691 0.16213824 -0.03873015 0.029118314 -0.1002434 -0.28104162 -0.13903092 0.22753255 0.4885642 -0.27101308 0.21094917 0.31148162 -0.58027035 0.17950797 -0.001934957 0.31531167 -0.2035566 0.1943412 -0.38077784 0.3169802 0.14010984 -0.3189321 0.15133464 0.26221523 0.35131082 0.033657745 -0.03228385
91 -0.02862963 0.059507646 0.7208996 0.5153413 0.052405957 0.7655319 0.037034757 0.56922656 0.43291894 0.87600446 0.24579442 -0.32967776 -0.33007944 -0.82053524 0.5834427 0.7081409 0.6523752 -0.85383373 -0.17456502 -0.21475486 -0.09754166 -0.15612416 -0.16453654 0.08776658 0.063707344 0.27969208 0.34835276 -0.527292 0.1054116 0.11621002 -0.41819936 0.02859763 -0.42797253 0.2838481 -0.8023631 -0.13720454 -0.624913 -0.47341433 0.4607178 0.008257179 0.26070023 -0.34810826 -0.3025615 -0.08841428 -0.9267912 -0.1359931 0.28976974 0.64149976 0.3661272 -0.8963978 -0.14268187 0.6539765 0.39188865 -0.5297216 0.44080353 -0.12932952 0.6665805 -0.008778982 0.3345312 0.53126496 -0.17198181 0.43098253 -0.090615414 0.4796306
313 -0.2036261 -0.111932054 0.5769512 0.60560817 0.11720581 0.66723806 -0.068525106 0.4258939 0.3036074 0.82670724 -0.011863946 -0.48014665 -0.37278852 -0.7669574 0.71085304 0.44245154 0.4621444 -0.7601253 -0.169039 -0.20426585 -0.30099243 -0.31636608 -0.27329934 0.053496588 0.18950301 0.1546974 0.31616852 -0.6446681 0.15742406 -0.085179485 -0.35338563 0.07939624 -0.42758393 0.3302068 -0.6819648 0.14820914 -0.5055894 -0.3100873 0.28381002 0.06985703 0.20272012 -0.22336645 -0.23737319 -0.19541547 -0.87355596 -0.0723872 0.1859266 0.4907666 0.47122428 -0.94126135 -0.024334775 0.37575254 0.26043034 -0.70708627 0.5519877 -0.07143601 0.48986885 -0.18688111 0.12240606 0.35780913 -0.16346157 0.26906765 0.054413434 0.39741868
48 0.2331222 0.47907922 -0.30925518 0.3564354 -0.47210327 0.27530754 0.007104249 0.9840024 0.2965418 0.45327133 -0.17078002 -1.0392641 0.4785689 -0.7130973 0.84175014 0.12124816 0.3230865 0.2610881 -0.8450036 0.6415869 1.1856791 0.26947674 -0.06601353 -0.7827779 0.21371786 -0.37426326 0.0053914147 0.10258863 0.18760784 -0.04773301 -0.46170345 -0.88495195 0.34892425 0.11107548 0.25213113 -0.14173009 -0.6890706 -0.82349014 0.62209076 0.29275665 -0.28037134 -0.32306334 -0.45738956 0.17292058 -0.7183876 0.0710765 0.3552207 0.11654378 -0.49126205 -0.32185104 0.11928086 -0.04102753 -0.020569092 -0.3416785 0.2599899 0.25329766 0.20103972 -0.060429275 -0.52090484 0.01819829 0.6510754 0.6156696 0.021524617 0.5914467
513 0.15607633 0.20721528 -0.49415183 -0.023749594 -0.47040188 0.3484119 -0.11463316 0.69940895 0.070677914 0.34495324 -0.32005394 -0.96460086 0.41828668 -0.64484787 0.28063118 -0.14196233 0.47540578 0.6898129 -0.8090402 0.33532178 1.064786 0.25366268 0.0053145443 -0.46833625 0.079714164 -0.25302833 0.2745074 -0.17304394 0.10182342 -0.04739523 -0.10326733 -0.50099367 -0.16985898 0.17015892 0.036201328 0.032327544 -0.5284389 -1.0104688 0.64670765 0.12927787 -0.22027084 0.026084501 -0.3487927 0.3012809 -0.57374674 -0.33469167 0.3902647 -0.03204933 -0.30912212 -0.76846683 0.053171583 0.00078836 0.09519284 -0.34901792 0.31304795 0.3849058 0.21758445 -0.3145709 -0.31983373 0.14675085 0.22570188 0.5036581 -0.16940443 0.50919926
680 -0.4510674 0.120137006 -0.037939254 0.24108693 0.18199499 -0.21705091 -0.022513235 0.001580563 0.51244557 0.38061592 0.0036375804 -0.4213592 0.5988163 0.015469508 -0.041759357 0.2016902 0.3985575 -0.029839868 -0.32124928 -0.46698275 0.13349868 -0.0635668 0.12754537 0.5785623 0.4367573 -0.34148106 -0.27595505 -0.2529159 0.02249173 0.08183202 -0.1893348 -0.44341478 0.063684836 0.19858187 -0.45023662 -0.7144821 -0.61828583 0.13154064 0.04522324 0.5976195 0.037611865 0.27856734 -0.74983966 0.23665075 -0.20786475 -0.24719997 0.2266657 0.0630824 0.10796645 0.08051209 0.18996015 -0.023976464 -0.1243098 -0.1590515 0.47547722 -0.11477971 0.028767493 0.045453526 -0.28129905 0.10483377 -0.48540252 -0.2464827 0.70594656 -0.04638532
497 -0.25625473 0.5013828 0.10552019 0.092871964 -0.33850324 0.38140896 0.018377261 0.30994087 0.3535003 0.4450273 -0.034523252 -0.00015519567 0.69128466 -0.56177163 0.3136371 0.12775677 -0.19733985 -0.10344706 -0.15080954 0.2589692 0.2397342 -0.50600255 0.21950734 -0.34284127 0.61280096 -0.08836724 -0.34346652 0.031300813 -0.32903194 -0.21408296 -0.24218586 0.10099444 -0.852158 0.53223157 -0.64948505 -0.2508869 -0.014623546 -0.2990732 0.36543483 0.38863 0.09062001 -0.21981633 -1.0393243 -0.25090948 -0.7207008 -0.8249847 0.33669642 0.38671616 -0.31396067 -0.53363025 0.17951857 0.0033494001 0.2264384 -0.5999653 0.26080576 0.31300673 0.33887756 -0.02290677 -0.37415487 0.6323618 0.17197412 0.5131737 0.11397836 0.8504498
783 -0.39893487 -0.13223006 -0.30564523 0.39908463 0.209917 0.3245922 0.3270489 0.28422454 0.08283457 0.23628445 0.041407898 -0.39172995 0.93383926 0.18813422 -0.16890405 0.40672132 0.047094896 -0.36272058 -0.2647006 -0.24826966 -0.22396769 0.13730775 -0.0011113641 0.21829404 0.3722469 -0.0417536 -0.21433066 -0.5515938 -0.22872902 0.00088606187 -0.01248895 -0.36849242 -0.00508534 -0.10415054 0.043378364 -0.72339845 -0.3535947 -0.15644538 0.14393376 0.41426575 -0.20354252 -0.09627762 0.20512524 0.12757333 -0.3143969 -0.21681468 -0.026499704 -0.21644482 0.124871746 -0.17324565 0.2108813 0.072536916 -0.30100024 -0.080515265 0.75955826 -0.23769541 -0.023625486 0.4164096 0.29251006 0.99382704 0.08362977 0.3574429 1.0539169 0.023573847
55 0.4292213 0.41823614 -1.2270775 -0.26252407 -0.98320264 1.1380761 0.4098425 1.353713 1.7440671 0.34673175 -1.6559565 -0.5026663 1.7989274 -1.0944159 0.49433208 0.4452669 0.15750517 0.68371207 -0.40902486 -0.35084826 0.18431586 0.4988148 0.6263998 0.74435914 0.6976135 -0.107426666 -0.31719166 0.7593218 -0.89478815 0.3894749 -0.31475097 -0.6831432 -0.19752528 0.8737314 0.3925895 0.066486344 0.6072067 -0.57015884 -0.07784149 1.2918355 -1.3779894 -0.025453456 -0.97044206 -0.14876664 0.04017308 0.048341688 1.2203305 0.45045346 -0.13409442 -1.4590372 1.21563 -0.16109595 0.47007284 -0.66155064 -0.5587495 -0.09695365 -0.030435584 -0.68173206 1.0944089 0.2095494 0.69007325 0.3023316 0.21800727 -1.23118
737 0.3782952 0.4325707 -1.2674241 -0.22858058 -0.97989446 1.1484778 0.38762724 1.3308932 1.7811568 0.3626704 -1.6793578 -0.53073 1.8049295 -1.1164117 0.47725463 0.46984696 0.1655895 0.6998403 -0.4122942 -0.35659763 0.15855303 0.49163726 0.6077877 0.7428106 0.70277685 -0.09632237 -0.30435067 0.8068205 -0.92548174 0.42100993 -0.31088778 -0.71214586 -0.19227159 0.8451613 0.38542002 0.0592932 0.5721967 -0.60420394 -0.040345643 1.3286332 -1.3414285 -0.022469996 -0.9745097 -0.16186531 0.04113299 -0.004401943 1.2030712 0.49738118 -0.14099832 -1.503994 1.2548447 -0.16063827 0.4789864 -0.7117841 -0.52790993 -0.10061887 -0.015539304 -0.66272146 1.121949 0.21182245 0.6286928 0.3195172 0.28249314 -1.1768031
478 0.19382928 0.25066426 -0.38182634 -0.41871694 -0.3977821 0.21893084 0.18923055 0.4104353 0.24168946 0.49506313 -0.18131593 -0.26259956 0.082292885 -0.4067976 0.044715106 -0.041246228 0.68106925 0.73238117 -0.6103305 0.22598335 0.36757258 0.21385722 -0.04741428 -0.10270423 -0.12832163 -0.066933766 0.100839905 0.25742042 0.017530043 -0.022443686 -0.15005818 -0.38047737 0.30936614 0.253985 0.15057364 -0.08751719 -0.24301755 -0.7840588 1.1039252 0.33971885 0.24947877 -0.2699603 -0.51514375 -0.08863599 -0.40887395 -0.35109267 0.26965737 -0.13863058 0.019833978 -0.94624335 0.27093598 -0.2706041 0.36660358 -0.48099488 0.07431892 0.33111393 0.7999621 -0.21913025 -0.2541123 0.062437795 -0.026644677 0.135368 0.2434537 0.8043017
278 -0.3786691 -0.20140232 -0.47495818 0.24589427 0.33661672 0.6383721 0.8854105 0.37886456 0.5324885 0.3456116 -0.31389514 -0.26610002 0.4281873 -0.29774532 -0.3585807 0.42958146 0.3828261 0.14932501 -0.14305824 -0.51904523 0.16866736 0.2740714 0.46083593 0.18918711 0.34052202 -0.010489903 -0.47913727 -0.42496908 -0.05525617 0.56446904 -0.0974045 -0.38890553 -0.04151842 -0.08912403 -0.5499985 -0.5307976 -0.30272985 -0.2988872 -0.08153574 0.4071942 -0.22600153 -0.39691037 0.22162545 -0.10498686 0.250179 -0.16499636 0.41750222 0.27725136 -0.28009996 -0.0069404435 0.15993279 0.24404915 0.13908823 -0.30236956 0.2520631 -0.18247502 0.3877135 0.08681565 -0.1709382 0.80515736 -0.7736832 -0.09436124 0.3272493 -0.054922864
481 -0.2750773 -0.22629645 -0.24405722 0.60539037 0.2907939 0.4034124 0.8865794 0.45427138 0.48804513 0.4429939 -0.3442819 -0.26532307 0.41721267 -0.25891486 -0.29137993 0.37545082 0.4181162 0.09131752 -0.22730227 -0.36537778 -0.014785807 0.41467032 0.55984956 0.3290834 0.20245327 0.025464477 -0.43639126 -0.37831396 -0.03969314 0.6443137 -0.2105302 -0.5674272 -0.0035143655 -0.10227853 -0.7123015 -0.5104464 -0.29119888 -0.17905135 -0.10090053 0.30270445 -0.34605455 -0.2742543 0.050729077 0.024517806 0.04202351 -0.3236329 0.5831304 -0.18222299 -0.17981556 -0.071764775 0.0040340903 0.35077146 -0.16227975 -0.27305642 0.33097586 -0.10492362 0.26234323 0.14995842 0.08636528 0.631554 -0.563698 -0.055408027 0.42949 -0.32950693
19 -0.072840855 0.814154 -0.27722496 0.085420884 -0.47312093 0.35633838 0.17128521 0.29437834 0.28948346 0.82348114 -0.44467708 -0.30937904 0.33740422 -0.48404813 0.35546997 0.026923945 -0.21545663 -0.13406307 -0.5320011 -0.080299035 0.54473233 -0.4853787 -0.45492512 -0.1623938 0.45017484 -0.05699138 -0.103702895 -0.2645665 -0.55375797 -0.17541513 -0.035529505 0.07393944 -0.23482591 0.29831743 -0.32174742 -0.18213314 -0.5962591 -0.70417964 0.4265669 0.31079364 0.15011244 -0.17313616 -0.66708195 -0.3217535 -0.92164046 -0.48797593 0.556071 0.12923047 -0.3387204 -0.7675327 -0.074154526 0.05860362 0.058951963 -0.78990406 0.2213095 0.3192955 0.52881145 0.1738373 -0.15028183 0.16398212 0.23956767 0.4719667 -0.33766705 0.48795328
733 -0.0050975946 0.8873938 -0.11162346 0.28376186 -0.55016303 0.36710832 0.13672923 0.18269989 0.23052569 1.0270716 -0.3614183 -0.0662638 0.5078046 -0.4617319 0.22667643 0.3105861 -0.3257378 -0.16981545 -0.27934745 -0.16501711 0.42948374 -0.40861222 -0.4350621 -0.42750573 0.2903531 0.14373748 0.1001572 -0.3065385 -0.7355332 -0.18002702 -0.18094686 -0.029985465 -0.34455723 0.44645846 -0.32861078 -0.34303105 -0.23235118 -0.81979793 0.47552526 0.4973248 0.20526871 -0.2729012 -0.74068177 -0.3579716 -1.0594413 -0.47566858 0.6426435 -0.004135907 -0.30725732 -0.74395466 0.039770156 0.006976407 0.20448235 -0.73556083 0.24571157 0.38338596 0.57881814 0.10696007 -0.21813716 0.12571676 0.2853654 0.37963292 -0.08930171 0.4678402
863 -0.14763217 -0.1943758 -0.23163483 0.031950448 0.14881654 0.21001314 0.44177058 0.0262456 0.27501166 0.23471281 0.0394513 -0.26672342 0.79099405 -0.11839072 -0.039819002 0.6188688 0.2748463 -0.20124249 -0.1508932 -0.21931615 -0.4376449 -0.0872244 0.31927016 0.25546753 0.49631995 -0.13365972 -0.21650165 -0.42685723 -0.074326076 -0.1499152 0.09039574 -0.2505793 -0.18722847 -0.082549855 -0.3683804 -0.8076451 -0.31487888 -0.08024754 0.39823657 0.48968738 0.035227094 0.1896955 0.17325816 0.1245436 0.07113118 -0.25542676 0.07991609 -0.33094674 0.1840291 -0.13346705 0.28698966 0.20725258 -0.2573662 -0.18964696 0.78885245 -0.15576851 0.06862416 0.19816196 0.1887964 0.8341853 0.18528913 0.0946833 0.7547258 0.117627375
