879 64
86 -0.023720445 0.11362443 0.32606536 0.28542542 0.042875975 0.22739463 0.19257739 -0.011043123 -0.108394176 -0.4850048 0.06406988 0.3868247 0.00053511764 -0.0895834 -0.050845016 0.19448069 0.43774936 0.360117 -0.1971427 0.15361558 -0.15363045 0.004285521 0.1168132 0.09245086 -0.007386499 -0.23083445 -0.024070842 -0.070509955 -0.082184516 -0.14961265 -0.6711455 0.20688415 -0.0942312 -0.37331995 0.29688188 0.08334871 0.3985479 -0.12368263 -0.013960007 -0.16319357 0.3932461 -0.5723791 -0.2817441 -0.6455606 0.19294895 0.5520121 0.6970567 -0.19139552 -0.1399543 -0.29149044 -0.016498981 -0.45003673 0.22887982 -0.29175508 -0.26878014 0.06271342 0.0109394435 -0.22192478 -0.3117242 -0.49160975 -0.16598763 -0.67628217 0.33541173 0.2455576
426 -0.081116445 -0.47412157 0.54087627 -0.078312315 -0.6677598 0.16503036 0.030360878 -0.31010032 -0.110128954 -0.27589077 -0.10237678 0.65581197 -0.09863071 -0.28636703 -0.24828047 0.250662 0.26072493 0.37672573 -0.28944454 0.44146308 0.36862502 0.070034 0.022645496 0.47886008 0.087550044 -0.041864835 0.12593058 0.2719469 -0.15429042 -0.36907658 -0.5687993 0.21981987 -0.11988469 -0.25046355 0.47124538 -0.022108262 -0.15464391 0.08515541 -0.19059509 0.04486676 0.10393465 -0.6525236 -0.7906813 -0.27500314 0.10569132 0.33234486 0.7118973 -0.050973915 -0.02866137 -0.06798607 0.3809673 -0.14239931 -0.15012331 -0.24513648 -0.28714305 0.09623335 0.071118 -0.28537706 -0.5127271 -0.6925291 -0.10302693 -0.41156673 0.33954695 0.08645152
188 -0.056274273 -0.5989117 0.34817696 0.5260827 1.5405897 -0.7675214 0.3494316 0.6896295 -0.03954811 -0.26680833 -0.10958486 2.2645004 1.2485937 -0.32434055 -0.97122765 -0.9754863 -0.5322409 -1.093555 1.6857498 -1.4212227 0.1609992 0.27781358 1.1961209 0.794965 0.20769721 0.005723927 -0.014892684 0.45142612 0.3922705 0.5947182 -1.6383355 -0.0034966206 0.27557412 -0.8423957 0.25360245 -0.26994988 0.42526275 1.1216848 -0.9620138 -0.14396995 0.68885267 -1.2340478 -0.82170486 1.0012668 0.8066361 -0.09257829 -0.7519011 -0.27294916 -0.50407773 0.3870487 -1.1647463 0.12877767 -0.3664845 -0.44045642 -0.3837976 0.18514325 0.8889381 0.46245104 -1.2462482 0.18686004 -0.179136 -0.5052381 -0.452724 0.8870165
466 -0.07046556 -0.6422662 0.3625947 0.5269639 1.4994962 -0.77689356 0.37452316 0.6823095 -0.07500427 -0.2863911 -0.10388064 2.3182013 1.2685207 -0.3540375 -0.9831357 -0.9913655 -0.5382564 -1.0593721 1.6592847 -1.4136078 0.19113012 0.26959923 1.2050582 0.7917334 0.19059458 -0.022258362 -0.05248676 0.46467763 0.35809448 0.58477336 -1.7316216 0.015420408 0.28084275 -0.891126 0.2624853 -0.28934127 0.42046016 1.1415309 -0.99780685 -0.16241203 0.6922276 -1.2347322 -0.86551046 1.0048767 0.8188343 -0.11679859 -0.7559329 -0.2819474 -0.53206855 0.38752002 -1.1651345 0.12210723 -0.31727427 -0.4343343 -0.39117384 0.17214352 0.8628755 0.4564069 -1.2295151 0.16414522 -0.16224578 -0.52024496 -0.37675244 0.9248816
39 0.6722181 0.29862383 0.68206847 -0.12936583 0.5036177 -0.23296773 -0.63470244 -0.16524227 0.7520879 -0.5722421 -0.005626948 0.72693115 -0.64024377 0.5904736 -0.75018275 -0.69647473 -0.36141634 -0.14464673 0.5314566 -0.28518173 0.9863816 0.12079149 0.4913434 0.10682331 -0.05234208 -0.02454088 0.03748834 0.48909464 -0.1392876 0.03823576 0.16638698 0.0050422107 -0.32939905 -0.35740444 0.2670157 0.83508223 0.5421412 0.6402305 -0.33457536 -0.013604868 0.961922 -1.1550463 -0.47638914 -0.25562137 0.07492236 0.095152296 0.7848001 0.09634395 -0.2263973 0.22706896 -0.23712122 -0.41658345 -0.10157328 -0.51029134 0.2989451 -0.5879717 0.5153269 -0.23945394 0.025335142 0.23864047 -0.5553069 -0.7021948 -0.6481384 0.71660185
584 0.73097897 0.51690555 0.6148357 0.18879835 0.34026322 -0.12038566 -0.45030755 -0.024343645 0.71924514 -0.40057072 0.026056549 0.78585804 -0.4447427 0.45513636 -0.52332956 -0.7861052 -0.17914668 -0.089187294 0.59124213 -0.2553946 0.86132693 -0.002157191 0.6915046 0.21399765 0.057801485 0.014031128 0.11197054 0.39918488 0.02186186 -0.015026972 0.3548222 -0.10615445 -0.4780242 -0.4024409 0.2667209 0.8849655 0.67341685 0.6546044 -0.3015519 0.022873545 0.8419078 -1.0617254 -0.48532477 -0.25749123 0.020549122 0.08503724 0.6737788 0.08598408 -0.27198377 0.19293146 -0.17005345 -0.38278213 -0.1490849 -0.57190627 0.2577013 -0.4231907 0.5767904 -0.2346437 0.17612222 0.30082667 -0.50457144 -0.788588 -0.6173972 0.5859479
138 1.0309098 -0.066241436 1.2111903 0.30640274 0.2516651 -0.21637338 0.04241808 -0.09038212 -0.46788713 -0.68632233 -0.15749611 1.0816337 0.40516987 -0.008150419 -0.23360616 -0.04896902 0.18041563 0.46889412 0.08691154 -0.37465733 0.345282 0.39051422 0.8432163 0.32448325 0.5420181 0.24793746 -0.021498935 -0.034446243 -0.06509346 0.003168766 -0.26409325 0.052915826 -0.012590966 0.7127888 0.17330159 0.21941082 0.68377405 0.19715853 0.08598308 0.78993744 0.6330198 0.43080366 0.14265838 -0.51545113 -0.1025509 -0.19274355 0.4293815 0.18236427 0.1457501 0.5157905 -0.26605582 0.04694098 -0.081711285 -0.5550641 -0.20610382 0.54199874 0.17934206 -0.09808103 -0.57654727 -0.46277475 -0.5285359 -0.5049382 -0.40010136 -0.2399764
509 1.2736297 -0.0075223367 1.0481045 0.36748484 0.5963877 -0.37930453 -0.017778028 0.11178341 -0.20601493 -0.44136083 0.19241166 1.014311 0.24101274 0.13929722 -0.20758489 -0.44398847 0.15618053 0.40338087 0.13317439 0.11682761 0.24174806 0.5265438 0.96419823 0.4794355 0.53722864 0.34862295 0.06826976 0.24176928 0.18158348 0.45456845 -0.12864617 0.036752935 0.094396144 0.48169422 0.10367258 0.043249406 0.54951054 0.32154432 0.2053012 0.6431953 0.51419634 0.37079108 -0.014413636 -0.7815412 -0.32798624 0.0057015335 0.26379114 -0.27493986 0.14187281 0.36763388 -0.16918787 -0.2900677 -0.48008043 -0.90284 -0.06519587 0.47245672 0.1556798 0.08547283 -0.27993932 -0.32899967 -0.35097444 -0.60870355 -0.1873498 -0.33533937
37 0.535727 0.23007472 0.13156675 0.16321126 0.6394354 -0.8882688 0.30201647 0.08448933 0.37577513 0.23494281 0.5208261 1.1484108 0.33882722 -0.6029272 -0.3209702 0.017183872 -0.23922165 -0.67545927 0.7803088 0.5364107 0.47895527 -0.17822218 0.5184535 0.5545284 0.11708291 0.44010878 0.2481621 0.71434915 0.07213129 -0.38283354 -0.38324243 0.24644239 -0.24182107 -0.02988948 0.42648652 0.0992198 0.039860755 0.6282919 -0.29349175 0.5636523 0.84300745 -0.5958302 -1.0300723 0.11845995 0.67833406 0.101474956 -0.7553286 -0.44991577 -0.92137253 0.37539014 -0.74007535 -0.07328609 -0.097960204 -0.27747405 -0.10451019 -0.14856657 -0.039846633 -0.47027645 -1.1266137 -0.77588 -0.2749641 -0.54768574 0.36580363 -0.39886564
392 0.3650191 0.03393027 0.16499764 0.26525703 0.98000365 -0.7357874 0.44014323 0.15555853 0.19647785 0.10213048 0.69060934 1.3175619 0.17639431 -0.85670197 -0.50650775 0.11786872 -0.3455188 -0.7800679 0.7223612 0.5911931 0.39151707 -0.14383572 0.54623944 0.551928 0.045785103 0.40008432 0.17981425 0.7779623 0.116018265 -0.36035946 -0.46687764 0.26928777 -0.19843616 0.10228886 0.3685267 0.36821538 -0.06128224 0.72726417 -0.38625783 0.6540345 0.6403895 -0.51909924 -0.98888105 0.14649402 0.7593439 0.13440974 -0.79987246 -0.4262963 -0.7997772 0.3339673 -0.81677336 -0.05880933 -0.19074896 -0.20219445 0.39910364 -0.038999155 -0.14668961 -0.23163766 -1.0977994 -0.8854018 -0.40418503 -0.5977181 0.59590316 -0.1311891
108 0.43153933 0.28962025 0.07281926 0.3490096 -0.085723914 -0.30670664 -0.14463006 0.12004585 0.10584011 0.0451789 0.07693701 0.39882103 -0.24200073 -0.3433425 0.0049146516 -0.33567226 -0.23814613 0.12604947 -0.054574948 0.6191449 0.349028 -0.14783797 0.41991678 0.5882403 0.2875075 -0.026433825 -0.013340359 -0.052550245 -0.31833553 -0.16226503 -0.09203241 0.65736043 0.051038973 0.01669292 0.087588556 0.3236279 -0.114943326 0.4124628 -0.085987926 0.18513376 0.230984 -0.14749883 -0.17239873 -0.063571475 0.38433075 0.13962713 0.0069911177 0.13427973 -0.20724076 -0.029020008 -0.14431423 -0.2758936 -0.29772967 0.2388395 -0.26143202 -0.20516619 0.67612386 0.15961723 -0.7692178 -0.88149667 -0.0266059 -0.19975713 -0.1582678 0.2778297
877 0.46760318 0.31124958 0.11994814 0.26034448 0.13561937 -0.13208652 -0.10677383 0.124535635 0.07560246 -0.0631783 0.087253034 0.54356724 -0.2589883 -0.4001425 0.13384631 -0.33700684 -0.16650799 0.04945764 0.20159468 0.42201793 0.38546836 -0.19705619 0.40282091 0.5562954 0.29827797 0.23067607 0.020554889 0.23116703 -0.49466544 0.11864454 -0.13419712 0.1670646 -0.06446059 0.19106226 0.43345502 0.3098164 -0.27239153 0.20855021 0.0030980087 0.3799854 0.43631673 -0.07282054 -0.33867258 -0.15095218 0.14649275 0.4090335 -0.11777669 0.18536305 -0.26691326 0.20066966 -0.12394982 -0.6511748 -0.028796041 0.13583393 0.007700037 -0.24616732 0.51112 0.17057595 -0.65007645 -0.7707823 0.10790583 0.04805863 0.04277384 0.27192387
148 0.032510813 0.10471597 0.55208135 0.3073434 -0.39238685 0.13706487 0.2281914 -0.086913586 -0.49475357 -0.7450282 -0.024522666 0.69312024 -0.31238636 0.14237115 -0.16764295 -0.088460974 -0.2728489 0.33833838 -0.09279785 0.46735883 -0.25373673 0.110363536 0.7420899 0.5244227 0.61737555 0.21353227 -0.21237779 0.0002682675 0.43300706 -0.18670149 -0.27748996 0.077480406 0.090564676 0.37040642 0.20866393 0.06013913 0.08822244 0.4968178 -0.24854891 -0.5560361 0.15928 0.05468168 -0.4325112 -0.43106544 0.10757861 0.8270233 0.34855276 0.36393276 -0.08317848 0.039952673 -0.19046901 -0.6513544 -0.44920316 -0.77088207 -0.09105512 -0.34369263 -0.16510211 -0.26639953 0.34968206 -0.34666088 0.10878822 -1.0108782 -0.2712241 -0.059212387
342 -0.0236306 -0.026858091 0.65795004 0.22423339 -0.41021478 0.32556283 -0.11139577 0.09287989 -0.52208984 -0.91199195 -0.2396503 0.18339391 -0.16900186 -0.042044595 0.2568492 -0.3967605 -0.0849681 0.23525769 0.14149366 0.46705142 -0.23362336 -0.051418185 0.52516776 0.21170251 0.6996873 0.08683938 -0.3248941 0.37177917 0.3212698 -0.09324654 -0.2831252 0.20371526 0.23150049 0.2249203 0.27937654 -0.26008394 0.058865707 0.23493496 -0.5051452 -0.2955088 0.097963385 -0.2968511 -0.15296094 -0.2096686 0.09578964 0.8579764 0.3503551 0.54078156 -0.25278112 -0.35384667 -0.45601833 -0.2704274 -0.17601997 -0.7178845 0.21635851 -0.2074434 -0.31916073 -0.48754957 0.05151921 -0.25480852 -0.04821834 -0.9423937 -0.10688925 -0.37366608
178 0.42982107 0.032422643 0.60508865 -0.46584615 0.032020528 -0.97457457 0.72284555 -0.08004309 -0.88797486 0.04343275 0.30264607 0.74989957 0.24637467 -0.1456522 -0.77469367 -1.0874584 -0.36423078 -0.4348629 0.44223452 -0.10273688 0.31066614 0.09961084 0.14607467 0.4956818 0.7494509 0.416083 -0.16215457 -0.09426085 0.2747627 0.2868239 -0.9505029 0.3371836 -0.16801178 -0.22695646 0.62996817 0.03672009 0.36054432 0.28761813 0.20503746 -0.10759718 0.22140123 0.21500371 0.4197242 -0.0286902 0.6854988 0.1766368 0.41926837 0.3963272 -0.2898492 0.13695565 -0.24290684 -0.6563749 -0.030894827 -0.5525836 0.051922143 0.5354051 0.6109448 -0.44582215 0.075283006 0.2671396 -0.31657383 -0.12575108 -0.29337674 0.44315922
472 0.5179069 0.028361183 0.5994995 -0.2867145 0.11281736 -0.6435264 0.580848 0.12194916 -0.7083117 -0.15356547 0.39395425 0.80242354 -0.092036866 0.07568219 -0.55533475 -0.7372834 -0.078320496 -0.23178433 0.39311182 -0.12120586 0.18156256 -0.1751209 0.057674427 0.22466378 0.71461004 0.3451145 -0.11549128 -0.18717727 0.19027929 0.55115986 -0.852249 0.34316918 -0.060090326 -0.090250574 0.5126401 0.14696611 0.5351302 0.40494215 0.25396946 -0.38199416 0.13001695 0.34621382 0.44013792 0.113445275 0.50251263 0.2105203 0.27429748 0.48060662 -0.050504625 0.00178539 -0.079822995 -0.5891602 -0.124452524 -0.2818822 0.21276896 0.38916066 0.57962817 -0.60333556 0.044949077 0.074241616 -0.07743387 -0.31410104 -0.4130163 0.1480417
155 0.20191382 -0.23194058 0.26626223 -0.10506229 -0.6360525 -0.20579241 0.064298764 -0.13014099 -0.22198002 -0.51988345 -0.26569745 0.41360858 -0.29328778 -0.49253622 -0.48181742 0.27043515 -0.1979766 0.39581272 -0.4850448 0.38895726 0.40681994 0.081514485 0.13715132 0.24035704 0.39623302 0.20905548 -0.15614878 0.39073172 0.08981308 -0.44314876 -0.6248036 0.23085517 -0.2563661 0.03553642 0.45618945 -0.0751566 -0.4955023 0.18249302 -0.046440825 -0.114091806 0.38782355 -0.412729 -0.88605636 -0.35282278 -0.20897262 0.4843343 0.4385364 -0.09638414 -0.07220773 0.23223954 0.41463894 0.029483372 -0.5426982 -0.3690501 -0.2483595 -0.35852692 0.40796486 -0.23889886 -0.41197303 -0.5976353 -0.2203808 -0.31523922 0.02391378 0.3755294
702 -0.060156345 -0.2967318 0.4921833 -0.11920339 -0.37570426 0.014111109 0.13641994 0.0071425955 -0.25536844 -0.44409314 -0.3260737 0.50998086 -0.4960853 -0.49160013 -0.4411453 -0.09115286 -0.41489547 0.2536296 -0.27580956 0.3579458 0.35929587 -0.07847968 -0.098194346 0.29356244 0.40067163 -0.15749598 -0.07009899 0.04289647 0.076608196 -0.19938378 -0.99280775 0.4205726 -0.19865005 -0.08455981 0.46954718 0.17517054 0.044438023 0.38137433 0.047280177 -0.5335371 0.010621512 -0.07245311 -0.0082340855 -0.6035885 -0.12335785 0.6470226 0.3103202 -0.12629093 -0.13815239 0.084327415 0.061972585 -0.103172675 -0.15863068 -0.56619006 -0.17244944 -0.23286343 0.04840923 -0.48531088 -0.2720264 -0.5403996 -0.13301618 -0.38722354 0.13799907 0.12421389
151 -0.41225958 -0.15722004 0.61744213 0.41852167 0.08408811 -0.6472754 -0.20706017 -0.8331508 0.20496227 0.031400647 0.28240377 0.649965 0.2426936 -0.45603153 -0.043272026 0.48612434 -0.120221406 -0.3744546 0.4798903 -0.10787128 0.5358675 0.049672015 -0.11397624 0.81858337 -0.36132944 -0.044409327 -0.56283 0.7886642 0.042325903 -0.21841183 -0.34380335 -0.15967438 -0.37504098 -0.21688148 0.12220532 0.21946727 0.32102773 0.14942543 0.090228125 0.39850372 0.5291731 -0.35634044 -0.49266016 0.024613608 0.9259923 0.42499673 -0.5236918 0.613373 -0.989527 0.37545604 -0.71039253 0.49425897 -0.13253608 -0.29601806 0.10525081 0.24855806 0.030809786 -0.44773993 0.011474014 -0.77843165 0.07206301 0.24445267 0.3574127 0.41653383
614 -0.1804261 0.212575 0.5221626 0.7037725 0.32233182 -0.35880083 0.04727277 -0.703006 0.005404234 0.4275424 0.26837388 0.53106683 0.22230873 -0.54698014 -0.028452625 0.28409716 0.045419578 -0.42166024 0.5190775 0.40099534 0.2739594 0.19719261 0.27215037 0.7245764 -0.44722766 -0.072375946 -0.3890356 0.6278607 0.18693309 -0.049870137 -0.46811065 0.07200993 -0.40163603 -0.11411133 0.2957976 0.6904602 0.13054459 -0.07476635 0.12052305 -0.04750875 0.545272 -0.3759528 -0.5775253 0.026813151 0.9075104 0.089539886 -0.53410375 0.53980416 -0.7727985 0.2687962 -0.48414707 0.4721131 0.0401365 -0.53367805 0.2823043 0.23581465 0.14237466 -0.32126334 0.099036686 -0.9200278 -0.023120731 0.1450627 0.4206674 -0.066972494
129 0.13830459 0.1367548 0.66979444 0.4102156 0.23160782 -0.5277938 -0.13670689 0.308723 0.018801784 0.20571858 0.018239906 0.3782199 0.05330406 0.28515947 0.18300083 -0.39322004 0.22805965 0.08893603 -0.4104163 0.5548416 0.50181013 -0.12835844 0.23784181 0.69708234 0.70729715 0.34446165 0.20517215 0.9334206 -0.47569418 -0.003673098 -0.70787996 0.7776763 0.13470691 -0.12678307 -0.2814889 0.3205554 0.099467345 -0.03007048 -0.16798632 0.39091033 0.36394107 -0.59733415 0.16570364 0.42243308 0.19949192 -0.1774763 -0.6609789 0.5143002 0.14145926 -0.07424492 -0.13794279 -0.6453463 -0.5862882 0.07788383 -0.63285965 -0.33726543 0.3231111 0.07666224 -0.67571974 -0.9283159 0.50583655 -0.16534576 -0.4127961 0.14525448
353 0.46731403 -0.16448803 0.612682 0.4813445 -0.08937293 -0.44299087 -0.14930293 0.18414807 0.13824242 0.23706295 -0.044703215 0.49511564 -0.116033286 0.040248733 -0.04385796 -0.28474054 0.15113579 -0.0032927706 -0.15639557 0.48794305 0.70496994 -0.22749434 0.27883723 0.9501117 0.5436181 0.32418635 0.13260795 0.36324036 -0.46753818 0.055267133 -0.45118907 0.53384507 0.03810331 -0.024594812 -0.1740369 0.45377198 -0.11916853 -0.0583695 -0.20262007 0.047049496 0.41045377 -0.41095078 -0.07931566 0.17618877 0.3269401 -0.031219192 -0.47456726 0.61030877 0.14920172 -0.06006314 0.011291027 -0.607283 -0.4476924 0.23273453 -0.5851002 -0.24443516 0.41639408 0.14705625 -0.75745875 -0.998282 0.45334518 0.020920556 -0.44095775 -0.09674825
88 -0.24831352 -0.084205076 1.016404 0.53156143 0.6884579 -0.83872485 -0.14002943 0.11300674 0.15454382 -0.40662506 -0.0023447075 0.7105148 -0.12385034 0.121391095 -0.24939086 0.53698367 -0.49968722 0.18849576 0.21698965 0.17093962 0.5803051 0.62391835 0.06526202 0.045103185 -0.6143034 0.27076778 0.053745817 0.1778554 -0.060443778 0.30682963 -0.9623101 0.504899 0.02384273 -0.5636426 0.06618252 0.2975793 0.13714759 0.13111849 0.36495075 0.36502528 0.6314249 0.031401794 0.084274665 0.8900799 0.2398744 0.2646782 -0.4840529 0.58332455 -0.17672896 -0.7156421 -0.5472685 -0.1674132 -0.10463511 -0.27190775 -0.37147474 0.15194261 -0.63309234 -0.31610864 0.22385427 -0.62636286 -0.55930364 0.15152822 -0.6320019 0.23657113
516 -0.3171757 -0.3001791 1.0211726 0.441026 0.8499138 -0.84025013 -0.20741007 0.02141739 0.2634863 -0.45372307 -0.03563776 0.8602326 -0.11299334 0.28109363 -0.16256133 0.48160696 -0.3777016 0.2504018 0.3663764 0.20646708 0.7724016 0.63907826 0.120710865 0.113282755 -0.75490123 0.12534276 0.07473049 0.24253066 0.08479362 0.32387176 -1.1484746 0.42598408 -0.0062726825 -0.43920696 0.06118384 0.26464197 0.22866587 0.21128675 0.4537762 0.3698104 0.8197195 0.01625669 0.08046021 0.70606935 -0.11850042 0.19835244 -0.64558387 0.543421 -0.18449143 -0.7168088 -0.75832367 -0.121597715 -0.29195285 -0.30635902 -0.29640734 0.345723 -0.834495 -0.24553049 -0.036668565 -0.7813897 -0.6483702 0.060852744 -0.581506 0.21173738
94 -0.23614477 0.059977777 0.31711715 -0.042115245 0.2207416 -0.24250586 -0.51967543 -0.0746923 -0.18745896 -0.5214795 0.043290123 0.05778808 -0.18686222 0.20827183 0.28856477 -0.16070668 -0.39242274 -0.019420687 -0.033209678 -0.21150681 -0.14373 0.0923312 0.42798066 0.6016118 0.16871934 0.04306968 -0.27380893 -0.049308334 -0.16004711 0.6505267 -0.7278766 0.49858797 -0.22178552 -0.10274325 -0.37280402 -0.094472215 0.18407433 0.09754281 -0.031037888 0.18940552 0.17926344 0.5965293 -0.6017132 0.60296845 0.27158642 0.40641025 0.28896633 0.8784182 -0.2475344 -0.5346756 -0.51751834 0.10505883 -0.39874914 -0.0038712088 -0.29925367 0.025795767 0.31713995 -0.5096681 -0.03830012 -0.0602789 0.3788516 -0.61362237 -0.47043744 0.8848678
736 -0.25401738 0.13800238 0.58730197 0.07007777 0.70567423 0.28163466 -0.56067866 0.017737268 -0.34983397 -0.6888514 0.16715612 0.1007344 -0.19276838 0.06885559 0.5722283 -0.2517178 -0.095050186 0.1407685 -0.07666189 -0.12449997 -0.10912342 0.21605664 0.0877365 0.42403728 -0.020953339 0.129278 0.15246804 0.36780015 0.121728115 0.6312156 -0.92328197 0.6157494 -0.2270632 0.017755652 -0.25268382 0.13919346 0.17637037 0.06075549 -0.14681913 -0.14199345 0.39692765 0.6829071 -0.758077 0.3954163 0.06788191 0.5926725 -0.055875573 1.0095667 -0.29305 -0.28896928 -0.57602936 0.25123087 -0.6879007 0.13272701 -0.50559956 -0.31706983 0.24416977 -0.25600004 -0.118151605 -0.20652367 0.04799732 -0.31159613 -0.16805336 0.1517353
126 -0.11610094 -0.0783103 0.6210516 0.28382015 -0.3481585 -0.63846433 -0.016537346 -1.1693712 -0.06451346 -0.023711076 0.055804454 0.7908478 0.38972098 -0.4130621 0.040279362 0.1481063 0.3048557 0.055858437 0.1603483 0.4390799 0.26439026 0.070830576 0.36967018 0.6588677 -0.3303776 -0.0365221 -0.13737078 0.39495888 0.3314927 -0.31756723 -0.40510985 0.0689005 -0.104502454 -0.30768922 0.71764374 0.13381137 -0.12109806 -0.30362326 0.010823966 0.14356257 0.1248929 -0.54998803 -0.8402019 -0.27865437 0.36715862 0.5138559 0.11300787 0.87146705 -0.36572787 -0.51739806 0.16452564 0.26800647 0.11536465 -0.5329957 0.27416807 -0.0015702469 0.15507703 0.24761921 -0.010741296 -0.9771106 0.02678911 0.06785327 0.25622472 0.32594252
313 -0.308682 0.05855695 0.62498546 0.44222075 -0.3078126 -0.44708708 -0.16023532 -1.1446124 0.0957749 0.0719305 0.07622469 0.7977063 0.38552856 -0.2255281 0.14736582 0.2279776 0.37870342 0.045083653 0.10829131 0.49871185 0.3436426 0.12790002 0.3402611 0.55748016 -0.20202555 -0.16291238 -0.19206893 0.29932994 0.38569182 -0.4358232 -0.44154143 0.082695775 -0.22900587 -0.30434775 0.6013083 -0.065234214 -0.28959993 -0.226036 0.17765488 0.18694206 0.16149545 -0.5001177 -0.9037388 -0.3038194 0.23541106 0.37889713 0.09382196 0.8977203 -0.48595464 -0.341553 0.014437378 0.08017665 0.25122705 -0.5103517 0.24407987 0.12357696 0.24845819 0.012263399 -0.05579264 -0.9270275 -0.07691145 -0.020032702 0.20306066 0.2598146
206 -0.6360915 -0.022436066 0.6908818 0.3173425 0.39489684 -0.1252143 -0.08275152 -0.33685863 0.24412513 -0.8722456 -0.019098401 0.9179679 0.023052631 -0.09012483 0.026056273 0.30519125 -0.2800323 -0.12658964 0.050460953 -0.15047456 -0.19062413 0.14129792 0.24061982 0.062112793 -0.8662385 -0.24541126 -0.28780374 0.31593117 0.215436 0.6081819 -0.5260037 0.4488698 0.0906829 -0.28333223 0.349486 -0.440896 -0.15920492 0.25741056 0.2817513 -0.009751681 0.6967059 -0.14378063 0.23076037 0.49220976 0.41414028 0.31276026 -0.116686605 0.53304106 -0.118649155 -0.39540544 -0.7344448 0.2753707 0.21001804 -0.20716223 -0.25114158 -0.34398946 -0.31530556 0.19972974 -0.24720225 -0.3515352 -0.6980045 -0.50304735 -0.33974817 -0.09733458
526 -0.55064046 -0.07185534 0.6186954 0.487341 0.2526902 -0.23240504 0.19195977 -0.07856509 0.4285057 -0.79264534 0.13476104 0.73792624 -0.1898942 0.08353678 -0.093486525 -0.11589901 -0.28656238 -0.4370322 0.111225955 -0.58377224 0.4387363 0.38576773 -0.06361105 -0.1466898 -0.7274728 0.19638412 -0.28568462 0.13453113 0.22203748 0.17641671 -0.49343327 0.42474082 0.08714289 -0.113066435 0.30047673 0.08594963 -0.15629765 -0.13587579 0.29994184 0.4124332 0.88451606 -0.06513195 0.0067692385 0.35143206 0.7928544 -0.04644757 -0.14911266 0.63124305 0.1688987 -0.3804233 -0.26229605 0.14329824 0.34044424 -0.2740544 -0.44792247 -0.46393847 -0.17490333 -0.49244073 -0.036413126 -0.4822795 -0.38478285 -0.49249163 -0.18543905 -0.25715798
241 -0.31565186 -0.28381038 0.08963523 0.28726488 0.1227932 -0.25139657 -0.1852987 -0.15713696 0.23884283 -0.47977105 -0.015426477 0.33664638 0.36851308 -0.29176635 -0.16585109 -0.12708725 0.027016344 -0.06318843 0.31287262 -0.62092596 0.36187968 0.32719037 -0.3133683 0.1314903 -0.44940096 -0.050593827 -0.38209403 0.5002737 0.066368446 0.36352283 -0.6708421 0.3649107 0.09808262 -0.17495063 -0.016302845 -0.23680292 -0.45848614 0.07027514 0.113303095 0.26757315 0.4370485 -0.026021631 0.12045633 0.2149725 0.6626371 0.09303889 -0.28549856 0.7268362 -0.3477912 -0.46652335 -0.6846633 -0.34177095 0.07258586 -0.4746018 0.09448464 -0.33007845 -0.18271595 -0.20274147 0.14553799 -0.25783566 -0.3048 -0.5228608 -0.63807124 0.2179317
670 -0.4495785 0.014417067 0.17099719 0.17779621 0.08335581 -0.23733634 -0.14030667 -0.50442326 0.25302213 -0.579511 0.05257579 0.60689515 0.95419997 -0.22390676 -0.012756735 0.017147178 -0.67322165 0.13726906 0.17020811 -0.6573015 0.38796014 0.295678 -0.065064594 0.16903545 -0.45328847 -0.24566714 -0.6630045 0.7615023 -0.03671971 0.2496736 -0.8524395 -0.113309816 0.16216232 -0.33098924 0.18012415 -0.04173755 -0.47057286 -0.0029993185 -0.03138133 0.32411495 0.6116259 -0.4404004 0.12588082 0.57029104 0.15103118 -0.067520164 -0.03063811 1.1410909 -0.26907012 -0.39925972 -0.5257816 -0.158134 0.13958207 -0.8491299 -0.12357915 -0.14028375 0.123245366 -0.15554099 0.00044941358 -0.34560433 -0.41332817 -0.42528486 -0.4553267 -0.020582743
381 0.34783956 0.3727134 0.2538276 0.3534208 -0.32256874 -0.384665 -0.34355998 0.1917864 0.14026892 -0.100747794 -0.32477728 0.693527 0.049120504 -0.80073255 -0.12968318 -0.48505732 -0.22580613 -0.39480078 0.6048412 0.7325805 0.07598497 -0.14347851 0.5132374 0.7353055 0.31261638 0.35146978 0.2035181 -0.16178957 -0.3206458 0.31488207 -0.1779544 0.027069554 0.05823539 -0.20362137 -0.07569126 -0.0595008 0.14307958 0.25856972 -0.6434133 0.12126279 0.3681984 -0.24210198 0.035249952 -0.297757 0.041549213 0.6875761 0.32387656 -0.19938861 0.46856993 0.18943517 -0.47850534 -0.41314864 0.0611075 0.2774584 0.06061488 -0.27804205 0.6451556 0.31966075 -0.37624788 -0.5567223 0.3324609 -0.46622983 -0.16175495 0.57179487
31 0.594873 -0.21654005 -0.06304721 0.42310748 0.12580077 0.18707809 -0.3747891 0.21223281 0.108193636 -0.95050865 0.06137533 1.2045367 -0.19112042 0.78582555 -0.6427295 -0.041691184 0.007381333 0.1532055 0.34146369 -0.14357571 0.62373936 0.019817226 1.3769209 0.89846265 0.5382367 0.5269287 0.122543484 0.50177896 -0.08494705 -0.4093919 -0.4093948 0.1843717 0.008246102 0.03001426 -0.43799916 -0.3526732 0.14318733 0.7883864 -0.1887731 -0.3645482 0.26973078 -0.72903335 -0.4321332 0.37751678 0.026823832 0.65432304 0.24625151 0.3435862 -0.30708632 0.69657165 -0.25342444 0.33194217 -0.26087818 -0.5991712 -0.27999696 0.36033 -0.071842715 -0.051089775 0.085970275 -0.10746638 -0.42380473 -0.47708514 -0.40521514 0.5434084
450 0.57309175 -0.033795662 0.09643837 0.24954131 0.0317494 0.19775653 -0.04008854 0.27500162 -0.14467402 -1.1902863 0.16266127 1.3618606 -0.4641299 0.78192836 -0.4834519 -0.3395696 0.13626279 0.24984659 0.37203985 -0.11642915 0.7272339 0.3855923 1.2377996 0.76353264 0.17677651 0.29355657 0.118717715 0.7455105 -0.040364567 -0.11780763 -0.38651204 0.15506037 0.25240654 -0.104678616 -0.14407563 -0.21763606 0.14625028 0.6174754 -0.2995901 -0.4436396 0.2565152 -0.7410214 -0.3424335 0.50132716 0.06735384 0.45877388 0.15280305 0.58412486 -0.23492128 0.7263072 -0.36071348 0.3544138 -0.35878184 -0.5956822 -0.486586 -0.0330977 -0.18081534 0.13278063 -0.31450558 -0.0052983896 -0.24878028 -0.14562924 -0.28838623 0.65437675
277 0.67961353 -0.71014524 0.5189294 0.10922766 0.4653185 0.22574347 -0.28816724 0.1338194 -0.48087654 -0.74859947 0.14425598 0.40279648 0.20348749 -0.19728255 0.33645874 -0.4616188 -0.2718917 0.120320454 0.43720898 -0.46463272 -0.072352745 -0.5896919 0.87846804 -0.12704997 -0.040168874 -0.010166427 -0.9424983 0.48964065 -0.3076643 0.06752586 -1.3077314 0.25806448 -0.6021618 -0.45330966 0.06110558 -0.12901978 0.32600784 0.6897098 -0.14149486 0.39480513 0.19150895 -0.16093835 0.47928673 0.29580083 0.98346 0.057314035 0.21542315 -0.26584998 0.02600087 -0.030026846 -0.0040491056 -0.3868833 -0.53148687 -0.14920294 0.23591068 0.34158733 0.60161567 -0.7050167 -0.62786174 -0.18814975 0.07071775 -0.5117205 0.34412953 0.8584587
893 0.79715145 -0.6844957 0.44695717 0.14345445 0.4892025 0.13478896 -0.37029704 0.27284348 -0.65830904 -0.8505647 0.06841482 0.2794716 0.3686653 -0.2602448 0.2051858 -0.79321164 -0.24453503 0.18782435 0.3817041 -0.39870128 -0.13420835 -0.6543145 0.73782176 -0.22110029 -0.33471718 0.19554287 -0.71878344 0.34104034 -0.20170882 0.15276212 -1.1730828 0.42186022 -0.5297259 -0.52459836 0.095962115 -0.33631036 0.49832243 0.6744439 -0.16932026 0.012084548 0.24020684 -0.42214093 0.29239553 0.3262179 0.9323292 0.08486519 0.19021907 0.092482634 0.0033845648 0.22989097 0.17641439 -0.27609512 -0.52770364 -0.0663386 0.13670044 0.52443135 0.46828917 -0.8973594 -0.737676 -0.20487846 -0.06286983 -0.57493955 0.09131339 0.82658905
212 -0.27959374 0.30202806 0.5127138 0.18404076 0.26947632 -0.19885442 -0.49269834 0.0010876427 0.051313773 -0.52422297 -0.005867465 0.11966986 0.243842 -0.29632184 -0.13443641 0.12071594 -0.00011508123 -0.43667686 -0.04897222 -0.5314966 0.58352065 0.7842017 -0.13037296 0.06304924 -0.15759146 0.23728652 -0.19022043 0.5905795 -0.1840762 0.66367143 -0.8473497 0.17708747 0.10899788 -0.30313966 -0.21148026 0.19207034 -0.041165184 -0.18606766 0.3517009 -0.11411486 0.46282873 0.20939492 0.23445442 0.13869318 0.16918735 0.014204273 -0.52569824 0.8386701 -0.17445402 -0.3616792 0.15005358 -0.33721662 -0.022482999 -0.39441916 -0.15555272 -0.075380445 -0.16763301 -0.115208745 -0.11796455 -0.41934285 -0.024856677 -0.39227977 -0.47902095 0.3551402
853 0.106137015 0.4269392 0.08302064 0.26092568 -0.021450825 -0.46826434 -0.2975259 -0.18015388 0.2507936 -0.60498434 0.12076588 0.051349122 -0.16701505 -0.21005525 -0.08487368 -0.04071505 0.22780955 -0.21186726 -0.22663681 -0.06418856 0.16686617 0.62917215 -0.2904642 0.17054544 -0.24771608 0.08817525 -0.25220403 0.76949394 -0.033724762 0.5802638 -0.6220163 0.038597476 -0.09562482 0.2509438 -0.14737044 0.44731963 0.17869619 -0.4005795 0.0028766496 0.5977809 0.28795347 0.46590865 0.07066394 0.23327109 0.30782548 -0.0041601206 0.14693084 0.4831576 -0.18370353 -0.24315701 0.4060915 -0.2746074 0.04355446 -0.10565667 -0.5863577 -0.23652689 -0.3674421 -0.06710678 0.02438177 -0.47303504 -0.24676593 -0.719656 -0.29020303 0.25737816
8 -0.06630184 -0.3194044 0.5498751 1.0714414 0.23085424 -0.07127683 0.12728544 -0.3705508 -0.0044381698 -0.38680655 0.406645 0.40990174 0.39102253 -0.1815439 0.545169 0.50298214 -0.3361073 -0.57284963 -0.4764599 -0.0050930385 -0.0926664 0.6934734 -0.27242184 0.3458018 0.07093643 0.04053372 -0.59926087 0.4586519 -0.041674808 0.15968578 -0.92058164 0.18822014 0.010248217 0.031024389 0.2614155 0.2500195 0.33714995 -0.45756114 -0.13756663 -0.20701128 -0.12355851 -0.7023213 -0.3397686 -0.5985375 0.2978885 0.46979865 -0.10163911 -0.3103562 -0.2799253 -0.10766903 -0.64583296 -0.26346752 0.57091475 -0.34448275 0.15380882 0.5083703 -0.09018867 0.08626252 0.3205445 -0.59420747 -0.6413457 -0.4182477 -0.37909126 0.5047342
735 -0.26031196 -0.3890434 0.5070058 1.1737676 0.2826264 0.15379122 0.14065275 -0.25145105 -0.3168561 -0.40905258 0.5609094 0.56141627 0.33148572 -0.25066915 0.36279136 0.30067712 -0.45996553 -0.55283654 -0.4142542 -0.046583097 -0.0068140714 0.58793557 -0.3848844 0.4166555 -0.08135949 -0.118608125 -0.63877326 0.5935908 -0.16172709 0.10575624 -1.1517848 0.2079513 -0.07335854 -0.155744 0.30203852 0.33220646 0.35032573 -0.36533982 -0.086570516 -0.27313322 -0.04703984 -0.8148797 -0.15577042 -0.60254306 0.5091633 0.4262129 0.0034712136 -0.41334927 -0.1623952 -0.23796375 -0.52577394 -0.41503984 0.6092165 -0.32029426 0.3492 0.34652734 0.0008850022 0.039502755 0.585458 -0.75689554 -0.8678494 -0.35417333 -0.47747436 0.42480117
118 0.2618568 0.19237074 -0.17208032 0.03248948 -0.06524267 0.38103354 -0.03052744 0.27302352 -0.1396182 -1.3672 0.16360466 1.1142045 -0.34606737 0.8203453 -0.35167164 -0.3206645 0.09135995 0.16178805 0.6482206 -0.16762497 0.61786455 0.20306252 1.1091878 0.58672345 0.17797866 0.2095064 -0.34483725 0.72422296 -0.00051730714 -0.0651851 -0.6855321 0.26848885 0.29910672 -0.3353894 -0.20111318 -0.4766017 0.0889928 0.84219265 -0.3793753 -0.3932257 0.2317981 -0.336197 -0.5435918 0.22133917 -0.16748457 0.6830111 -0.07219522 0.48255926 -0.3407195 0.9003708 -0.54824066 0.22373678 -0.22568332 -0.4603204 -0.3720292 -0.04329187 -0.28204384 -0.17201544 -0.20076482 -0.12293621 -0.24840878 -0.056598254 -0.26040208 0.47869757
698 0.08248424 0.3950397 -0.04205207 -0.1896878 0.17749782 0.4635278 -0.3703162 -0.24716718 -0.57613444 -1.2031693 0.24854453 0.6780563 -0.47576842 0.45910156 0.45256135 0.03183335 -0.17616081 -0.029067999 0.4577376 -0.24052407 0.5479953 0.21070994 0.29271853 0.18679625 0.13000204 0.07960743 -0.35697258 0.5673037 0.11285571 0.16631095 -0.51074624 0.1774028 0.5184117 -0.34794992 -0.5501598 -0.85200006 -0.09606835 0.44533655 -0.30286404 -0.5724126 0.5010506 -0.15464893 0.04134512 0.25292078 -0.033055894 0.5329163 0.21995145 0.9300991 -0.5952528 0.7836239 -0.6614386 0.09816641 -0.25781128 -0.57395655 -0.5055406 -0.24261196 -0.16372074 -0.47981554 -0.04407006 -0.27731934 -0.34479868 -0.14593686 0.027570171 0.23022377
861 -0.5032906 0.120501235 -0.03486601 0.5147047 0.2526807 -0.40449947 -0.3099675 -0.30163732 0.23036183 -0.569857 0.06713747 0.5695611 -0.15194832 -0.1262174 -0.25832927 0.0042275996 -0.51369953 0.23518679 0.013419647 -0.59393376 0.069875956 0.40000686 0.089492016 -0.065487646 -0.46866608 -0.07881149 -0.68935883 0.44745493 0.030891446 0.4048645 -0.8818278 0.37910467 -0.06831266 -0.37110662 0.35666448 -0.16340496 -0.17634454 0.29244876 -0.007750167 0.22672 0.4717942 0.18343054 -0.02236486 0.2986753 0.5471064 0.14065444 -0.014102635 0.5438954 -0.17996743 -0.9231283 -0.45773533 0.16700742 0.1376995 -0.1791584 -0.098969504 -0.1481976 -0.24740286 0.045303833 0.06566713 -0.41579354 -0.39906684 -0.34789383 -0.47627836 0.048935328
602 -0.50243115 0.11673609 0.67877436 0.3570646 0.5496628 -0.5314913 -0.029510345 0.041768704 0.25625128 -0.41573516 -0.06098879 0.64635557 -0.23562862 -0.19906598 -0.40208 0.106213585 -0.5447089 -0.028739175 -0.05097723 -0.13884366 0.10616556 0.6977365 0.13700084 0.20602846 -0.831979 0.045265645 -0.37406516 0.28631705 0.21124193 0.21871129 -0.83606327 0.06741238 -0.14199747 -0.32443476 0.18547368 -0.059541866 -0.22383161 0.18339816 0.3390128 0.16641822 0.7151537 0.2954237 -0.08454214 0.6005949 0.3763629 0.35997158 -0.31608087 0.603516 -0.058021408 -0.7244625 -0.56242687 -0.15798861 -0.028519502 -0.3082136 -0.16945235 -0.099553935 -0.62453485 -0.16321379 0.121090695 -0.32380083 -0.5368855 -0.33554924 -0.40439785 0.12223859
332 0.45778024 -0.44915068 0.17237367 -0.063745685 -0.3534895 -0.1482158 0.11614717 -0.27253687 -0.1453806 -0.5103257 0.46702987 1.3804445 -0.48203245 -0.20728227 -0.774999 -0.18267159 -0.41733548 -0.14580205 -0.36379352 0.10802973 0.7885758 -0.2819485 0.4393108 0.3784066 -0.02385615 0.39396828 0.46414188 0.55064917 0.13633369 -0.17116557 -0.62352955 -0.09517509 -0.25847062 0.32458854 -0.26908842 -0.058562066 -0.27849588 0.3937079 0.11099924 -0.3501434 0.2408825 -0.66617954 -0.81223553 0.4067553 -0.3382382 1.008727 0.77208894 0.14444296 -0.19953166 0.7899331 0.09238 -0.1511388 -0.41689986 -0.24278946 -0.11633449 -0.035087742 0.14011784 0.12201314 -0.5055451 -0.44861323 -0.5407178 -0.6009096 -0.21038693 0.2631257
17 0.06686931 0.42271435 0.25810423 0.18839294 0.27786502 -0.72124386 -0.10409747 0.69169235 -0.0026326443 -0.33777142 -0.45292026 0.8244394 -0.074550994 -1.0540763 -0.48955992 -0.3385899 -0.27556744 0.01488635 0.41650683 0.38841775 0.15993722 -0.095925234 0.5966161 0.5441271 0.7220861 0.52943385 -0.25128457 -0.3293457 -0.708497 0.6698467 -0.2535546 0.32484788 0.1438383 0.13647155 0.14922774 0.7975189 -0.015784396 -0.009076391 -0.1983352 -0.18349625 0.4078129 -0.292362 -0.0031893705 -0.3130635 0.39217758 0.54124755 -0.015781762 0.031854667 -0.09089411 0.137886 -0.055144656 -0.05877546 0.04775264 0.08475788 0.06009925 -0.3534065 0.41506568 0.26718664 -0.6443003 -0.06088261 0.09499381 -0.116346285 0.23855583 0.5574412
543 -0.0032080773 0.3604442 0.42255628 0.13106464 0.017543511 -0.72736394 -0.14940456 0.2657907 0.30728224 -0.19760709 -0.18192077 0.8625518 -0.057868775 -0.79344803 -0.27471507 -0.49964502 -0.18848377 0.21529156 0.10405832 0.29102185 -0.33561406 -0.24127963 0.41859627 0.57211816 0.6505763 0.28850096 0.13335226 -0.13294208 -0.3841669 0.5380073 -0.259485 0.18189503 0.049441613 -0.12557934 0.025180433 0.6583679 0.25097352 0.11520064 -0.23104307 -0.18526724 -0.11000295 0.0127958115 0.16174565 -0.33907452 0.3676436 0.35175446 0.11095594 0.20951368 0.032658607 0.060996678 0.026389547 -0.33054906 -0.09235326 -0.11775643 0.1112616 -0.24060877 0.35703477 -0.11416975 -0.83621234 0.033173427 0.01746761 0.021707159 0.102912106 0.8831116
607 0.12965415 -0.44419006 0.23279835 -0.06027633 -0.4867795 -0.04664789 0.029645674 -0.10705769 -0.29615632 0.11526867 0.023546806 0.49792248 -0.111070715 -0.45459008 -0.06943356 0.2796104 0.08434485 0.27756473 -0.4409338 0.29736686 0.258461 0.17090261 0.14000338 0.088852055 -0.1483464 0.19441608 -0.31631798 0.29739267 -0.014511537 -0.5157847 -0.32988617 0.49989963 0.24440247 0.21778882 0.588939 0.071654744 -0.18506813 0.21638928 -0.0035582427 0.011475545 0.23347123 -0.65011734 -0.7899635 -0.18312058 -0.12042305 0.7028463 0.86221176 0.09939589 0.081999764 -0.11312272 0.29402035 -0.18285032 0.19136998 -0.30889437 -0.10350046 -0.2389929 0.023277363 -0.33329645 -0.68836427 -0.5882851 -0.12744305 -0.6206537 -0.10568975 0.55065584
90 -0.09652832 -0.19018666 0.46987918 0.6900835 0.07810096 0.12225289 0.40942082 0.113430396 -0.103249006 0.099427715 -0.32442912 -0.09795917 -0.15238138 -0.70925987 0.23612133 0.24620345 0.291947 -0.19696768 0.33823287 -0.042669706 -0.17629291 0.15709761 -0.21316892 0.19602478 -0.039826963 0.12658606 -0.04346059 0.17767751 -0.13298357 0.039481223 -1.3017964 -0.2845271 0.437722 0.09503774 0.37667835 0.31198955 0.19334777 0.10618663 0.24686334 -0.01337647 0.01375674 0.007106969 0.0022597022 -0.298067 0.3910547 0.45800337 0.8649408 -0.028763738 -0.43416473 0.049470358 -0.82950777 0.10068002 -0.18217771 -0.65738475 -0.046488993 0.24257062 0.63397264 -0.048880313 -0.49844798 -0.06596223 -0.40284973 -0.13740472 -0.5373956 0.14891858
766 0.12124298 -0.29919595 0.43717888 0.28001037 0.012820893 0.29455125 0.06498402 0.27145198 -0.18532023 -0.2958511 -0.5870579 -0.1335057 -0.0642859 -0.47517967 -0.06621234 0.13195434 0.31962386 -0.09504852 0.34254545 -0.08429725 -0.09550552 0.15526752 -0.026140964 0.34744078 0.2599217 0.3159489 0.07591267 0.030632496 0.12760015 0.10288201 -1.089592 -0.057056792 0.05796921 0.12334486 0.28056428 0.31230637 0.18388636 0.1555438 -0.119709566 0.23892495 0.26586294 -0.15058376 -0.21670745 -0.42023763 0.43325606 0.38784167 0.85557276 -0.119252264 -0.3961699 -0.124577746 -0.17214768 0.15997542 0.20789434 -0.70978594 -0.18757318 0.30663025 0.29937002 0.00034968616 -0.41770273 -0.120277815 -0.35200268 -0.38949215 -0.17563216 0.13167635
133 -0.20309801 0.4873061 0.3694342 0.036172334 0.10506527 0.029574476 -0.43860906 -0.21618392 -0.04859208 -0.41692868 0.3256046 -0.018539118 -0.26949954 -0.13129473 0.08882416 -0.091648586 0.09514087 -0.006076158 0.047639508 0.126062 -0.014911889 0.5677173 0.23043595 0.14879839 0.19864841 0.31198677 -0.3486982 0.5291404 0.11781167 0.7963234 -0.5948126 0.40918633 -0.2124355 0.14071259 -0.31317857 -0.08826829 0.25848737 0.0008367724 0.10780844 0.10355952 0.36007133 0.6160371 -0.3457705 0.33671233 0.34638855 0.17473061 0.09696589 0.749325 -0.17226373 -0.4125195 -0.5595334 0.18406962 -0.3385937 0.20088302 -0.31259945 -0.05543084 -0.19530858 -0.38783443 -0.23852421 -0.07635952 0.07125961 -0.8038835 -0.45907328 0.60685223
566 0.123983644 0.19478965 -0.12802765 -0.2452698 0.092258185 -0.23572281 -0.09506916 -0.20356157 0.1631907 -0.50077724 0.32543293 0.48951644 -0.07053338 0.10645511 -0.1084412 -0.014765807 -0.24448226 0.10291644 -0.24446382 -0.015740491 0.16563272 0.4342613 0.5996217 0.14698231 -0.030989366 -0.018530004 -0.5299363 -0.23196897 0.45669454 0.321682 -0.83831835 0.39837083 -0.17939848 -0.019855686 -0.15449317 -0.04757175 0.476067 -0.1678588 0.09324033 0.21822022 0.1867919 0.1743397 -0.5988161 0.18846615 0.6791073 0.3333506 0.14531079 0.15830132 0.03584537 -0.7782306 -0.349601 -0.14365669 0.2952189 0.007973869 -0.052204587 -0.076465316 0.10085699 -0.45773914 0.045922257 0.22266944 0.5555401 -0.48080796 -0.8532157 0.6860684
269 0.4631683 0.43248817 0.124984145 -0.41486183 -0.0035248094 -0.24463592 -0.4740441 0.41712093 -0.27281255 -0.8092629 0.35095295 0.5513877 0.8316111 -0.19058128 -0.6143978 0.21063586 0.2985973 -0.20084903 0.26143974 -0.09330249 0.26638076 -0.06201386 -0.0813915 0.3858331 -0.5187106 -0.17939438 -0.28387985 0.38470253 0.4404779 0.44481337 -0.57053465 0.40961534 -0.30682987 0.38088307 -0.25862113 0.48375222 0.12038207 0.44240537 -0.076914914 -0.1183803 -0.010734973 0.3594603 -0.7161223 0.41451526 0.97659206 -0.13333157 -0.09019215 0.65383995 0.41807443 -0.105606444 -0.56007713 -0.25498426 0.2876735 -0.11039238 0.1940956 -0.53299254 0.7881649 -0.17535466 -0.17532974 -0.34923032 -0.18886797 -0.23822223 0.14204161 0.4890642
844 0.13470332 0.5849555 -0.11425469 -0.28889614 0.14992662 -0.40291053 -0.5731197 0.28613812 -0.098621055 -0.8427356 0.13826774 0.54461664 0.5071526 -0.10128221 -0.108018264 0.38529107 0.26156205 0.47679287 0.50901043 0.0504387 -0.22106938 -0.06710317 -0.07494951 0.52775633 -0.9194845 0.07121932 -0.038739428 0.5958297 0.26380512 0.3769488 -0.5318352 0.52936804 -0.057816934 0.3079128 -0.37278777 0.104966626 0.11500842 0.38341045 -0.14991222 -0.32289413 0.35792354 0.7176182 -0.7298695 0.417813 0.7135968 0.0033619723 0.21198705 0.45910904 0.14931138 0.1704287 -0.52316976 -0.08529253 0.14881818 -0.15191664 0.054861333 -0.5237439 0.79900557 -0.086876936 -0.364942 -0.38895464 -0.16599688 0.040095516 -0.06893538 0.19652459
553 0.2267962 -0.056569256 0.48703998 0.022851275 -0.4245286 -0.15832663 -0.24364305 -0.0862926 0.053455856 0.04425133 0.2554921 0.5915823 -0.40997532 -0.19055772 0.09696826 0.2255209 0.0044110813 0.12549551 -0.040144183 0.67646587 0.46449146 -0.024222024 -0.08682515 0.55807364 0.2324818 0.0965462 -0.28849906 0.23044483 -0.22537836 -0.12930256 -0.3906727 0.4404667 -0.16244978 -0.12010984 0.50786173 0.32033002 -0.17727062 0.16751091 0.088995494 -0.13176608 0.39489347 -0.6466785 -0.49929875 -0.18195538 0.14889193 0.063282974 0.6088165 -0.18052453 -0.11121627 -0.061318476 0.47860214 -0.37353653 -0.28540108 -0.32954046 0.0134571185 -0.52682537 0.14074217 0.13239174 -0.79664195 -0.45796266 -0.05790231 -0.2816793 0.29435402 0.12575911
0 0.4487163 0.17771244 0.63157684 0.33530095 0.25519368 0.33332652 0.059068028 -0.21913913 0.4022594 -0.46528783 0.46344903 0.4494807 0.2945387 -0.087055765 -0.5866555 -0.1570997 0.019857207 -0.39877027 0.64869314 -0.38265216 0.023747498 0.28372154 0.6843191 -0.05702776 0.73647803 0.8799258 -0.039065737 -0.026675614 0.66732156 -0.18391402 -0.5598116 0.3013507 0.25979316 0.27488816 0.08729871 0.41866973 0.92266953 0.2940646 -0.4037162 -0.012632619 0.3492815 -0.55346006 0.13023862 -0.2857127 0.571371 -0.092671156 0.8396399 -0.23094024 0.34287423 0.07510009 -0.18760039 -0.10784939 -0.17986731 -1.2026362 -0.20287985 0.19081649 0.60381067 -0.38816264 -0.06787169 0.52145886 -0.72531044 -0.7220977 -0.31571335 0.1213382
536 0.57560706 0.1459075 0.4710437 0.003113468 0.3002446 0.18419951 -0.16477254 -0.12971286 0.41906676 -0.4834199 0.3329155 0.7103189 0.1223752 0.29445946 -0.87683856 -0.4223685 -0.0032729846 -0.07249804 0.7368867 -0.100813635 0.078768104 0.23974258 0.7063742 0.12974678 0.63970226 0.7993524 -0.14836974 0.06975869 0.41381204 0.061176855 -0.30192214 0.1817973 -0.01163747 0.18285008 0.024692414 0.63771045 0.8145614 0.07933595 -0.44786704 -0.22802286 0.367483 -0.33121112 0.15600333 -0.32265925 0.4697885 -0.15127695 0.7933257 -0.19983691 0.2527418 0.35229662 -0.018705428 -0.37876782 -0.09132841 -1.0957894 -0.25243896 0.2563868 0.30789262 -0.25399974 0.020624429 0.22373687 -0.8064222 -0.55906916 -0.47553414 0.29898986
806 -0.39294788 -0.20579953 0.19532113 0.47466308 0.11634406 -0.24202557 -0.060388256 -0.24727361 0.10384714 -0.3647329 -0.007130168 0.48649 0.31179518 -0.23095219 -0.11558392 -0.14309208 -0.28140783 0.05363146 0.037150025 -0.94822884 0.058080178 0.36340663 -0.07622156 -0.111707844 -0.50152755 0.03478552 -0.60668653 0.7240037 -0.0019795892 0.22681205 -0.84313846 0.40178904 0.16193041 -0.35977662 -0.030553536 -0.012951048 -0.2607652 0.22699168 -0.14303134 0.46211234 0.2919584 0.07535561 0.073593736 0.37658492 0.5285917 0.068729475 -0.34394258 0.7314104 -0.4336986 -0.43918154 -0.58823127 -0.517935 -0.002149759 -0.54678375 0.04647219 0.12469306 0.034386147 0.096852966 0.3123813 -0.38460153 -0.50718933 -0.48659083 -0.5898004 0.02833755
312 0.34689447 0.2200856 0.049719002 0.345238 -0.08390268 -0.08263812 0.05350189 0.028669424 0.17071037 -0.108863644 0.051045265 0.62256575 -0.3978074 -0.4479379 0.10090403 -0.3698032 -0.10390264 0.021895723 0.18213017 0.6166686 0.34031835 -0.3456577 0.30827895 0.5526063 0.18658529 0.054388534 0.113009535 0.025795385 -0.4752367 -0.12904225 -0.1262717 0.4776026 0.08663376 0.14267045 0.066631295 0.51791656 -0.24701983 0.082572944 -0.0071309023 0.4101232 0.27842385 0.020376489 -0.21705861 -0.09758275 0.36015806 0.17919755 0.11564892 0.10783245 -0.2498905 0.050398644 -0.30503753 -0.55583453 -0.49167117 -0.09485417 0.05763779 -0.29978573 0.500904 -0.04359372 -0.55987513 -0.7201436 -0.2571947 0.017270904 0.12074181 0.3325696
467 0.3528889 0.6148048 -0.017395135 0.5576654 0.014747771 0.002299135 -0.50019705 -0.3802412 0.5170186 0.15724286 0.43580887 0.4181009 -0.25097224 -0.67175466 -0.16528334 -0.34966308 0.16881077 -0.19234847 -0.15422072 0.58900714 0.8041863 0.07037281 0.62456566 0.6806591 0.15457745 -0.10348594 -0.36359662 0.39912406 -0.07463782 -0.048100762 -0.05163587 0.43524027 0.13570966 0.38136664 0.1464919 -0.01949708 0.255236 -0.072806485 0.02857461 -0.12832206 -0.1416783 0.12593877 -0.37774125 -0.0490448 0.5230833 0.08211183 0.5466013 0.43545166 -0.1172107 -0.23394059 -0.2105492 -0.4190383 -0.2994272 -0.01755104 0.2641565 0.2832739 -0.10841859 -0.30467314 -0.23756303 -0.84024286 0.021014273 0.030254792 -0.075834416 -0.019445673
204 -0.44324046 -0.06794823 0.73295265 0.17167096 -0.1731379 -0.17693897 0.068732515 -0.091451414 0.46633214 -0.75771475 0.37813154 0.023722956 -0.02051057 -0.10540672 0.13007864 0.40849528 -0.4322984 -0.32759574 0.27118656 -0.55451727 -0.10895305 0.21288162 0.04345169 0.14042458 -0.43262073 0.6183003 0.1790928 0.18946514 0.29812092 0.2810011 -0.61973596 0.3641756 0.08599432 -0.28373095 0.7383186 -0.12640439 -0.08933218 -0.16939257 0.098702304 -0.09426941 0.7228562 -0.27447677 -0.12349773 0.28236827 1.0766294 0.05528592 -0.18787868 0.42612898 0.3058514 -0.2530341 -0.27588242 -0.13985991 0.7009788 -0.50612086 -0.10219754 -0.09973236 -0.41075787 -0.110881954 -0.24802236 -0.2459845 -0.6295544 -0.6084043 -0.52015954 -0.21478893
730 -0.72031397 -0.059730757 0.56176144 0.39953017 0.050990354 -0.06685497 -0.3544518 0.26377916 0.34781933 -0.8468755 -0.039342526 0.9215618 -0.05712088 -0.019209305 -0.190216 0.58933043 -0.23532496 -0.22314441 0.2710682 -0.49081233 -0.11963184 0.23620631 0.10313976 0.049731128 -0.5543869 0.06644936 0.09557946 0.22528037 0.49112257 0.32283127 -0.7606905 0.4297828 0.19489506 -0.481251 0.32687902 -0.33513156 -0.23432323 -0.009535115 0.17561263 0.27122715 0.7136379 -0.2405418 -0.21861978 0.339335 0.6620862 0.28647533 -0.1156068 0.47612444 0.015609331 -0.61387926 -0.25652394 0.0705886 0.5079482 -0.3157205 -0.09176894 -0.33035597 -0.38966444 -0.28570038 -0.26166844 -0.38550434 -0.6469828 -0.3556486 -0.31580338 -0.38135698
83 0.65021735 0.13667046 0.3187981 0.062785685 -0.43545184 -0.47199315 -0.21452513 0.25173643 -0.64474875 -0.42431757 -0.27031502 0.8498312 0.5225909 -0.56685084 -0.3632874 -0.4795038 -0.6889008 -0.34533235 0.5737581 0.42755818 0.3433895 0.268354 0.29553357 0.23424461 0.6371819 0.039388306 -0.5196953 0.63639456 -0.06988307 1.0477936 -0.719952 0.5299672 -0.18776152 -0.1981189 0.35608175 0.3377871 -0.20966372 0.39760122 -0.10357842 0.45609248 0.61864555 -0.07429654 -0.1222669 0.026282823 1.357211 0.812752 0.47358137 -0.57115746 0.43294182 -0.19685449 -0.26939532 -0.3170825 0.16839729 0.6911468 0.20881356 0.12852448 0.48819667 0.7999322 -0.6298112 -0.103677236 0.61794823 -0.29323176 0.09068061 0.3195351
451 0.5480348 0.060838364 0.522364 -0.046449896 -0.19179639 -0.28132185 0.06852613 0.5681874 -0.6740682 -0.45582396 0.14379431 0.9383863 0.17612626 -0.35358346 0.024795773 -0.35674328 -0.29456812 -0.052535582 0.13546932 0.18837258 0.17480142 0.14299798 0.14980705 0.36046928 0.47078755 -0.30753702 -0.32169938 0.6467534 0.12521033 0.91927093 -0.6146278 0.24750364 -0.6652737 -0.0648883 0.49734885 0.11408307 -0.06339852 0.4866526 0.3084011 0.7172941 0.07533982 -0.019317929 0.025392616 -0.11258898 1.3187366 0.11428222 0.4428041 -0.5282593 0.22234425 -0.4415294 0.047793664 -0.42846492 0.4280686 0.34740964 -0.056010596 -0.1552923 0.41865304 0.13786246 -0.2614604 -0.06759114 0.40701598 -0.24884164 0.022694338 0.047924
162 0.518111 0.25289562 -0.016011553 -0.22865818 -0.13154325 -0.33150116 -0.32456085 0.41335392 -0.13084544 -0.60011804 0.22887589 0.35954052 0.29551777 -0.09639677 -0.4888717 0.3204055 0.06548849 -0.1960205 0.13756512 -0.04749871 -0.07468772 0.34133986 0.04484676 0.41571227 -0.4190779 -0.19269654 -0.45141804 0.53241765 0.3539988 0.4381509 -0.80694956 0.4856002 -0.41095993 0.15896748 -0.054416105 0.5352296 0.09791552 0.46400997 -0.111076094 0.006483318 -0.20966342 0.41431007 -0.52631646 0.16087809 0.75927377 -0.36397246 -0.08196611 0.7974681 0.18794666 -0.269143 -0.46348876 -0.030689158 0.34495977 -0.11314629 0.1411152 -0.11626416 0.600935 -0.23634395 -0.053547546 -0.3951762 -0.056084335 -0.26576987 0.04742507 0.3330929
386 0.51147527 0.5431374 0.2612312 -0.3427872 -0.059285197 -0.45658332 -0.3521783 0.20641014 -0.36182305 -0.6570471 0.26926267 0.6712348 0.30356282 -0.38580233 -0.45917138 0.3077523 -0.02148666 -0.16502215 0.05735068 -0.06517716 -0.2072639 0.30315536 0.0011598667 0.23821527 -0.43865493 -0.04288244 -0.21277744 0.5346716 0.29480398 0.3224655 -0.70951587 0.48030046 -0.25760612 0.32737407 -0.36089104 0.44766116 0.2394649 0.46470624 -0.24933633 -0.017054658 -0.27134076 0.5039314 -0.63523936 0.12483714 0.7966303 -0.19654268 -0.16563363 0.64398587 0.22261935 -0.10352018 -0.5788954 -0.21168175 0.4829759 -0.0031841716 0.16539639 -0.32544887 0.8040043 -0.48279032 -0.03260787 -0.3453267 -0.18769376 -0.21815221 0.018100977 0.5824276
23 -0.058738735 0.2257788 0.46805334 -0.10801634 -0.40330702 -0.27258712 -0.5204632 0.2853509 0.46290058 -0.49006012 -0.019819647 0.98837805 -0.33551317 -0.115656145 -0.5993495 -0.62161916 0.20483236 -0.32403925 0.034532633 0.03652024 0.043487176 -0.036488045 0.5367764 0.25794172 0.47544417 -0.10328296 -0.109609485 -0.42836684 0.37120962 0.20388377 -0.48398685 0.045786988 -0.060404245 -0.10876516 -0.24666204 0.8193342 0.40172952 0.5008201 -0.5093728 -0.37101245 0.13996966 0.04318232 -0.7298296 -0.3680128 -0.06935679 -0.22458513 0.13635275 0.7017871 0.41975528 -0.429799 -0.82923925 -0.67401546 -0.34525615 -0.0013938656 0.6302067 0.038639598 0.8437881 -0.01181917 -0.6527285 -0.17563605 0.08237487 -0.10868009 0.26497424 0.95668304
794 0.03396076 0.4117582 0.42997316 -0.20380291 -0.6842484 -0.25580662 -0.52958393 0.21031478 0.59029984 -0.62245667 0.15125984 1.074869 -0.21699385 -0.080192104 -0.6993346 -0.45196974 0.0060394583 -0.43791595 -0.045524523 0.23629946 0.08824892 0.04114471 0.37812674 0.3912483 0.47356528 -0.0975856 -0.04503637 -0.33877248 0.09358667 0.4521257 -0.65294486 0.0958073 0.04483955 0.03339103 0.030302411 0.79368144 0.33836508 0.47364762 -0.5837907 -0.22436021 0.1667394 -0.07589962 -0.97416705 -0.3150908 0.13518299 -0.27852067 0.19641748 0.7958817 0.5072341 -0.29092884 -0.6102468 -0.6500798 -0.36723766 -0.20634957 0.3876518 -0.046718795 0.8454403 0.064332694 -0.62425 -0.012672912 0.18229908 -0.004073101 0.106775515 1.007841
486 0.41370508 0.13157785 0.23967572 0.28792948 -0.03050447 0.4330653 0.32206345 -0.22089717 -0.008784531 -0.56359017 0.07132113 0.18874726 0.0017385426 -0.23013704 -0.07828141 0.17211466 0.45102194 0.25140503 -0.05756888 0.06685225 -0.1440213 0.5103819 -0.09426181 0.061200358 0.20792632 0.19990252 -0.16661984 0.3124675 -0.16712734 0.047377236 -0.817085 0.35999712 0.16668254 -0.1309328 0.73146385 0.07071921 0.34596714 0.31791404 -0.29896843 0.43635646 0.16797002 -0.36158386 -0.21287468 -0.46273825 -0.07676876 0.55631196 0.5736692 -0.06924659 0.010708071 -0.25974384 -0.008763811 -0.14048031 0.34890917 -0.3226338 -0.25943023 0.08078328 -0.02171419 -0.20720764 -0.46247035 -0.03760344 -0.4816417 -0.5414911 0.41103476 0.620281
469 0.2758664 -0.19220777 -0.09059694 -0.120141044 0.05977168 -0.23928627 -0.102483615 -0.006056276 -0.23031954 -0.914964 -0.6455654 0.45379767 -0.46270606 -0.31998846 -0.52895856 0.025158226 0.16922815 0.69620246 0.03999576 0.6477335 0.04029575 -0.1545683 0.3132011 0.5582973 -0.009784849 0.6571054 0.19654283 0.80494547 -0.07488129 -0.5137433 -0.32722396 0.19632205 -0.13421096 -0.31777292 0.64715195 0.044234738 -0.100880265 0.49388075 -0.36421373 -0.24550158 0.058843385 -0.77514094 -0.83733445 0.4361933 0.029144641 0.5508285 0.069130264 -0.18228643 0.39886278 -0.212907 0.37142417 0.2392748 -0.029860053 -0.6043509 -0.34825945 0.13869181 0.72518164 0.11849263 -0.30314136 -0.3871072 -0.02528799 -0.24355733 -0.30048218 0.50125396
166 0.48242477 0.43264368 -0.06795079 -0.063231915 0.2491235 -0.22423375 -0.54086363 0.28153184 0.0031270576 -0.55313885 0.3423357 0.5576645 0.14889832 -0.19944416 -0.11449241 0.18827431 0.35998705 -0.24325775 -0.020459382 -0.1471358 0.1880384 -0.31582013 0.15166023 0.62576604 -0.80159944 0.2558615 -0.43583778 0.6225579 0.06742477 0.3954047 -0.18975866 0.2780005 -0.40266567 0.27694154 -0.46155664 0.6479165 -0.2768887 0.41238216 -0.08112958 0.039313026 0.24775799 0.6418876 -0.6957395 0.04161873 0.63133985 -0.13541663 -0.06487675 0.35029536 0.38852218 -0.36686784 -0.6159951 -0.57630605 0.2583772 -0.34601462 0.13534297 -0.28069863 0.9290977 -0.35474935 -0.41394427 -0.34986094 -0.2598854 -0.2049026 -0.06313042 0.22140276
364 0.2590545 0.5727228 0.014150221 -0.058725458 0.03055988 -0.37722558 -0.53938997 0.25860322 -0.24042606 -0.85783136 0.48571512 0.6372457 0.33729178 -0.26720968 -0.26157376 0.002430938 0.010194489 -0.0134336585 -0.11426172 -0.17889933 0.104665615 -0.007703683 0.16044408 0.48115408 -0.8276905 -0.14595671 -0.32579416 0.51764166 0.01326112 0.42645332 -0.5194475 0.25435874 -0.5609211 0.20079719 -0.51063114 0.509036 0.052639283 0.47230658 -0.005345869 0.011753275 -0.025364796 0.6491867 -0.5020686 0.028702324 0.7979311 -0.23955129 0.034265738 0.7157254 0.25237507 -0.22068708 -0.37896386 -0.50747186 0.3976977 -0.29890135 0.32847294 -0.34738573 0.81472796 -0.26888174 -0.34085658 -0.2155499 -0.26909968 -0.281411 0.016395587 0.3342661
79 0.7636648 -0.0065570213 0.62395036 -0.3688097 -0.25785792 0.22651549 0.3001442 -0.16612662 -0.19686171 -0.54173374 -0.56304973 0.41282025 -0.08328367 -0.4271723 -0.22802353 0.18305007 0.05883785 0.17454922 0.17217213 -0.19105071 -0.13084169 0.02919338 -0.23439083 0.062101007 -0.029789375 0.24972793 -0.12318673 0.3804155 0.3830566 0.17088217 -0.84168357 -0.05811522 0.06375653 -0.03846879 0.015150039 0.35489485 0.58513486 0.12521881 0.18788055 0.08744805 0.26204696 0.44420722 0.09340053 -0.29216444 0.030786723 0.0958697 0.48236287 0.40899253 -0.36612925 -0.03942693 -0.26497045 -0.21583705 0.38142797 0.032169625 -0.37469962 0.116537 0.4136614 -0.10419817 -0.2618471 -0.3233027 -0.2514682 -0.6857441 -0.35621417 0.07324905
440 0.49537516 -0.28836673 0.57918614 -0.4187404 -0.24620807 0.150643 0.19911058 -0.00018476033 -0.30821213 -0.6353838 -0.8674138 0.7399132 -0.16269735 -0.5413371 -0.12057709 0.22450839 -0.26718378 0.50351614 -0.47548088 0.32559878 0.052511428 0.1718613 0.06507961 0.16786198 0.3645221 0.29906148 -0.1710188 0.65001553 0.40620163 -0.117612824 -0.6050393 -0.19614129 -0.28549737 0.014915169 -0.011091689 0.3352052 0.008810533 0.33927545 0.11070125 -0.24196924 0.27835742 0.056537256 -0.40361142 -0.48381287 -0.2499465 0.32618344 0.43627056 0.2563111 -0.06141559 -0.07715349 0.13260485 -0.14458774 -0.3836759 -0.08231719 -0.15916994 -0.18201703 0.1565348 -0.4095527 -0.4268791 -0.5025324 -0.34742397 -0.58516663 0.022011742 -0.053156074
274 -0.35824203 -0.18631499 0.7995843 0.67125285 0.11491477 -0.5301395 -0.13869558 -0.20053901 0.16062857 -0.48419252 0.551442 0.94820225 0.46246424 -0.6620153 0.14796835 0.6572878 -0.085667245 -0.21089168 0.6306146 -0.09440694 0.33309296 0.4113583 0.2474023 0.69129574 -0.85889703 0.080806136 -0.33929384 0.2208613 0.008241012 -0.32161677 -0.41931075 0.2692707 -0.114662014 -0.53762674 0.5342523 -0.35808808 0.019157194 0.14040095 0.44063717 0.67401993 0.41203144 -0.7253062 -0.29526076 -0.15070298 0.6480326 0.2490414 0.07870757 1.2992011 -0.8691586 -0.14831664 -0.7080249 0.102966234 -0.5385055 -0.8300507 0.3925465 -0.025536403 0.05429939 -0.08779263 -0.2379312 -0.2575795 0.04407786 0.61497927 0.43711567 0.18114215
832 -0.50554484 -0.24423069 0.8778113 0.53613913 -0.0839317 -0.5025533 0.024084209 -0.34979248 0.20334113 -0.37691236 0.5487071 1.0665957 0.4227632 -0.598805 0.33921853 0.38607866 -0.087596126 -0.0836609 0.5697722 -0.108100206 0.22689001 0.4747571 0.3565592 0.37291566 -0.7817058 0.040370945 -0.43423483 0.14174226 0.09070539 -0.35288605 -0.4886717 0.31281033 -0.09731196 -0.57031685 0.6052234 -0.29504445 -0.38804725 0.15194361 0.21020432 0.5725148 0.3428186 -0.8973751 -0.35688823 -0.33339602 0.6259865 0.18369749 0.22545934 1.4675608 -0.84234697 -0.44599822 -0.71527827 0.122487605 -0.43948442 -0.7331289 0.27641708 0.10014188 -0.10441402 -0.030593552 -0.09907833 -0.49617442 -0.23001662 0.456995 0.37816244 0.16297013
14 0.07471128 0.40472648 -0.5604757 0.490565 0.18643413 -0.20003709 -0.002810004 0.4004788 -0.38088542 -0.26286063 -0.45713663 0.26286173 -0.3940915 -0.1326777 0.23737013 -0.8763989 0.16727696 0.14058448 -0.013801347 -0.24979651 0.29196265 -0.12200048 0.16949087 0.5578837 0.20751666 0.4618911 0.29372516 1.0318023 -0.29329863 -0.07383086 -0.6713335 0.5385662 -0.3489634 -0.69087666 0.008580487 0.29122317 0.3115247 0.44045755 0.2384648 -0.25303614 0.06804104 -0.6615848 0.33587646 0.17577629 0.473122 0.009480929 -0.3073309 0.3187234 0.46516776 0.37036964 0.011920638 -0.16159964 -0.43158975 -0.2142252 -0.28907076 -0.12768407 0.4453412 -0.03326117 -0.6212441 -0.5727555 0.12740342 -0.5751036 -0.070704184 0.59848756
673 -0.16896793 0.2185131 -0.50349426 0.44011238 0.094438605 -0.11368963 -0.47395015 0.25372806 -0.40961996 -0.58697116 -0.17068923 0.18501115 -0.79755926 -0.04080722 0.2967965 -0.70854545 0.08429477 -0.05253991 0.012466557 -0.260775 0.20275271 -0.05587458 0.08016996 0.5548097 0.14467789 0.23726709 -0.029340174 1.1717759 -0.1747258 -0.13849606 -0.37356967 0.57493275 -0.09274975 -0.94126993 0.12018465 0.17093256 0.2707171 0.29386848 0.0097035505 0.13278328 0.11839634 -0.21805765 0.27377808 0.57172894 0.694457 0.37822354 -0.42416376 0.27010965 0.3088771 0.22948131 -0.029639738 -0.060599398 -0.38855168 -0.30187693 -0.20084651 -0.05008484 0.51691335 -0.49549127 -0.43229315 -0.48209384 -0.0031214883 -0.32195243 -0.03449182 0.58028287
107 -0.011794662 -0.16222465 0.68664646 0.13496016 -0.48218265 0.15452735 0.092346914 -0.011705616 -0.49859262 -0.93426406 -0.23076181 0.45982048 -0.5261978 -0.5258582 -0.43102124 -0.04556099 -0.34507093 0.34520698 -0.23636983 0.23519234 0.28005564 0.0014211744 0.11623174 0.24387147 0.34628734 -0.25807807 0.26137927 0.117849685 0.021282692 -0.3710534 -0.90006596 0.36524147 -0.02618744 0.105491064 0.44983795 0.19037737 -0.22432047 0.49159616 0.008289651 -0.62812173 0.2875718 -0.020505035 -0.4026972 -0.5645075 -0.058150604 0.7516015 0.29759288 -0.16176388 -0.13161811 0.3481433 0.36171556 -0.024079846 -0.28005737 -0.7904844 0.1772236 -0.36187616 0.023432996 -0.5552087 -0.06579626 -0.7136088 0.03546842 -0.49775282 -0.13863988 0.15466867
109 0.6401437 -0.46971768 0.77062947 -0.11240115 0.59459054 -0.00017461974 0.08684647 0.12133768 -0.5665127 -0.5764506 0.012984249 0.5649034 -0.24654 -0.24897039 -0.41384456 -0.34356624 -0.06176495 0.015563869 0.8958519 -0.41506904 -0.39664337 -0.3840079 0.68945664 0.50406414 0.40623325 -0.30768773 -0.38728648 0.29784343 0.16119324 -0.047380555 -0.647001 0.0924054 0.35003608 0.23394854 0.12764347 0.22875495 0.7309572 -0.3835045 -0.21765858 0.4380876 0.7539125 -0.19977856 -0.58666384 -0.17106447 0.22817494 0.40848202 0.39764264 0.21815723 -0.12282536 0.08875183 0.40216222 -0.1956526 -0.14266591 -0.8482683 -0.22969916 0.73945737 -0.019915022 0.054874606 -0.52105707 -0.098216355 -0.5816996 -0.32883152 -0.12412322 0.044679176
691 0.92723656 0.12094382 0.4777866 -0.50834 0.32654464 0.1059066 -0.029799365 -0.2723635 -0.5398249 -0.75779414 -0.5937637 0.3891237 -0.17940634 -0.47406358 -0.29272217 -0.07641976 0.3151738 0.23544572 0.7903318 -0.47242442 -0.4502736 -0.2376793 -0.1297742 0.32115474 0.5086252 -0.048905358 -0.20490476 0.6647747 0.11484507 -0.19831862 -0.8612242 0.03529987 0.055644367 0.10816391 0.03843373 0.1613128 0.70176935 -0.04796458 -0.011034924 -0.19649953 0.97360677 0.25711304 -0.44473293 -0.08097846 5.002821e-07 0.4418937 0.3393585 0.4040825 -0.03973821 0.32057434 0.15032601 0.027609156 0.109987296 -0.1342218 -0.06741062 0.76320624 0.14328082 0.25784886 -0.4956993 -0.43071258 -0.9776438 -0.42777017 -0.43817306 0.24595046
121 0.43894202 0.31650177 0.6081677 0.13745275 -0.089875445 -0.1628865 0.08096296 0.5316876 0.076890334 -0.5532209 -0.6055608 0.9898818 -0.13662536 -0.4497612 -0.3369176 -0.1774684 -0.37339252 0.0687179 0.19151151 0.3279135 0.1819556 0.07605102 0.5641639 1.0521964 0.6555525 0.002948126 -0.18386522 -0.47541365 -0.22547996 0.3143294 0.0042260713 0.31825554 0.16245313 0.15340355 -0.07670868 0.67136973 -0.10706979 0.025011756 0.037393503 -0.31562427 0.094710805 -0.36916184 0.41518426 -0.31998762 0.15022281 0.27529952 -0.042791437 0.01672165 -0.19096622 0.25892952 -0.3726271 -0.28206143 -0.066149734 -0.06155697 -0.19412336 -0.08472392 0.21528238 -0.51514673 -0.9795184 -0.62474537 -0.064456575 0.18084435 0.5863673 0.71548784
637 0.5087787 0.26716822 0.6324197 0.34160435 -0.05351572 -0.4233332 -0.006542149 0.58364016 0.21319522 -0.857286 -0.601885 1.1973195 -0.0898363 -0.47091022 -0.4236482 -0.33053133 -0.26259556 0.021497438 0.20648928 0.26901528 0.46556804 0.084606715 0.38745144 1.1644415 0.59960115 0.10746691 -0.2775224 -0.41381022 -0.2753448 0.47561422 0.18477532 0.2551053 0.16373326 0.18381481 -0.121491425 0.609668 -0.1503555 -0.06699014 0.17419346 -0.5294165 0.064012475 -0.2950687 0.38027173 -0.50436383 0.10964403 0.55858886 0.0735639 0.070853576 -0.1908046 0.2807675 -0.3195246 -0.27888432 0.04004977 -0.25569504 -0.06495279 -0.0051135165 0.31793976 -0.3807055 -0.928929 -0.62439156 -0.11030449 0.1214519 0.6786835 0.74732125
160 -0.006460163 -0.012306888 0.40485546 0.43728697 -0.2583998 0.2443588 0.32844925 0.17531078 0.14431566 -0.31849304 0.24635223 0.04367549 -0.14976387 -0.16472654 -0.12830819 -0.08106193 0.10074608 -0.06709711 0.35930067 -0.21350168 -0.17602578 0.16815397 -0.11969082 0.26596454 0.24478772 0.56549126 -0.026101504 -0.013276624 0.10012404 0.19360353 -1.422822 0.0335373 0.38684127 -0.008304693 0.2926273 0.22390488 0.43020862 0.027024861 0.01695416 0.096969284 0.12102199 -0.39213642 -0.2607229 -0.32727933 0.3140705 0.1962535 0.61409855 -0.12869962 -0.050074 -0.21240242 -0.25257692 0.14970511 0.17242382 -0.4215053 -0.13657247 0.26490766 0.22988865 -0.0670039 -0.65332603 -0.1799964 -0.6391266 -0.7225468 -0.2443004 -0.025887147
561 -0.07736375 0.10733398 0.50228435 0.34875357 -0.08231308 0.087880224 0.49408257 0.13719372 0.31757516 -0.5275432 -0.03613945 -0.11872483 0.06753064 0.1168293 -0.10860389 0.13028407 0.21641088 -0.113966584 0.08832595 0.09548008 -0.17126574 0.28068984 -0.12169012 0.22058956 0.26677838 0.14540929 0.14549176 -0.11506746 0.1755317 0.23239633 -1.0291864 0.07967071 0.041052245 -0.21411814 0.2990286 0.20993495 0.24920258 0.2395029 0.07457563 0.05743345 0.58349866 -0.64534855 -0.3795746 -0.32643035 0.23925269 0.63951004 0.36644828 -0.27611345 -0.07255927 -0.20747747 -0.037431814 0.07205662 0.35166827 -0.36421427 -0.10840485 0.40779838 0.092082284 -0.25548828 -0.7278966 -0.2559118 -0.99454117 -0.6816313 -0.18916695 0.2648448
130 0.6640077 0.12144587 0.35715142 0.19542217 -0.26454476 -0.37907782 -0.14579162 -0.19417745 0.54710174 -0.14143908 0.28701025 0.12283975 -0.42006782 0.10286481 0.27731186 -0.052084748 -0.12264201 -0.13981274 0.103779726 0.35792834 0.82048035 -0.36652133 -0.16011405 0.46592116 0.4383072 -0.31226465 0.13020228 0.15355226 -0.38215846 -0.14197008 -0.09575623 0.27940562 0.15069872 -0.053920098 0.22337794 0.6090796 -0.27016184 0.5620236 -0.20255378 -0.048523765 0.67335 -0.64376277 -0.3399034 -0.18928039 0.31790495 0.2938392 0.29671007 0.6740182 0.09767685 -0.16427489 -0.05571919 -0.3332109 -0.5147235 -0.21408705 0.57590693 -0.43280357 0.55814177 0.14203963 -0.86976576 -0.18616913 0.0066447244 -0.48691696 0.029091334 0.50948095
459 0.56334066 0.19921643 0.26503012 0.20772071 0.029661927 -0.06793234 -0.16307223 0.06302881 0.34123564 0.034104336 0.08510289 0.3741494 -0.47385404 -0.22442694 0.088484064 -0.30652264 -0.15487553 -0.11642516 -0.086035326 0.4625812 0.53213745 -0.086392745 0.12407153 0.6327314 0.22916107 -0.03511977 -0.032241702 -0.09597385 -0.41919044 -0.21473838 0.007952478 0.4389361 -0.15531006 -0.1409448 0.43141696 0.5723255 -0.061907373 0.60637605 0.051882364 0.2807896 0.5646194 -0.32678306 -0.383402 -0.19560295 0.3360903 0.21693535 0.09942452 0.430535 -0.16764697 -0.07757483 -0.070992894 -0.49149883 -0.25973716 -0.16888934 -0.033557184 -0.39690226 0.46593606 0.05505187 -0.9504623 -0.3655218 -0.02492503 -0.08973527 0.3534941 0.3009344
6 0.23320161 0.18128954 0.11026374 -0.047680266 0.12097703 0.07500731 -0.1700322 -0.6272319 0.54384387 -0.18192072 0.56998146 0.5675044 -0.73731136 0.058751717 -0.36320817 0.091434345 -0.04963272 0.21227561 -0.2798485 0.16494475 -0.061801184 0.100223236 0.9159243 0.40486345 0.45400137 0.021887366 -0.41070083 0.17261349 0.4160643 0.3871957 -0.31852683 0.31300226 -0.073641516 0.5795385 0.019194858 -0.09331859 0.18257187 -0.04606705 -0.19280598 -0.09547662 0.42756242 -0.33911872 -0.4258448 0.114787385 0.6339224 0.040521927 0.7394762 0.3099621 0.054421417 0.04076986 -0.050438207 -0.51510113 -0.4035509 -0.46005887 0.51050854 -0.037257206 0.0489623 -0.026952604 -0.12336696 -0.43380314 0.56370944 -0.08066189 -0.45359257 0.24591431
540 0.4386368 0.38030824 0.27794597 0.031316172 -0.115570046 0.08072017 0.5563422 -0.091781884 0.07635961 -0.48627824 0.2505944 0.77844715 -0.4655609 0.22875176 -0.24590255 -0.110254526 -0.07829216 0.26098213 -0.19870412 0.5409087 -0.40130568 0.3207348 1.389202 0.48169473 0.4482972 0.20220661 -0.1712706 7.047033e-05 0.45240897 0.040380884 -0.17002378 0.1580526 0.083744995 0.42409274 0.08594876 0.08828881 0.46311232 0.37890932 -0.3103109 -0.4352819 0.47719088 0.15040742 -0.20319928 -0.09150529 0.2757868 0.5345229 0.3355043 0.2919258 -0.16856737 -0.15449181 -0.36204055 -0.4398244 -0.3442901 -0.80268705 0.024835782 0.0021001832 -0.30205503 -0.18376055 0.37519345 -0.15093796 0.0645268 -0.75958025 -0.07882054 0.3501416
181 -0.41081282 0.45151097 0.13171999 0.4995554 -0.06506148 -0.41474992 -0.18161541 -0.35750967 -0.06318658 -0.5586178 0.1734793 0.36863542 -0.3109818 0.10077866 -0.40883392 0.083023936 -0.21798407 0.10037163 0.06531645 -0.45183113 -0.029417025 0.40131265 0.26846913 0.3226491 -0.39467123 0.06812553 -0.356523 0.1310381 -0.14089145 0.3036683 -0.939184 0.51668745 -0.15953647 -0.041081302 0.23443127 -0.10837932 -0.14628835 -0.0031979238 0.36712605 0.29286736 0.5286112 0.17036733 0.03694531 0.366262 0.6731953 -0.14011496 -0.07343564 0.49003458 -0.20643926 -0.78143674 -0.26445332 0.007916523 0.055214684 0.22062309 -0.09394082 -0.09267737 -0.3492792 -0.43216592 0.090358265 0.09071656 -0.29458562 -0.60149056 -0.65151346 0.14822218
1 0.5283652 0.30683374 0.08721074 0.5747456 -0.32047996 0.36459276 0.40168056 0.28855383 0.1559093 -0.94180894 0.36231086 0.95758307 -0.21369745 0.047108438 0.078190476 -0.32485834 0.05925863 0.11052914 -0.030717706 0.22429048 0.27481648 0.24593908 1.3157327 0.38299674 0.5197067 -0.09938623 -0.35598156 0.11014275 -0.37374872 0.31100428 -0.33625433 -0.055569943 0.049029086 0.2992264 0.07824336 -0.1912372 -0.09847022 0.1473823 -0.09981162 -0.87364507 0.55482006 -0.19222705 -0.40798035 -0.028322926 0.02269201 0.16162008 0.44829053 0.28596902 0.034396 0.38231328 -0.5277804 -0.13685425 -0.29664537 -0.59265506 -0.541339 0.33236268 -0.20727165 -0.15003157 -0.25589228 -0.066356756 -0.19469778 -0.42730746 0.53417313 0.302636
464 0.60285175 -0.120058894 0.080248065 0.5053204 -0.009026551 0.5116327 -0.14284611 0.33206365 -0.24893142 -1.1140258 0.29235697 1.2363431 -0.20189662 0.47052765 -0.3163616 -0.38960713 0.10167086 0.20001148 0.07039124 -0.04406342 0.5790475 0.4481995 1.18829 0.5919533 0.33775666 0.14526378 -0.3440554 0.5419707 -0.28246427 -0.10185526 -0.49533722 0.080512755 0.38727996 0.10390772 -0.26166117 -0.3773517 -0.17472006 0.6573147 -0.4158854 -0.69217277 0.52748567 -0.37002125 -0.42182705 0.15623115 0.09029814 0.39653575 0.3574946 0.15666041 -0.034537088 0.6644979 -0.42299026 0.20245859 -0.114120126 -0.40660048 -0.2771808 0.22804609 -0.28585014 -0.024382455 -0.21490596 -0.041165598 -0.21059403 -0.23684277 0.16183123 0.61217153
311 0.0702396 0.025807954 0.37420008 0.28104156 -0.97025377 -0.29548958 -0.2403322 0.1441116 0.5727368 -0.06522814 -0.25138703 0.9342138 -0.19236848 -0.32803884 -0.08706427 -0.30628458 -0.31898013 -0.51923126 0.12513414 0.55229574 -0.116885446 0.065057434 0.143057 0.47180805 0.2473865 -0.072091736 0.24913697 -0.08142451 -0.15983601 0.16887389 -0.6463882 -0.18594931 0.058731154 0.47780505 0.43837842 0.130952 0.16285722 0.9436908 -0.19702038 -0.10851949 0.37829363 -0.12502001 -0.44627178 -0.509706 -0.058063235 0.10807474 -0.05037826 0.47286904 0.41504368 0.3009156 -0.39767992 -0.6436787 -0.65936077 0.0034567625 0.28059262 -0.049066283 0.68929875 -0.22258893 -0.95837253 -0.38478413 -0.34403035 -0.49587873 0.13251078 0.55601573
452 0.10170977 -0.10309266 0.42860863 0.3330014 -0.951661 -0.2351586 -0.12427984 0.19222169 0.32423022 -0.15320508 -0.39019546 1.0808613 -0.13295376 -0.3935705 -0.108963504 -0.20968355 -0.38266405 -0.5653942 0.06974293 0.6670353 0.21772012 0.25286466 0.14765471 0.7042629 0.23017308 -0.25519177 0.23199861 -0.24168013 -0.30459744 0.2917622 -0.78650784 -0.17198566 -0.04884695 0.24579893 0.16450454 -0.020827625 0.25537837 0.54996896 -0.37311605 -0.101303756 0.44523898 -0.18018898 -0.3866969 -0.7085858 -0.13706517 0.05874795 0.020877976 0.70505655 0.393782 0.5446662 -0.5609176 -0.7416205 -0.47589788 0.20938046 0.17830122 -0.15175232 0.5582834 -0.16057211 -0.78487325 -0.6424486 -0.12674259 -0.49547407 0.069631875 0.60911167
230 0.6734468 -0.4996917 0.33415535 0.30839425 0.5696159 0.34126666 -0.3602616 0.3052165 -0.53408486 -0.7555977 -0.035352256 0.2150251 0.14600016 -0.24394387 -0.059643395 -0.6761931 -0.09702562 0.11566243 0.4603721 -0.30774403 -0.016547345 -0.5493459 0.5333886 -0.27496096 -0.013246395 0.18607645 -0.83812904 0.40527582 -0.20746005 0.128802 -1.0334113 0.34512264 -0.386366 -0.5262303 0.2598404 -0.30567962 0.1607303 0.38711524 -0.3330754 -0.048781227 0.3349349 -0.50531435 0.5208453 0.2849255 0.83869404 0.021721898 -0.011874297 0.053740535 -0.12527803 0.25104758 0.41561592 -0.27276203 -0.5625375 -0.058854356 0.33484405 0.64520025 0.40752146 -0.5266119 -0.7358984 -0.2699672 -0.18530647 -0.6284442 0.21822017 0.768162
809 0.48796982 -0.51278454 0.19538409 0.15736611 0.3855708 0.38423133 -0.11806182 0.30961365 -0.39002115 -1.000143 0.17883793 0.42679733 0.1947433 -0.24777696 0.32361105 -0.354691 0.29428232 0.039857697 0.28692 0.044026054 -0.1961289 -0.42089635 0.9689726 -0.0011546357 0.24764387 0.48050863 -1.0324283 0.057380084 0.11011472 -0.003961753 -0.68380785 0.39046562 0.14803489 -0.26985738 0.0760668 -0.43493515 0.9936899 0.2413257 -0.32313088 0.39555857 0.218344 -0.336106 0.43804845 -0.015932696 0.2679427 0.27428335 -0.1229532 0.1959585 0.014820451 0.042734936 0.40880913 -0.31745225 -0.47091913 -0.29676244 0.3224225 0.34432277 0.118708074 -0.15119076 -1.0187185 -0.43062487 -0.23713358 -0.48286557 0.05123035 0.49192232
174 0.17725311 0.41957092 0.29675588 0.07480721 0.35629228 -0.037306953 -0.5274939 -0.15676986 0.62854683 -0.20334658 0.38678578 0.25433582 -0.2389185 -0.50454736 -0.3056301 -0.30731475 0.09141109 -0.258688 -0.025314063 0.34306595 0.4267553 0.17662184 0.05490239 0.57915676 -0.07728156 0.3717335 -0.14195135 0.5057657 -0.24607219 0.11535116 0.20674972 0.46847484 0.38021225 -0.1667625 -0.367712 0.37784284 -0.09176375 0.6554472 0.01563415 0.6340261 0.313138 -0.034814544 -0.11618749 -0.20677395 0.43477297 0.29957712 0.19990648 0.46721056 0.22661144 -0.15511355 0.07680523 -0.1997221 -0.2716334 0.22547987 0.06133375 -0.3137925 0.21893433 -0.64725477 0.34779543 -0.73953193 -0.2756377 -0.15241091 -0.07196919 -0.13418713
369 0.122110456 0.8381619 0.40424004 0.3921209 0.2104082 0.045115367 -0.6234502 -0.022207838 0.4950051 -0.18455291 0.3793142 0.25499153 -0.39428654 -0.6177063 -0.41424158 -0.32362926 -0.12467467 -0.05606363 -0.11873021 0.5277367 0.61847764 -0.14511535 0.2833303 0.48883274 -0.16502346 0.49283493 -0.4529816 0.39217094 -0.11687331 0.12119165 0.22719896 0.652562 0.24542847 0.117291704 -0.14313968 0.3447783 0.039975505 0.20897554 -0.18462738 0.3421573 0.4255563 0.021662524 0.022163974 0.03385066 0.46904877 0.14790113 -0.03689071 0.34879473 0.038967565 -0.047814433 0.046503253 -0.11799758 -0.022439288 -0.07481828 0.1978758 -0.31904483 0.13573924 -0.5503887 0.2502694 -0.68216974 -0.5982496 -0.27392617 0.1069654 -0.020747012
199 -0.4880845 -0.095831156 1.1027731 1.1748282 0.62017864 -0.5525325 -0.24158682 -0.16898061 0.17358837 0.46149036 0.61176825 0.40307912 0.5855098 -0.591066 -0.29967457 0.2504155 -0.2962256 -0.4622373 0.70609665 -0.034611788 0.12756361 0.7736659 0.39776486 0.11551332 -0.39567044 -0.058865786 -0.3101164 0.62740487 0.22480397 0.105122276 -0.5890252 0.52539796 0.26173195 -0.45899516 -0.065775715 0.25991482 0.069809854 -0.09859581 0.18183045 0.10140975 0.1389117 -0.67326444 0.012848162 0.18679062 0.5415824 -0.1515737 -0.29386193 0.68075866 -0.32111603 -0.12491799 -0.9534084 0.21391495 0.13021673 -1.0418048 -0.033873476 0.07446458 -0.017156847 -0.4547837 -0.3046617 -1.3324568 0.1745577 0.13235909 -0.221476 0.19979608
824 -0.55520594 -0.3865278 1.0031174 1.0571517 0.5404022 -0.31073698 -0.26550668 -0.2781763 0.35873303 0.42396325 0.5304015 0.65964013 0.576642 -0.67305547 -0.32595703 0.24276073 -0.25481495 -0.28218994 0.6504608 0.12449313 0.23571025 0.66234833 0.20098786 0.20099111 -0.37538725 0.07015216 -0.37870818 0.6318469 0.096168384 0.14584783 -0.6651251 0.25709817 -0.012444009 -0.5010897 -0.024225274 0.21214892 0.068544626 -0.08698899 0.26164696 0.2244109 0.049864676 -0.68845254 0.2219532 0.07519095 0.44303396 0.11670122 -0.43271628 0.62726516 -0.45822448 -0.14297716 -1.1797773 0.40091312 0.13885285 -0.9295779 -0.026295288 0.044513207 -0.014015072 -0.31528124 -0.2024863 -1.136964 -0.008682411 0.026728453 -0.1382313 0.08675426
69 0.45914853 -0.6228831 -0.19788155 0.1390367 0.14123033 0.24378362 0.06000083 0.24176595 -0.43764466 -0.9664315 0.1893295 0.56598836 0.2471649 -0.18876469 0.766122 0.04596075 0.1647682 -0.20655082 0.35333702 0.3120592 0.16637765 -0.5581939 0.6908559 0.41489726 0.14238007 0.1106714 -0.52591115 -0.24219671 -0.14861378 0.22115059 -0.60955185 0.5689239 0.24757524 0.21717906 -0.10536086 -0.11083 0.5391975 0.25122848 -0.12479361 0.41925785 0.64420444 -0.5132457 0.26956904 -0.18580207 -0.12910047 0.30106968 0.24036095 0.19816054 0.2190221 0.07895235 0.2157741 -0.5169289 -0.26369652 -0.14630814 -0.1806621 -0.124799885 -0.11794919 -0.27366844 -0.7116462 -0.564282 -0.17857812 -0.44582352 0.52307373 0.33678454
525 -0.018943856 -0.64074105 0.24777384 0.5716172 0.16134848 0.06715905 0.03574935 0.31075308 -0.35281646 -0.868295 -0.09159404 0.18337336 -0.008033692 -0.63271517 0.15788305 0.10220957 0.5680166 -0.07690575 0.5066271 0.12520117 -0.046394113 -0.29068294 0.60620916 0.4377807 0.054143805 -0.42976376 -0.4984308 -0.036710087 0.21373281 -0.31782347 -0.6005842 0.23816313 0.008296131 0.19042987 0.103385486 0.19504684 0.7404312 0.13526486 -0.30901366 0.13808353 0.7342317 -0.4124592 0.27816394 -0.2550294 0.1886282 0.8525616 0.62209225 -0.043653246 0.07815663 -0.18991245 0.36597842 -0.39754906 -0.3340896 -0.41409594 -0.38705388 0.10267033 0.004343097 0.015816726 -0.7332464 -0.18477526 -0.15124306 -0.2588881 -0.08743885 0.20307067
15 -0.65619713 -0.27380738 0.4920979 0.11138425 0.08684452 0.020108273 -0.05178592 -0.39395398 -0.03186754 -0.86569536 -0.19322002 0.78908646 -0.11796719 0.112033516 0.004048313 0.018343534 -0.13766219 -0.034785327 0.022143546 -0.1549053 -0.2609682 0.13182071 0.29279104 0.2696326 -0.93670076 0.17443395 -0.24596009 0.17011628 0.20482518 0.32654977 -0.606473 0.6254129 0.44195348 -0.080982536 0.16578685 -0.1902236 -0.1339295 0.29093596 -0.0073815268 0.17279942 0.7545744 -0.20623285 -0.07742177 0.2962667 0.4644152 0.1310452 -0.22316608 0.87804174 -0.39596078 -0.29103255 -0.6847926 0.20212021 0.618443 -0.31509283 -0.42765063 -0.27801603 -0.26406297 -0.2914704 -0.47773695 -0.14013226 -0.4838208 -0.090608634 -0.028140662 -0.31246653
299 0.11757091 0.090032265 0.35480088 0.44242653 -0.64035386 -0.33266008 -0.17431287 0.21243624 0.24048781 -0.29977423 -0.2585596 0.870442 -0.23223096 -0.5257731 0.013861334 -0.3331068 -0.42241067 -0.35439998 0.12822202 0.8156727 0.24703915 0.24951248 0.36896116 0.6112252 -0.10237651 -0.23289816 0.28370252 -0.37551102 -0.16766068 0.24588485 -0.6677773 -0.32627204 0.005289481 0.28613728 0.13242313 0.053363394 0.30830535 0.7585529 -0.40268117 0.099815905 0.36607677 -0.17739871 -0.17424048 -0.6176657 -0.060320735 0.053707466 -0.10095517 0.24486688 0.41704935 0.5704095 -0.37615976 -0.7410837 -0.41111836 0.18858723 -0.081590615 0.03142733 0.621911 -0.033612207 -0.5624678 -0.37985605 -0.1039909 -0.5174729 0.068678446 0.5139659
425 0.27454907 -0.094233416 0.41295835 0.23091574 -0.5969894 -0.12380397 -0.23909962 0.09687168 0.632886 0.05775861 0.069610864 0.48491424 -0.14743021 -0.3128131 -0.006846526 -0.59388393 -0.21116039 -0.21005349 0.098465964 0.52524966 0.5003342 0.16317068 -0.011859045 0.52511084 0.27570423 -0.04249789 -0.02614913 0.054688197 -0.26407975 -0.17535032 -0.14640954 0.04061303 -0.19014266 0.116213724 0.1815457 0.08140091 0.04197314 0.73380136 -0.4759005 0.09710936 0.4545661 -0.10205774 -0.3358921 -0.42119703 0.17930599 0.18176077 -0.05912558 0.24274129 0.23613548 0.08745072 -0.3726176 -0.55962056 -0.43857294 -0.13987584 0.288723 -0.39851698 0.635159 0.07787381 -0.91854393 -0.66725963 0.062117603 -0.18175164 -0.020191755 0.61025673
603 0.14434353 0.18619753 0.06531588 0.23580217 0.24032821 -0.011281333 -0.384089 0.2520518 0.39122725 -0.102021694 0.13928622 0.35267672 -0.080710486 -0.6982228 0.06762185 -0.10525562 0.09252056 -0.3384958 -0.21699607 0.02502648 0.6071987 -0.14919952 0.46494967 0.58792925 -0.22311544 0.38757354 -0.16410145 0.5498546 -0.35850823 -0.05322779 0.11388523 0.37133124 -0.1423346 0.2553324 -0.29430273 0.4635312 -0.5951224 0.17079102 0.0011325051 0.28823888 0.2167958 0.3186747 -0.37147713 0.015734712 0.47722816 0.24885496 -0.068410516 0.31007215 0.102723055 -0.16225658 -0.34227723 -0.43507007 0.12137834 0.035221603 0.14004777 -0.30725148 0.8098747 -0.5586581 -0.29576954 -0.53362864 -0.26192215 -0.06789569 -0.31498942 0.212945
856 -0.12534206 0.119924426 0.51018316 0.20349649 0.36770803 -0.28613734 -0.472935 0.3312185 -0.13278478 -0.16582285 0.072388045 0.44019783 -0.04809823 0.0995191 0.2839621 -0.1260805 0.056556873 0.10386845 -0.2167536 0.5773905 0.52198464 0.20280598 -0.0663528 0.46699753 0.6082077 0.13516533 0.29287702 0.745419 -0.084263645 0.5084963 -0.58405745 0.8725196 0.0064442884 -0.05845146 -0.21032085 0.3536174 -0.008033495 -0.09635192 -0.074229345 0.5062659 0.2166952 -0.14876314 -0.16145818 0.24610016 -0.08873372 -0.00074144505 -0.41048276 0.29146102 0.07924154 -0.23558071 -0.116343565 -0.6764206 -0.23615617 0.21999086 -0.3725533 -0.14381523 -0.1119309 0.2877152 -0.44025093 -1.0809722 0.6166457 -0.09327229 -0.6741196 -0.12184961
112 0.064716645 0.21715719 0.66343296 0.41584963 -0.023976525 0.3150758 0.6014408 0.11706681 0.03564895 -0.2775109 0.058749836 0.01631474 -0.14673057 -0.12614557 -0.0072101722 -0.28156322 0.14244327 -0.10228928 0.17380515 -0.28121415 -0.13996193 0.2788748 -0.2579283 0.3181589 0.31387085 0.59051144 -0.059990562 0.114302434 0.08890379 -0.03743886 -1.340426 0.042841196 0.28143686 0.108616635 0.2636015 0.40602913 0.46539816 -0.08816926 -0.056445453 0.14933272 0.32988912 -0.47788072 -0.19458835 -0.31982592 0.26069814 0.339195 0.6199778 -0.1621627 -0.029574059 -0.27415824 -0.16662697 0.29026535 0.19185178 -0.44348046 -0.10033895 0.18957168 0.46702808 -0.30347526 -0.51182157 -0.2258237 -0.6438161 -0.6229553 -0.21565534 0.16281146
323 0.04743241 0.13151908 0.6497091 0.41617873 -0.087164775 0.22845483 0.44370615 0.22192653 0.09131787 -0.35853165 -0.079575315 0.021489207 0.05585932 -0.121297166 0.05135588 -0.02217788 0.2823697 -0.23753314 0.08469729 0.17754723 -0.2111418 0.17560431 -0.028066691 0.3259014 0.25343323 0.3474468 0.049629424 -0.11500379 0.28378168 -0.03235191 -1.1642444 0.18924738 0.051751953 0.0509163 0.2893496 0.10011632 0.21380103 0.07649574 -0.1604957 0.0302292 0.30053174 -0.42694968 -0.30052388 -0.47541782 0.41184998 0.12553088 0.58628976 -0.13877402 -0.25500685 -0.20548053 0.13179477 0.10279327 0.24617642 -0.4984448 -0.34671217 0.31826532 0.20383298 -0.17165542 -0.4673643 -0.2696999 -0.66927576 -0.6721124 -0.10049425 0.4766209
293 0.12695704 0.11971255 0.4635319 0.62074006 -0.07345601 0.174863 0.48794857 0.22726701 0.009270551 -0.5933709 0.19180875 -0.010105141 -0.20596306 -0.15452704 -0.11916838 -0.025726363 0.3116147 -0.18391564 0.40824842 -0.32932383 -0.21363539 0.28328004 -0.27551 0.13954468 0.34991026 0.55494875 -0.05362133 -0.006703277 0.32205328 0.05396397 -1.3277836 -0.013631239 0.2947387 0.10497914 0.40401873 0.23270021 0.25526428 0.024541069 0.04591596 0.1653321 0.2665757 -0.44601265 -0.28720123 -0.36906478 0.21038076 0.27558994 0.54669625 0.05044956 -0.007899834 -0.1884414 -0.21935606 0.1599388 0.18749617 -0.26175117 -0.10270368 0.23383246 0.28045747 -0.20738108 -0.48114705 -0.20629404 -0.58671695 -0.70055866 -0.15763775 -0.060126558
738 -0.008044641 0.14167525 0.16096294 0.25491866 0.20069529 -0.0224365 0.1770112 -0.19512865 -0.09977192 -0.3222499 -0.12953031 0.25489792 -0.32364935 -0.015518815 -0.78753865 -0.23755503 -0.5164542 0.027163258 0.46408042 0.14007305 -0.060747847 -0.2858201 0.6700545 0.3757011 0.42296827 0.06995499 0.10770895 0.20568062 -0.05589309 0.16405725 -0.6012594 -0.026798483 -0.10755607 -0.907466 0.36824894 0.50145274 0.09318974 0.22363238 -0.6563605 -0.33321282 0.26836056 -0.30553055 -0.49831748 -0.32332262 0.09390817 0.24336304 0.87938035 -0.09153094 0.6523542 0.05485667 -0.14631228 -0.29420236 0.36635482 -0.1799736 -0.7242828 -0.18739836 0.24797271 -0.45705855 -0.11123665 -0.459392 -0.04665977 -0.3623105 -0.23042986 0.8466464
694 0.6188795 -0.15260506 0.5016495 0.33718225 -0.10907677 0.5899438 0.16801892 -0.06493867 -0.55477905 -0.5697803 0.04000657 0.20992897 0.26049918 -0.11169339 -0.054537095 0.09117845 0.04431303 -0.15602043 -0.20189835 0.38430727 -0.14322719 -0.022157956 -0.037881617 -0.052565295 -0.108386695 -0.4314113 -0.1837934 0.3070159 0.06433478 0.12443523 -0.85476446 0.024394771 -0.5856054 -0.33479095 0.30918884 0.23729976 0.22075881 0.51726 0.12254723 0.17370847 0.636107 -0.11442163 -0.050177652 -0.32231817 0.5549162 0.6822326 0.479967 -0.3011883 0.03282064 -0.44849065 -0.04932315 -0.35279062 0.6126055 -0.20604628 -0.24420816 0.29182345 0.46015888 -0.20800163 -0.3766852 -0.005300336 0.18935725 -0.571874 0.18463828 0.31084925
142 0.58310014 0.7425602 1.0144166 0.19542706 0.30725053 -0.26686478 -0.29769456 0.5369684 -0.17713234 -0.366787 -0.47534776 0.68094784 0.04925416 -0.32946253 0.32665482 -0.68174964 -0.7262089 -0.760317 -0.13905823 0.17862892 -0.12472367 0.35679576 0.018308744 0.5854682 0.63300157 -0.09289645 0.22624765 0.30202702 0.61026204 0.5628966 -0.41262043 -0.3181197 0.73178595 0.4894249 0.16772938 -0.39958596 0.067250736 0.5673477 0.46312258 0.20551413 0.14600214 -1.3804004 -0.051010516 -0.19652607 0.37193727 0.3131101 -0.20386775 0.068722665 -0.14420623 0.059564307 -0.9677363 0.080619566 -0.32736108 -0.5159452 -0.03318351 -0.6166144 0.67114204 -0.45500416 -1.4442234 -1.2553697 -0.70401937 0.28003985 -0.35165012 0.32971907
847 0.5108551 0.9077566 0.6200484 0.41123787 0.28439972 -0.32218257 -0.10872422 0.3349644 -0.12574948 -0.36179793 -0.36584646 1.1171559 0.06794347 -0.4121874 0.18051766 -0.84559226 -0.47314343 -0.44250083 -0.019186968 0.08733081 0.23586158 0.19499372 0.23638865 1.0436332 0.68591684 -0.5074735 0.093116604 0.093568526 0.28492054 0.6553052 -0.21512114 -0.32854506 0.5934272 0.34886345 0.14618044 -0.13166855 -0.16452162 0.5861859 0.21273136 0.3525418 -0.13312292 -1.0626229 -0.09390014 -0.20785616 0.19514689 0.2724731 -0.31723887 0.30365708 -0.37915006 -0.37548855 -0.31907794 -0.30465984 -0.16548464 -0.06640431 -0.25085932 -0.635824 0.68189806 -0.6348509 -1.2071208 -1.1528939 -0.49604002 0.7221847 -0.24626441 0.37708855
567 0.26334816 0.3342189 0.24375331 0.2537162 0.06547347 -0.20461401 -0.076257035 0.15100187 0.04438474 -0.050447635 0.16378376 0.5889895 -0.1865383 -0.4890132 0.116479546 -0.23919237 0.09243669 -0.024731962 -0.06857034 0.551289 0.46587643 -0.2115661 0.23341052 0.5891002 0.3411189 0.24787042 0.11405578 -0.007983865 -0.36262807 0.02053899 -0.217594 0.41180566 0.03034768 0.010690937 0.38818836 0.39895135 -0.07842686 0.30295685 -0.0030426113 0.37597674 0.12091941 -0.14851868 -0.4256069 -0.22890975 0.3528659 0.1766431 0.16452886 0.119753845 -0.1438623 0.17778625 -0.14458597 -0.657532 -0.26212457 0.14418039 -0.019827811 -0.31790197 0.47199202 -0.16698496 -0.7406451 -0.6086762 -0.05967123 0.023062207 -0.011658456 0.09463273
233 -0.6688112 0.21017998 0.6126482 -0.015204252 0.08279082 0.032659706 0.09711689 -0.59033704 -0.106385745 -0.8118225 0.10440231 0.70011395 0.29816976 -0.04726019 0.20881137 0.061198976 -0.1316502 -0.31680155 -0.051585197 -0.18487547 -0.07946845 0.3793462 0.17222245 -0.14067721 -0.63422924 -0.22103693 0.12585811 0.39868838 0.24858914 -0.028363802 -0.5308569 0.4372666 0.47263733 -0.60608035 0.21619307 -0.05916893 -0.1415495 -0.055723555 -0.34148014 0.23684387 0.8109926 -0.17551363 0.317617 0.22043432 0.57119066 0.34360388 -0.19177122 0.87942326 0.07892558 -0.01605718 -0.51241034 -0.019847693 0.41104478 -0.59880364 -0.43777466 -0.18830723 -0.5007796 -0.10369909 -0.47354966 -0.36242598 -0.43355867 -0.20211188 0.06440075 0.068422295
776 -0.5342287 -0.15325038 0.6622928 0.31755605 0.20509535 -0.015277721 -0.0628779 -0.17961709 -0.07440982 -0.75129086 -0.022478856 0.7419665 0.02249116 -0.02991847 0.23792145 0.027615638 -0.22304024 0.061558314 -0.23093352 -0.55207103 0.086903915 0.18888396 0.29519948 -0.15032627 -0.7710124 -0.27522996 -0.25608504 0.44454712 0.13157736 0.30384278 -0.80917746 0.54264086 0.4804125 -0.30620095 0.34623808 -0.20426865 -0.12077049 0.38024732 -0.032341003 0.09029635 0.8605334 0.09034548 -0.24901403 0.33052483 0.4454971 0.073048264 -0.42831993 0.9086592 -0.3106146 -0.22400373 -0.4244871 0.22041805 0.41809487 -0.4460316 -0.10630482 -0.4073729 -0.30983022 -0.04666283 0.032864906 -0.63283396 -0.52461374 -0.24089816 -0.23859555 -0.1730996
306 0.9444585 -0.1835325 0.8273619 0.033931404 0.19420493 -0.38806903 0.3223774 -0.3349792 -0.60997516 -0.6489264 -0.61823785 0.9643834 0.41084388 -0.12027404 -0.39685673 -0.07043195 0.25110874 0.3791551 0.16083291 -0.47295675 0.1441038 0.16175376 0.9798948 0.2864265 0.5746426 0.08838424 -0.22641744 0.2494926 0.13597341 -0.10190452 -0.46570206 -0.40182135 0.0374305 0.63974506 0.26333955 0.22540611 0.53983307 0.2295166 -0.29403257 0.78548807 0.85751325 0.031140383 0.16508633 -0.16358072 0.1254334 -0.68571043 0.63598883 0.39873183 0.24385136 0.3410481 -0.2687027 -0.5539707 -0.12978183 -0.4016416 -0.064449824 0.63410527 0.26643825 -0.06535176 -0.7881792 -0.41103545 -0.6761324 -0.8292668 -0.055168234 -0.08796981
334 0.6462908 -0.12056172 0.4642701 0.19202547 0.5377111 -0.46575907 0.30506858 -0.1615609 -0.6918754 -0.70562184 -0.7071559 0.8945339 0.28456286 -0.2630375 -0.48096555 -0.04855874 0.34513593 0.5325817 0.34487215 -0.49711138 0.029716395 0.20997493 1.1302569 0.31078067 0.42193568 0.11802095 -0.10095984 0.3159198 0.29373237 -0.22352345 -0.6182508 -0.17663224 0.051845867 0.79573166 0.28634158 0.13446932 0.5825739 0.15290508 -0.2739031 0.7352891 0.97959334 0.11800922 0.20915043 -0.30168927 0.062267 -0.63189983 0.3529952 0.14063561 0.09010061 0.20805085 -0.3455823 -0.56203914 -0.15575641 -0.6926918 -0.012241913 0.6528518 0.20785199 -0.15359396 -0.9484058 -0.46935353 -0.7189826 -0.68208677 -0.15646169 -0.008724934
219 -0.6693686 -0.29455173 0.480201 0.6288267 0.28028092 -0.33162832 -0.06943869 -0.3545568 0.19972052 -0.8436699 -0.04501871 0.9856846 0.6522841 0.06350795 -0.29149362 -0.05615292 -0.36829206 -0.23699592 0.039614998 -0.47388268 0.12927009 0.36126322 -0.14704956 -0.1446053 -0.875929 0.05960047 0.021796826 0.25190377 0.051719 0.001566051 -0.5776233 0.37858012 -0.37194103 -0.38067132 0.07495154 0.18910386 -0.3091334 0.03190272 -0.3629271 0.5022087 0.74228317 -0.20794442 0.24466512 0.2952208 0.6257716 -0.13132106 -0.3603752 0.6972693 -0.11091475 -0.095199205 -0.26530322 0.13430093 0.30170205 -0.4467676 0.0026250754 -0.33098814 -0.14196733 -0.56766057 -0.3210168 -0.50509304 -0.107895635 -0.71082145 -0.78608996 -0.0034119925
668 -0.3507417 -0.20098244 0.5489515 0.20047298 0.07749779 0.0151732555 0.013943509 -0.28691682 0.3535962 -0.5066728 0.24583264 0.8608996 1.0195965 0.13790035 -0.18786235 -0.22229184 -0.78161645 0.07858111 0.23058777 -0.486131 0.13787402 0.26615652 -0.025244817 0.13445717 -0.65360504 0.13725992 -0.18166094 0.404064 -0.08864196 0.13121167 -0.85072994 0.35261458 0.33329615 -0.086663224 0.4315106 -0.16754459 -0.2674617 -0.21314828 -0.05094265 0.31221893 0.5865729 -0.41989973 0.22620447 0.54099506 0.60992783 0.045739006 -0.31880793 1.0125302 0.052531328 -0.36185232 -0.43577838 0.04503793 0.2831364 -0.67608464 0.066448905 -0.3246097 0.119534366 -0.42926234 0.17450187 -0.5338423 -0.12679802 -0.47872195 -0.4475746 -0.1457531
237 0.47527772 0.6221719 0.42586505 1.0811495 0.5529898 -2.3466876 0.2723107 -0.2876045 0.022112245 -0.3470145 0.08273368 1.074258 0.041016463 0.58220273 -0.5717329 -0.36621454 -0.07411939 -0.71539056 0.75292295 -0.774814 0.48321247 -0.19902374 0.31929192 1.6593513 0.10721861 -0.20476754 0.8430091 1.1090041 0.8716263 -0.8560597 -1.2449223 0.6899175 0.9024765 0.20057559 0.68094945 0.8549663 0.27921486 0.54652625 -1.7030408 -0.004358523 0.72482395 -1.6322719 -0.3403443 0.17365652 -0.09856814 0.17026964 -0.2894176 0.23392297 0.15452725 -0.30741355 -1.3444636 0.5685757 -0.072914034 -1.2837809 -1.1690863 -0.15294875 -0.17031421 -0.1711084 -0.9099817 -0.8432387 -0.6257115 -0.9129033 -0.9009156 -0.18909386
682 0.44736814 0.61587536 0.433758 1.0974568 0.5660818 -2.3322177 0.28435102 -0.2871491 0.026981179 -0.33808717 0.07673823 1.0841662 0.019462284 0.59724796 -0.59266484 -0.35773423 -0.073484644 -0.73577064 0.7155789 -0.76429564 0.49310842 -0.15494688 0.32118073 1.6735643 0.111078106 -0.19850725 0.85042316 1.0959784 0.86430407 -0.84101 -1.259016 0.6969746 0.9159214 0.20805945 0.677925 0.8321607 0.26130122 0.5451633 -1.7023678 0.005119385 0.72853136 -1.6326424 -0.36777 0.17266993 -0.11272739 0.18279453 -0.2810334 0.24744335 0.14347678 -0.275221 -1.3698256 0.584437 -0.07859478 -1.3010808 -1.1732767 -0.13790388 -0.17585117 -0.1477279 -0.90562886 -0.8445376 -0.6168659 -0.9333696 -0.8987587 -0.1757136
655 0.14301594 0.17332597 0.41232327 0.6326811 0.047087662 0.4012284 0.29290015 0.04396805 -0.11688933 -0.72596097 0.1176886 0.121768005 -0.13982345 -0.068552636 -0.018362861 0.123219766 0.37787268 -0.044543676 -0.3233333 0.25882167 -0.27310324 -0.09673533 0.18502298 0.21188915 -0.006788391 -0.22919731 -0.015505489 0.32762545 -0.032808904 -0.17576292 -0.7508189 0.25665128 -0.242965 -0.18213186 0.47725567 0.10916691 0.1118003 -0.09443415 -0.19452593 -0.19245604 0.31360283 -0.48127118 -0.042228427 -0.6690694 -0.12241426 0.6716728 0.6715151 0.09070583 0.09092135 -0.23115672 -0.13084927 -0.30817303 0.36125344 -0.44266292 -0.30497673 -0.029084686 0.048114084 -0.1751326 -0.35209566 -0.32999587 -0.27581987 -0.5747072 0.25944522 0.11739439
300 0.22225583 0.24204382 0.08333693 0.56850165 0.31657544 0.024319809 -0.17908747 -0.4980053 0.31829137 -0.44483605 -0.32782733 0.5677035 -0.25682157 -0.22597288 -0.75703955 -0.58680713 -0.5346776 0.037267543 0.7369867 0.21828812 -0.06704883 -0.24845298 0.6941444 0.5758039 0.41081992 0.20888908 -0.070744134 0.120459706 0.18568467 0.13299415 -0.48087764 0.08071227 -0.051421944 -0.76623845 0.5873575 0.41521814 0.18639107 0.260961 -0.72497314 -0.27369455 0.3275089 -0.45072737 -0.14887562 0.26348075 -0.08146955 0.46839473 0.6365571 -0.15495718 0.48478097 0.46226704 -0.46689162 -0.14639041 0.22911964 -0.268945 -0.2953536 -0.24805358 0.40485874 -0.2760002 0.19527775 -0.4128439 -0.13809992 -0.34049287 -0.41836318 1.0666162
696 0.2516068 0.19044434 0.45107138 0.7598074 0.399714 -0.36433488 -0.2869346 -0.073682815 0.19310737 -0.22024906 -0.29270878 0.51995647 -0.36834303 -0.1185608 -1.0492218 -0.5711827 -0.21267916 -0.25225934 0.92363894 0.27632004 0.24673258 -0.04788538 0.71118057 0.47305247 0.41550094 0.3599133 0.07215926 0.29065248 -0.07498724 0.08861961 -0.18899758 0.016972747 -0.2634036 -0.8255993 0.33852938 0.32717016 0.30288085 0.33224934 -0.5057823 -0.15023494 0.4088397 -0.60670143 -0.26049104 0.092309535 -0.20300214 0.34302792 0.8631999 -0.07480843 0.46923482 0.3201129 -0.31458113 -0.3879399 0.30452153 -0.22887029 -0.28895888 -0.32781678 0.24738419 -0.09275795 0.03036123 -0.21303014 -0.32127216 -0.3457198 -0.35283646 1.0038548
264 -0.069884665 0.44917703 0.06946871 0.08863513 0.27417672 -0.17674121 -0.48949304 -0.308774 0.56611913 -0.42323968 0.13803689 0.23878643 -0.17643319 -0.5309348 -0.2535636 -0.30573925 0.26891005 -0.4161675 -0.12477775 0.47337487 0.45653194 -0.064955726 0.0031232825 0.49257165 -0.031354412 0.109775566 -0.37517664 0.458519 -0.4146961 0.17588225 -0.13888943 0.650162 -0.037704606 -0.07679479 -0.40501615 0.3403994 -0.29873678 0.2770041 0.4463849 0.7355131 0.1375479 0.20446567 -0.24744685 0.035151124 0.5318218 0.3363483 -0.024507083 0.28718516 0.28104365 -0.04792745 0.103833675 -0.07134968 -0.3638421 -0.13329965 0.09066308 -0.05260709 -0.0029814355 -0.40639648 -0.23827277 -0.48764202 -0.2044661 -0.19704632 -0.29569918 0.20352064
448 0.3409372 0.5159675 0.30576453 0.11504459 0.15607178 0.17991759 -0.60745513 0.12933715 0.59195554 -0.40897804 0.43959942 0.333919 -0.09679227 -0.78617686 -0.108010285 -0.014842611 0.007967432 -0.25853023 -0.06408427 0.10768427 0.4668879 -0.18801446 0.48422465 0.75181246 -0.19912304 0.20928523 -0.1568566 0.62156373 -0.15718041 0.032489643 0.039998747 0.43816325 0.24090537 0.049764477 -0.39792433 0.4893233 -0.26503894 0.030456766 0.2446972 0.38954446 0.38701227 0.52768743 -0.5130624 0.23892966 0.427607 0.06007095 -0.085570976 0.16686666 0.35797954 -0.1490917 -0.39300436 -0.1698627 0.12277893 -0.14122538 0.25045106 -0.29505318 0.7695944 -0.62645024 0.087836996 -0.4960608 -0.16002 -0.19645998 0.027715331 0.26328063
249 0.819269 -0.33882803 0.5122028 -0.26187497 0.5656507 -0.2128023 0.0029679227 0.049332645 -0.5768558 -0.71332604 0.031259015 1.1329038 0.22791411 -0.044032477 0.5067836 -0.021451361 0.113492765 0.10896979 0.3106458 -0.27482316 0.3981713 -0.45332646 0.88983315 0.643543 0.2938334 -0.019833788 -0.7124752 -0.18311387 -0.2777484 -0.13222262 -0.39360493 0.017808653 0.12560378 0.7316111 0.21981642 0.2808186 0.9992493 0.27730528 -0.077894695 0.779349 1.0078506 -0.014917307 0.091375545 -0.16213949 -0.10761227 0.18450344 0.037938997 0.23531984 0.21507868 0.31010458 0.013178037 -0.45620382 -0.1574046 -0.5175151 0.023460764 0.61638963 0.0830897 -0.08606179 -0.51567876 -0.17015284 -0.81368804 -0.6028334 0.21809566 0.15653035
862 0.7150853 -0.43576804 0.23104066 -0.15361929 0.32193524 0.14418323 0.20054431 0.16406786 -0.43591666 -0.6314969 -0.023316953 0.833555 0.27180818 -0.0049065715 0.88508993 0.17416714 0.13027461 -0.12557304 0.5200308 -0.05651229 0.58247465 -0.46838412 0.8807057 0.6788574 0.21883008 0.009933338 -0.72836643 -0.23987457 -0.27568337 0.023113132 -0.5744372 0.21500358 0.28859508 0.6710369 0.091363475 0.1403271 1.003583 0.29519325 -0.07465622 0.66332847 0.8425754 -0.22803561 0.31977403 -0.14081275 -0.08561011 0.2780409 0.04582924 0.36230063 0.31096107 0.30370685 0.019505331 -0.5185063 -0.20431735 -0.21450993 -0.25371498 0.16948637 0.12551768 -0.053765792 -0.4876164 -0.33032557 -0.6315788 -0.377503 0.41595328 0.12522675
182 0.6268793 -0.040036716 0.6366277 -0.14445794 0.3942015 -0.4908548 0.06987126 -0.15642896 -0.6028757 -0.54451656 -0.5483868 0.5382682 0.5288965 -0.1580735 -0.54019004 -0.08897996 0.08743463 0.51184595 0.3368272 -0.66644114 0.07682761 0.1793953 1.0909977 0.1277249 0.41663444 -0.12232481 -0.268252 0.26887545 0.11815119 -0.38648948 -0.654661 0.13984233 0.0041766693 0.7439229 0.29700035 0.10954052 0.5061542 0.4237668 -0.15163705 0.53822076 0.9971624 -0.12674272 0.09448843 -0.55306476 0.057952017 -0.54823613 0.3164936 0.18490116 0.026004858 0.3678384 -0.25043043 -0.16807386 -0.049046464 -0.8192849 -0.13846356 0.73779666 0.17516918 0.059998944 -0.90683895 -0.5894174 -0.6768505 -0.5383159 -0.2645649 0.043142345
445 0.5648971 0.1410152 0.7079607 -0.25663048 0.8478611 -0.89129025 0.23832212 0.3745159 -0.74754953 -0.8214962 -0.26927277 0.5576328 0.82676023 -0.38839543 -0.8028325 -0.16747248 -0.113473356 0.16855767 0.94487923 -0.87667507 0.45359698 0.3748615 1.4371909 0.36367604 0.45828742 -0.44355458 -0.63633955 0.49759713 0.1881643 -0.54091877 -0.58485824 0.25207466 0.09385336 0.54340035 0.38423923 0.228713 0.5490861 0.85287637 -0.4017035 0.7685157 1.356473 -0.2040928 0.33925894 -0.65365773 -0.0015205801 -0.672776 0.022268215 0.43049505 -0.3789358 0.32169604 -0.50894046 0.18874374 0.102826335 -0.7772226 -0.34256095 0.259816 -0.0721717 0.07502756 -0.9363513 -0.8614286 -0.9110581 -0.46618158 -0.47136146 0.16916925
690 0.3290613 0.50678164 0.25116155 0.29373115 0.1522863 -0.053466354 -0.544458 -0.04816802 0.7770477 -0.1927946 0.2876507 0.34997386 -0.1273749 -0.6741874 0.24382633 -0.18559504 -0.20325835 -0.4483655 -0.0996557 0.19832058 0.48037097 -0.17804104 0.37658042 0.60289675 0.15951237 0.18809353 -0.13484296 0.4700178 -0.3007465 0.027709262 -0.04022156 0.5592248 0.0024442042 -0.07595654 -0.06701459 0.3202514 -0.3098348 0.14349298 0.22356853 0.26226828 0.22956362 0.25228748 -0.25755653 -0.010441756 0.44480145 0.20455414 -0.037404764 0.26320976 -0.11692161 0.12890124 0.028445503 -0.46238965 0.07804213 0.040379733 0.007636398 -0.14362726 0.47260857 -0.25668764 -0.3412673 -0.76535445 -0.13053317 -0.09987729 -0.14037304 0.16873677
240 1.269043 -0.55422425 0.95281595 0.5988764 0.10700265 -1.2400492 -0.36160097 0.3987847 -0.062248886 -0.81599325 0.61837494 0.87112075 0.3901178 0.35781237 -0.51658475 -0.86375886 -0.082054965 -0.3823498 0.95984954 -1.2270591 -0.10771235 0.12594616 0.3553338 1.3829246 -0.7776611 -0.34405547 -0.5977975 0.10905572 -0.112804785 -0.06982089 -1.1589752 0.6503865 -0.5094317 0.108202085 -0.29788345 0.5714479 -0.15324472 0.95599306 -0.03643648 0.11466097 0.49053216 -1.9893168 -0.09965311 0.04599384 0.5713965 0.38594863 -0.21328557 -0.102494776 -0.26848173 0.5841141 -1.4857308 0.40875047 0.14601769 -0.10067634 -0.958468 -0.43201977 0.8700092 -0.2681705 -0.6001889 -0.30473143 -0.8360921 -0.3746785 -0.15894899 0.03266352
482 1.244144 -0.37405244 1.2448299 0.7094476 0.15976143 -1.2064185 -0.40332296 0.3124538 -0.08499582 -0.8300491 0.43461788 0.8497721 0.4550306 0.22800967 -0.4883851 -1.1006299 -0.25178882 -0.6174875 0.9494478 -1.1572912 -0.31425747 -0.027868465 0.3707436 1.3772784 -0.66789865 -0.22118488 -0.52606463 0.11220583 -0.17426592 -0.1802538 -1.2582445 0.8464799 -0.5253039 0.0017346548 -0.2533084 0.5078732 -0.25126168 0.96348524 -0.077298805 -0.050416216 0.333636 -1.9938054 -0.06941281 0.0049082176 0.61368316 0.29306704 -0.10781342 -0.22236633 -0.21871364 0.30789644 -1.5884726 0.21691626 0.15956606 0.06395446 -1.0150887 -0.65541124 0.63137037 -0.55209243 -0.3988164 -0.3170658 -0.7362883 -0.39343256 -0.09229965 0.2431155
360 0.045103107 0.44674614 -0.14222704 0.12864219 0.26096505 -0.056141328 -0.48215103 0.10080838 0.46313152 -0.115122795 0.23301046 0.43811408 -0.17517889 -0.62338054 -0.19041558 -0.0724345 -0.050074276 -0.31330946 -0.41313493 0.21839212 0.6146703 -0.0118036205 0.32731628 0.40499762 -0.23618287 0.39938205 -0.08605054 0.51359063 -0.09881662 -0.1104408 0.22568397 0.26290765 0.12137968 0.21559188 0.23735069 0.6056894 -0.55187684 0.14202072 -0.11351149 0.34139577 0.17445134 0.2615462 0.11240871 0.0028862546 0.38078627 0.51863533 0.013139684 0.44398698 -0.16727555 -0.025492987 -0.30760318 -0.3940758 -0.23480058 -0.11303095 -0.020702966 0.03227208 0.3555446 -0.46439508 -0.56311876 -0.7711113 -0.10751632 -0.116631255 -0.26306993 0.21425782
