879 64
277 -0.22333887 -0.078278184 -0.4907802 -0.65683436 -0.32292143 -0.56757426 0.39706653 -0.47092664 -0.7682582 0.04836243 0.40314358 0.72655237 0.4922244 0.34692964 0.1274352 -0.88490605 0.53207994 -0.53910214 0.3993038 0.123148926 -0.92213756 -0.5229052 -0.3536162 0.17367665 0.074016035 0.20776539 -0.7365655 0.273771 -0.044551812 -0.39256907 0.03015008 0.17554311 -0.44354057 0.15005767 -1.1704828 -0.9638481 0.4228571 0.7230512 -0.49864194 0.43878648 0.17086016 0.29122603 -0.014447538 0.2363138 -0.20654307 -0.35859388 -0.25233376 -0.06848247 0.39521566 -0.5954142 0.093499854 -0.057655215 0.053015694 0.60596085 -0.850672 0.3079778 0.18981884 0.15426584 0.71503973 0.5197379 0.06889915 0.018000545 0.5799167 0.19416909
709 0.22027005 -0.0009820113 -0.2908695 -0.49883795 -0.17136027 -0.23426834 0.62494653 -0.71886605 -0.8839904 -0.1014493 0.4779964 0.5026677 0.45640016 0.5568441 0.328821 -0.6643567 0.4187032 -0.34229544 0.39238968 0.15975855 -0.85029006 -0.5470775 -0.47891217 0.29208907 -0.043692365 0.10034822 -0.6288522 0.29965615 -0.12554145 -0.18318783 -0.17255184 0.19620226 -0.43025556 0.2638473 -1.1363728 -1.1448295 0.2130515 0.72682816 -0.70377105 0.36126313 0.17003167 0.19514129 0.28152645 0.070363395 -0.19649321 -0.28382367 -0.36286712 -0.058733676 0.20729877 -0.7364823 0.4363225 -0.017105741 -0.07103886 0.37418634 -0.52302974 0.033664778 0.0069943904 0.1401233 0.82982516 0.46394756 0.41686547 0.18639342 0.5251356 0.26841363
115 -0.2652548 -0.17975174 -0.17663752 -0.13340542 -0.039165962 -0.17019616 0.17879112 0.32829154 -0.6493291 -0.1998002 -0.16737475 -0.09319794 -0.6176321 0.02057172 0.49957594 -0.42452377 -0.10546337 -0.33811596 -0.33255973 -0.48866504 -0.62238663 -0.56076103 -0.29813823 0.14776433 -0.60013086 -0.5378806 -0.5618305 0.34979865 0.15509647 0.33284542 -0.33129483 -0.19224235 0.38273618 0.7995598 0.53738755 -0.55827373 -0.21587169 0.53095055 -0.18063278 0.31449178 -0.033286244 0.38689685 -0.24739742 0.2791808 0.30833784 -0.17528227 0.18171395 -0.8114982 -0.01645151 -0.4370841 -0.17939806 0.084895134 -0.23759119 -0.20138903 -0.88933057 -0.14571053 -0.28759935 0.26710832 0.18480332 -0.13593891 0.26909882 0.0721445 0.16741689 0.47055042
853 -0.093176566 0.31304362 -0.032082915 -0.2346451 0.077547684 0.3028994 0.20268318 -0.29500413 -0.60211277 -0.14762811 -0.23098338 0.15207885 -0.5749818 0.09612788 -0.13729519 0.0011131887 -0.10150009 -0.4796005 -0.40227488 -0.546936 -0.44043115 0.12725699 0.1983196 0.004216424 -0.30512613 -0.72105056 -0.008680215 0.6399191 -0.16674441 -0.0007995593 -0.06271498 0.009026716 0.28153384 0.5272249 -0.10143746 -0.5630746 -0.22775696 0.8509152 -0.09269386 -0.06312047 0.30660933 0.1171829 -0.3702062 -0.10175882 -0.06528015 -0.10377907 0.5947033 -0.231781 0.24027987 -0.24391711 -0.05392495 0.25461113 -0.27709907 -0.41963577 -0.30875918 0.034263395 -0.095294796 0.48245078 -0.43550777 0.06821302 0.37307948 0.06724862 0.31234255 -0.0445458
9 -0.41733986 -0.15023966 -0.16818719 0.31904927 -0.4710595 0.46744126 -0.28155243 -0.60486263 -0.89747477 0.45783213 0.3664289 0.040245093 0.24797586 0.15411691 0.13538526 0.47175434 -0.3776171 0.023546826 0.09453691 -0.043903865 -0.76752764 0.3211175 0.08358376 0.22900164 0.44592637 0.23471975 -0.9995256 0.5522325 -0.1320268 -0.023886314 -0.71308756 0.29209632 0.37690642 0.54642004 0.25364324 -0.5502697 0.43343264 -0.1133166 -0.49979228 0.02156828 -0.17191425 -0.053614654 0.080418974 0.12521553 -0.20895746 0.34552917 0.50976795 -0.4631153 0.8434019 -0.13045433 -0.38791946 0.43202123 0.08262596 -0.10468478 0.41287282 0.2482219 0.24728665 0.6059841 0.06753398 -0.58670264 0.029019231 -0.31572434 0.055133723 0.22155508
597 -0.25428054 0.027852802 -0.32965082 0.2341784 -0.5762569 0.8679755 -0.3478687 -0.7043448 -0.9559297 0.3826689 0.04163118 -0.395367 0.1936288 -0.23073149 -0.10257946 0.48721662 -0.025183713 -0.12795821 0.49751776 0.076881304 -0.62054497 0.33254212 0.02272857 0.2275248 0.5640852 0.15846881 -1.0875725 0.587261 -0.021188445 -0.041940734 -0.45405585 0.06095634 0.40479264 0.53469 -0.017863208 -0.6283576 0.11863285 -0.19961508 -0.6163185 -0.15016027 -0.28474322 -0.024090478 -0.15019563 0.38065004 -0.00010150233 0.6499037 0.1537959 -0.5067725 0.72121346 0.06432764 -0.11735513 0.26221955 0.29734546 -0.2579233 0.6505942 0.5449304 0.20721161 0.49544358 -0.0672882 -0.26317742 0.008919199 -0.65231746 0.41380844 -0.032438867
94 -0.38104272 -0.21106684 0.06430992 0.29233333 -0.13295417 0.5952827 0.18886048 -0.099258274 -0.8110906 -0.2629672 0.08550261 0.40262645 -0.53031933 0.24975184 -0.23727414 0.30987886 -0.20651968 -0.6365379 -0.44902143 -0.067688674 -0.4339656 0.32688773 0.18518992 -0.12960349 -0.20143104 -0.043728292 -0.19633278 0.145849 0.25290537 -0.051649258 0.25706914 0.22642279 0.39782172 0.9094464 -0.005718463 -0.3829661 0.21074168 0.6180195 -0.16181372 -0.018673982 0.13124403 -0.031719428 -0.28137383 -0.23064277 -0.49056974 -0.032771517 0.16300268 -0.67356056 0.62413377 -0.6566374 -0.07517033 0.00994371 -0.13654618 -0.35511065 0.012593059 0.30343315 -0.24975492 0.16463564 0.09098128 -0.41900167 0.12081543 0.37209377 -0.18272065 -0.1553999
566 0.054147698 0.1896205 0.37606314 0.32996288 -0.074691415 0.15625554 -0.1703022 0.12583269 -0.6920454 -0.44304276 0.22464733 0.11008953 -0.37461933 -0.20097113 0.07419424 0.24197032 -0.19561464 -0.6430828 -0.68024814 -0.24673979 -0.05532921 -0.02327671 -0.2062025 -0.31411994 -0.5291253 0.038361326 -0.23696278 0.45874187 0.33599132 0.027731566 0.35211194 0.6470339 0.20826657 0.2353421 -0.23772627 -0.1498299 0.18426688 0.8558955 -0.14864007 0.40384182 0.005253358 0.3005281 -0.2682084 0.118733145 -0.1640155 0.050106548 0.727594 -0.1926837 0.36539835 -0.45228165 -0.121753514 0.056212194 0.5727843 -0.08702279 -0.5466948 0.44059312 -0.47324756 0.7085869 -0.28348616 -0.114552215 0.32045215 0.5823292 -0.0047459784 0.0035295037
108 0.39686012 -0.22584964 -0.18057247 -0.32567233 -0.31007186 0.3891224 -0.2305682 -0.3212286 -0.95197594 -0.15637401 0.12079204 -0.43286687 -0.010660875 0.016479524 0.34221095 -0.76358443 -0.021879502 -0.22873527 0.13198516 0.07444801 -0.47853482 -0.008372732 0.2611424 0.066280074 0.26416746 -0.026051762 0.5588786 0.15205641 0.2976898 0.10257173 -0.13212894 -0.13471277 0.22668095 0.09032168 -0.17186172 -0.6326762 0.03481525 0.19603305 -0.21698444 0.20952658 -0.29492402 0.006879823 0.05049606 0.07766445 -0.22712085 0.35881484 0.1612338 -0.58237594 -0.018547328 0.05766832 -0.17977664 -0.2869503 0.25074828 0.22087969 -0.43485084 0.3044674 0.23556216 -0.17269552 -0.1589157 0.0032825978 -0.036624134 -0.371634 0.09529489 0.16448979
360 0.01203469 -0.44021258 0.03554561 -0.2400609 0.24788782 0.39157006 -0.20437889 -0.62570167 -0.70822674 -0.29352748 -0.041271932 -0.10561278 -0.25222957 -0.08977905 -0.22830354 -0.6106505 -0.024785005 0.025955813 0.045112778 0.01855689 -0.21990329 0.33346346 0.32220367 -0.19254605 0.19915205 -0.40655142 0.27801156 0.37818715 0.3291083 0.27563477 -0.16009882 -0.23256029 0.023601985 0.000805405 -0.347112 -1.0460379 -0.26988634 0.14180252 -0.05190422 0.31932327 -0.2894971 -0.24782239 -0.2272684 -0.06467201 -0.36027873 0.362884 0.24532072 -0.27344367 0.26900935 0.01922636 -0.14966862 -0.060830005 0.09556328 -0.13632946 -0.5179851 0.14729558 0.32904822 0.26670316 -0.2038217 0.17792264 0.035891492 -0.1558538 -0.108262755 0.10803539
135 0.11046464 0.16711815 -0.016637182 0.1510044 -0.33982438 0.06787477 0.14628944 -0.79431975 -0.3732354 -0.33395064 0.64281934 -0.12674564 -0.02939957 -0.28287846 0.06650472 -0.20789644 -0.011628736 -0.38465855 0.25360096 -0.46947318 -0.42766288 0.31636235 -0.81690395 0.22646134 -0.34299085 0.23154254 -0.15535249 1.2331827 0.14799787 -0.12009808 0.02852812 0.6392737 0.22706968 0.3463851 -0.1461756 -0.6508292 0.4717766 -0.24556242 -0.2207944 0.014689746 0.38065565 -0.40082332 -0.49784577 -0.4693728 -0.31435466 0.0036425386 -0.4773278 0.28472206 0.102818534 -0.012674966 -0.34753245 -0.06987419 0.33314043 0.5502596 -0.4284717 0.82089216 -0.2739175 -0.28791782 0.6650337 0.04175811 0.22465709 0.038491573 0.5153358 0.25589725
420 -0.22520143 -0.0025253547 -0.21094713 -0.16859142 -0.49970537 -0.09178112 -0.06276114 -0.65983623 -0.4104489 -0.3796215 0.6684068 -0.049224317 -0.016025962 -0.30111015 -0.017181005 -0.048465047 0.17754321 -0.48921594 -0.0043076626 -0.054058265 -0.3394505 0.22846101 -0.8143743 0.37589213 0.013465926 0.15655737 -0.31611708 1.2410028 0.40077034 -0.218763 0.25027204 -0.16409656 -0.031551044 0.43696252 -0.38444766 -0.70892674 0.35850677 0.10235512 -0.0867806 0.69814277 0.3123957 -0.3740171 -0.6279833 -0.16628157 -0.48939624 -0.023882195 -0.7978328 0.20693213 0.095567204 -0.008592363 -0.79674524 -0.025060983 -0.19458568 0.7478223 -0.7472559 0.92283577 -0.23689917 -0.35796928 0.7290052 -0.24641074 0.27832207 0.33008775 0.39499855 -0.21751623
119 0.47097436 -0.69704795 0.033101317 -0.3605796 -0.048454545 0.17148088 0.30901286 -0.71620435 -1.0299035 0.06457365 0.49689287 -0.31070992 0.3318143 -0.43721226 -0.17145446 -0.34696758 0.135017 0.16605225 -0.12711883 -0.20289114 -0.15949333 -0.54288286 -0.8262347 0.01503282 0.05268669 0.8110618 -0.7610942 0.83023196 -0.51131094 0.2454676 0.23156103 0.09384766 0.46798244 0.6405887 -0.08608698 -0.22685538 -0.0032217158 -0.44461095 0.18925436 -0.6870603 0.10002445 0.29112923 0.04842686 0.9877836 -0.52847403 0.12573901 0.08209512 -0.57676655 0.031383734 -0.29668817 -0.24275686 0.034792278 0.4732562 0.9248514 -0.7878062 0.5575627 -0.26219404 0.493406 0.656838 0.4636111 0.7337535 -0.22913973 0.6274229 -0.46774274
626 0.42389473 -0.99386024 0.2559036 -0.46481645 -0.083406836 -0.023039209 0.13655162 -0.31851014 -0.57558936 0.06467838 0.5955029 -0.012929446 0.34932578 -0.29244545 -0.28592718 -0.5009901 -0.014054123 -0.1854414 -0.22831544 -0.2701085 -0.04953752 -0.7567306 -0.8347496 -0.03531444 0.020127557 0.40276864 -0.5077183 0.6433238 -0.5986566 0.10871583 0.09650438 0.27648196 0.20167555 0.66677105 -0.36493573 -0.48425913 -0.1605955 -0.14064133 0.36023733 -0.15957828 0.029899986 0.57098794 0.19811697 0.14549665 -0.41255206 0.2063247 0.028470239 -0.58623105 0.22952648 -0.21811464 0.16761175 0.239069 0.37141725 0.67381424 -0.5350503 0.6806073 -0.118844405 0.2494015 1.1511625 0.53924435 0.5910994 0.048050113 0.66711646 -0.81200254
42 -0.0058858506 0.160106 -0.32455266 -0.49505907 -0.47298166 0.15155406 0.6825657 -0.21766421 -1.1567286 -0.2800192 -0.39476 0.13004069 -0.29167858 0.34836125 -0.14240634 -0.20614536 0.41352162 0.22343753 0.03639083 -0.6704129 0.5573437 0.18357475 -0.10768018 -0.42405298 -0.08288359 -0.0095734615 -0.11271408 -0.068729036 -0.15818527 0.16324462 -0.6691455 -0.012597047 0.3144407 0.49113905 0.1175183 -0.6224614 -0.26053318 0.3597006 0.36472416 0.53562796 -0.54179275 -0.37621814 -0.5801701 -0.22966099 -0.40301618 0.6045428 -0.04929865 -0.42565313 -0.17946297 0.2377652 0.14660957 0.16856492 0.25773096 0.13663681 -0.8264533 -0.22806092 0.4351361 0.3326321 -0.53586066 0.028660337 1.105249 0.25595516 -0.103884265 0.5482699
313 -0.39854324 0.05516749 -0.046660244 -0.5281569 -0.6486407 0.09957062 0.48977333 -0.3248591 -1.2236613 -0.3021279 -0.2212846 -0.16072154 -0.6214593 0.63913924 -0.025996407 -0.12748362 0.13598594 0.087353565 0.5099417 0.05963638 0.37767863 -0.10447797 0.09114725 -0.24012335 -0.20621938 -0.1926655 0.08483632 -0.26144394 -0.0035686428 0.27973038 -0.0006297666 0.54578394 0.68302405 0.002668807 0.32323903 -0.31993154 -0.05250099 0.02079624 0.25974485 0.2691477 -0.67643404 -0.03522505 -0.57543784 -0.087309286 -0.20649116 0.6427446 -0.14646623 -0.5543422 0.1551224 0.6749735 -0.28292572 0.19312665 0.035137028 0.49927086 -0.7108115 0.068324625 0.013757484 0.18545455 -0.13779315 -0.06888842 1.0896192 0.4799997 -0.026682839 0.32813162
222 -0.39886343 0.097246684 -0.20787512 -0.3703726 -0.68034685 0.88795817 0.5965437 -0.048833247 -0.70740575 -0.682377 0.41115153 0.13290621 -0.08878663 0.08857186 -0.8653573 -0.66649544 0.20100588 -0.6019199 -0.13744554 0.043232862 0.34148833 0.6039052 0.51003253 -0.09883659 -0.8852544 -0.05440363 -0.16082919 0.03623534 -0.9161578 0.08154638 -0.040924083 0.15416755 -0.15108456 0.36416602 -0.50153625 -0.4991195 -0.08767012 0.57901305 -0.49382764 0.3831486 0.41193187 0.10160877 0.113308325 0.5662406 0.0721964 0.49921024 0.12901549 0.14711824 -0.026910286 -0.25269315 -0.052767467 0.28120208 0.12617049 -0.21403347 -0.7020129 0.0009839941 -0.10309208 0.4598833 0.13814588 -0.23671065 0.5375682 -0.002158068 0.22833584 -0.06915511
719 -0.4633913 -0.17089288 0.116548784 -0.37229902 -0.8156778 0.45819035 0.43633327 -0.1367249 -0.63462704 -0.58424264 0.5056364 0.061271064 -0.5961245 0.27227464 -0.62671834 -0.70194185 0.2293063 -0.56857616 -0.6095793 -0.0824668 0.02226526 0.22080697 0.6196434 -0.275237 -0.8008151 -0.10963439 -0.004538717 0.3771691 -0.896406 0.16232781 0.26375356 -0.09146363 0.03731046 0.24666668 -0.51629364 -0.40667075 -0.18893889 0.22830538 -0.2359749 0.18896449 0.38758343 0.31758097 -0.32343823 0.32556942 0.15497676 0.8853204 0.052726086 -0.09223484 -0.022226483 -0.3916051 0.16703367 0.18930331 0.22957358 -0.44973227 -0.89369124 0.049540892 -0.10126106 0.40606964 0.16808379 -0.33770195 0.5258787 0.02127076 0.11630776 -0.15529907
71 -0.24040122 -0.21947867 0.15956357 0.03338112 -0.29820138 0.47543418 -0.26360008 -0.19007501 -0.42719057 -0.62448657 -0.13871245 0.16432552 -0.1264237 0.117463335 -0.06584749 -0.07121382 -0.27659827 -0.09776326 0.10675872 -0.30597168 -0.18099971 0.50218785 0.5187397 -0.5268163 -0.0059843804 -0.06810602 0.38663372 0.55373424 -0.37410384 0.44614106 -0.14728317 0.49613658 -0.37275282 0.2366626 -0.2716667 -0.38399607 -0.11784788 0.55210775 -0.35223883 -0.3741033 -0.3099001 -0.036257684 -0.6857495 0.24750268 -0.41235638 0.04289447 0.029178603 -0.16656525 0.12373876 -0.34433824 0.18757592 -0.40240717 0.03287268 0.11552639 -0.30430493 0.21856253 0.9255795 0.8963849 0.1261405 -0.1580858 0.2614999 -0.1928715 0.20123899 -0.120038964
573 -0.17606336 -0.14536268 0.204965 0.11209275 -0.36256596 0.042749763 0.14884278 -0.42816445 -0.99127704 -0.02624949 0.14396687 0.62879133 -0.12524353 0.16095318 0.027227866 -0.12819909 -0.2588784 -0.43477842 -0.20383212 -0.47131386 -0.14451838 -0.35494554 0.2802337 -0.2447722 -0.14587559 0.08540936 0.04963675 0.2058443 -0.5299385 -0.028555373 0.055590108 -0.05581227 0.024236184 0.31838 -0.32370996 -0.21797964 0.19334652 0.6791283 -0.5288932 -0.13611712 -0.05879647 0.109569885 -0.6093118 0.31010765 -0.21199957 -0.0852293 0.3083473 -0.25737765 0.10316543 -0.74919945 0.0006847601 0.0714544 0.029091869 -0.043583702 0.033247683 -0.13137673 -0.0918242 0.7373348 -0.06905179 -0.25695053 -0.09819253 0.13344109 0.19889523 -0.4939542
48 0.045362066 0.092179045 -0.3214275 -0.2840749 -0.82266635 0.51036125 0.48811316 -0.26044518 -0.86564714 -0.64454055 0.29003227 0.0633331 -0.3821034 0.13206175 -0.5240238 -0.49884695 0.0067849844 -0.53349715 -0.61975753 0.0513855 0.5359193 0.17553015 0.95380634 -0.10412282 -0.6623294 -0.06997357 -0.06705518 0.36233872 -1.1697513 0.3253321 0.07634349 0.09321103 0.19571854 -0.040291447 -0.4066366 -0.3937943 -0.27132994 0.3945888 -0.30560952 0.1953234 0.25723684 0.49210587 -0.27201396 0.64447784 0.14649403 0.43086138 -0.06795753 -0.0068526035 0.037707664 -0.817387 -0.035685763 0.09879191 -0.14974646 -0.46693563 -0.97622436 0.314662 -0.06852387 0.29656535 0.3269833 -0.66530836 0.6712507 0.08020874 0.111688726 -0.14255095
253 -0.24975753 -0.28432196 0.18351795 -0.30770034 -0.57335997 0.089632705 -0.025172058 -0.85496825 -1.2191083 0.38736138 0.6818971 0.16493261 -0.79547435 -0.52803195 -0.22986959 -0.23316431 0.3099063 -0.6088634 -0.07414891 -0.1061457 -0.52394897 0.314082 -0.56058455 0.014051116 -0.5017985 0.56682473 -0.35853836 0.9215358 -0.61600614 -0.5241944 -0.19523017 -0.28718978 -0.5613691 0.55518425 0.030369196 -0.880542 0.4479585 0.051002424 0.33534583 0.6296267 0.38905236 -0.3641736 -0.16386026 -0.1350129 -0.8300018 0.88545907 -0.09125279 0.31135133 -0.8160362 0.41179118 -0.82855654 -0.072209425 0.64481604 0.37370282 -1.2528522 0.86324495 0.41472438 -0.31426352 1.080463 -0.90817064 0.64514434 0.013704203 0.8342398 1.2858486
445 -0.22146444 -0.25018674 0.3872318 -0.40280744 -0.5437525 -0.2699842 -0.009630231 -0.81686884 -1.1454725 0.44213596 0.75686795 0.078135155 -0.6032657 -0.42962813 -0.44165102 -0.16007751 0.13434514 -0.69780976 -0.14214012 -0.036241878 -0.8092952 0.23702677 -0.4673157 -0.002547979 -0.3659252 0.70833504 -0.48830852 0.7769447 -0.59608144 -0.489858 -0.23419113 -0.1779317 -0.6578451 0.65356016 -0.18476664 -0.84005255 0.6246726 0.099641025 0.22665422 0.30101418 0.395265 -0.2974585 -0.14634186 -0.13416478 -0.6370751 0.78160053 -0.16133395 0.31070387 -0.7939381 0.4956533 -0.84608436 0.15528277 0.3553934 0.43937364 -1.3202991 0.91498405 0.67832047 -0.35933185 0.8960366 -0.77894104 0.50615054 -0.16461794 0.7969907 1.0275618
303 0.54854447 -0.43529445 0.77158105 -0.36953193 -0.05748833 0.18002792 0.28632873 -0.26207274 -0.9742193 -0.24484889 0.14220078 0.03393324 0.68112165 0.33386287 0.5676572 0.28138626 -0.24906787 -0.31739858 -0.37663192 0.30891025 0.13626885 -0.106647134 -1.1706126 -0.06550156 0.30057982 -0.08710791 -0.15221012 0.44024026 -0.2222848 0.109819435 -0.11749595 0.5148637 0.36092165 0.41659814 0.10913616 -0.88256866 -0.118757576 0.14418769 -0.22264925 0.49932677 0.27291235 0.015597716 -0.21490102 0.60588425 -0.32506156 0.19445033 -0.21374607 -0.05037856 0.05486712 -0.4903895 -0.023160672 -0.19669478 0.08956037 -0.055409394 -0.8252667 0.8815724 -0.41039535 -0.13473451 0.08722592 0.10091288 0.08568463 -0.40963316 0.022079732 0.22326694
642 0.51381505 -0.36934823 0.68385893 -0.71584487 -0.17291728 0.08860277 0.010285297 -0.32427883 -1.0806063 -0.23874599 0.11170759 -0.06671531 0.4105073 0.43862712 0.61596406 0.19474976 -0.2864164 -0.5402438 -0.3427786 0.23953483 0.399052 0.12170711 -1.262903 -0.1402967 0.46669468 0.029415743 -0.3557986 0.39044172 -0.18541262 0.36759186 -0.23704685 0.68860126 0.25648624 0.26591504 0.041166574 -0.85319567 -0.29086906 0.27148107 -0.12814587 0.1815594 0.25380287 -0.21478355 -0.27640703 0.7365085 -0.46912026 0.12451357 -0.059472825 0.09753073 0.19641489 -0.3713642 -0.011714384 0.008557776 0.3935108 0.023319438 -0.91729546 0.77581143 -0.52657074 -0.120988786 0.29727492 0.109838784 0.04593648 -0.69221824 0.116130054 0.21790294
23 0.63422155 0.1828054 0.50541687 -0.26273763 -0.3144387 0.18781245 -0.8297249 -0.48933703 -0.9282218 -0.0049657123 0.09767936 -0.20740214 0.20754614 -0.57496315 -0.3067842 -0.27997 -0.0060631465 -0.25281987 -0.038084924 -0.026133623 -0.52886707 -0.0943948 -0.24947113 -0.14485659 0.21150286 0.28285143 -0.763428 0.26701665 0.103862256 0.16659568 -0.5805381 0.24684656 0.23856163 -0.23870035 0.28394175 -0.70426935 -0.12296565 0.5208542 -0.44409582 0.08246598 0.09258716 -0.537989 -0.87879694 0.45854938 0.69453704 -0.04023694 0.15485068 -0.55564934 0.6899364 -0.043360222 -0.099741854 0.14107108 0.45017788 -0.25133958 -0.4661415 0.86964756 -0.2108358 0.07363759 -0.17858341 0.07480071 -0.32004598 0.31165335 0.1276558 0.20150293
543 0.53367144 0.6803729 0.35987657 -0.10248512 0.12030701 0.54072386 -0.5869105 -0.61047906 -0.9485463 -0.289783 0.022990754 -0.18396941 -0.0015187195 0.19938874 0.12349619 -0.24674004 0.1847091 -0.20142822 0.38287374 -0.21874309 -0.4636622 -0.09960189 -0.20577031 0.11690272 0.5198886 0.014566501 0.17382763 -0.19549945 0.25046134 0.4195367 -0.22415666 0.1455004 -0.23963246 0.19458985 -0.357592 -0.6257739 -0.03341497 0.054521028 -0.20404166 -0.086433604 0.45089996 -0.5150789 -0.5083 0.28173566 0.0637155 0.21335754 -0.14853922 -0.33169168 0.6744844 0.10820309 -0.19478023 -0.19272918 0.42817312 -0.10424405 -0.46904707 0.8083642 0.14137326 0.27778524 0.44368762 -0.11336064 -0.41092914 -0.4309476 0.30200824 0.33827636
78 -0.121192 -0.13096033 0.09959338 -0.4284877 0.25432062 0.87705153 -0.61813235 -0.797041 -1.2309601 0.20828786 -0.21614408 -0.28300977 0.22002684 0.17101511 -0.008626097 -0.8604397 0.17952123 -0.43791613 -0.25192985 -0.099597804 -0.8848161 0.29502487 -0.015182931 -0.30221096 0.08161147 -0.3337197 0.28744867 0.1523431 0.4112563 0.05403718 -0.35441348 0.0069674673 0.51803154 -0.080216885 -0.1957946 -0.6742221 -0.3898027 0.20051177 -0.36553952 0.046943318 -0.46670654 0.14635788 0.30579993 0.063824855 0.22450235 0.8041566 0.3183493 -0.24337767 -0.21687052 0.052905504 -0.31397405 0.10819352 0.4212957 0.3955428 -0.024083009 0.59662366 0.42499277 0.062195215 -0.18709075 0.035178497 0.4123396 -0.6176231 0.5903078 0.1766321
723 0.16462825 0.00953745 0.16099533 -0.50796163 0.09611061 0.8236183 -0.40010744 -0.67870355 -0.8672218 -0.15813136 -0.23255526 -0.40524372 0.03234431 0.18399777 -0.07184247 -0.90662056 -0.14889745 -0.21605308 -0.013195553 -0.043046195 -0.7062315 0.20420009 -0.12333633 -0.412698 0.13962705 -0.29983488 0.32190517 0.044620115 0.50196177 0.17482388 -0.19858032 0.008628176 0.33749607 -0.06867684 -0.05381667 -0.5494144 0.105551906 0.15336348 -0.3502294 0.18486631 -0.39308837 0.09497745 0.107929066 -0.067927726 0.05619051 0.76821077 0.15970387 -0.34524912 -0.10510915 -0.032988045 -0.3839206 0.104923576 0.3461517 0.08116654 -0.22415915 0.5906559 0.2836791 -0.10544739 0.05169033 0.12597151 0.15394026 -0.55335265 0.42804962 0.31410617
312 0.26869005 0.09614849 0.29181117 -0.17323172 -0.2659296 0.5533197 -0.18934703 -0.45597157 -0.87968343 -0.17561185 0.0001337931 -0.48086134 -0.09114734 0.041796952 0.16066775 -0.6940746 0.042154532 -0.2949877 0.07643874 -0.047291517 -0.46617794 0.19392882 0.15581885 -0.27493143 0.29914403 0.023747925 0.33300206 -0.12458223 0.375957 0.33160782 -0.4227836 0.08673778 0.31222695 0.013810177 -0.37503347 -0.6206017 0.21321511 -0.07338653 -0.025257818 0.22864263 -0.37314606 -0.10536127 -0.025341054 0.052319657 -0.25834987 0.40322384 0.077867396 -0.48635545 0.1372779 0.010764844 -0.10853187 -0.19632922 -0.05179042 0.03732923 -0.2605882 0.5577753 0.28606948 -0.043945193 0.037795722 0.043413647 -9.600935e-05 -0.25335032 0.07159822 0.14904469
385 0.29387861 -0.14867662 -0.020271929 -0.1431721 -0.19154178 0.6549189 -0.34199864 -0.2657892 -0.71859777 -0.30106658 -0.025077034 -0.44195342 -0.17922802 0.044298958 0.15598202 -0.5245223 -0.12940231 -0.24854232 0.21546066 0.09116775 -0.37907872 -0.10355145 -0.014107126 -0.30885237 0.250973 -0.1284087 0.3381409 0.13642436 0.66545457 0.21314122 -0.4591239 0.020629367 0.22201544 -0.035353262 -0.20209645 -0.54033893 0.17897436 0.09346393 -0.19248262 0.3492422 -0.24605995 -0.022533886 -0.1372768 0.21476834 -0.43783173 0.25145632 -0.004329283 -0.7863139 0.06669859 0.12092451 -0.13360728 -0.06905165 0.1976141 0.100443095 -0.23496783 0.47388968 0.49563152 0.050427794 0.13225491 0.1676207 0.2508228 -0.2466312 0.24522759 -0.040661506
299 0.53968245 -0.04901486 0.16436519 -0.72072774 -0.65093434 0.6021499 -0.42856702 -0.45862582 -1.018245 -0.08793911 0.05110156 -0.3586676 0.29575935 -0.57400197 0.030645646 -0.3657671 0.030877186 0.081646614 0.73326415 0.4003513 -0.8583086 -0.12859058 -0.08761353 0.063726164 0.51570106 -0.0063038315 -0.7569702 0.3747292 0.059586868 0.07786512 -0.06425879 0.18088947 0.22922237 0.15455616 0.0594308 -0.6132949 0.65758693 -0.029120456 -0.22495729 -0.06758347 0.1718894 -0.69722366 -0.52928495 0.5795686 0.4335048 0.38164124 0.37464356 -0.49535596 0.5759815 -0.052433643 -0.2232454 0.08185791 0.041321144 0.31343314 0.0040961807 0.9537669 0.11818589 0.028720237 -0.2958908 -0.046041943 -0.00379263 0.062073015 -0.13272409 0.3097404
425 0.35693097 -0.07438154 0.047284998 -0.40304556 -0.6045243 0.6007122 -0.56594235 -0.2589663 -1.1401781 0.013650936 -0.060042486 -0.42299104 0.16028896 -0.29328293 0.2590161 -0.64952093 0.13196538 0.12922435 0.56803775 0.06658781 -0.910652 0.13328308 0.0884486 -0.23315108 0.37074926 -0.1641598 -0.23192747 0.2605996 0.011217646 -0.18629733 -0.607173 0.004751554 0.31346634 -0.0042060134 0.03794831 -0.5174525 0.20577534 -0.0005509095 -0.0062928107 0.2908096 -0.12841964 -0.29976496 -0.13670407 0.32609788 0.017680703 0.015192982 0.33474448 -0.2924843 0.5257621 0.14210673 0.011567708 -0.12927338 0.4998723 0.28085226 -0.21293467 0.5116427 0.34405673 0.22591867 -0.49601278 0.13203931 0.16250126 -0.23885916 -0.23011968 0.19275059
19 -0.29870743 -0.042180188 -0.0779656 -0.4423045 -0.66655314 0.15466633 0.6091164 -0.6311267 -0.56186205 -0.58766997 0.2407784 0.36901405 -0.6233278 0.61511713 -0.34443754 -0.28312942 0.27936125 -0.19484608 0.39214748 -0.13529068 0.27330926 -0.027424855 0.44619438 -0.08354419 -0.22103624 0.252088 -0.04933717 0.46985823 -0.99619097 0.24029607 0.24306177 0.3115544 0.20253097 0.24726462 0.25432438 -0.33172905 -0.16044058 0.45626432 -0.23388222 0.09283471 -0.27513435 -0.075345725 -0.25243264 0.5079588 -0.94960606 0.47956097 0.2137451 -0.3279974 -0.06388685 0.062967695 -0.0005025733 0.34009913 0.18030018 -0.19252068 -0.6800727 0.09678067 0.4665837 0.5329943 -0.5686011 -0.44218406 0.6224632 0.10460442 0.37920004 0.16760647
824 -0.620974 -0.36021614 -0.15722111 -0.8688386 -0.5938443 0.017436089 1.019453 -1.0835063 -0.6295394 -0.48651996 0.44554925 -0.14467056 -0.84833497 0.28071535 -0.32021347 -0.27501807 0.20578167 0.0060768556 0.3599699 0.025420487 0.38245913 -0.11072406 0.42036974 -0.025387583 -0.30757353 0.14985839 -0.17117988 0.48706862 -0.9968235 0.026593613 0.0110515915 0.4617164 0.41825745 0.49052358 -0.07605228 -0.35613102 0.106730424 0.5357945 -0.10283838 -0.09240545 -0.30033752 -0.13683286 -0.3648985 0.41605258 -0.7438538 0.3901596 0.3260356 -0.5429664 -0.33538777 0.2032317 0.20992449 0.2510563 0.6776861 -0.3764387 -0.55567664 0.2859206 0.686558 0.42374703 -0.4355548 -0.51694375 0.91440034 0.09594216 0.2138494 0.89469063
79 -0.3588734 -0.08405636 -0.25246468 0.14392446 -0.4330558 -0.2659257 0.18372972 -0.08710538 -0.54482347 0.2533504 0.42877588 -0.47810847 -0.059754405 -0.34701768 0.36145332 0.22049092 0.08448018 -0.3367068 0.040735256 0.07831592 -0.59525585 -0.1877987 -0.47411144 0.3471295 0.19358596 0.12188543 -0.097519726 0.24043503 -0.36666128 0.21856543 -0.67320156 0.3610822 -0.06224714 0.6057523 0.16684794 -0.39733386 0.24781588 0.15002112 -0.066946134 0.3652931 -0.1158983 0.12813322 -0.35852885 -0.17175981 -0.10900877 -0.21012774 0.23020907 -0.08453082 0.48607957 -0.36317316 -1.063149 0.30210128 0.37626803 0.055423573 -0.53925484 -0.05496461 0.19035654 -0.11067853 0.792892 -0.44434473 -0.023428606 0.42564315 0.5931273 0.17342874
638 -0.43307444 -0.038506243 -0.27311623 0.18282096 -0.17016077 -0.20768234 0.40914348 -0.10481481 -0.6634034 0.1291757 0.44898513 -0.18764849 -0.026147151 -0.32760465 0.17105472 0.32454064 -0.07289512 -0.25834686 0.18824482 -0.05625057 -0.762848 -0.27040872 -0.5313097 0.25526002 0.17604223 0.14661182 -0.08898294 0.28644294 -0.53097725 0.09185824 -0.90299815 0.3140255 0.16105081 0.7043568 0.22124864 -0.6041689 0.51305526 0.13154288 0.14234975 0.20563875 0.04075434 0.2544396 -0.1268934 -0.19562574 -0.037520163 -0.20758827 0.06707396 -0.21753988 0.5124663 -0.41851306 -0.82836115 0.37933403 -0.016056726 -0.06327539 -0.5352175 0.21820699 0.035617143 0.014479478 0.6070834 -0.44542786 -0.06983293 0.6921068 0.74221665 0.08125773
177 0.43833652 0.04263796 0.31887078 0.07095636 -0.07595657 0.3584882 0.1763236 -0.44527173 -1.0965366 -0.27661997 -0.28879252 0.11482817 0.35641813 -0.5676339 0.66371477 -0.04519559 0.17455891 -0.18968134 0.3095301 -0.2736264 -0.020712823 0.04341217 -0.7285357 0.3249698 0.055131484 0.40818757 -0.43179643 0.7959273 -0.28037474 -0.034435198 0.0030695468 0.117282376 0.14608008 -0.101206 0.1386224 -0.77527636 -0.28775007 0.0906908 0.12840524 0.48709276 0.27632797 -0.060040172 -0.59488624 -0.029996254 -0.6203057 0.008640966 0.2855314 -0.0942545 0.20733835 -0.39456755 0.40296552 -0.019305395 0.23984213 -0.23944475 -0.47060814 1.174741 -0.87158984 -0.34111276 0.47564664 0.31641322 0.30247337 -0.34576243 -0.10744627 0.45116696
696 0.66340214 -0.26704317 0.6145009 -0.38329458 -0.010867409 0.48656604 -0.083994344 -0.5374588 -1.2224001 -0.4317861 -0.03370388 0.041742872 0.25107062 0.14474435 0.75207084 7.146997e-05 -0.051733058 -0.3506299 -0.19911683 0.36815763 0.34556246 0.13151997 -1.325461 0.020610707 0.5979316 0.00010882017 -0.1729446 0.5410746 -0.1185067 0.110972956 -0.23720618 0.270803 -0.018839166 0.087595455 0.028225044 -0.92364687 -0.22679918 -0.032863475 -0.2308546 0.30358285 0.197215 -0.4632643 -0.36465225 0.3574099 -0.79364353 0.15482715 0.30741316 -0.07480975 0.009935673 -0.20313734 -0.02535005 -0.108167954 0.36297566 -0.12214057 -0.5384401 0.825836 -0.34399202 -0.3093162 0.32782593 0.12789392 -0.02975997 -0.490311 0.21478868 0.32693097
105 0.032938026 -0.79415095 0.12483868 -0.2102341 0.267628 0.035873532 0.10346993 0.03866474 -0.37701604 0.18817392 0.8309079 -0.048073683 0.44830647 0.006695199 0.1272021 -0.28689694 0.5013285 -0.36332536 -0.19099693 -0.30782872 -0.46947354 -0.29690427 -0.58784527 -0.43682936 -0.24618421 0.1546793 -0.3036622 0.49980494 -0.9397089 0.020991586 0.1008367 0.114135064 -0.22364372 0.9521632 -0.33899227 -0.59281904 -0.091312855 -0.17090756 0.20566197 -0.36170632 -0.050037257 0.44300017 0.049258873 -0.16019487 -0.47096846 -0.052264094 0.24908799 -0.8082836 0.44727048 -0.09112851 0.06561693 0.66144824 0.3739241 0.4113571 -0.6327847 0.21036671 -0.045251932 0.0671174 1.2041233 0.10459665 0.025867727 0.25003064 0.81300116 -0.3571145
773 -0.20677467 -0.27680442 -0.12339454 -0.35429907 0.13131435 -0.10422178 0.014415863 -0.085707 -0.28761667 0.11989297 0.8660211 0.058857717 0.5572643 0.14889899 0.16199581 -0.30047712 0.5658206 -0.37132642 0.047623523 -0.4005287 -0.5304079 -0.22017324 -0.32078767 -0.61873764 -0.30924502 0.046262536 -0.12255984 0.24394386 -0.82475436 -0.108416386 0.11808323 0.12251316 -0.29563034 0.6994072 -0.30048484 -0.8024469 0.080043554 -0.014383864 -0.065744 -0.44493878 -0.18932988 0.46411544 -0.012133414 -0.11144959 -0.31071356 0.11403875 0.1953306 -0.61670744 0.556097 -0.21798065 -0.021700678 0.43312922 0.20551373 0.40621382 -0.64587635 -0.07235001 -0.14790611 0.17851783 1.0026053 0.11439029 0.005831621 0.47204185 0.6717827 -0.29261568
271 -0.1834604 -0.3439273 0.5067047 0.5527496 -1.0593966 0.30903843 0.9553707 -0.90106416 -0.73225003 -0.421462 0.013166585 -1.0173284 -1.3670907 -0.9220995 -0.17208447 -0.06811175 0.14678851 -1.1738237 -0.6212014 0.17224161 -0.54018956 -0.3463261 -0.7471219 0.09906663 -0.57418716 -0.19948295 -0.0628328 0.3987561 -0.4789827 -0.030882113 -0.5009132 -0.027359175 0.5227314 0.11563458 -0.13725658 -0.2480433 0.19750169 0.35697934 -0.28019345 0.7704086 -0.09236947 -0.08494297 -0.03223828 0.9843882 0.18555887 0.42885694 -0.063494645 -0.04183354 0.4002438 -0.57149893 -0.4189474 0.06565555 -0.29897827 -0.35636547 -0.860098 -0.45397255 0.053010892 0.95565164 0.80045825 -0.64095837 0.8822991 -0.4279585 1.2032902 0.6104811
705 -0.35432607 -0.29870558 0.34482032 0.5243073 -0.8134773 0.009754166 0.8715361 -0.84015703 -0.5608606 -0.44502798 0.061746657 -0.9797874 -1.0442067 -0.86456776 -0.2638745 -0.10661613 0.18804033 -0.9380284 -0.47654033 0.0021059697 -0.39507642 -0.23861834 -0.6368336 -0.025413677 -0.74505 -0.24394444 -0.06213904 0.3210241 -0.52514666 0.029096682 -0.3628307 -0.03504038 0.47360831 0.20659363 -0.037884824 -0.22356886 0.39244175 0.2068139 -0.21311936 0.8362376 -0.15257397 0.022546884 0.028945561 0.7023515 0.15762198 0.08209435 -0.07776265 -0.086962506 0.5368916 -0.6760807 -0.35145462 0.042786 -0.03369181 -0.4222379 -0.6640149 -0.39156783 0.041410223 0.91808355 0.7056553 -0.49294275 0.74577224 -0.285062 1.0702717 0.45132896
37 0.32713172 -0.42538264 -0.14977925 -0.45223263 -0.91645527 1.1053015 1.0161895 0.06596139 -1.0154097 -0.72098535 0.0803577 0.05640582 -0.27788517 -0.28401595 -0.9467648 -0.7665587 0.42580292 0.025690481 0.15083267 -0.23603192 -0.065434545 0.7295893 -0.1456352 -0.15708052 0.3162365 0.14299984 -0.52845407 -0.13797551 -0.06092903 -0.26249292 -1.1976379 0.4428156 0.026331512 -0.17527008 -1.191025 -0.8250533 0.079265416 0.3626554 -0.2327164 0.30296394 0.17707881 -0.4713181 0.25453645 0.57649755 -0.03302889 0.91221285 0.13496266 -0.64221925 -0.24873748 0.28923088 -0.47951812 -0.32270378 0.7102563 0.23177038 -0.7332424 0.7626127 -0.3897753 0.17309877 -0.10185797 -0.5469467 0.8157664 -0.30031598 0.58126813 0.14508288
797 0.28020415 -0.14570376 -0.17230621 -0.5945031 -0.920422 0.9736258 0.92345774 -0.025940616 -1.1004492 -0.47873732 0.1059033 0.09702317 -0.083861314 0.02506891 -0.8918242 -0.922624 0.5666073 0.03661489 0.16384803 -0.28659326 -0.10323759 0.6730864 0.0013396259 -0.22651707 0.2152985 0.02791348 -0.3085461 -0.2220729 0.032731745 -0.23244217 -1.1734073 0.5821647 -0.18185009 -0.15867545 -1.1012461 -0.8680317 0.19295044 0.38843733 -0.3643849 0.16094206 0.16356024 -0.23242566 0.39637387 0.41764554 -0.21673405 0.8559923 0.1230338 -0.9207404 -0.22585076 0.25155452 -0.26705164 -0.1263276 0.61879903 0.084751755 -0.6724742 0.6467459 -0.2580473 -0.032614358 0.10127102 -0.23893708 0.6799093 -0.43151078 0.6151728 0.15443859
90 -0.44189715 -0.17872316 -0.18846473 0.21926643 -0.364369 0.07929673 0.04846774 -0.08229778 -0.35436594 0.23222812 -0.015575903 0.28516454 -0.026768928 0.54318523 0.471925 0.15726575 -0.12839536 0.095225394 0.1495878 0.116890885 -0.40028635 0.59614336 -0.1764175 0.19664161 0.52351284 0.24689113 -0.32811898 0.62024426 -0.31569883 0.26072752 -0.06804802 0.48278373 0.17994551 0.82899475 -0.25557998 -0.1552542 0.10928304 0.060040347 -0.053071424 -0.25781593 -0.78551656 -0.25979793 -0.41331437 0.069077246 -0.3109522 0.43724853 0.061350934 -0.31912977 0.20666799 -0.5530412 -0.314576 0.67989105 -0.35903195 0.040173016 -0.6403145 0.015650392 0.5125195 0.40474203 0.17043053 -0.8185195 0.14659908 -0.103445515 -0.05237401 0.36205205
551 -0.3082044 -0.08484072 -0.085335456 0.22700423 -0.5993395 0.01455995 0.32522076 0.041872356 -0.17991956 0.20335048 0.056807738 0.17868376 0.04424551 0.8019796 0.29031295 -0.17561968 -0.1578705 -0.06996915 0.32019198 -0.040337123 -0.22927798 0.044519793 -0.19255787 0.29187113 0.32970008 0.26810068 -0.22592443 0.57342744 0.15773068 -0.025096223 -0.23436154 0.39148083 0.10415666 0.69375443 0.060129873 -0.31382194 -0.025904985 -0.015319387 -0.12049591 0.08477082 -0.16431932 -0.020332113 -0.055783108 0.3290262 -0.10479716 0.7918681 0.13094291 0.11232441 0.5970557 -0.5039733 -0.8189198 0.6094983 -0.033280756 0.12436504 -0.76380247 -0.013505137 0.07182365 0.592714 0.16737527 -0.27256793 0.48239914 0.32252067 -0.16274686 0.2212356
873 0.30905065 0.09169885 0.3489335 0.0019631109 0.25710204 0.24478677 0.22704709 -0.48708114 -1.1824247 -0.42866617 -0.2646719 0.19382289 0.20910312 -0.6607069 0.7028558 -0.12534401 -0.11471459 -0.02778497 0.07803975 -0.0749299 -0.11665342 0.25894684 -0.9011027 0.32255185 0.08254339 0.09751543 -0.39507228 0.9931442 -0.45661822 0.104000635 -0.31996992 0.12171987 0.11676436 -0.062891714 0.03648633 -0.5444578 -0.34728193 -0.15033998 0.113425694 0.48359945 0.23341127 -0.39689913 -0.7554147 0.08275155 -0.4793707 0.060544886 0.1395063 0.026691252 0.3373453 -0.08006319 0.254648 0.052683186 0.10833193 -0.3446693 -0.53126353 1.1195679 -0.5959535 -0.27210754 0.672114 0.25205815 0.50517255 -0.47015885 0.11153628 0.31040043
190 0.20596664 -0.041386176 -0.3798809 -0.35228863 -0.59022075 1.2944251 -0.11457685 -0.25335428 -0.98688287 0.24977438 0.6461105 -0.6647865 0.089666255 -0.27206904 0.059753574 -0.44517204 0.27753133 -0.69093895 0.18445736 -0.121905826 -0.43417674 -0.39081976 -0.13613293 -0.4415438 0.6805285 -0.32865196 -0.098854266 -0.61719 0.39253724 -0.24122988 0.54841906 -0.50617146 0.3939 0.19837649 -0.60638845 -0.7258579 -0.16776238 -0.00871673 -0.06919989 -0.035797086 -0.18783012 -0.6379372 -0.2941026 0.12452616 -0.26814982 0.09840985 0.034558006 -0.4599364 0.29724115 -0.04394035 -0.7373366 0.35609725 0.47238818 -0.34507567 -0.92435384 0.6883352 0.8716822 0.15948258 0.2682624 -0.016692683 0.14807878 -0.61518866 0.49762103 0.10757376
847 0.15545154 -0.046728477 -0.61121494 -0.2526148 -0.75363296 1.455935 -0.06929133 -0.36021563 -1.1397252 0.48962 0.46977633 -0.6375459 -0.10437358 -0.26730946 0.010238382 -0.3582893 0.30867195 -0.8458234 0.24271266 0.18946679 -0.5418168 -0.2461123 -0.40902442 -0.40649757 0.4852232 -0.53668654 -0.31332365 -0.5728923 0.58754486 -0.46483603 0.5555695 -0.26943594 0.7737307 0.43085566 -0.7349849 -0.7637643 -0.38147798 -0.19223641 -0.15007532 -0.044776563 -0.091226324 -0.58858126 -0.28271908 -0.053655393 -0.3179937 0.19687515 0.038881034 -0.37502387 0.17200185 -0.07628056 -0.52014136 0.5730931 0.5766204 -0.5991093 -0.9505442 0.7166901 0.7235217 0.18197194 0.23136154 -0.1619931 0.15052266 -0.5364666 0.5026306 0.112871245
117 0.06509786 0.16749902 -0.20262757 -0.24226102 -0.28119898 0.10889423 -0.046397932 -0.42480555 -0.49757 0.07299767 0.48081893 0.18165313 -0.11985411 0.03155417 0.10227953 -0.22135174 0.19448899 -0.314385 0.35581306 0.17344974 -0.5338235 0.14305255 -0.2341956 0.2367315 0.19169383 0.34520414 -0.5455318 1.1035658 0.038454734 -0.7120206 -0.15915532 0.36417297 -0.21665488 0.043042734 -0.27934086 -0.20107858 0.56807774 0.09116165 0.34256876 -0.0068910597 -0.044832636 0.06810075 -0.15317401 0.020640705 -0.32784358 0.6073936 -1.170191 0.13937494 -0.015752288 -0.8177629 -1.0342325 -0.08278761 -0.16283068 0.2722607 -0.8377369 0.6513259 -0.0795215 -0.36936834 0.26165545 -0.39149833 0.7922456 -0.035601772 0.37662262 0.23209918
772 0.13998044 -0.07992465 -0.036297176 0.029424256 -0.3919686 -0.015249183 0.16886243 -0.3141521 -0.03486559 0.5250285 0.44234195 -0.050575197 -0.088143885 0.08515871 0.2169202 -0.14463182 -0.11571673 -0.4675739 -0.17647171 0.14372826 -0.34707063 0.17664337 -0.50530434 0.29912835 0.6222646 0.29201752 -0.29470733 1.1796433 -0.24607395 -0.3422628 -0.088204384 0.3567172 0.31516525 0.62303907 -0.095337376 -0.26070982 0.017530246 -0.1257027 -0.24907576 -0.49444303 0.16792025 -0.22954965 -0.23150536 -0.19175304 -0.099015936 0.61610574 -0.27988073 0.13746068 0.3410147 -0.58215946 -0.47179228 -0.0058875484 0.4842207 0.5390537 -0.5464685 0.6443905 -0.5186084 0.08812947 0.16975479 0.060158733 0.52192944 0.4799917 -0.014340989 0.3465502
28 0.9236775 -0.716609 0.4386742 -0.6797224 -0.36442226 -0.2050465 0.14691241 -0.42344514 -0.81225216 -0.26973847 0.1939594 0.0062519046 0.47942895 -0.0001523474 -0.06501093 0.11905682 -0.099835806 -0.4912249 -0.4153227 0.28010148 -0.0493866 0.17660134 -0.6710541 0.056197915 0.47376776 -0.14037539 -0.6743834 0.54946256 -0.98532194 -0.25638843 -0.32053775 0.21568006 0.28509277 0.86978275 -0.3591158 -0.70825714 -0.31012762 0.6454173 0.3013368 0.45183372 -0.13308094 0.36608958 -0.13295653 1.0946825 -0.64432096 0.83545125 -0.21275805 -0.31708553 -0.18350087 -0.32662395 0.23349153 0.06404709 0.51382345 0.44791126 -0.24815756 0.6625645 -0.039456237 -0.32560334 1.2388105 0.067817636 0.65122783 -0.9141236 0.075118855 -0.3777385
818 0.78587836 -0.47792146 0.34333885 -0.7336404 -0.41544634 -0.12015165 0.08708491 -0.36269113 -0.6971066 -0.12327792 -0.014309425 0.102020435 0.51613325 0.07837981 -0.17463456 0.22630878 -0.13458288 -0.5794814 -0.28864464 0.2407156 0.09510267 -0.11058056 -0.70664334 0.123743266 0.36507672 -0.2195893 -0.5837225 0.52930874 -0.67256945 -0.18493547 -0.24792172 0.13968873 0.14932765 1.1249976 -0.3850519 -0.6938477 -0.27224645 0.53805685 0.26724118 0.6222504 -0.3037454 0.36261368 0.001751206 1.0999789 -0.4653975 0.7605496 -0.10127721 -0.3404434 -0.20032658 -0.23149963 0.2795191 0.010973885 0.42267436 0.42814076 -0.31435993 0.73639745 -0.08487405 -0.42902544 1.2500517 0.59688115 0.7941237 -0.62240356 0.24978644 -0.39981326
249 -0.1608542 -0.23584615 -0.06897142 -0.25620314 -0.27357504 0.08306314 -0.28215978 -0.47669291 -0.32431185 -0.15854535 0.41598952 -0.10090776 -0.25781792 -0.084184065 0.055317804 -0.22987731 0.45529652 -0.37676784 0.22141835 0.3135996 -0.5532574 -0.03339489 -0.5994468 0.40337032 -0.20609352 0.24904838 -0.48425278 1.2528574 0.35894486 -0.0038026476 0.2848931 -0.28150794 -0.22476909 0.37560725 -0.53535885 -1.0128403 0.5871602 0.18325746 0.016995842 0.89266276 0.49033543 -0.3685571 -0.5053727 -0.0013731333 -0.81590545 0.16489422 -0.8800729 0.20842472 0.006869974 0.12942469 -1.0807064 -0.08754587 -0.14435878 0.5182881 -0.43033698 0.95891243 -0.35497034 -0.13210548 0.68810517 -0.2726691 0.42730063 -0.015614762 0.5207431 0.103091426
621 -0.1620858 -0.17628717 0.15113401 -0.08026603 -0.5861155 0.1716748 -0.5680501 -0.4894311 -0.60910314 -0.10171996 0.5026798 -0.066704445 -0.45512626 -0.1531903 -0.10049913 -0.3909182 0.4108274 -0.28908747 0.17193435 -0.07060344 -0.5449732 0.15614101 -0.9146209 0.27777466 -0.39109048 0.14963657 -0.103178084 0.89708745 -0.00959085 -0.12172739 -0.3115089 -0.09576717 -0.21975742 0.151597 -0.22780977 -0.7837594 0.6409663 -0.038970552 -0.118505634 0.12170146 0.5964535 -0.09440243 -0.4519417 -0.115487605 -0.58328533 0.21924232 -0.43896157 0.16044702 -0.26906624 0.42947966 -0.96970975 0.047092076 0.26228222 0.3768345 -0.27234977 1.1229146 0.11967814 -0.27025777 0.8350546 -0.42471874 0.72 -0.08424604 0.33633435 0.27643824
246 0.2765271 0.7109736 0.014198403 0.06771609 0.22098647 0.4884445 0.021085314 -0.621983 -0.8341734 -0.05053579 0.57189465 -0.06159263 -0.33788824 0.4313983 0.42669776 0.11092715 0.1347511 -0.3841608 0.44732326 -0.09269145 -0.58465075 -0.34456116 -0.478592 -0.03282501 0.5439533 0.13991135 0.070394106 0.3550751 -0.5767867 0.003240509 -0.73657936 0.6372475 -0.09446142 0.17977744 -0.51949817 -0.46325904 0.18149443 -0.1823206 -0.72472703 0.205469 0.045892276 -0.09610284 -0.29846287 -0.26024145 0.018102804 -0.32532322 -0.44610918 -0.26452747 0.0027588992 -0.0037253438 -0.30903855 0.13170181 0.29954043 0.021873655 -0.36961806 0.40463397 -0.06837518 0.39794794 0.45809537 -0.009636364 -0.6808517 -0.3986291 0.3997856 -0.12109505
384 0.34676152 0.39194506 -0.13480394 0.0012278612 0.22691174 0.020848148 0.4153151 -0.6402907 -0.82139117 0.32248732 0.5353946 0.21178402 0.048781835 0.6032709 0.28506058 0.09703214 -0.029620161 -0.2085275 0.446062 0.37293297 -0.2583004 0.07909212 -0.5478606 0.41030475 0.3212329 -0.019887269 -0.17776924 0.3101925 -0.18497112 -0.06559493 -0.67859674 0.649104 -0.2759188 0.09807781 -0.32157668 -0.7604469 0.17245306 0.17813274 -0.90240514 0.12635998 -0.29588497 0.18908069 -0.06134396 0.05289704 0.0424625 -0.57348657 -0.59022987 -0.1783932 0.3505928 -0.5218426 -0.32129005 -0.075616434 -0.11091278 0.17666282 -0.21893793 0.3282828 0.07060808 0.120998815 0.45927867 0.45340544 0.11564074 -0.059218593 0.068890356 0.6254662
22 -0.30295295 -0.032924674 0.6298312 0.25693953 -0.31260312 0.18415284 0.45717812 -0.49856678 -0.47380856 0.027646989 0.14990644 -0.049641144 -0.5827201 -0.45642585 0.15726177 0.29421604 0.2585501 -1.029675 -0.7818877 -0.090830624 -0.18577895 -0.001504294 -0.3606067 -0.41622484 -0.66487586 -0.15608044 -0.01698346 0.77075034 0.03976007 -0.3085843 0.1900925 0.47342643 0.6803528 0.11390351 -0.3353164 -0.09464512 0.46063533 0.9935841 -0.1322141 0.82468396 -0.06702536 0.013626501 -0.035126008 0.89846265 0.13852668 -0.30253878 0.4782483 -0.87585443 0.4454834 -0.5370916 -0.057615668 -0.061157323 0.36618048 0.30883366 -0.6802002 0.45755845 -0.090296306 0.70295906 -0.1223424 -0.4222495 0.3112955 0.23042558 0.5453322 0.3557373
826 -0.24513496 -0.20000423 0.59238 0.29231787 -0.52568054 0.35538745 0.5403123 -0.5854272 -0.505383 -0.10939978 0.21761824 0.35835177 -0.43562844 -0.18948671 0.078491814 0.25625905 0.21580994 -1.1527008 -0.48987874 -0.34875366 0.10269873 0.17327607 -0.019396044 -0.555535 -0.56163573 -0.27097473 0.14494352 0.6445934 -0.20144461 -0.1888155 0.0521734 0.20801614 0.4517245 0.22493555 -0.4707059 0.18104717 0.478284 0.83021784 -0.21294385 0.5774782 0.034326937 -0.14073911 -0.36532795 0.824395 0.093457244 -0.41866267 -0.2155109 -0.9397378 0.7329234 -0.83085763 -0.16210307 -0.1084076 0.30351657 0.42561638 -0.42401177 0.23215407 0.01873015 0.9681875 0.075463615 -0.11590946 -0.04667429 0.29483724 0.43067554 0.31669742
305 -0.17147711 0.01649284 -0.23906669 0.048288323 -0.4886474 0.053957302 0.2745718 -0.28670445 -0.45558247 0.4246122 0.2837471 0.3396293 -0.09298985 0.3940772 0.31841046 -0.22457363 -0.27954155 -0.377785 -0.10147275 -0.050320067 -0.31821316 0.24848369 -0.4370342 -0.05130377 0.7869571 0.20171754 -0.32442766 0.76012546 -0.09519463 -0.07285109 -0.113330744 0.55039245 0.5240491 0.63296115 0.03208626 -0.410743 0.17488557 -0.013611373 -0.30973715 -0.122437514 -0.24241044 -0.10598418 0.102834016 0.18896021 0.030054934 0.66308635 0.15737726 -0.015192102 0.5775106 -0.49557722 -0.80825245 0.5507328 0.003816396 0.12176354 -0.11703855 0.1116072 -0.2609656 0.17137162 0.38061035 -0.45468473 0.32135502 0.22311245 0.027719414 0.34452465
258 -0.3160376 -0.6284427 -0.31421492 -0.6677992 -0.47408807 -0.14434609 0.55678856 -0.49142438 -0.98338705 -0.5093069 -0.0058824085 0.2441285 -0.25158012 0.5776642 -0.5992699 -0.24462698 0.25450537 -0.23755054 0.31248778 0.062043477 0.47183725 -0.05335308 0.6320369 -0.068269365 -0.3592579 0.13696615 0.020781903 0.025216851 -0.8631419 0.261467 -0.398806 0.5804722 0.363551 -0.019956928 -0.20020814 -0.29742858 -0.24363726 0.691791 -0.073170155 -0.16988397 -0.44258428 -0.4877084 -0.36395788 0.28672916 -0.9895144 0.36526296 0.005986387 -0.54490775 -0.040736586 0.28885746 -0.09157819 0.41377363 0.38301164 0.07661974 -1.1070976 0.3889959 0.16266972 0.13943836 -0.13410923 -0.44067597 1.378037 0.114527866 0.07781104 1.0355841
643 -0.43562502 -0.33908078 -0.2998053 -0.628327 -0.477029 0.038858484 0.76215684 -0.4690878 -0.9343943 -0.34449995 0.11384528 0.11464256 -0.5400287 0.63083065 -0.50790966 -0.29202887 0.35086212 -0.24427433 0.24710506 0.2629555 0.6470034 -0.21000777 0.7716129 -0.20261954 -0.3592267 0.2337505 0.114480555 0.22851773 -0.6227766 0.0368462 -0.14872824 0.60424906 0.59740645 0.06261198 0.03383069 -0.5282295 -0.11348123 0.38961485 -0.11644505 -0.20146292 -0.3866311 -0.23841332 -0.23443735 0.3432359 -0.70592964 0.3610238 0.32790247 -0.28996795 -0.16339819 0.4047384 -0.02140123 0.3571841 0.5275017 0.09176754 -0.7776608 0.41387263 0.36198306 0.2747095 -0.101355046 -0.313299 1.2986053 0.11651399 0.38417804 0.7912029
307 -0.25963923 -0.081387855 -0.14235412 -0.46293342 -0.2005899 -0.033536926 0.13429853 0.20257005 -0.20032014 0.2949394 0.7122707 0.19039594 0.6326117 -0.09014647 0.29131496 0.029881908 0.4573711 -0.24664453 0.5740897 -0.12796882 -0.90844905 -0.017705835 -0.2786412 -0.11376517 -0.0314289 0.14298156 -0.35988957 0.23039575 -0.34707838 0.06935033 0.018778376 0.38607964 0.14066507 0.5903999 -0.042662434 -0.85077924 0.3257195 0.2633046 0.019866435 -0.00015638546 -0.44095886 0.3308863 0.18384248 -0.07039344 0.058565494 0.015362476 0.39747834 -0.27707845 0.691229 -0.5255133 -0.44566607 0.12531507 0.40244952 -0.024553735 -0.75449276 -0.2045544 -0.004699571 0.022564752 1.0589962 0.052419603 0.0055339327 0.3844275 0.7606143 0.18779694
512 -0.31946453 -0.1576715 -0.07868717 0.027441664 -0.064103425 -0.12974681 0.10398062 -0.12036737 -0.4240483 0.19494995 0.6888739 0.014618266 0.48819634 -0.13459842 0.24469 0.2268503 0.50810933 -0.32777575 0.4335829 0.0035038139 -0.83014923 -0.031571914 -0.39629203 0.007646389 0.21934895 0.21573344 -0.112034954 0.00337059 -0.4984258 0.08313513 -0.32703063 0.14776331 0.16497402 0.7659151 0.30123228 -0.5768611 0.44387996 0.359622 0.001215803 0.23951168 -0.3936079 0.33891496 -0.019967431 -0.25827032 -0.0012598082 -0.010932803 0.3459731 -0.1138773 0.54481316 -0.44671384 -0.5054884 0.18777071 0.24952479 0.2636928 -0.6231196 0.08414442 0.14977595 0.0015025955 1.0993944 -0.24486035 0.10416965 0.64237535 0.61100984 0.250084
680 0.24568807 -0.14743003 0.17161131 -0.53237385 -0.02710175 0.38500673 0.0447826 -0.49394217 -0.6213596 -0.13234386 -0.1989736 -0.16402762 -0.30367616 -0.4168358 0.21979599 -0.6935314 -0.03869907 -0.00021012206 0.13103642 -0.17046635 -0.53225124 0.056282923 0.33905023 -0.48085114 0.09144089 -0.3877315 0.16664484 0.04525794 0.43835968 0.2508613 -0.47989044 -0.26321983 0.05517577 -0.11875911 -0.12061446 -0.69211566 -0.23698859 0.531385 -0.20637739 -0.12633999 -0.2952652 0.13312382 -0.5755416 0.11377328 -0.27919868 0.26561153 0.17160952 -0.25571734 0.44425142 -0.26119524 -0.06174897 -0.33092692 0.038879313 -0.5205834 -0.5614431 0.4130197 0.28293398 -0.05947518 0.21220382 0.39787787 0.28588402 0.08810971 0.28738204 0.21325943
130 0.408803 -0.15342358 0.21755406 -0.2064314 -0.4281428 0.47647876 -0.20672585 -0.42899758 -1.3221037 0.15975304 0.06984121 -0.5808372 -0.22337128 0.06227645 0.49184266 -0.47344628 0.29322746 0.17110394 0.5915035 -0.016246844 -0.6834285 0.32176432 -0.010025146 -0.64499253 0.32596007 -0.4091715 -0.023028642 0.56251633 -0.09818231 0.28955162 -0.44818127 0.25217116 0.70728326 -0.19316716 -0.13854213 -0.27281338 -0.2512609 0.022510955 -0.2613393 0.40183464 0.08674171 -0.068953454 0.36067852 -0.06618144 0.07910395 0.43608412 0.13284339 -0.10530094 0.23939352 0.096770145 -0.11680321 -0.26876158 0.22332063 -0.002346107 -0.22665647 0.43020156 0.5568344 -0.11129734 -0.29030472 0.5456889 0.33595124 -0.29958704 0.12000205 0.3695846
459 0.1849655 0.050067727 0.54873866 -0.030749558 -0.37103146 0.5817103 0.08876397 -0.3854997 -1.2681705 0.060899258 -0.07223009 -0.69894946 -0.09398392 -0.031785797 0.20018442 -0.42005265 0.16408877 0.08109498 0.3662547 0.056550026 -0.6902704 0.47152478 0.23186614 -0.11541149 0.51897943 -0.5535877 0.21490838 0.29157275 0.20379087 0.03389695 -0.55730456 -0.1218254 0.5013261 -0.28456113 -0.21419196 -0.2436709 0.1856601 0.040344812 -0.33076257 0.43757543 0.2154151 0.12400871 -0.23643288 0.016135272 -0.35641304 0.23986992 0.1597139 -0.05328884 0.29869124 0.028520124 -0.2751918 -0.25651306 0.5430875 0.08829337 -0.4281474 0.3289656 0.69849086 -0.115382515 -0.07126722 0.5196307 0.18931448 -0.18347146 0.22139403 -0.07709755
813 0.3337433 -0.3237153 0.21144933 -0.32983997 0.1333225 -0.42117536 0.25125554 0.37747636 -0.99896747 -0.25047642 -0.12197447 0.12462767 -0.6342958 0.39163828 0.120791964 -0.36905056 -0.19327329 -0.41325888 -0.38741142 -0.36620343 -0.71507114 -0.73284614 -0.2960692 0.11301811 -0.5665747 -0.649765 -0.76958346 0.28543705 -0.009391641 0.25408337 -0.6628739 -0.20216121 0.22822955 1.0770447 0.52208024 -0.65437734 -0.19353062 0.64300823 0.00024010046 0.340361 -0.29739353 0.090629704 0.030823132 0.6434425 0.17151165 -0.054437615 0.2757312 -0.8473823 0.06903509 -0.5093275 0.094186395 0.16047247 -0.19889262 0.20438582 -0.77380264 -0.2379892 -0.13715954 0.15261202 0.659752 0.25761202 0.28116608 -0.26489988 0.1214651 0.4394728
86 -0.10068287 0.1802774 0.41216674 -0.3248599 -0.40453762 0.06174693 -0.03910852 -0.0037941437 -0.4984197 0.2115501 0.06796957 -0.025015434 0.03427641 0.18392633 0.29266515 -0.123266675 0.23840566 -0.425795 0.39120725 0.54092515 0.024935208 0.005536391 -0.14595185 0.23076703 0.42037967 0.119429216 -0.08023709 0.24746326 0.43766773 -0.10594818 -0.2582302 0.4480323 0.5366166 0.5300482 0.010600431 -0.44033864 0.38425085 -0.22547226 -0.04538554 -0.045990944 -0.07645596 0.662001 -0.03130238 0.11367911 0.07417473 0.032238364 -0.17105243 -0.1550836 0.5221724 -0.19871178 -0.5460431 0.015235598 -0.20752834 -0.08314605 -0.5286083 0.06025036 -0.1231673 0.5888429 0.34543374 0.03118461 0.4329017 0.020052833 0.09253872 0.082244284
488 -0.19583692 0.30353224 0.30901316 0.1085126 -0.085170835 0.3352801 -0.21985748 -0.16172995 -1.0288249 0.55835843 0.03522643 0.33988345 -0.27808568 0.8207758 0.58804727 -0.08457187 0.8559924 -0.3115931 0.23839395 0.14334702 0.05385929 -0.0016723624 -0.39839634 0.1718798 0.2362202 0.2203156 -0.23331873 0.11355352 0.13063794 -0.05834844 -0.16000275 0.101513006 0.38366076 0.6687782 0.29313233 -0.3759889 0.5644569 -0.09571663 -0.022844536 -0.2979771 0.12041039 0.59426546 -0.1016234 0.23017411 0.16338241 0.35103497 -0.63283086 -0.21576425 0.5067191 -0.24526936 -0.78746855 0.20062798 0.21037368 0.11044537 -0.8859361 -0.08665695 0.057058834 0.55584145 0.34560376 0.6762645 0.30780143 0.14284748 0.2585907 0.1421533
32 -0.02579494 -0.18370245 0.16290152 0.44326055 -0.6396919 0.32557532 0.18837461 -0.3588946 -0.6757345 -0.042494345 0.20716 0.53595644 -0.29641518 0.14005788 0.25084245 0.3185776 0.0809382 -0.8774919 -0.3170288 -0.38123977 0.28913355 0.2366049 0.2781535 -0.7584947 -0.3335521 -0.29120082 -0.011143652 0.62386864 -0.50574505 -0.22944921 -0.3005132 0.046285696 0.27436614 0.3130689 -0.42446917 0.067043476 0.27199948 0.67195106 -0.19005097 0.25247604 -3.5398105e-05 0.056560874 -0.48131227 0.7017532 -0.027093295 -0.35158753 -0.077257134 -0.85976106 0.55142325 -1.0971736 -0.12197162 -0.14781657 0.20727158 0.4304087 -0.15642339 -0.023586994 0.08187678 0.8132442 0.17975193 0.07913385 -0.08960815 0.34018153 0.20873313 0.23836742
477 0.041832656 0.029420327 0.41979492 -0.026370198 -0.5650374 0.54310685 -0.16264473 0.007640625 -0.48664436 0.3927693 0.09554082 0.4936047 -0.34139395 0.025836295 0.4878046 0.24475741 0.13606952 -0.31619528 -0.120111376 -0.31461424 0.13003269 0.1856404 0.36804152 -0.81102574 -0.23442003 -0.36273596 0.18294504 0.7188123 -0.427823 -0.33715388 -0.1166033 0.113769665 0.34206426 0.3320316 -0.30931735 -0.1775955 0.21909381 0.59587306 -0.13300024 0.08674749 0.075207345 0.46054518 -0.49392748 0.6861629 -0.043138698 -0.20022742 0.20890819 -0.72737885 0.48395494 -1.3042583 -0.43644372 0.028761428 -0.0956103 0.36945882 -0.39209256 0.05656052 -0.21277729 0.4900363 0.17899564 -0.27897182 0.031422667 0.18711743 -0.15336162 0.6764331
352 -0.3485191 0.112270236 0.3112986 -0.05323652 -0.6581694 -0.24515857 -0.024238085 -0.15288709 -0.35403594 -0.087832704 0.32251573 -0.1878813 -0.024047846 -0.020944146 0.20117025 0.06136503 -0.032530874 -0.15846832 0.25990948 0.2921682 -0.72172177 -0.31436577 -0.68930775 0.030047424 0.41036022 0.42413747 0.10531869 0.19729613 -0.52095 0.30640984 -0.3985008 0.12624057 0.08468172 0.26538438 -0.011835272 -0.5355723 0.14064875 0.09046977 -0.29705802 0.0098851705 0.08261417 0.12405006 -0.21031556 0.09678902 -0.23124886 0.30695128 -0.50068915 -0.31383127 0.62002885 -0.52501506 -0.8829705 0.33308643 -0.15408187 -0.021584602 -0.19745012 -0.30352536 -0.4113639 0.5376241 0.074349284 -0.022318896 -0.15229967 0.041205376 0.36163527 -0.07083828
102 -0.1379893 -0.11302262 0.18431906 0.3221629 0.003317126 0.3102795 -0.04098118 -0.26733974 -0.802533 0.06798411 0.43632704 0.042962592 -0.11195591 0.24595147 0.47151652 0.08189377 -0.32247284 -0.23900461 0.3887458 0.057146948 -0.5659822 -0.57205826 -0.1460837 -0.052727018 0.3167079 0.023147734 -0.0071815383 0.11807241 -0.44824618 -0.06109918 -0.47867084 0.97715646 0.23349608 0.25115395 -0.27884072 -0.5365474 0.013161313 0.26301363 -0.3620546 0.069940664 0.17168555 0.10654588 -0.5998593 0.10913404 0.01147309 0.0008435999 -0.1981422 0.09900228 0.104726896 -0.45023838 -0.4696237 0.1434664 -0.0051845503 0.2586604 -0.13389274 0.31974962 -0.48297733 0.27030802 0.15922113 -0.17798564 -0.48419547 -0.33490226 0.058087975 -0.17464906
740 -0.19879447 -0.12796424 0.15683818 0.3303928 -0.12890285 0.060093403 0.099200964 -0.48934636 -0.8559436 -0.017165672 0.20435475 0.05869888 0.15903616 0.14758834 0.50673443 0.44577995 -0.38827863 -0.4642756 0.3149364 0.15805918 -0.71843195 -0.4803861 -0.3212072 0.13332646 0.38808954 -0.07277795 0.10823357 0.16142291 -0.40308392 -0.025528928 -0.51464736 0.91832846 0.07685345 0.3739385 -0.40788347 -0.49869877 0.13743944 0.26406556 -0.578737 0.22918199 0.10669112 -0.07446064 -0.7270744 0.11550083 0.03930553 0.036329888 -0.2143413 -0.23090304 0.116930954 -0.3117499 -0.33859527 0.5061075 0.06190397 0.24807213 -0.18734138 0.20217507 -0.2854898 0.43804598 -0.09897474 -0.060662065 -0.45973513 -0.2668885 0.111035824 -0.0874307
116 -0.18017584 -0.48030707 -0.39134565 0.21967058 -0.44253835 0.82636374 0.36312622 -0.39200622 -0.18646944 -0.5595183 -0.06597962 0.46926025 -0.07625452 0.25506574 -0.22392805 -0.19318983 0.23324114 -0.24733251 -0.22440997 0.23270078 -0.39335132 0.4600674 0.59056365 -0.17384481 0.2730648 -0.14838554 0.25450608 0.5820767 -0.61382705 0.5487115 0.28751153 0.6816481 -0.3135984 0.3658982 -0.045219637 -0.41217932 -0.12753202 0.28511035 0.2462142 -0.29814494 -0.86648506 -0.18434677 -0.7326609 0.21590237 -0.23687178 0.82440263 0.11962735 -0.17314455 -0.15239197 -0.31995967 -0.107017316 0.21815188 -0.054802485 0.055182807 -0.81415725 0.1039261 0.5754765 1.0865417 0.19091304 -0.4668411 0.6144295 -0.20271717 0.29282463 0.29062966
802 -0.2786797 -0.38197696 -0.5566296 0.25124517 -0.4605459 0.8713108 0.4312553 -0.39166814 -0.2887395 -0.6466039 -0.19993646 0.3447751 0.06605304 0.32215253 -0.0915825 -0.20820007 0.2932225 -0.1793205 -0.19904841 0.2142719 -0.40360302 0.4865494 0.5755574 0.10252661 0.4872125 -0.14625996 0.0016665744 0.5794677 -0.72681075 0.5264699 0.26784098 0.7225306 -0.3187384 0.24577463 -0.0998893 -0.5207774 -0.31678388 0.2193092 0.102593936 -0.26272297 -0.8121887 -0.30808356 -0.94449383 0.35831055 -0.26022455 0.76784736 0.08171747 -0.078666635 -0.06710081 -0.41807434 -0.24609312 0.052239098 -0.36122468 0.06447135 -0.8039077 0.107429706 0.58823127 1.177388 0.38427252 -0.5073978 0.67029727 0.017423393 0.19729044 0.37638995
419 -0.34565794 0.41902125 0.2937974 -0.38388312 -0.18103954 0.29879615 0.096282154 0.07363938 -0.73270744 0.29469067 0.15963605 -0.12510027 0.13299169 0.25632143 0.19828697 -0.12670867 0.12739109 -0.35566565 0.57374144 0.41235724 0.07744512 0.16215764 -0.24361235 0.23435055 0.24660316 0.12839738 -0.13167895 0.19959782 0.24406713 0.13277003 -0.25509265 0.40367043 0.35977122 0.15135275 0.05131533 -0.4737682 0.48054272 -0.22536281 0.18848892 0.10295391 -0.020263337 0.73729527 0.11137259 -0.0301058 0.19339079 0.21748264 -0.1341501 -0.37167373 0.68586844 -0.40374106 -0.53047585 0.33132848 -0.20294443 -0.11823522 -0.27251357 0.20511943 -0.2968658 0.5842323 0.24412268 0.17446591 0.505148 0.031542674 0.13633433 0.17873846
66 -0.26416746 -0.31959876 -0.13964888 0.041503076 -0.65237474 -0.053499855 0.3313824 -0.06143734 -0.26632226 0.19278497 0.017798517 0.1174244 -0.10463488 0.4054511 0.36578935 -0.22823049 -0.10424745 -0.3530614 0.11189943 0.059656072 -0.25082618 0.052733675 -0.48507917 -0.30483693 0.88215536 0.21644856 -0.55181795 0.7420593 -0.19035202 -0.054257628 -0.12036106 0.052517086 0.28978524 0.4085447 0.13678396 -0.48816517 0.09192438 0.34622318 -0.38110107 -0.07857782 -0.20519617 0.23291858 -0.08622196 -0.06723868 -0.14211836 0.67264867 -0.076455615 -0.24240448 0.3663777 -0.7655073 -0.5314047 0.5162253 0.11052353 0.2380947 -0.31225255 -0.20106752 -0.16962782 0.06474909 0.6383728 -0.26923117 -0.104107186 0.35972413 -0.100649595 -0.1312886
627 -0.121379435 0.118279 -0.13940993 0.10838488 -0.44539592 0.038432594 0.22199464 -0.28091115 -0.31811857 0.43647975 0.13842589 -0.04605409 0.055563062 0.52782875 0.3988643 -0.028110936 0.0087356465 -0.41770422 0.23540935 -0.009529832 -0.32992294 0.13783257 -0.30470353 0.0056197313 0.5278729 0.20418644 -0.26662582 0.7139935 0.008675439 -0.013935415 -0.25317913 0.34068853 0.48131397 0.45871353 -0.01080058 -0.49654955 0.122898936 0.16717848 -0.09743737 -0.05717285 -0.014782388 -0.00817785 0.11963263 0.014734311 0.045695197 0.59448326 -0.088301346 -0.09817955 0.53312296 -0.5368267 -0.7614024 0.3648875 0.19872391 0.02575463 -0.48948035 -0.04659254 -0.45921627 0.32203045 0.50350696 -0.12596326 0.41793668 0.23788345 -0.18788952 0.09307173
54 0.032262597 0.51529795 0.06438097 -0.70417035 -0.23923238 -0.33747807 0.63696176 0.10878959 -0.8985404 -0.37096873 0.23387466 -0.03012527 0.13628586 0.085954234 -0.81690735 -0.8157387 0.40916112 -1.1184125 -0.2614838 0.444164 -1.0463907 0.45437643 0.10710779 0.02063347 0.52902055 0.29152814 -1.1183205 0.66564167 -0.65308183 -0.68663335 -0.10259389 -0.18305665 0.063095056 0.23691167 -0.29271197 -0.06190715 0.3987629 0.65201616 0.3156475 0.29420963 0.2488667 -0.4969073 -0.3493053 1.0914785 -0.30102202 0.15177813 -0.80490744 -0.31421733 -0.053899046 -0.6473912 -1.2375566 0.44348252 0.56910783 0.13740481 -1.3968718 0.9236651 -0.08915943 -0.28897056 -0.4473947 0.83841795 1.2570595 -0.89648634 1.0971811 0.60465574
400 0.0004086838 0.4658547 -0.023597194 -0.6983323 -0.18854399 -0.2809664 0.6249494 0.16408966 -1.028956 -0.41505936 0.13410433 0.13144131 0.18271789 0.05737501 -0.7785968 -0.72691476 0.49679816 -1.0875779 -0.19870548 0.48751786 -1.1458856 0.6054073 0.14333947 0.039462887 0.37186998 0.1580241 -1.1598456 0.6026179 -0.6189465 -0.6792007 -0.08682026 -0.07971982 0.10844038 0.15333664 -0.35671115 -0.064684585 0.38062444 0.44881323 0.23564945 0.4091184 0.14815795 -0.4310409 -0.25029853 0.9282221 -0.349445 0.072582416 -0.9138025 -0.3680457 0.054371715 -0.77466846 -1.3424444 0.435713 0.54691994 0.1680723 -1.5304 0.94708025 -0.03656541 -0.40944427 -0.3812839 0.8192174 1.303004 -1.0005997 1.2208817 0.66102403
17 0.5590796 0.3965419 0.17594233 -0.41665375 -0.11555235 0.5002852 -0.7692704 -0.673185 -0.8685297 -0.49383074 -0.2768011 -0.38939115 -0.024559006 0.35426334 0.50599223 -0.6175565 0.16326928 -0.027317053 0.0936263 0.14510807 -0.36858824 0.21225934 -0.121217445 -0.08642015 0.38359755 0.106289536 0.3827489 -0.009624233 0.21708184 0.20919761 -0.44371828 0.19110021 0.11030063 0.14472188 -0.47492683 -0.6505642 -0.18981339 -0.17020698 -0.2508291 0.033944692 0.47866386 -0.45946503 -0.46071228 0.73637235 -0.30537468 0.28038836 0.19830894 -0.5430381 0.3843741 0.057782892 -0.33727467 -0.106870145 0.5650787 -0.40705478 -0.61732715 0.6328982 0.08799556 0.063290715 0.25659618 -0.09972953 -0.37858996 -0.35799843 0.6263522 -0.0572603
558 0.5423566 0.29067153 0.1093237 -0.36600268 0.18302144 0.6095346 -0.6415213 -0.2655318 -0.779636 -0.19188368 -0.2937288 -0.4859413 -0.1689237 0.3571775 0.21329162 -0.45878807 0.26934013 -0.03177866 0.040543392 -0.15775168 -0.33779714 -0.328484 0.19694926 0.15907986 0.5767858 0.006443296 0.18876302 0.048323993 0.30716082 0.0566106 -0.33911327 -0.024608087 0.22713152 0.2163215 -0.43837443 -0.70966506 0.07777753 -0.18909246 -0.3686855 0.013904197 0.20599334 -0.4662103 -0.35151318 0.4427416 -0.27643314 0.3788107 0.196136 -0.40452552 0.28576514 -0.14095196 -0.32936636 -0.37634927 0.32392472 -0.1939848 -0.49258357 0.57465386 0.50058943 0.04452825 0.37973872 -0.22361407 -0.13600309 -0.30774456 0.3957442 0.13833484
82 0.06546722 -0.015453132 -0.010111774 -0.11605653 -0.17138325 0.35620365 0.28685006 -0.61651194 -0.9201462 -0.22720265 -0.32117495 -0.19074547 0.17062384 -0.41680616 -0.29724252 -0.69817924 0.03861278 0.40538916 -0.12770686 0.14308442 -0.38027555 0.2822678 0.5080561 -0.6279492 0.452931 -0.31010428 0.077097364 0.49397713 0.6309939 0.10622881 -0.39654228 0.09168659 0.1372517 -0.00019508268 -0.24600944 -0.8182497 -0.19848117 0.13118105 -0.039026536 0.16297883 -0.2746628 -0.16375723 0.1186995 -0.30622974 -0.283603 0.5331887 0.30317903 -0.7297329 -0.124292366 0.09286242 -0.5562883 -0.19387022 0.12159913 -0.13727437 -0.4470797 0.52381504 0.2607347 0.5052861 0.20505852 0.13258779 -0.21496469 -0.51639175 0.19606112 -0.13771287
514 0.35762423 -0.13350224 -0.094249025 -0.36561736 -0.017579746 0.5021094 -0.16035292 -0.44421676 -0.71074986 -0.2058815 -0.09773367 -0.5304815 -0.010882683 -0.0414182 -0.17931435 -0.53929174 0.016358055 -0.14195594 -0.020624988 0.12649639 -0.57667565 0.27585882 0.14412647 -0.35274386 0.47966897 -0.20649067 0.29794016 0.18934521 0.56082577 0.4710978 -0.32008487 -0.06760815 0.24488294 0.04731558 -0.41888186 -0.744176 0.057318456 0.24574353 -0.20605534 0.26550588 -0.33893713 -0.05951242 0.100932784 -0.15301266 -0.29602113 0.35866666 0.15085565 -0.5719491 0.11529239 0.104907945 -0.4204408 -0.16784999 0.17042284 0.056490358 -0.50516766 0.74366885 0.11449975 0.31907752 0.100042865 0.14956163 0.117470086 -0.21036892 -0.14144537 -0.14954112
0 0.054598413 0.16555977 -0.027030433 0.1359281 -0.3862576 0.25076237 0.50481176 -0.7284059 -0.34717622 0.32310078 0.010220954 0.04605533 0.03960408 -0.14335616 0.4563847 -0.3267761 -0.117845416 -0.39646158 -0.026739212 0.00725761 0.1401184 0.3518326 -0.79682904 0.43233475 0.65196145 0.38219425 -0.31425187 1.488683 -0.24589518 -0.31950846 0.08425303 0.032357566 0.28211 0.4188475 -0.050952233 -0.77839446 -0.12050197 -0.040653888 -0.04346945 -0.37907368 0.3828574 -0.651093 -0.53501195 -0.14377972 -0.6197545 0.67833525 -0.34767738 0.36068928 0.49634194 -0.4412686 -0.24669525 0.08871442 0.51884454 -0.07031881 -0.37826574 0.9200373 -0.8583767 -0.4303579 0.27801627 0.2728145 0.386425 0.25462526 0.2879696 0.54299104
536 -0.14283733 0.3129195 -0.008661811 0.07643687 -0.18917115 0.118284546 0.33516425 -0.72330856 -0.642676 -0.18426488 0.1477687 0.19299598 0.20134167 -0.53785855 0.69836783 -0.21015903 -0.20129186 -0.1382017 0.16565637 -0.27149162 0.104008086 0.34155083 -0.79405886 0.2777076 0.34429586 0.034798533 0.040303633 1.2971002 -0.033405323 -0.18616568 0.06081648 0.029778495 0.017907523 0.3838617 -0.06847414 -0.6649791 0.018489085 -0.16352838 0.04898066 0.23640081 0.45271006 -0.5059685 -0.66271573 -0.09148377 -0.6065589 0.48123163 0.04672729 0.38037777 0.4552596 -0.1407937 0.03730743 -0.03417826 0.45314738 0.044965763 -0.36863768 1.3042917 -0.8451114 -0.63979447 0.5293227 0.20180133 0.5345683 0.023380838 0.21989179 0.3362103
15 -0.51682097 0.15753074 -0.14675954 -0.20749262 -0.08119381 0.086706765 0.25269195 -0.501237 -0.83805525 -0.6775656 0.1723246 -0.19946386 -0.24923053 -0.1274783 -0.26162627 -0.16713066 0.07632162 -0.57319427 -0.123596326 0.6087873 0.026653703 0.088875696 0.20754083 0.00924741 -0.27221057 -0.02194981 -0.35204586 0.22168145 -0.5610201 0.11570655 0.048681725 -0.15030819 0.58381045 0.08998752 -0.077961594 -0.12916261 -0.14706556 0.05309042 -0.48565376 0.3262417 0.2670621 0.40340444 -0.54585594 0.7012119 0.04396495 0.1790555 0.07992862 -0.21346875 -0.15635754 -0.80984336 0.07629705 0.07153506 0.46573204 -0.20739387 -0.67387956 -0.66510415 0.10331944 0.7957261 0.20614064 -0.3904742 0.67877394 0.40609387 0.46628693 0.16807438
372 -0.5887873 -0.4039682 0.098333485 0.30833477 0.11593562 0.19463356 0.5286845 -0.59361726 -0.57732654 -0.27102417 0.30536938 -0.5606875 -0.43529144 -0.35204852 -0.25132757 -0.33407542 0.1925801 -0.4645913 -0.0076819626 0.3455643 -0.2111063 -0.18311103 -0.110519804 -0.22413842 -0.75103545 -0.21948265 -0.3424647 0.43236336 -0.5386805 0.32672918 -0.06835435 -0.15609896 0.124676034 0.4280962 0.009119098 0.060964726 0.1371201 -0.09148768 -0.32335368 0.39721906 0.07095619 0.20748676 -0.44164062 0.29814723 -0.17818582 0.30711228 0.13742049 -0.16196454 0.32204708 -0.67359763 -0.06325996 0.1563833 0.13987985 -0.3035245 -0.021857677 -0.56563604 0.16671823 0.88996965 0.16499408 -0.5273791 0.6541046 -0.15783949 0.87310785 0.11113239
233 -0.08732369 0.108664975 -0.035621185 -0.25966236 0.14207983 0.2899953 0.18995468 -0.52084476 -0.5869969 -0.5451445 0.30240902 0.19423747 -0.23601834 -0.016622024 -0.61053306 -0.2762425 0.2036572 -0.551926 -0.18605328 0.37996358 0.104082406 0.1306663 0.2298085 0.19304812 -0.26507223 0.32544497 -0.225135 0.14829631 -0.6051611 0.17124902 0.2045687 0.11397606 0.45077807 -0.0450642 -0.01494225 -0.43296385 0.1137668 0.04882392 -0.47253284 0.46906766 0.41795444 0.4735048 -0.50785667 0.43554237 0.01207202 0.32897583 0.18402207 -0.18847328 0.030481983 -1.0305971 -0.050399676 0.25533253 0.08732733 -0.42875856 -0.66566503 -0.3887301 0.15136275 0.8848945 0.09786328 -0.039087493 0.81077117 0.39225248 0.24237794 0.22739978
380 -0.12995856 -0.24558868 0.039477155 -0.031541545 -0.06674633 0.24896638 0.31328654 -0.41657692 -0.46102038 -0.5825113 0.2898094 -0.22936083 -0.26443616 0.021125043 -0.40016323 -0.3202719 0.295169 -0.6783478 -0.40986738 0.37059405 0.07106893 0.21610752 0.7635959 0.054655697 -0.21218085 0.41197914 0.013800195 0.60371095 -0.7403265 0.17471303 0.14754774 0.28019494 0.14668529 0.08673896 0.4934556 -0.801637 -0.37804037 0.21930343 -0.4760094 0.6638809 0.267445 0.33954886 -0.44736907 0.47400364 -0.14035802 0.27246404 0.18873744 0.22857039 -0.3482102 -0.59892094 0.0019161206 0.2691336 0.2251451 -0.273729 -0.9149111 -0.28581724 0.16175932 1.2508531 0.15759818 -0.18034977 0.70180637 -0.0025319003 0.60098135 0.026671981
528 -0.6748344 0.07079795 0.021846106 -0.42576677 -0.27556112 0.71117425 0.7606223 -0.2030073 -0.21951792 -0.51259 0.10616139 0.2588495 -0.3477029 0.75816536 -0.27254504 -0.5530507 -0.11436265 -0.22379309 0.23383874 -0.002725934 0.40203717 0.015134481 0.33839092 0.305173 -0.4390669 -0.07253339 -0.107871965 0.4761542 -0.5721006 0.12752882 -0.08233499 0.16314347 0.19569835 0.3857957 0.009952111 -0.50009865 -0.033359345 -0.0774024 -0.12622464 0.043335937 -0.02031559 -0.11489225 0.07172105 0.6460446 -0.21541318 0.755471 0.53422517 -0.014320896 0.2731027 -0.4666135 -0.19095187 0.6206087 0.10936536 0.10423244 -0.5058497 -0.1254887 0.025534533 0.43659884 -0.09187037 -0.6371541 0.43403792 0.49589008 0.2934044 0.34280893
193 -0.25566667 -0.0051472974 -0.34107915 -0.12194017 0.0031854685 0.23078647 0.11009964 -0.3162922 -0.91924214 -0.58195347 0.23422642 0.06362832 -0.39866892 0.25129482 -0.48086193 -0.4164215 0.40041572 -0.3625521 -0.20384753 0.4878928 0.05188975 0.16347925 0.28937322 -0.18705928 -0.26355827 -0.014528618 -0.18865435 0.081376374 -0.93523026 0.18876556 0.49459687 0.13204688 0.5116395 0.18561217 0.08517304 -0.34520963 -0.10084001 0.43584725 -0.28058654 0.43960625 0.44172752 0.4034974 -0.22400941 0.60041666 -0.15905239 0.301875 0.042567916 0.034529995 -0.13332593 -0.6800145 -0.13403234 0.0145786395 0.29929125 -0.40030855 -0.4172019 -0.070790775 -0.1995461 0.77815115 0.0123735955 -0.15805766 0.72792006 0.35442168 0.33875355 0.34368744
542 -0.44194856 0.13096704 -0.3457538 -0.34487712 -0.33248556 0.35354343 0.12262502 -0.6336552 -0.76246107 -0.35278413 0.03014769 -0.30548406 -0.41212115 0.57301885 -0.6115994 -0.21345687 0.22536062 -0.488288 0.0323585 0.05728912 0.43239138 -0.46484575 0.16320838 -0.15203047 -0.44434494 0.011809479 0.10679087 0.51734567 -0.80022055 -0.0012336242 0.3745142 0.14393939 -0.023502527 0.52309877 -0.14306888 -0.15143792 -0.20020123 1.0278409 -0.11255605 0.32972375 0.018649591 0.15802455 -0.110215805 0.26840624 -0.21818346 0.02716987 0.56874895 -0.33214334 -0.21919817 -0.5314003 -0.11817093 0.17243955 0.0969882 -0.44170326 -0.31301713 0.21975899 0.08382505 0.7721759 -0.3276232 -0.3401886 0.35574564 -0.039817892 0.3742862 0.06076857
567 0.36678177 -0.06601353 0.058129445 -0.36991075 -0.26642895 0.5523942 -0.23395115 -0.47080797 -0.67579365 -0.31983906 -0.019909877 -0.3642637 -0.1340208 0.18295954 0.3046715 -0.6031826 -0.030447502 -0.22146021 0.22432388 -0.122992955 -0.5055224 0.048547186 0.14684047 -0.2650142 0.39569905 -0.24162164 0.33705604 0.03430827 0.4484428 0.1080457 -0.25567293 0.030103639 0.22786304 0.0030435424 -0.06188521 -0.7076277 0.10745753 0.20885694 -0.19629122 0.24873225 -0.43017825 0.0030640874 -0.27260378 -0.013729222 -0.1546043 0.2359174 -0.017967077 -0.578987 0.07517154 7.947869e-05 -0.26486453 -0.17130436 0.3111568 0.20282297 -0.2785954 0.5511185 0.476765 0.0059372983 -0.14081703 0.14582872 0.20756775 -0.16397043 0.07917469 -0.037119985
12 -0.19586588 0.17251742 -0.11464018 -0.3460905 -0.5126258 -0.21525198 0.76467717 -0.07990131 -0.3951325 -0.25883427 -0.5277352 0.21292321 -0.10026173 0.3494173 -0.14661027 -0.12500624 -0.06095903 -0.2246774 0.1447445 -0.5457486 0.24492939 -0.27529246 0.42866546 -0.48040172 -0.011979114 -0.06817001 -0.4188418 0.49780738 -0.9992531 -0.13300739 0.29041538 0.4517128 0.36312696 0.3554604 -0.39779222 -0.58788055 0.10762436 1.0461928 -0.7955274 -0.26377591 -0.41742036 -0.18887322 -0.52610373 -0.24527644 -0.28820103 0.15905733 -0.07498183 -0.546742 0.08588803 -0.6056362 -0.16866769 0.3650204 0.80034757 0.18700105 0.19220115 -0.028047943 -0.086787604 0.38698918 0.14497027 -0.4481198 0.16662751 0.3112486 0.73998535 -0.06748339
256 0.82924217 -0.7947835 0.3844588 -0.6590475 -0.4114578 -0.19513763 0.33016822 -0.44037944 -0.7194326 -0.1954667 0.21279189 0.20601189 0.693912 0.15331808 0.010870023 -0.0018701354 0.1952847 -0.5716637 -0.27082402 0.09359678 0.40161648 0.15819524 -0.7834099 -0.08864972 0.44991395 -0.064556174 -0.6073436 0.65568984 -0.7227291 -0.08982395 -0.32080212 0.26974338 0.0901602 0.9331496 -0.22038504 -0.5723179 -0.018559588 0.7502242 0.25706545 0.5404204 -0.3749235 0.3927388 -0.13443322 1.1662973 -0.6212469 0.77249986 0.08966221 -0.45754614 -0.020574743 -0.116598845 0.35402936 0.219333 0.42989329 0.57886636 -0.33307296 0.5932396 -0.15472902 -0.24159816 1.4011388 0.1661455 0.69652736 -0.59443843 -0.03189234 -0.29292786
594 -0.2873815 -0.059614357 -0.24270126 -0.8027903 -0.30746463 0.20145606 0.6558311 -0.7877576 -0.4466174 -0.5952355 0.015524359 0.7426065 -0.6705521 0.5715813 -0.6689977 -0.46626702 0.12469816 -0.19632338 0.23937199 -0.21199752 0.6254707 -0.20298252 0.54150903 -0.24933526 -0.5243518 0.13342813 -0.12216031 0.7329506 -0.8240171 -0.047244605 0.47894576 0.23667283 0.27965435 0.35140935 0.3618322 -0.3846442 -0.41422564 0.47853485 -0.1835082 -0.005167998 -0.3774489 -0.10996939 -0.089937694 0.54367125 -0.74218804 0.67902243 0.15708213 -0.4705297 -0.04561007 -0.21688159 -0.39536008 -0.1234556 0.5710364 0.22457951 -0.5888711 0.31879967 0.88783765 0.62453425 -0.035289843 -0.46349588 1.0355196 0.039322905 0.26548728 0.31845132
38 0.16385375 -0.39674187 -0.31421047 -0.1990356 0.24013034 0.29091677 0.5836966 -0.715815 -0.7766832 -0.15343817 -0.09100203 -0.27581507 -0.07548297 -0.7736604 0.42199653 0.028658982 0.006360545 -0.26635864 -0.09388865 0.37024942 -0.4152974 -0.037649892 0.038620505 -0.48356774 -0.7614214 0.3060118 -0.4257092 0.37236834 -0.46577352 -0.0055450555 0.32475278 -0.3005983 0.18813471 0.7097445 -0.35434616 -0.13126421 0.26100317 -0.25894168 -0.49496788 -0.1974402 0.2763735 0.49579087 -0.45330355 0.04159525 -0.21604416 0.27389702 -0.12702243 -0.40981486 0.29342216 -0.7349265 -0.113414615 0.25194392 0.18140785 0.069739945 -0.07399091 -0.5109253 0.20609161 0.7676895 -0.12302633 -0.09023381 0.033941492 -0.28965926 0.49431837 -0.34929085
583 -0.22450098 0.17994621 -0.049243733 -0.17797825 -0.22327605 -0.10996522 -0.13070567 0.086065106 -0.5803226 0.19319761 0.017642915 -0.19687578 0.0503002 0.35086268 0.16607818 -0.16431579 0.3329357 -0.19158703 0.29517043 0.46699747 0.09336716 -0.02134394 -0.40965655 0.23594785 0.21825793 -0.10121799 -0.09378143 0.33389187 0.4401215 0.17627329 -0.21655595 0.551617 0.44127613 0.2881312 0.32694155 -0.40809005 0.16970886 0.11146383 -0.18192174 0.13104638 -0.09794895 0.57781756 0.024272192 -0.017240068 0.16963921 0.1887243 -0.2595333 -0.44461814 0.43950695 -0.4485985 -0.5898469 0.3579947 -0.07906635 0.08341772 -0.7043616 0.032646105 -0.20155305 0.36579728 0.31175625 0.163009 0.31059423 0.19445914 0.21568522 0.27667293
34 0.23943041 -0.30628368 -0.26808012 -0.5911503 -1.136757 0.68318474 0.995325 -0.12198412 -0.9659768 -0.53243774 0.044207096 -0.17317505 -0.3804065 -0.2549538 -0.96238583 -0.9484423 0.7050207 0.04008763 0.1946632 -0.24995257 0.040970903 0.6327902 -0.00060233765 -0.17526789 0.21405351 -0.060850184 -0.35482576 -0.1936651 0.033083636 -0.24685743 -1.2441506 0.56657726 -0.15844508 -0.009066864 -1.0090392 -0.78728265 -0.0069185677 0.5075889 -0.18445677 0.27382347 0.30396694 -0.22424982 0.25343996 0.4729619 -0.14715686 0.83319044 0.22143184 -0.65432113 -0.20872271 0.26795638 -0.3973375 -0.41101515 0.6984454 0.049850386 -0.57880706 0.5718308 -0.21766946 0.12635231 0.2691206 -0.3695875 0.8216875 -0.4299707 0.80735874 0.33455873
463 0.16241497 -0.057344023 -0.35556412 -0.63207066 -0.8213846 0.9983939 1.0389668 -0.03362662 -1.0199242 -0.542891 0.19661564 -0.035561483 -0.025770226 -0.10006779 -0.8831803 -0.7190925 0.35023475 0.06803237 0.19480051 -0.21885121 0.04173072 0.66430825 -0.025870455 -0.18427975 0.36268604 0.09429985 -0.36409047 -0.2437336 0.1198543 -0.28835243 -1.3334546 0.4876731 -0.07976166 -0.15514772 -1.0461361 -0.9185683 0.07980314 0.30447316 -0.48323077 0.3464887 0.27928054 -0.20291176 0.21434487 0.43310577 -0.061416622 0.94329464 0.34166735 -0.8139813 -0.26582283 0.16204503 -0.21708323 -0.26645634 0.7110186 0.072514474 -0.88551897 0.5677105 -0.2709835 -0.034891658 0.17910296 -0.29132718 0.74018776 -0.4106222 0.5948183 0.14157261
206 -0.24522981 0.65602577 0.08559311 0.03534403 -0.10759483 0.34898388 0.3110777 -0.481877 -0.60739845 -0.39698043 0.2164878 0.11761924 -0.14326152 0.18636006 -0.14593439 -0.24185377 0.13864139 -0.649437 0.18024652 0.25122154 -0.10081497 -0.22091553 0.31054273 -0.33632562 -0.39351907 -0.20528342 -0.38604906 0.17392607 -0.53823763 0.3485234 0.28341085 0.025655799 0.38589308 0.052339703 -0.27175283 -0.38333502 0.035503875 0.41667223 -0.2727019 0.272845 0.34423605 0.15849091 -0.5172003 0.47263435 -0.1857124 -0.06447638 0.15750714 -0.20172673 -0.4837795 -1.0365598 -0.026185626 0.35040444 0.2647795 -0.25177655 -0.45689723 -0.37659445 0.13162172 0.8828258 0.54361546 -0.2122355 0.6369661 0.32414487 0.08953231 -0.09100423
730 -0.38488865 0.3488877 -0.008165255 -0.01578172 -0.36934972 0.37192175 0.57636344 -0.07279782 -0.7273523 -0.6740088 0.38320073 0.23567389 -0.26237845 0.07658394 -0.3081325 -0.22584406 -0.03948175 -0.5626562 0.008186146 0.359249 0.20872663 0.047410686 0.4467488 -0.110806145 -0.27654904 0.23239687 -0.2465325 0.42916313 -0.47123724 0.1918226 0.3709458 -0.005157718 0.33407748 0.37520075 0.0012183001 -0.66923517 0.11040939 0.31771052 -0.35360155 0.50128907 0.3955422 0.34096113 -0.6926505 0.37348178 -0.050530832 0.11854868 0.39650062 -0.38850018 -0.28284308 -0.5314731 0.060360793 0.16892168 0.45589057 -0.54935294 -0.32083973 -0.5142976 0.020898495 0.7320787 0.23883761 0.014956466 0.57140636 0.014034997 0.42567632 0.13089605
837 -0.5568209 0.2930459 -0.011396044 0.02972553 -0.17487366 0.30818808 0.13943978 -0.33072633 -0.75560635 -0.14780082 0.1736035 -0.34219816 -0.25627115 0.02125607 -0.22883742 -0.09794228 0.3171123 -0.2110493 0.12709343 0.544953 0.09616996 0.004337278 0.11322729 0.07207913 -0.30323645 0.31191018 -0.18764217 0.20242593 -0.28185192 0.23343208 0.43216366 0.24520238 0.50186914 0.13192944 0.034583632 -0.693257 0.22013071 -0.15295641 -0.22169836 0.007572253 0.25440228 0.76609373 -0.3350658 0.6208878 -0.051183138 0.23378101 -0.24001394 -0.37027678 -0.069862284 -0.71714854 0.076695874 0.20880009 0.07127247 -0.42603162 -0.36669996 -0.7955831 -0.14857341 0.53253037 0.38772303 0.29237685 0.43405303 0.21393533 0.41992202 0.06664736
214 -0.1970096 -0.10268475 -0.033277612 -0.11911989 -0.29852504 0.42521802 -0.10077119 -0.312493 -0.6145902 -0.7285151 0.25472823 0.2224087 -0.7910335 -0.23841739 -0.62612784 -0.65643954 0.1575203 -0.38166842 -0.25369442 0.18177825 0.17516708 0.78681153 0.6635285 0.10493066 0.05455004 0.3822071 0.005555807 0.38056397 -0.88755924 0.6934954 0.47549763 0.40623695 -0.01698479 0.21203361 -0.047765817 -0.6069453 -0.06686504 0.2505047 -0.3661545 0.2980874 -0.23820758 -0.019029494 -0.4962821 0.4962959 -0.102948494 0.22838613 0.06673729 0.18290646 -0.18137598 -0.38682795 0.27313736 0.2249758 0.15525143 -0.06303033 -0.7119941 -0.000119227945 0.23623689 1.0567381 0.2805631 -0.34162116 0.77901983 -0.28623787 0.5361302 0.16486512
513 -0.32980487 -0.054447416 0.020857627 -0.22863396 -0.53052974 0.2599809 0.21971807 -0.2710454 -0.5694703 -0.63710284 0.21665986 -0.05216266 -0.50336474 0.2558775 -0.6588235 -0.80687195 0.4915266 -0.19257234 -0.49357298 0.4401539 0.0023919425 0.38072786 0.6077461 -0.3880496 -0.5144738 0.10570796 -0.046977095 0.5056693 -0.97362655 0.020632256 -0.00764787 0.0069960807 0.2542058 0.012251905 -0.28795364 -0.39262772 -0.19343507 0.62397915 -0.08785198 0.4265714 0.18047272 0.27873322 -0.52812135 0.7279681 -0.019312087 0.44370455 0.21474974 0.1723975 -0.082838856 -0.5931792 0.07161266 0.12288742 0.13286796 -0.47922292 -0.9199457 0.03802507 -0.22831562 0.547464 0.28346616 -0.5136331 0.5373105 -0.10164519 0.14416984 -0.16455081
584 0.43197134 -0.15419045 0.54932237 0.031731375 -0.13938795 0.29637903 0.21363798 -0.53182954 -1.4904532 -0.41435102 -0.06678091 0.16502823 0.36812663 -0.44845262 0.66453516 -0.22838442 -0.08719671 0.23119266 0.51253104 -0.058593813 -0.15330465 0.46619758 -0.6234215 -0.011374152 0.19309068 -0.045069046 -0.31330058 0.92838883 -0.5000262 -0.11151056 0.02978889 0.28810972 0.24783409 0.12175505 0.25071967 -0.23805426 -0.69935346 -0.18252793 -0.06491642 0.6690386 0.26990256 -0.051556543 -0.40406987 -0.027680999 -0.5642783 0.16326249 0.082915805 0.0899321 0.5720721 0.058670633 -0.041302387 -0.5354729 0.57339686 -0.061840374 -0.2833575 1.2823331 -0.22297703 -0.44091347 0.42419475 0.5567117 0.79571337 -0.2096595 0.22250041 0.7458584
769 0.07340678 0.13719107 -0.060981713 0.26562902 -0.2875742 0.12491279 -0.040401738 -0.9182405 -0.348797 -0.524956 0.61420107 -0.06174438 -0.3315396 -0.33997014 0.08395246 -0.10760997 0.010845033 -0.29246965 0.20855954 -0.42447373 -0.62517804 -0.006184839 -0.82488394 0.31709483 -0.12121381 0.25437206 -0.2740186 1.3291426 -0.051706173 -0.31452274 -0.119056836 0.39381155 0.18224242 0.5176925 -0.025488174 -0.32755288 0.18375984 -0.3775211 -0.3100876 0.043320447 0.3475136 -0.4870904 -0.6762594 -0.5941962 -0.45393538 0.07203001 -0.2286739 0.16093618 0.15687093 0.060639814 -0.43912017 -0.10153049 0.44061214 0.54433185 -0.30462226 1.0138187 -0.20731266 -0.13391928 0.7828612 0.08121042 0.35386947 0.112658486 0.42028862 0.4210397
147 0.98107845 -0.5102522 0.3983648 -0.58541137 -0.09463286 0.022973878 0.060215943 -0.13951969 -0.61879754 -0.07511671 0.22481598 0.2138052 -0.118164524 0.28635257 0.24548593 -0.094824664 -0.21599585 -0.016027544 -0.09650385 -0.09107396 -0.2864829 -0.57346326 -0.29927954 0.18908893 -0.018653233 -0.3124025 -0.2984322 0.5848849 -0.10231445 -0.15960738 -0.20976105 0.20420763 0.00082816265 0.7492376 -0.3226842 -0.9194054 -0.5306789 0.40423524 0.331607 0.113049895 -0.16443783 0.12312023 0.16399288 0.677721 -0.490313 0.51750696 -0.091259986 -0.18194985 0.32452258 -0.4957956 0.045559704 0.34431192 0.19298644 0.46780187 0.26757154 0.20347694 -0.16410753 -0.06417908 0.9083155 0.58588916 0.5256798 -0.39400032 0.33861452 -0.48372602
550 0.491591 -0.44892105 0.41865233 -0.45564848 0.024793092 -0.19142379 0.25859383 -0.25427487 -0.97065985 -0.39709738 -0.09749874 0.4771774 -0.23853362 0.22431412 -0.062964916 -0.31628767 -0.3329143 -0.2161556 0.030758075 -0.048238244 -0.30174518 -0.7945396 0.018733498 0.050432414 -0.19859114 -0.44418967 -0.40714768 0.28051957 -0.20627709 -0.26603496 -0.36409998 0.077345796 0.111911654 0.9107464 -0.39385355 -0.9788511 -0.41072407 0.14828779 0.44664288 0.3044028 0.30258197 0.20087324 -0.025793357 0.35681546 -0.3793618 0.39272895 -0.22955623 -0.5372651 0.34822622 -0.5025242 0.44221896 0.262625 0.21794923 0.49878225 0.14621438 -0.034848526 0.023986753 0.22182348 0.74499404 0.4191269 0.09606317 -0.5697364 0.25047353 -0.2322533
128 -0.46072188 -0.065229855 -0.27380174 -0.5266853 -0.35782233 0.31317168 0.641922 -0.43583325 -1.243676 -0.31556532 -0.19201154 -0.043190263 -0.5481978 0.84800005 -0.3870196 -0.39792562 0.04693296 -0.058998402 0.018869672 0.039587494 0.35489094 -0.28873163 0.45870763 -0.30791235 -0.19139507 0.13200314 -0.08338452 0.04001934 -0.54124224 0.15469605 0.06777635 0.64197385 0.6778393 -0.3804847 0.12014709 -0.34753412 -0.016329667 0.17580043 0.063474536 0.1590495 -0.49973565 -0.013245264 -0.47637275 0.4103546 -0.44032276 0.61929053 0.21751799 -0.010782139 0.21374151 0.51915437 0.03182297 0.49117485 0.3490138 0.366791 -0.8679501 0.017142398 0.24086317 0.22599448 -0.15254332 -0.38808632 1.2623605 0.60114163 0.46220013 0.37119117
394 -0.16768187 -0.4352513 -0.3823475 -0.5998524 -0.5845003 -0.039123256 0.65277267 -0.36051163 -0.8633817 -0.46522838 -0.08727477 0.025292747 -0.47052535 0.5289161 -0.39020947 -0.339957 0.4123332 -0.3068564 0.33739534 0.003963624 0.35803127 -0.0794048 0.55689657 -0.0812933 -0.2361694 0.29142407 0.23730147 0.1278292 -0.48352897 0.051019374 -0.3016762 0.57122463 0.47239646 0.23175292 -0.030594513 -0.20813501 -0.1434373 0.47384146 -0.2170429 -0.016149133 -0.63115776 -0.43665296 -0.732243 0.30283564 -0.5461937 0.3512857 0.11039565 -0.24505845 -0.07495097 0.25833908 0.0059059677 0.23333165 0.34142676 0.22976689 -0.8293038 0.1654235 0.4004144 0.4056368 -0.46821752 -0.33108747 1.3236692 0.15661749 0.25301096 0.53571105
211 -0.48413676 0.3201437 -0.2559657 -0.42515138 -0.45980301 0.27604386 0.03696217 -0.019839413 -1.2528197 -0.13992065 0.093074694 0.38322762 -0.79819405 0.50236934 -0.31145227 0.24327683 -0.7590803 -0.07559852 -0.8926602 0.2902489 -0.77151066 0.18224864 0.14870451 -0.22328773 -0.3485004 -0.012400216 0.1280731 0.32620388 0.13731027 -0.52764016 0.121905245 0.31776598 0.6072974 0.2702607 0.13564979 -0.16684784 0.1198098 0.46916115 0.010817592 0.07003909 0.06129003 0.11679545 -0.12792586 -0.18858509 -0.731507 -0.05822376 -0.2654657 -1.0334202 0.41072053 -0.7943425 -0.22488536 -0.28720602 -0.20885329 -0.18424799 -0.5582871 0.6017178 0.33122858 -0.47390187 0.49911717 -0.55632347 0.5839492 0.4825356 0.0020606122 -0.5819316
736 -0.5697598 0.012917299 0.07121157 -0.0028936202 -0.4264836 0.27901405 -0.12881719 -0.415721 -0.8794232 -0.76657754 -0.014711018 0.2637834 -0.8522662 0.15286432 -0.5575234 0.69382405 -0.37465644 -0.24104542 -0.693509 -0.23116474 -0.46023345 0.019943554 0.37969077 -0.37806532 -0.3730126 -0.22651698 -0.045527596 0.49908265 -0.11759474 -0.1951289 0.08914966 0.16901003 0.490622 0.55335003 -0.013049948 -0.19900653 0.2593918 0.710313 -0.33286646 -0.26118857 0.042688563 0.13340789 0.023499507 -0.060375776 -0.21347418 -0.25917447 0.18167688 -0.45708454 0.5622502 -0.73425925 -0.10108223 0.014409776 0.10849944 -0.42159954 -0.66843855 0.3371946 0.040009726 -0.20137289 0.19435184 -0.22668983 0.37349623 0.29792562 0.053993247 -0.3898708
485 -0.19526204 0.29575217 0.17744312 -0.64752793 -0.3049042 0.17101207 0.11160885 0.048597824 -0.33567703 0.30388674 0.27584982 0.16562201 0.14509197 0.27721122 -0.061363846 -0.2258984 0.23509853 -0.60397184 0.5921882 0.6908403 -0.6652811 0.110051654 -0.2696291 0.4593417 0.48931938 0.47840807 -0.03777649 0.52547866 0.3097415 -0.09965427 -0.07731323 -0.20922382 0.060636487 0.10652735 -0.13265297 -0.30430725 0.6991432 0.07242353 0.16124095 0.32916352 0.036676854 0.09802478 -0.17261659 0.40550852 -0.2960231 0.15675788 -0.51200455 -0.094680525 0.26165345 -0.57555324 -0.9356556 -0.08852954 -0.33703333 0.1974062 -0.4470745 0.5861189 -0.14073487 -0.081332505 -0.08004357 0.22237548 0.8787438 0.06335742 0.428943 0.5092937
759 -0.19178356 0.45836803 -0.014279401 -0.3367817 -0.15567476 0.025308685 0.5558176 -0.3352683 -0.70921314 -0.6164165 0.29446816 -0.3402136 -0.19903235 -0.42826474 -0.1774764 -0.13547666 0.09850165 -0.7303675 -0.023839751 0.4085176 -0.22092123 -0.24955241 0.43213025 -0.4245027 -0.3397355 -0.12337717 -0.41866636 -0.0028393585 -0.42825076 0.7988175 0.12381253 -0.14447461 0.34895265 0.060394987 0.30445686 -0.007541727 -0.06336787 0.402838 -0.4576289 -0.19354104 0.19874577 0.06419712 -0.5231023 0.53993326 0.044999223 0.239185 0.35967055 0.004319319 -0.21221009 -1.0208049 0.07562554 -0.11608783 0.33327597 -0.53879386 -0.49626645 -0.09832021 0.111647464 0.76029074 0.7796617 -0.21396421 0.5225571 0.6094413 0.8350031 0.23984867
69 -0.039973103 0.0075345193 -0.27763572 -0.89315486 -0.24878852 0.16678979 0.056517825 -0.18728733 -0.42459163 0.047632262 0.14005111 -0.17254965 -0.0492888 -0.017582871 0.09021807 -0.24952503 0.44701418 -0.3326198 0.5471582 0.4888396 -0.6058275 -0.24810311 -0.33510795 0.36951852 0.57554555 0.27699327 -0.46738413 0.565618 0.4777301 -0.36841166 0.10193657 -0.24177644 -0.24992651 0.1981066 -0.20373435 -0.8183224 0.8451535 0.053971715 -0.24715054 0.63594097 0.14229873 0.059628576 -0.14985307 0.00976286 -0.3970523 0.2439485 -0.8212761 0.15581137 0.31746274 -0.30039307 -0.6392964 -0.49232984 -0.35534006 0.32895088 -0.3158814 0.43529195 0.05642677 0.31616992 -0.13524146 0.3293965 0.5066064 -0.1323435 0.5532891 0.19985065
862 -0.23825899 -0.21559094 -0.20407498 -0.56230295 -0.318989 0.21255083 -0.169825 -0.12980376 -0.22511709 0.023404142 0.24329558 -0.20607275 -0.055384066 0.057480432 0.113798514 -0.3246136 0.44464508 -0.2931983 0.47343174 0.6342902 -0.7191197 -0.26142445 -0.2908486 0.35837197 -0.032262634 0.2662201 -0.61167043 1.0142757 0.60598856 -0.07194434 0.35448816 -0.21887837 -0.15253145 0.32214883 -0.6096363 -1.0170455 0.5773191 0.23199163 -0.07685133 0.93927205 0.47216436 -0.123784244 -0.32807717 -0.12442812 -0.694368 0.3288265 -0.8530128 0.18580991 -0.032999385 0.046785425 -0.9998473 -0.258117 -0.27404165 0.32100454 -0.27685758 0.8321036 -0.23766857 0.17057112 0.34541917 0.0947602 0.50821716 0.0786826 0.57482153 0.35143417
264 0.021149319 0.11932457 0.1599405 -0.3075837 -0.31265634 0.32558528 0.100250095 -0.36424324 -0.74284846 -0.36041886 -0.41516617 -0.02847057 -0.39781627 -0.11276525 0.34340164 -0.42197806 0.07814143 -0.15791443 -0.36724952 -0.26780042 -0.027134487 -0.09724154 -0.060831096 -0.34123683 0.13409135 -0.35808513 0.060611118 0.35516793 -0.09027053 0.22562677 -0.35772687 -0.23720297 0.18785627 0.09285206 -0.864826 -0.9584709 -0.53934985 0.2944749 -0.0798043 0.15008636 -0.39409095 0.09470156 -0.51948285 -0.3756581 -0.30980676 0.097530074 0.57130384 -0.12634426 0.40910637 -0.31413564 -0.12993744 -0.41624367 -0.008082172 -0.2640539 0.083881795 0.21462804 0.30240282 0.17874804 -0.31119615 0.6759139 0.31802863 0.003772078 0.121922046 0.22798234
671 -0.27724817 -0.5194615 0.11704962 -0.00987776 0.15746865 0.16669904 0.5701203 -0.43893754 -0.47373253 -0.31767717 -0.1324114 -0.444091 0.13463628 0.15603551 0.32524505 -0.3761061 0.05207441 -0.35230133 0.20081054 -0.47772136 0.062130913 -0.05134417 0.17069843 0.044847652 -0.35346282 -0.14659956 -0.12146714 0.4491911 -0.4522992 0.18707119 0.102493584 -0.6308291 -0.045124505 0.3183524 -0.84341735 -0.48349747 -0.26741752 0.30498612 -0.63128 0.18185182 0.047190417 0.36882594 -0.5563606 -0.15794463 -0.11577936 0.13222773 0.16713458 -0.079807274 0.3638518 -0.4549339 0.37845474 0.19436072 -0.14405692 0.017170848 -0.038681887 0.24981843 0.43841025 0.3639113 0.11097368 0.4389308 0.24650745 -0.15660761 0.5393463 -0.6758244
704 0.61516696 -0.39819717 0.45654246 -0.3819561 -0.097148106 0.094281346 0.15051985 -0.34276292 -0.9471756 -0.18709886 -0.054617036 0.40102273 -0.22165903 0.12157932 -0.06366848 -0.22946379 -0.3001985 -0.14733821 -0.18546331 -0.1703498 -0.35826993 -0.79187876 -0.025469387 0.1253423 -0.10079376 -0.2794875 -0.24496432 0.35103974 -0.18623543 -0.34015384 -0.32467648 -0.05909363 -0.019941697 0.954033 -0.19682029 -0.92154723 -0.5899817 0.39034715 0.34650904 0.29982334 0.05605249 0.12380942 -0.042177435 0.52989304 -0.3156094 0.26954392 -0.27909964 -0.44231668 0.38828203 -0.44806623 0.31799024 0.34019482 0.0946224 0.63068396 0.09773169 -0.15318324 0.21212463 0.13105553 0.79990375 0.5655822 0.2800752 -0.5239079 0.22900613 -0.3987137
706 0.4212237 -0.4079144 -0.046335183 -0.06753733 -0.51129127 -0.32176805 0.18385999 0.2777646 -0.1979936 -0.19504336 0.010539035 0.3224376 -0.19579796 0.3040497 0.49563172 -0.0682404 -0.39050823 -0.31633073 -0.03614372 0.312953 -0.35361293 -0.2722911 -0.6085112 0.041509956 0.73182136 -0.28495675 -0.62056905 0.83777165 -0.2530702 0.0988908 -0.08036142 -0.011051038 0.22699928 0.68960136 -0.14858735 -0.7591345 -0.25560793 0.4388535 -0.064091675 -0.13734753 -0.23734531 0.18461375 0.09977163 0.40841702 -0.17579184 0.9157106 -0.036773276 -0.17905252 0.6204085 -0.65674543 0.068053 0.5201074 -0.044812415 0.59095466 -0.027637383 -0.039537117 -0.15404381 -0.08284136 0.9086916 0.23331697 0.37107956 -0.15492633 0.094987355 -0.26273334
219 -0.44548967 -0.016632807 -0.044691205 -0.21805732 -0.44806015 0.38145423 0.041701663 -0.09091471 -0.9266791 -0.37158388 0.1106139 0.33236504 -0.6553003 0.097651966 -0.4287995 -0.7952928 0.32831922 -0.34640372 -0.25563934 0.45640576 0.33146766 0.70171106 0.46313125 -0.17330031 -0.49152434 0.08126568 -0.41562098 0.4523815 -0.9886318 0.31849226 0.35043257 -0.18415152 -0.11034674 0.32904845 0.14870174 -0.95873505 -0.40034235 0.78937143 -0.13531332 0.24030167 0.13488737 0.1511695 -0.17334905 0.89013433 0.046883475 0.18085328 0.091772616 0.33529386 -0.19867302 -0.21350196 -0.02710905 0.37442154 0.32808754 0.052496515 -0.7406448 -0.0025980747 0.09443003 0.73874927 0.28402695 -0.7254907 0.95405245 -0.17846654 0.09208573 -0.06778857
668 -0.46039698 0.26739925 -0.15983339 0.11321423 -0.18455559 0.32353926 0.394996 -0.36695623 -0.8704963 -0.34392408 0.07723587 0.20097749 -0.4266308 0.24655971 -0.44051442 -0.70316595 0.3308934 -0.2264274 -0.14938694 0.5662018 0.21642502 0.14126457 0.34316775 -0.46865603 -0.2489302 -0.01968211 -0.52510875 0.16806953 -0.88545775 -0.118825406 0.4761954 -0.31698912 0.11295146 0.21274091 0.41502026 -1.0177183 -0.39929572 0.8024286 0.22373796 0.30941948 0.3636687 0.34886372 -0.30768177 0.55361277 -0.029688787 0.3369916 0.22022448 0.33654204 0.14869139 -0.21668303 0.32236546 0.3537832 0.22813903 0.01416868 -0.67888194 0.020840377 0.13539195 0.6800233 0.40015918 -0.40525085 0.7996102 0.10527496 0.22309835 0.005253476
683 0.4857042 -0.844706 0.022531217 -0.49915433 0.018496308 0.09750604 -0.37893733 -0.52288544 -0.78384674 -0.065740876 -0.025653735 0.07190344 -0.05683566 0.020252854 -0.013445563 -0.36942956 -0.19490841 -0.5245443 0.14406456 0.11395218 -0.6209072 -0.22668304 0.14262046 -0.030975044 0.22814332 0.3295958 -0.078224614 0.105596885 0.21215627 -0.14317824 -0.6806384 -0.079513885 0.54517215 0.36471868 -0.260006 -0.7285398 -0.2650132 0.38488865 -0.17010024 0.205985 -0.026488114 -0.24413343 0.48832214 -0.18731274 0.05249058 0.51211816 0.31058604 -0.7416935 -0.123060234 -0.5833936 0.0048397956 -0.32192558 0.37181216 0.5926943 -0.03398432 0.4206744 0.7319548 0.057036877 0.1413068 0.35149875 0.25916517 -0.7826697 0.13077727 -0.17307122
571 -0.40819585 -0.22767752 -0.53777134 0.16268547 -0.6024486 0.41761974 0.1758483 -0.21587916 -0.29901153 -0.47895896 -0.20360093 0.42276978 -0.03128333 0.44613323 -0.007091066 0.11615909 0.2796186 -0.13157278 0.15447648 0.28428718 -0.43071252 0.7188158 0.2761398 0.15367888 0.5836682 -0.16250663 0.08156059 0.49269676 -0.49458754 0.35039827 0.12562254 0.6445182 -0.40584242 0.41386667 -0.11760051 -0.19959638 -0.10060921 0.1324893 -0.07462599 -0.39005244 -0.98410934 -0.4310162 -0.7774186 0.19942027 -0.38159332 0.60953134 0.18842356 -0.2653907 0.07519209 -0.12204673 -0.036625423 0.6426557 -0.11567442 0.12551515 -0.6201329 0.10821614 0.19690783 0.79439664 0.19298886 -0.34810355 0.49720946 0.06100259 0.24183728 0.6999919
29 0.8209604 -0.40399656 0.49998763 -0.5176773 -0.27300423 -0.0207234 0.11952001 -0.3014446 -0.9707617 -0.42940354 -0.060194694 0.20372042 0.65664566 -0.0011711919 0.26150745 0.15760013 -0.052339446 -0.52574325 -0.24556804 0.010720614 0.2661049 -0.15341388 -1.0882484 0.20634986 0.34898347 -0.23509797 -0.59416395 0.42040122 -0.5030251 0.082445815 -0.30328113 0.33057705 0.34576866 0.9146033 -0.07826426 -0.48854995 -0.2481036 0.5914385 0.06757233 0.58856595 0.10546818 -0.011619171 -0.17740975 1.0327708 -0.55903023 0.65083593 -0.08485905 -0.32024193 -0.16338842 -0.16818047 0.24209979 0.17857037 0.5560448 0.2658718 -0.3084838 0.97567403 -0.3109926 -0.60663 0.91212994 0.18673083 0.24797113 -0.63498014 0.029100439 0.01086874
272 -0.30885312 -7.1784736e-05 0.07310512 -0.09684159 -0.2748664 0.0574238 -0.04920423 -0.32982817 -0.92179114 0.63291794 -0.5633198 -0.40453574 0.30712104 -0.5842373 -0.58907837 0.30296856 0.24206348 -0.28196093 0.27717993 0.17694747 -0.39164326 -0.49266005 -0.7710795 0.13971947 -0.25730437 0.2988192 -0.09997444 0.3821652 -0.029246526 0.061899826 -0.15067364 0.42013118 0.62381524 0.031157656 -0.27377775 -0.756952 -0.022992585 -0.62172425 -0.5655148 0.29656914 0.21293555 0.10630969 -0.54607725 -0.3017799 0.13698933 0.4447054 -0.3502316 0.0012094682 0.5684045 -0.61146426 -0.26280242 0.31521556 -0.12748769 -0.07981718 -0.56178755 0.5185842 0.21269092 -0.10866305 0.28581703 0.03580886 -0.0730802 -0.36374667 -0.0029483035 0.42781568
342 -0.3346989 0.2043916 0.32396615 -0.18080561 -0.41801816 0.39700148 -0.177243 -0.35051334 -1.2346534 0.15948428 -0.33696586 -0.08742939 0.6050126 -0.12464304 -0.38595346 0.4164547 0.047331158 -0.29255977 0.015301577 -0.059684243 -0.05628673 0.0053264676 -0.6739444 -0.11222522 0.046824235 0.7112875 -0.3188722 0.21685937 0.534 -0.06949149 0.007054035 0.1988837 0.27717677 0.3604207 -0.059716936 -0.11898149 0.3398411 -0.6675201 -0.61659116 0.14236116 0.03359152 0.37541562 -0.47184208 -0.4800342 0.18860999 0.4127362 -0.22986972 0.012812197 0.34975308 -1.2709057 -0.58445245 0.2684844 -0.04507603 0.15401609 -0.48716673 0.44143626 0.14381123 -0.060233943 0.36820936 0.0043492545 0.5560638 -0.201053 0.26355642 0.4723812
789 -0.13662891 -0.16123499 -0.29886574 -0.5718589 -0.22686446 -0.31122702 0.5584359 -0.66137457 -0.69576734 0.049111273 0.3216856 0.7406375 0.52889943 0.5151396 0.24533975 -0.63843316 0.3794824 -0.36874387 0.5796035 0.41247395 -0.9846569 -0.5338803 -0.020740515 0.3309172 0.11211167 0.18168552 -0.7763876 0.1846732 -0.048203204 -0.17619805 -0.34291402 0.058942158 -0.4799288 0.3138919 -1.0770766 -1.0370868 0.42955402 0.8221275 -0.4720351 0.45660496 0.113989905 0.25081724 -0.13111675 0.30400798 -0.14024909 -0.2795782 -0.38595897 -0.27734047 0.34606785 -0.68460435 0.151546 0.050732 -0.030957766 0.62879217 -0.81779605 0.15295775 0.1395942 0.17362587 0.72688913 0.66279805 0.28548044 -0.008752895 0.85419124 0.18062946
890 -0.4168447 -0.16057041 -0.2874395 -0.3894228 -0.24019122 0.10453135 0.16886145 0.2262067 -0.34205586 0.1815472 0.81796193 0.08284944 0.86006135 -0.16351381 0.18233325 0.16320905 0.47228676 -0.21964052 0.48302218 -0.21233995 -0.8399163 -0.13248134 -0.35243073 -0.41535386 0.13734843 0.07819534 -0.45958713 0.1593123 -0.29862088 0.10445672 -0.1896726 0.39614 -0.031099822 0.7025957 -0.12038817 -0.68764186 0.40189087 0.10979312 -0.019449303 0.02937167 -0.44956902 0.5394772 0.116319776 -0.07616181 -0.13024068 -0.07898829 0.4954642 -0.40362874 0.72324735 -0.68614537 -0.32884914 -0.06399224 0.22523405 0.020524286 -0.72911626 -0.109865636 0.09362748 0.16252406 0.9836361 0.095272325 0.021042237 0.37238714 0.92091787 0.19030972
771 0.20193471 -0.19717959 -0.36459428 -0.7897187 -0.85499084 0.98269165 0.876746 0.009727486 -0.96500206 -0.45417222 0.3113725 -0.13736722 -0.052051507 -0.12757216 -0.9839054 -0.75435656 0.53236395 -0.010155732 0.24658321 -0.3448076 -0.021369798 0.7021993 0.030829385 -0.28224474 0.3592194 0.13739191 -0.322533 -0.20424558 0.05142036 -0.21804814 -1.1751153 0.40808564 -0.10515556 -0.16402309 -1.0969682 -0.80531937 0.18832758 0.2520049 -0.3023569 0.30777165 0.13974702 -0.25335133 0.21629627 0.45361173 -0.2684478 0.7423922 0.021659436 -0.7670003 -0.33765578 0.35804656 -0.41556305 -0.12977192 0.7558545 0.034701854 -0.8439604 0.69185543 -0.3802139 0.14207035 0.1030902 -0.21694885 0.6691166 -0.43872267 0.5582133 0.28821614
14 0.6434241 -0.49721426 0.15800296 -0.18727364 0.15341786 0.0050477823 0.08425843 -0.36946583 -1.1650302 -0.1609539 0.15245609 0.09191252 -0.18224283 0.5733858 -0.2093615 -0.29721898 -0.59804875 -0.55345786 0.04760846 0.09487344 -0.36911505 -0.626809 0.111622676 0.15385379 0.01647713 -0.11587054 -0.08156928 0.038981628 -0.120620795 -0.20273939 -0.424117 0.15214941 -0.008424649 0.765328 -0.24187194 -1.0404115 -0.27548853 0.30077705 0.28370443 0.33656543 0.09267262 -0.304862 0.29983056 0.4378369 -0.09086667 0.47465226 -0.12952855 -0.5646937 0.18544284 -0.6628637 0.23800261 0.054215543 0.037762534 0.7110713 0.29938793 -0.0055607865 0.086985834 0.032159142 0.7169485 0.5071632 0.27824205 -0.6422757 0.29926616 -0.37176076
