879 64
205 -0.51720154 0.6386371 0.10905104 -0.92278945 -0.1351454 -0.09126446 -0.16606188 -0.1053183 -1.2685668 0.6089245 1.534913 0.19794755 -0.4817814 0.7270294 -0.27931246 -0.20040032 -0.5919811 0.639592 0.37639448 -0.30790535 1.127912 0.22179517 -0.68674445 -0.043299135 0.7796617 0.4869428 -0.02672942 0.36936003 -0.11350358 -0.31732148 0.2784745 0.44471386 0.66682476 0.2704509 -0.121728994 -0.91658604 -0.39041758 -0.9432413 0.021174917 0.574274 -0.23184875 -0.65187216 -0.016864823 -0.56853426 0.2796761 0.27258062 -0.6265545 -0.6472994 0.53852206 -0.0679656 -0.63911873 0.19189139 -0.33125812 0.1572538 -0.35899252 1.0866038 -1.1292002 -0.91476595 -0.9364465 0.031598423 -0.04132746 0.31308413 -0.22805676 0.24223794
867 -0.7448872 0.5647707 0.07084659 -0.94434744 -0.25714698 -0.1712471 -0.20435068 -0.08627672 -1.1840396 0.5392397 1.8874236 0.18565257 -0.5738103 1.0142093 -0.25812826 -0.21655709 -0.5973155 0.6219557 0.35429233 -0.3067706 1.1533641 0.14273666 -0.6737967 -0.029129848 0.71505135 0.53337336 0.022444034 0.409486 -0.3503272 -0.2539891 0.28507593 0.5013774 0.6924724 0.37105006 -0.23104694 -0.86590725 -0.2769412 -0.9813569 0.07276593 0.62894315 -0.16565768 -0.7257208 -0.037032276 -0.528452 0.27445194 0.12169813 -0.5835109 -0.656375 0.56458837 -0.14085206 -0.75994843 0.11321655 -0.16868502 0.2664946 -0.27140975 1.1945457 -1.2617674 -1.0200984 -0.9447453 -0.10960061 -0.16382903 0.29921654 -0.18614088 0.10694166
232 -0.88790023 0.7830908 -0.57650906 -0.32168463 0.32882816 0.0152537795 -0.35577422 0.110352926 -0.26560634 0.52862364 0.7449241 -0.052863132 -0.26148555 0.43702126 0.5637511 -0.58976 -0.6858464 -0.00093989604 0.19393657 -0.5797502 0.59009707 -0.60352504 -0.13508448 0.100316726 0.15644677 0.16915521 -0.19887744 -0.3372784 0.4751215 0.0070859836 0.25375196 0.23681004 0.42535147 0.6067437 -0.07795137 -0.45174146 -0.4555342 -0.010411165 -0.4801006 -0.3034244 0.31650797 -0.234244 -0.25687227 -0.31831014 -0.00346235 0.52743316 0.15394683 -0.11952873 0.69019777 -0.24897449 -0.87713885 0.3974653 -0.013362115 -0.005545563 -1.0414165 0.15377343 -0.12697177 -0.21981035 -0.28136176 0.06418655 -0.17886542 -0.28008255 -0.04301381 0.16062966
759 0.0015766157 0.49121943 -0.12134292 -0.503848 0.3653393 -0.2173633 0.1353091 -0.32213432 -0.31837904 0.08391388 0.60022485 0.46036553 -0.08845579 0.447496 0.7022747 -0.49980515 -0.4449561 -0.030550921 0.4119373 -0.5441268 0.3234642 -0.6506729 -0.13474849 -0.02217557 0.4364096 0.12823687 -0.11133298 -0.13949943 0.26678494 0.40343857 0.15625387 0.50868046 0.24138609 0.4202874 -0.35955682 -0.6030447 -0.566762 -0.5795459 -0.59565836 -0.33711356 0.17103891 -0.72673464 -0.6550221 -0.21316797 -0.32410273 0.49708843 -0.050521787 -0.1723147 0.80186784 0.060899902 -0.6820061 -0.042080287 -0.20524576 0.1819072 -0.8985627 0.10978347 -0.4037335 -0.42075497 -0.008018863 -0.24860877 -0.21968816 -0.23660389 -0.4829844 0.21369569
130 -0.8157613 -0.26514435 0.13594598 0.34262213 0.27741805 -0.2330219 0.12082468 -0.16420105 0.48197454 0.19369708 0.39691344 -0.040380664 -0.7570508 0.5249637 -0.18893264 0.07965076 0.038716767 -0.30922887 0.5718941 0.24282677 -0.110404484 0.21508317 -0.4655583 0.38408044 0.14512569 0.03431154 -0.072085395 -0.39158848 -0.2889279 0.64692307 -0.43019763 0.24910186 -0.034440756 0.72148764 -0.8009477 -0.3987572 0.033874676 0.01006407 0.5902207 0.36533573 0.119465634 0.38188493 -0.20333105 -0.06249252 -0.0030678238 -0.2746681 -0.3932945 0.1021945 -0.24330331 0.17906922 -0.48533776 0.0024439562 -0.5788515 0.31083056 -0.38602057 -0.2531387 -0.069182545 -0.6698694 -0.022572642 0.58414084 0.25001407 -0.048409432 0.15113719 -0.35320535
425 -0.57103616 -0.07633042 0.65214014 0.5496392 -0.0010076682 -0.32481188 0.37520352 0.06259202 0.32585332 0.25944844 0.67918164 0.16734219 -0.4080095 0.5211521 -0.33872434 -0.034861613 -0.21191916 -0.57948244 0.3932948 0.39436123 -0.10041619 0.07468227 -0.25250462 0.04038668 0.12539743 -0.19106409 -0.37303004 -0.30709335 -0.019215362 0.70654505 -0.437101 0.024809506 0.19869974 0.75853956 -0.6956795 -0.26441738 -0.036916234 0.46923494 0.5597193 0.64684075 0.39826855 0.24766558 0.049217626 0.3629592 -0.11723911 -0.014769136 -0.3058706 -0.3022552 -0.13911676 0.3674771 -0.3996667 -0.085541494 -0.24599054 0.4188931 -0.21765727 0.053246297 -0.23965131 -0.84014493 -0.10270969 0.28541884 0.0023158458 -0.11509935 0.22195399 0.07569638
293 -0.62229294 0.15005393 0.8120704 -0.74261194 0.13059333 -0.5972109 0.53197247 0.21666907 -0.20779453 0.7066485 -0.28055272 0.39536995 -0.4966868 0.35450467 -0.1793937 0.04563861 -0.37206393 -0.19938175 -0.5053719 0.3169353 0.15550706 0.24163832 -0.18450007 0.46254453 0.0150749525 0.14799133 -0.018158741 -0.32727966 0.07642379 -0.041631054 -0.39593008 0.048688024 0.23888788 0.13214427 -0.018246232 -0.23787518 -0.1384698 -0.07014236 -0.40429908 0.28666028 0.11216505 -0.18972279 0.0028525023 -0.29907334 0.021382865 0.43794408 -0.5117724 0.0841701 0.31172496 -0.456112 -0.20349458 -0.43705744 0.4202107 -0.1693387 -0.09052608 -0.06396254 0.19577786 -0.8554099 0.18514292 0.424812 0.21799837 0.24909648 -0.08165639 0.04399322
627 -0.52729213 0.10434732 0.81798136 -0.80589926 0.25959298 -0.2491742 0.56803334 0.12583199 -0.09731985 0.4178285 -0.24284624 0.70119685 -0.42022154 0.28924003 -0.5192898 0.08038535 -0.2581747 -0.3499908 -0.71709603 0.57834655 0.27189323 -0.23812808 -0.22187452 0.42953062 0.11536774 0.22038026 -0.24372108 -0.42712852 0.18501528 -0.035543464 -0.5669648 0.44916123 0.29197434 -0.10763194 -0.008258039 -0.42209813 -0.31463683 -0.13333103 -0.18356322 0.012256385 -0.133824 -0.35373086 -0.0038733196 -0.013063782 0.035728436 0.3759269 -0.34588936 0.051930904 0.24022587 -0.48270783 -0.064517386 -0.4880604 0.16670975 0.05833321 0.014166833 0.06749342 0.12940057 -0.72579896 0.13719785 0.12380895 -0.011616915 0.3153532 -0.0025996133 0.039261725
128 -0.42406625 -0.14138113 0.14049119 -0.8930222 0.980712 0.21007444 0.52843916 -0.15506732 -0.77680874 0.13339257 0.9129426 0.36739597 -0.03336478 0.54912895 0.011152804 0.28426853 -0.16524285 0.50397813 0.74794096 -0.11487031 0.3253586 0.051455185 -0.23933491 0.4233856 -0.07309129 0.029597582 -0.32290632 -0.074576505 0.54891 0.21260314 0.21130584 0.33017004 -0.03386455 0.54133093 0.18937466 -0.48924366 -0.8409256 0.012402817 -0.34643224 0.37169975 0.46458516 -0.28787556 0.0069968044 0.18897073 0.039960828 0.34358588 0.74935466 0.027754746 0.7105189 0.07159024 0.256183 -0.14942047 0.12714618 0.20073375 -0.47540617 -0.17303295 -0.5312933 -0.17520201 0.43956032 0.40170133 0.20109205 0.65930945 -0.35695076 -0.053101983
860 -0.021792497 0.28868896 0.5425078 -0.7394285 0.75713694 0.28234756 0.627784 -0.36378598 -0.838811 -0.20698047 0.56248814 0.57882756 0.22076105 0.86566216 -0.35038656 -0.10477381 0.08713747 0.23103839 0.57382315 -0.1976677 0.44145793 0.1694911 -0.6449733 0.11634632 -0.10905723 0.31054643 -0.6531668 0.12625067 0.47917834 0.39384478 0.04496811 -0.16411437 0.444076 0.36956218 0.19793287 -0.28912637 -0.6376383 -0.050006606 -0.008958442 0.17389353 -0.18749152 -0.48261315 -0.23111312 -0.10847644 0.086911336 0.34105322 0.66953576 -0.5243526 0.5101276 -0.2863764 0.350281 0.115215145 0.109925695 -0.092982 -0.51305884 -0.041963466 -0.5097435 -0.38991484 0.23008592 0.5396787 0.08377629 0.36227354 -0.4748863 -0.080733754
312 -0.9030954 -0.13105874 0.35643613 0.12905277 0.073961206 -0.22911313 0.107491255 -0.26981053 0.14550413 -0.045620654 0.38798085 0.0874243 -0.4983842 0.55411446 -0.13832648 0.24375863 0.17290357 -0.45810702 0.27060288 0.113579 -0.0148385 0.27423796 -0.30724737 0.014414763 0.026370626 0.075893216 -0.43217522 -0.14247078 0.26473773 0.46866438 -0.21733803 0.24611987 -0.118568614 0.23038939 -0.72612804 -0.21074094 -0.09958462 0.10272819 -0.087430574 0.4425917 0.08939249 0.6807894 0.019664928 0.0112813115 -0.080233715 0.023652334 0.10370488 -0.3941345 -0.085046284 0.3885426 -0.39478076 0.22261788 -0.25666142 -0.013968421 0.1261618 0.13976578 -0.01281597 -0.6207845 -0.15941629 -0.058374796 -0.1403778 0.13714513 0.4795008 -0.12905926
517 -0.96927214 -0.032722637 0.26498583 0.13636999 0.13142395 0.14626871 0.062864296 -0.36027998 0.09002492 -0.17150873 0.56163794 0.11370355 -0.1386078 0.6376659 -0.10222666 -0.013300138 0.017501358 -0.048224345 0.3096871 0.09032094 0.013557854 -0.06957148 -0.47894478 0.04992297 -0.3314201 0.5865626 -0.19943309 -0.06172508 -0.074291974 0.49061665 0.11300959 0.21337879 -0.27021784 0.23165677 -0.518909 -0.61139333 -0.24673052 0.6116747 -0.25133157 0.63221955 -0.08770496 0.20453788 -0.28192714 -0.11577125 -0.09617627 0.18650201 0.114003144 -0.22014475 -0.22423945 0.47193682 -0.41232783 0.21441817 -0.34445852 -0.2338021 -0.14656335 0.15727046 -0.19914757 -0.6492635 -0.10474521 0.055774156 -0.37811044 -0.20170143 0.479668 0.2139425
278 -0.98245585 0.065303415 0.29072762 0.109756395 -0.039023623 0.26932046 -0.05546166 0.120492935 0.05978815 0.13871653 0.07923904 0.07524302 -0.61364627 0.68116444 0.1828166 0.24372014 0.31134897 0.17378953 0.06456419 0.054757003 -0.51141 0.3833772 -0.9113358 -0.5499402 0.0890409 0.22413749 0.10479053 -0.15083416 0.2214863 0.0028833027 -0.33466887 0.9060058 0.35360137 0.19584699 -0.72062415 0.12662268 -0.29245916 -0.24372545 -0.0016522437 1.0115635 0.105949916 -0.018451756 -0.22808611 -0.06386773 0.37364528 -0.0322619 -0.42984897 -0.016174413 0.4534841 -0.1691424 -0.22745901 -0.0834099 0.42646053 0.057475165 0.27377823 -0.24183418 -0.21972312 -0.73421216 -0.7002727 -0.120345764 -0.2533496 0.15453994 0.12973428 0.050885364
590 -0.807921 0.45073196 -0.058645654 0.081225395 -0.3398018 0.14115477 -0.01199404 0.12184587 -0.045966253 -0.32576105 0.23060006 0.1961859 -0.48944664 0.13764265 0.0914815 -0.0066767046 -0.034637764 0.4089614 -0.03800315 0.22855484 -0.44874305 0.081989564 -0.8387597 -0.7826114 -0.14587644 0.030778727 0.19719543 -0.054022618 0.5016471 0.089881256 -0.28251645 0.6152581 0.40654135 0.1569059 -0.68597025 -0.02265015 -0.48529312 -0.33904734 -0.07130531 0.76774323 -0.21584605 -0.28541297 -0.22924878 0.14394291 -0.21266732 -0.07407844 -0.39175108 -0.14795281 0.55895853 -0.3188474 -0.060138226 0.04278973 0.4202347 0.20680107 0.20110916 0.17283125 -0.32583565 -0.6971982 -0.5541944 0.24869922 -0.49501744 -0.12900083 0.017902672 -0.15213875
103 -1.1658338 0.4995394 1.2386385 0.092715114 0.40805277 -0.39764935 -0.22758843 -0.111152664 0.23342659 -0.336253 0.2825336 0.122690365 -0.60415757 0.7434229 -0.18638381 0.0640272 0.09509136 -0.14130563 -0.23351568 -0.04433949 -0.36304328 -0.15895034 -0.6330975 -0.033756867 0.5561447 -0.119412534 -0.3687211 0.024941294 0.13777794 0.4886318 -0.16078047 -0.06001385 0.10805667 0.1103712 -0.40507844 0.022978699 0.19154109 0.564878 0.23806548 0.117995635 -0.045975175 0.035420172 0.64332265 -0.4938368 0.43926254 -0.067404784 -0.22739546 0.018197976 0.35912234 0.1956444 -0.79218286 -0.4017424 0.13720961 0.48320234 0.30481336 0.3847252 0.036709387 -0.4786762 0.29267874 -0.3754799 -0.56091845 -0.20093206 0.20625372 0.12722139
358 -0.91847044 0.8824459 1.118479 -0.10412893 0.34050882 -0.41271514 -0.07041432 0.050078068 0.0836332 -0.31684417 0.38368008 0.16706638 -0.80753726 0.938319 -0.41143146 0.13553078 0.23521848 -0.25270167 -0.52496535 0.15293391 -0.49356753 0.0066079856 -0.93034446 -0.16584478 0.42414427 -0.28017387 0.10536641 -0.2095782 0.084356464 0.560159 -0.13573827 -0.053749178 0.13103093 0.347538 -0.22066303 0.12600069 0.054340426 0.007440865 0.10569172 0.18482855 0.11862221 -0.19033788 0.5833973 -0.36819494 0.6349286 -0.031522512 -0.34469095 0.08984551 0.27625358 -0.6807297 -0.37347838 -0.0011032365 0.7801864 0.5279988 0.2391926 0.44636008 0.25077096 -0.2546283 0.0044882684 -0.31570673 -0.50807524 -0.00034030297 0.3470652 0.33554435
7 -0.7148779 -0.24182665 -0.010681991 -0.26901254 0.034063987 0.37595358 0.43833634 0.1097055 -0.82527936 0.81731856 0.030828655 -0.4375474 -1.1251421 0.15434067 -0.050086305 -0.13450226 -0.5939805 -0.64610314 0.49547327 0.21662238 -0.38368887 -0.6374995 -0.30541936 0.21583284 0.01473625 -0.3605095 -0.19577551 0.20820253 0.7337316 0.31789076 0.36602554 0.28239006 -0.022658244 0.17109354 -0.9737115 0.29240274 -0.4755219 0.38166752 -0.26161113 0.42619285 -0.06580865 -0.55268013 0.60166025 -0.34659335 0.7055321 0.7023878 0.4527556 -0.17631729 -0.19110735 -0.018069487 -0.8911157 0.34265798 -0.534914 0.7514731 -0.6244676 -0.27819356 -0.30814677 -0.7467908 -0.03867655 0.16565442 -0.04861658 0.15798804 -1.0058504 -0.38716334
332 -0.8275911 -0.34190488 -0.011298948 -0.28520215 -0.071743205 -0.013503487 0.45713222 0.45271078 -0.6619946 0.7082122 -0.1844822 -0.15780318 -0.61993665 0.11968894 -0.25412434 -0.15092382 -0.30268916 -0.30183873 0.73940194 0.3702373 -0.7495478 -0.3282329 -0.27780703 0.13362023 0.25867167 0.066732876 -0.30386218 -0.15879571 0.91976273 0.13924478 0.103010766 0.27557784 -0.08697187 0.19581322 -0.7528761 0.2818364 -0.0926734 0.4698079 -0.28469944 0.53528976 -0.315072 -0.6077376 0.24668716 -0.081424475 0.874829 0.4880055 -0.013337354 0.03412003 -0.044504106 0.2347429 -0.87264526 0.529567 -0.5361792 0.6748841 -0.10213604 -0.051299114 -0.2888897 -0.80642885 0.19722599 0.39532685 0.16915749 0.21165714 -0.91356057 0.124459684
269 -0.5332208 0.25953847 -0.25630486 -0.06782675 -0.27251574 -0.009063718 0.016684799 0.3584773 -0.15895627 -0.35069355 0.83269817 0.2450816 -0.47820568 0.43949243 0.055016007 -0.08959507 -0.27156976 0.26325858 0.4770473 0.25351092 0.19898736 -0.21636495 -0.31580257 -0.27823356 0.27939054 0.0559074 0.29526222 -0.4625367 0.5324253 0.21414964 -0.76615506 0.51557213 0.6036089 0.051582936 -0.4693357 -0.5986935 -0.6991618 -0.20088421 0.14125858 0.6605299 0.031129654 -0.75837106 -0.08976743 -0.40487438 0.040156506 0.01869861 -0.44651264 -0.46066907 0.3841727 -0.052818775 -0.24720955 -0.25403574 0.26656634 -0.40939963 0.18758363 0.14055052 0.062109012 -0.46291232 -0.23040518 0.13378179 -0.8655818 -0.5041875 0.3276306 0.09504501
710 -0.569348 0.33980873 -0.31732213 -0.2787438 -0.33674508 -0.045248523 -0.21450518 0.5177752 -0.22574769 -0.30341488 0.69438076 0.35468096 -0.47897312 0.43604532 0.31381363 0.021871516 -0.37104148 0.36186343 0.21179645 0.24295111 0.2755415 -0.2872382 -0.3265151 -0.25673363 -0.043200828 0.17232415 0.14865007 -0.33414108 0.57958746 0.120326236 -0.50204384 0.65558696 0.60818076 0.12101392 -0.41509184 -0.582508 -0.62415415 -0.4737142 -0.012797757 0.4507337 -0.028426612 -0.6754626 -0.22597522 -0.1790141 0.06760765 0.21493563 -0.57754105 -0.5695256 0.76644146 -0.034626845 -0.3257301 -0.069048405 0.30538332 -0.14202598 0.3403515 0.19681503 -0.07618958 -0.5720253 -0.12540093 0.17751677 -0.5265725 -0.5056598 0.24224865 -0.09988755
66 -0.41242713 0.13502496 0.6374037 -0.8882346 0.052733615 -0.19976535 0.6642458 0.11635559 0.12563889 0.6284682 -0.25051922 0.67082167 -0.29624897 0.46493092 -0.20614061 -0.14829984 -0.21320082 -0.35569495 -0.37330842 0.34846163 0.3877486 -0.010365073 -0.3424193 0.18080299 0.27253833 0.5144557 -0.1040291 -0.39588335 0.49447954 -0.12785408 -0.48472077 0.048419803 0.35463902 -0.18405508 -0.07919273 -0.29395846 -0.20721284 -0.42860156 -0.1203624 0.19864646 -0.15682672 -0.15152884 -0.09749196 -0.1743724 0.10949078 0.39942315 -0.52161855 0.012925354 0.23199637 -0.29420245 0.03481182 -0.41916624 0.10696216 0.20631738 -0.03170723 -0.20076936 0.11061782 -0.68408954 0.6867456 -0.04649732 0.11892479 0.14770426 0.06009588 0.2262934
545 -0.60868824 0.31603155 0.6967986 -0.8934306 0.40963525 -0.30580643 0.48922426 0.12528706 0.011104612 0.60814834 -0.2686193 0.62747014 -0.4577821 0.26152822 -0.29495478 -0.09222828 -0.17318651 -0.25410524 -0.598042 0.48965198 0.12485444 -0.16878618 -0.13426583 0.48552057 0.13059816 0.37688267 -0.07173475 -0.28386343 0.26647294 -0.15928462 -0.6875179 0.41229653 0.26460692 0.0011512876 -0.07385394 -0.29075646 -0.36511704 -0.032307975 -0.097523846 0.010557375 -0.007801697 -0.1608535 0.106805496 -0.38365355 0.038447686 0.2439824 -0.37126088 0.17249076 0.219919 -0.51204634 0.058632903 -0.42070276 0.17638415 0.13429704 -0.2708175 -0.005475072 0.18869428 -0.7535032 0.25426504 0.08941462 0.0055758245 0.27385068 -0.08748969 0.0026882987
3 -0.9713007 0.32180607 0.24686407 -0.45944634 0.6262992 -0.18346095 0.37509894 0.2960216 -0.20191593 -0.20716855 0.55726695 0.10218147 -0.27235618 0.84899235 0.33226645 0.14888051 -0.27949175 -0.24117874 0.4639506 -0.43994096 0.54483634 -0.2804569 -0.57741565 0.3017965 -0.21850578 -0.014589058 -0.44203418 -0.091533236 0.020062415 -0.014941659 0.08894714 -0.03233663 0.9402368 0.6505019 -0.17582145 -0.29482177 0.1092145 0.6110411 -0.5404917 -0.11468545 0.41047108 -0.1902241 -0.3264283 -0.14056416 -0.08225078 0.10880527 0.3371202 -0.15874343 0.58636236 -0.20930175 0.548025 0.20763607 -0.13752152 -0.16775186 -0.0040777447 0.12407075 -0.4114429 0.17261238 -0.08599015 0.2962964 -0.5031519 0.6695707 0.35826904 -0.21890885
609 -1.0816534 0.7145374 -0.054528058 -0.60974604 0.6931338 -0.46956453 0.32572165 0.16052334 -0.5825482 0.050753318 0.5695191 -0.16096322 -0.13147369 1.1458755 0.15119043 0.11347711 0.0014912956 -0.054043207 0.4480131 -0.5980142 0.43020028 -0.13613392 -0.4876444 0.1392397 -0.29978332 0.25106198 -0.5205187 -0.41851604 0.062342133 -0.08261752 0.15204409 0.11045785 0.6998796 0.72796065 -0.3515365 -0.0996918 0.27065322 0.44294986 -0.4252176 -0.3618663 0.3130444 -0.15132937 -0.2541027 -0.22142635 -0.020749029 0.56608313 0.36260933 -0.400047 0.76163304 -0.18163761 0.0008041827 0.048674203 -0.23882627 0.07507917 -0.021113634 0.31213042 -0.59772116 0.1913257 -0.047548637 0.6920643 -0.43811738 0.462948 0.44217217 0.043535687
193 -0.011135233 0.38949567 0.37555388 -0.7773711 0.6002855 -0.1033163 -0.082670785 -0.17917232 -0.19317462 -0.043034174 0.42798764 0.04794174 -0.2600253 0.54889417 -0.07691123 -0.094894275 0.22675543 0.5013932 0.7777169 0.22812103 0.8401537 -0.33062577 -0.304962 0.13808392 0.00452324 -0.09836144 -0.4450443 -0.022464696 0.18622147 0.57589936 0.119202 0.24271111 0.0658108 0.088852994 -0.14304356 -0.7128927 -0.2556284 -0.20422831 -0.17730425 -0.092547685 -0.055310614 -0.70555204 -0.4201407 -0.078967325 -0.26748732 0.37449524 0.42947358 -0.5549226 1.0450529 -0.38163796 -0.22141914 -0.27237186 -0.12028678 -0.10359046 -0.4485209 -0.37244642 -0.22008495 -0.39486837 -0.17696702 -0.059937865 0.5679837 0.37519044 -0.5636896 -0.19219728
397 -0.22053725 0.39498726 0.40720868 -0.7211175 0.6247612 0.3319503 0.14264981 -0.521214 -0.6090782 -0.12864858 1.0007329 0.7266377 -0.21503685 0.5280473 0.21020496 -0.20282306 0.16018623 0.1317658 0.59697 0.19360968 0.39997587 -0.1250426 -0.2840501 0.3887651 -0.20705546 -0.20159633 -0.34594762 0.1339239 0.39697045 0.3579592 0.11987458 0.092107974 0.12912531 -0.13793017 -0.004121383 -0.384667 -0.6159219 -0.19975947 -0.016500695 -0.28144905 -0.12900837 -0.9094342 -0.6943368 -0.29678267 -0.12874387 -0.028017048 0.21171337 -0.5282514 0.7339918 -0.29141167 -0.08805973 0.14911431 -0.1919612 -0.1521501 -0.77373254 -0.08010593 -0.39022297 -0.5097364 -0.06360095 0.10693159 0.5753009 0.21293376 -0.32199168 -0.1538374
0 -0.023080235 0.9052768 0.84166604 -0.38352698 0.14947978 -0.3295675 0.47331282 0.46888313 -0.6094711 0.6651637 -0.21658565 0.39056188 -1.0600525 0.58044344 0.4910876 0.38584116 -0.3467686 -0.71574426 -0.6576758 0.82847375 0.23548217 -0.7730009 -0.1841024 0.5540625 -0.04218484 0.24757743 0.072088465 -0.2000625 0.33705977 0.094046295 -0.925884 -0.048371322 0.060962696 -0.3121309 -0.6153698 0.08979358 -0.1834996 0.1677391 -0.103298336 0.05503311 0.33958152 0.024475046 0.7939865 -0.71032757 0.26240748 0.051112592 -0.23405173 0.4652502 -0.013822389 -0.3690609 -0.25929233 0.35857907 0.15099181 0.20280278 -0.26551884 -0.035320155 -0.2630083 -0.62222844 0.28096336 0.25889766 0.28502002 0.33345953 -0.26945537 -0.5950992
536 -0.11471707 0.7253949 0.5937547 -0.032499928 0.21719128 -0.23117937 0.4677295 -0.1632163 -0.40883186 0.53865314 -0.3823492 0.5983493 -1.0666076 0.6129267 0.32058448 0.815765 -0.61840665 -0.516752 -0.3718818 0.6332439 0.43287733 -0.8759076 -0.07686022 0.4640888 -0.0047528795 -0.12700404 0.19343145 0.13971722 0.68162805 0.06962948 -0.60665876 -0.12376964 0.09341262 -0.34884205 -0.8561962 -0.09247086 0.0057985294 0.32553124 0.09388848 0.25112966 0.13283168 -0.02802339 0.64994746 -0.66715723 0.36802235 0.0014396064 -0.204641 0.37027237 -0.16933224 -0.19351849 -0.4246916 0.6829227 -0.13831201 0.22303282 -0.25413102 -0.15122274 -0.49984398 -0.38540483 -0.00951458 0.0060875257 0.035617694 0.018009895 -0.32390934 -0.11035595
147 -1.1449606 -0.12517379 0.94815975 -0.15969498 -0.75224185 0.08271442 -0.102266096 -0.62439567 -0.09942438 -0.109182626 -0.4130124 0.4224706 -0.53912205 0.41040015 0.18243548 -0.042914446 -0.42292714 -0.057189483 0.6065309 0.37104604 0.17005433 -0.41828698 -0.31236255 0.39556968 0.2597539 0.10345268 -0.24462417 -0.3126512 -0.021619486 -0.2752696 0.15546833 0.03349822 0.10868208 -0.12788364 -0.6372591 0.20004475 -0.22914346 -0.1449807 0.074888766 -0.12329948 -0.28230983 -0.17749573 0.40618956 -0.40333357 0.16865417 0.10106586 -0.059021115 0.14859816 -0.04659798 -0.47615066 -0.0378636 -0.4965498 -0.24204057 0.37903062 -0.46893933 0.28311977 -0.31130552 -0.47132388 0.41416785 -0.0015611452 -0.82251185 0.117411055 -0.22624338 -0.91351265
550 -1.4016151 -0.013248031 0.60174215 -0.29499626 -0.53164005 -0.17591716 -0.30406907 -0.97337335 -0.30142593 -0.3457501 -0.18867856 0.3109041 -0.55879575 0.24209976 -0.21434976 -0.061767466 -0.62781143 0.45862737 0.68887854 0.46195227 0.09646795 -0.74509275 0.13030386 0.39387885 0.33472267 0.099480964 -0.15054314 -0.68830836 -0.056777067 -0.24759243 -0.028109837 0.25844306 0.105980895 0.092326604 -0.61885023 0.22562075 -0.30095816 -0.19350597 0.25074768 -0.100228995 -0.30333376 0.13042746 0.48165667 -0.2279807 0.2952556 0.09723483 0.096617684 -0.17886223 0.13353272 -0.3807551 -0.25458324 -0.29536343 -0.012863439 0.37148342 -0.2542607 -0.15371278 -0.7647199 -0.37556672 0.5095852 -0.06445244 -0.6946826 0.12886597 -0.20634395 -0.67284316
75 -0.32127953 0.27978423 0.47801 -0.648618 1.0577028 0.2898383 0.72902703 -0.0486714 -0.4148682 -0.102161616 0.44136918 0.27344242 0.16689046 1.2751515 0.012189653 0.081721574 -1.0541277 0.21670492 0.9441247 0.4229156 0.32392317 0.048976485 -0.5227876 0.2970825 0.078694284 0.06486364 -0.26491293 0.4766585 0.30059332 0.13478094 -0.52707195 0.27337337 0.4737034 0.8455439 -0.54673415 -0.25269625 -0.16306101 0.13233678 -0.29737332 -0.030579152 0.33584374 -0.3366396 -0.43584624 -0.38474813 0.0763674 0.6152753 0.5630741 -0.6942042 0.6791018 -0.2701848 0.23769385 0.0073923958 -0.2660963 0.57821053 0.09738671 0.117183395 -0.3560337 0.58624613 -0.14742947 0.21760048 -0.18494534 0.80867666 -0.4964634 -0.18979332
476 -0.25151387 0.2538014 0.5137648 -0.57533735 0.8740717 0.14826907 0.7009806 -0.015605816 -0.5322018 -0.03121837 0.24045053 -0.14578384 0.04517737 1.1446183 0.10777566 0.05730687 -0.6902133 0.44635698 1.0053074 0.32225522 0.69629276 0.23616336 -0.3524073 0.07389196 -0.10220863 0.112390615 -0.10818852 0.31446156 0.24915826 0.23327222 -0.5367971 0.21731345 0.66464126 1.0364155 -0.3661553 0.017116811 -0.3171269 0.18902346 -0.2376398 -0.09813832 0.10166035 -0.28272945 -0.5228305 -0.24012737 0.15254377 0.7863721 0.6277719 -0.95416635 0.4663319 -0.3443212 0.01582439 -0.022795314 -0.07226217 0.51090467 -0.018962715 0.013354655 -0.41091293 0.21620016 0.012809964 0.13542563 -0.15882733 1.005864 -0.37906465 -0.13982725
305 -0.4900178 0.23638847 0.8567392 -0.7149743 0.46743253 -0.29589084 0.53594685 0.03246094 -0.14192212 0.9019304 -0.20932962 0.48574483 -0.41256052 0.33655766 -0.15649931 0.027775506 -0.39733174 -0.32565644 -0.513785 0.3812994 -0.06848476 0.06095397 -0.2267024 0.55877584 0.12188424 0.18127854 0.0062056193 -0.36838478 0.106999874 -0.04149239 -0.38702884 0.16460644 0.3603971 0.04335884 -0.21390474 -0.16249126 -0.18747665 -0.23015544 -0.09533558 0.24159153 0.15555169 -0.25783843 0.08587659 -0.36142918 0.042831134 0.63312167 -0.6045009 0.078731455 0.08857019 -0.50662935 -0.005318071 -0.36575973 0.2635083 -0.13849351 0.04338167 -0.15664154 0.15169162 -0.80279756 0.17391562 0.22096966 0.28265816 0.24047378 -0.19008595 0.24215044
547 -0.6116996 0.21387261 0.97228277 -0.936804 0.22375837 -0.2131031 0.5744669 0.26645166 -0.13228986 0.52856755 -0.34547144 0.41160935 -0.43385673 0.30625722 -0.30378187 -0.0617555 -0.33613056 -0.22198161 -0.73137236 0.39238724 0.2997342 -0.038872205 -0.30851975 0.38957533 0.13687687 0.20690201 -0.24421582 -0.27255997 0.11983867 -0.013783401 -0.5741756 0.4956133 0.33310685 0.00025298144 -0.19404806 -0.17981476 -0.1620794 -0.25998545 -0.15964545 0.055895112 0.032754984 -0.26720244 0.13917388 -0.25117105 -0.019789254 0.2994193 -0.053947493 -0.013285864 0.22461769 -0.6638402 0.034899253 -0.32440555 0.30224955 -0.018681694 -0.05836092 0.11053552 0.12770586 -0.7486687 0.22868761 0.19997992 0.25644666 -0.018026771 0.0401037 0.0016001507
6 -0.99014866 0.36175197 -0.0033421533 -0.044035032 0.08806471 -0.2039226 -0.013259496 0.40320134 -0.34443474 0.05167328 0.12770356 -0.0991889 -0.4364287 -0.21169992 0.52553976 -0.28147954 -0.053486988 -0.9119382 0.32441258 -0.29681984 0.41914985 -0.15194187 -0.4259052 -0.11947958 -0.4840149 -0.14098112 -0.18694219 0.04881932 0.22686969 0.40787247 0.23400465 0.014677443 0.25874832 0.076026365 -0.42711416 -0.23462555 -0.34156144 0.24046572 -0.29758528 0.58689535 -0.12167627 0.10968099 0.8300454 -0.29436275 0.06133157 0.41404074 -0.1848296 -0.34792322 0.25725532 -0.059878554 -0.7348294 0.63666385 -0.13896613 0.080960535 -0.4163409 -0.1318125 0.019825986 -0.19627404 -0.32851708 0.36443213 0.047975548 -0.51303256 -0.22689061 -0.14587598
467 -0.84378266 0.42670968 -0.048264936 -0.062038068 0.3138727 -0.036594424 0.010119466 0.34335276 0.053185202 -0.37568587 0.12400925 0.36821482 -0.48474914 0.019422984 0.35338557 0.32685328 -0.21807721 -0.6071475 0.37715167 0.14644308 0.12944376 -0.18258943 -0.44136962 -0.14941473 -0.5694705 0.19667725 -0.09655426 -0.089218035 0.029906902 0.24267077 0.00934966 -0.07221774 0.10663638 0.14851858 -0.4660864 -0.19026572 -0.4122296 0.10024313 -0.06840044 0.33958095 0.06960627 0.4745035 0.11335582 -0.30425146 0.40397146 0.5595751 0.16006865 -0.6757109 0.15581015 0.33373046 -0.39836067 0.5775976 -0.41846937 -0.17838342 -0.27317414 0.12076045 -0.000996323 -0.5668187 -0.4360739 -0.098356895 -0.20410512 -0.35953355 0.24624746 -0.2137661
230 -0.7026368 0.43136972 0.07317975 -0.7398242 -0.37546742 -0.39517805 0.21519038 -0.30419153 -0.9044621 -0.13253285 -0.10312215 1.0060962 -1.059742 0.38986823 -0.077723436 0.21301477 0.2859288 -0.279398 0.15948574 0.45420194 0.37321252 -0.033951715 -0.49412122 -0.36402518 0.68534845 0.41488618 -0.43741468 -0.08620563 -0.057628687 0.31828576 -0.18324088 0.2821707 -0.84007627 -0.11872993 -0.2172695 0.7212853 -0.17884575 -0.21537663 0.018970083 0.124332465 0.4739676 -0.1635274 -0.09866766 0.12809551 0.6100748 0.3719363 -0.6949217 -0.5028754 -0.08680998 -0.6610649 -0.65305096 0.00298801 0.33037755 0.47638336 -0.153664 -0.32777736 -0.21174902 -0.17059931 0.136579 -0.17503859 -0.40614396 0.2571737 -0.15661779 -0.21200849
384 -0.6785989 -0.15050566 -0.019859549 -0.38414094 -0.20016709 0.27749014 0.43488887 -0.14542867 -0.6830952 0.50310487 -0.09299017 0.39065772 -0.6550295 0.40222925 0.3228807 0.5267476 0.11723416 0.13618204 -0.2740937 0.8188629 -0.26899675 -0.36680493 -0.7386629 -0.17170675 0.3763289 0.015225534 -0.55441856 -0.080037594 0.15690243 0.2561731 -0.049400665 0.7582145 -0.45924854 0.19606501 0.24621817 -0.120598786 0.033814967 0.29003453 0.1444063 0.027905231 0.34203598 0.071091205 0.2534601 0.16205007 0.28140575 -0.06387272 -0.7937675 -0.5448075 -0.09786191 -0.6511333 -0.4318074 -0.05000653 0.14631021 -0.04685177 -0.055070356 -0.46158773 0.0809107 -0.44955763 0.088296704 0.13829717 0.07836378 0.23588307 -0.69497204 -0.33662105
34 -0.83288175 -0.5270151 0.98032117 0.118191235 0.44583514 -0.26761577 -0.431818 0.25325143 -0.58416533 -0.045768805 0.8833338 0.04610471 -0.8902444 0.6603272 -0.27786157 -0.4911964 0.12674184 0.05057379 0.52249825 0.3752896 0.28227025 0.0032337087 -0.24380308 0.21613503 -0.45110118 0.41479918 -0.8774974 0.45205623 0.51198846 0.2784479 -0.3080395 0.52638084 0.5150827 0.48837844 -0.9804992 -0.3382588 0.30480567 -0.35001957 -0.11108022 0.8617062 0.55064195 0.23302245 0.2306679 -0.71582526 -0.106042944 0.0048148264 0.58885723 -0.6097822 -0.14213683 0.46100956 0.23101126 -0.11957374 -0.06460045 0.25906652 -0.3011361 -0.19188285 -0.586639 -0.4374891 -0.40001056 0.18016692 -0.4012604 1.137688 -0.14685805 0.44878387
751 -1.0575702 -0.35213074 0.83114505 0.046106555 0.5452765 -0.4735845 -0.521041 0.36762166 -0.31410843 0.09979524 0.6953262 -0.0064954055 -0.8028771 0.55312365 -0.34259075 -0.51426435 -0.04144119 -0.14186552 0.39618185 0.68630177 0.31613728 -0.08826879 -0.30819443 0.086945675 -0.44848275 0.3293798 -0.9242421 0.4624965 0.44527593 0.41432723 -0.4451079 0.38555866 0.36157352 0.5090025 -1.4086537 -0.44409665 0.3707238 -0.61144376 0.12861529 0.75618255 0.80972695 0.3834221 0.1097348 -0.76715684 -0.02115223 0.20840555 0.54706514 -0.2847305 -0.08859826 0.39344123 0.26251972 0.026134647 0.02956294 0.24815527 -0.521722 -0.3383221 -0.6624763 -0.37543073 -0.45702013 0.13026501 -0.5891459 1.2559346 -0.30186784 0.51978564
275 -0.089674324 0.58069676 0.6802658 -0.45266122 0.13723038 -0.14761187 -0.09301109 -0.3229677 -0.21119545 -0.107622914 0.292581 0.44621482 -0.45815012 0.43614155 0.053554203 -0.016786056 -0.280333 0.13980769 0.44877473 0.19440016 0.3042925 0.28410932 -0.3438875 0.08754511 -0.49063408 0.19121355 0.37603012 0.16314322 -0.21726784 0.4699357 -0.114906825 0.55366534 0.033533305 0.47913095 -0.079236925 -0.65242773 -0.08342871 -0.11138847 0.053325694 -0.11013742 -0.21605195 -0.7009849 -0.2673048 -0.05310432 -0.49154326 0.79449743 -0.12019864 -0.72913134 0.22637355 -0.52551603 -0.1787192 -0.037015684 -0.056610554 -0.8022885 -0.48464456 -0.13264203 0.29807663 -0.33674145 -0.27723414 0.112078905 0.22707215 -0.45945555 0.17270042 -0.041153997
853 -0.533413 0.3105317 0.25083533 -0.08242551 0.07381671 -0.17722116 0.18390591 -0.29412508 0.28629515 -0.013667381 0.21717288 0.43192554 -0.4378803 0.29083666 0.12140916 0.2088961 -0.27412504 0.6141272 0.13295856 0.09050957 0.32052985 0.064224206 -0.024285534 0.21238466 -0.5161735 0.5717682 0.30686852 -0.15085737 0.32476777 0.17332138 -0.118618794 0.49581885 0.25809172 0.10680803 -0.038901437 -0.31269354 0.18586864 0.25588736 0.07819317 0.06412719 -0.1254393 -0.8493982 -0.15612862 -0.41158578 -0.22555818 0.7639267 0.02426318 -0.4774814 0.3171897 -0.18764843 -0.14054629 0.33440948 0.13225488 -0.31290203 -0.19388278 -0.2509027 0.24630515 -0.36133528 -0.14403461 0.21173212 -0.047606718 -0.5866498 0.18470994 0.15822938
108 -0.81767094 0.004951551 0.54137176 0.18313256 0.17492317 0.16945899 0.14716476 -0.26276314 0.054869343 -0.1204559 0.34686366 -0.25319853 -0.58991766 0.5461114 -0.04845746 -0.08630713 0.22562909 -0.46338776 0.29103225 0.07672063 -0.04136039 0.17883262 -0.29719195 -0.21415003 -0.03859694 0.28004232 -0.18250847 -0.23971923 0.14186661 0.59396434 -0.099672936 0.34224746 -0.17715222 0.29937366 -0.54970735 -0.036421984 -0.025165915 -0.061196968 0.06625225 0.5640189 0.29657337 0.43713152 -0.029503036 -0.008093749 -0.038347166 0.053336672 0.15557374 -0.30501932 0.24558087 0.3427942 -0.43359527 0.28341946 -0.16344763 -0.09642281 0.21916126 0.03766791 -0.23664571 -0.69186014 -0.39843324 -0.26658392 -0.19970971 -0.017500257 0.3642819 -0.14411993
481 -0.8807666 -0.051138766 0.34968406 0.18133594 0.119658984 0.018266922 -0.12148828 0.006068594 0.09112696 0.13814652 0.010441161 0.053112444 -0.763846 0.61580837 -0.07438676 0.1569194 0.27361038 -0.05918406 0.22001378 -0.103325136 -0.51703966 0.06370255 -0.7462263 -0.54700184 0.24615775 0.43944606 0.005493008 -0.10495039 0.2747054 0.45855132 -0.37068382 0.7301763 0.38919058 0.40218228 -0.5959598 -0.040631548 -0.10125032 -0.22826664 0.07272922 0.75559986 0.10564244 0.1090689 -0.12402018 0.077639885 0.29337913 -0.23206078 0.29661322 -0.3825749 0.4266074 -0.13346562 -0.13374473 0.20229372 0.014904823 0.20510943 0.14716719 -0.1265113 -0.03032903 -0.6090423 -0.7298392 -0.28806084 -0.017042771 -0.059132606 0.38470787 -0.06395335
239 -1.0497428 0.009670291 0.6140765 -0.17123611 0.3840384 0.13803992 -0.012388757 0.09283149 -0.42090166 -0.34255219 0.058787476 -0.061577737 -1.0029055 1.2320762 -0.13224591 -0.13454162 -0.48010707 -0.028262885 -0.5418043 -0.29622427 -0.07399637 0.6136955 -0.51781726 -0.5298561 -0.04992541 -0.20467196 -0.46478018 0.30563435 -0.2023271 0.50320214 -0.22502345 0.4363155 0.25992808 0.19928034 -0.84131324 -0.25925177 -0.54788446 -0.10320501 0.22618952 0.75354296 0.4207829 0.06787862 -0.08342187 0.050804242 0.029327353 -0.32998985 0.35578087 -0.28212768 0.10968826 0.45490292 -0.37523705 0.41761735 -0.25574568 0.274386 0.6650989 -0.063880555 -0.16752292 -1.2036259 -0.25734702 -0.22831133 0.2658475 -0.18522032 0.080501474 -0.36730143
601 -0.9708056 -0.11009383 0.68751234 -0.24298067 0.39986643 0.15126695 -0.2162691 -0.1669865 -0.31024075 -0.52707744 0.1980883 -0.28706914 -0.8238151 0.99188 -0.02882429 0.05061246 -0.32721463 -0.07725228 -0.27140236 -0.02375706 -0.06475345 0.38437217 -0.26095638 -0.18244262 -0.09450216 -0.43134603 -0.35434273 0.24976939 -0.21791737 0.62392235 -0.26560476 0.5755258 0.056769572 0.06206009 -0.7775491 -0.4400405 -0.27381212 0.04282645 0.17160857 0.7631653 0.30419374 0.2543731 0.05425482 -0.0403707 0.1144885 -0.2820002 0.31628305 -0.23690286 -0.014998964 0.3000437 -0.239524 0.32234776 -0.45360768 0.12304313 0.6022093 0.13644099 -0.010264221 -0.8507038 -0.13281325 -0.1724569 0.15706208 -0.022681864 0.23469916 -0.32965842
118 -0.5927148 0.13316083 0.20948157 -1.0299882 -0.42732996 -0.10573121 0.08032507 0.022589773 -0.65164465 0.4917917 0.25536382 0.13489154 -0.7483414 0.017691752 -0.2224634 -0.7039955 -0.68262285 -0.38717476 0.3226755 0.07717789 -0.014047111 -0.57691723 -0.5274571 -0.14936273 0.15417613 -0.14605306 0.013308832 -0.4384363 0.8038632 0.69866806 0.045003068 -0.28533405 -0.32836276 0.08765921 -1.0945954 0.013502815 -0.16481242 0.24573731 0.16120826 0.07733449 -0.33876738 -0.7210048 0.32790738 -0.11048506 0.5230612 0.6653902 0.6571826 0.3216373 -0.19285434 0.05156458 -0.18579228 -0.1965273 -0.5731571 0.6132109 -0.6416613 0.19433634 -0.25575277 -0.98782533 -0.26321733 -0.10552507 0.39167345 0.68768066 -0.6443584 -0.51883703
347 -0.52980804 0.20597814 0.24387544 -1.0302064 -0.31215736 -0.12596731 -0.0065184524 0.13455941 -0.35465395 0.53991264 -0.006241685 0.5055829 -0.63145643 -0.16465338 0.010821217 -0.4827384 -0.48010242 -0.705101 0.09452086 0.097731315 -0.12843919 -0.31072843 -0.50920093 0.07312267 0.09170007 -0.21520999 0.31348538 -0.4608298 0.9187175 0.51472574 0.03714491 0.15584925 -0.34829196 0.013703946 -1.0513835 0.03299533 0.116143584 0.53160924 -0.15159827 0.31362587 -0.1628103 -0.41931522 0.4546945 -0.13574648 0.6089136 0.5365494 0.79702616 0.32385802 -0.28909796 -0.010013554 -0.17669748 -0.27885807 -0.47430333 0.373387 -0.23372377 -0.038929403 -0.36681315 -0.847802 0.046933975 -0.07355163 0.06458796 0.40892664 -0.5169843 -0.18152553
160 -0.6161436 0.24375746 0.66708285 -0.7220283 0.2929343 -0.43470216 0.55075294 0.10165625 -0.17118488 0.737143 -0.30072355 0.39419094 -0.30958322 0.34918895 -0.23579521 0.12618792 -0.18072751 -0.22628027 -0.48994136 0.44573736 0.060602773 0.093960255 -0.2656923 0.5405436 0.091122866 0.32220158 0.036163088 -0.29294297 0.2251635 -0.07585104 -0.42891392 0.064698935 0.26834714 0.13867018 -0.17564332 -0.18909252 -0.07367959 -0.17922862 -0.2616666 0.16743022 0.076509915 -0.3257492 0.10243995 -0.26786464 0.07819707 0.31777197 -0.54567736 -0.0038681491 0.51629007 -0.38733593 -0.09563168 -0.46655768 0.19344555 -0.081298634 0.016910702 -0.18166843 0.24701945 -0.675998 0.21834387 0.29704544 0.2698897 0.2643772 -0.21153894 -0.0754237
766 -0.4542649 0.42024028 0.82950616 -0.31037557 0.4597649 -0.2775397 0.37850642 0.2781413 -0.32560748 0.6151752 -0.19764826 0.055181313 -0.42199975 0.5543977 -0.3245958 0.10337941 -0.39200613 -0.4085318 -0.6617468 0.6674175 0.18418981 -0.026072104 -0.64307636 0.29872283 0.33023584 0.30324167 0.122210346 -0.2584709 0.21932302 -0.059252653 -0.4164431 0.39615563 0.14614408 0.16628176 0.1974763 -0.3026248 0.051136654 -0.11079597 -0.28692445 0.03668314 0.21948564 -0.18417063 -0.040943444 0.041283943 0.17284101 0.2758689 -0.34389985 -0.01942374 0.52835304 -0.6319058 0.009609397 -0.42220104 0.39226198 0.31422436 -0.2404735 0.41724527 0.37983656 -0.5031331 0.4216155 0.13862078 -0.07664526 0.18192649 0.0022974794 0.20703182
190 -1.1768018 -0.19539243 0.6695934 -0.0773309 0.57806486 0.091480345 -0.087781616 -0.15229069 -0.351094 -0.5266902 0.115318455 -0.290123 -0.9135835 1.2113336 -0.24630424 -0.17669809 -0.2757743 -0.04260015 -0.41281816 -0.239788 -0.11664207 0.4394294 -0.39567763 -0.62784225 -0.15480849 -0.1682513 -0.41543326 0.46332562 -0.049995683 0.40482214 -0.17676793 0.34242314 0.11384808 0.18010418 -0.8370056 -0.19463572 -0.78967535 -0.29641548 0.03456519 0.7269536 0.4452056 0.25313768 -0.2368033 0.02965298 0.14059037 -0.33788216 0.2045886 -0.38483313 0.064614676 0.20911714 -0.440526 0.06354803 -0.3106188 0.37574553 0.7090657 0.06616981 -0.3316476 -1.2510754 -0.2259696 -0.20835441 0.38234752 -0.15862885 0.0011954295 -0.41283807
264 -0.62789714 0.3877689 0.030005965 -0.010691318 0.07809238 0.38727605 0.075038776 -0.011007784 0.17278926 -0.21862379 0.07088715 0.31685728 -0.41630694 0.63847005 0.25969765 0.16242006 -0.103503905 0.088516064 0.15423623 0.3764193 -0.041499328 -0.48221365 -0.2599139 -0.19111976 -0.37278372 0.4859746 0.15634629 -0.02798842 -0.19733231 0.54464114 -0.19511622 0.080061816 -0.09684634 0.28422043 -0.0141626 -0.31334695 -0.2812756 0.14829217 0.1238796 0.24532332 -0.10605787 0.0027090595 0.07999878 -0.62121946 -0.22250755 0.27389115 0.13060325 -0.5058816 0.028872143 0.050268102 -0.28189722 0.5513091 -0.7029404 -0.30147272 -0.3027959 -0.082594275 -0.07585681 -0.54537857 0.03347692 0.21268073 -0.63786495 0.10493103 0.47583258 -0.3014456
685 -0.7547307 0.20663223 -0.05921632 0.23397097 0.32493767 0.13346799 -0.1774489 -0.068005204 -0.101742156 -0.41641858 0.26866663 -0.054442048 -0.32728645 0.45483792 0.12863411 0.22656389 0.15521285 -0.30852827 0.027569436 0.2553396 0.20441468 0.0937925 -0.28398982 0.07447191 -0.31472635 0.40190753 -0.055931024 -0.19919905 0.30967298 0.1325209 -0.34390074 0.2540351 -0.03238849 0.42608973 -0.1888088 -0.27472585 -0.38261425 0.24135496 0.23924062 0.47047043 0.040121835 0.09727307 -0.2477445 -0.31225064 -0.15257987 0.27119195 0.099057585 -0.68652177 0.07697301 0.47348508 -0.33800554 0.10482756 -0.4515605 -0.17449975 -0.078725904 0.003724273 -0.31487343 -0.9759125 -0.09718974 -0.1111341 -0.70337164 0.030942025 0.4567268 0.106326625
448 -0.6133379 0.2731498 -0.31605217 0.10565773 0.27957767 0.20982338 -0.23380968 0.13373312 0.09402341 -0.4075956 0.15013859 0.0068661985 -0.4572549 0.60535467 0.7200976 0.35986674 -0.1549087 -0.26581335 0.17263281 0.48777974 0.35120603 -0.09400659 -0.4519442 0.196487 -0.44343576 0.2208508 -0.0029010628 -0.26088133 0.12610726 0.09978817 -0.63808626 0.14668879 -0.023169016 0.36657792 -0.35234737 -0.35996768 -0.58118635 -0.09739247 0.10686553 0.42080012 0.022181252 -0.15592797 0.09679742 -0.27661532 -0.2308433 0.384691 0.08543387 -0.7824334 0.024831034 0.30895257 -0.359088 0.21348296 -0.47127524 -0.20182617 -0.16886671 -0.1517215 -0.1380959 -0.9991031 -0.083517544 -0.16407543 -1.0226468 -0.020184591 0.37160584 -0.025335642
298 -1.3300699 -0.73684335 0.4072512 0.3248493 -0.23964232 0.008225427 0.36124244 0.6038058 -0.9202316 0.38288054 -0.4824196 0.20056526 -1.465521 1.0225488 -0.31203824 0.51966125 -0.022923896 0.8643512 0.47457272 0.87482935 -0.029609902 -0.48199177 -0.6501231 -0.3362678 0.22540419 -0.014508555 -0.53408414 0.035243716 1.5165306 0.47118005 -0.54394764 0.71275413 -0.32964686 0.2270669 -0.08056394 -0.14296347 -0.14616269 0.54787326 -0.14589149 0.31247324 -0.044860117 0.14965284 -0.49391577 0.07842819 0.23213786 0.3103678 -0.5010776 -0.4760684 -0.15531567 -0.24012631 -0.29009512 -0.7761887 0.43867388 0.076150745 0.14520794 -0.26230553 -0.05958695 -0.600582 -0.19327843 -0.09049518 0.20267093 0.3459827 -0.54363674 0.05921362
362 -1.3384376 -0.53537774 0.30162418 0.19994444 0.03930481 0.2665008 0.8009471 0.49675974 -0.769452 0.40207446 -0.47939754 0.24219067 -1.4024574 1.0286015 -0.3197669 0.5054245 0.1195148 0.80223703 0.3297928 0.7018065 -0.06226764 -0.53884673 -0.5622531 -0.5611877 0.24856459 -0.03933281 -0.4233272 -0.06622445 1.3070778 0.29446784 -0.39244255 0.6971915 -0.29612142 0.31200305 -0.11320776 -0.18490633 -0.027461592 0.61058974 -0.12034697 0.56633496 -0.27449018 0.40122128 -0.4409094 0.022050682 0.099162206 0.3143495 -0.44536045 -0.36592373 -0.10004479 -0.47018933 0.071517766 -0.6807601 0.3060631 0.18275224 0.20177975 -0.3891811 0.1285069 -0.3748315 -0.3656417 -0.020773724 0.08938871 0.33044988 -0.6898545 -0.08683891
136 -1.0069971 0.11276121 0.26428166 -0.78306496 -0.036498573 -0.40921634 -0.3024864 -0.15241872 -0.019135032 0.12052514 0.82587975 0.3726475 -0.23731168 -0.3396772 -0.6310641 0.41235533 -0.9261766 0.8340387 0.4413478 0.23846471 0.1230189 -0.033732608 -0.6344458 -0.25041315 -0.14541993 -0.09084262 -0.7173577 0.009443927 0.054547247 0.4757411 -0.2658618 0.33139855 0.3472787 -0.061503276 0.0664675 -0.033373784 -0.40532583 0.32187802 0.06734771 -0.11273833 0.65528256 -0.12998903 -0.23808375 -0.17929971 0.20237023 -0.033284266 0.2120859 -0.7473259 1.4096705 -0.7176182 0.07866316 -0.44599652 -0.14611968 -0.17711948 -0.4873907 -0.8089169 -0.8348748 -0.21704495 -0.11152215 0.24760745 -0.88331187 0.81151736 -0.43603727 0.085330404
630 -0.79884946 0.09483729 0.24772155 -0.8475214 0.032979205 -0.25481614 -0.17025132 -0.100305475 0.0009623971 -0.13022012 0.47453335 0.46028203 0.008685862 -0.28690574 -0.7206631 0.3786821 -0.9010573 0.64745134 0.29516736 -0.00805605 -0.038772795 -0.16369583 -0.6753573 0.015984321 -0.28976023 0.111331515 -0.6955857 0.10951638 0.088090785 0.6379172 -0.2757807 0.30384114 0.42006773 -0.18842807 0.06987853 -0.08107279 -0.355122 0.26015413 0.2065086 0.07851019 0.70184106 -0.030707978 -0.24460985 -0.058723386 0.1178838 0.16851231 0.16667543 -0.6373284 1.3995806 -0.6317155 0.007708943 -0.2930492 -0.08975777 -0.17388986 -0.4103114 -0.9188844 -0.79091215 -0.3627074 -0.079229526 0.5201517 -0.6825103 0.54503655 -0.37918845 -0.014947745
309 -0.8974633 -0.21203059 0.5495185 0.17614925 -0.07239942 -0.18640995 0.075341955 -0.9131344 -0.34501752 -0.025580475 -0.44047195 0.84916484 -0.862049 0.6980151 0.6113653 -0.025984816 -0.7799559 -0.33130333 0.37428632 0.27730924 0.43932208 -1.0426984 -0.50656646 0.071499966 0.8775764 -0.17799932 0.014239739 -0.19935966 0.41698048 0.15413512 -0.12222708 0.32101423 0.016913231 -0.23018897 -0.7455437 -0.18055262 -0.5359019 -0.6983976 0.074060835 -0.23471151 0.25797126 -0.28872952 0.44737047 -1.0315994 0.30616528 -0.054424953 -0.13411193 0.027674446 -0.43798724 -0.1042111 -0.28350917 -0.17538163 -0.31061217 0.18344072 -0.69420075 -0.1795906 -0.76485944 -0.5737606 0.31353915 0.09523574 -0.5333081 -0.29143977 -0.80563116 -0.2282185
818 -0.9792453 -0.24211958 0.34388235 0.11749452 -0.46696207 -0.17069457 0.13881521 -0.8812654 -0.5517381 -0.16665597 -0.29274693 0.69053704 -0.5267683 0.8147515 0.50810313 0.058555156 -0.79383653 -0.4392041 0.34522507 -0.024833957 0.3752278 -0.9491679 -0.53029674 0.16235341 0.8674167 -0.06178434 -0.007882387 -0.11992607 0.26326504 0.276393 0.04038268 0.35689044 0.014759466 -0.17548281 -0.69281065 -0.21721256 -0.5320475 -0.6941773 0.26247376 -0.40337592 -0.04999045 -0.12496106 0.621857 -0.83543384 0.4271865 0.037386954 -0.043719754 0.15503679 -0.42518073 -0.24003819 -0.13185272 -0.29186943 -0.3872919 0.21090236 -0.57918036 -0.13870567 -0.55160433 -0.7674278 0.17855681 0.15669608 -0.41827878 -0.2073804 -0.80896366 -0.22545175
162 -0.49340037 0.26595753 -0.3888749 -0.47657612 -0.33714718 -0.091351345 0.12186095 0.32308933 -0.13394614 -0.3892429 0.5438936 0.25131983 -0.50623226 0.14891332 0.14292035 -0.07721782 -0.4152359 0.46478665 0.39811262 -0.0188496 0.16887042 -0.22166501 -0.28384453 -0.26468167 0.13180533 0.22776863 0.25996077 -0.27620018 0.6486438 0.18889745 -0.5280594 0.57756835 0.49429646 0.040094882 -0.45138648 -0.50271946 -0.43814775 -0.33355254 0.20425475 0.2508295 -0.08633213 -0.4384119 0.036027282 -0.19877286 -0.10414135 0.25455332 -0.44962153 -0.5995588 0.67248607 -0.021216787 -0.25422218 -0.081635654 0.38303587 -0.22268677 0.03803365 0.06151843 -0.09994078 -0.4702119 -0.31131527 0.571237 -0.6945857 -0.2999276 0.34953076 -0.03597927
636 -0.6606715 0.375624 -0.4912577 -0.16085844 0.13798578 -0.19595388 -0.5538916 0.20594274 -0.29517004 -0.3288348 0.6475897 0.46723744 -0.17658326 0.1833816 0.036133055 -0.025337635 -0.18909541 0.5780648 0.1754456 0.45256683 -0.0041027837 -0.11295825 -0.20539641 -0.36810607 0.17972267 0.10870881 0.19202232 -0.43340978 0.6025495 0.55492866 -0.5104122 0.37430924 0.42112592 0.0010168651 -0.33999154 -0.42444885 -0.5403782 -0.27836353 -0.0028363094 0.24692911 0.23413542 -0.9573819 -0.11218276 -0.3116236 -0.059848923 0.30984282 -0.080203794 -0.8573542 0.35010907 -0.16283536 -0.50919855 -0.08885332 0.34173402 -0.31381795 0.009103786 0.06500096 0.04623741 -0.353015 -0.049869467 0.2855047 -0.44280484 -0.23823908 0.1300623 -0.2658304
311 -0.78710735 0.11213106 0.98974514 0.58899456 0.0042028083 -0.2509762 -0.060812518 0.39782512 0.08978637 0.6080588 0.9284496 0.17347713 -0.38139617 0.5648888 -0.2418631 0.11492348 -0.410877 -0.45389205 0.12921654 0.18453015 -0.12966612 0.017751353 0.22307113 0.02279386 0.6170043 -0.13706246 -0.4718533 -0.27044097 0.1553977 0.46627912 -0.41961455 0.10518362 0.09805426 0.562752 -0.6559746 -0.17933473 -0.36981267 0.5702181 0.56412846 0.5366351 0.20975497 -0.04464325 -0.3265296 0.30610707 0.1854596 -0.19794849 -0.3533836 -0.2794475 0.101526424 0.3481037 -0.5716091 -0.15671253 -0.13820301 0.2888114 0.00044505374 0.49661407 -0.037360992 -1.085528 -0.22337754 0.14892864 -0.41964832 0.15056096 -0.0066963728 -0.3826394
354 -0.76936984 -0.02082382 0.9534212 0.4361708 -0.4531145 -0.6066195 -0.25075457 0.10056169 -0.15291943 0.40201327 1.0598943 0.00014652466 -0.27338707 0.69331306 -0.04297815 -0.007784064 -0.56082517 -0.15221404 0.13746981 0.4317108 0.03730013 0.060466748 0.20869179 0.09765532 0.759863 -0.31391072 -0.28056532 -0.3618641 0.17052342 0.69482607 -0.801913 0.25600195 -0.034740523 0.39210093 -0.60903126 -0.32341328 -0.51225364 0.25567374 0.35258883 0.68054736 0.2872794 -0.078113995 -0.25319007 0.36119816 0.27876508 -0.1795752 -0.5364447 -0.40303376 -0.04098254 0.3898258 -0.6822771 -0.27661628 -0.5123109 0.35742766 0.054628894 0.45446098 -0.010517767 -0.88289964 -0.22743195 -0.05455823 -0.50480103 0.0715951 0.16768682 0.11708534
613 -0.62586737 0.3609399 -0.36557668 -0.2035419 -0.41343778 -0.21109155 -0.19681251 0.27456304 -0.17422594 -0.27028495 0.76328194 0.23955238 -0.47923803 0.4867658 0.102162115 0.14662173 -0.3661705 0.36062703 0.40205443 0.34420496 0.05767915 -0.23919426 -0.19218704 -0.34373793 0.18732241 0.17902188 0.47285742 -0.40504503 0.64582884 0.25176406 -0.65752596 0.48532107 0.5156295 0.10842664 -0.35172135 -0.20582049 -0.54413986 -0.21716909 0.1281671 0.3638325 -0.07134741 -0.6476956 0.01920865 -0.2696444 -0.09020174 0.060130402 -0.51048726 -0.48582244 0.7770762 -0.018312454 -0.18437222 0.00086983363 0.447932 -0.1637294 0.25575626 0.21871038 -0.11086908 -0.5838906 -0.34115675 0.2100381 -0.7991155 -0.35722175 0.08767879 0.07960714
656 -0.6014939 0.26451552 0.6211253 -1.008759 0.106677964 -0.3029675 0.7379535 -0.04688854 -0.24021171 0.49545527 -0.22359955 0.39309856 -0.567508 0.29899243 -0.5663971 -0.11353465 -0.3438035 -0.22374773 -0.7205851 0.42707548 0.12931165 0.050817564 -0.31366724 0.42179176 0.17020218 0.45060068 -0.03646881 0.041874677 0.10283872 -0.2700639 -0.72446406 0.27165547 0.3935032 0.18112358 -0.2758623 -0.29471195 -0.19896497 -0.21452887 -0.18680856 0.014200182 0.13108513 -0.3582988 0.1824242 -0.26809448 0.00072015147 0.48904142 -0.57960784 0.13117656 0.24263114 -0.55659336 -0.16317534 -0.47414955 -0.1793703 0.010340004 -0.09125927 -0.01716641 0.21843103 -0.55825084 0.104840286 0.27951303 0.2350915 0.032384314 -0.106276244 0.131198
126 -0.84561867 -0.111066364 0.27323014 -0.8150646 0.30097795 -0.1718372 0.17825808 -0.09480298 -0.57313037 -0.19385177 0.98158157 0.33800843 0.061226018 0.7494095 -0.11501059 0.3323283 -0.94093865 0.4789063 0.7550066 0.017790172 0.4647921 0.03352152 -0.49139357 0.447753 -0.22964345 0.11807531 -0.12833674 -0.17437898 0.52467626 0.49977913 -0.24102205 0.24107689 0.100567006 0.51115805 0.13437164 -0.23013778 -0.76055676 0.16200753 0.2574049 -0.048710123 0.88080114 -0.3313104 0.40423116 0.25275275 0.07197206 0.35283345 0.5293087 -0.30794057 0.6211533 0.04958078 0.43222263 0.09182802 0.15859705 0.3940927 -0.3961193 -0.15692128 -1.0266507 0.06913777 0.6007359 0.8146932 -0.16732314 0.77850175 -0.5411286 0.03145832
313 -0.7288006 -0.29742882 0.30166233 -0.7827204 0.16960394 -0.116732925 0.06699671 -0.04647454 -0.45842734 -0.14645523 1.0741537 0.35724455 -0.10801792 0.7072088 -0.08256214 0.19083717 -0.90357614 0.49084228 0.76083225 -0.106983304 0.6049551 0.119512536 -0.59829444 0.30324945 -0.34440082 0.19112785 0.11052307 -0.37840328 0.37573472 0.35838908 -0.3369092 0.53729355 0.21018474 0.51349866 0.35964996 -0.2731276 -0.7062766 0.024897885 0.054813355 -0.07365565 0.81709117 -0.30864558 0.20739426 0.11411934 0.07805118 0.29258874 0.65925086 -0.4274052 0.47037303 -0.036669344 0.3616651 0.044972025 0.30001923 0.31565478 -0.39732525 -0.23863165 -0.869656 -0.01995795 0.5586772 0.7966681 -0.21026482 0.8460771 -0.48382816 0.25444096
845 -0.5595161 0.45616868 -0.48609897 -0.16723937 -0.10124807 -0.0212022 -0.25281134 0.30260876 -0.09628767 -0.2557103 0.68176264 0.21741581 -0.7468546 0.38805073 0.2650964 -0.20116177 -0.16552036 0.26198912 0.36369082 0.11650121 0.22211681 -0.17811479 -0.4726439 -0.23663361 -0.3279514 0.36763105 0.33766878 -0.36570886 0.3689278 0.13420081 -0.80348265 0.525388 0.57289964 0.08134298 -0.49076518 -0.45043412 -0.61442196 -0.108709335 0.20047165 0.4114148 -0.1725426 -0.55553776 0.06511389 -0.13491818 -0.022844806 0.2202658 -0.549405 -0.6703405 0.48027235 0.26762822 -0.25626704 -0.10646691 0.14196587 -0.23131579 0.22828436 -0.042964686 -0.016671428 -0.4192368 0.011544588 0.31699505 -0.7867036 -0.3739752 0.14905287 0.09045998
82 -0.96337366 -0.28262678 0.0047497326 0.23191878 0.58049333 0.24603626 -0.27518532 -0.36968336 -0.3679772 -0.05913088 0.45254824 0.17332083 -0.50531435 0.6285009 -0.38578594 -0.010970247 0.3350572 -0.3137124 0.22080137 0.09053141 0.32311845 0.15590799 0.10131724 -0.103550024 0.2843889 0.48881269 -0.37529325 -0.2842431 -0.061325144 0.11297045 -0.6620988 0.2316974 -0.05092094 0.2259682 -0.6115598 -0.0732349 0.17594169 0.21384968 0.36448678 0.35820785 -0.036429185 0.45056516 -0.26438478 -0.26076743 0.03473913 0.08793953 0.4307935 -0.18095943 0.3312432 0.48660567 -0.1578938 0.4150751 -0.49642646 0.046614822 0.08782035 -0.17193109 -0.011543101 -0.9293956 -0.539876 0.113971114 -0.6004347 0.24540631 0.18297322 0.42825228
527 -1.117595 -0.14734393 0.16004112 0.23186657 0.15364437 -0.12881583 -0.044763517 -0.15210894 -0.09872426 -0.13777746 0.3715571 -0.010230616 -0.43582177 0.6766601 -0.24206485 -0.037189342 0.30486068 -0.34081355 0.35726517 0.2322736 0.10954068 -0.011812738 -0.2825251 -0.19484267 -0.087254725 0.13933535 -0.25638983 -0.22309227 -0.016215753 0.4002508 -0.3094451 0.36207947 0.0749906 0.3538172 -0.53251815 0.077887334 0.3749977 0.27571964 0.25337678 0.33616772 -0.025573965 0.16841413 -0.005047721 -0.14757916 -0.17672063 -0.06535651 0.10038659 -0.25108108 0.10814732 0.43944424 -0.25023547 0.3093562 -0.38336334 -0.10902686 0.12872349 0.047525436 0.06267291 -0.9532713 -0.52225477 -0.085579805 -0.35559788 0.1631323 0.21707939 -0.0017581896
29 -0.66513455 -0.009004134 0.901165 0.2804373 -0.14341302 -0.085783616 0.20894308 -0.7685776 -0.20382544 -0.16548628 -0.16920854 0.8244245 -0.7187392 0.4539739 0.78753054 -0.14422515 -0.6832356 -0.31393293 0.27492827 0.047202297 0.42108375 -0.90060383 -0.33425543 -0.12278774 0.77610254 -0.28068295 -0.03028471 -0.16182597 0.5069531 0.41545033 0.06421999 0.11941783 0.08136715 -0.3080849 -0.6434666 -0.25899342 -0.3298867 -0.38712928 0.16026084 0.0023809182 0.2616188 0.10153029 0.5012385 -0.75300914 0.44577894 -0.06262846 0.147704 -0.0002414587 -0.20188917 -0.16398102 -0.31220952 -0.7531193 -0.32285613 0.28330088 -0.15553424 -0.38196075 -0.28213274 -0.72010374 0.2909278 0.1293968 -0.43208984 0.07637025 -0.7039706 -0.34792313
206 -0.14058322 0.33771673 0.31535724 -0.7580662 0.36310506 -0.2766298 0.27475396 -0.05596395 -0.28490242 -0.46045327 0.53424585 0.39814457 -0.1388958 0.36368397 0.30975488 -0.4032749 0.014810063 0.37507463 0.70147604 0.21875872 0.14502792 -0.22239885 -0.20147674 -0.18382071 -0.08874595 0.11783788 0.04822127 0.11594057 0.3933196 0.16445526 0.24662909 0.2409055 0.1518237 0.2257866 -0.067337 -0.5547061 -0.42999777 0.051921852 -0.07349309 -0.28268093 -0.027854087 -0.31059617 -0.7121684 -0.34653026 -0.30513778 0.41689864 0.035581093 -0.31396407 0.8298984 -0.4685393 -0.12740305 -0.12730564 -0.4270766 -0.19671942 -0.49297047 -0.27418897 -0.4493269 -0.65390456 0.07985213 -0.09032831 0.33199677 0.15503846 -0.47389492 -0.4107704
380 -0.30457017 0.43346643 0.23771277 -0.6080797 0.45962694 -0.21514317 0.45603818 -0.22154354 -0.6123821 0.07467697 0.63709855 0.12076971 -0.1116108 0.4426048 0.43100795 -0.27943513 0.18149285 0.46710658 0.68908805 0.18101509 0.43446654 -0.62417185 -0.32414418 0.2054876 -0.069338486 -0.052041013 -0.47994262 0.25206697 -0.15895075 -0.14700718 -0.24380136 0.21168338 -0.104374394 0.2601332 -0.39464736 -0.6996303 -0.43229088 -0.20785782 -0.22101395 -0.049002763 -0.42644948 -0.46281 -0.8363865 -0.30933937 -0.053058602 0.07765635 0.294877 -0.7677529 0.77678543 -0.6261592 -0.20966694 0.14915633 -0.15862314 -0.3131976 -0.42963928 -0.039299812 -0.31618083 -0.44382548 -0.04780168 0.31979206 0.56359714 0.44329903 -0.0840727 -0.32788447
552 -0.3930617 0.3500297 -0.20478475 -0.27627727 -0.40839294 -0.30063936 -0.2514736 0.23554 -0.082737744 -0.15318368 0.6269897 0.20623006 -0.65878093 0.17977086 0.108753465 -0.13283303 -0.61513674 0.22167102 0.29460615 0.28119534 0.2986296 -0.07116751 -0.21061383 -0.43159154 0.15185495 0.21331075 0.4191171 -0.33800247 0.52987653 0.3269695 -0.6758341 0.46588308 0.7605524 0.102906086 -0.46020502 -0.38933676 -0.6965565 -0.2824391 0.35273004 0.3748433 -0.009719897 -0.71706027 -0.103824034 -0.31191167 0.055901054 0.11693738 -0.70570576 -0.6330611 0.56387556 -0.01405299 -0.29390305 -0.23474315 0.13287428 -0.28581682 0.19940686 0.12997648 -0.046953063 -0.5938363 -0.3160812 0.32754055 -0.77668995 -0.29021475 0.15183602 -0.02311738
23 -0.70373374 -0.07242094 0.61195993 0.6469215 -0.4352919 -0.28984177 -0.13026166 0.2775622 -0.28145018 0.2005547 0.96032363 0.21333271 -0.42162916 0.5697462 -0.15511166 0.06862141 -0.44470862 0.08902374 0.31641787 0.3679252 -0.14654142 -0.17992975 -0.22722957 0.33169106 0.80642885 -0.46570122 -0.12764971 -0.22186299 0.39248756 0.5507999 -0.6392741 0.19173722 0.27322295 0.30691057 -0.7153679 -0.3469195 -0.67206246 -0.11864206 0.2667413 0.53630894 0.097138844 -0.048861302 -0.3134148 0.26075497 0.07128552 -0.1641816 -0.45551178 -0.15018809 0.16913317 0.47962204 -0.85704684 -0.78633654 -0.70791507 0.20461997 0.19157624 0.31785986 -0.033752583 -0.7427727 0.2655307 -0.17575943 -0.67363137 -0.047284026 0.20249155 0.10553848
848 -0.74229133 -0.052639417 0.83492965 0.34055272 -0.60719573 -0.18781331 0.22112124 0.06163188 -0.26137525 0.27522156 0.85627985 0.018009624 -0.3909101 0.7939566 -0.11120379 -0.051759064 -0.48748636 0.012489168 0.41767314 0.3563446 -0.19983344 -0.16508505 -0.2629889 0.18692589 0.7782425 -0.53205293 -0.047928818 -0.25355342 0.31339395 0.60772514 -0.71906763 0.13919687 0.3112683 0.33241817 -0.8753582 -0.48238155 -0.59827954 -0.121382155 0.36162314 0.33131 0.1303025 -0.12309089 -0.5065459 0.116637416 0.194534 -0.22955668 -0.6218128 -0.26684013 0.11098884 0.43944335 -0.9821251 -0.73075926 -0.60694027 0.16185057 0.52561086 0.2749575 -0.029162958 -0.7217478 0.1550133 -0.23621124 -0.59176946 -0.11289676 0.24077909 -0.052765474
223 -1.0633756 -0.091152936 0.1913047 0.25460902 0.6100143 0.078926265 -0.26411602 -0.15446624 -0.43465558 -0.44710243 1.0646324 0.026117045 -0.10194403 1.3447264 -0.5337996 -0.11857624 0.5018011 -0.23040116 0.25674608 0.49636766 0.49442366 0.119475245 -0.12903465 0.20461011 -0.11050434 0.3418605 -0.49788168 -0.020927334 0.118675254 0.012633638 -1.3020368 0.17248665 -0.06733871 0.12330562 -1.0366925 0.30810955 0.291937 -0.0042454903 0.4618197 0.15244451 -0.050804697 0.44006127 0.14778909 -0.6673998 -0.20248285 0.36752617 0.34283012 -0.38253772 0.226959 0.53716123 -0.17002413 0.029816207 -0.61551374 -0.30855826 0.24893214 0.22664677 -0.17619924 -1.6110028 -0.808158 0.30716923 -0.17750655 0.79020333 -0.10893744 0.24341874
329 -1.1169856 -0.12572953 0.04578826 0.23285796 0.46955922 0.25829977 -0.43247345 0.028954364 -0.44565967 -0.5203935 0.7790036 0.034842018 -0.26815137 1.074669 -0.45300904 -0.05509958 0.61355823 -0.08153819 0.37020534 0.46451908 0.6621526 0.09864043 0.07199643 -0.09059688 0.019342605 0.37256873 -0.45314786 -0.03244528 0.15411909 -0.14137548 -1.0978425 0.26285198 -0.022419777 0.1148684 -0.93829334 0.5361663 0.18858588 0.11446881 0.41055405 0.25725725 -0.18307313 0.38238633 0.14933541 -0.49407038 0.07930183 0.3213449 0.38620803 -0.39104697 0.30022073 0.47363028 -0.24167284 -0.018696385 -0.58179504 -0.19126025 0.1647976 -0.082350746 -0.06630455 -1.6230271 -0.67703277 0.2548706 -0.1857115 0.58665776 -0.34383976 0.32772225
535 -0.62203115 0.30360976 0.6897558 -0.8581075 0.28430483 -0.20965262 0.5053315 0.06635069 -0.02017036 0.7065089 -0.35177612 0.44652018 -0.49816433 0.13707915 -0.2841609 0.07450397 -0.2482058 -0.32268766 -0.56933933 0.38716263 0.23585434 -0.13516022 -0.22485396 0.4534978 0.07544231 0.2744229 -0.11914409 -0.37414387 0.08770191 -0.037853025 -0.61026466 0.47704983 0.29219756 0.09339729 -0.2064346 -0.15707086 -0.22183433 -0.063534066 -0.22138965 0.032599404 0.03558751 -0.19582695 0.005689282 -0.2602211 -0.11997262 0.30284786 -0.2692905 0.1511058 0.23721987 -0.568551 0.15978478 -0.29080045 0.3130766 0.08140325 -0.056602105 -0.0061951624 0.027252443 -0.851656 0.32722133 0.19693695 0.022481024 0.060015053 -0.098980956 0.06667256
238 -0.13814677 0.44195133 0.49719557 -0.7385765 0.64400023 -0.23969053 -0.3055702 -0.070870474 -0.23856793 0.19234578 0.16222304 0.45616838 -0.24495687 0.24182436 0.10799543 0.036291976 -0.3186637 0.43319952 0.69231594 -0.09557787 0.8730103 -0.00067840033 -0.08813507 -0.14261726 -0.43950704 -0.1871052 -0.42556405 -0.35427848 0.01878336 0.5556611 -0.1857121 0.112260304 0.29507613 0.06911891 -0.3105035 -0.8284568 -0.28801504 -0.17486325 -0.35647509 0.01998776 -0.15482755 -0.47964275 -0.82015806 -0.29047406 -0.28084373 0.40432712 0.8189391 -0.403916 1.0581914 -0.5439123 -0.20982158 -0.14995003 -0.048093352 0.31943718 -0.20648395 -0.17288399 -0.4372479 -0.41342255 -0.0691381 0.017455291 0.16298465 -0.050310604 -0.23478787 -0.4299594
640 -0.20402539 0.35597283 0.47047234 -0.78104764 0.6899072 -0.16392733 -0.12580796 0.039238863 -0.023857962 0.18175434 0.19815108 0.16938438 -0.26737773 0.37711006 -0.10466506 -0.2432979 -0.11316222 0.3172829 0.77206296 -0.025341008 0.8789444 0.007080196 -0.0030637013 0.047667332 -0.11601758 -0.4740308 -0.59994763 -0.15111513 0.32662794 0.40405425 -0.044228565 0.14205861 0.067438506 -0.10005988 -0.1761137 -0.9053832 -0.27833533 -0.26245824 -0.38562152 -0.10854999 -0.23121285 -0.6398011 -0.80495197 0.05173688 -0.48231623 0.31780472 0.8635857 -0.64126873 1.1684184 -0.43104103 -0.49590158 -0.049663104 0.028253246 0.41371658 -0.2267108 -0.14870498 -0.42828962 -0.7177215 -0.019594079 0.20185588 0.45286107 0.30842808 -0.30255294 -0.41070473
287 -0.6223025 -0.27744946 0.06556528 -0.3097263 -0.2074576 0.3003064 0.43401125 0.36760682 -0.6722718 0.8068662 0.16748647 -0.15108454 -0.9033406 0.15558739 -0.09829857 -0.11815696 -0.7131626 -0.63705564 0.45759276 0.13700941 -0.31065282 -0.6640457 -0.4371241 0.293212 0.04618784 -0.14119771 0.0067449496 0.15682618 0.6682713 0.22134843 0.1778404 0.44469932 0.04646032 0.044396885 -1.0302402 0.3223693 -0.33095756 0.32058406 -0.30636024 0.27732366 -0.059174374 -0.6480939 0.65124124 -0.23685043 0.57140875 0.6088953 0.35560963 -0.3618639 -0.31955904 0.12832044 -0.75464827 0.3633056 -0.614652 0.8178592 -0.5742144 -0.12576008 -0.3446591 -0.8240933 -0.0044918754 0.22460607 -0.010376098 0.21536824 -0.7877286 -0.26812804
406 -0.617403 0.108775906 -0.12352162 -0.065183274 -0.21751882 0.42316455 0.07605167 0.12795976 -0.44025937 0.47573546 0.0727473 -0.11840274 -1.0457547 0.117481 0.046030823 0.053994358 -0.30172288 -0.7644915 0.29337496 0.051054627 0.30189577 -1.0739759 -0.35177106 0.0041911337 -0.17970768 -0.28567776 -0.00091250415 0.14608292 0.362886 0.41529682 0.31936768 0.12615576 0.32159 -0.06175782 -0.6317056 0.2525209 -0.29595068 0.6986839 -0.3505117 0.38346294 0.16641682 -0.106551364 0.82646316 -0.5054431 0.31028885 0.42122003 0.1641321 -0.22066763 -0.12135882 -0.3611338 -0.6923313 0.41009066 -0.6755046 0.28754887 -0.48240548 -0.007190264 -0.25603065 -0.6163406 -0.1342171 0.26007167 0.023515344 -0.22245842 -0.765834 -0.26609775
272 -0.7251093 -0.350413 0.52239496 0.13190775 0.24574779 -0.49038953 -0.07829187 0.044293042 -0.30684462 1.1439186 0.07508396 0.2646595 -0.41927662 0.07035338 0.33592713 -0.07605174 -0.06709716 0.29842255 -0.08458303 0.33226982 0.3993408 -0.074514866 -0.23447134 -0.09213204 0.58975506 0.027539808 0.26174137 0.14257169 0.22549595 0.30880812 -0.36502457 0.22030945 -0.28741854 0.034114648 -0.15234818 -0.31927583 -0.37388933 0.46277025 0.5010495 0.08448984 0.19580494 -0.10154632 0.32843474 0.32078674 0.8686972 0.23193824 -0.048364546 0.33154035 0.058332853 0.09361268 -0.123267315 0.8230558 -0.41235903 0.07769741 -0.16716735 -0.082314916 -0.09308819 -0.8969407 0.038137283 -0.034074496 0.24983947 -0.0582887 -0.38773483 -0.24875523
546 -0.6934292 0.23011923 0.6166527 -0.12398944 -0.039277993 -0.5255408 -0.01893573 -0.06678081 -0.3254569 0.48401925 0.5500207 0.03661308 -0.45928285 0.272196 0.32181337 0.11675178 -0.02945491 -0.60137767 -0.20667526 0.8282534 0.33056894 0.38814843 0.25959256 -0.35268393 0.21002121 -0.010426306 0.11782865 -0.15148544 0.36487296 0.5864698 -0.2201133 0.3046923 -0.29735428 0.28495866 -0.50153625 0.023830961 -0.3322789 0.64895856 0.45140457 0.464657 0.066578075 0.04787286 0.7448653 0.35569957 0.050328787 0.13929528 0.2962556 0.06765635 -0.42356637 0.2272157 -0.1176516 -0.053913053 -0.30459988 0.00048224014 0.43584305 0.24463849 -0.22586074 -0.41966683 -0.57783765 -0.4100273 0.058218624 0.12449034 -0.16410308 -0.43071043
270 -1.0831985 0.21663696 0.09637358 -0.5765394 0.89965487 -0.29058814 0.42503804 0.10296826 -0.22441582 0.24059017 1.0510149 0.50687736 -0.97986084 0.44768772 0.08486948 0.22930323 -0.32710832 -0.9374065 -0.24506137 0.092931986 0.41152966 0.05306246 -0.2999877 0.07492398 0.31136128 0.19402276 0.20828593 0.33453795 -0.3250392 0.42944553 0.33221215 0.4824721 -0.518828 0.2532031 -0.030986935 -0.052907493 0.3225668 0.30891797 -0.23887883 0.425484 0.25287077 -0.2691561 0.24735805 0.60804385 0.15246174 0.83613694 -0.2909851 0.32258973 -0.045177694 -0.33052158 -0.32024354 -0.28996137 -0.006734037 0.36067936 0.36076888 -0.30927813 -0.09423032 -0.17431521 0.16302149 -0.20398575 -0.24720758 0.2570558 0.029969517 -0.3149844
317 -1.1449889 0.3276405 0.17178735 -0.56073844 1.0719367 -0.18460089 0.4341071 0.16547696 -0.0780449 -0.104859024 0.9059841 0.5022677 -1.4093623 0.5414648 0.20067932 0.396289 -0.23034047 -1.1082659 0.07951879 0.134669 0.4435639 0.03339746 -0.4884747 0.16050945 -0.035655536 0.35625058 0.24415578 0.2929858 -0.37453085 0.13200308 0.13687205 0.36135107 -0.5675258 0.47344038 -0.109673105 0.0039275293 0.42602143 0.2353654 -0.020229783 0.23440078 0.1590679 -0.25960538 0.1697379 0.6108816 -0.20158863 0.9291603 -0.2413578 0.077263296 -0.22109376 -0.096733406 -0.14759828 -0.2275503 -0.1587949 0.30356255 0.4612057 -0.26598254 -0.013318136 -0.23269105 0.1525712 -0.0047551217 -0.53713095 0.41976 0.28259334 -0.20464253
19 -0.30764213 0.37974778 0.30165818 -0.77644926 1.0165598 0.18863572 0.26069534 -0.2156139 -0.7633623 -0.2625393 0.24769641 0.24181043 -0.23791806 0.5811071 0.1088112 0.3637851 -0.3247099 0.1992659 0.85750073 -0.44462278 0.6435293 0.081332445 -0.32912666 -0.19342157 -0.44262773 -0.016776178 -0.36298144 -0.08156449 0.42883635 0.33152407 -0.26624903 -0.009935026 0.54004645 0.611597 -0.20458336 -0.27045232 -0.3578106 0.12678301 -0.03438873 0.007482478 -0.2648984 -0.37759697 -0.55114585 -0.14029294 0.035338044 0.6000487 0.2938588 -0.66116506 0.52773243 -0.120472774 0.1617152 -0.3681807 -0.16027266 0.2145858 -0.23681018 0.0057467427 -0.5600906 0.02164337 0.14332336 0.401316 0.06485444 1.0146695 0.20252106 -0.049555074
155 -0.9003128 -0.453169 0.2830019 -0.24053177 0.27710655 -0.4058518 0.38526604 0.21252438 0.08834042 0.68145 -0.3931839 0.38382366 -0.36026424 -0.022897063 -0.012914833 -0.3097415 -0.16852468 -0.24792913 0.99839765 0.41472778 -0.2185573 -0.015926404 0.026290856 0.099854164 0.64726716 -0.4068967 -0.33444685 -0.044008024 0.56850666 0.003888166 -0.0062698354 0.758358 0.13215247 0.36557502 -0.031216552 -0.2634455 0.25534824 0.18862733 0.24957041 0.15895148 -0.04784845 -0.36410725 0.28782046 -0.04510108 0.80616015 0.19299954 -0.2887544 -0.04534597 -0.034059078 0.29670882 -0.39421564 0.36680862 -0.7544897 0.15886267 -0.16841839 0.2281837 -0.02338741 -0.7301297 0.17563862 -0.0969938 -0.02781471 -0.2135862 0.047187198 -0.21379443
605 -0.8491949 -0.45695773 0.40986377 -0.002178139 -0.060794417 -0.3857088 0.40659475 0.16284424 -0.5094458 0.5290917 -0.1749901 0.16887763 -0.28245333 0.023300942 0.009193253 0.00402195 -0.103336774 0.12763341 0.1536878 0.32755733 0.1449859 -0.08162621 -0.39678586 0.009980417 0.74414116 -0.3219898 -0.3750576 -0.27814895 0.530791 0.26469478 -0.53313255 0.47928664 -0.10920853 -0.18771923 0.12617554 -0.23923232 -0.27425978 0.19093357 0.04579841 -0.05517443 -0.30531904 0.12705025 0.57015777 0.5749107 0.74738526 0.3598867 -0.08034166 0.2836979 0.5518131 0.21287368 -0.36053714 0.6072921 -0.6018533 -0.057674065 -0.42524144 -0.21307212 -0.1613815 -0.76135075 0.031146972 -0.067805044 0.19930974 -0.037176266 0.05213291 -0.35546178
689 -0.6094321 0.3253473 -0.06483589 -0.32215485 -0.2610988 -0.1135506 -0.34063426 0.25571144 -0.14735255 -0.15517628 0.81043196 0.037156485 -0.4249389 0.40206856 0.21198814 -0.19627424 -0.39403254 0.2739653 0.15917784 0.2040948 0.03570738 -0.323675 -0.48193616 -0.2781267 0.020042174 0.21005219 0.4780677 -0.49437344 0.59893185 0.2083357 -0.5847852 0.3521517 0.6189426 -0.0058410424 -0.55533135 -0.49929523 -0.78008825 -0.47666085 0.13224515 0.4574148 -0.12034802 -0.71177477 -0.19944161 -0.20866956 -0.06346129 0.22917558 -0.62163997 -0.59632474 0.71916044 -0.058727287 -0.27744138 -0.07304781 0.26645064 -0.072563194 0.15647545 0.20061035 0.04152689 -0.5178496 -0.13254212 0.47949526 -0.75323707 -0.48947847 0.19821747 0.03536024
85 -0.5931506 0.35770527 0.2190915 0.21555677 0.30393645 0.28174394 0.14135294 -0.7192735 0.040916752 -0.053690296 -0.15740758 0.14294049 -1.050824 0.40413633 0.61085147 0.68805707 -0.30050737 0.0784233 0.05973251 0.37911698 0.28889138 -0.8577755 -0.26049656 -0.0071385796 -0.30064613 0.19701867 0.5632358 0.15296467 0.48868412 0.32724318 -0.46684918 -0.08542349 0.03375828 0.16438463 -0.51797265 0.12817577 -0.21712697 0.14200974 0.20935307 0.010571249 -0.21709432 -0.16833246 0.5315815 -1.0448979 -0.13317148 0.05744494 0.38646325 -0.30243033 -0.16951378 -0.18951228 -0.20236559 0.8664697 -0.7920457 -0.41011122 -0.23228632 -0.4512252 -0.4963875 -0.96557564 -0.10750045 0.14538196 -0.4029399 -0.047473572 -0.19659616 -0.16872454
658 -0.55866563 0.41396254 0.16887811 0.33701622 0.04476722 0.025694735 0.18357252 -0.6844444 0.05354287 -0.12547769 -0.1895334 0.09860737 -1.0140475 0.34204677 0.6455487 0.715301 -0.41437605 -0.20437136 0.19744934 0.3074032 0.35820672 -1.0103335 -0.27163276 -0.14831854 -0.37910414 0.4412199 0.48033234 0.21513695 0.35572562 0.5196648 -0.52259785 -0.06551218 0.10468124 0.14348201 -0.37924644 0.12065774 -0.2549444 0.19901168 -0.015261821 0.24566847 -0.36137158 -0.051442925 0.45853096 -0.7570263 -0.10962497 0.055227254 0.27108508 -0.28663296 -0.24213922 -0.18867458 -0.061138798 0.70448834 -0.82128644 -0.29219493 -0.3021511 -0.29490238 -0.5560482 -0.76774144 0.026465066 0.1554625 -0.2518149 0.076825716 -0.3297955 -0.29857168
428 -0.32603386 0.10764121 0.26804477 -0.6420391 0.19216925 -0.20020948 0.49679995 0.15393497 -0.38949308 -0.07687442 0.0703313 0.17184901 -0.55493736 0.47666028 -0.24386805 0.07618605 -0.2511473 0.2359799 0.35536876 0.039889615 0.46244475 0.20645173 -0.17974581 -0.26335302 -0.16567227 0.117910065 -0.45514923 0.31774876 0.5775362 0.25822175 -0.3018152 0.24787016 0.77983004 0.72124434 -0.15536642 -0.13403241 -1.0227387 -0.52620625 0.06850894 0.06889244 -0.30816153 -0.17986068 -0.58892316 -0.42075866 -0.03153785 0.5418916 0.33065018 -0.27195296 0.66877204 -0.2568474 0.108901024 0.16223186 0.05174495 0.17216001 -0.43335554 -0.16105248 -0.42110848 0.3923459 0.59527105 0.64530665 -0.6777817 1.1172642 0.140881 0.08032526
79 -0.5067282 0.2259046 0.2675262 -0.03277643 0.20439535 -0.5762205 0.3978151 0.16888745 -0.26187694 0.28567734 -0.42633054 0.08967147 -0.4570357 0.43573034 -0.25916862 0.36936885 -0.2566357 0.11260884 0.2587093 0.40652505 0.29123914 0.10139482 -0.22720683 -0.13132885 0.5847021 0.5742841 0.1895198 -0.09426387 0.5207571 0.37519446 -0.37005997 0.4408498 0.11690832 -0.05354582 0.056682855 -0.30607462 -0.15669057 -0.027149219 -0.46454898 0.20522776 0.014876769 -0.46472162 0.12970361 0.31981984 -0.035876084 0.1991041 -0.4279807 0.34076524 0.20521323 -0.64289296 0.024695426 -0.0039997767 0.5508088 -0.17896919 0.030022854 -0.0111782225 0.3065618 -1.0961607 -0.18748324 0.23659503 -0.08592638 -0.43167755 -0.053624462 0.19467327
408 -0.2615591 -0.07823531 0.31314445 -0.25618136 0.22627096 -0.1634701 0.32058036 0.053856146 -0.08180341 0.40115735 -0.2787847 0.47710162 -0.6566919 0.24144593 -0.11914481 0.1651931 0.13869087 0.11614157 -0.20526214 0.43499357 0.09437405 0.21726097 -0.5263639 -0.07510777 0.20442761 0.20542473 -0.12844837 -0.17708859 0.4341461 -0.041612852 -0.015304569 0.59792113 0.07163722 0.09843915 -0.2888706 -0.21064128 -0.37011057 -0.0921403 -0.08452282 0.09056182 -0.04306704 -0.26890397 0.32868958 0.46207112 0.62864536 0.08141773 -0.30795324 0.18609528 0.26364005 -0.67362094 -0.17771415 -0.51910555 0.012356732 -0.2276365 -0.033365242 -0.21464549 0.4295334 -0.8574254 0.3932625 -0.009968444 -0.22126262 0.056138307 -0.037240118 0.14706522
532 -0.41435754 0.3768384 0.08300281 -0.38577908 -0.4496384 -0.05966155 -0.13510825 0.3861259 -0.13339725 -0.26484898 0.45749155 0.28922752 -0.38175425 0.14543584 0.33443534 0.012796825 -0.25744608 0.31181848 0.36433366 0.39983404 0.42191774 -0.015627898 -0.21918146 -0.24606943 -0.069479026 0.23573378 0.36432055 -0.49225864 0.7210065 0.14979932 -0.518096 0.67441934 0.38346443 0.060862605 -0.47468868 -0.61309475 -0.66664374 -0.4531335 0.1201901 0.47574484 0.011786207 -0.42496398 0.024044488 -0.08948345 -0.09669538 0.35182777 -0.5380164 -0.8505731 0.96594906 -0.014269474 -0.2545983 0.08445923 0.38478923 -0.16465038 0.054752097 0.12253652 -0.06250632 -0.40642703 -0.06713799 0.29581967 -0.6226709 -0.30927953 0.38447058 0.118554786
352 -0.5877817 0.093743496 0.055304654 -0.6823619 0.021297941 0.09473243 0.53861696 -0.22406116 -0.13236713 0.8385734 0.021934295 0.8451505 -0.5363843 0.079228066 -0.17866525 -0.16430068 0.28737018 0.21488808 -0.2410737 0.36759666 -0.009373518 -0.04674033 -0.7198663 -0.0057372423 0.25467747 -0.098787054 -0.5514456 -0.04294404 0.37598708 0.09903474 -0.40190092 0.47765124 0.13820724 0.2693216 -0.09803476 -0.385492 -0.17512037 0.064451076 0.6218803 -0.06360386 -0.2816986 0.18209869 0.2973405 0.3807835 0.21100247 0.4398421 -0.22257282 0.28106296 0.3506276 -0.45154485 -0.21017261 -0.66966856 -0.22213624 0.05146165 0.042623427 -0.20100352 0.30063605 -0.13787673 0.30946267 -0.2801903 -0.00022282581 0.022696905 -0.22611633 0.1753133
712 -0.4925129 0.10345612 0.34666023 -0.43490857 0.73817515 -0.4057742 0.7385848 0.17284909 -0.18301275 0.7616561 -0.3307821 0.1493055 -0.5364421 0.10485166 -0.32170358 -0.1324089 -0.40239668 0.26570854 -0.39569858 -0.09338788 -0.06096376 -0.033929348 0.054052696 -0.022934563 0.32479018 0.090503894 0.037787374 -0.37996817 0.22696146 -0.057416014 -0.34180444 0.14137654 -0.19838682 0.39674723 -0.35596654 -0.07086932 -0.2517734 0.10218849 0.13863963 0.033988323 0.106038466 -0.12038118 -0.048569545 0.3973285 -0.19928221 0.19972569 -0.53860825 -0.13541111 0.36764452 -0.45474526 -0.11502566 -0.27209973 0.22627158 -0.15812565 -0.42535818 0.17493251 0.36916485 -0.8765936 0.26868448 0.30590862 -0.17837778 0.21885794 0.096275344 0.19966362
296 -1.3693748 -0.7776261 0.27679595 0.015451123 -0.07277589 0.09981477 0.67466533 0.31402922 -0.87341577 0.48823723 -0.6107035 0.46044394 -1.3974744 1.0463476 -0.2853607 0.41590583 0.1614199 0.8954678 0.591184 0.8421996 -0.15840696 -0.4067052 -0.7306259 -0.42605057 -0.025924314 0.18542102 -0.5469492 -0.12070957 1.4696263 0.4486385 -0.5239921 0.80365115 -0.33405095 0.35213313 0.0032576642 -0.120509535 -0.124259576 0.49133232 0.055771858 0.38775098 -0.31787243 0.3722668 -0.52388954 0.02559241 -0.12235064 0.35981557 -0.29998827 -0.35085112 -0.33660242 -0.09233962 -0.0017118407 -0.55812234 0.23817596 0.22468238 -0.07934954 -0.24799205 0.06651123 -0.5078166 -0.1358639 0.006734037 0.285762 0.36098883 -0.60804486 -0.10631965
115 -0.75515795 0.022124557 -0.19969386 -0.88432235 -0.23085624 -0.2924451 -0.15709296 -0.31056705 0.22897917 -0.051925432 0.6463398 0.43872023 -0.43706486 0.003159604 -0.6124541 -0.20473589 -0.6119495 0.36494908 0.4734235 -0.16541474 0.23724233 -0.29868338 -0.593692 0.23188506 0.3186647 0.62590784 0.14712943 -0.3611358 0.7198439 -0.17113343 0.07002072 0.1866992 0.060812064 0.3555024 -0.056308582 -0.65990806 -0.20841613 -0.25634813 -0.13505533 0.032881156 0.14067973 -0.50881803 0.39948553 -0.2319984 -0.30834603 0.24991693 -0.473721 -0.81239855 0.40781912 -0.122770615 -0.60916424 0.3141611 0.16863382 -0.3385914 0.230305 -0.1718103 -0.04614304 -0.029697692 -0.08081122 0.21612172 -0.25937063 -0.0680048 0.25606492 0.0505348
522 -0.67321545 0.1564664 -0.35303783 -0.695258 -0.41935202 -0.30015644 -0.3498936 0.0049901935 0.18808027 -0.19799352 0.7530315 0.3729528 -0.3771766 0.14480124 -0.3299615 -0.3980146 -0.57224184 0.29961085 0.37099472 -0.025740627 0.1874462 -0.31363687 -0.43653098 -0.06686913 0.08655581 0.5677619 0.15856814 -0.43147305 0.7283233 -0.23060888 -0.4485041 0.64051574 0.23799518 0.3602361 -0.32987761 -0.41526872 -0.36733827 -0.34098086 -0.15928166 0.34995183 -0.09642192 -0.19719808 0.22113167 -0.16231477 -0.23911582 0.35464725 -0.5576907 -0.6999485 0.67984134 -0.09774875 -0.48946273 0.21377765 0.3101621 -0.15104109 0.13879171 -0.09614729 -0.030528255 -0.20175213 -0.007297981 0.46668893 -0.28167802 -0.1013708 0.21241459 -0.059809595
246 -0.9625733 -0.36950132 0.45128867 -0.124259494 0.06842817 0.24279743 0.43056878 0.42035756 -0.8010736 0.49847084 -0.45128742 0.38285896 -0.7696683 0.29888287 0.08786887 0.4493887 0.25990972 0.4577501 0.030816384 0.61790156 -0.322156 -0.22968878 -0.49862897 -0.6519487 0.027828204 -0.30520532 -0.320397 -0.4294499 0.7620576 0.14774875 -0.2721255 0.5817923 -0.26510283 0.09147482 0.089210436 -0.034500934 -0.084051944 0.4558912 -0.27733803 0.547696 -0.0737038 0.05809176 -0.09273009 -0.0019761429 0.1749668 -0.15826426 -0.54114246 -0.37766704 -0.038335014 -0.5794482 -0.0051132045 -0.21274205 -0.0414932 0.12329949 0.1906682 -0.36611333 -0.09713601 -0.38790557 -0.18408985 -0.05693901 -0.101076625 -0.0116920555 -0.20375064 0.09481416
410 -0.65514326 -0.22178456 0.40985486 0.010920225 0.22967425 -0.10918877 0.40512824 0.20494176 -0.69029367 0.5529022 -0.54655325 0.4016898 -0.6064778 0.51232874 0.08426311 0.5873033 0.065370925 0.6807123 0.31118208 0.4883625 -0.072177805 -0.15182815 -0.39648142 -0.3297051 0.22577265 0.055270355 -0.38071054 -0.22559191 0.64057684 -0.03397579 -0.30584392 0.7708912 -0.21452133 -0.006199154 -0.016483348 -0.13233227 -0.13173169 0.20818387 -0.51793873 0.34400132 0.052615706 -0.5149162 0.13507988 0.1683511 -0.063423656 0.18416053 -0.63619584 -0.07941482 0.031173505 -0.49009433 -0.21354541 -0.30256784 0.72509086 0.028123911 0.0589718 -0.0018476651 0.4653009 -0.7996243 -0.32910687 -0.07716432 -0.21324949 -0.4715672 -0.15646063 0.20921521
589 -1.0005318 -0.2839045 0.5627346 0.20330891 -0.25386956 -0.45258772 0.12552215 0.42878884 0.07935213 0.4591898 0.3760143 -0.055314414 -0.16295567 0.24361928 -0.15350641 0.09969987 -0.0036860355 -0.4926978 0.58034325 0.32376438 -0.1456943 0.013964456 0.20383249 -0.16472858 0.4919271 -0.16387399 -0.30802852 0.07588498 0.1706874 0.71513855 -0.2638885 0.26887158 0.12515059 0.35846978 -0.60072803 -0.238694 -0.10763956 0.30665773 0.2876935 0.37234455 0.050480254 -0.123298615 -0.19669884 0.1690266 0.19204317 -0.11900847 -0.17795414 -0.5727725 -0.099853896 0.1513505 -0.59002125 0.038106784 -0.4187972 0.19999065 0.26569316 0.30081162 -0.14799833 -0.95164263 -0.0121550225 -0.041369174 -0.2456946 -0.20464137 0.05006546 0.059759352
284 -0.782691 -0.21880677 0.3464867 -0.88797 -0.22729236 -0.24332736 -0.043968532 -0.27340758 -0.07048025 -0.3424989 0.8560235 -0.03605655 -0.06373781 0.07036049 -0.39416808 0.14814594 -0.7371596 0.122920975 0.3977045 -0.1341586 0.6592761 -0.03042191 -0.7242264 0.17207026 -0.08788967 0.14131652 -0.1695148 -0.282644 0.6909774 0.043553084 -0.26510945 0.72390306 -0.0733963 0.34183773 0.30972794 -0.24778204 -0.34871942 -0.39416066 -0.2611063 -0.39174813 0.91163695 -0.12994523 0.034291733 0.033687003 -0.1193781 0.56892544 -0.15721668 -0.62581474 0.6165078 -0.19709477 0.3209754 -0.21124436 0.12027339 -0.033431455 -0.32930696 -0.5940077 -0.5556127 -0.18960093 0.5257623 0.6358829 -0.6215638 0.8462226 -0.233634 0.21408874
475 -0.6751116 -0.12891711 -0.29023114 -0.74433285 -0.16218358 -0.16339742 -0.24029793 -0.053597316 0.056619313 -0.3891756 1.029799 0.3072405 -0.43233377 -0.05521885 -0.41938046 -0.16647509 -0.75449926 0.463759 0.56468403 -0.0471997 0.09015347 -0.10887455 -0.7024935 0.24993344 -0.17401122 0.21874529 0.16444577 -0.49497557 0.6489319 0.03347972 -0.45669734 0.3210826 0.1707909 0.4268909 0.06682186 -0.38387328 -0.35403273 -0.4431578 -0.23086737 -0.011642292 0.33693126 -0.08673847 0.30973572 0.04425644 -0.05118631 0.3623375 -0.48024374 -0.73885775 0.6354009 -0.11454523 -0.14202219 0.09414723 0.41066495 0.023456234 0.12713015 -0.21525164 -0.23437996 -0.15912676 0.03391062 0.67301965 -0.5905728 -0.0038363796 0.069846235 0.08350077
48 0.0140551925 0.48321623 0.4192183 -0.6251709 0.92123026 -0.025901282 -0.39336377 0.1582947 -0.3334642 0.22714058 0.5231964 -0.14407036 -0.2092725 0.080217764 0.4273204 0.12858464 -0.02279622 0.6967327 0.50463676 0.3058187 0.44706443 -0.11919003 -0.44138587 -0.025945663 0.106515035 0.60458404 -0.8156779 0.20256454 0.442198 0.24471793 -0.33752856 0.073591135 -0.088279806 -0.28644097 -0.3876899 -0.73578113 -0.5877948 -0.17287675 -0.41661122 -0.065264545 0.10018658 -0.72178864 -0.21435496 -0.702286 0.06147207 0.7500555 0.51383567 -0.57076025 0.5022445 -0.8737546 0.28609845 -0.1353915 -0.1448413 -0.0757588 -0.30288061 -0.2856298 -0.7329619 -0.5447622 -0.5420615 0.4851424 0.19778535 0.52060896 -0.1754146 0.06579667
608 -0.019017873 0.6716021 0.32864717 -0.75306165 1.0646551 0.009543898 -0.5726065 0.11788728 -0.20792705 0.18946493 0.43388116 -0.0076433523 -0.3432596 0.21569562 0.51596975 0.05468075 -0.048631325 0.7321109 0.37954706 0.30531222 0.6049385 -0.28825787 -0.41370618 -0.15946172 0.20602348 0.5783899 -0.95140874 0.25402766 0.3282991 0.12674782 -0.45014438 0.20597623 0.044364065 -0.26329443 -0.25318584 -0.7195323 -0.482939 -0.26143137 -0.3178201 -0.13131168 0.21733999 -0.593515 -0.12235066 -0.6616203 0.25764033 0.791946 0.48360342 -0.64833856 0.5607898 -0.69031096 0.3320838 0.0041418388 -0.29580823 -0.07143529 -0.39994517 -0.19864458 -0.9925539 -0.6024769 -0.6349873 0.49672434 -0.015697269 0.55035496 -0.2179146 -0.082671955
497 -0.8888719 0.6296542 0.30001774 -0.52666324 0.94038385 -0.043578263 0.36878014 0.28311592 -0.42244846 -0.019164281 0.35799262 0.02072955 -0.1543512 1.0660113 0.12846127 0.18986663 -0.21254365 -0.23824324 0.50695723 -0.6531458 0.32543504 -0.10323259 -0.17017017 -0.198029 -0.3574663 0.15306917 -0.34285215 -0.27083758 0.08727691 0.11429285 -0.11226055 0.06598344 0.8880498 0.86868775 -0.17279705 -0.109564394 -0.086434826 0.38316324 -0.20012654 -0.3342817 0.037447672 -0.27287856 -0.28937036 -0.32208866 0.0037355693 0.64034426 0.43996257 -0.65364 0.7319634 -0.24733399 0.2051923 -0.073646955 -0.3469215 0.25751534 -0.29949445 -0.17203838 -0.699094 0.3339548 0.0717381 0.45319602 -0.16954896 0.6510723 0.095845394 -0.027508354
102 -0.9796093 -0.15546393 0.70784533 -0.14571564 -0.05807661 0.21342556 0.69408435 -0.042415146 -0.32314718 0.32374462 -0.06652853 0.08940847 -0.7611332 -0.058963627 -0.0064602075 0.21068181 0.03130056 0.37895605 -0.118278496 0.4426719 -0.27415845 0.10747284 -0.21627572 -0.25442085 0.43666694 0.04748794 -0.44981915 -0.53083163 0.6132819 0.10221344 -0.34410596 0.14560238 -0.0354611 -0.16551678 -0.062459614 -0.28695962 -0.21472321 0.24876712 0.10321859 -0.08209194 -0.11840302 -0.10107022 0.102105126 0.14147653 0.49710542 -0.079989366 -0.3984703 -0.042712472 0.40214136 -0.52707636 -0.084638394 -0.17699292 -0.3594794 -0.2123945 -0.04257281 -0.25721583 0.260279 -0.2097357 -0.00431534 -0.2979018 0.11693442 0.06797513 -0.10189887 -0.27175587
591 -0.8122901 -0.30868796 0.69861674 -0.25520954 0.1562678 0.29098094 0.53175986 0.13021511 -0.5249549 0.47451606 -0.38575515 0.34288377 -0.66540414 0.21743746 -0.016764916 0.48551503 0.0032131139 0.57374334 -0.01962903 0.45599785 -0.5546221 -0.033483133 -0.53082687 -0.3131044 0.5051943 0.016136315 -0.36143443 -0.38040558 0.65621 0.21063036 -0.41917062 0.43338832 -0.088571705 0.1165225 0.0634122 -0.036098775 -0.16563508 0.36752868 0.046525985 0.120159626 -0.034743603 0.14414209 -0.14037564 0.06290778 0.36476064 -0.062795885 -0.39666945 -0.2365956 0.061386153 -0.57486606 -0.3194557 -0.17605194 -0.3540413 -0.028893318 0.090680525 -0.10186734 0.17668329 -0.31446478 -0.29314104 -0.38129407 0.10775895 0.12424123 -0.22486202 -0.054734997
731 -0.95126104 0.051957525 0.22162013 0.067172006 0.4455432 0.12489311 -0.0019829418 -0.31165525 -0.50757086 0.115544714 0.38695344 -0.75174356 -0.20353022 0.6405786 -0.14913917 0.13142371 0.5005657 -0.3667692 0.20506917 -0.24886362 0.36375794 0.42546257 -0.086173005 0.016824732 0.24106511 0.458565 -0.070893995 -0.071953595 0.11149389 0.26544216 -0.52027935 0.30768302 0.18708102 0.41982707 -0.19573008 -0.22194964 0.21756263 -0.010438506 0.018651657 0.53111655 -0.4203912 0.33488297 -0.31248823 -0.1568804 0.41025594 0.10558614 0.10386153 -0.3175461 0.09721113 0.1945999 -0.23697816 0.4621318 -0.65895385 -0.24220996 -0.031715296 0.42267063 -0.46111247 -0.70386076 -0.5098802 -0.0010797681 -0.5819343 0.028556138 0.07776252 -0.023656886
32 -0.48499164 -0.1903481 -0.04165008 -0.73185295 0.3270619 -0.7744676 -0.04475483 -0.251947 0.09194035 0.1216601 0.44371957 0.30967498 0.08163135 0.09928265 -0.25811267 0.28855827 -0.65516955 0.5760511 0.3064022 0.16972014 0.20378654 -0.08668769 -0.5678891 -0.34209508 -0.3304676 0.43195733 -0.0682548 -0.19147435 0.20658262 0.136451 -0.23070581 0.39772463 -0.011207209 -0.30628636 -0.04837362 -0.12899406 0.031299554 0.21742481 0.37487787 0.15001224 -0.1572098 -0.39690107 0.275105 -0.31819582 -0.04131597 0.48449916 -0.11715076 -0.39732188 0.6542092 -0.3376349 -0.58237207 0.33888888 -0.036178466 -0.703829 -0.50370735 -0.50465953 0.3557752 -0.14608115 -0.015169453 0.53879863 -0.3258666 0.4721979 0.057263087 -0.13730183
241 0.13623735 0.53674984 0.5536815 -0.78046155 0.36443964 0.020823859 0.22372125 -0.063965164 -0.30924517 0.027874608 0.44045547 0.24586862 0.05884472 0.75531435 0.25370365 0.07355891 -0.05486121 0.4523209 0.41903806 0.20456281 0.5171121 0.00091820396 -0.5217653 -0.35930622 -0.31572983 0.6131005 -0.3657505 -0.16141912 0.08353626 -0.021600414 -0.30301422 0.34829178 0.11563281 0.3330491 0.05009048 -0.40357953 -0.28520852 -0.022117818 -0.061398733 -0.024105657 -0.39719835 -0.5444013 -0.38032657 -0.12795565 0.035132628 0.36484686 0.3290889 -0.33271632 0.2930508 -0.44540584 -0.027843585 0.043401156 -0.19442147 0.13466665 -0.57610154 -0.015873795 -0.25413665 -0.23463534 -0.35355815 0.5374025 -0.15464438 0.10288025 0.055143405 -0.33713967
719 0.14662984 0.59662706 0.60711575 -0.6295979 0.70369136 0.0022482204 -0.26212597 -0.012345023 -0.5047459 0.22730531 0.3681899 -0.09679584 -0.19654793 0.19488704 0.47918236 -0.055797752 0.09259423 0.6654589 0.41003612 0.5060716 0.4593759 -0.09399465 -0.54987574 -0.10215827 -0.18530808 0.8368691 -0.7125497 0.04359678 0.3371858 0.095648356 -0.14995344 0.1409267 0.2056801 0.06190967 -0.4204402 -0.5865876 -0.13211559 -0.22895208 -0.24773514 0.21480702 0.18096696 -0.7630342 -0.39382833 -0.72344404 -0.19120355 0.5375401 0.54886246 -0.32998064 0.32230604 -0.7208882 0.3877703 0.09769351 -0.17406522 0.05840779 -0.32999685 -0.3347909 -0.65233576 -0.44347444 -0.45671692 0.37133566 -0.08934039 0.3552584 -0.14510325 0.04222715
192 -0.35111293 0.21966954 -0.12674946 -0.24982698 0.5613614 -0.2663187 -0.5690934 -0.035268884 -0.3636811 -0.23162597 0.39180934 0.7428569 -0.15104194 0.15772548 -0.07773861 0.08731823 -0.32016748 0.69802576 0.028277973 0.24862964 0.011564919 0.13558035 -0.4525053 -0.23862219 0.18173957 0.26853278 0.05103469 -0.5879966 0.49406552 0.18423323 -0.41928276 0.105109856 0.42086905 0.10616169 -0.25359178 -0.6159879 -0.22796299 -0.07984127 -0.017967338 0.12045327 0.1937367 -0.7693007 -0.09771878 -0.31565017 -0.3579947 0.86719584 0.21688738 -0.4239285 0.38315827 -0.49229443 -0.96245396 0.2814727 0.089899614 -0.54882294 -0.37011796 -0.26027814 0.14155635 -0.24212207 -0.05282663 0.049701083 -0.16790801 0.18311521 -0.025044514 -0.34038436
539 -0.12802336 0.11319194 0.3565835 -0.53666097 0.6861889 0.1393057 -0.14367253 -0.008310534 -0.16549927 -0.053439654 0.47897187 0.3716229 0.10466671 0.21042104 -0.042253993 0.1712392 -0.081928894 0.44559503 0.40661126 0.13121639 0.3895463 -0.0046864576 -0.16202044 -0.11975372 -0.16761154 0.050785583 -0.24106467 -0.17762889 0.40525585 0.23052557 -0.15033147 0.06955814 0.050226327 0.10305481 -0.22809894 -0.7123706 -0.37047184 -0.16883123 -0.07055176 -0.121726744 0.3485301 -0.72865015 -0.41567668 -0.5336233 0.00041964487 0.77795726 0.34993148 -0.3957655 0.7553395 -1.1069143 -0.21313925 -0.40849906 -0.18569691 -0.078951724 -0.6634259 -0.22687732 -0.52159256 -0.3288339 -0.24620262 0.08122078 0.022288451 0.28176075 0.05608933 -0.11065486
180 -1.8278733 0.46279857 1.0118836 -0.7766326 0.53710645 -0.34840742 0.40624142 -0.24287938 -0.5980909 0.33785987 0.66894096 0.69273037 -1.2745928 1.127984 -0.10763093 -0.0026354762 -0.4130226 -0.11363216 0.5168771 0.57848406 0.54673237 -0.17263445 -0.91127074 -0.014060832 0.18603331 0.23385713 -0.43593413 -0.30181104 0.7098916 0.6476105 -0.5388125 0.8167339 0.19959696 0.50460637 -1.0706793 -0.64475155 -0.4642982 0.15174706 0.03701182 0.5576153 0.15262529 -0.4043902 0.05702127 -0.37303644 0.37409288 0.687979 -0.050596733 -0.6033121 0.73208183 -0.4266798 -0.5733503 -0.013903501 -0.3365038 0.12186412 -0.32702738 -0.1561567 -0.5098749 -1.3782928 -0.10085824 0.28512117 -0.4937925 0.47087926 -0.336344 -0.14601061
324 -1.8175064 0.47581157 1.0121471 -0.77875876 0.53765005 -0.35382912 0.3984597 -0.23723717 -0.60441935 0.32906395 0.66256225 0.69674075 -1.2871041 1.125628 -0.11118302 -0.0057651037 -0.41006458 -0.11505504 0.51302004 0.5759175 0.54022914 -0.17165749 -0.90369534 -0.0068755304 0.18869121 0.22749591 -0.42944506 -0.30359593 0.7223033 0.6430597 -0.5240848 0.81363946 0.20419677 0.511045 -1.0662196 -0.6566067 -0.45894054 0.16293448 0.025549488 0.5559095 0.15301159 -0.40513408 0.054172315 -0.3784187 0.37432668 0.68145525 -0.0515829 -0.60789675 0.7369463 -0.44021857 -0.5761299 0.0024247754 -0.3315132 0.110525906 -0.32884088 -0.15311795 -0.5038437 -1.3778921 -0.09137976 0.28017917 -0.4920856 0.46704644 -0.3328753 -0.15034144
31 -0.61912245 0.018003814 0.08886188 -0.6274809 -0.7594768 0.083120294 0.35601032 0.28400072 -0.61576605 0.459628 -0.0100574335 -0.12962374 -0.5604625 0.023711642 0.02586585 -0.18074669 -0.48144954 -0.71310395 0.34813333 -0.019178232 -0.18258974 -0.5627767 -0.5777848 0.34574515 0.08532172 -0.086804606 0.07317103 0.025685953 0.67807996 0.2934801 0.12317251 0.20970036 -0.26101196 0.2196292 -1.0714105 0.11621749 -0.28921413 0.28503698 0.045532398 0.18691397 0.07768735 -0.80164194 0.50171244 -0.17199892 0.6194652 0.5096162 0.55962676 0.0060036913 -0.21560213 -0.10206784 -0.6573186 0.03261992 -0.23630978 0.7292587 -0.82371503 -0.14295486 -0.2673483 -1.0738885 -0.24365136 -0.0960436 -0.13920845 0.35256404 -0.7322787 -0.3316931
626 -0.82067233 0.08093035 0.4867681 -0.43653885 -0.92518336 -0.27103037 0.17078929 -0.4704637 -0.4493684 -0.101411484 -0.16653785 0.3375186 -0.6331679 -0.07423559 -0.15004663 -0.5137219 -0.2633085 -0.74793005 0.6466753 -0.15549347 -0.3714453 -0.41892815 -0.40816256 -0.15794975 0.5177659 0.14446296 -0.03002804 -0.28821167 0.66644764 0.07137817 0.18024321 0.18460254 -0.2329395 -0.20347892 -0.93712395 0.14154524 -0.7247486 -0.2194851 -0.030525398 -0.101120576 -0.14744096 -1.0335121 0.16673918 -0.57830554 0.56450903 0.17335996 0.4431327 0.4146733 -0.22476374 -0.24542336 -0.14103949 -0.14718235 -0.008857088 0.6451887 -0.42035478 -0.017675728 -0.24006861 -0.9446825 0.04796041 0.051831856 -0.47753412 0.10639331 -0.2427325 -0.46591684
86 -0.8321932 0.09153372 0.10084509 -0.41891783 0.19438575 -0.4782309 0.17463249 -0.48049915 0.07599459 0.3237701 0.38531202 0.57274914 -0.4110307 0.019202232 -0.039821606 0.08928867 -0.05472631 -0.23365556 -0.11022954 -0.0016952521 0.041096706 0.06473337 0.023461957 0.2691878 -0.011316088 -0.008688832 -0.35835925 0.054361176 0.45632264 0.22115734 -0.0056953747 0.89734066 -0.12710564 0.14166662 0.011280692 -0.28790766 0.14034098 -0.058068033 -0.012389527 0.44444722 -0.018025108 -0.1182073 0.2919973 0.45435458 0.25260586 0.16494219 -0.4235121 0.055193 0.11731836 -0.47974646 -0.05755578 -0.11502632 -0.22514273 0.07063332 -0.06956706 -0.20165434 0.5677586 -0.3988148 0.3276417 0.09321294 0.25951788 0.3218976 -0.12738736 -0.054630168
398 -0.73999715 0.0390756 -0.022882657 -0.6034869 0.23934938 -0.31221122 0.40546262 -0.5363722 0.076945215 0.36934945 0.3099859 0.52748376 -0.5336641 -0.12447334 -0.1723554 0.062095564 -0.061190944 -0.5214791 0.04302356 -0.04896118 0.046245206 -0.020983145 -0.26710865 0.21745285 -0.012142843 -0.20319952 -0.058094785 -0.017951325 0.38990608 0.19935498 0.056611337 0.8918511 -0.02277459 0.19750662 -0.04595226 -0.42454374 -0.014813381 0.12877743 0.044300877 0.6530773 0.15332942 -0.21472879 0.3718991 0.45528606 0.15792355 0.07674265 -0.36465573 0.17053927 0.15941095 -0.48492476 -0.05216961 0.08151012 -0.20399925 -0.24734315 0.12102146 -0.4545102 0.46016562 -0.52521956 0.39140287 0.3564089 0.19593784 0.4366553 -0.14447665 -0.09465645
135 -0.31595773 0.4719984 0.66497725 0.06717988 -0.07312251 -0.24933796 0.453764 0.23415242 -1.0117023 0.5325669 -0.019786987 0.48756534 -0.7898654 0.6086415 -0.12171835 0.5768349 -0.10260938 -0.6037925 -0.31847158 0.46839428 0.3489733 0.0338887 -0.394798 0.024239808 -0.41742477 -0.10965356 0.28733504 0.07367163 0.80160517 0.16816993 -0.6035301 0.41668662 -0.41084108 -0.33952716 -0.709349 -0.3537815 -0.014004171 0.30414835 -0.24724397 0.14828898 0.0026414287 -0.18360227 0.45334843 -0.35185373 0.51137424 0.24038328 -0.32110718 0.818696 0.22724035 -0.21977466 -0.63522977 0.53799284 0.25013766 0.0047087977 -0.07586463 0.13728583 -0.48278937 -0.24679181 -0.12626965 0.111590065 0.14435042 0.07727505 -0.3154393 0.40357652
540 -0.5023486 0.03381587 0.3095384 -0.35331845 -0.111156516 -0.31100515 0.4138594 0.1391744 -0.7202373 0.18284379 -0.13436535 0.35051668 -0.33746868 -0.20837305 0.08781858 -0.10278499 -0.18653867 -0.4254874 -0.30571246 -0.028889839 0.7800821 -0.36357537 -0.21961443 -0.2201 -0.0033713405 -0.17888765 0.16546935 0.06920475 0.68422997 0.7001183 0.15342747 0.17138286 0.13915716 -0.21573272 -0.45263243 -0.41375402 -0.23442441 0.7133475 -0.2708599 0.70576763 -0.015717786 0.24075449 1.1000763 0.3414336 0.22367512 0.6990139 -0.22948684 0.28553954 0.4534702 0.41310608 -0.66148335 0.059431486 -0.43264017 -0.1168284 -0.16654626 -0.036077287 -0.64165103 -0.36770225 -0.33486107 0.22929855 0.29929954 -0.39486942 -0.44875452 0.2827462
742 -0.4895117 0.29184476 -0.2326684 -0.10499087 -0.32154056 -0.10404547 -0.22334605 0.18876658 -0.25732467 -0.22774471 0.7929855 0.22500901 -0.6334595 0.36045003 0.09881251 -0.21729614 -0.12626526 0.46887317 0.34703445 0.4453041 0.23528667 -0.19950074 -0.36147952 0.050267804 0.047449175 0.36212102 0.36379147 -0.4387299 0.46857342 0.17046076 -0.6209316 0.5187796 0.7804143 0.039840102 -0.4437268 -0.3295963 -0.8045283 -0.15478691 0.14608645 0.34712806 0.025463995 -0.51333493 -0.18970926 -0.15056288 -0.064628735 0.20273443 -0.59009653 -0.66629815 0.79770696 0.0277619 -0.20059441 -0.29538092 0.20438433 -0.22103077 0.23171146 0.119532466 0.00096345355 -0.5547653 -0.17620772 0.21614215 -0.69231653 -0.46898395 0.05594895 0.25989094
20 0.03696735 0.077684276 0.6665615 -0.9133107 1.0703723 0.20733047 0.18350103 0.1158307 -0.16359936 -0.015527328 0.6701786 0.38333407 0.51005983 0.67182595 -0.0075485483 0.40420538 -0.68058014 0.47890133 0.28913903 -0.06799612 0.22708803 0.26434034 -0.48581868 0.24038243 -0.22967282 0.078799605 -0.61807054 -0.05569228 0.47941482 0.20277943 -0.40501133 0.2047381 0.08971749 0.15175702 -0.51192355 -0.6548349 -0.42010456 0.018123662 -0.49010447 0.03451576 0.10734326 -0.33143517 -0.3853913 -0.41649976 0.121761166 0.99258727 -0.063113056 -0.44133127 0.58215135 -0.6132768 0.040252376 -0.15857007 0.23506461 -0.12191002 -0.3253202 -0.1791254 -0.31805566 -0.0035095245 -0.05459236 0.05999213 0.11065624 0.086226314 -0.40846387 -0.52570504
787 -0.10651188 -0.0003877285 0.54782647 -0.87765026 0.9385844 0.116400234 0.5165249 0.022294166 -0.2678326 -0.1551046 0.5097446 0.33941096 0.56360847 0.97741973 0.058019497 0.091135785 -0.53562266 0.551668 0.49835134 -0.014512225 0.5556518 0.2725307 -0.6228027 0.2386158 -0.18139784 -0.06086368 -0.33945847 0.16286284 0.5329317 0.19722795 -0.268052 -0.051667977 0.054825738 0.6323784 -0.22550362 -0.5122431 -0.74134046 0.3094868 -0.3357856 0.22375219 0.012304911 -0.40415168 -0.39844337 -0.1234683 0.15841578 0.69961625 0.40942836 -0.54127574 0.32774547 -0.62187856 0.008255289 -0.14388576 0.06812902 0.121527 -0.1662675 0.07868415 -0.4074705 0.0016878346 -0.047573444 0.36571416 -0.22738428 0.61102295 -0.44101894 -0.14190935
210 -1.0759846 0.68194276 0.46498153 -0.3224324 0.79582435 -0.5762372 0.17016383 0.214937 -0.26134646 0.16345319 0.29102945 0.31111938 -0.75936896 0.60958016 -0.3845972 0.026981317 -0.1706523 -0.33346885 -0.73773724 0.29920638 -0.089739375 -0.02717056 -0.46514618 0.31323 0.318313 -0.18602905 -0.0088846125 -0.09786914 -0.00044097265 0.50158125 -0.07003709 -0.13359359 -0.21874043 0.30263817 -0.07495834 -0.30496305 0.33463958 0.16732219 -0.19135182 -0.21756487 0.029438617 -0.2934158 0.2787967 -0.3907505 0.6693741 0.12545449 -0.39088708 0.36189896 0.4122269 -0.84533864 -0.5654464 -0.26382345 0.71957123 0.2342858 0.0324777 0.09460653 0.032877043 -0.2106967 -0.082468905 -0.32409176 -0.36065796 0.09278168 0.27982217 0.382619
525 -0.7750442 0.33150032 0.11948242 -0.478864 0.7435248 -0.2600596 0.1900312 0.023586132 -0.057717208 0.4308279 0.7781855 0.62159973 -0.96413136 0.542233 -0.1394415 0.18104996 -0.2830465 -0.6461782 -0.44933668 0.36024913 0.22277711 0.1083123 -0.13228758 0.25597626 0.511223 -0.050624795 -0.1338877 0.3025947 -0.25084272 0.5975249 0.20019022 0.35479274 -0.22202194 0.059032515 -0.09447659 -0.19692506 0.42985472 0.24604875 -0.32306203 0.4899539 0.059481993 -0.21663427 0.42202428 0.3406686 0.2810021 0.58681345 -0.18879217 0.37271965 0.12565508 -0.4381685 -0.37767938 -0.36313692 0.27571103 0.15345387 0.012178592 -0.46757114 -0.010475119 -0.007114035 0.13539304 -0.2734805 -0.055993803 0.24388467 0.2998625 -0.44468775
212 -0.12757574 0.324336 0.26744294 -0.1915014 0.4733566 -0.4917564 0.34341773 -0.36998886 -0.041947685 0.2880412 -0.06014059 0.5773294 -0.34938955 0.63704973 0.43962032 0.23334523 -0.23067263 0.7440952 0.3236687 0.048243813 0.8168024 0.10535399 -0.5309272 0.12660168 -0.78578764 0.41672504 -0.066268176 -0.40620178 0.5941157 0.2173881 0.14128521 0.24092114 0.10825056 0.31421113 0.096653126 -0.42817515 -0.14659165 -0.3348378 -0.18583581 -0.12629715 -0.3445709 -0.5702201 -0.08320887 -0.08316581 -0.11093421 0.5182718 0.57901114 -0.64887285 0.45803618 -0.35840216 0.017621128 0.09003769 0.08575672 0.0022570966 -0.016605277 -0.19308904 -0.13146979 -0.46193174 -0.4844937 0.5412895 -0.027075564 -0.28917137 0.327684 -0.11446472
542 -0.10538757 0.5003532 0.5552723 -0.06518164 0.36800462 0.059695583 0.27974266 -0.36157846 -0.5412342 0.10411094 0.13657905 0.4290064 -0.18498936 0.1680322 -0.00086651416 0.025564635 0.040736184 0.5625033 0.5464578 -0.036268547 0.7258399 0.11382302 -0.5449662 -0.22482038 -0.80756223 -0.043731306 -0.089686535 -0.22039075 0.42993557 0.13469361 0.19064254 0.38820514 0.34611648 0.33293816 -0.10360952 -0.615744 -0.16621274 -0.2506064 -0.25485992 -0.17773952 -0.22457671 -0.12887804 -0.44162962 -0.31246743 -0.12934002 0.45322254 0.76217395 -0.7991829 0.9218845 -0.29251537 -0.04374516 0.09438118 0.15330315 0.5559259 -0.061883487 -0.07958568 -0.1429408 -0.3609665 -0.008050464 0.37876132 -0.08484625 0.10920088 0.041893937 -0.33614537
653 -0.89472705 -0.10962413 0.1498751 0.33300987 0.26431814 -0.032985214 -0.11896846 -0.25795823 0.19878738 -0.09927752 0.45779556 -0.026540758 -0.5186897 0.5871798 0.15223835 0.02536982 -0.03455907 -0.14682561 0.13789923 0.37711376 -0.16488859 -0.087649524 -0.35331786 -0.03169666 -0.43795422 0.51619506 0.055662792 0.066754766 0.092191845 0.31451905 0.16220908 -0.024204044 -0.20945586 0.30080104 -0.41162363 -0.35582465 -0.39149895 0.4309234 0.31713495 0.4801722 -0.092769675 0.27438545 -0.23257601 -0.23970544 -0.017386409 0.18600641 0.13510342 -0.6005441 0.08634373 -0.04777552 -0.2372988 0.46694672 -0.30471537 -0.18485418 0.0019165515 -0.12389755 -0.3283534 -0.776115 -0.06401421 0.13393812 -0.3159859 -0.10746599 0.4754379 0.06267028
404 -0.6540858 0.17591263 1.0782276 0.42646354 -0.130885 -0.5204266 -0.07894452 0.28413787 -0.051893402 0.65323865 0.9208028 0.24312772 -0.280711 0.58567077 -0.26998174 -0.08361664 -0.42832878 -0.38697988 0.049757473 0.2761996 -0.09306021 -0.085437156 0.3327267 0.12453783 0.56229466 -0.27879316 -0.2816885 -0.3751984 0.03813183 0.6271144 -0.5418989 0.08861256 -0.049961146 0.50270724 -0.45138872 -0.16841705 -0.3982233 0.6440603 0.58178556 0.77936494 0.2955262 0.24246502 -0.35870028 0.21348152 0.10104422 -0.085410066 -0.2971093 -0.43403596 0.10340371 0.18741897 -0.41355294 -0.20649265 -0.23933421 0.36879635 0.09862892 0.3656789 -0.22934571 -1.015188 -0.61765265 -0.07618229 -0.4936119 0.23689331 -0.03163592 -0.1148786
