1039 64
322 0.16353096 0.7671403 -0.15955281 0.781944 -0.10674495 -0.19135949 0.32681113 -0.30359557 -0.61698884 -0.17489143 0.30927375 -0.32696113 0.32088444 -0.3957579 0.008479532 0.3147512 -0.09618967 0.5268964 0.19656458 -0.5824994 -0.22858956 -0.06110748 -0.3665356 0.70448744 -0.056024726 0.08595642 -0.33313057 0.3633116 -0.5755036 -0.037649598 0.07727827 -0.15149054 0.20147212 0.05854125 -0.79096437 -0.043923598 -0.46814084 -0.4030516 0.5725677 -0.059125144 -0.31650475 -0.27274942 -0.43555906 0.5093778 0.20779075 -0.23516448 0.45499223 -0.0598529 -0.2522898 -0.43280223 -0.25096625 0.25486282 -0.2693742 0.3082391 0.2788906 0.185034 -0.17420226 -0.32559875 -0.0357124 -0.54598284 -1.0334452 0.024981873 -0.27103147 -0.04182586
860 -0.015045604 0.8938952 -0.17399956 0.617521 -0.24453032 -0.23159963 0.4640151 -0.28027055 -0.75385004 -0.37581548 0.22535683 -0.0021003005 0.50088537 -0.39786777 0.19734603 0.2615466 -0.06948653 0.54756755 0.021090392 -0.6454634 -0.21947172 0.04014887 -0.30154595 0.47076744 0.23967081 -0.02587114 -0.4975768 0.5551217 -0.6879666 -0.078358844 -0.1832087 -0.06929996 0.2113214 0.008140466 -0.7673584 -0.012320588 -0.5746677 -0.45011768 0.7859508 0.09816634 -0.3052123 -0.09986041 -0.2692239 0.89876306 0.1640881 -0.039589748 0.51055855 0.05085438 -0.4174528 -0.29536197 -0.078193694 0.086564675 -0.19833763 0.2912652 0.024313562 0.03134614 -0.22124645 -0.08809041 0.1188442 -0.6730013 -0.8537112 0.16926262 -0.3375225 0.14493552
359 -0.069074355 0.6627427 0.01431549 0.40111324 -0.29269314 -0.3547037 0.56498706 -0.37437797 -0.16226408 -0.5099913 -0.5093939 -0.19040398 0.52271754 0.06483561 0.13704519 0.478497 -0.060309827 0.35662493 0.0034708802 -0.24729589 0.053664625 -0.15695664 -0.010815082 0.22076528 0.064601995 0.06142188 -0.20350033 0.17223388 -0.9378045 -0.08439771 0.12408529 -0.24125965 -0.021550326 -0.46710324 -0.74174696 0.042210843 -0.09313941 -0.14475091 0.35709572 0.031669248 -0.051245607 -0.931621 -0.20428507 0.0030884992 0.09914837 -0.4137614 0.54342425 -0.16623546 -0.07639018 -0.047349293 0.041313175 0.058898713 0.21122287 0.14314294 -0.0850982 0.26495373 -0.24373715 -0.067621 0.5176735 -0.22498645 -0.383684 -0.063720025 -0.24427944 -0.33639282
752 -0.038269963 0.7476414 -0.31521213 0.56368035 -0.21217851 -0.35232067 0.75292695 -0.1043354 -0.077895 -0.44472197 -0.045388285 -0.51280856 0.29653227 -0.43641174 0.060833763 0.1574479 -0.16847456 0.2232356 -0.051864017 -0.3520701 -0.21578367 -0.1632653 -0.24348046 0.4075792 -0.02652873 -0.22688182 -0.47633576 0.27241337 -0.85491824 0.2177865 0.048602987 -0.1668931 0.29360148 -0.09660227 -0.8082043 -0.13194166 -0.36624682 -0.103341736 0.36427012 0.07458856 0.10125181 -0.7381378 -0.339021 0.4147409 -0.013424547 -0.57104594 0.31216237 -0.26515618 -0.24732411 -0.28492582 -0.06435807 0.16932066 0.065349534 0.17477778 -0.03367186 0.26140302 -0.4058863 0.0048335395 0.43227687 -0.33130363 -0.52635694 0.16723421 -0.08807558 0.22479631
345 -0.5334366 0.86117387 -0.46851915 0.78372616 0.011481681 -0.9421001 -0.02252295 -0.04085884 -0.24480283 0.21614629 -0.21209109 -0.42456996 0.5967629 -0.98725843 -0.5747885 -0.32851052 0.21621765 0.39239234 -2.4345922e-05 -0.40281615 -0.25746444 0.41690302 -0.16793098 -0.36689863 0.15696704 -0.28478226 -0.21049172 0.14801611 -0.5933856 -0.10927628 -0.36551404 0.1448673 -0.23228997 -0.54978776 0.09321725 0.55187356 0.164771 0.36124286 0.7005087 0.111947216 -0.07420627 -0.277132 -0.4838806 0.0091197975 0.44191462 -0.10213278 -0.28308994 -0.46301535 0.50847167 0.11445871 0.5655975 0.25091815 -0.55239624 0.028878799 -0.92450005 -0.072667174 -0.22356942 -0.6711271 0.9398636 -0.3048112 -0.22762099 0.12217436 0.54751617 -0.462919
1069 -0.6167145 0.8024725 -0.25869715 0.7997387 -0.14758654 -0.8957519 0.33726886 -0.2545625 -0.28589758 0.08563315 -0.17852014 -0.518134 0.64963233 -0.8111177 -0.72529 -0.40573993 0.3785398 0.48331046 0.14155127 -0.39236808 -0.1446482 0.46592274 0.076149225 -0.41728288 0.14937416 -0.43751553 -0.28201416 0.34151587 -0.39396667 -0.26031563 -0.3680886 0.24693465 -0.28080934 -0.55257887 0.075830854 0.45731825 0.23983918 0.17722511 0.55456454 0.13315068 0.04221122 -0.26214248 -0.37713498 -0.16262202 0.6777485 -0.2162326 -0.31605372 -0.7032256 0.41143897 0.079255685 0.3030383 0.16937934 -0.27429458 0.19799812 -0.9211742 -0.14083198 -0.27027762 -0.6693111 0.80855346 -0.37591457 -0.19732548 0.16278704 0.8153967 -0.33397746
1 -0.11385708 0.18704823 -0.6946174 0.44443962 -0.17261182 -0.49076208 -0.10730674 0.3268978 0.22913715 0.060083628 0.07898643 0.21449834 0.14649434 0.16851233 0.83400023 -0.713904 0.17511973 0.2169225 0.6299918 0.6588422 0.08353757 -0.23590896 0.037767366 -0.20158564 -0.19327195 0.21692945 -0.16287586 -0.015808033 -0.44353104 0.08785196 0.20291139 0.44934598 0.22429924 0.37717462 -0.27857232 0.28927296 0.10236423 -0.2300104 0.4115858 -0.17089736 -0.41696867 -0.00045582053 -0.7058147 -0.33702797 1.2360986 -0.15434283 -0.17239228 0.35252613 -0.11638776 0.8796704 -0.13356654 0.11281734 0.029907396 -0.39032546 0.44660732 -0.39461318 -0.56250197 -0.26676756 0.5885518 0.08924648 -0.25850105 -0.4713614 -0.29241234 -0.05848748
1052 -0.264046 0.057753164 -0.52357876 0.8668574 -0.46039706 -0.86407834 0.018266492 0.070221506 -0.106604174 0.20753108 0.1543605 0.3914903 -0.18582225 -0.008105857 0.548297 -0.3607912 0.083139405 0.20382752 0.7835981 0.6857734 0.55137086 0.096254066 -0.25587395 -0.47936594 0.12812716 0.38864234 -0.036305826 0.3213461 -0.31455317 0.630339 0.6926573 0.1916759 0.23403567 0.44134805 -0.5985106 1.0161271 -0.19606407 -0.020294378 0.4196115 0.25311345 -0.18241656 -0.35481936 -0.5614967 -0.13037711 0.80052394 -0.017297605 -0.27271333 -0.058782727 0.19978127 0.8886936 -0.21865985 -0.10656062 0.17131032 -0.13190112 0.5374549 0.12857689 -0.558503 -0.36570737 0.22039261 0.056399353 0.22244906 -0.06995764 -0.2798246 -0.17247641
19 -0.6292227 0.71264565 -0.42964372 0.34988278 0.16689116 -0.87793297 -0.121478096 -0.3831874 -0.5842641 0.13285455 -0.11727374 -0.4937908 0.07987083 -0.95442164 -0.37367213 -0.42120558 0.45696983 0.19642414 -0.1374527 -0.46985382 0.2762673 0.24385871 -0.38389716 -0.13483824 -0.29477543 0.12377332 -0.2826877 0.05945934 -0.7041214 -0.43645164 -0.12613171 -0.108605504 -0.52115995 -0.31272712 -0.26459298 0.52076066 -0.17113362 0.2827266 0.33217424 0.06612868 0.11044468 -0.07776326 -0.43614644 0.12945412 0.43046933 -0.17330725 -0.013471595 -0.74899936 -0.3955073 0.50235707 0.2902763 0.41874504 -0.13709205 0.34702325 0.19978379 -0.21625605 -0.12914596 0.038263753 0.521462 -0.04118479 -0.21333525 0.08752845 0.53120434 0.3508939
499 -0.60554636 0.8291162 -0.5961947 0.8252599 -0.122313425 -0.5524647 -0.015061383 -0.72486347 -0.5530049 -0.060259815 -0.2468938 -0.20017624 -0.023942629 -0.86767423 -0.4990789 0.096540675 0.31635976 0.008391757 -0.14578946 -0.40866342 0.41440052 0.18998393 -0.41601345 -0.46022612 -0.63572013 -0.022945736 -0.13128549 0.013437568 -0.49373803 -0.4293368 0.19123042 0.44039762 -0.7325523 -0.3560699 -0.29159346 0.31488767 0.023698071 0.28259546 0.42344975 -0.5618016 0.18480375 -0.38081276 -0.46416923 -0.07530088 0.5024363 -0.025621142 -0.19191977 -0.8699323 -0.24457487 0.5592964 0.5516397 0.37811646 -0.37181956 0.28613165 0.23489596 -0.0893921 -0.07426106 -0.073496334 0.34296256 -0.2925343 -0.12979671 0.22391102 0.4549958 0.22953288
133 0.113856986 0.62810403 -0.15183139 0.49557978 -0.07017787 -0.38880315 -0.341951 0.10452601 -0.55584335 0.44101784 0.7727782 0.25286558 0.2926049 -0.12661615 0.66218793 -0.07403117 -0.08329807 0.42905486 0.20921847 0.60398453 0.006980336 -0.28140002 -0.51012254 -0.014067437 0.21281926 0.19626051 -0.24772437 0.24621117 -0.5235807 -0.27615595 -0.33169004 0.49137208 0.82708913 -0.5832945 -0.42594507 0.42386472 0.1267008 -0.14974871 -0.012219321 0.33914402 -0.43104404 -0.05290741 -0.24825975 -0.71440387 0.23276709 -0.64720356 0.45525163 0.22880416 0.028930753 0.8106522 -0.1558842 -0.15327786 1.0281658 0.20256868 -0.05973409 0.029101893 -0.4000696 0.4220966 0.35970604 -0.39468837 0.17246595 -0.4569033 0.296971 0.3878962
458 -0.5279894 0.1598299 -0.5802419 0.5392634 -0.0482285 -0.19836278 -0.28621203 -0.23817274 -0.113374874 -0.07657655 0.43979752 0.28927383 0.069118865 0.603747 0.73967046 0.053783976 0.2171833 0.36365613 0.45339996 -0.14978164 0.09114815 -0.056085642 -0.327366 0.054513127 -0.032565832 -0.05236181 -0.25869533 0.60705507 -0.30410314 -0.32139108 0.0731479 0.8330009 0.76641756 -0.52028006 -0.36615965 0.8359478 0.40543497 -0.5361139 0.511201 0.20699866 -0.76001424 -0.22723542 -0.62853557 -0.40953898 -0.075732514 -0.32927638 0.23619121 0.2608879 0.44086733 0.6264075 -0.34383613 -0.24118148 1.0528402 0.43603528 -0.024599286 0.3542584 -0.61103255 -0.08582385 0.30386436 -0.9060258 0.05791053 -0.50107384 0.33866322 0.26045108
53 -0.09184806 0.9914839 -0.24221857 0.5219694 0.054360505 -0.4320356 1.1270555 0.19212905 -0.21203423 0.5652159 -0.029063476 0.71019787 -0.10123534 -0.11846162 0.49336064 -0.33555558 -0.22769982 0.6140522 0.9228876 -0.58500475 0.32200038 0.46453443 -0.3635461 -0.100493856 -0.036738086 0.9837377 0.038062945 0.7892721 0.11337363 -0.24323896 0.11112801 0.57690567 -0.27487656 -0.04844838 -0.033033796 0.8664123 -0.049544543 -0.72072625 -0.048144203 -0.7795768 0.35619405 -0.13075902 -0.3966154 -0.07294225 0.8264493 0.30111393 0.013354485 -0.13535677 -0.068821795 -0.39751592 -0.20471163 -0.0054276153 0.50424856 -0.26159033 -0.22161013 0.4824098 -0.5039062 -0.35863915 0.10368397 0.47472128 -0.26822138 0.07596438 -0.03947699 -0.7809744
767 -0.03764609 0.91004467 0.13053395 0.5491114 -0.19386795 -0.22831464 1.1428251 0.2925807 -0.13060538 0.48718745 0.062037535 0.6128164 -0.12281415 -0.0017353034 0.29667336 -0.24768178 -0.560159 0.49869046 0.7811435 -0.38325787 0.26890787 0.37425917 -0.3395976 -0.00076503126 -0.05195385 0.8011664 0.17677453 0.70219254 -0.1728098 -0.4083337 0.25288162 0.41562825 0.011063165 0.01070145 0.02628537 0.9135373 -0.06747753 -0.5610619 -0.066050395 -0.8376764 0.03952544 -0.092889965 -0.5490255 -0.33140692 0.8159483 0.14255364 -0.02277107 -0.059677772 -0.18989505 -0.17678799 -0.1740446 -0.22781613 0.75058913 -0.10569385 -0.20431268 0.5577263 -0.7460415 -0.36529273 0.1693607 0.5389182 -0.27961096 0.09487333 0.043002818 -0.92923933
11 -0.24940753 0.4388892 -0.30416876 0.61031747 0.08801077 0.033309527 0.5297688 -0.51791847 0.027695566 0.22747119 -0.022022448 0.5125227 0.8801813 -0.91361046 0.32531932 0.3876021 0.64827996 -0.04916665 -0.3138655 0.18447855 0.8818779 0.098246254 -0.45070234 -0.09819273 0.5171997 0.2290404 -0.29843643 0.7081658 -1.178935 -0.2796151 -0.35221252 0.06452827 -0.5017076 -0.19916332 -0.45745823 -0.18220448 -0.018307636 -0.21765248 0.49469525 0.28548688 -0.36031103 -0.1701508 -1.2003454 0.59124297 0.89129144 1.2381318 -0.48273787 -0.444959 0.07960546 0.06109609 -0.45232508 0.24227844 0.3025754 0.40828255 -0.24611467 0.7413298 0.4046411 -0.7156033 0.07085381 0.5086856 0.18506712 0.17949337 0.5793227 0.0025851852
1057 -0.3524017 0.24860522 -0.2275569 0.75417143 0.07134759 -0.34443283 0.6585331 -0.648682 -0.0027600422 0.30823055 0.11507418 0.49711516 0.727836 -0.897973 0.3226888 0.34281245 0.624962 -0.09349263 -0.16723736 0.36134884 0.93185776 0.1742295 -0.51172113 -0.15713285 0.71726054 0.22052193 -0.30700877 0.7468511 -1.2111019 -0.05596943 -0.36640665 0.16161452 -0.543673 -0.33792785 -0.6779547 -0.22020966 0.04608772 -0.18104866 0.3361761 0.4451539 -0.31249908 -0.3283482 -1.1452684 0.6802448 0.8430739 1.0354426 -0.43072587 -0.3204309 0.045379877 0.0980902 -0.71444154 0.42727637 0.20519817 0.54972416 -0.5015164 0.76677316 0.56922674 -0.622989 -0.010474622 0.44637486 0.205211 -0.022119978 0.56859016 0.017494561
68 -0.11988172 0.35908094 -0.0013573028 0.5877819 0.09586512 -0.0027840554 0.11974065 -0.37574252 -0.419554 0.020923551 0.43286806 0.049831826 0.31591824 0.25828794 -0.10530521 -0.26341647 -0.5494175 0.13440971 0.29780093 -0.50883746 0.18914177 -0.16147643 -0.13554487 0.49075094 0.59308267 0.14670007 -0.302343 0.6252286 -0.309294 0.0842135 0.12003893 0.6587275 -0.0774327 -0.112636335 -0.27999339 0.07145153 -0.1327844 -0.18257348 0.5797845 -0.066734314 -0.3659479 -0.59007674 -0.6763113 -0.14046364 0.45647547 0.41948858 0.4062619 -0.08485406 -0.4746411 0.0040485677 -0.64809144 -0.33753335 0.3556131 0.3287279 -0.39908496 0.3462238 0.6820396 -0.668416 -0.12364413 -0.399372 -0.4212002 0.4033758 -1.0888369 0.32568803
609 0.1232095 0.43165833 -0.0019571246 0.3738285 0.08132775 -0.05379149 -0.14852294 0.033264 -0.2885638 0.07809129 0.57112366 0.21262035 0.15228333 0.048458047 -0.015376403 -0.026118664 -0.44939032 0.271571 0.23190197 -0.36109927 0.502361 0.29950356 -0.18738182 0.34721053 0.6279975 0.48584852 -0.41116306 0.458209 -0.27692017 0.16792113 0.21230315 0.773684 -0.13335818 0.098650075 -0.19833533 -0.11085072 0.13390371 -0.19302922 0.3565241 -0.301215 0.08661722 -0.44674012 -0.98765486 -0.04857608 0.6384124 0.25513455 0.48477572 -0.21364838 -0.37120208 -0.009738716 -0.5121192 -0.20177327 0.37523356 0.46719852 -0.43522957 0.45259088 0.45894688 -0.4519457 -0.022417836 -0.20574342 -0.5441473 0.460031 -0.97901696 0.18694735
64 0.025114475 1.1591368 0.044740617 0.34800857 0.026954692 -0.83580685 -0.2368479 0.8515221 -0.092643954 0.46090493 0.0033752562 -0.48555076 -0.033386976 -0.05890733 0.50447935 0.41838247 -0.106854655 0.6478732 0.019949494 0.17639363 0.05091004 0.39331618 0.22896934 -0.28606978 0.098348364 0.5835701 0.107624516 0.15255946 -0.19751981 0.11298632 0.105641164 -0.2654601 0.091733545 -0.52933216 -0.46460268 0.44172567 0.4371141 -0.86460274 0.5304174 0.39928642 -0.7763546 0.22845432 -0.1308811 -0.41045645 0.73669106 -0.72203785 -0.1281047 -0.0888818 -0.0069670803 0.5485854 -0.30101863 -0.27774075 0.32084844 0.76064754 -0.34676173 -0.26268074 0.29377744 -0.17632677 0.3683029 -0.5325644 -0.6554514 -0.21142153 -0.25411528 0.7252126
739 -0.051705524 1.0086621 0.16022992 0.80433095 0.20163849 -0.9762783 -0.31323814 0.81283635 -0.28078374 0.46039897 0.18567073 -0.2706668 -0.595457 -0.02186979 0.57469344 0.16616556 -0.31453073 0.41666785 0.041636873 0.35131404 0.14355783 0.28408924 0.12810414 -0.40334582 -0.04144605 0.5518066 0.03202369 0.42846197 -0.4116917 0.022141004 -0.22897114 -0.24182118 0.20715962 -0.6103511 -0.43928048 0.34283268 0.4831756 -0.91594183 0.6085976 0.3154003 -1.0394007 -0.09009137 -0.32209584 -0.6055258 0.6939178 -0.4923355 -0.26804483 0.012101272 -0.14663894 0.6146128 -0.51709294 -0.341612 0.32910764 0.61214495 -0.55137575 -0.075112455 0.24896005 -0.28651682 0.21360882 -0.5196021 -0.47859272 -0.3816862 0.052006736 0.8848174
804 0.06355238 0.6316265 -0.06365876 0.5756261 -0.38870662 -0.1928531 0.5473237 -0.38630894 -0.17212754 -0.2997291 -0.3428344 -0.3834311 0.5081285 -0.031345762 0.20531633 0.2526204 -0.12609479 0.21277662 -0.11049507 -0.2585182 0.17968994 -0.0076265866 -0.008961114 0.27906933 0.04029129 0.062059928 -0.19299294 0.21444625 -0.9770247 0.17717446 0.09741861 -0.49169666 0.030282723 -0.40339682 -0.81505126 0.014575008 -0.08598981 -0.2786991 0.32314816 0.099025324 -0.11947823 -0.77833486 -0.27329737 0.040940646 -0.26899227 -0.4084932 0.182414 -0.3354404 -0.22100876 0.01200139 -0.02400615 0.34904185 0.1275024 0.01808728 0.027523916 0.37503424 -0.1931262 -0.06467626 0.6905043 -0.25198048 -0.32612243 -0.08765377 -0.28696606 -0.33818215
282 -0.22535728 0.6125531 -0.107308656 0.465532 -0.63032514 -0.2764059 -0.05828356 -0.738667 -0.35591727 0.82489115 -0.5194884 0.21031587 -0.40849683 -1.3301405 -0.11171876 -0.41474232 0.67077774 -0.06597968 -0.3691998 -0.31662706 0.6271336 0.3670101 -0.15633585 -0.11592058 -0.630219 0.0018176865 -0.62110054 0.37442294 -0.14240685 -0.0027036427 0.09307326 0.790413 -0.26113966 -0.3549636 -0.45704097 0.34245595 0.12413477 -0.62203836 0.42989266 0.27142262 -0.10455947 -0.5257453 -0.9916597 0.090780586 0.012151429 -0.336953 0.32153365 0.8588901 -0.5064696 -0.4454341 -0.482465 0.036702953 0.39018974 0.19077174 0.17850187 -0.21394783 0.5675562 -0.43453854 0.077391416 -0.44306335 -0.45958552 0.16363394 -0.1500459 0.04943467
421 0.05385586 0.56450385 0.011557356 0.42896184 -0.43077317 -0.35098216 -0.15566055 -0.6469982 -0.34993306 1.0305432 -0.5906037 0.33205777 -0.31842634 -1.3083259 -0.2605657 -0.51217127 0.59253806 -0.13031653 -0.23266551 -0.34994647 0.82645136 0.17771786 -0.114672326 0.055681862 -0.6236251 -0.0063314233 -0.5167439 0.39620426 -0.11139236 -0.21197599 0.08336655 0.8327043 -0.41450036 -0.21529052 -0.52081335 0.67291665 0.18162748 -0.63086146 0.13741878 0.3038728 -0.075222395 -0.4904425 -0.95948267 0.22554994 0.23867123 -0.44704664 0.20657358 0.79929614 -0.25408542 -0.22477785 -0.18970245 0.034627344 0.19794978 0.04055231 -0.05744171 -0.2616225 0.60177994 -0.38746578 0.41848773 -0.4900703 -0.40987408 0.39027667 -0.24626848 0.05040174
99 -0.09473878 0.5575624 -0.5158195 -0.15627864 -0.10060076 -0.42014462 -0.16985437 -0.123517595 -0.21322739 0.094059505 0.22346342 -0.27989072 0.49539632 -0.075924695 0.35367963 -0.13639723 -0.64917254 0.5975197 -0.15818693 0.259363 0.33948895 -0.12129048 0.07585353 -0.32645845 0.25789627 0.15134251 0.05154175 0.44108838 0.1265962 0.110108316 0.025225671 0.032665472 0.31720647 -0.6011224 -0.477652 0.02190435 0.048674528 -0.12380883 0.26565588 -0.19675809 -0.52738106 -0.23059492 -0.24362943 -0.0939499 0.47204942 -0.310461 -0.108593404 0.19275114 -0.12900665 0.7713561 0.38073897 0.1450002 0.28775144 -0.04015892 0.28773582 -0.26582706 -0.0044188015 -0.27745503 0.34641957 -0.19523658 0.02480434 0.14620852 -0.31880417 0.18911943
986 0.027988376 0.37073615 -0.46814397 -0.3269308 0.005069057 -0.39223006 -0.37390646 -0.08894724 -0.40471876 0.2327853 -0.13265514 -0.421666 0.3688057 0.094827086 0.41482764 -0.16552402 -0.36517566 0.6264407 -0.16602214 0.13402884 0.6244709 0.09724309 0.17160597 -0.51619744 0.28181452 0.32511094 0.14162254 0.4377851 0.2997292 0.13377732 0.051501848 0.06383459 0.3993262 -0.51852524 -0.54713166 0.38190424 0.11512551 -0.023386383 0.3920215 -0.20158061 -0.45250148 -0.24035329 -0.24386317 -0.1895429 0.41598198 -0.5879211 -0.06732894 -0.09117385 -0.21454126 0.6449017 0.44426343 0.11732232 0.3701464 0.12623166 0.08365588 -0.28440982 0.020255681 -0.24805667 0.43881217 -0.28004712 -0.2376802 0.04775458 -0.006411451 0.124662004
369 0.105844885 0.2162051 -0.25407988 0.93567276 -0.68409854 -0.5366818 -0.07433774 0.12987679 -0.6903887 -0.31695935 -0.15917699 0.58371586 0.20220734 -0.0067347586 0.07321343 -0.32409924 0.011935658 -0.13030711 0.38151973 0.3848475 0.66530794 0.72892535 -0.59024256 0.16570845 0.06928888 0.031796247 -0.70668733 0.48822376 -0.35129976 0.5322903 0.78722143 -0.119836986 0.27754247 -0.0980014 -0.96103114 0.84666294 -0.44677263 0.1619349 0.2571411 0.21481393 -0.17951491 -0.23244488 -1.0954556 -0.8402571 0.37099582 -0.1859479 -0.46608144 -0.11766868 0.35958084 0.32238352 -0.5878974 0.11550082 0.3036795 -0.5150671 0.31050038 0.026400136 -0.70130634 -0.54323983 0.029279342 0.52758986 0.09418106 -0.040153034 -0.17165805 -0.39449474
551 -0.031862054 0.18109497 -0.22682023 0.7964653 -0.66986126 -0.57589895 -0.085635744 0.26000422 -0.4269088 -0.14433253 -0.29806158 0.77002496 0.081857264 0.019919667 0.38645604 -0.49481514 0.112638116 0.080209576 0.4010836 0.3305852 0.5373316 0.76076204 -0.45275792 0.22897308 0.0022558768 0.25927046 -0.9359346 0.1327272 -0.39314908 0.4672311 0.89920557 -0.07089993 0.14242187 -0.19984218 -0.86701703 0.90872633 -0.586032 0.2644894 0.20377667 0.04659174 -0.032469753 -0.18220915 -0.9730842 -0.7013127 0.1417021 -0.15843087 -0.45313683 -0.05790948 0.03134294 0.51806116 -0.24975806 -0.25866666 0.52017486 -0.31614366 0.051077027 0.19433066 -0.7639841 -0.7786483 0.25178647 0.53514236 0.032909114 -0.25212777 -0.1233841 -0.34247237
330 -0.17132708 0.22740433 -0.16402136 0.30043027 0.25271183 -0.21985596 0.1015567 -0.23005012 -0.17046396 -0.18090765 -0.32636148 -0.10287472 0.5115197 -1.146491 0.3013022 0.6078002 0.3738863 0.15266448 -0.50721794 -0.3025069 0.29487377 0.15517367 0.1453933 -0.07224917 0.5196501 -0.24283478 0.011871293 0.8934474 -0.6376785 -0.5404577 0.06388209 0.04322275 -0.6664798 -0.3118142 -0.2739267 -0.5615313 0.18418653 0.29817778 -0.23382033 0.18981452 -0.3956947 -0.3047912 -0.47414795 0.13349633 0.64556885 0.5750626 0.0670189 -0.33984008 -0.2987238 0.22146973 -0.16328637 0.09109315 0.11055778 0.26092482 -0.45456377 0.48971114 0.11102211 -0.26608187 0.6133849 0.030525858 -0.07788414 0.08167635 0.4141255 -0.11057508
996 -0.42185476 0.6636713 -0.45261595 0.25385708 0.03204369 -0.12183407 0.07338917 -0.36477166 -0.0025900558 -0.18614668 -0.4152576 0.08419156 0.48425695 -0.63977647 0.61685115 0.34732813 0.04844334 0.3128729 -0.3484422 -0.027243467 -0.27360785 0.116312094 -0.041620973 0.32013535 0.31442225 -0.19920696 0.08404997 0.75483745 -0.5296902 -0.1551867 0.106507614 -0.07891269 -0.30675665 0.060640037 -0.0006368815 -0.38553962 -0.14574978 0.104245044 0.045632154 -0.16522878 -0.33541787 -0.6078691 -0.26663873 0.35505834 0.09684515 -0.250518 0.2516362 -0.12113638 -0.17850175 0.105285026 -0.034061536 -0.026126197 -0.19398072 0.3717592 -0.44491848 0.37762776 -0.24186353 -0.250148 0.57409257 0.026089795 -0.25545856 -0.0056419233 0.1599724 -0.07407631
10 0.09159101 0.2723104 -0.29171318 0.7226091 -0.49593338 -0.5373328 0.060057767 -0.061675545 -0.65800726 -0.34608334 -0.4836321 0.58308953 0.06087025 0.10864601 0.23079482 -0.37321898 0.06524719 -0.16566284 0.42637628 0.36938462 0.54428184 0.64280546 -0.6195661 -0.043328263 -0.0069103013 0.01884768 -0.64784664 0.119914934 -0.40545875 0.6549857 0.8575134 -0.093438014 -0.048261598 -0.16005474 -0.8836293 0.79163027 -0.4789411 0.03950096 0.3760183 0.28669888 -0.18793781 -0.25079122 -1.1874602 -0.84322965 0.32290566 -0.0986132 -0.5158537 -0.014645223 0.23597164 0.47100908 -0.4674867 0.2322329 0.5639359 -0.47047374 0.078955054 0.34147027 -0.6624874 -0.6378004 0.24500465 0.635785 0.098484054 0.022236628 -0.22124404 -0.43902886
428 0.48447543 0.37316367 -0.29588184 0.47521374 -0.35244176 -0.45825288 0.24932696 0.30108806 -0.42668813 -0.45399714 -0.19900835 0.23082379 0.16588944 0.078462 -0.023346035 -0.2851746 -0.115764685 0.0043256176 0.11669498 0.690242 0.8395162 0.75470436 -0.64140725 0.30777457 0.32540908 0.10876316 -0.8689798 0.23095785 -0.34446877 0.48882878 1.0374824 0.003489476 0.036030967 -0.4862917 -0.87960315 0.24177766 -0.5015 -0.021324508 0.32818782 0.16822696 -0.07545878 -0.10098199 -0.94596446 -0.8514237 -0.035676025 -0.2223449 -0.37173077 -0.21011154 -0.028687675 0.19621293 -0.40741506 0.14322144 0.51417786 -0.4849965 0.12989639 0.19296266 -0.6045616 -0.4765283 0.018726133 0.5948752 -0.29131174 -0.19191656 -0.3466675 -0.37809932
40 -0.1037707 0.094557025 -0.34102017 1.1435955 0.27692556 -0.7137788 0.9912905 -0.0028804734 0.045370653 0.5301254 -0.20713097 -0.022433521 -0.2579731 -0.23553139 -0.8126829 -0.322434 0.09910322 0.004181 0.16592583 0.20821449 0.4320431 0.5304784 -0.16536757 1.1134291 0.003022605 0.2336512 -0.62244755 1.0045924 -0.70858586 -5.5130193e-05 -0.40333062 1.0756328 0.22200578 -0.48484623 -1.0440376 0.23941271 0.6997139 -0.022617217 0.40056458 -0.87197524 -0.30171335 -0.16627093 -1.0238822 0.033446256 0.023130871 0.23847662 -0.4116173 0.1988601 -0.24692321 0.33750156 0.40963206 0.5030224 0.053646557 0.6056659 -0.99238586 0.037174355 0.041940752 -0.7128318 -0.37186372 -0.08151285 0.18645178 -0.32867324 -0.57583153 -0.07684236
519 -0.30342105 0.322488 -0.60111815 1.1637212 0.2253356 -0.42173088 1.2586838 0.02722385 0.2346723 0.3737846 -0.39126483 -0.519242 -0.18764941 -0.15139256 -0.65914667 0.08707639 0.37760466 -0.05640603 0.3519751 0.015016186 0.30678412 0.37873617 -0.1274728 0.7671737 0.19144735 0.1645229 -0.58642685 1.0204065 -0.40875205 -0.027051425 -0.44741005 0.45559108 -0.10771043 -0.48413634 -0.8067684 0.043881975 0.725208 -0.0991347 0.4767305 -0.7701639 -0.22992623 -0.44350183 -0.51442283 -0.01571856 -0.0822723 0.083882906 -0.27152178 0.08708483 -0.8937289 0.33194548 0.5851601 0.2411151 -0.38996482 0.49596065 -0.7792923 0.29127622 -0.35201573 -0.5294791 -0.36698264 0.03509161 0.018985411 -0.07943837 -0.4827547 0.21887624
267 -0.2287796 0.42796504 0.39628816 0.9528384 0.015827117 -0.53357524 0.2866225 0.3268319 -0.38218713 0.19240113 0.19083887 0.37459508 -0.37131476 0.18473116 0.66440886 -0.13654467 -0.5866461 1.0255952 0.42829004 0.2831236 1.0239961 0.4757523 -0.21184629 -0.09452632 -0.029672373 0.14037265 -0.29841006 0.5225036 -0.67304116 -0.2600541 -0.5976594 0.3386437 0.48916945 -0.7874126 0.08689674 0.5685412 -0.17704049 -0.4223984 0.80450326 0.54664993 -0.9339883 -0.37815806 0.1256811 -0.46073487 0.26961607 -0.23108312 0.7452559 -0.53316796 -0.06628509 -0.08151945 0.31862143 -0.6586358 0.43767643 0.44067279 -0.012109909 0.5641746 -0.3825135 0.16389716 -0.091011 0.13040616 0.09214642 0.010267588 -0.3281356 0.054904036
1039 -0.15810555 0.30977705 0.33344656 0.85844207 0.7741023 -0.9367759 0.023214964 0.42659417 -0.45123145 0.20161124 0.5412791 0.141534 -0.45531023 0.07616983 0.77798647 -0.41873926 -0.50774723 0.9703073 0.27302876 0.21687183 0.90689623 0.30167338 -0.17840303 -0.16525331 -0.20906115 -0.04972917 0.007679353 0.37425652 -0.30031782 -0.3390302 -0.68495 -0.05155533 0.73104143 -0.84125054 -0.1506541 0.6960872 0.15384021 -0.5194162 0.55743456 0.616664 -0.9699647 -0.50586146 -0.24573748 -0.09119458 0.2316078 -0.4445313 0.47747758 -0.42555323 -0.24638888 0.10435053 0.20826685 -0.6158542 0.37354806 0.41297117 -0.27274138 0.49236384 0.009676073 -0.1309937 0.22446248 0.1838186 0.13598433 -0.17501199 -0.1725608 0.12841518
449 0.0010015019 0.95970404 -0.1278832 -0.12769905 -0.20568046 -0.3174935 -0.3822448 0.6261255 -0.05574044 0.4443772 -0.10288174 -0.5104586 0.109973036 -0.091465786 0.42622268 0.27784696 -0.31724364 0.43940446 0.04374781 0.041843098 0.03462821 0.12976903 0.20783035 0.028207503 0.24104105 0.4196433 0.24248636 0.2362286 -0.12323378 0.031398907 0.16511704 -0.21584807 0.028309321 -0.43218464 -0.59923685 0.46625978 0.31899652 -0.39578605 0.4638565 0.008391894 -0.48711145 0.1631596 -0.10121754 -0.36926326 0.5417029 -0.56052583 0.11765952 -0.32957882 -0.06887006 0.5153025 -0.09021133 -0.1429345 0.30911833 0.75126886 -0.07759544 -0.42889327 -0.056903347 -0.22963877 0.49296507 -0.36925554 -0.41779092 -0.1272267 -0.23502557 0.6386375
135 -0.1625109 -0.070877425 -0.583747 0.71566033 -0.46436784 -0.9393632 -0.026615085 0.22604215 -0.34438935 0.024862463 -0.077185795 0.26622742 -0.18034832 -0.2787365 0.48280036 -0.6326468 -0.097253375 0.015755048 1.0419681 0.4572233 0.49596423 0.41205347 -0.053168863 -0.5734678 0.5650119 0.6867026 -0.49998277 0.35788697 -0.24979301 0.68036264 0.4626385 -0.06398217 0.37598667 0.20546484 -0.5605497 0.879985 0.11091145 -0.2386157 0.18831176 0.04315665 -0.026136026 -0.38130644 -0.6023959 -0.4896334 0.38257733 -0.062243577 0.09074644 -0.28933942 0.21317348 0.45847166 -0.1358685 0.00736756 0.10711777 -0.31318358 0.22300297 -0.03937821 -0.6005706 -0.6743063 0.2364465 0.21192782 0.04674802 -0.21047214 -0.40940627 -0.19166118
724 -0.23283291 0.07574061 -0.32142153 0.88038146 -0.5035901 -0.98872644 9.3915114e-05 0.16947877 -0.2515004 0.11674225 0.039297093 0.17110759 -0.23050931 -0.38952804 0.36521032 -0.7611654 -0.03510413 0.04486646 0.86443555 0.75349 0.5155125 0.25009584 -0.26964653 -0.53264934 0.20636696 0.2483811 -0.4317131 0.2901461 -0.3465198 0.76813287 0.5463708 -0.0066545294 0.18511769 0.45389974 -0.6986421 1.0185317 -0.07288427 -0.13592961 0.30807674 0.032635905 -0.31842965 -0.39998028 -0.5341521 -0.42593944 0.45191333 -0.043395657 -0.25380734 -0.14980024 0.26447004 0.41969222 -0.33310285 0.30885166 0.41939768 -0.33880794 0.338593 0.12429423 -0.6745116 -0.50691223 0.034154717 0.02159174 -0.0672003 0.2519296 -0.28056517 -0.21320106
67 0.068273135 0.2350722 -0.38549522 0.42415717 0.36215404 -0.67993265 -0.06694816 0.23370694 0.29431102 0.010545133 -0.1844084 0.12792909 -0.25716507 0.23947957 0.6871916 -0.661922 -0.23750842 -0.1075159 0.10379098 0.21053223 -0.019432278 0.06672216 0.04312855 0.37089473 -0.16059355 -0.09051266 -0.22083165 0.7205133 -0.3253504 -0.56139195 0.11117039 0.9922931 0.20370552 0.031787504 -0.2264892 -0.31328654 0.19050023 -0.8364137 0.3416022 -0.1347165 -0.27767763 0.040291067 -0.95024043 -0.121153444 0.2259706 -0.4609766 -0.12696987 -0.14514816 0.83835214 0.8728974 -0.68293935 0.17940038 1.3114303 0.32834813 0.16865665 0.46980622 -0.07590399 -0.33795223 0.4079077 -0.18744957 -0.16355287 -0.1471239 -0.12115527 0.27275527
619 0.10738835 0.10833032 -0.44946206 0.3423418 -0.15442698 0.07813719 -0.02502309 0.23147549 0.3544247 -0.23041673 -0.17103775 0.37635794 0.22245665 0.59056014 0.86086553 -0.21530372 -0.13024217 0.22090298 0.23858145 0.051056284 -0.1453135 0.19453035 -0.16807954 0.36982897 -0.21779056 -0.13688754 -0.2895853 0.6331022 -0.37265527 -0.6276218 0.10759355 1.0893825 0.22593938 -0.12765372 -0.3852529 -0.13306609 0.1241827 -0.77533674 0.31347612 0.06727813 -0.399837 -0.4360096 -1.0154692 -0.33644006 0.36772949 -0.74140215 -0.29397818 -0.12987296 0.39403456 0.9252484 -0.4378771 -0.08439193 1.053573 0.25644025 0.091338545 0.7122825 -0.32493886 -0.39025906 0.50417453 -0.15911373 0.04641158 -0.13934213 -0.27993664 0.16683267
392 -0.01673825 0.80651295 -0.5642908 0.07593512 -0.22224918 -0.13357842 -0.029299581 0.12223684 -0.13789594 0.3928646 -0.33328786 -0.24625504 0.5932008 -0.14549224 0.7567065 -0.025794499 -0.048159737 0.12015702 -0.02758514 0.04987731 0.46097153 0.015801212 -0.4006752 -0.06771626 0.32276303 0.13753927 0.07194345 0.2696916 -0.20263161 0.26453036 0.14029673 0.16805445 -0.10571734 0.26852146 -0.32840738 0.21708505 0.16919924 -0.009276829 0.70255727 0.25096917 -0.5373601 0.22172889 -0.44145653 -0.24618341 0.43543595 -0.3046841 0.19848306 -0.1616342 -0.29858512 0.9391993 0.2561578 -0.068961844 0.39987636 0.11397212 -0.22496712 -0.7395661 0.0056116628 0.2215007 0.53162 -0.24232824 0.40760082 -0.21241604 -0.137672 0.021494526
765 -0.486111 0.57572633 0.08422844 -0.21328835 -0.08986942 -0.30353346 0.27551207 0.0010564186 -0.38076192 0.58160996 -0.1447228 -0.14811271 0.48801532 -0.112518415 0.38605347 0.46367437 -0.15382604 -0.14566849 -0.120301425 -0.01857955 0.057087846 0.08068618 -0.08165583 -0.13938268 0.41901118 -0.08592393 0.17925029 0.47419855 -0.19430473 0.23015417 0.4395302 0.30058816 0.26852044 0.15763272 -0.21100762 0.5907778 -0.051161963 -0.26901805 0.2629797 0.41282192 -0.5874513 -0.2285227 0.007980112 -0.2947598 0.46574223 -0.5367883 0.56517017 -0.19991131 -0.212812 0.7397839 0.36404136 -0.3065169 0.57888347 0.0021280253 0.1402404 -0.24989519 0.017757509 0.21479627 0.43730316 -0.5480525 -0.09574942 -0.07510587 -0.33565515 -0.03736885
168 -0.29660416 0.65679854 0.02488205 0.78627 -0.60773826 -0.618753 0.15489632 -0.4347082 -0.10846153 0.49899518 -0.6977145 0.72526443 0.04775318 -1.0463705 -0.20818734 0.6812888 0.17938161 -0.5288012 -0.1465155 -0.35007307 0.9360121 -0.06309704 -0.056133885 -0.057266224 0.045773245 -0.083561935 -0.043578707 0.07506729 -0.36989397 -0.2109345 0.19798818 -0.3599129 -0.19026421 -0.44437227 -0.392971 0.8090552 0.8084237 -0.28127867 0.5638055 0.25211045 0.0022694175 -0.3694293 -0.7784112 0.67121035 0.36738524 -0.47483006 -0.053100426 -0.12756115 -0.26735714 -0.40050232 -0.07107993 0.3168086 0.087170094 0.38902804 -0.34686112 0.1985305 0.3676698 -0.87750554 0.5286914 0.043001637 0.47142842 0.25148633 0.6722863 -0.033713143
670 -0.674982 0.83849096 0.20463602 0.9340937 -0.7023999 -0.8111352 -0.25447077 -0.6652511 -0.14485832 0.41617927 -0.50091887 0.74073213 -0.16695847 -0.9649819 -0.020592665 0.4374464 0.6153281 -0.60385567 -0.11175763 -0.44146734 0.8051386 -0.058189534 -0.40479276 0.09106037 0.086812645 -0.0115813445 -0.23506036 0.32274282 -0.43585077 -0.4069468 0.3615296 0.111099474 -0.23176335 -0.5709494 0.22140576 0.7524842 0.7771643 -0.28600642 0.43636733 0.46606645 0.12915306 -0.33227852 -0.94477916 0.72042525 0.45329875 -0.03744297 -0.11663989 -0.2570446 -0.06738219 -0.11057141 0.22812334 0.3552498 -0.006297172 0.14740925 -0.28922188 -0.21650419 0.48696917 -0.52551854 0.18939318 -0.18384369 0.386712 0.31380674 0.50385684 -0.2826398
243 -0.4216108 1.1079246 -0.09479078 0.5869677 -0.20444551 -0.15673631 0.056858905 -0.040617723 0.060564317 0.44133833 0.5509981 -0.16936202 -0.020164538 -0.18820173 0.032413803 -0.053545725 -0.35202122 -0.2159923 0.042709697 -0.032551974 0.441824 0.11925775 -0.08146334 0.21385941 0.75476164 0.3037213 0.15424494 0.45890182 -0.15630873 -0.07078219 -0.041476384 0.5747123 0.5767279 -0.081371434 0.11081777 0.11919521 -0.17732684 -0.32174993 -0.049875874 0.39223367 -0.96755916 0.06688797 -0.15282905 -0.58976895 0.13775149 -0.62274015 0.33800507 -0.084508374 -0.18863578 0.8307325 -0.009534955 0.072825804 0.6696065 -0.48847264 0.046704356 -0.034712166 -0.8166821 0.24447756 0.66399896 -0.70798296 -0.027187318 -0.052293472 -0.035540447 0.25754973
902 -0.16697475 0.61287856 -0.21540779 0.123878665 -0.10254912 -0.17563502 -0.17796135 0.028274542 -0.2236692 0.7643956 -0.24800721 -0.26489604 0.55195606 0.029235143 0.07491907 0.18215175 -0.04637591 0.06413913 -0.08991597 -0.12767379 0.16569917 0.07047297 -0.45667958 0.2017026 0.12653534 0.022207962 0.150174 0.19249661 0.16070382 0.48554873 0.25182173 0.51379967 0.03866497 -0.21101427 -0.2735314 0.3524042 -0.0302235 -0.41805017 0.19211489 0.19686921 -0.6605726 0.23841752 -0.38039577 -0.03307272 0.4517097 -0.40942004 0.5319827 -0.34217972 -0.5300985 0.7924236 0.29794917 -0.16103579 0.42099896 0.017978936 0.17338315 -0.4550704 -0.30523917 0.127237 0.75189906 -0.60904986 0.114510596 -0.09029273 0.033032946 0.19209471
461 0.016477555 0.77124727 -0.18526417 0.51823336 -0.002595264 -0.27678308 0.49615404 -0.42751646 -0.6093824 -0.11565379 0.15096736 0.022167707 0.16515997 -0.5759517 0.12018803 0.20597546 -0.0084762825 0.5226298 0.42263898 -0.6827436 -0.25225997 0.064499445 -0.24205467 0.52348673 -0.0021139663 0.17456174 -0.48101988 0.12906884 -0.557682 -0.009807153 -0.15678932 -0.27374184 0.19816987 0.0008126416 -0.8229199 0.03909689 -0.32257587 -0.4452055 0.74674296 0.011285795 -0.20375311 -0.12014532 -0.4914627 0.8747346 0.2387435 -0.060318798 0.31981725 -0.06915304 -0.5468244 -0.23677202 -0.23724264 0.32387215 -0.26749656 0.2293339 0.04448915 0.40222853 0.061929785 -0.43293422 0.15483765 -0.56768525 -1.0234305 0.029759813 -0.33457702 0.06573592
664 -0.24648432 0.16081351 -0.43086693 -0.18016417 -0.41539612 -0.5940299 -0.22256243 0.16565625 -0.40079376 0.24054621 0.31367993 0.20234974 0.10687378 -0.22693597 0.00481533 -0.35324386 -0.4778662 0.2361939 -0.32709715 0.3164616 0.57332075 0.2843691 -0.059315108 -0.11032382 0.42950374 0.1408058 0.10489905 0.5977863 -0.037972096 -0.11918311 0.39057025 0.4205532 0.45119724 -0.35062277 -0.625779 -0.28669682 0.04656648 -0.12834586 -0.09569217 -0.53430825 -0.5347848 -0.046699997 -0.6632212 0.10418545 0.5402222 -0.11470563 -0.057511803 -0.20714232 0.058675185 0.2182918 -0.19031388 -0.087378494 0.32540402 -0.045252446 0.210688 -0.17023475 0.41697937 -0.22106755 0.050808527 0.108388275 -0.37021726 -0.15980741 -0.5120993 0.033582587
106 0.12895314 0.4412558 -0.079478614 0.2618506 -0.29922563 -0.6080556 0.5653166 -0.5307463 0.13683805 -0.14078532 -0.030247567 0.432542 0.84651965 -0.32993838 -0.15196882 0.67594194 -0.09083295 -0.29301056 0.21632086 -0.27198225 0.09562411 0.2640308 -0.17393583 -0.3019571 0.16464604 0.2166045 -0.08486718 0.4986167 -0.7073016 -0.053330105 -0.018005088 -0.2564998 -0.25982374 -0.5366261 -0.27256656 -0.04248014 0.2207162 0.019719673 0.51234984 -0.15655473 0.15098207 -0.25346565 -0.20496249 -0.00035640917 -0.12776199 -0.5992864 0.35643044 0.20372277 -0.84303886 0.18929145 0.14747566 0.39668563 -0.31401756 0.42002997 -0.46417588 -0.019041507 -0.8137709 0.24155898 0.54013747 0.08509022 -0.4112346 0.043012995 -0.18855634 -0.55964476
677 0.005492619 0.5106713 -0.05410792 0.09229546 0.09085848 0.15158223 0.3593752 -0.45009023 0.07462898 0.03437798 -0.13951656 0.13773096 0.8724109 -0.4047206 0.36909524 0.4419447 0.24993356 0.49595514 -7.76405e-05 -0.4259893 0.18943411 0.5094021 -0.2540699 0.21747029 0.15976542 -0.023721334 0.11311272 0.2938077 -0.5785521 0.10122567 0.023296803 -0.43497005 0.10380776 -0.2002 -0.6534032 0.034692697 -0.3493218 -0.2751202 0.05648182 -0.45151433 0.11894651 -0.42737615 -0.33081228 -0.11178796 0.1498346 -0.50806135 -0.032782514 -0.15428694 -0.4634551 0.38894892 0.26893204 0.14347135 -0.41850817 -0.19665761 -0.8306637 0.237168 -0.50787663 0.25172508 0.51037735 -0.10513669 -0.486481 -0.18978262 -0.1639958 -0.23404385
117 -0.4556585 0.11563757 -0.11996338 0.22192371 -0.05547852 -0.12598951 0.3993764 0.27688572 -0.23353355 0.31477255 -0.02162557 -0.03268324 -0.0012187341 -0.18202353 0.44198567 0.6054135 -0.53016025 0.19478577 0.23537752 0.33653167 0.28308436 -0.16533718 -0.07651283 0.28901005 0.33484975 -0.24794924 0.1418199 0.6954249 -0.046144713 0.16735041 0.1720028 0.22747864 0.09834337 -0.088884495 -0.20456573 0.32148322 0.15638234 0.055865094 0.8665218 0.047736783 -0.35598806 -0.32905814 -0.37047756 -0.61470944 0.21508026 -0.33585122 0.079551324 -0.83159375 0.007573497 0.2892011 -0.21172252 -0.024062177 0.12766503 -0.5722978 0.22768177 -0.3009592 -0.08487303 0.21073397 0.0817094 0.025400633 -0.4401383 0.3665291 -0.73679435 -0.28307348
73 -0.09728907 0.81468344 -0.44519407 0.19055411 -0.2710962 -0.26415312 -0.32164127 0.40879482 -0.103165545 0.41475305 -0.4556813 -0.29590362 0.47997272 -0.11116455 0.7388919 0.0399784 -0.18070076 0.32001963 -0.22293393 -0.15782684 0.55189425 -0.024986178 -0.051242996 -0.11789555 0.242278 -0.15070409 0.0046294383 0.26542675 -0.02874887 0.1799528 -0.13514158 0.11468273 0.039332587 -0.007162951 -0.48372766 0.5146577 0.1762196 -0.13052559 0.81390005 0.13498357 -0.429799 0.508013 -0.18957803 -0.20991236 0.3363641 -0.3780553 0.55101997 -0.3596171 -0.33282003 0.75839156 0.06625435 -0.09512802 0.11291889 0.33336225 -0.13641773 -0.34925643 0.23178086 0.106927104 0.57933295 -0.2869518 0.27971265 -0.06657156 -0.23095977 0.04018603
1045 0.09092711 0.86420816 -0.8127509 0.42610076 -0.31531906 -0.044000447 -0.002494982 0.37259904 -0.17956465 0.5154925 -0.22823699 -0.432969 0.558018 -0.2500852 0.7964056 0.07173933 -0.2496334 0.06341833 -0.07506313 0.11489577 0.41133726 -0.003254695 -0.122754335 -0.17939684 0.21760094 0.19493353 0.24301113 0.22139817 -0.30192629 0.2433234 0.31277746 0.16978005 0.103825405 0.042597324 -0.41279784 0.26890635 0.2734916 -0.27226305 0.67270106 0.3695696 -0.65795326 0.13289621 -0.3391173 -0.19290687 0.3140384 -0.17460488 0.43461108 -0.21942602 -0.14145055 0.7623199 0.3845038 -0.5577644 0.049692616 0.15267581 -0.20024686 -0.664595 -0.066981874 0.031201003 0.8181048 -0.21031931 0.2900236 -0.024306143 0.009369888 0.044471394
347 0.05241521 0.6580735 -0.05984526 0.43862057 -0.37381876 -0.45553654 0.47891024 -0.56885564 -0.19740368 -0.57259643 -0.37635252 -0.15880461 0.26452452 0.0037203233 0.07452359 0.3136153 0.020073896 0.12998925 0.031943884 -0.17339157 0.13035138 -0.07433786 0.14216883 0.32792762 0.16271451 0.0052828905 -0.13020109 0.43415838 -0.7628068 0.12129446 -0.039583366 -0.33325192 0.073945425 -0.5208266 -0.70553195 0.05985922 -0.19538298 -0.23827653 0.56309164 0.23019579 -0.11774819 -0.79894537 -0.1137556 -0.0371125 -0.061820164 -0.3557721 0.6819035 -0.3494998 -0.0553128 0.015403808 0.043952536 0.24181132 0.06314443 0.064747274 -0.15674053 0.2073456 -0.035554208 0.055103336 0.54513973 -0.106311865 -0.37912366 -0.07789303 -0.07874913 -0.40294194
930 0.27839565 0.6992804 -0.011493 0.6052827 -0.613163 -0.36014074 0.50230277 -0.41931933 -0.09428722 -0.35656726 -0.3390908 -0.27708608 0.6071808 -0.14103895 0.15350336 0.33602402 0.025800927 0.32861072 -0.187216 -0.38188776 0.09978669 -0.14350529 -0.014759496 0.36790797 -0.00055265473 0.12194501 -0.19283484 0.24852574 -0.9909523 0.05420653 -0.090677984 -0.33378425 0.17355314 -0.5817268 -0.7380833 0.030032557 0.029488401 -0.10083188 0.37721378 0.13198513 0.11299784 -0.6615304 -0.2063568 0.03466568 -0.19263957 -0.3005197 0.30969748 -0.44681677 -0.25078526 -0.012461233 0.11406783 0.1592285 0.33411148 0.07701495 -0.07028567 0.40723327 -0.30733338 0.011013237 0.5449241 -0.12533732 -0.3946681 0.010332205 -0.36919615 -0.31612706
20 -0.38037404 0.7343591 -0.8413961 1.0633397 0.03309848 -1.1299801 0.27456608 -0.34965473 -0.1951864 0.40623763 -0.4851805 -0.42523488 0.42231703 -0.656735 -0.48397195 -0.31874683 0.8833933 -0.009077184 -0.07363646 -0.48428795 0.050160628 0.22005236 -0.39579394 0.22928154 -0.40618607 -0.6477961 0.2856608 0.33335453 -0.49478418 0.22661018 -0.031482343 0.08224097 -0.37604675 0.10896846 -0.07005033 0.15447913 0.39174697 0.36809325 0.27181032 -0.2159582 -0.04945635 -0.2840527 -0.57349586 -0.25577366 0.35523403 -0.01198932 0.29729587 -0.26323316 -0.5601353 0.3058599 0.38408157 -0.28792977 0.0720212 0.40935433 0.20698698 -0.08020297 -0.36749098 -0.348773 0.514591 -0.16268015 0.5073499 0.3909034 0.6092234 -0.017479226
871 -0.42920223 0.45712984 -0.38651967 0.8761157 0.22669193 -0.93127424 0.39740103 -0.3439913 -0.2504797 0.42128113 -0.13473393 -0.38901338 0.28294915 -1.1244111 -0.48665586 -0.29427427 0.90771693 -0.1913092 -0.099927165 -0.3477531 0.26631883 0.2106623 0.009875739 0.009940592 -0.48940626 -0.44744357 -0.18473598 0.52932566 -0.4564175 -0.17448924 0.02506719 0.17221119 -0.26304108 -0.31982538 -0.38870654 0.3683811 0.4771327 0.033763487 0.20420192 0.11238647 0.11891019 -0.24581718 -0.13904335 -0.04774976 0.6103746 -0.09514416 0.21968538 -0.5874127 -0.32699734 0.30224082 0.35472023 -0.10233466 -0.3595559 0.5429246 -0.404926 -0.16961879 -0.32461962 -0.28245997 0.2319056 -0.4019472 0.52759683 0.57383245 0.416189 -0.07647988
199 0.067602746 0.79312056 0.19873601 0.24059951 -0.49851152 -0.48763043 0.49683017 0.4066142 -0.15618327 0.24559298 0.45637035 1.2518964 0.12620194 0.4339033 0.45263574 -0.2436174 0.055031225 0.74603474 0.34653962 -0.75390416 0.34993383 -0.14235611 -0.32822978 0.04160795 0.20210502 0.3229795 -0.74875426 0.86423683 -0.25773734 -0.58182526 0.55422074 0.15876329 0.10307868 0.38053966 -0.2109044 0.61479366 -0.18519466 -0.015170313 0.13193911 -0.4686701 -0.059834428 -0.06426463 -0.41831446 -0.30383366 0.36596182 0.04969671 0.25394583 -0.29692832 0.11330014 0.23020834 -0.34566867 -0.2749589 0.69691855 -0.23317285 -0.47484782 0.22406667 -0.33089092 -0.331844 0.21519122 0.7372281 -0.15804526 -0.41953376 0.15165006 -0.4270442
647 0.11824666 0.7029561 -0.12064808 0.47339523 -0.29125684 -0.109058425 0.13453233 1.0419765 -0.36002666 0.5183932 0.13394906 0.9043938 0.68411934 0.57358634 0.8238776 -0.17234276 0.10765064 0.34597117 0.37044808 -0.37614298 -0.120586134 -0.12490796 -0.09087997 0.33254555 -0.22442883 0.18074107 -0.33896756 0.54233813 -0.038135383 -0.48105183 0.18424542 0.56555384 0.050653953 0.10505401 -0.55256844 0.5461411 -0.27309895 -0.36928916 0.5465634 0.064016595 -0.18835331 -0.16445701 -0.5856788 -0.39313754 0.1502501 -0.114813775 0.18848322 -0.07808837 0.2792227 0.43175775 0.12795928 -0.30526498 0.872616 -0.31527957 -0.3669417 0.46768764 -0.25119922 -0.26774037 0.6634199 0.511921 0.4248832 -0.37416792 -0.046246704 -0.44259855
92 -0.19026308 1.0548985 -0.411457 1.7043172 -0.38438666 -0.91803855 0.57101566 -0.24273483 -0.61287385 0.46732306 -0.20871238 0.22777925 0.2772466 -0.60405797 0.32236898 -0.14873725 0.2555398 0.21252581 0.43896693 -0.39633983 0.6091752 0.22454453 -0.46730894 -0.08730507 -0.30652487 0.37186447 -0.33952418 0.8838765 -0.6497869 -0.18170881 0.15761945 0.6157806 0.34058073 -0.2698907 -1.0946892 0.6338619 0.16501719 -0.24183218 0.5123226 0.04725179 -0.39732155 -0.58566064 -1.1537466 -0.2596741 0.26474488 -0.18386984 0.15656899 -0.3406227 -0.22084448 0.41464514 -0.43245062 0.22195937 0.5908808 0.50860506 -0.5338655 0.017701205 -0.114635274 -0.71336645 0.32127354 -0.4382238 -0.008222205 0.12233366 0.12941854 -0.43153188
691 -0.17056778 1.0281011 -0.42182574 1.7339413 -0.35093436 -0.9324866 0.56678444 -0.28194022 -0.64565384 0.49050677 -0.22015224 0.22045238 0.28977007 -0.5989179 0.2918649 -0.12718894 0.24882783 0.19493102 0.45887288 -0.44114998 0.619175 0.20175783 -0.4877815 -0.08646143 -0.34876713 0.368694 -0.3214993 0.9116788 -0.64189947 -0.18166584 0.1708507 0.665818 0.34738696 -0.23867549 -1.0975969 0.59516454 0.16905126 -0.22582923 0.4975982 0.039498143 -0.3941116 -0.5799709 -1.1407057 -0.25408524 0.29618776 -0.18691023 0.1820835 -0.34879944 -0.21616638 0.43381986 -0.47671202 0.24386956 0.57499087 0.5031888 -0.5576729 -0.0031883838 -0.1059515 -0.7263148 0.32721496 -0.4489303 -0.029591264 0.099407636 0.11407999 -0.42381948
80 0.9121392 0.4245043 0.009741855 1.172761 -0.18451802 -0.37986663 0.3042805 -0.060392097 -0.06288175 0.81535417 -0.29277125 0.37395513 0.3011603 -0.71738815 0.397755 -0.69792396 -0.66933733 0.66560805 -0.008912802 -0.604345 0.5340896 0.58664924 -0.64150167 -0.54826176 -0.57215804 0.088998385 -0.059549674 0.5622356 -0.46403897 0.22801399 0.017910665 0.74675614 -0.38754678 0.12762752 -0.617557 0.110621296 0.36798266 -0.09344296 0.2994849 -0.15053204 -1.1581547 -0.9208629 -1.1474245 0.23540936 -0.33937842 -0.25098002 -0.8458824 -0.74443084 -0.05553553 -0.045364734 0.008782306 -0.55346346 0.54779935 0.49063718 0.52535564 -0.5217944 -0.13483064 -0.15092327 -0.7940929 -0.759848 0.15615487 0.11037558 0.16718334 -0.34219596
464 0.73304665 0.27960914 -0.032815315 1.0047507 -0.045745056 -0.3384004 0.1039148 -0.08310157 -0.05689158 0.8905642 -0.1919024 0.41631895 0.0076049757 -0.78796655 0.17940778 -1.0814801 -0.47583035 0.67991436 0.03756777 -0.4046364 0.4518632 0.55252904 -0.45258406 -0.453038 -0.34441644 0.07704896 0.29414472 0.56338805 -0.46548924 0.27498382 0.013684369 0.80460835 -0.1453214 -0.28284883 -0.5427808 -0.046365794 0.3023465 -0.32823426 0.21849065 -0.3323763 -0.91311914 -0.72548735 -0.89562637 0.6914896 -0.10928192 -0.115646906 -0.28662267 -0.4396406 -0.059766773 -0.44058615 -0.008341638 -0.64760274 0.84681916 0.23139496 0.29259866 -0.20519483 0.19958776 0.11392969 -0.8181826 -0.4736668 -0.1893231 0.24183479 -0.19996089 -0.37032673
280 -0.37194964 0.89577335 -0.2754462 0.6568973 -0.030728152 -0.48249203 -0.23891014 -0.40254572 -0.12629312 0.2815201 -0.56357765 -0.34322134 0.22557494 -0.7910727 -0.26333106 -0.16246802 0.24808955 -0.038394354 0.30521613 -0.34343982 -0.061964557 0.0669046 -0.10019191 -0.18653372 -0.014602297 -0.06903419 -0.41535386 0.23281352 -0.32751527 -0.3712089 0.07909913 -0.06685007 -0.30779877 -0.127961 -0.12403576 -0.027198844 0.3309404 -0.23003675 0.5167341 -0.10106964 0.43247685 -0.31281355 -0.38420233 -0.035125904 0.36079612 -0.21400239 0.40184918 -0.29775757 -0.64682025 0.6013323 0.2488077 0.12232212 -0.39480454 0.53197616 -0.34007207 0.04724154 -0.11300554 -0.18413062 0.27044028 -0.061132453 0.047793955 0.512753 0.8910179 -0.4900372
650 -0.5950716 0.65459776 -0.42902192 0.7360907 -0.13841379 -0.51003504 0.31192893 0.10975929 -0.12689047 0.36004362 -0.08229924 -0.5465606 0.51978743 -0.71747285 -0.6153836 0.001335076 0.4077677 0.21175796 0.15414417 -0.33424154 0.12274245 0.26924098 -0.21477467 0.2501771 -0.4102602 -0.40409186 0.0073730946 0.43279314 -0.51209813 -0.17307971 -0.23190884 0.040620334 -0.27832586 -0.35153008 -0.0977045 0.023661658 -0.12844405 0.38631922 0.28628892 -0.15741567 -0.17720415 -0.41375837 -0.45529535 0.30193865 0.030508433 -0.052734304 0.35868087 -0.33221996 -0.17271125 0.6122434 0.47835293 0.10896707 -0.30969045 0.30175346 0.14603582 -0.4916276 -0.26731902 0.023237377 0.7949589 0.0054506073 0.12596864 0.57732254 0.39126998 0.031769324
651 0.10756683 0.58155316 -0.3328337 0.12603626 -0.065044455 -0.5767552 0.09503028 -0.20251463 -0.02910832 0.0073387004 0.28111923 0.47905448 0.34710726 0.47461078 0.6644795 -0.2828997 0.3191599 0.45708185 0.31724057 0.71465755 0.007595896 0.4699623 0.31579778 0.13009389 -0.10319877 -0.2198103 -0.053369112 0.5143403 -0.20375402 -0.67662406 0.10983352 0.35824326 -0.27235737 0.19448042 -0.66421723 0.32580408 -0.22217254 -0.26613137 0.11030366 -0.30363876 0.36129376 -0.42146933 -0.24359858 -0.23040137 0.7529853 -0.17865667 -0.17650448 0.07581047 -0.20084143 1.12066 -0.33078906 0.08500364 0.28821555 -0.754142 0.15085873 -0.2129655 -0.3404262 0.0657557 0.56570274 -0.020903736 -0.45078468 -0.71709085 -0.330115 -0.19208805
206 -0.27635694 1.85097 -0.3502089 2.8305159 -1.0108305 -1.2216461 0.11033061 -0.011091722 -0.8644237 0.019325946 -0.61866635 -0.28000638 0.9544462 -0.76495755 0.62386954 0.21844922 0.8055522 0.42580065 -0.041312754 -0.82759374 0.55343735 0.26651716 0.022959985 0.24187407 -1.0072905 0.9671778 -0.7759818 0.45067418 -0.084231876 0.24814917 0.6241308 0.008645742 0.66518587 0.8420155 -2.079636 1.9153707 0.593013 0.24200922 1.0300485 -0.3772533 0.057423003 0.35577363 -0.73964435 -0.4629918 0.33154905 0.62821114 -0.5988008 -0.4582463 0.5145004 0.64843845 -0.23300387 -0.06849168 0.4475893 1.0201348 -0.19883884 -0.7166876 0.2052746 -1.157147 0.23102726 0.1685467 0.6829644 -0.42654812 -0.16878076 -0.24712618
415 -0.263577 1.8176324 -0.33093902 2.8563883 -1.0205169 -1.2445563 0.016571889 -0.015709212 -0.8942563 0.00566153 -0.5868862 -0.2962855 0.9477948 -0.79493773 0.610709 0.25467473 0.80575496 0.45119032 -0.10111328 -0.8425205 0.52392036 0.20321605 0.02992579 0.25058848 -1.0435236 0.9886816 -0.77448094 0.3408489 -0.014871454 0.25827536 0.61928415 0.00074720115 0.7097688 0.94058275 -2.0909646 1.9084389 0.61700124 0.27345708 1.0290675 -0.40332112 0.02552009 0.41493666 -0.7241695 -0.4972266 0.32926378 0.6898501 -0.63110745 -0.44329515 0.5505615 0.6431308 -0.2863242 -0.09413211 0.44645736 1.0603002 -0.21808836 -0.7282601 0.24681595 -1.1897707 0.19369823 0.16112341 0.6787693 -0.40157202 -0.19725125 -0.23183544
164 -0.048354935 0.65024465 -0.503996 -0.38576385 -0.1946913 -0.39969003 0.15357392 -0.053153787 -0.24429049 -0.25496906 0.4899288 0.012301376 0.18975165 -0.058516383 0.20315377 -0.30617255 -0.13036124 0.4239439 0.24613251 0.7178656 0.18202609 0.54311806 0.3195245 -0.3940459 0.16679914 -0.31616285 -0.1781423 0.8353905 0.19478989 -0.56990343 0.08963029 0.3126647 0.024803892 -0.28751135 -0.65605736 0.4410633 -0.18855122 -0.26871032 0.110227555 0.026122345 0.4805737 -0.7072852 -0.2956838 -0.0790199 0.26562783 -0.51598394 0.161854 -0.45996106 -0.41033998 1.2922345 -0.48080704 -0.3087632 0.3240995 -0.34227878 0.071287416 -0.84366924 -0.25577375 -0.23087029 0.3338123 0.1727921 -0.21926649 -0.25977078 -0.51443386 -0.32874128
438 -0.12315663 0.60987955 -0.37927186 -0.4305628 0.0039317044 -0.48995826 0.13832906 0.08673281 -0.3458423 -0.42596322 0.6885719 -0.16968925 0.3708827 -0.037037544 -0.048795763 -0.49265674 -0.2554514 0.41954204 0.18867764 0.5055173 0.48365325 0.09749598 -0.18981841 -0.34757176 0.19275796 -0.036052834 -0.09609217 0.6510176 -0.2906523 -0.4691732 -0.26569137 0.40439203 -0.008947283 -0.07563263 -0.4771622 0.30702224 0.15095614 -0.6068617 0.31115738 -0.3558091 0.1364153 -0.5648882 0.0110596 -0.2289255 0.14726184 -0.60847557 0.014620826 -0.20426989 -0.28639257 1.0521936 -0.04815331 -0.16346256 0.046047263 -0.5615808 -0.27098665 -0.7103543 -0.47136748 -0.5753715 0.3305923 -0.10678108 0.117412016 -0.17961136 0.1902482 0.12242818
364 -0.43668956 -0.09534224 -0.35808173 0.850101 -0.38610092 -0.8921254 -0.027137516 0.064102486 -0.39792553 0.2814518 -0.15030144 0.33814314 0.040584885 -0.3703819 0.3327172 -0.57249635 -0.14728744 0.088909596 0.91934204 0.7025765 0.6193793 0.08172581 -0.29277417 -0.4179933 0.29010475 0.43556473 -0.34094298 0.43070653 -0.3127456 0.87011397 0.7324198 -0.016446793 0.40929776 0.04017978 -0.5680288 0.8829205 -0.26626742 -0.38109952 0.17460038 0.053702448 -0.23336877 -0.1199197 -0.5795028 -0.27062398 0.45012742 0.21460086 0.16458733 -0.20100167 0.46155426 0.62517625 -0.37336764 0.09879766 0.22838847 -0.34671777 0.2607623 0.07950478 -0.62565184 -0.45519423 0.078268714 0.18481334 -0.15585485 -0.02165438 -0.40970424 -0.010470424
663 -0.37347254 0.15379186 -0.22457376 0.8278781 -0.53768057 -1.0035301 -0.10705954 0.123623006 -0.26904553 0.15789627 -0.023268212 0.20668952 0.06465832 -0.19318986 0.37713578 -0.4397571 -0.008323829 0.11118904 0.8492078 0.6580831 0.56895274 0.1436986 -0.23026673 -0.18467982 0.067320906 0.36547995 -0.43714568 0.359514 -0.17682214 0.854153 0.7024365 0.04067622 0.18474111 0.3922939 -0.6643831 0.96580684 -0.11544576 0.002651288 0.2903132 0.19566315 -0.24354973 -0.37607253 -0.72006583 -0.1960616 0.60685 0.1727897 -0.30957296 -0.16630726 0.43317848 0.65344614 -0.41366732 0.17553842 0.25907987 -0.46137658 0.3589147 0.09019124 -0.632234 -0.5693037 0.08604101 -0.15571278 0.08256556 0.09858722 -0.5415996 -0.17002703
384 -0.26802248 2.1738918 0.25192112 2.1547325 -0.11123872 -0.11558067 1.0153415 -0.74548656 -0.018476987 0.28272462 0.027969364 0.010256352 -0.059724566 -0.37917346 -0.4369219 0.13439621 0.64157724 0.9381029 0.3928948 0.16727562 0.7427771 0.49657893 -0.04114304 -0.06477392 -0.42984506 0.44084886 -0.5681065 0.41502717 -0.31221643 0.8513441 -0.004723076 0.4393172 0.26929834 0.27199107 -0.75425804 0.9583881 -0.2153404 0.43785453 0.30094486 0.26908487 -0.4753164 0.15264197 -1.7937703 -0.6248036 0.5904302 -0.18678561 0.23095046 -0.22492546 0.5737108 0.65663475 -0.7470154 0.6891851 0.34868693 0.042787448 -0.19808666 0.30033216 0.48947173 -0.93734396 0.29004574 -1.0076755 0.5569357 -0.77827454 0.30956456 0.06485622
572 -0.2160337 2.1346178 0.26574132 2.1119363 -0.18677387 -0.06022065 1.0466428 -0.79702747 -0.08742815 0.17866217 0.0237101 0.1857293 -0.10803091 -0.39260215 -0.54405147 0.2186393 0.5119519 0.9716885 0.5125916 0.1791305 0.9275597 0.48308653 -0.122335635 -0.19335414 -0.77105105 0.30964473 -0.66914743 0.46497473 -0.26659954 0.9058959 0.025325691 0.49120113 0.20120035 0.17883073 -0.76078004 0.96884876 -0.18231185 0.3271893 0.1546157 0.15973453 -0.49565756 0.1105596 -1.917406 -0.7147935 0.52720463 -0.19647297 0.1418692 -0.18106811 0.57176423 0.57158774 -0.79257166 0.6851381 0.33378866 0.090089574 -0.10238749 0.28374344 0.38071355 -0.9620421 0.19440971 -1.0738447 0.6529466 -0.65975654 0.48994702 -0.013891936
124 0.19326301 0.21794973 0.03828712 0.11919445 0.23039421 -0.55583906 0.04928568 -0.12576245 0.20462263 0.4628411 0.46922812 0.43532455 -0.26594394 -0.2945923 -0.07515559 -0.26325023 -0.059584484 0.46999773 0.2117408 0.022226127 0.37394646 0.11776838 -0.19726911 0.20477036 0.36911434 0.19557814 0.103008255 0.41997766 -0.5768423 -0.03824061 0.21797189 0.7529398 0.36864075 -0.23909701 -0.31250283 -0.12012304 0.05655489 -0.2721204 0.31309304 -0.61426884 -0.2529298 -0.011678408 -0.7758363 0.20882659 0.5194404 0.14696303 0.14752333 -0.06932586 0.012286709 0.06392814 -0.54710513 -0.058014467 0.39895418 0.35454646 -0.18614051 0.010215482 0.43165997 -0.22165044 -0.10153798 -0.2566681 -0.21474695 0.27126375 -0.714326 -0.17612185
714 -0.2903236 -0.07633157 -0.21504997 0.48256278 0.2589785 -0.6013319 0.43102372 -0.40428007 -0.4055351 0.1518324 0.5532846 0.17543675 -0.48437873 0.11656789 -0.14066133 -0.53920686 -0.011737892 0.21183054 0.38022098 0.058267806 -0.18873021 -0.18844447 -0.3107117 -0.42258283 0.25583717 0.30742416 0.4017333 0.22327198 -0.59838265 -0.05629335 0.08825675 0.46168303 -0.18493615 -0.12224671 -0.24613054 -0.07827571 0.4094165 -0.3557969 0.37267822 -0.18257453 -0.88009757 0.2531465 -1.0096394 0.028721139 0.6036939 0.1883819 0.45621803 0.17062971 0.030588819 0.20312187 -0.7941771 0.006593552 0.688297 0.2501629 -0.7778244 0.029177502 0.31699967 -0.23932862 -0.033079933 -0.010922213 -0.1770899 0.44722518 -0.7227315 -0.16765606
362 0.011090819 0.6362355 -0.061960902 0.6486133 -0.28270164 -0.33404365 0.60649955 -0.37783283 -0.06071337 -0.46092075 -0.4692217 -0.10770066 0.6051081 -0.020062381 0.17119284 0.3331901 0.06593203 0.37644613 0.0048985234 -0.2277436 -0.0019938806 -0.11186877 0.017154813 0.37213096 0.051849548 -0.11512904 0.0554988 0.13657098 -0.86457604 0.050084256 0.04041788 -0.20852289 -0.023336317 -0.51254046 -0.7607575 0.06883624 -0.11176341 -0.05615722 0.4551556 0.14059956 -0.06880804 -0.9060793 -0.3287613 0.112124026 -0.09405219 -0.4239311 0.47942993 -0.28169996 0.022252616 -0.11606145 0.12517756 0.05705144 0.07013958 0.040376354 0.0016070419 0.25777227 -0.29240364 -0.15937735 0.5820402 -0.07356659 -0.31728458 -0.081298314 -0.3109065 -0.40188015
648 -0.10154911 0.49864152 -0.042684823 0.23028815 -0.42796406 -0.4110831 0.45596898 -0.27634463 -0.1019418 -0.058708206 -0.16365796 -0.5626946 0.63215274 0.3418275 0.18549114 0.3604829 -0.29082465 0.39532176 -0.21905743 -0.06915255 0.2718692 -0.102556035 0.53811574 0.21659853 0.26605815 0.29909864 -0.2664448 0.5218829 -0.5666229 0.24453259 0.16519587 -0.32327056 -0.15182392 -0.6340519 -0.83344793 -0.21961732 0.044451296 -0.36937666 0.2828312 0.02210082 -0.20081751 -0.13366194 -0.19209886 -0.14452401 -0.036435608 -0.28576025 0.44956386 -0.22768097 0.24066521 0.1399461 -0.09979709 0.16896853 0.22659367 -0.022508007 0.17690848 -0.03516056 -0.29686108 0.16939875 0.778786 -0.4793609 -0.27665597 0.12392601 -0.045511086 -0.0143800005
237 -0.46562076 0.4484131 -0.27903923 0.9181163 -0.2793533 -0.40121865 -0.46367607 0.17457427 -0.32944563 0.37277517 -0.13849343 -0.63688713 0.5487327 -0.7183914 -0.23703744 -0.45002073 0.5919908 0.49662054 0.019235743 -0.27517626 0.21569699 -0.089870006 -0.37066466 -0.113499425 0.416627 -0.3240871 0.04864161 0.49137387 -0.67009854 -0.15564466 0.06953526 0.052551802 -0.44513452 -0.5114128 -0.1663613 0.3377047 0.28080067 0.1274937 0.09288035 0.21262236 -0.29036635 0.006263112 -0.33489078 0.08105156 0.47990024 -0.05957477 -0.43635863 -0.6287211 -0.30070886 0.63685215 0.77931654 -0.07892915 -0.5197512 0.26418856 -0.29039446 -0.30968124 0.17542695 0.3745917 1.1773312 0.21977712 -0.18799368 -0.0411071 0.21890514 -0.28268638
750 -0.33265784 0.4147875 -0.2594012 0.94593394 -0.06356881 -0.62761873 -0.055313867 0.0006705042 -0.095000215 0.47307715 -0.2155802 -0.2799927 0.7151642 -0.7007474 -0.37501428 -0.46049348 0.65085226 0.09057726 -0.089313015 -0.34905863 -0.10956617 -0.07746052 -0.33184487 0.022866895 0.1759967 0.17591286 -0.54819757 0.62545943 -0.24178039 -0.21890706 -0.11595765 -0.24415861 -0.34771287 -0.18062517 -0.28940284 0.17229944 0.43863577 0.2730995 0.25986665 -0.11598786 0.098556645 -0.6198723 -0.16998927 0.22263005 0.43387848 -0.09922219 0.09430622 -0.16018859 -0.39603186 0.79520893 0.9033548 0.15337996 -0.36965454 0.27803987 -0.55411005 -0.057192132 0.29703128 0.24031997 0.7191283 0.004388906 -0.2739098 0.07927849 0.25912014 -0.17940255
343 0.042504646 0.35284427 -0.20861624 0.5548324 0.042733584 -0.63893354 1.3402556 -0.076262385 -0.04869484 1.0125237 -0.39096177 0.42040837 -0.123143174 -0.4497543 0.77188355 -0.3652717 -0.3965513 0.29345492 1.3823096 0.21171187 0.1818882 0.22569276 -0.2294461 -0.21159905 -0.18797293 0.10946644 0.23151407 0.45659384 0.43099427 -0.4702416 0.098537505 0.6777861 0.45837942 0.12872973 -0.11441495 0.6383892 0.08771764 -0.54717124 -0.12808943 -0.78487176 -0.09278028 -0.15923056 -0.9468585 -0.46731243 0.5028868 0.59970033 -0.31622308 -0.034054063 -0.3266265 -0.014961486 -0.6760092 -0.011864811 0.8670207 0.2472932 -0.7162085 0.2652467 -0.039131816 -0.38419908 0.6622104 -0.033880834 -0.43731174 0.5096563 -0.76104176 -1.2181025
1066 0.30019614 0.34498206 -0.1579677 0.34977922 0.021031527 -0.43569863 1.3571066 -0.030914776 0.10883519 0.9129385 -0.32183403 0.29963657 0.09225402 -0.25447243 0.6695133 -0.31432784 -0.49844167 0.1420415 1.452326 0.014766196 0.14545694 0.20149422 -0.2013192 -0.19719073 -0.063831896 0.18556143 0.07492874 0.4112911 0.47575012 -0.44128814 0.106708124 0.5976781 0.25737914 -0.026609441 -0.045599855 0.46550193 0.030275334 -0.5712132 0.0024083888 -0.7185782 -0.23044743 -0.1502551 -0.8229116 -0.3931743 0.2943055 0.63336736 -0.20805386 -0.23693046 -0.49049202 -0.04057181 -0.657573 -0.059824403 0.7280923 0.17900215 -0.6871122 0.27171153 -0.0083880825 -0.36659667 0.73574114 -0.14604034 -0.21921086 0.529876 -0.97676414 -0.9861469
183 0.029297434 0.8146792 -0.31239253 0.47810802 0.14597616 -0.38661352 0.47681612 -0.28491417 -0.58418113 -0.3843547 0.10079765 -0.06318388 0.45354015 -0.5809998 0.0697917 0.47368768 0.013393247 0.3821741 0.40455517 -0.9213894 -0.27270418 -0.10216899 -0.13403998 0.55981004 0.16869053 0.13007325 -0.30290312 0.4925626 -0.59435254 0.12686317 -0.09912757 -0.17551887 0.09991996 0.10039472 -0.6121714 0.081195846 -0.24333717 -0.28019118 0.5297454 -0.015996793 -0.15615544 -0.17766845 -0.23501912 0.4863945 0.17104255 -0.30030558 0.2292945 0.07761941 -0.33892512 -0.1566847 -0.22668043 0.29698423 -0.0034659486 0.222337 0.28195664 0.18961063 -0.022312945 -0.09137118 -0.013343229 -0.4162659 -0.92904437 0.044464722 -0.2039934 -0.008678744
634 -0.06674201 0.58676314 -0.3996694 0.17777714 -0.5552025 -0.3653301 0.0047592446 -0.22934763 -0.40740392 0.24542527 -0.10444364 0.18440008 0.2353697 -0.62590486 0.49826208 0.44771 0.274103 0.5134419 0.22075969 -0.7223881 -0.29211065 -0.08486148 0.35347942 0.42801034 0.3176933 0.29212683 0.009362567 0.3221096 -0.39826578 0.18669136 -0.010064227 0.33748382 -0.36526495 -0.52502805 -0.28612545 0.51031137 -0.34841236 -0.488591 0.36696416 0.21756673 0.01626456 -0.28729102 0.18505712 0.42886594 0.41682422 -0.30945566 0.59950024 0.061646346 0.04898836 -0.2142633 -0.23900472 -0.19387302 0.29613474 0.08469217 0.3787308 -0.41164818 -0.22028124 -0.042399507 0.33134183 -0.6436229 -0.85981303 0.14699543 -0.05285592 0.4164264
201 -0.23663895 0.1903683 0.25127608 0.7423126 -0.4164924 -0.1626315 0.087384105 0.44075695 0.20542313 0.4787067 0.2033113 1.0338067 -0.04073238 0.12898092 0.47935146 -0.40394384 0.33033597 0.3066353 0.7806636 -0.3678206 0.6520954 0.45642167 -0.57194793 -0.72992307 0.08705425 0.6989889 -0.34783518 1.2331533 -0.60899925 -0.09835684 -0.1433294 -0.17468096 0.17987907 0.020650575 -0.62128943 0.77665496 0.13906 -0.26859865 0.3667228 -0.8261345 -0.49520496 -0.5499946 -0.23773003 -0.2266152 0.52832043 0.31649843 0.80041105 -0.5519069 0.10655187 -0.18904456 -0.1377715 0.1083102 0.91243356 -0.06595075 0.098746985 0.20497411 -1.113529 -0.65426373 -0.0136533445 -0.039107583 0.41393033 -0.07970703 0.043352738 -0.62227947
961 -0.30791113 0.25756952 0.3044606 0.5763594 -0.42189762 -0.04085872 -0.008353428 0.3599612 0.17067601 0.4236987 0.118311286 0.89106315 -0.2549212 0.22920059 0.45578507 -0.32378367 0.15309407 0.47051308 0.7555694 -0.47226343 0.5102028 0.4955548 -0.48406112 -0.46815372 0.11878031 0.5045038 -0.44939747 1.0820769 -0.6035606 -0.3307514 -0.008338175 -0.31001908 0.38087016 0.33208537 -0.6567627 0.74772865 0.0948647 -0.1256682 0.028031558 -0.8251544 -0.34270155 -0.3737691 -0.465889 -0.22908813 0.75469613 0.04994964 0.7547913 -0.68507034 0.3172014 -0.0682589 -0.08929406 -0.03064585 0.83117074 -0.27048555 0.12487262 -0.042117283 -0.92521477 -0.7499807 -0.26849514 -0.07153653 0.16297816 -0.1448772 0.18055378 -0.79085666
746 -0.2257945 0.3648884 -0.18637969 1.1075771 -0.50547236 -0.94206154 0.3177499 -0.4020355 0.04990557 -0.1996401 -0.36774778 0.69279003 0.6191632 -0.61189705 -0.27889726 0.08769641 0.008686655 -0.58196944 0.40560752 -0.44023433 0.2537864 0.20296885 -0.15584753 -0.32249558 0.046754852 0.33776286 -0.12222126 0.56424206 -0.44080338 -0.06835876 -0.17175637 -0.671611 -0.55010563 -0.8567628 -0.045762815 -0.050039474 0.16402903 -0.15820624 0.66027707 0.0040551373 0.5865759 -0.0052072555 -0.20111056 0.11058886 -0.010264589 -0.37552366 0.032989774 -0.09866511 -1.0146227 0.16500089 0.32151142 0.32519007 -0.113496765 0.7853932 -0.5176023 -0.22564639 -0.5096878 -0.25101715 0.6924854 -0.29974437 -0.4795286 -0.017374419 0.30340272 -0.62838286
1070 0.104627036 0.6904393 0.05110254 0.4984936 -0.38986936 -0.33532178 0.42853025 -0.305529 -0.120247915 -0.5640535 -0.265471 -0.4721366 0.6264779 -0.1224675 0.15688106 0.24405788 0.031235669 0.41171318 -0.087602764 -0.38600138 0.06530149 -0.1523782 0.0021018013 0.1553773 0.115554556 0.05217357 -0.18584444 0.41902974 -0.9688896 0.054619566 0.06248824 -0.40196988 0.0075410604 -0.40013602 -0.96864504 0.06821853 0.24083455 -0.18627684 0.267098 0.12765929 -0.08710686 -0.86647993 -0.13424069 0.042376965 -0.1016584 -0.28789273 0.28941825 -0.33904764 -0.24724473 -0.08264498 -0.11445805 0.17001915 0.0991178 0.01629889 -0.12632857 0.44381768 -0.15511574 -0.11539358 0.49525207 -0.2673353 -0.17720583 0.02999023 -0.39601132 -0.38073954
244 -0.5343458 0.74876565 -0.46616873 0.47638437 -0.06009986 -0.047754362 0.521816 -0.11748721 0.13557705 0.23874462 0.15686005 0.33876377 0.55124724 -0.27039063 -0.27246204 -0.8093202 -0.4143613 0.13846603 0.03814733 -0.28751403 0.21946456 0.9514238 -0.15680969 -0.16785376 0.9057148 -0.5006232 0.4106304 0.20329534 -0.8739764 -0.1575013 0.0029146606 0.2581138 0.2823978 0.09762974 -0.6959475 -0.07052788 -0.2213517 -0.081301555 0.04377127 -0.14883928 -1.1545643 -0.6610405 0.03600208 -0.7403175 -0.20864666 -0.58002365 0.45168075 0.22493993 -0.5212151 0.5791044 -0.6288703 0.47130427 0.08772459 -0.33668688 0.028402824 -0.11715114 -0.34938353 0.002253189 0.24434085 -0.44083226 -0.34240112 0.6317826 0.60336137 0.5732653
937 -0.55861425 0.9063505 -0.6107931 0.3593568 0.045360938 -0.1677124 0.4512288 0.14623332 0.14466847 0.2531068 0.12046822 0.3940513 0.455981 -0.3591438 -0.31035647 -0.5880844 -0.56613564 0.15400842 0.24976192 -0.20481902 0.345142 0.9413732 -0.39411333 0.059944935 0.78234667 -0.4222328 0.31950104 0.31038776 -0.88593996 -0.13158588 -0.03165484 0.39814305 0.3012423 0.23753692 -1.0331146 -0.2388664 -0.11811652 -0.1590806 -0.18485637 0.09957207 -1.0567544 -0.7589282 0.012830577 -0.6283418 0.099951304 -0.7417605 0.6777072 0.38244805 -0.47508985 0.6743346 -0.53059095 0.60857755 0.08243389 -0.23333225 -0.2545364 -0.10464755 -0.60620797 -0.033429045 0.24734779 -0.42864156 -0.30235395 0.53925276 0.6831847 0.64143026
459 -0.3132862 0.55733746 -0.027277216 0.5417769 -0.46212247 -0.120764256 0.75247204 0.43037397 -0.6607702 0.34447172 -0.2919062 -0.16149884 -0.11082305 -0.23274644 0.4476029 0.3388929 -0.79926187 0.7049498 0.07570615 0.3918163 -0.16836455 -0.2670782 0.035710063 0.09396134 -0.27544588 -0.1746081 0.030306004 1.040688 -0.098726735 0.05095586 0.38230973 0.05858349 0.110092536 -0.10034645 0.016537882 0.32762906 0.21296002 0.24986489 0.67669207 0.13317542 -0.04403155 -0.3920283 -0.7487565 -0.92584175 -0.21157433 -0.21295813 0.24269956 -1.0247777 -0.16720384 0.33174777 -0.24524157 0.025410954 0.37996647 -0.4723282 -0.12528925 -0.15657377 0.2023356 -0.06389065 0.18392903 0.12604633 -0.5200639 0.3745136 -1.1127391 0.14456794
613 -0.018586945 0.13188623 0.02390292 -0.12804216 0.059616003 -0.5246307 0.33459637 -0.2512899 -0.048788242 0.98193306 0.35106003 0.1543735 -0.5447388 -0.7348201 -0.056874007 -0.44782874 -0.048386425 0.27711025 0.061069176 -0.076698765 0.41933286 0.09353947 0.099859685 0.022150418 0.32735464 0.07495416 -0.2091606 0.41462907 -0.21970358 -0.21589525 -0.006612579 0.63866717 0.23835938 -0.0053629763 -0.5974336 -0.32518455 0.31162915 -0.36239135 0.42623818 -0.15744118 -0.2482045 -0.34069014 -1.0218447 0.15078034 0.02842445 -0.025795298 -0.14560388 0.11400387 -0.1433579 -0.08785996 -0.5744983 -0.31046635 0.67123425 0.019903226 -0.34019998 -0.11082931 0.3661496 -0.41439947 -0.05246386 -0.38588992 -0.24551018 0.1629021 -0.644686 -0.25073507
836 -0.43566763 0.5685384 0.16852756 0.87390345 0.37841037 -0.8414584 0.36614224 0.33503896 -0.4425853 0.36837977 0.15832965 0.064587966 -0.33041438 -0.073706895 0.6060417 -0.37449178 -0.6814923 1.1745808 0.35623413 0.27993506 0.78846776 0.41367579 -0.20656815 0.02183242 0.073583655 0.4138387 -0.4395297 0.49925303 -0.51545465 -0.16756809 -0.8003897 0.29321092 0.5570898 -0.8674923 -0.029298281 0.7021047 -0.13975914 -0.3622929 0.97593623 0.563757 -0.86137533 -0.56984615 -0.10636642 -0.33784056 0.20190674 -0.18066509 0.6995114 -0.7070951 -0.14236306 -0.11855218 0.44822925 -0.9517126 0.49465796 0.21834606 -0.035884723 0.52895087 -0.5061217 0.1615705 -0.025415113 0.10479471 0.21728146 0.01674527 -0.3340105 0.21781933
862 -0.5918784 0.44865134 -0.5516366 1.1274053 -0.17143518 -0.69028556 -0.09873119 -0.1588131 -0.2906272 0.32280186 -0.13072546 -0.44026363 0.7082262 -0.84284604 -0.595046 -0.11569368 0.39717528 0.1702902 -0.10736259 -0.53255564 0.020767365 0.06737062 -0.20513047 -0.6124449 0.18687257 -0.0071002133 -0.28997546 0.13505249 -0.5169023 -0.47210252 -0.0035749755 -0.2788021 -0.47346961 -0.42977846 -0.34017605 0.13758561 0.038390756 0.41905937 0.15998192 -0.14609058 -0.03801285 -0.15106753 -0.44233426 0.12006819 0.22781554 -0.32746142 -0.09387328 -0.49627015 -0.3768835 0.5402366 0.6449547 0.17755325 -0.23006234 0.080088116 -0.10460481 -0.28020853 0.12909321 -0.09509892 0.714686 -0.105049126 -0.27715862 0.11568932 0.3271256 -0.09752699
912 0.12756854 0.6974394 -0.093259506 0.58096445 -0.3810015 -0.27564722 0.64348954 -0.27540785 -0.12060313 -0.39484134 -0.3587858 -0.32950115 0.53192484 0.018079229 0.27003095 0.26030236 0.046593256 0.27251235 -0.16711839 -0.23923251 0.001268443 -0.19931233 -0.083534926 0.3133158 0.004719174 0.29025295 -0.1101363 0.39085397 -1.0571026 -0.0066654114 0.30569795 -0.38825616 0.1631621 -0.28114823 -0.8112324 -0.0909075 0.13484666 -0.029790387 0.20621718 0.20762843 0.075035095 -0.73115945 -0.19747205 0.13962707 -0.04326306 -0.31158936 0.3075738 -0.3968042 -0.08737799 -0.011957523 0.025602283 0.33316267 0.09572309 -0.030982273 -0.034622256 0.32426915 -0.26105106 -0.15954444 0.5726443 -0.32090482 -0.116811715 -0.08696902 -0.36265564 -0.18331277
370 -0.25808668 0.055391334 -0.44314122 0.89567626 -0.5081899 -0.8327661 0.109876975 0.2618369 -0.42326704 0.116471455 -0.12535506 0.4261411 0.2239587 -0.25960594 0.28656498 -0.4609032 -0.09993671 -0.12816063 0.713998 0.7238365 0.713927 0.3562218 -0.18500465 -0.47301322 0.32506028 0.37380105 -0.3755236 0.25863802 -0.12989527 0.8086957 0.6981988 0.2509569 0.20644128 0.19624491 -0.68398815 0.91520727 -0.08075202 -0.33497223 0.20683903 -0.039893582 -0.17411123 -0.3321592 -0.6228685 -0.2684941 0.4642341 -0.023009531 -0.08121444 -0.33903435 0.2899167 0.5352962 -0.1621472 0.038894568 0.20957339 -0.33032775 0.47042593 0.14064486 -0.6963081 -0.47750574 -0.0283289 0.014314939 0.25723192 -0.11483847 -0.4867435 -0.11702988
481 -0.07606867 0.10597534 -0.5585266 0.7568936 -0.4566027 -0.894088 0.07881963 0.19415253 0.11066095 -0.030782621 -0.12723708 0.30212224 0.117147505 -0.038837284 0.57657295 -0.58844644 0.14200826 0.19334008 0.79620606 0.75255805 0.34816465 0.19679715 -0.22375754 -0.56074786 -0.015487498 0.14115453 -0.40317503 0.4674974 -0.46600816 0.5652469 0.7616451 0.13402753 0.3489616 0.39826116 -0.39246914 0.8979557 -0.16556846 -0.2182051 0.18648164 -0.04168132 -0.2020606 -0.08374736 -0.54188335 -0.3303512 0.5784352 -0.13076597 -0.28254405 -0.07097497 -0.0054213717 0.7252727 -0.30199075 0.013559355 0.17739654 -0.3111632 0.27205712 0.19753371 -0.6050231 -0.6108937 0.23892279 0.080084085 0.36458457 -0.046491113 -0.32290372 -0.09339991
147 -0.5233646 0.7901213 -0.4194121 -0.06597227 0.005048172 0.076389454 0.68624985 -0.42285052 0.32426375 -0.10894616 -0.018075934 0.019507412 0.54816544 -0.7163735 0.35387704 0.44862646 0.5401391 0.4971537 0.27733094 -0.29119122 -0.24739127 0.4488417 -0.14854138 0.03802538 0.21363838 -0.14998786 0.37466326 0.51928926 -0.6245248 -0.20675516 -0.08535459 -0.25379226 -0.043395083 -0.2194992 -0.33681467 -0.12086851 0.4941392 0.017090727 0.37952834 -0.06933162 -0.043306846 -0.43191093 -0.20316413 -0.19655155 0.07098115 -0.13221636 0.3155093 -0.23325084 -0.5811907 0.13630588 -0.24153446 0.22814372 -0.07403284 0.46852466 -0.36686742 0.20182687 -0.21815288 0.20029847 0.31237486 -0.10770804 -0.18700102 -0.47413817 -0.14157863 -0.3505591
162 0.20084567 0.4867176 -0.17398244 0.059448384 0.04160069 -0.1238353 1.0719765 0.063201316 -0.097189896 0.85765433 -0.06446304 0.20260403 -0.09039384 -0.1048207 0.61223406 -0.21998863 -0.43513525 0.3462011 1.2369756 -0.06612725 0.25209492 0.116711594 -0.27748138 -0.16831301 0.19497754 0.3518629 0.23259796 0.512635 0.13951111 -0.251152 0.066419296 0.4200782 0.5171234 -0.35294068 0.08917171 0.4153063 0.036865197 -0.3820226 -0.019261062 -0.6419713 -0.28081492 -0.1720042 -0.5935624 -0.027916014 0.3247149 0.3592529 -0.15963985 -0.0859142 -0.3784609 -0.03332595 -0.4523624 0.16757126 0.7343699 0.11383268 -0.5541644 0.22475539 -0.08495973 -0.28723192 0.5829898 0.2785543 -0.49692708 0.13211021 -0.739149 -0.90931517
316 0.21910763 0.26634035 -0.1102068 -0.054525364 -0.06961696 -0.032831673 0.32925963 -0.29562843 -0.026356185 0.17256594 -0.06584242 0.296855 0.51336414 -0.853924 0.18876679 0.010583177 0.12858385 0.0932765 -0.15924688 0.20047672 0.1965261 -0.0056970953 0.008253383 0.14937027 0.6394437 -0.2990185 -0.07803403 0.32995304 -1.0239054 -0.54609364 -0.5656066 0.24562617 -0.2835835 -0.07884232 -0.16099977 -0.142251 0.4548013 0.046265658 0.37979072 -0.31839526 -0.43988547 0.18778291 -0.73094463 0.56979346 0.37235978 0.101649284 0.29022864 -0.10750873 -0.2604358 0.18705307 -0.73605484 0.22448072 0.08349158 0.11460788 -0.17956428 0.45398194 0.06970622 -0.30302894 0.040021785 0.022830162 -0.3998295 0.17568138 -0.2641391 -0.12772101
796 0.05343154 0.6752608 -0.5335133 0.02021614 -0.05812284 -0.23089255 0.28047633 0.14422946 -0.023428578 0.5634194 -0.19914865 0.09427836 0.24433641 -0.45206448 0.18650693 -0.019781023 0.0048631574 0.21147335 -0.060507488 -0.5483099 -0.088612884 0.57425594 -0.9930156 0.39572027 0.43321908 0.22712567 0.25810125 0.03300022 -0.7971731 -0.4135257 -0.026775487 0.3063637 -0.32820338 -0.61720616 -0.10360321 0.19292605 0.3931389 0.47341594 0.28528693 0.2262642 -0.56734914 -0.45404947 -0.04193471 0.5930873 0.17070521 -0.41405332 0.7662238 -0.18074743 -0.31009987 0.07813138 -0.6985426 -0.045240622 -0.23613533 -0.40406454 0.2871004 0.23346144 0.24031657 -0.15663947 0.17451769 -0.16006726 -0.12815808 -0.17978539 -0.15733168 -0.16188744
800 -0.27731785 0.6289174 0.23866804 1.0119584 0.20606165 -0.80878955 0.28008568 0.55337465 -0.2852351 0.20865975 0.1774109 0.21786605 -0.28428975 -0.0044356165 0.5633802 -0.3580086 -0.7379966 1.0984447 0.33059153 0.14808935 0.6141978 0.5416347 -0.12099701 -0.05016844 -0.10832742 0.45453614 -0.49991086 0.40677813 -0.5739675 -0.120527074 -0.6308078 0.02430956 0.46099705 -0.8687243 -0.17335936 0.744535 -0.0031483646 -0.2997027 0.968775 0.48708695 -0.96685207 -0.51986 -0.03708964 -0.61913335 0.18254891 -0.2558661 0.54188955 -0.7336173 0.061473068 -0.13938251 0.35634074 -0.8085502 0.6054782 0.2587424 -0.18412998 0.5597871 -0.587805 0.17418708 -0.21290743 0.0779935 0.12340974 -0.0025639134 -0.2195498 0.21634091
269 0.35564286 0.13201228 0.12495998 0.64990693 0.5232262 -0.40733293 0.3773269 -0.46335998 -0.032692004 0.15398055 0.28838667 0.27961394 -0.5214513 -0.16944534 0.36824924 0.040944293 -0.018919084 0.3351619 -0.05288527 -0.13444431 0.60540485 0.18703693 0.30511203 -0.33957994 0.31940034 0.10253632 0.21724395 0.5505412 -0.82366997 -0.17357084 0.1693851 1.3134048 0.6496237 -0.051142994 -0.64376485 -0.34581837 0.25132358 -0.014718066 0.17723823 -0.6679841 -0.19499935 0.031615805 -1.5825356 -0.37313712 0.5338907 -0.17461947 0.21123922 -0.3030148 -0.6697353 0.5404456 -0.55403644 -0.3268771 0.08056322 0.2804357 -0.28563172 -0.080134355 0.48972136 -0.90274405 -0.36449215 -0.49859822 -0.27488965 0.12399118 -0.47240353 -0.55669385
1055 0.27315217 0.2316326 -0.1021231 0.7645146 0.71538645 -0.50424665 0.42970297 -0.43938527 -0.18201298 -0.0089541925 0.20071852 0.2717189 -0.54078525 -0.12729158 0.3887913 -0.035953987 0.066909604 0.43801528 0.04831594 -0.22640127 0.70288336 0.3394168 0.023054646 -0.40963638 0.2540926 -0.04381552 0.35808083 0.46785226 -0.76672333 -0.21532074 0.100166574 1.3636471 0.6596712 0.06751629 -0.759972 -0.33892518 0.35232493 0.22231984 0.087232865 -0.61647254 -0.26343435 0.024465272 -1.6192861 -0.27301207 0.6319211 -0.0025949632 0.21648668 -0.029233001 -0.72637254 0.69685423 -0.73869395 -0.27815506 -0.00469418 0.26271245 -0.07385038 0.04492939 0.6556612 -0.9984401 -0.20386675 -0.44519544 -0.10091871 0.100252464 -0.33209231 -0.49126434
441 0.048157007 0.0025694936 -0.10404871 0.4142351 0.15963058 -0.2595081 0.32838628 -0.08744729 -0.008730218 0.7276537 0.23698194 0.15922979 -0.3142692 -0.23481154 0.113349 -0.45952967 -0.31865352 0.3287381 0.027700536 0.17517129 0.3360153 0.20132503 -0.22003116 0.14602835 0.4379452 0.17729726 0.12314621 0.37173787 -0.22396702 -0.099280894 0.1347453 0.70279783 0.30103984 -0.2915347 -0.33401823 -0.14309074 0.18011709 -0.1400963 0.22499742 -0.50478315 -0.2750094 -0.19033295 -0.979573 0.12701088 0.3951196 0.07519251 0.28407687 0.17064632 -0.23371197 0.26927003 -0.6833412 -0.14893588 0.43653277 0.122720554 -0.36064464 0.5012349 0.5218584 -0.21324776 -0.040177427 -0.08778178 -0.31699163 0.16317707 -0.47980797 -0.099762894
184 0.15415053 1.1045585 0.16431189 0.5409124 -0.43524304 -0.45040604 1.1555003 0.4042704 -0.17643034 0.39409223 0.083784804 0.73157924 0.0736176 -0.080247186 0.4217982 -0.26454645 -0.5098993 0.5628394 0.68304664 -0.7191084 0.24155377 0.61515576 -0.34795666 -0.074990384 0.008566553 0.7900499 0.21780272 0.69297534 0.23967542 -0.6429324 0.13631369 0.30378568 0.15584455 -0.19682193 -0.43808275 1.1219583 -0.21766664 -0.56980246 -0.087915614 -0.7213081 -0.06434195 -0.24528171 -0.63406086 -0.3926608 0.39086938 0.043664604 -0.309693 0.014883967 -0.12118566 0.05826762 -0.0937113 0.30071965 0.49244386 -0.15011203 -0.50242406 0.311824 -0.75005984 0.030122226 0.47116604 0.33319783 0.09484394 0.00548843 -0.1043589 -1.050887
870 0.47898924 0.8471167 -0.050169583 0.1524698 -0.20736831 -0.14877856 0.99525106 0.19102097 -0.17967242 0.38300064 0.2002281 0.5483163 0.11339921 0.09656096 0.41473064 -0.31328818 -0.47435695 0.19487403 0.8056676 -0.50757104 0.15374897 0.4324472 -0.13786797 -0.24097145 -0.046959914 0.717356 0.077448964 0.85099435 0.22583304 -0.7104744 0.29432178 0.098602444 0.26835743 -0.4276357 -0.60927755 0.85577077 -0.051053412 -0.774793 -0.08003369 -0.52565974 -0.10422059 -0.4156792 -0.5480498 -0.2644744 0.7908282 0.38966167 -0.45334584 -0.12540798 -0.31193763 0.011289986 -0.062319115 0.31018057 0.2311605 0.033689756 -0.35953802 0.17650984 -0.34292665 0.38984454 0.8577237 0.26059738 -0.07908948 0.006950631 -0.3866208 -0.8732135
152 -0.27985606 0.16782351 -0.6470409 0.5230377 -0.056438807 -0.114522606 -0.199951 0.011548567 0.44734833 -0.2999532 0.027796313 0.3426921 0.11680022 0.44714615 0.9107587 0.14686738 -0.10287147 0.18190266 0.15000583 -0.27693847 0.042349096 0.32631627 -0.13154541 0.34500512 -0.21895304 0.03591142 -0.34000343 0.7417037 -0.21081844 -0.5569574 0.015427127 0.9083558 0.20040931 -0.35454303 -0.43434152 0.46252933 0.36422157 -1.022356 0.43976387 0.20090641 -0.5120807 -0.38441902 -0.777289 -0.4233022 0.1975772 -0.47950912 -0.06516885 -0.14699666 0.63987976 0.77624756 -0.53742397 -0.17336762 1.1093637 0.36741057 0.068462715 0.47403285 -0.44521508 -0.22434092 0.32076725 -0.6205264 -0.115971774 -0.46815905 -0.14992672 0.29312634
735 -0.05106339 0.13612 -0.24665624 0.9166265 0.21767794 -0.15811105 -0.09380107 0.33489457 0.17326523 -0.17882358 -0.0047465637 0.0780982 0.03834306 0.21251594 0.8465468 -0.17734791 0.048512686 0.2688995 -0.049669933 -0.06690595 0.09872436 0.04169786 -0.09300251 0.3449791 -0.43286765 0.10929499 -0.19486353 0.8346732 -0.14609018 -0.61674577 0.013932378 0.9698564 0.18780208 -0.46781844 -0.37498364 0.4176593 0.28797412 -0.86461157 0.31851244 0.25893825 -0.33816743 -0.1668261 -0.5863955 -0.5695184 0.3485552 -0.5753519 -0.41821802 0.041219987 0.65507966 0.6637845 -0.84204197 -0.19155487 1.0651689 0.42156124 -0.026292048 0.46226087 -0.48783928 -0.42529035 0.5807045 -0.31022307 -0.1565116 -0.24708255 -0.14276879 0.37316605
279 -0.75389683 1.3267397 -0.17597365 1.1544359 -1.4838741 -0.13421467 0.86378473 0.5639779 -0.57340026 -0.5142468 0.14199217 -0.17224465 -0.18786484 -0.7885861 0.78505033 -0.7501773 0.062334653 0.4530762 0.258044 0.23474388 0.7842462 0.17593332 -0.3185599 -0.33875144 -0.015492731 0.50874996 -0.42160988 0.26433745 -1.3887385 -0.21292192 -0.3677732 0.29629636 -0.29185697 -1.0265409 -1.0638752 1.1402583 -0.382435 -0.6112904 0.1696521 0.08494758 -0.40121555 -0.6113578 -1.4245387 -0.64282864 -0.65632427 0.36613312 -0.75399226 -0.063146755 -0.2149544 -0.0024942802 0.03593623 -0.3044837 0.5532509 1.2044519 -0.69102514 0.13905916 0.5033379 -0.6742905 -0.10541423 -0.7894663 0.90196115 0.653882 0.4718694 -0.49483883
643 -0.7336165 1.3199093 -0.14614847 1.1021123 -1.3360394 -0.057100862 0.99043137 0.5428992 -0.49591294 -0.40391797 0.11358015 -0.17612265 -0.11620591 -0.66888106 0.8026337 -0.730179 -0.008652729 0.45933664 0.23897304 0.08543217 0.7580016 0.22702995 -0.32279518 -0.31438103 -0.019632472 0.6004698 -0.385575 0.35290983 -1.4378915 -0.20475504 -0.50496197 0.2780758 -0.21202198 -1.078071 -1.0900171 1.0812742 -0.3636861 -0.57467353 0.22266145 0.041900236 -0.42771664 -0.49950722 -1.3631278 -0.53618854 -0.69924045 0.32723197 -0.6530866 -0.022162704 -0.20696744 -0.0016732183 0.08487362 -0.34869125 0.5253018 1.2204002 -0.8135309 0.07146768 0.5451352 -0.53515023 -0.060677547 -0.83563614 0.91452587 0.5627265 0.4339115 -0.40316877
371 0.166126 0.7301933 -0.14389147 0.55851054 -0.29170755 -0.36717257 0.48466372 -0.25227857 0.1658373 -0.6154189 -0.21545644 -0.23404074 0.7144098 0.013611906 0.2973718 0.43866274 0.10347738 0.33309427 0.1658747 -0.46481785 0.1437808 -0.15798979 0.16113132 0.31761888 -0.16950735 -0.014196877 -0.2553447 0.23107202 -0.9374093 0.105068736 0.19905202 -0.07786554 0.19268376 -0.44492733 -0.66705585 -0.001885853 0.014169083 -0.038078807 0.44684663 -0.028498916 -0.20077832 -0.83747524 -0.3999671 -0.1358169 -0.19952773 -0.442484 0.19645143 -0.38971305 -0.40694296 -0.02465256 0.40203148 0.14309704 0.10451064 -0.12331195 -0.1004939 0.64654166 -0.08147043 -0.03456226 0.43991 -0.12546743 -0.5790479 0.098939314 -0.29008347 -0.17494565
792 -0.14618549 0.56662 -0.110406175 0.5877543 -0.21645774 -0.5348721 0.36615995 -0.45676208 -0.19969952 -0.27279526 0.031474113 -0.38848275 0.51541346 -0.06557965 0.42462027 0.5583209 -0.30805135 0.6351139 0.018696394 -0.3665959 -0.34810838 -0.21542336 0.15396293 0.4170899 0.048086904 0.21139415 -0.4937275 0.084691875 -0.49955902 0.056103054 0.14465085 -0.14833064 0.21591625 -0.1816919 -0.9014935 -0.06394077 -0.10109418 -0.20556478 0.61296636 -0.01845613 -0.283968 -0.37684667 -0.035344586 0.16599387 0.0077683837 -0.48579624 0.18594663 -0.5851316 -0.13169022 -0.523225 -0.005569326 -0.34624657 0.19376987 -0.008989836 0.101229325 -0.07691092 -0.34033874 -0.029852169 0.49482346 -0.23885523 -0.30977082 0.1123627 -0.24173735 0.22247633
196 0.27154106 0.25481832 0.1325553 -0.09779836 0.35680854 0.10529214 0.34436795 0.019078938 0.025061049 0.18516216 0.048222687 0.4596066 0.07875544 -0.7593821 0.2606929 -0.18785131 0.35562798 0.26234707 -0.42128524 -0.1806514 0.29689294 0.05026831 -0.5440383 0.3705876 0.66446805 0.26709715 -0.13167752 0.29375222 -0.67680216 -0.6062714 -0.30629548 0.1802893 0.14802423 -0.1686492 -0.2640564 -0.1986746 0.32675278 0.074100405 0.617875 -0.4898958 -0.44961768 -0.17552528 -0.6231158 0.40180454 0.37458238 0.28846902 0.27629542 -0.123108156 -0.03018955 0.08794142 -0.5253093 0.34038845 0.19169235 -0.0127240345 -0.55142915 0.24717642 0.052921914 -0.5805487 0.41527507 0.08772063 -0.34061518 0.54435575 -0.00046786174 0.041402884
580 0.106569454 0.15305084 -0.07369296 0.101871595 0.10730666 -0.1859054 0.5498221 -0.4064088 0.0629009 0.47580075 0.08833629 0.40050337 -0.20998761 -0.37467083 -0.25385064 -0.22043553 0.098592065 0.423424 -0.12268099 0.26284438 0.3839448 0.006958775 -0.174685 0.23581547 0.5831327 -0.0029973346 0.12769964 0.36198083 -0.6331402 -0.4393645 0.14562896 0.32054806 0.048182275 -0.019475445 -0.26340094 -0.16914679 0.23579654 -0.292106 0.4459794 -0.6516884 -0.3331749 0.023674972 -0.7760715 0.47482055 0.5457652 0.3740777 0.20450106 -0.059626825 0.00038701846 0.29660836 -0.5180316 -0.027667198 0.5573421 -0.039944895 -0.27662897 0.35619125 0.19334297 -0.48278418 -0.096342295 -0.38179368 -0.2794519 0.16881607 -0.19406678 0.076148
405 0.06816466 0.110364474 -0.06232018 0.041603755 0.11600879 -0.46553287 0.4023923 -0.31244722 0.099841215 0.6023418 0.4624866 0.31153014 -0.39007053 -0.30339074 0.08812061 -0.30224147 -0.109915905 0.32282877 0.13667984 0.29774728 0.23273234 0.10668644 -0.12685284 0.46084976 0.30141744 0.20556173 -0.25774947 0.41636062 -0.25345418 0.06340098 0.17560089 0.66483605 0.4694505 -0.35783827 -0.4401258 -0.06026122 0.20654169 -0.40514675 0.12896125 -0.36539775 -0.377144 0.027285466 -0.7213165 0.19871013 0.21847115 0.14029828 0.17108878 -0.06615642 0.0566102 0.37441674 -0.4717694 -0.107269034 0.6322806 0.17740534 -0.40515447 -0.082053095 0.6367928 -0.23007302 0.017566325 -0.017106403 -0.56685245 0.33621705 -0.483179 -0.24709965
669 -0.024581492 0.3200438 -0.19942354 0.2608805 0.12793851 -0.7086755 0.9004412 -0.4075379 -0.12580854 0.5004213 0.32159805 0.25361457 -0.55073833 -0.027983997 -0.2775917 0.004146544 0.14179744 0.3483416 0.41515127 0.3199255 0.2423275 -0.27053392 -0.29256237 -0.2703185 0.2641027 0.33678612 0.40431514 0.28475562 0.068848304 -0.00056666473 0.021917103 0.72999537 -0.16117023 -0.32709485 -0.19622944 -0.1176273 0.35263506 -0.4913222 0.15027416 -0.32281807 -1.0742517 0.12052407 -0.5957131 -0.20135486 0.048647635 -0.12957232 0.07014531 -0.093530305 -0.047558807 0.16313367 -0.36115986 0.2702492 0.4539578 -0.23463532 -0.72216994 0.3854547 0.27769592 -0.44010472 0.49885792 -0.00162906 -0.6826185 0.32094696 -0.73537874 -0.38731268
741 0.36567453 0.7774769 -0.16591907 0.5767829 -0.3194044 -0.23599255 0.5514554 -0.46261358 -0.24441934 -0.59561956 -0.44622403 -0.3306293 0.5228415 -0.03531269 0.14125028 0.18580575 -0.09394054 0.48205322 -0.17362885 -0.11318162 0.11135035 -0.16526231 -0.20910738 0.24684027 0.11203227 0.07608793 -0.3271115 0.51970184 -0.8967095 0.10275689 -0.029799413 -0.30179256 0.20559093 -0.19917665 -0.80088943 -0.0023577318 0.13587977 0.06552326 0.39846435 0.13763833 0.04973051 -0.87387145 -0.20713091 -0.06339251 -0.23448321 -0.33209032 0.15837775 -0.4405704 -0.40422288 -0.13735801 0.15772584 0.007883389 0.2536098 -0.0116630085 -0.007679604 0.44155824 -0.2122788 -0.10207911 0.67415583 -0.01930547 -0.41658586 -0.024874879 -0.20367493 -0.2531466
149 0.19794536 0.41560927 -0.28269616 0.5423782 -0.34014326 0.18439046 -0.21424453 0.23887697 0.05709144 0.2164329 0.00949202 0.36224973 0.63089204 0.51027745 0.63796234 0.16839986 0.097825885 0.3612124 0.3226078 -0.11234384 0.097178146 0.21517754 0.047861975 0.42114058 -0.47542265 -0.26549408 -0.43649542 0.27573514 -0.4516655 -0.53075755 0.47354302 0.54112655 0.17959145 -0.289501 -0.7128819 0.15699185 0.015408879 -0.7150748 0.42596704 0.3286334 -0.0876917 -0.16793104 -0.19919816 -0.7191906 0.3542107 -0.26537505 -0.20595689 -0.06426359 0.30321681 1.0324807 -0.25761428 -0.111952625 0.7418802 -0.35444984 -0.28404328 0.47499663 -0.50616866 -0.18028954 0.78322923 0.035849974 0.14389561 -0.2786132 -0.3824874 0.022158911
568 0.49051106 0.7056455 -0.35739848 0.65360147 -0.36892566 0.18765712 -0.19698039 0.40250885 0.017062621 -0.07204256 -0.10086608 0.27821136 0.5046529 0.7676634 0.61170924 -0.18555516 -0.032945156 0.22583574 0.2804939 -0.21481988 -0.098678015 0.34745243 0.15945598 0.6236703 -0.24574971 -0.19001453 -0.5247946 0.3468683 -0.5916955 -0.70863086 0.27470136 0.51464814 0.098160714 -0.45290703 -0.49155614 0.40014306 0.16982554 -0.6057829 0.5636048 0.28155464 0.0072683934 -0.20428672 -0.5573208 -0.46558914 0.44387278 -0.33361143 -0.22406913 -0.0022313856 0.17403193 0.96434146 -0.002718977 -0.079087585 0.6686766 -0.5266782 -0.32574898 0.702785 -0.42708826 -0.17569396 0.81798524 -0.21686053 0.44639808 -0.18245104 -0.32360637 0.27750656
852 -0.008687872 0.52722305 -0.18106641 0.5371678 -0.48022702 -0.5231037 0.5450252 -0.15381731 0.024756335 -0.61189073 -0.27929825 -0.25932172 0.6647201 -0.057708185 0.08997719 0.23616764 0.046346687 0.11837294 -0.3251166 -0.35339218 0.14678681 -0.25006512 -0.07414964 0.25801426 0.03401097 0.2048881 -0.2499928 0.43550417 -0.76917386 0.09121876 0.2012386 -0.2516654 0.010419458 -0.33270764 -1.0365628 -0.0055605546 0.039245605 -0.29443273 0.3729111 0.30661798 -0.22170888 -0.9751221 -0.13051802 -0.11848332 -0.14089799 -0.28121468 0.3842844 -0.59043276 -0.2981747 -0.29378086 -0.12737054 0.18817553 0.23551701 0.019593962 0.13850988 0.3311462 -0.24148169 -0.026608247 0.5591845 -0.043223508 -0.38598087 -0.13766615 -0.32735017 -0.39446974
245 -0.6702258 0.5775698 -0.39160502 0.68063116 -0.35166165 -0.5764443 -0.06441849 -0.18498506 -0.32372895 0.21370494 -0.64025354 -0.29811305 0.5105401 -0.6847989 0.016985405 0.34082615 0.34226567 0.062984236 -0.045134485 -0.040753134 -0.025974106 -0.074655354 0.02224382 0.10471217 0.15068549 -0.4555913 0.21325491 0.1762589 -0.50667405 -0.36408854 -0.114033 0.24153757 -0.19689038 -0.21496093 -0.040667377 0.18996602 0.3220348 0.09623431 0.74664754 -0.697275 -0.20773435 -0.7749527 0.110153824 0.57786304 -0.23569387 0.10241807 0.33186552 -0.434746 -0.6431187 0.33132136 -0.120648585 -0.08710976 -0.10962233 0.33015478 -0.22264521 0.48417944 -0.49439305 0.09899598 0.26629242 0.0811215 -0.3113045 0.10016127 0.57107383 -0.16574335
1046 -0.60298604 0.56428415 -0.43544993 0.6597729 -0.27039853 -0.54710966 -0.1565856 -0.16420124 -0.24862583 0.14607225 -0.59746885 -0.54612374 0.62156385 -0.7788893 0.003852674 -0.11310174 0.38379163 -0.21941184 -0.065231 -0.16592471 -0.059102636 0.27064154 -0.101525344 -0.016287023 0.046854243 -0.2899807 -0.2865272 0.43500286 -0.3176715 -0.44230694 0.0070508984 0.08149084 -0.1411812 -0.14101805 0.18064165 0.06531834 0.53871566 -0.06829477 0.82407975 -0.54152507 -0.054019105 -0.6044316 -0.082287826 0.3888686 -0.09936722 0.031558212 0.31179872 -0.40926012 -0.6863741 0.5326414 -0.00441351 -0.1436646 -0.13022669 0.39344418 -0.18103343 0.574975 -0.36864278 0.1517657 0.41941518 -0.01579414 -0.14979152 0.07888702 0.68126166 -0.5614284
134 -0.368743 0.0029084357 -0.694053 0.56051517 -0.7000092 -0.99462956 -0.013621284 0.027509885 -0.05048464 0.10619648 0.13516776 0.25665605 -0.42314786 -0.24307902 0.6594823 -0.7330936 -0.25359756 0.2278386 1.0777354 0.43543178 0.28344408 0.48749456 -0.25778168 -0.5324313 -0.0086564785 0.15237023 -0.6535121 0.15106365 -0.5358091 0.60648304 0.40347373 0.013764857 -0.19742097 0.15759689 -0.27198273 0.5446131 -0.27318797 -0.11765408 0.16998866 -0.13125458 -0.082568415 -0.738859 -0.7264206 -0.3465335 0.49591655 -0.34323347 0.19130631 -0.3161547 0.16944376 0.6057233 -0.06864311 0.17495912 -0.08061074 -0.34394133 0.2618207 0.1540665 -0.84684426 -0.6135236 0.18492806 0.18912624 0.45016706 -0.19254673 -0.10428501 -0.114156164
774 0.0010342443 0.21793321 -0.6599422 0.557638 -0.538973 -0.8705668 0.050026625 -0.0005889354 0.16843505 0.12103882 -0.02822564 0.3995348 0.09848364 -0.23106374 0.51244044 -0.7510654 -0.06707943 0.17944176 0.8797869 0.3921039 0.40241927 0.6079284 -0.33198795 -0.058242183 0.035990834 0.03718635 -0.92031986 0.14728975 -0.71121216 0.64607203 0.22537866 -0.12476953 -0.1074512 0.2416299 -0.08077617 0.8277554 -0.41032222 -0.43883935 0.2782509 0.019096164 -0.25964454 -0.3986903 -0.57444835 -0.6537186 0.3002615 -0.114720546 0.08353143 -0.19080985 0.19073702 0.3032426 -0.17613152 -0.028604282 0.27287886 -0.60949266 0.18603279 0.43495023 -1.0333726 -0.88967305 0.23145433 0.33895728 0.31273896 -0.06043495 0.008786184 -0.32749844
103 -0.05287901 0.41795227 -0.0016790745 -0.177393 -0.26027605 -0.4686754 0.12883206 -0.29392543 -0.03278397 0.669879 -0.47305313 -0.20293002 0.720434 -0.41286004 0.50199646 0.2545846 0.16639166 -0.23066233 -0.12716873 -0.2969297 0.7485747 0.046864618 -0.51058716 -0.1500125 0.24790089 -0.0055323867 0.3476578 0.3508966 0.044547338 0.0056071403 0.11837644 0.05722656 0.17723669 0.014883492 0.35165855 0.7279738 0.38723007 -0.54497325 0.38920355 0.71856296 -0.37383738 -0.25737545 -0.6869372 -0.032406315 0.064721726 -0.56846297 0.214768 0.0721823 -0.55854845 0.50705904 0.34554124 -0.33284855 0.67887723 -0.20479317 0.14539522 -0.6224561 -0.09334863 0.6375288 0.40640265 -0.5841724 -0.08784362 0.22149204 -0.07303219 0.15083139
682 -0.37132478 0.5197072 0.22265124 0.20972519 -0.38465402 -0.3811935 -0.2223354 -0.6154581 -0.15921152 0.88200665 -0.57524884 0.10007689 0.75310904 -0.7810123 0.15951213 -0.05274874 0.6272544 -0.28642994 -0.067569874 -0.069224924 0.84386384 0.07972043 -0.2935173 0.16760412 -0.033827942 -0.1848941 0.06131329 0.08420175 -0.11849915 -0.2008116 0.32271266 0.4425925 0.12907264 -0.06971601 0.35734868 0.509543 0.6696682 -0.7578633 0.3097748 0.64884853 -0.12416288 -0.07781051 -1.0524696 0.20364949 0.19516389 -0.51555365 -0.12612028 0.098192066 -0.5698854 -0.03413807 0.118379414 -0.365388 0.16667493 0.19772641 0.16282424 -0.7259042 0.067078814 0.22450139 0.6826445 -0.43125215 -0.23785035 0.26232207 0.12935017 0.22403611
341 -0.6487235 0.72748023 0.34375742 0.28447148 -0.4607499 -0.38755983 0.0068888 -0.9362249 -0.39659876 0.85632 -1.1013101 -0.010337292 0.79169506 -0.71133274 0.13474444 -0.26603034 0.87837744 -0.24264118 -0.13350931 -0.14347012 0.5705259 0.33680633 -0.16770428 -0.15968132 -0.20802319 -0.11881227 -0.44151756 0.12776846 -0.0043361103 -0.38995436 0.16618094 0.2717104 0.14460033 -0.18826114 0.34470144 0.47225 0.49362308 -0.40870187 0.3603832 0.6745643 -0.17919067 -0.2447211 -1.3828582 0.0034155864 0.2648486 -0.23596726 -0.09382111 0.11411721 -0.6367519 0.17030656 -0.00017399786 -0.1443474 -0.11544865 0.34851205 -0.014577906 -0.56896335 0.13844626 -0.45513144 0.56285155 -0.49468255 -0.13582039 0.57908106 0.2714992 0.09685844
672 -0.0093933325 0.7172753 -0.32625386 0.050097372 -0.17243521 -0.23210227 0.0009940239 0.42971537 -0.2617769 0.23747376 -0.24249119 -0.48279184 0.72890687 -0.24501385 0.5902843 0.16990468 -0.45855445 0.22096448 -0.11705032 0.16311586 0.42613482 -0.17119934 -0.1982041 -0.33786756 0.40322664 -0.1326007 0.066986255 0.22493044 -0.28580037 0.22282599 0.088368505 0.49638605 0.02095425 -0.23661694 -0.5446727 0.36745474 0.073129036 -0.035249013 0.51029944 0.21373272 -0.63001806 0.31875676 -0.5460171 -0.021511551 0.43215558 -0.41879523 0.14380217 0.100284666 0.12692799 0.7161532 0.38101548 -0.2537025 0.06342518 0.091413006 -0.11244759 -0.3574908 -0.01417579 0.07053854 0.6512008 -0.08835429 0.18829103 -0.08165686 -0.18649891 0.053890172
351 -0.04511973 0.2867058 0.3519494 0.90833634 -0.0006978844 -0.7425859 0.27638334 -0.23067066 -0.6807248 -0.3249479 -0.75498194 0.34378746 0.7024929 -0.6210608 0.061533853 0.46900684 -0.012963233 -0.22698118 -0.20726117 -0.30280378 0.4374942 0.4495022 0.05737252 -0.26659784 0.26360312 0.11846167 -0.062003165 0.793339 -0.4610555 0.414449 -0.24824995 -0.3504909 -0.26794896 -0.74070287 -0.3371495 0.33705267 0.4871941 -0.07308743 0.3440448 0.40137044 0.31839424 -0.37174565 -0.53201884 0.42524415 0.45343566 -0.72176045 0.12490825 0.18563716 -0.2617047 -0.7397079 -0.031931702 0.69581455 0.24702768 0.33745185 -0.29311422 -0.13703561 -0.018425383 -0.2753756 0.70514077 -0.18564515 -0.017022906 0.33100736 0.8588351 -0.42702627
749 -0.103898935 0.4029878 0.2593592 0.7100594 -0.5128748 -0.36704692 0.65056217 -0.21082546 -0.14542595 -0.25901785 -0.6341711 0.1526422 0.72101676 -0.13552159 0.19681622 0.22410409 -0.16122627 0.21651362 -0.18568252 -0.64725196 0.5276777 0.41698393 0.48630682 -0.26273644 0.40754876 0.17129521 0.0010101255 0.57294154 -0.6435774 0.4596216 -0.117677204 -0.3973087 0.017460506 -0.6977262 -0.5162186 -0.16302937 0.08308411 -0.28820503 0.43757144 0.23724395 0.18017267 -0.5540511 -0.14280397 0.289595 0.19235966 -0.5736508 0.32623717 -0.22488637 0.06205815 -0.4711963 -0.06949629 0.3474558 0.5123143 0.3060541 0.35021314 0.47199306 -0.36729604 0.1545932 0.051797893 0.095702626 -0.10481551 0.1862864 0.20512992 -0.6824866
238 0.043871313 0.4854969 -0.22846676 2.1524231 -0.3260058 -0.9763621 0.64295244 -0.36748886 -0.9468385 -0.33494368 -1.0749788 0.7995706 -0.054849215 -0.91982716 0.3563266 -0.34440988 0.8917971 0.5285093 0.951918 -0.5098233 0.3731762 -0.2264411 -0.76708275 -0.46507624 -1.254631 0.14952092 -0.8691239 0.5648184 -1.0189399 -0.1858799 -0.40952283 0.56875306 0.18418214 -0.26544762 -2.0981865 0.4328318 -0.10355429 0.29490066 0.33422542 -0.46430087 -0.036707878 -0.6461458 -0.9170209 -0.058714587 -0.40207377 0.4595901 -0.17820892 0.09133176 -0.3748186 0.2955561 -1.1103219 0.31258187 0.29198614 1.0093566 -0.45064613 -0.21385367 0.20188324 -1.4205354 -0.749841 0.0332321 0.0039948723 0.3888793 -0.060692973 -1.1815166
832 0.09373588 0.3921561 -0.22003902 2.247831 -0.40914774 -1.0041906 0.7141952 -0.36474657 -1.0554928 -0.31931546 -1.174131 0.8068691 0.028710322 -0.96770006 0.454668 -0.3219093 0.85211563 0.47625473 1.0496181 -0.65048987 0.35923713 -0.31429863 -0.85041046 -0.49257413 -1.3498017 0.19429736 -0.92178005 0.6526702 -1.024516 -0.18134715 -0.40015095 0.68226296 0.12949452 -0.2498065 -2.2249434 0.475561 -0.0560704 0.2357203 0.29932436 -0.5048246 -0.03579136 -0.7143501 -0.9471946 -0.0261885 -0.34904757 0.5241852 -0.23029828 0.040519673 -0.42826915 0.31637788 -1.1011162 0.25674424 0.2731356 1.0699636 -0.5232774 -0.18473935 0.15624657 -1.4606091 -0.7919388 0.08082395 0.024181558 0.44255635 -0.11952419 -1.2828288
85 -0.45366096 1.0548998 0.026384214 1.3686011 -0.73454714 -0.7620929 -0.20314524 -0.56953 -0.5634379 0.026272353 -0.47433543 0.5491687 -0.1362821 -1.105448 -0.0414775 0.35641417 0.49542177 -0.73098737 -0.304375 -0.15399909 0.7761672 0.18274929 -0.39257145 0.075943395 -0.005622081 -0.3259949 -0.40214485 0.17550577 -0.37438956 -0.6967376 0.38440594 0.23918024 -0.23834047 -0.2968729 0.39187282 0.6277792 0.61757 -0.2654639 0.5685985 -0.07781429 0.24492268 -0.2363744 -0.92455316 0.5341308 0.23935005 0.19706595 -0.4152027 -0.24545233 0.025026243 0.3786523 0.31649834 0.18700914 -0.31890118 0.25127968 -0.38211912 -0.1319229 0.12360655 -0.42733195 0.23881814 -0.46777183 0.47949612 -0.029436452 0.4776036 -0.39987224
1015 -0.3750743 1.1351571 0.21965975 1.2958018 -0.544204 -0.97976875 -0.18453649 -0.46551168 -0.4959979 0.030851442 -0.44724572 0.34739435 -0.038901012 -0.9605623 -0.0783564 0.49496534 0.82466954 -0.4394343 -0.26179606 -0.24442047 0.874149 -0.22287549 -0.5187071 0.0500644 -0.21562397 -0.3421799 -0.7035741 0.11121946 -0.32759488 -0.7652181 0.5001131 0.20809713 0.1544484 -0.13082841 0.33693686 0.83531743 0.39385837 -0.61128056 0.62511027 0.060239047 0.40859467 -0.40973008 -0.9517983 0.23593858 0.68925554 0.282295 -0.5254749 -0.32659397 -0.3204235 0.39445698 0.113260776 0.11526686 -0.2051086 0.060315263 -0.35030365 -0.41581815 0.13861604 -0.45235 0.31786594 -0.7640562 0.6943242 -0.086972184 0.55205697 -0.1682311
705 -0.3031935 0.21513924 -0.35300946 1.3922429 0.114391856 -0.6001808 1.1641853 0.010197793 0.022911394 0.73293394 -0.06573082 -0.06696541 -0.35803267 -0.044219427 -0.7186408 -0.20013036 0.30363116 -0.13913114 0.45441434 -0.070120424 0.572927 0.5285973 -0.05998806 0.7514056 0.108784385 0.3964447 -0.56433827 1.1471027 -0.49098334 -0.13800581 -0.5465898 0.95710725 0.5472858 -0.7168438 -1.1801233 0.16756514 0.6285125 0.021725256 0.46895638 -0.93907714 -0.44550282 -0.26558715 -1.0073725 -0.16643766 -0.15915293 0.11540005 -0.19303526 0.012736815 -0.23693188 0.17928255 0.35463464 0.3875561 0.15503553 0.8193767 -1.0584725 0.04569425 0.048260637 -0.675051 -0.5406851 -0.053167947 0.20572719 -0.36656308 -0.4511865 -0.008352415
