1033 64
25 0.25160968 -0.1044594 -0.12086713 -0.8036423 -0.029580282 0.052133225 -0.11660206 0.5560685 0.5934259 0.24442129 -0.66210467 -0.37406114 0.569221 -0.34781492 0.5277332 -0.39328045 -0.13344432 -0.3091807 0.38639516 0.037705798 0.052954454 -0.41376624 -0.104323946 0.50333506 -0.061767086 0.4544388 0.4954415 0.34287837 0.45980114 0.074279144 -0.007593299 0.44647616 -0.111362465 -0.69698095 0.15501025 -0.34685445 -0.225233 0.0042180717 -0.20727411 -0.091040485 -0.53570855 -0.5271944 -0.23851809 -0.8311629 0.24182336 -0.993238 -0.28821242 -0.13655013 -1.0229675 -0.029914944 0.025919247 0.5031798 0.10196704 -0.3392498 -0.20573036 -0.2463516 0.040418636 0.64957964 -0.020842679 -0.13590127 0.4342328 -0.22658883 0.6477479 -0.6681247
638 0.46735397 -0.5173711 0.3783793 -0.55103445 -0.17004532 -0.02257542 0.34500292 0.5502384 0.63552403 -0.0066976305 -0.5008442 -0.118593924 0.54315627 -0.39140838 0.5239741 -0.26699802 0.21097612 -0.21235031 0.80276024 0.38101482 0.3464553 -0.33305854 -0.11235891 0.32534087 0.19378717 0.4738246 0.36998078 0.12345847 0.3545933 0.15116128 0.08843687 0.58260715 -0.10351703 -0.6720381 -0.04934885 -0.17550617 0.10746921 0.18416537 -0.45293972 -0.39393812 -0.39894527 -0.2856927 -0.3936996 -0.5445651 0.1124194 -0.67393714 -0.13653055 -0.24561644 -1.0039501 0.16534428 0.07234399 0.7114367 0.4822405 -0.50754523 0.31212297 -0.26115346 0.40678036 0.19939883 -0.10522985 0.14308634 0.24156833 0.07147994 0.2926387 -0.66011065
210 -0.07074384 -1.0532025 -0.4486281 -0.7903527 0.23372845 0.31400067 -0.8958562 0.09699528 -0.5449898 -1.0979171 0.051539246 -0.1339109 0.6926759 -0.28874332 0.14949659 -0.17144518 0.21950628 -0.7074584 0.33171776 -0.19781697 0.41176465 0.65704334 -0.2477225 -0.032516487 -0.16366248 -0.35718378 -0.054475736 0.19649322 1.027727 -0.5409783 0.06685928 -0.1093885 0.72831017 0.68908894 -0.8452138 0.04101665 -0.041340806 -0.42200038 -0.56779426 -0.19570583 -0.78347623 -0.012268096 -0.1471206 -0.79529554 1.1059437 -0.10382969 -0.741687 0.024241174 -0.5274745 0.05679794 0.19836323 -0.015167522 0.49337623 -0.39860585 0.38824493 0.49768254 -0.19641851 0.45399597 -0.6805365 0.6656786 0.39413255 0.48952726 -0.33841506 0.13137761
578 -0.016205685 -0.91427517 -0.46934205 -0.7901708 0.16658796 0.37783608 -0.7128359 -0.07550342 -0.64953786 -0.88397473 -0.013848844 -0.07815449 0.31042296 -0.15552348 0.2791493 -0.17714813 0.2723801 -0.66225475 0.094742045 -0.12756 0.55095786 0.7947173 -0.44696918 0.0037061258 -0.14490487 -0.21182248 0.055808794 0.3614471 1.0640162 -0.2765998 0.03399123 0.070857964 0.68705904 0.5760908 -0.99770737 0.07091035 -0.023651373 -0.3363484 -0.7023516 -0.35637143 -0.7431441 -0.2836172 0.18413745 -0.8700345 1.0513314 0.093947135 -0.85196704 -0.03550377 -0.5787579 0.11013768 0.2003003 0.028820429 0.6741007 -0.539159 0.25168952 0.37075558 -0.39811423 0.44879544 -0.79208684 0.4007109 0.4880247 0.42665538 -0.38202766 0.12917498
280 0.1353686 -0.4598361 -0.088862866 -0.31460306 -0.25201267 -0.141548 -0.059806194 0.54763114 0.18487038 -0.43799955 -0.4847935 -0.03712177 0.35461268 0.1711428 0.34807515 -0.36375198 -0.19103199 -0.15952517 0.34595826 0.48560536 0.10632238 -0.18023735 0.24171834 0.06243326 0.4305844 0.36838898 0.015389814 0.25630647 0.865646 -0.1945023 0.021336267 0.19039649 -0.17022523 -0.6974484 0.08978096 -0.33360147 -0.47174188 0.15351819 -0.37043312 0.058617562 -0.42706752 -0.2165234 0.068964675 -0.49725565 -0.108954206 -0.7308761 -0.1560439 -0.506933 -0.6326218 -0.21295784 -0.20367035 0.7603438 0.061053116 -0.3861189 0.012148847 -0.3091569 0.24865197 -0.081688166 0.09316599 0.05609661 0.27568892 -0.37202188 0.72620773 -0.2514651
847 -0.17524558 -0.594216 -0.1843909 -0.26633316 -0.37443775 0.1770161 0.2899276 0.24663594 -0.08644714 -0.45187336 -0.8198637 -0.281141 0.8728577 -0.43550053 0.37748682 -0.047076028 -0.53603977 -0.2914873 0.38727447 0.32898712 0.105831824 -0.35252148 -0.3324501 0.048443645 0.2893538 0.37922922 -0.23007157 0.6026677 0.7913395 0.34175295 -0.2599715 0.13652898 -0.3542993 -0.5978786 0.26343593 -0.4358427 0.14000651 -0.20356788 -0.51611817 0.24047121 -0.6317936 -0.61398154 0.035413496 -0.4778537 0.24889004 -0.89579034 -0.047481317 -0.42546308 -0.6472447 -0.15602475 0.36638904 0.7980429 0.24509957 -0.320342 0.5391482 -0.15197332 0.13830121 0.2625532 -0.16515873 0.2214521 0.16548727 -0.17185591 0.8719388 -0.26347092
399 0.2175689 -0.39605138 -0.5331444 -0.5193135 -0.48476794 0.057377547 -0.28907332 -0.103272885 0.46742773 -0.18393925 -0.78701556 -0.07069726 0.17388144 -0.36074185 0.9995568 -0.17720103 -0.21005453 -0.8617414 0.20203178 0.6418799 0.5389113 -0.19685929 -0.29807228 -0.20278049 0.22267452 -0.31060037 -0.004788388 -0.15279154 0.96288836 -0.17887968 0.25253773 0.35294095 -0.32628816 -0.58193916 0.28171757 -0.5504915 -0.26075783 -0.92062265 -0.05589967 -0.82950103 -1.0115896 0.253485 -0.13983883 -1.0484903 -0.6043446 -1.1119869 -0.30110237 -0.39419496 -0.55288106 -0.56412125 -0.28937823 0.28331771 0.35133886 0.16143602 0.3693126 -0.13851345 -0.008941436 0.23445575 0.4326253 0.4879138 0.27219015 -0.46316543 0.74352324 0.2756209
467 0.23578638 -0.3400304 -0.52807766 -0.51570326 -0.78904504 0.016471988 -0.45975542 0.17943938 0.48585984 -0.6646106 -0.79233164 -0.28553596 0.24564789 -0.45761082 1.1578264 -0.20327637 -0.19547391 -0.8939184 0.48608562 0.59959275 0.4281766 -0.21670972 -0.49521792 -0.3072062 0.21009514 -0.42265293 -0.046361078 -0.04322517 0.9542153 -0.031726968 0.24525833 0.3944004 -0.27740768 -0.6123627 0.28935274 -0.9940025 -0.33646804 -0.8263364 -0.23277785 -0.8588919 -1.17202 0.27536616 -0.21754177 -1.3287855 -0.40989554 -0.91911477 -0.31442508 -0.31191513 -0.5341649 -0.38545236 -0.4739498 0.31286305 0.47235817 0.45831376 0.3058172 -0.13125582 -0.06487609 0.3232601 0.5570038 0.5924055 0.48851207 -0.35605875 0.6975706 0.3055772
358 0.74850166 -0.49620697 -0.1394636 -0.34757206 0.26063064 0.112826675 -0.099793404 0.12869199 0.064645946 -0.15903863 -0.4824868 -0.13209535 0.19265975 -0.005651352 0.09306656 -0.050939977 -0.30748007 -0.2215114 -0.08389378 -0.09233333 0.35973573 -0.097189605 0.19174723 -0.50820726 0.31256515 -0.017699294 0.02161444 0.16660783 -0.27986377 -0.92918974 -0.28106862 0.04368568 0.14176592 0.14775974 0.11965193 0.09557165 -0.28801262 -0.1414978 0.41291562 -0.42611596 -0.59217805 -0.80520195 0.47346655 -0.008807609 -0.092344575 -0.33683026 -0.09567797 -0.7064818 -0.47693008 -0.21321051 -0.034018315 0.48088017 -0.15721384 -0.049412232 0.3678002 -0.45214674 0.24835588 0.49216416 -0.27285683 0.044054676 0.4363194 0.06535936 -0.15851676 -0.14624323
741 0.83211887 -0.5308411 -0.24174838 -0.44109052 0.12725075 0.22452769 -0.026178276 -0.07119404 -0.28463063 -0.15291706 -0.50160205 0.05992066 0.16361256 -0.11386471 0.0675008 -0.23461217 -0.4010309 -0.23854126 -0.10650251 -0.19098797 0.70730877 -0.044662565 0.040503938 -0.49937862 0.22387399 -0.107368544 0.10286354 0.272986 -0.22886603 -0.8676319 -0.24624415 0.12752593 0.17884864 -0.034125693 0.01314015 -0.042257898 -0.08549239 -0.20730066 0.47273502 -0.3886788 -0.6457775 -0.75357974 0.48618877 0.17057419 -0.14685841 -0.13508011 -0.20720081 -0.70079833 -0.535044 -0.306339 -0.019980079 0.70651335 -0.04873369 -0.14968148 0.067412935 -0.35199973 0.38109925 0.4535352 -0.43842086 0.15189807 0.48121223 -0.14391264 -0.03365209 0.09949594
364 -0.36998862 0.3923629 -0.33684158 -0.3812896 -0.12819397 -0.2833624 0.18233065 -0.33356023 -0.54967993 -0.08251227 -0.45592365 -0.39510062 0.07880957 -0.10941829 0.2369388 -0.18347654 0.05752463 -0.5009256 0.5421107 0.495836 0.45378044 -0.07886696 -0.11502751 -0.5003875 -0.07747922 0.61842287 0.20480746 0.33404696 0.5531353 -0.35072535 0.5306402 0.4061181 1.0191693 0.38478148 -0.8106899 0.061233055 -0.070585996 -0.088655174 0.049661264 0.1847221 -0.03657923 -0.25511006 0.20621885 -0.4182631 -0.20195971 -0.69979596 -0.15059777 -0.28442904 -0.30832598 0.5176833 -0.49216336 0.16004957 0.47911724 0.6830869 0.08213734 0.091568 0.56575036 0.77917296 0.20658875 0.3024345 0.3070784 0.8519672 -0.23245417 0.75734997
960 0.10887236 0.23243414 -0.37971154 -0.365623 -0.054541156 -0.3780896 -0.32285422 -0.29154024 -0.49275768 -0.11322901 -0.083613835 0.100826 -0.24341922 -0.7202963 -0.2146682 -0.40790248 -0.25593737 -0.41218227 0.31695816 0.4082 0.4558517 -0.17486252 -0.08038232 -0.13405868 -0.09003471 0.09173822 0.030259749 0.028641121 0.22054923 -0.45058414 0.21045902 0.1345082 0.91369265 0.22412664 -0.79564446 0.096832104 -0.06904482 -0.16933134 0.3072729 0.16345458 0.05828319 0.059525706 0.019606654 -0.26843834 0.19028825 -0.65361017 -0.22328244 -0.22399577 -0.37399855 0.91241163 -0.446347 0.39527094 0.402568 0.5397244 -0.027805088 0.040612053 0.8942653 0.35503894 0.24942215 -0.25179067 0.008996561 0.5361202 0.005203878 0.45317897
136 -0.23247519 0.4423711 -0.4707788 -0.501305 -0.06657339 -0.414952 0.1433369 -0.30489185 -0.6119068 -0.1503552 -0.5220151 -0.41729012 -0.039685313 -0.17151959 0.08272953 -0.25694385 -0.1081437 -0.5045535 0.47662127 0.33116505 0.45247698 -0.15761149 -0.106960975 -0.5086171 -0.14949623 0.4065776 0.21995555 0.17798749 0.6098389 -0.47648776 0.6960871 0.25320038 1.0005674 0.27778605 -0.69681454 0.01482335 0.041948847 0.043797437 -0.04020059 0.15208417 -0.008882448 -0.22848915 0.36752117 -0.4295602 -0.15782183 -0.7783886 0.0021093073 -0.28786612 -0.28536704 0.5577967 -0.43929034 0.22753465 0.4360134 0.6099297 0.025986223 0.15961309 0.5902791 0.72300035 0.08578543 0.091466375 0.42197743 0.9193285 -0.34916794 0.5240464
1052 -0.34784862 0.09323409 -0.497844 -0.5115311 -0.1075212 -0.31722713 0.1379168 -0.3464796 -0.63358283 0.1981414 -0.31417716 -0.5018432 0.16182527 -0.32371688 -0.049534343 -0.25066206 0.19260901 -0.41085973 0.3885051 0.21761024 0.54738694 -0.09986986 -0.118439704 -0.55252737 -0.15003818 0.3751314 0.09149568 0.11762323 0.40526676 -0.3917498 0.60238594 0.32624963 0.9287845 0.23565194 -0.51080656 -0.0537438 0.12172037 -0.20879641 -0.23923887 0.16275173 0.17814797 0.08327397 0.075321555 -0.74374825 -0.055026054 -0.65956455 0.006009328 -0.3044971 -0.14041711 0.43994543 -0.1948392 0.28042784 0.78398633 0.47442487 0.28328332 0.23364715 0.6057558 0.8284459 0.14080785 -0.027667029 0.5165975 0.8247907 -0.5725461 0.7790334
99 0.044528693 -0.5625813 -0.3350963 -0.2656648 -0.07143704 -0.2603477 -0.33894038 0.09161598 -0.18216917 0.121796295 -0.047542267 -0.024245605 -0.19915321 -0.40999788 -0.23194791 -0.20478004 0.5207675 -0.5096281 -0.08856578 0.17834568 0.046273027 -0.4657581 -0.14060684 0.11029379 0.051714238 0.21011688 -0.39458162 0.20482945 -0.19071826 -0.5843271 0.1400826 0.091765225 0.1642663 -0.21271248 -0.37796015 -0.32794866 0.04966122 -0.090789035 0.33215 -0.66294605 0.04176957 -0.1251625 -0.25334874 -0.062312033 0.5444069 -0.7071564 -0.12317548 -0.046626717 -0.43905592 0.3858161 -0.06945619 0.012929248 0.21555954 -0.31797847 0.033669524 0.13598439 0.32371438 0.5039891 0.21813612 0.31858432 -0.010426292 0.28782547 -0.09263553 0.5190362
518 0.20455807 -0.18663248 -0.77248675 -0.54852843 -0.02545697 -0.26399314 -0.0048579792 -0.08900639 0.47077912 0.06974406 -0.27844596 -0.09617121 -0.14542674 -0.3116105 0.22895211 -0.63579684 0.4552748 -0.77409387 -0.06151989 0.3660982 0.2837665 -0.6472449 -0.0733323 0.11317955 0.20856455 0.2582836 -0.2859211 0.292032 -0.34362307 -0.67305845 -0.62290365 0.44869554 -0.09305116 0.5618983 -0.28892002 0.0068163658 0.24663132 -0.4872081 -0.04827983 -0.047068972 0.13981304 -0.31588343 -0.25890097 -0.49587604 0.32675922 -0.070605814 0.15849999 -0.52759016 -0.21642235 0.37569413 -0.31485134 0.16664484 0.36423755 -0.3496009 0.266281 -0.037499294 0.56146884 0.43127358 0.22203001 0.010594165 0.11173946 -0.25198844 -0.039739594 0.09014786
376 -0.2709427 -0.25605744 -0.56970286 -0.14074488 -0.09405087 -0.2083757 -0.42364413 0.12941153 0.12496772 -0.010442995 -0.46415806 0.09601925 -0.07084383 -0.32746077 -0.030040743 -0.43316028 0.22252962 -0.9882129 0.44333062 0.25920492 0.3603049 -0.41671106 0.05191987 0.4517948 0.067575626 0.27643746 -0.4307763 0.13194248 0.015443491 -0.83367634 -0.27364898 0.8170297 0.13070916 0.6358127 0.05380552 -0.41463622 0.28666115 -0.06892389 -0.21010049 -0.3127472 -0.03620114 -0.3102375 -0.5559723 -0.29514655 0.4789897 -0.2638626 -0.119795345 -0.51165664 -0.30872014 0.039252613 -0.1764557 0.31029058 0.46114096 -0.2517516 0.23950215 0.02585747 0.82735884 0.16177154 0.1441916 -0.021218233 0.37704134 0.05148311 -0.12315376 0.19309095
661 -0.08429101 -0.6258181 -0.049325984 -0.54162264 -0.23248018 -0.03981514 -0.03413979 0.20353164 0.09681587 0.31742406 -0.2871499 0.10940765 -0.05847255 -0.34618312 0.2229683 -0.41763845 0.6125994 -0.6790205 0.6091377 0.32102787 0.21827276 -0.49297962 0.32083026 0.5315846 -0.25287956 0.3843475 -0.32463744 -0.18963356 -0.027763631 -0.5739954 0.07156896 0.54329795 0.2618984 0.13812783 -0.26189983 -0.24839365 0.14442271 0.18637565 -0.2122054 -0.51658386 -0.050770853 -0.66143125 -0.4696656 -0.20693988 0.5190594 -0.5661253 0.06854766 -0.49775136 -0.23374633 0.35661164 -0.02999765 0.3572405 0.47194043 -0.47335273 0.20688523 -0.09930447 0.2508294 0.32997948 0.19006886 -0.11112616 0.084833406 0.17143495 -0.26800787 0.17255326
69 0.625518 -0.5517928 0.0702202 0.09503393 0.23721956 0.2976759 -0.33187303 0.29854262 0.31344023 -0.510405 -0.012555155 -0.96903175 -0.15485595 -0.06332283 -0.07715536 -0.33840218 0.4349346 -0.15694249 -0.085396945 -0.078622535 0.24329571 -0.0050266916 0.11940472 -0.26559213 0.42891955 -0.7520848 -0.19977729 0.12305015 0.15823333 -0.33306 0.4877059 0.49799734 -0.14876083 0.6706102 -0.45199648 -0.6362059 0.44140053 -0.3685927 0.07103933 0.27504262 -0.17743935 -0.35553333 0.6444871 -0.025505662 0.33420163 -0.32639173 -0.21333675 -0.61847883 -0.47338092 0.22003058 0.632483 0.50004894 -0.014298726 0.52084076 -0.13739643 0.59177536 0.2649076 -0.08205143 -0.0024221002 -0.46285668 -0.0806389 0.12102479 -0.12604101 0.5198717
703 0.756103 -0.07251141 -0.36640635 -0.34933954 0.12381602 0.6994241 -0.17918637 0.55974 0.5737985 -0.35350028 0.21196936 -0.75985277 0.16373184 -0.09883162 -0.12552102 -0.18162529 0.26539153 0.22605588 -0.015447391 0.14924073 0.43308786 -0.23203102 0.14414077 -0.5819941 0.44503683 -0.26715443 -0.27386257 0.3114914 0.10586869 -0.22799723 0.36074847 0.45098358 0.020896245 0.51060855 0.0031725003 -0.44914114 0.13769455 -0.14289738 0.5775971 0.4400798 -0.7709763 -0.6352208 0.31183505 0.16949835 0.17001764 -0.050643284 -0.09164444 -0.31844258 -0.5839933 -0.15556833 0.39718035 0.28835195 0.11007247 0.45762032 -0.0824824 0.68083566 0.5021828 -0.09765685 -0.37723935 -0.07455068 0.13073292 -0.4242845 0.08100274 0.5399826
265 0.28674486 0.16222349 -0.2534479 -0.3653488 0.32944956 -0.37369657 0.2307617 -0.26997304 0.0933391 -0.12083767 -0.44276586 -0.10927046 0.18222071 -0.21599391 0.24101482 0.2336695 0.010507613 -0.67354685 0.6290269 0.37240723 0.38079607 -0.2501929 -0.018741678 0.16276577 0.17986074 -0.14606561 0.048063982 0.6463843 0.9499053 -0.4809813 0.41258317 0.74638224 -0.20480086 -0.516557 0.6444421 -0.8256161 -0.4034603 -0.09036465 -0.25977293 -0.42287925 -1.0352626 -0.23740642 0.20243755 -1.286621 -0.011877439 -0.8863619 -0.52339846 -0.39359528 -0.43263948 -0.6477338 -0.21364987 0.43374333 -0.035401944 -0.35315487 0.5548939 -0.1381766 0.22890936 0.28157035 0.1188559 0.3964375 0.16805567 -1.0219456 0.9328817 0.36389735
812 0.6266309 0.096617185 -0.21648167 -0.38111755 0.24131905 -0.39954913 0.39887333 -0.1663336 0.06738533 -0.3156484 -0.46101618 -0.22909296 0.3749494 -0.36747023 0.3322415 0.09966248 0.11747509 -0.44202703 0.48242593 0.024287986 0.23566054 0.027793514 0.1862804 0.08439341 0.2265936 -0.20856994 -0.058977623 0.75942063 0.6807844 -0.434463 0.25654075 0.53533465 -0.27279913 -0.4754215 0.8406821 -0.92739755 -0.6139085 -0.014804853 -0.21286888 -0.42904377 -0.85400784 -0.22994636 0.3145497 -1.1373959 0.010785402 -0.72700214 -0.30133808 -0.46055445 -0.52343774 -0.44096753 -0.13415986 0.39516586 -0.18388626 -0.15093967 0.46144667 -0.2730222 0.24630532 0.46821308 0.04757621 0.4590722 -0.07651409 -1.0881245 0.5435972 0.16624857
394 0.09312108 -1.0664049 -0.42286313 -0.5019431 0.047656417 0.16683057 -0.74600726 -0.29421383 -0.5849036 -0.8483859 -0.15531571 0.046529483 0.33784497 -0.04190654 0.29939857 -0.09947682 0.23142381 -0.7230124 0.14324251 -0.15304534 0.6118956 0.74970096 -0.26997465 -0.054667138 -0.13132158 -0.19700402 0.12109094 0.20118569 0.9959307 -0.3362217 0.028550249 -0.06816492 0.66932005 0.8734137 -1.1173707 0.13920872 -0.00545057 -0.21946757 -0.36801934 -0.23669958 -0.6640232 -0.22026326 0.12424321 -1.0443629 1.0752758 0.031149143 -0.5982247 0.089376286 -0.6432737 -0.10153526 0.1003539 -0.27611843 0.5391994 -0.5468999 0.50242704 0.2718821 -0.21025604 0.6054281 -0.7567341 0.48330802 0.52383745 0.4001626 -0.34016412 0.27635726
458 -0.14809898 -0.8780714 -0.38104388 -0.65193176 0.19187371 0.15992196 -0.59140927 0.19061029 -0.651078 -1.0015587 -0.14241517 0.1662325 0.19442628 -0.06939827 0.3377249 -0.4613268 0.26797464 -0.3705725 0.30346912 -0.0824626 0.7094515 0.44994926 -0.22128439 0.11423172 -0.12999474 -0.120058015 -0.08344411 0.050167322 0.6792511 -0.31590527 -0.21697132 -0.0029940235 0.846663 0.65345776 -0.8993176 -0.33708596 -0.2276466 -0.4182705 -0.6479797 -0.43414083 -0.6418531 0.029896908 -0.12244781 -0.42149043 0.8997713 -0.009895802 -0.5037223 0.10699889 -0.34167057 0.16909283 0.07605915 0.26095554 0.36020595 -0.5183135 0.09368633 0.48514542 -0.20889807 0.39340648 -0.74228984 0.4951711 0.553764 0.6162352 -0.6360848 0.24421108
405 -0.41262478 -0.57131994 -0.117269896 -0.31838065 0.2072775 0.016016081 -0.42160207 -0.19779567 -0.0736378 -0.07268453 -0.16927066 -0.012081299 -0.1574863 0.04057068 0.34734246 -0.16815224 0.64797306 0.33441874 0.2532644 -0.02639886 0.12170942 -0.17839517 0.21805628 -0.48551875 0.25721318 -0.4466811 -0.124693125 0.7043286 0.43178508 -0.33351362 0.11550526 0.23973276 -0.017329518 0.366907 -0.2896182 -0.13136442 0.7603205 -0.2526566 0.079573706 0.29697058 -0.28441408 -0.31660706 0.58862615 -0.097125866 0.36400983 -0.25016168 -0.2851073 -0.3573915 -0.28343806 0.4409675 -0.4010097 0.11875527 0.15865931 0.27878243 0.2794476 0.38985816 -0.061097264 0.082472466 0.4290041 0.061059315 -0.5573429 -0.030778864 0.014361519 0.19259451
446 -0.22602177 -0.5562556 -0.11527278 -0.5219966 0.553034 0.2623391 -0.18747324 0.10667273 0.1427173 -0.4081203 -0.16319135 -0.41546908 -0.29762048 0.07871216 0.012942468 -0.393921 0.6369679 0.36386293 -0.12892564 -0.21689886 0.11880625 -0.17439087 0.39833814 -0.39554614 0.14387032 -0.28256708 -0.040016375 0.6556355 0.48028654 -0.1669872 0.038747277 0.20634766 0.16330081 0.31858584 -0.24881026 -0.64735216 0.50626796 -0.44005263 0.5309781 0.5953914 -0.34254476 -0.44370538 0.7688322 -0.1380839 0.3014083 -0.41808218 -0.29284775 -0.30723214 -0.462978 0.4374767 0.04885822 0.17616546 0.048194315 0.28530324 0.1507087 0.43814668 0.31192428 0.002208086 0.15888642 -0.5200328 -0.4241828 -0.000717819 -0.3957117 0.11222833
3 0.22511512 -0.853183 -0.059024382 0.074435934 0.54460686 -0.28519383 -0.07009199 -0.10993715 0.07008242 0.3196882 0.03720285 -0.06461007 0.5716711 0.041943338 0.51129526 -0.16150926 0.48864934 -0.64544857 0.5473384 -0.16640733 0.36981434 -0.54954475 0.20570493 -0.16977191 0.087137 -0.023421718 0.7774551 0.28315368 1.0842227 0.25850347 0.07797847 0.033061348 -0.01465088 -0.8134645 -0.4361326 -0.06900252 0.43601453 0.28633523 -0.24476285 0.28570592 -0.4407253 -0.09193395 0.85647315 -0.075608686 0.060089607 -0.7163806 -0.13508068 -0.48244724 -0.72212607 0.08874605 -0.16314614 0.646751 0.1515446 -0.111940645 0.29296297 0.026315583 -0.29565334 0.010291205 0.1434222 0.25477684 -0.09681858 -0.38296613 0.48680726 -0.1820748
496 0.46792772 -0.5889524 -0.10332811 -0.14508581 -0.14650515 -0.47552776 -0.5627096 0.16567482 0.18960156 0.24488084 -0.24777661 -0.1986011 0.49174908 -0.17032205 0.80540144 -0.052167945 0.48200947 -0.43663242 0.22323567 0.102733545 0.12107882 -0.68410975 0.19372791 0.02819906 -0.14812623 0.47237065 0.7336021 0.2556868 1.053871 0.5965484 0.32343796 0.11132574 0.015718084 -0.84704727 -0.30499014 -0.17757213 0.13001902 0.24238726 -0.24906258 0.2953532 -1.0765067 0.03021494 0.6805214 -0.21120788 0.14166588 -0.8206584 0.15791605 -0.32672405 -0.906352 0.23553711 0.11087328 0.6744643 0.6824958 -0.2708719 0.0264775 -0.40928406 0.043310612 0.28516874 -0.15451261 0.4197086 -0.15857364 -0.044430017 0.29825222 -0.22436728
117 0.5012735 -0.18284523 -0.23893283 -0.36445895 0.25180912 -0.34158617 -0.25464395 -0.4108495 0.15067591 -0.23076364 0.018412497 -0.26582783 -0.14404793 -0.37840566 0.38184237 -0.02452419 0.17987287 -0.48894927 0.04467051 0.38924077 0.06042845 0.047687087 0.30376482 -0.364931 0.2788693 0.21661744 -0.17666093 0.39226383 -0.07949937 -0.5575715 -0.3249079 0.3662964 0.23243202 0.10460622 -0.7500964 -0.007820047 -0.34717345 -0.4253826 0.31576812 -0.024710314 0.09237016 -0.40860605 -0.18711267 -0.39332962 0.34182563 -0.21173517 -0.16170865 -0.28425324 0.0066839573 0.5288575 0.30618513 -0.08568144 -0.22734818 0.27377355 0.014076493 0.061859883 1.0897491 0.2197226 0.3145221 -0.5625008 0.23690821 0.103364415 -0.13488567 0.12269318
512 0.77457136 -0.42934576 -0.15986565 -0.37789422 0.3638929 -0.24571708 -0.19265458 -0.33940217 0.5099909 -0.18196504 -0.05565061 -0.35019258 -0.40301725 -0.2548214 0.2507463 -0.25603932 -0.03075033 -0.37976387 0.31227857 0.11891772 0.2902965 0.37705088 -0.20266868 -0.3773118 0.50295764 0.10228868 -0.47063094 0.33079875 0.021673182 -0.45387 -0.30381006 0.5705517 -0.17755282 0.19935735 -1.1129566 -0.14653946 -0.2600838 -0.319399 0.4704934 -0.18328035 -0.24304166 -0.36662796 -0.08772622 -0.4337268 0.17643246 -0.17039372 -0.0680455 -0.30208388 -0.069380105 0.94437885 0.37583548 0.057409685 -0.17217451 0.1849038 0.099179216 0.009092872 1.0522168 0.48276058 0.41452122 -0.7336509 0.20803067 0.23944476 -0.08298124 0.21867554
334 0.53219205 -0.3211868 -0.13881302 -0.065475695 0.30934548 0.5925113 -0.378542 0.32384822 0.4548547 -0.55607843 0.0072964686 -0.69129944 0.01872893 -0.03757072 0.13936126 -0.25579038 0.58729094 -0.07999225 0.1015515 0.012089364 0.2186228 -0.020820923 0.17721342 -0.33219516 0.42748746 -0.6467418 -0.38316202 0.06344466 0.100593425 -0.12558855 0.4825738 0.509443 -0.035639305 0.70714396 -0.3691982 -0.7567837 0.25103498 -0.26806742 0.26603723 0.3612057 -0.28653935 -0.28551725 0.8248612 0.23271325 0.32728744 -0.3991123 -0.19632164 -0.7664225 -0.54142463 0.251824 0.43199232 0.24427848 0.07648027 0.3779823 0.057377633 0.7030028 0.33452037 0.043962166 0.19448355 -0.54836375 -0.016796404 0.30041933 -0.10427118 0.47039536
982 0.56431335 -0.30462623 -0.026294185 -0.17475425 0.52041537 0.4942726 -0.41970387 0.24702515 0.32713896 -0.35898176 -0.10843314 -0.91040564 -0.2812064 -0.0129022235 -0.20899865 -0.30963606 0.3040083 0.062339902 0.046629697 -0.18979083 0.30856884 0.028564913 0.21522658 -0.41863674 0.49592108 -0.7934317 -0.18385103 0.39880407 0.12066549 -0.1848008 0.29012352 0.49049923 0.12533288 0.5955615 -0.43310833 -0.84954745 0.38737738 -0.5647369 0.46822345 0.3191225 -0.3977331 -0.533812 0.6628685 0.09330332 0.4038397 -0.5307896 -0.3639713 -0.4309257 -0.66712445 0.3462694 0.8193299 0.39819315 0.100198425 0.42122105 0.07185633 0.48536956 0.45287904 -0.11451743 -0.21575834 -0.49573347 -0.28655428 0.12876663 0.06606529 0.46623796
842 0.9849606 -0.5853732 -0.16414687 -0.2511278 0.18656406 0.13939781 0.01437904 0.044484325 -0.2450627 -0.09580119 -0.49859938 -0.075804636 0.14857389 -0.01717577 0.19047906 -0.023115654 -0.43517962 -0.02651942 -0.020044584 -0.23941317 0.7754894 0.04732155 -0.17544979 -0.45684627 0.32168233 -0.10655658 0.06916741 0.17064604 -0.04394401 -0.8029804 -0.2571104 -0.018004144 0.15206137 0.1435809 -0.05122087 -0.025979653 -0.21830489 -0.24195723 0.43098354 -0.49900123 -0.6806262 -0.6571178 0.30693194 0.19019388 0.12004934 -0.23486078 -0.109637305 -0.74079 -0.50849456 -0.08609279 0.005635063 0.395079 -0.019664938 -0.0775178 0.016134635 -0.5399842 0.43839762 0.3883118 -0.32616588 0.2529586 0.32118687 -0.36881334 -0.09609628 0.16651224
144 0.61801815 -0.32067052 -0.17450696 -0.45096514 -0.38895917 -0.767399 -0.44015267 0.23627573 0.1701813 0.27623847 -0.2348522 -0.21577744 0.7072924 0.014033422 0.8871401 -0.14732103 0.20926194 -0.45870778 0.36845133 0.1145187 0.40105096 -1.0196215 -0.14568539 0.15034136 0.06046647 0.4510432 0.36074325 0.0911692 0.93349564 0.55416083 0.69472516 0.046487004 -0.38890606 -0.80691475 -0.3005004 -0.28958157 0.06524803 0.21650575 -0.22475235 -0.015379689 -0.6723467 -0.24864465 0.19716628 -0.26775852 0.40601492 -0.69956255 0.15266591 -0.15306513 -0.90689796 0.31654313 0.053154077 0.12775232 0.5038244 -0.27428475 -0.06325677 -0.50553864 0.21016988 0.0071424088 -0.052980945 0.48857126 -0.013650956 0.33302766 0.43751904 0.021087121
1005 0.5017906 -0.39387843 0.118018754 -0.38652378 -0.38898742 -0.3285645 0.037165783 0.6488104 0.64288664 -0.10493819 -0.38213286 -0.040424027 0.8305163 0.38456216 0.46955317 -0.31289062 -0.12475009 -0.20126265 0.34902146 0.3406495 0.09797154 -0.5349843 -0.14409468 0.021867657 0.02292964 0.38538834 0.20082237 0.42522785 0.93938315 0.31586382 0.26751763 0.53948987 -0.21322078 -0.47253048 0.08779486 -0.21081045 0.023477525 0.06465083 -0.14457312 -0.010660601 -0.50056046 -0.25219324 0.12732589 -0.5671695 0.011126872 -1.1599113 0.024290575 -0.06921676 -1.0548061 0.25394842 0.62257624 0.7595803 0.30071878 -0.61200374 0.057054363 -0.30621925 0.47177795 0.13124454 -0.04405547 0.502115 -0.09493483 -0.016059684 0.41704574 -0.03876245
232 -0.5940277 -0.5569445 -0.8358198 -0.63416845 0.06647892 -0.2766301 0.023780582 0.21229525 0.5225598 0.49723032 -0.18523423 -0.7681537 0.37530637 0.4028769 0.41141954 -0.5065939 0.5076568 -0.55775976 -0.091213845 -0.30087444 0.647315 0.69110996 0.49424675 -0.021382388 0.4124141 -0.16758357 0.8847508 0.51379746 1.014712 0.57609683 0.11108974 0.06609032 0.25902712 -0.24009462 0.11421496 -0.10711602 0.94455767 -0.47954607 0.07214909 0.26657408 -0.8211903 0.02186267 0.7976565 0.14960147 0.23807165 -0.13240151 -0.9240879 -1.3665539 -0.21275687 0.34597692 -0.1414836 0.6200767 0.6207146 -0.2330655 0.7585095 -0.21533968 0.30765006 0.5169125 0.2621178 0.021810843 0.02315173 0.12814136 0.19731992 0.23524328
423 -0.6759023 -0.4430683 -0.69062877 -0.76169926 0.17240992 -0.2257641 0.21993595 0.24679878 0.5402103 0.39823678 -0.18775831 -0.6028524 0.250153 0.4626737 0.5791935 -0.71298695 0.46581706 -0.67494845 -0.20955275 -0.16721603 0.81490374 0.5864455 0.20907566 -0.369581 0.4809253 -0.12188419 1.2741737 0.5776471 0.8151083 0.32496533 0.15002348 -0.16095406 0.3093546 -0.21294826 -0.040376086 0.21412097 0.97871923 -0.43695867 0.065922245 -0.07797418 -0.6877263 -0.10965399 0.8706429 0.19432983 -0.018222446 -0.055761456 -0.7970211 -1.2245382 -0.27612317 0.030450646 -0.033064988 0.6318285 0.72275335 -0.17348227 0.8516653 -0.4322555 0.29439482 0.5639977 0.22614776 0.11284761 0.10654097 0.2084615 0.25500047 0.13039635
163 -0.16926661 -0.05802464 -0.540259 -0.028367316 0.049117014 -0.09792699 -0.07573193 0.39572158 -0.045503963 0.2889062 -0.753681 -0.2871895 0.3136372 0.17757292 0.32346678 0.13564642 0.35909393 0.3800554 0.36538714 0.23393662 -0.022258276 -0.029555421 0.10103044 -0.16766576 0.43155813 0.08253284 0.54031783 0.2942634 0.13803092 -0.9637604 0.17657128 -0.029003022 0.26319852 0.20875052 -0.7613246 0.6051189 -0.30702433 -0.20886694 -0.32884306 0.22926852 -0.5468765 -0.35413757 -0.0033829338 -0.55606455 -0.0875683 -0.11587247 0.47482264 -0.5818675 -0.10705052 -0.142239 0.013001826 0.43726864 0.14552256 0.7693858 -0.068800665 1.0411605 0.7468456 0.36714113 0.15269323 0.2519056 -0.17867544 0.48343626 -0.49076197 0.7033928
587 0.28759676 -0.15304048 -0.27081653 -0.01677957 0.0015311216 0.24408908 0.10513603 0.13044979 -0.06264528 0.37284726 -0.6402642 0.06398189 0.27488175 0.13812822 0.4665296 0.17807624 0.33044067 0.3182735 0.14478007 -0.032907806 0.15130258 0.2872921 -0.116520114 -0.42148438 0.16153929 0.11604782 0.47908163 0.117035784 0.10950181 -0.8562518 0.023437878 -0.035597615 0.21254173 0.14965688 -0.71633726 0.42963597 -0.15858014 -0.30941942 -0.2280251 0.27408865 -0.8281388 -0.24160694 0.13288876 -0.43699118 0.051917683 -0.6698796 0.6167804 -0.8697509 -0.09864829 -0.23067807 -0.15169208 0.66619545 -0.39189455 0.9515119 0.13956623 0.6674511 0.91722286 0.28220946 0.035476785 0.26957363 -0.51729584 0.50405276 -0.47609267 0.4685388
199 -0.39478898 -0.8265087 0.48156297 -0.47781238 0.2712818 -0.6151705 -0.8552095 -0.31818333 0.41990688 -0.21054082 -0.5745319 -1.0504774 -0.55257887 0.007742376 0.098825626 -0.11601275 0.098349705 0.08867651 -0.077093095 0.3422391 0.35643268 0.33894095 -0.36785704 -0.6471219 0.38597137 0.31797606 0.35694253 -0.4164676 0.2579801 -0.6296421 0.116993286 0.4882596 0.28228965 0.5873167 -0.2102453 -0.15499553 0.0030128772 -0.015756262 -0.7452858 0.09698998 -0.5575852 -0.4421667 0.5531734 -0.5839232 0.5243249 0.010432207 0.045620933 0.34044933 0.04032685 0.13502686 0.28737295 0.43128854 0.22314438 0.4026388 -0.5018761 -0.17769584 0.4112836 0.13662031 -0.14938602 -0.05968502 0.12444624 0.24435231 -0.77078295 0.31264752
745 -0.3333001 -0.73120517 0.17370786 -0.26907372 0.06886393 -0.6618471 -0.70362884 -0.27366817 0.29675704 -0.21777205 -0.7028049 -1.5236223 -0.4009653 -0.21110955 0.09734184 -0.20405743 0.16471942 -0.08804052 -0.30334097 0.06311401 0.34954542 0.52184516 -0.13328785 -0.6274452 0.5120211 -0.00893911 0.23560491 -0.2355937 0.42470083 -0.7237748 0.088202216 0.3433379 0.3420535 0.6698788 -0.4783817 -0.098416515 -0.0634974 0.14030214 -0.7152392 0.13090098 -0.5379078 -0.35242185 0.4343502 -0.66857964 0.45574948 -0.10297554 -0.043736964 0.12140275 0.15031175 -0.009810291 0.23318368 0.5464938 0.33159646 0.4399034 -0.41942886 -0.26204538 0.1643306 0.19427615 -0.16113853 -0.2776915 0.23953716 0.036080413 -0.85362023 0.16982575
174 -0.10743953 -0.17303437 -0.0041923192 -0.7175096 -0.012952556 -0.5702529 0.15498845 -0.06421976 -0.19842699 -0.40606165 -0.6670764 -0.013458537 -0.3085821 0.08280503 -0.16988617 0.046288993 0.37945133 -0.338583 0.562775 0.631936 0.33485922 -0.15445653 -0.20330766 -0.28457955 0.23190004 -0.39935946 0.23277402 0.008065608 -0.32904854 -0.25103095 -0.058599282 -0.11320562 0.90742606 0.37967953 -0.38853762 -0.42123458 0.05592986 -0.13806318 0.21513472 0.11876471 -0.038230203 -0.057176553 0.32214773 0.052716337 0.4565705 -0.21926439 -0.14670244 -0.13782133 -0.5154752 0.8794805 -0.18979959 -0.16317713 0.5189214 0.5304814 0.23351498 -0.08031531 0.59245026 -0.07467995 0.474255 0.09083055 -0.5442789 0.61331755 0.014114939 0.49825156
664 -0.4228064 -0.6290696 -0.44101584 -0.88096786 -0.0017899597 -0.21964332 0.26526135 -0.16241668 -0.06547384 0.0746013 -0.30634776 -0.28475714 -0.37712997 -0.17551798 -0.15852557 -0.26694286 0.37666854 -0.2059274 0.33320767 0.24252354 -0.11175304 -0.25108868 0.07000369 0.001428092 0.2602891 -0.6328272 -0.0730256 0.13299559 -0.3299778 -0.44637117 0.105527766 0.2187331 0.1937536 -0.07144485 -0.43365794 -0.22856013 0.19476837 -0.1631706 0.0349574 0.24861582 -0.025877893 -0.009980996 0.246625 0.022050718 0.5848139 -0.11381746 -0.10409241 -0.3981568 -0.89579606 0.87323916 -0.15279135 -0.43414816 0.4087073 0.37635705 0.28516728 0.3613372 0.09849095 0.08118306 0.34838188 0.14045861 -0.31176057 0.28718126 0.05462649 0.50183266
729 0.16426574 -0.3408662 -0.49231312 -0.45622978 -0.015136601 -0.308438 -0.18052523 0.18629774 0.008205633 0.16295893 -0.19157702 -0.08608681 -0.44059214 -0.7300232 0.08754545 -0.13415708 0.6640874 -0.47377726 -0.10282725 0.07610557 0.13988343 -0.35964105 -0.484274 0.007288655 0.11878958 0.120739676 -0.4582145 -0.109316744 -0.10334974 -0.5529284 0.45698848 0.091193445 0.23560737 -0.33694455 -0.34934518 -0.46202025 0.35523203 -0.26969743 0.43056 -0.29842615 -0.00618705 -0.023355423 -0.54673344 -0.017433153 0.56898177 -0.6183229 -0.32827654 -0.23765334 -0.38869172 0.3728549 -0.037040416 -0.06875065 0.065862946 -0.13282458 0.0730814 0.04696426 0.27630523 0.7176982 0.02158189 0.1755346 -0.022434592 0.43649194 0.013403029 0.40446252
68 0.58369285 -0.23462883 -0.30546013 -0.40187705 0.42922065 0.5254512 -0.24241401 0.35015094 0.40251032 -0.18766962 -0.06578363 -0.6006649 -0.2849946 -0.07609045 -0.2107487 -0.2774892 0.47757855 0.03943847 -0.13204767 0.022804499 0.55448353 0.07801887 0.3952947 -0.31058732 0.49166423 -0.78022605 -0.26917386 0.65247494 -0.0044892556 -0.11950634 0.45455912 0.33897734 0.16425417 0.69878346 -0.253776 -0.8477523 0.18126726 -0.59057605 0.43162283 0.40826494 -0.3904512 -0.2047624 0.7048479 -0.13478012 0.14771473 -0.5675183 -0.18863757 -0.63044655 -0.3285637 0.3441576 0.51218706 0.16945507 0.24008194 0.20021123 0.26737887 0.44395116 0.50088316 -0.38236615 -0.02758215 -0.5340188 -0.18225211 -0.123036966 -0.0025931273 0.37766126
802 0.1961275 -0.42112675 -0.2154695 -0.20705755 0.31896114 0.42793941 -0.31159112 0.4397248 0.26722118 -0.34319443 -0.014912599 -0.5118391 -0.11882894 -0.14346021 -0.15764384 -0.3222634 0.52557826 -0.06136423 -0.08649614 -0.09285157 0.18995695 -0.09893748 0.15908809 -0.37144 0.33551478 -0.7975758 -0.26064858 0.28570354 0.22759134 -0.24945006 0.16041529 0.61220235 0.015025714 0.4272859 -0.58991486 -0.70570594 0.5253176 -0.40177852 0.3836906 0.38730356 -0.33739898 -0.5950107 0.76151323 0.2251188 0.2064927 -0.50061345 -0.107304454 -0.52370876 -0.39966434 0.23961458 0.34209102 0.43681723 0.12760523 0.4217586 0.15096758 0.649974 0.25610754 -0.05476691 0.028604662 -0.47266322 -0.2928593 0.074411966 -0.18150546 0.34681645
37 -0.5188876 -0.11704903 -0.36652866 -0.113469556 0.013179696 -0.4780924 0.025972497 0.36650032 -0.29878634 -0.19851361 -0.1957151 -0.64295924 -0.1129322 0.0805893 0.0975585 -0.28657025 0.044766814 -0.4668334 0.18922375 0.09423168 0.74636704 0.14005846 -0.26677948 -0.66232014 0.07959176 0.3672766 0.5177774 -0.4838897 0.52433485 -0.59748673 -0.24236828 -0.0175469 0.9910571 0.41912052 -0.6756132 0.030787421 0.31023496 0.2223713 0.094028965 0.107179984 -0.037629556 -0.4898267 0.6533508 -0.5243463 -0.62124157 -0.5807334 0.29556912 -0.19174445 -0.13870086 0.45537797 -0.014792841 0.37833947 0.54201776 0.4754012 0.04430868 -0.025618229 0.29536313 0.61681515 -0.01659367 0.13204531 0.36866194 0.7369177 -0.8087545 0.51728547
508 -0.6429519 -0.5226879 0.14417145 -0.154007 -0.1826653 -0.2506911 -0.43317613 0.02997317 0.24263036 -0.0699017 -0.17285103 -0.92582434 -0.18077795 -0.36893573 0.038349178 -0.5336785 0.19178991 -0.34652779 -0.3492264 0.6171654 0.682488 0.57408524 -0.37148443 -0.45938337 0.27642724 -0.107048616 0.13195255 -0.35797048 0.17226614 -1.2066126 0.10797885 -0.12465864 0.49776968 0.6217863 -0.8935775 0.114339024 0.05851289 0.4250974 -0.31928807 -0.07069613 -0.56095386 -0.21914421 0.7979824 -0.5405484 -0.22107136 0.025726093 -0.1554792 0.23103109 -0.107924215 0.4739483 0.13307513 0.12604338 0.35053283 0.17580175 -0.20155059 -0.12704235 0.03730165 0.13613524 0.39552888 -0.035764735 0.61152244 0.06944654 -0.4088951 0.0081891995
480 -0.34923598 -0.81612 0.07623712 -0.26719925 0.3787865 -0.22649693 -0.5464615 -0.2718879 -0.041712042 -0.008109215 0.008319769 0.3764302 0.00021996416 0.3488075 0.24371597 -0.37732536 0.73461133 0.1351178 -0.061474178 -0.21616305 0.019913724 -0.06891225 0.5609906 -0.6998829 0.40114525 -0.6018518 -0.29899448 0.286622 0.4754934 -0.16212457 0.0034134393 0.25575134 -0.046876103 0.14642099 -0.39507967 -0.6172844 0.1708286 -0.7551692 -0.041985817 0.4114827 -0.35454577 -0.37468094 0.7718647 -0.4806688 0.50099784 -0.19584191 -0.1818825 0.26588035 -0.37699243 0.25268453 -0.29709807 0.47735402 0.4031989 0.7061775 0.32963023 0.80408406 0.37693682 0.15587464 0.124774516 -0.0856909 -0.056498755 0.45479098 0.0054902057 -0.109639905
128 0.14236285 -0.20306252 -0.4950609 -0.19489749 -0.13679445 -0.1834315 -0.056858536 0.086869344 0.17242424 0.2271332 -0.26463133 0.1708576 -0.15695329 -0.40607938 0.039751213 -0.43773648 0.46924976 -0.98885685 0.45271695 0.12434971 0.11098692 -0.12798397 0.04532228 0.39892298 0.08967843 0.47202122 -0.5435996 0.21726398 0.24346025 -0.8054334 -0.29247585 0.5427244 0.23271018 0.4841728 0.11898568 -0.42672363 0.086644925 -0.22160235 -0.33236822 -0.1696423 -0.27893373 -0.46392256 -0.53673226 0.046014998 0.5785887 -0.4395316 -0.2664435 -0.5210214 -0.4563685 0.24107288 0.068944775 0.2428186 0.5345737 -0.3156313 0.0765801 0.112565614 0.4492013 0.1956711 0.06200936 0.14139059 0.23476484 -0.019208012 -0.43815973 0.13091365
880 0.09035772 -0.11617708 -0.65407556 -0.33081183 -0.014415487 -0.17664602 -0.18104593 -0.15376359 0.020477505 -0.26991636 -0.373968 0.047780365 -0.041274015 0.02402879 -0.054252446 -0.42851144 0.47310328 -0.7363579 0.51943105 -0.013695229 0.28748208 -0.08765025 0.24722661 0.30289397 0.24192531 0.41632697 -0.41322377 -0.1708094 -0.0735742 -0.6776532 -0.37838253 0.69477075 0.54246384 0.52939516 0.24360323 -0.24030127 0.107048005 -0.03936049 -0.113473386 -0.37050295 -0.3567466 -0.1431792 -0.34015322 -0.04817042 0.62664324 -0.5049319 -0.11118534 -0.32522878 -0.37663174 -0.13258415 0.28767216 0.4986695 0.40929943 -0.26668113 0.19405086 -0.086376436 0.45947814 0.25191376 0.3974663 0.043113563 0.18583907 -0.114837445 -0.3280087 0.31647876
146 -0.14677636 -0.8632626 -0.3164501 -0.81967384 -0.33817798 -0.37548113 0.24861729 -0.40523598 0.04056607 0.15008923 -0.3384216 0.2159777 0.026287269 0.15334103 0.067070894 -0.48029765 0.5439658 0.09675269 0.10525667 -0.119112164 0.2195047 0.106612556 0.06985286 -0.4526077 0.3019119 -0.24371839 0.30793393 0.32650843 0.26007658 -0.35493353 0.08115997 0.47910362 -0.28869355 0.42888638 0.06251661 -0.0326585 0.5555515 -0.6226188 -0.00889515 0.38304162 0.099796474 -0.12889418 0.47221237 -0.3080738 0.5857435 -0.2893248 -0.29119384 -0.30684295 -0.7043655 0.9669673 -0.6552162 -0.4479873 0.6121153 0.6993287 -0.09226603 0.499385 0.15199757 -0.0076775956 0.04439304 -0.25347832 -0.3889752 0.010262059 0.078446224 0.729788
482 -0.37431335 -0.75505924 -0.18054536 -0.86246556 0.057262946 -0.063634254 0.048645087 -0.072330505 0.050797626 -0.034623623 -0.46301508 -0.1123937 -0.010655093 -0.10442947 0.19992901 -0.036332622 0.7163383 0.25047672 0.027017293 -0.16715653 0.16890816 -0.0329176 0.015891187 -0.2599226 0.38619247 -0.18171503 -0.15242566 0.31543732 0.29456997 -0.2933651 0.121295035 0.2500793 -0.059269816 0.23314 -0.2943088 -0.24293295 0.6674441 -0.6143597 0.12956616 0.41262928 0.0011945702 -0.11606307 0.5499544 0.011093511 0.31110469 -0.17328651 -0.0071663447 -0.26570284 -0.7154943 0.7906768 -0.4121185 -0.09194939 0.12526543 0.4499248 0.12534045 0.56062204 0.28089666 0.08511192 0.054985277 -0.48937708 -0.45559376 0.021498645 0.10484897 0.43912995
41 -0.1119424 -0.23908813 -0.41433406 -0.19022186 -0.14612205 0.9132424 -0.414061 -0.56392395 0.050152555 -0.4254558 -0.97020376 -0.5024478 0.5553528 -0.7646381 0.49628967 -0.012057323 0.25557807 0.0630838 -0.10617029 -0.098419465 0.459533 -0.27965307 0.13189591 -0.41197908 0.2864026 0.032352816 0.6306591 0.9802106 0.8042722 0.3951286 -0.30579117 0.62499195 0.3700605 -0.06846393 -0.4600295 -0.41235852 0.43512726 -0.49665752 -0.41881716 0.6527784 -0.2754462 -0.19753636 1.2181599 -0.18505366 0.76961416 -0.7553976 -0.15239704 -0.78829116 -0.91667306 0.027667945 -0.21816128 0.3617357 0.46331674 -0.07554657 0.9303202 0.5321251 -0.4667515 -0.37840426 0.33441347 -0.37951145 0.14514808 0.48193258 -0.09585616 0.6234347
891 -0.17747578 -0.6389336 -0.06361404 -0.14596757 0.013166336 0.38604996 -0.62443423 -0.24014808 0.16028929 -0.38048947 -0.5551638 -0.17562409 0.09304328 -0.51448274 0.30412826 -0.22182362 0.35460758 0.34082684 0.022325333 -0.24954008 0.28167483 -0.07460502 0.2671896 -0.18938884 0.2381561 -0.12271259 0.44219387 0.76446897 0.6057168 0.2537668 -0.311123 0.18149558 0.14065798 0.33583352 -0.12253162 -0.21673147 0.6249033 -0.58405024 -0.28776965 0.7069437 -0.313485 -0.37041664 0.77443135 0.1925986 0.6878811 -0.3837458 -0.43992364 -0.7186329 -0.5710584 0.4161574 -0.20561711 0.24684598 0.25149176 0.25299537 0.6221893 0.46112657 -0.459861 -0.2397192 0.58539224 -0.32531625 -0.06643343 0.43033183 -0.2105951 0.1791103
344 -0.46847016 0.41813254 -0.4749783 -0.41909155 -0.038084768 -0.2994854 -0.028120745 -0.3504197 -0.6283901 -0.13886364 -0.42588216 -0.41400087 0.051909786 -0.21475223 0.07247436 -0.33152056 -0.1516632 -0.40794396 0.52904314 0.38119814 0.4617612 0.06472643 -0.06539205 -0.5313071 0.048758484 0.45030296 0.37984756 0.32089594 0.39034802 -0.27208698 0.5365421 0.4331855 0.8094635 0.3225837 -0.59879273 0.11793132 -0.17415214 -0.0630417 0.1542574 -0.029347578 -0.03743756 -0.17701264 0.21397571 -0.4072545 -0.2250396 -0.90522254 -0.031248732 -0.3083254 -0.36724567 0.51725537 -0.40116373 0.14670566 0.6000503 0.56881744 0.28520736 0.10370564 0.7394266 0.6397007 0.20180003 0.2737958 0.24064581 0.96924454 -0.4582572 0.43396732
554 -0.17500277 0.473461 -0.39135152 -0.42886952 0.13648032 -0.45712095 -0.10923262 -0.28155747 -0.7312592 0.08485521 -0.41758448 -0.69761974 -0.010616558 -0.44917563 -0.091190584 -0.47155675 -0.028351776 -0.320553 0.31652194 0.28553885 0.68458045 -0.023178162 -0.21770296 -0.49232465 -0.31095856 0.34295562 0.34037134 0.13161413 0.39433616 -0.37460378 0.3980389 0.16586652 0.94639385 0.3426576 -0.67517215 0.0011078088 0.065963894 -0.18615662 -0.072113276 0.02480725 -0.11163518 0.061324812 0.30341756 -0.66764534 -0.33471972 -0.67299026 -0.06801978 -0.3535394 -0.5205973 0.6205673 -0.32319266 0.1829081 0.616874 0.7962943 0.29110238 -0.022819504 0.935979 0.7044537 -0.022014124 0.27876684 0.48796648 0.6736623 -0.3957214 0.6271877
27 0.29266354 -0.71815753 0.5689514 -0.7218334 -0.8146456 0.47604218 0.059449185 0.6792831 0.6654391 -0.19951327 -0.21323673 -0.34607953 -0.052679565 -0.22238635 0.09096572 -0.20005125 -0.31220043 -0.044768404 -0.3058601 0.09861119 0.90744543 -0.3702836 0.38990387 -0.29685354 0.44509766 0.11417678 0.39246327 0.5563665 0.23682824 -0.86359084 0.22216342 -0.15666573 0.5240467 0.17253701 0.11113389 0.209748 -0.07076701 -0.38578814 -0.15733178 -0.6037546 -0.4725723 -0.67265576 -0.08818076 -0.07916868 0.34096035 -0.928885 0.18486816 0.07073714 -0.5088412 -0.46474335 -0.7325855 0.503355 -0.12638249 -0.00044617808 0.065719076 -0.78453 0.22301601 -0.046841122 0.22701362 -0.036430668 0.7228799 -0.41744682 -0.3261177 0.09544654
969 0.64927185 -0.89361584 0.52691704 -0.79782295 -0.4892756 0.33514053 0.38919446 0.43947136 0.4695603 0.13913885 -0.24914053 -0.35041735 -0.058051754 -0.5788735 0.07505837 -0.024931276 0.25109032 0.2292824 -0.05582893 0.06315823 0.60111785 -0.30495185 0.29888046 -0.24904892 0.027435051 -0.05395269 0.34113035 0.114775725 -0.017490245 -1.059584 0.30137184 -0.106269926 0.49550506 0.18324772 0.09378883 0.5548179 0.07756858 -0.23507966 -0.1710345 -0.34333187 -0.36598206 -0.35603327 -0.12937766 -0.087438315 0.27670324 -1.0622786 0.04620071 -0.15113266 -0.6497431 -0.27425718 -0.7601813 0.83425003 -0.14059633 -0.19637623 0.34795693 -0.81083596 0.15617493 0.0067283586 0.14181209 -0.18337128 0.79567736 -0.6114426 -0.04296745 0.11746299
100 0.64077085 -0.62397325 -0.33721748 -0.6460426 -0.39826947 0.30492 -0.19669281 0.5068912 -0.26722342 -0.1553324 0.51398504 -0.27034727 -0.06172197 0.013366146 -0.21296023 -0.2071584 -0.20905913 0.17962924 0.19674695 0.20327485 0.062803164 -0.42229867 -0.02507116 -0.36112618 0.51033646 0.26985347 0.16226816 -0.06558655 0.19016169 -0.5551193 -0.030521741 0.023828464 0.0025454762 0.41685313 0.29526165 -0.63173705 -0.45090443 -0.113654956 0.2039585 0.3146348 -0.7976934 -0.8307291 0.12938757 -0.07419118 -0.12579395 -0.34356737 0.047367997 -0.35211334 -0.5103053 -0.2654434 0.53020686 0.2556618 -0.16086034 -0.027385693 -0.08380636 -0.10293223 0.30660665 -0.048446715 0.15981908 -0.0760001 0.29490495 -0.27870625 0.032138843 0.57439107
910 0.77948064 -0.2605927 -0.3498827 -0.34841338 -0.098705076 0.032243613 -0.637868 0.37467 -0.5784641 -0.16644211 -0.24715748 0.0057391822 0.069949225 -0.05861038 0.27968922 -0.2233802 -0.51589364 0.09630657 0.09965945 -0.08375528 0.42604363 -0.36092767 0.016961023 -0.22221479 -0.045152992 -0.12036746 0.2909466 -0.2694867 -0.23151508 -1.192007 0.12479607 -0.104426205 0.21791658 0.37357044 0.1253824 -0.2717061 -0.15910056 -0.27470192 0.3675429 0.19593135 -0.38015452 -0.7085628 0.26501814 0.06716146 -0.2753753 -0.47969854 0.07290036 -0.41717505 -0.7046514 -0.311512 0.42740822 0.19938342 -0.07916448 0.042799048 0.30743435 -0.057238933 0.45682052 0.33615342 -0.026500769 -0.23445031 0.51524305 0.037500456 0.08189532 0.46405947
48 0.65724206 -0.5955102 0.27158585 -0.14078948 -0.15771995 -0.33380687 -0.73254824 0.18688473 -0.25397128 0.17834093 -0.7242754 -0.29626447 0.80321944 -0.35888657 0.038444232 -0.3630246 0.41757175 -0.22409447 0.18474536 0.12325659 0.08746856 -0.5683052 0.11726874 -0.58352655 0.21602073 0.19753468 0.84184194 0.3834821 1.008461 0.21471925 -0.2696578 0.5703621 -0.67545587 -0.34849682 -0.23672092 0.29465503 0.276069 0.23067531 0.014825946 0.17333643 -0.7679085 -0.15705194 0.67281485 -0.2245469 -0.06614943 -0.720754 0.09661816 -0.30871853 -1.0599864 0.3633276 -0.3945795 0.5110646 0.20114447 -0.36445346 0.3070432 0.002591408 -0.7797316 -0.120357074 -0.24347709 0.1319145 -0.24025378 -0.108600594 -0.27002272 -0.13636157
503 0.5796668 -0.37533796 0.02913045 -0.05966545 0.066358484 -0.010759225 -0.650969 -0.08589614 -0.23150621 0.07921159 -0.7007157 -0.017380578 0.59168214 -0.61055183 0.14912957 -0.2905237 0.30357447 -0.2939991 0.3445417 0.21733062 0.39006644 -0.66028225 0.335746 -0.51683396 -0.075732745 0.612239 0.9433941 0.44950184 1.0792104 0.112802014 -0.043420635 0.54159886 -0.69938266 -0.20159228 -0.43544114 0.22698277 0.26910275 0.17113233 0.102116264 0.18171662 -0.7763211 0.029155385 0.7715116 -0.03647064 -0.055619437 -0.7428606 0.18139143 -0.5496283 -1.3497957 0.26156923 -0.034505025 0.473745 0.04148293 -0.4727043 0.4654659 0.07370262 -0.6315473 -0.37062195 -0.29409778 -0.056380082 0.1399747 -0.10427306 -0.14440836 0.19662428
222 0.70888114 -0.5701942 0.03831374 -0.19560836 0.17401889 0.1384595 0.43591067 0.47972518 0.3592675 0.23977219 -0.79044294 -0.09851485 0.40144527 -0.40447828 -0.0717177 -0.17737043 -0.21650612 -0.33093596 0.13198432 -0.14122498 0.12502758 0.18819068 0.37493974 0.010589696 0.10479882 -0.031187873 -0.16209647 0.17888662 0.35119352 -0.29915768 -0.051187646 -0.656718 -0.0029842614 -0.21441409 0.53364277 0.12222914 -0.34755656 -0.32141346 0.32500267 0.19205455 -0.60399216 -0.5971005 0.1985976 -0.5838151 0.6080142 -0.44566846 -0.38459593 -0.6550512 -0.1246474 0.07011325 -0.11692707 0.78283453 -0.3070286 -0.1693747 -0.02288556 -0.3994153 0.19180933 0.77820855 -0.49140912 0.12972064 0.4644804 0.13080908 0.54882854 0.1262945
1011 0.87516564 -0.5149544 -0.08712932 -0.5104893 0.039983694 -0.18520975 0.44924518 0.25680006 0.121220104 0.31482804 -0.88252044 -0.32925427 0.41683003 -0.36066714 0.03640882 -0.17262205 -0.23328485 -0.17664406 -0.07052821 -0.23681061 0.30467483 0.18046759 0.30164567 0.17270735 0.25829622 0.18621139 -0.316449 0.2865139 0.32819033 -0.40110403 0.04003946 -0.7929312 0.009107361 -0.3309551 0.54640865 0.40436688 -0.2974077 -0.3567342 0.14100228 0.3255831 -0.69368064 -0.53097486 0.19442421 -0.7543657 0.86093134 -0.20972869 -0.43328756 -0.7667261 -0.1842138 0.030079406 -0.03761544 0.6617796 -0.2740985 -0.26853526 0.20768228 -0.14961258 0.24231857 0.83273226 -0.31874436 0.37536892 0.4348174 0.024744783 0.6922287 -0.080032006
575 -0.7023327 0.40797216 -0.13517238 -0.708967 -0.0018416747 -0.27572164 -0.09913894 -0.38953573 -0.42872453 -0.028125903 -0.48407257 -0.18757604 0.057084613 0.041536875 -0.17647533 -0.3544053 0.30930692 -0.05416646 0.45361796 -0.046980947 0.39215526 -0.12941667 -0.21121266 -0.58237576 0.33395642 0.101689 0.4117439 0.2634845 0.27602738 -0.35679296 0.2634935 0.19100666 0.9966755 0.40841055 -0.44998962 0.28362375 -0.42227975 -0.2389733 -0.18678701 -0.21990734 -0.12821442 -0.054361045 0.07071719 -0.45990083 -0.0831901 -0.43146414 -0.090958185 -0.33110702 -0.5125996 0.6805556 0.08970874 0.11972505 0.047999736 0.7049365 -0.17942601 0.60427266 0.5597187 0.94721264 0.030951228 0.19294241 -0.052146636 0.859786 -0.09988841 0.5945079
221 -0.4009149 -0.13657182 -0.38885242 -1.0652498 -0.30120477 -0.16451876 -0.26990947 -0.26968536 0.11752255 -0.068054184 -0.091362216 -0.3776544 0.16700158 -0.013802153 0.470655 -0.2549435 0.89102674 -0.2445483 0.08536253 -0.49899644 0.114941515 0.069282345 -0.04220577 -0.5502369 0.16470842 -0.813426 0.31949517 0.7117022 0.5248073 -0.27831787 0.06590479 -0.21897976 -0.43259913 0.17237331 -0.35551462 -0.30854627 0.7871938 -0.27807787 0.11854146 0.118112884 -0.5031478 -0.48390004 0.642795 0.3562185 0.68257385 -0.66149855 -0.0064475895 -0.25292185 -0.16496868 0.053108312 -0.13756272 0.36034378 0.5399656 0.44435415 0.39409867 0.7086077 -0.064359896 0.03088353 0.84104156 -0.5597955 -0.30653253 0.039445426 -0.091970235 -0.12939127
807 -0.43602762 -0.2893584 -0.18637185 -1.005086 -0.037661944 -0.1036865 -0.27250895 0.020665403 -0.027401296 -0.37483072 -0.037569404 -0.13647012 -0.15321362 0.14675805 0.45785433 -0.35066968 0.792542 0.0329328 -0.08041817 -0.31402245 -0.11971333 0.2393106 0.24843918 -0.6433006 0.095667094 -0.71655935 0.2698594 0.63800436 0.4014299 0.18518864 -0.018781055 0.086246766 -0.045228396 0.07635383 -0.3948217 -0.31680954 0.715816 -0.40728423 -0.024840768 0.21688506 -0.41833752 -0.24208528 0.6414117 0.0806032 0.6014067 -0.3293303 -0.10978871 -0.64807296 -0.40559432 0.31850073 -0.20825121 0.2876772 0.41662383 0.38270646 0.39851382 0.39642146 -0.18941604 0.20453164 0.40448236 -0.28254566 -0.2555319 -0.03518378 -0.059346583 -0.09857125
545 0.24665278 -0.6349932 -0.09393654 -0.31154287 0.31366098 0.40628597 -0.074003026 -0.34348702 0.4258429 -0.311746 -0.033359073 -0.54471153 -0.38479525 -0.3528762 -0.056106478 -0.317449 0.15803233 -0.33751747 0.23183979 0.030296324 0.23106474 0.18698142 0.2142727 -0.24762625 0.399252 -0.6108301 -0.5939535 0.3236371 -0.013973126 -0.18204454 0.016997915 0.4423634 -0.068673074 0.2571823 -0.8316426 -0.6798487 -0.0008368924 -0.2276461 0.4098343 0.49332666 -0.33525938 -0.45252937 0.28220713 -0.1413326 -0.04839748 -0.10346083 -0.25469506 -0.5746462 -0.3479539 0.47125497 0.5844479 0.26692757 -0.1204965 0.4627621 0.1547129 0.23841137 0.44806844 0.12636557 0.3506623 -0.60231084 -0.16982372 0.02156943 -0.24983355 0.2655135
106 0.5886959 -0.69082266 0.74061483 -0.6236451 -0.2051568 -0.18211666 -0.007517064 0.8373877 -0.030855224 -0.28891593 -0.5113408 0.05835614 0.21882704 -0.5583674 -0.039889067 -0.39030188 0.06954034 -0.54912126 -0.24681823 0.49250156 0.50078946 -0.14517036 -0.25069085 -0.26281342 0.123039134 0.3673163 -0.01642551 0.4754181 -0.1616769 -0.6072901 -0.3800102 0.35602453 -0.20913395 -0.39863738 0.18823124 0.15225758 -0.2906921 -0.29647243 -0.09048703 0.28710374 -0.22457956 -0.66203785 0.4941257 -0.20637453 -0.02050376 -0.7256694 0.13290557 0.005209518 -0.57059884 -0.2055872 0.07744041 0.5273899 -0.2946674 0.007427666 0.3963725 -0.24452618 -0.196294 0.4730308 -0.28096002 0.4097385 0.70026726 -0.37221143 0.33521357 -0.16396457
650 0.15494452 -0.11318518 -0.2413597 -0.47730383 -0.020378163 -0.10047842 0.11177843 0.25286224 0.6240553 -0.18146086 -0.762677 -0.21901844 0.52430236 -0.4368904 0.46412414 -0.4061623 -0.1749919 -0.4616719 0.46340716 0.61446273 0.29187328 -0.35063204 -0.17568932 0.21972252 -0.013768806 0.4939524 -0.056106374 0.28615004 0.15411621 -0.2702951 -0.0074517247 -0.26641485 -0.4340261 -0.5181337 0.6357258 -0.015688974 -0.26863974 -0.07480202 -0.38507974 -0.1544971 -0.65121126 -0.2538161 0.38241825 -0.31362274 0.39078924 -0.8061145 -0.17652155 -0.060226742 -0.527444 -0.13699192 -0.07179279 0.70470333 0.21850398 -0.54852384 0.024360426 -0.1350553 0.10443874 0.31679896 -0.18715575 0.08027398 0.32132563 0.08538261 0.6154459 -0.007892445
76 -0.16555491 -1.1007178 -0.70501196 -0.605547 -0.019706678 -0.42833883 -0.19797595 -0.017559586 -0.58224493 -0.33867753 0.13080622 -0.44198376 -0.22282428 -0.38914725 0.27148134 -0.47317606 0.5857599 0.26586065 -0.024449883 0.2314999 0.26151246 -0.32455567 -0.23727438 0.22273254 0.24884242 -0.27178967 -0.634979 0.3902649 0.969837 0.037095465 -0.2521749 -0.3527126 0.5835487 0.42701194 -0.65101975 -0.07914785 0.30169964 0.17618413 0.45167536 -0.25568944 -0.5290225 -0.41116908 -0.2421352 -0.083088174 0.6822225 -0.12270228 0.08792299 -0.12199215 -0.072262496 -0.08301958 -0.405199 -0.16237204 0.035905357 -0.10617734 0.16683196 0.9700429 0.07306343 0.30655846 -0.061325174 0.2802344 0.4377129 0.33728042 -0.05711856 0.21739076
1008 0.04458635 -1.4153161 -0.62736243 -0.5043046 0.0571297 -0.09078004 -0.5839147 -0.25451568 -1.0291171 -0.61736196 0.1706603 -0.45027894 -0.14953502 -0.29219913 0.3909826 -0.48896122 0.4199202 -0.1328693 -0.35898772 -0.10285085 0.2985229 0.04233379 -0.35037735 0.30476555 0.19617379 -0.092124015 -0.3256819 0.35666642 1.1195302 -0.05689016 -0.0011128904 -0.39909217 0.58732647 0.56114864 -1.0795635 -0.07231825 0.50381786 0.20603667 0.43665376 -0.15303561 -0.916639 -0.6094029 0.035309553 -0.6739032 0.88927996 -0.081745155 0.091688484 -0.14134938 -0.15191898 -0.16056316 -0.40425912 -0.29786345 0.26087174 -0.14445262 0.27188993 0.41054496 -0.10528225 0.14442368 -0.0787079 0.15729572 0.40270585 0.14207952 -0.15709864 0.3220014
145 -0.16057314 -0.39218634 -0.13269827 -0.69201726 0.27624127 0.26285636 0.47332472 0.26515463 0.10879758 -0.06465128 -0.0034230328 -0.31237513 0.17285933 -0.30899918 0.340215 0.57933944 0.59048796 0.24723937 -0.16577715 0.2813027 0.32221922 0.14967994 0.5753079 0.016044531 -0.046817157 -0.93928236 0.16782907 0.5729882 0.44873568 -0.51087177 -0.46495748 0.12338362 0.22513425 -0.5009194 -0.29038772 -0.49256673 0.4526457 -0.7830403 -0.17522669 -0.07870683 -0.7988982 -0.48452964 0.75485116 -0.08132114 0.65489244 -0.3158072 0.19286038 -0.5166483 -0.5006446 0.57700855 -0.41699275 0.6572729 -0.22668067 0.33792463 -0.26962408 0.7408714 0.40732238 0.4026693 -0.18074743 -0.46386263 -0.48630068 0.5458663 0.06497961 0.3801458
450 -0.14603166 -0.28911698 -0.1356277 -0.68483084 0.27458525 0.26053485 0.3592992 0.15880013 0.40470502 -0.07541708 -0.16541268 -0.56523854 0.03778121 -0.49506494 0.043623768 0.45420334 0.70410246 0.3742472 -0.009668742 0.31320983 0.40260047 0.0204242 0.5394075 -0.22297207 -0.0032743847 -1.0425181 -0.008987202 0.469735 0.4138445 -0.26981813 -0.22666685 0.16774993 -0.048870806 -0.23649225 -0.34039584 -0.6262283 0.6006249 -0.7219251 0.10726347 -0.12588401 -0.7702158 -0.26511097 0.6255907 -0.059055276 0.47904092 -0.28985944 0.10777362 -0.5423273 -0.47909755 0.48824573 -0.38945785 0.58702654 -0.042590182 0.42672086 -0.26503846 0.620747 0.27398014 0.39568177 -0.025451666 -0.34146407 -0.5535762 0.6069483 -0.05586899 0.19280832
301 -0.49253502 -0.40833232 -0.43783498 -0.55768025 -0.10751201 -0.44455937 0.25764635 0.3048535 0.29960144 0.18427368 -0.055857137 -0.6922831 0.2531818 0.2562638 0.29166466 -0.49688628 0.12763707 -0.5498592 -0.22839674 -0.20273283 0.92506677 0.5422731 0.34116808 -0.107786186 0.5186278 0.048103966 1.2756994 0.26798013 0.6608058 0.13829207 -0.063386716 -0.27186516 0.13255501 -0.30877346 -0.2893748 0.14926761 0.9430943 -0.5411654 0.14377268 0.07582619 -0.5295656 0.114381306 1.097408 0.24070537 0.16761856 0.074035496 -0.77888876 -0.96628684 -0.56017846 0.21671191 -0.031229045 0.7963398 0.6223841 -0.17101891 0.6928056 -0.11036499 0.27701634 0.21005511 0.2691026 0.08616639 0.35869494 0.2809968 0.5026703 0.13950573
247 -0.36023754 -0.6535781 -0.028068602 -0.18529625 0.45500565 -0.54473037 -0.21898796 0.23670022 0.31454635 0.1450397 -0.073608235 -0.58666843 0.49073666 0.14792821 0.67465925 0.11805805 0.039307557 -0.44364828 0.5526798 0.63091177 0.6624424 -0.6067814 -0.0028672193 -0.13931072 0.5256801 0.4558742 0.44038498 0.6354465 0.91772145 0.073252864 -0.05508448 0.08285282 -0.16908097 -0.8385526 0.1254302 0.041684452 0.16175465 -0.57508737 -0.47410148 0.028736876 -0.28935346 0.09690494 0.16609956 0.08737768 -0.20230524 -0.91499656 -0.5718683 -0.40120202 -0.3633844 0.075328365 0.14247258 0.79964274 0.5148348 -0.13142835 0.67374885 0.116852395 -0.077192195 0.2601424 -0.55315953 -0.16492933 0.24736111 -0.7132471 0.8062035 -0.08626426
897 -0.51406926 -0.73132277 -0.23941574 -0.48397142 0.34780818 -0.7192954 0.086323455 0.23446222 0.42961732 0.61369205 -0.009491109 -0.61558104 0.46562287 0.23901756 1.0748788 0.41331992 -0.048586365 -0.57439405 0.58809596 0.41266787 0.96155286 -0.4806785 -0.03770703 -0.077131264 0.3940847 0.34240055 0.1159479 1.1503322 0.8720673 0.1710268 0.08561261 0.14946312 -0.04245261 -0.873171 0.43701383 -0.07176522 0.26251775 -0.63113344 -0.5747393 0.1385193 -0.4075894 0.45236468 0.0881872 -0.123071 -0.13894548 -1.2358358 -0.5700033 -0.5129224 -0.67489296 0.1561816 0.16776262 1.2165025 0.33442125 0.26241052 0.44411466 0.1901835 -0.08016825 0.086590014 -0.7321582 -0.17598446 0.46155956 -0.39375412 0.79996425 0.102890134
10 -0.2396882 -0.31676522 -0.19350979 -0.038067505 -0.26588225 -0.5453233 0.15942757 0.001650871 -0.4661228 0.100301616 -0.4772953 -0.6932828 -0.2860661 0.05789767 0.088315144 -0.28601617 -0.14128363 -0.91733104 0.415703 0.286748 0.8027267 0.6788881 -0.57748526 -0.63540405 0.10305503 0.19775708 0.64068854 0.11093516 0.37200695 -0.3498108 -0.056121457 0.18367802 1.3616776 0.087693684 -0.4306383 0.24719834 0.467865 0.0028859104 -0.0059066433 0.106387176 -0.20781054 -0.10835233 0.88914925 -0.537403 -0.28698814 -0.47823963 0.00520839 -0.17366613 -0.5755924 0.6759298 -0.07852308 0.44284493 0.61584973 0.73036313 0.5028201 -0.30101648 0.1994609 0.49172813 0.1755856 0.029854635 0.2577281 0.91116655 -0.277717 0.5741941
899 -0.42102838 -0.16053295 0.05269265 -0.06368888 -0.31044126 -0.41201538 0.2520926 -0.11273837 -0.23372076 -0.050357874 -0.17740673 -0.77907073 -0.21872333 -0.15971468 0.18152215 -0.3533093 -0.32782027 -1.0625302 0.4340289 0.4762899 0.93385637 0.7638807 -0.69192225 -0.6122004 0.051025253 0.20578887 0.543738 -0.003728986 0.6468163 -0.4603771 0.14641868 0.24353635 0.99875426 0.3208053 -0.6707424 0.25518596 0.48332608 0.20395224 -0.13944864 0.46541342 -0.329248 -0.17917508 0.9426635 -0.49064457 -0.17577806 -0.47155955 -0.17321621 -0.2665181 -0.6784139 0.8102699 0.0610583 0.3529944 0.68196577 0.39439175 0.3529737 -0.24081601 0.35202906 0.1688327 -0.10710813 -0.060446456 0.47400704 1.0269928 -0.29112527 0.504086
24 0.25035623 -0.3546755 0.29512733 -0.46573454 -0.030123908 -0.10548585 -0.13274732 0.17147708 0.49135494 0.123024784 -0.5034412 -0.42561403 0.73604226 -0.14303716 0.95871913 -0.26504743 0.040585365 -0.5399569 0.5181692 0.31458095 0.090396784 -0.15843731 0.44233993 0.02648999 0.08358564 0.49888378 0.4125484 0.33063096 0.8902131 0.21097769 0.2945632 0.25628072 -0.034529652 -0.52376175 0.23826464 -0.059099622 0.27581334 0.008970484 -0.2405713 0.13407172 -1.0173805 0.16525862 0.27477762 -0.42582083 0.039491598 -1.039567 0.25033 -0.29105076 -0.8770106 0.3866398 0.083770126 0.39766338 0.25577632 -0.7132179 0.18780713 -0.35275194 0.19911513 0.18253464 -0.4017587 0.33007982 0.10514966 -0.12032626 0.44251397 -0.59724826
927 0.1342193 -0.35101706 0.077922896 -0.680183 0.020525228 -0.27339882 0.052500598 0.26839283 0.33973098 0.26810476 -0.4851199 -0.37127522 0.7871793 -0.042978693 0.38925335 -0.41614434 -0.12345973 -0.55028224 0.5899887 0.07841352 0.15159464 -0.4531249 -0.006769005 0.39607278 0.21491267 0.21179901 0.34435558 0.31612778 0.7319611 0.42093843 0.31709483 0.20563745 -0.27984187 -0.5495417 -0.062108114 -0.039171617 -0.16092844 0.4472079 -0.06372159 -0.07559229 -0.8049219 -0.4792792 0.06234314 -0.8537461 0.033596486 -1.0284168 0.0046402668 0.07253313 -1.0807775 -0.13603224 0.1821915 0.62695193 0.2177753 -0.30314738 0.009333349 -0.4294631 0.37899637 0.37451345 0.16997112 0.18566325 0.0442817 -0.044883896 0.7044968 -0.4627976
166 0.017118748 0.45344573 0.06256992 -0.47490817 -0.036213294 -0.099417225 -0.5088075 0.44037837 0.15582186 -0.4541399 -0.49458414 -0.6602172 0.5016799 0.024286931 0.2504957 0.022189543 -0.7388757 0.11381539 0.5109715 -0.33761156 1.2242014 -0.025480814 0.67235017 -0.61133754 0.538247 0.20919916 -0.09269757 -0.4322975 0.14497529 -0.3301672 -0.3051636 -0.4163233 0.28606778 0.029891297 0.1406047 0.13851279 -0.062870786 -0.3565615 -0.049206637 0.12025896 -0.5283161 -0.098490514 0.14728998 0.116394535 -0.29999337 -0.6538941 -1.1406595 -0.25337628 -0.46039498 -0.08615636 0.11399219 0.38553372 0.13660386 0.28058583 -0.3230348 0.14600156 0.3740109 0.63894534 -0.37939572 0.7927533 0.11407278 0.037459336 0.050326876 0.07411504
757 -0.1789702 0.76709646 0.042159606 -0.39252698 0.50058156 -0.27696544 -0.3149193 0.45310065 -0.059632856 -0.3958883 -0.41147935 -0.84163374 0.50698686 0.27012697 -0.08444041 -0.037333254 -0.5468602 0.20806104 0.5407309 -0.37921104 1.1308839 0.18049419 0.53033376 -0.53806 0.43561077 0.074855015 0.08666074 -0.2649084 0.083121955 -0.49196574 -0.07221182 -0.41306263 0.5547372 0.2528814 -0.24840507 0.32053813 0.028718682 -0.65938723 -0.3459602 0.040235147 -0.64779246 -0.19611657 -0.26907945 -0.22998118 -0.3715934 -0.81750417 -1.0339137 -0.20161088 -0.4257843 -0.16463727 0.100583434 0.3630712 0.18441588 0.3916511 -0.69361246 0.4599172 0.17675605 0.69632256 -0.14378265 0.92103815 0.1326569 0.30556387 0.14755484 0.2358527
316 0.0120833935 -0.6586249 -0.45071888 -0.18427058 0.16472909 -0.3407225 -0.59499586 0.33498794 0.171799 0.08090219 -0.3461065 -0.829483 0.24674974 -0.18340759 -0.13979754 -0.18284403 0.094113305 0.036521513 0.14660373 -0.1611143 -0.08494161 -0.32215804 0.19235542 -0.33473882 0.14444768 -0.39391658 0.39171347 0.4713256 0.4930281 -0.3965924 -0.2705706 -0.18620661 -0.3468852 0.54563195 0.09993062 -0.09894991 0.5746103 -0.18482259 -0.077803314 0.09078143 -0.040710077 -0.18921688 0.15068656 -0.1349797 -0.019708255 -0.057301212 0.3337426 -0.17217807 -0.61611134 0.27367488 -0.46196488 0.7589658 -0.22813353 0.32645988 -0.04150666 0.04132506 0.37602767 -0.12069188 -0.14501873 0.029567717 -0.550934 -0.63075405 0.2603079 -0.12919724
684 0.28105 -0.16559456 -0.07051801 -0.14961885 0.052060273 -0.0092217205 -0.08393529 -0.0834075 -0.031212237 -0.082191445 -0.07061191 -0.16763681 0.21893908 0.050628167 -0.01654021 -0.07665725 -0.0044678506 -0.08347105 0.6036894 0.16912434 0.1803074 -0.32709217 0.18999717 -0.039263155 0.5631051 0.052086376 0.22081088 0.01138931 0.08868892 -0.6114096 -0.010167675 -0.3403758 -0.3801558 0.015575698 0.091070585 -0.15312317 -0.23842248 -0.62367874 0.23361063 0.060865633 -0.44409576 -0.5748038 -0.007365848 -0.52835906 0.096599706 -0.49813724 0.33694485 -0.51093715 -0.11501436 0.33846453 -0.33439338 0.7933476 -0.3449701 -0.19370125 -0.055459104 -0.31340855 0.38179564 0.23716833 -0.2522473 0.0048947716 0.24557698 -0.47644544 0.16733705 -0.43154943
124 -0.22519402 -0.56774116 -0.15428236 -0.51680785 0.21250033 0.07114636 -0.14900452 0.029845918 -0.061761808 -0.21575715 -0.1533172 -0.143934 -0.16077778 -0.07880792 0.05579859 0.17610982 0.65816647 0.24667774 0.30318832 -0.019112647 0.04585927 -0.0044540125 0.22572343 -0.5348806 0.19760817 -0.32900754 -0.20462774 0.40932032 0.4276038 -0.2240926 0.14307112 0.3438644 0.11668835 0.22309567 -0.35525727 -0.21484444 0.86554646 -0.40622196 0.007518656 0.21022774 -0.5033812 -0.22221343 0.8320332 -0.0685977 0.54115695 -0.22556454 -0.12864514 -0.3046758 -0.18914382 0.5284202 -0.14758053 0.22957295 0.01922072 0.19055088 0.053864658 0.6012974 0.060396463 0.03366199 0.41436753 -0.45652533 -0.3564282 0.10528395 0.08874976 0.1929972
667 -0.12372281 -0.51331455 -0.025255669 -0.33635277 0.43053287 -0.13147023 -0.1677823 0.20759392 -0.0755519 -0.18481788 -0.22534359 -0.40433016 0.3795494 0.09186308 -0.05629837 0.02547737 0.7614537 0.137008 0.11183236 0.15092225 0.05722253 -0.16033697 0.19451381 -0.6242678 0.25131416 -0.526882 0.02710041 0.54121757 0.6330688 -0.43774566 -0.13693857 0.19416007 -0.38457385 0.07617002 -0.26364866 -0.30634367 0.61265296 -0.28557712 -0.00981088 0.22903065 -0.05573301 -0.40029046 0.57471484 0.17392305 0.40946978 -0.28883857 -0.19915943 -0.025267776 -0.43389714 0.4210558 -0.2852311 0.26053512 -0.045203015 0.40015158 0.3578581 0.3391656 0.08579939 -0.3366506 0.086014986 -0.11443357 -0.40965408 -0.26215398 -0.36268815 0.13219398
133 -0.16272615 -1.0481378 -0.8477055 -0.03647014 -0.007772612 0.2359408 -0.39278448 0.3225513 -0.577723 -0.5522541 0.21355858 0.108696096 -0.28835732 -0.48527205 0.3086865 -0.5621837 0.37247407 -0.23402476 0.39550066 0.21438384 0.4458517 -0.3456268 -0.45215997 -0.16461511 0.082205564 0.14190763 -0.18238705 0.16556518 0.35931668 -0.7067435 0.17420839 -0.21232072 0.5265402 0.62295127 -0.33564198 -0.41176507 -0.06739027 0.20467758 -0.29517725 -0.5386347 -0.827762 0.12866503 -0.00781816 -0.5550942 1.055556 -0.20934716 -0.4366813 0.15720874 -0.21144031 0.1892511 0.025950423 0.18632247 0.16934456 -0.33660182 0.13332416 0.48597947 0.1124001 0.14076062 -0.009364379 0.23282547 0.64078766 0.70150673 -0.2955299 -0.595433
433 -0.00074870605 -0.7224696 -0.85862976 0.1352838 0.1261069 0.33835444 -0.210831 -0.06449754 -0.5335476 -0.9898054 -0.22773759 -0.24989624 -0.45158702 -0.43901253 0.37943026 -0.90315795 0.70876974 -0.2860871 0.21347435 0.41315693 0.5349836 0.093355484 -0.3542879 -0.041688442 0.07958302 -0.08192647 -0.3915052 0.14352252 0.3796457 -0.40750748 -0.1768464 -0.08996043 0.404545 0.6075561 -0.7322942 -0.32941458 0.047449328 0.21155213 -0.059894312 -0.66802996 -0.8884823 0.186387 -0.041742142 -0.6236084 0.98527646 -0.0847881 -0.5388524 0.124374025 -0.528381 0.22423495 0.10756748 0.3251294 -0.379073 -0.33340517 0.2510324 0.27065206 0.29059145 0.24212655 -0.058255438 0.12255023 0.51196617 0.5717606 -0.6933234 0.112285055
1007 0.22525312 -0.2941093 -0.24439383 -0.47117364 -0.4001396 0.060247257 -0.44489166 0.14758791 0.35865915 -0.25515023 -0.24745034 -0.061418816 0.19557977 -0.24098992 0.76600516 0.19313876 -0.41512617 -0.5182101 0.30888784 0.53473043 0.4227827 -0.065589786 -0.29606876 -0.36361694 0.40823516 0.1414877 0.031083724 -0.12495707 0.5201229 -0.17010474 -0.08131073 0.29965857 -0.31512177 -0.7859667 0.2710232 -0.22284152 -0.15006888 -0.51497257 -0.04914353 -0.4798216 -0.86109835 -0.13955209 -0.14867522 -0.6974133 -0.1392638 -0.9002134 -0.29932114 -0.24627464 -0.5256653 -0.121966794 -0.24845067 0.5384679 0.15803315 0.047182266 0.36364067 -0.17300718 -0.09211409 0.15810508 0.12845889 0.2946311 0.4782941 -0.5181735 0.8019001 0.07357773
352 0.12699334 -0.3628856 0.41728956 -0.33630776 0.50428534 -0.5362425 -0.55980873 -0.15413389 0.45109147 0.38412806 -0.75854844 -0.723271 -0.2141329 -0.30050296 0.014260059 -0.14757058 0.15701221 -0.16580567 -0.17542455 0.18630458 -0.027585616 -0.15177132 -0.41228652 -0.4354461 1.0201278 0.174832 0.15812299 0.35281613 0.2251023 -0.7574076 0.25758612 0.39178655 0.6519586 0.19103259 -0.5824222 -0.06216975 0.24664727 -0.2553264 -0.76101583 -0.17502068 -0.27086332 -0.7839806 -0.45661062 -0.61861974 0.25383782 -0.5968662 0.22257224 -0.06580615 0.045638207 0.017821414 0.026556589 0.23168263 0.25703746 0.3667024 0.099025436 -0.0670952 0.16863446 0.7642929 0.051097684 0.03438245 -0.27724215 0.64364266 -0.88888913 0.13382378
760 0.18242007 -0.15781176 0.28027475 -0.4141761 0.42784017 -0.48806688 -0.67067754 -0.2667347 0.17621282 0.1318455 -0.7781088 -0.8242823 -0.35140005 -0.29421073 0.26862666 -0.2609373 0.13599648 0.01329571 -0.30629 0.37496808 0.092936166 -0.009363024 -0.6076493 -0.57513493 1.1288673 0.14519832 -0.00088698266 0.30832624 0.20676088 -0.6331984 0.42232752 0.59076744 0.29795778 0.26710972 -0.6120988 -0.000786055 0.18499164 -0.078646764 -0.99532324 -0.14847611 -0.27582178 -0.82198066 -0.31313717 -0.5733018 0.4154746 -0.6698795 0.16502126 -0.041239787 -0.04234197 0.029449647 0.06609967 0.48878106 0.37836754 0.4680042 -0.00053553825 0.15165146 0.046040352 0.6513844 0.0714354 -0.04501158 -0.049912713 0.5962883 -1.1164925 0.1681782
51 0.12217704 -0.20981179 0.0041038394 -0.17121491 0.5594024 -0.32224235 -0.7126426 0.31579757 0.30444998 0.2719926 -0.7702235 -0.5647988 -0.24061486 -0.07334103 0.5102334 0.050688785 0.24918821 -0.1176758 -0.43017635 0.01131156 0.31336367 0.18148054 -0.45783725 -0.3004609 0.8730449 0.4009736 0.21502851 0.18318291 0.28630444 -0.65688175 0.2789817 0.13505656 0.724354 -0.05478289 -0.5722973 0.27990058 0.11725759 -0.1944979 -0.8252746 0.050645914 -0.64764243 -0.6630411 -0.20150602 -0.6109643 0.5330222 -0.57735103 0.12297627 0.05107018 0.14361034 -0.20407934 0.24212828 0.4718609 0.18628696 0.6413826 0.047234874 0.1662795 0.4018757 0.7801805 0.2943495 0.28099135 -0.11541119 0.44642478 -1.0406386 0.21733198
767 0.04005725 -0.2535766 -0.27600148 -0.3995948 0.5222842 -0.38310006 -0.68293625 -0.06977942 0.42313355 0.23167367 -0.6714703 -0.42849725 -0.5026701 -0.016884185 0.2504493 0.034755945 0.3493309 0.016973114 -0.2931483 0.38058487 0.24020092 0.05590995 -0.50394255 -0.5112012 0.8839514 0.17542559 0.3085043 0.1906424 0.338826 -0.5502469 0.2738976 0.1909255 0.576557 0.017413666 -0.49865916 0.2237476 0.064564385 -0.070598066 -0.8183842 -0.062423002 -0.41386682 -0.6693941 -0.30013585 -0.5069033 0.35213614 -0.7898726 0.5644133 0.06048013 0.19022799 -0.22167724 0.28275344 0.5140044 0.31417078 0.78592056 0.18877207 0.30403745 0.33084896 0.72511303 0.07194849 0.14106147 -0.34184527 0.58872163 -1.0342449 0.14983255
143 -0.03259915 -0.01648725 0.15435797 -0.6295293 0.013893331 0.5097673 -0.4572568 -0.39848468 0.24892251 -0.6678598 -1.1739521 -0.43331373 1.060463 -1.1359781 0.6518113 -0.017476758 -0.27229008 -0.11295885 0.030189678 0.13870022 0.42225444 -0.712678 -0.09609324 -0.12643836 0.057754956 0.38613364 0.39692134 0.49972567 0.53615344 0.4612025 -0.6931905 0.13214156 -0.14322731 -0.74908036 -0.043815326 -0.26546252 0.285987 -0.31188112 -0.6196196 0.5960541 -0.19087513 -0.14113075 0.58293784 -0.47044632 0.81254554 -1.0654839 -0.040594913 -0.61916 -1.202164 -0.19461137 0.26379704 0.46400785 0.23234971 -0.050417967 0.857947 0.5236686 -0.2135005 -0.2422246 -0.019523274 0.09324174 0.38051146 0.13795611 0.52883714 0.2146128
693 0.033082787 -0.18370031 0.081997365 -0.4746923 -0.05543462 0.49558324 -0.09881496 -0.32474235 0.20042826 -0.67657757 -1.0657486 -0.36132392 1.0372386 -0.9498828 0.60033345 -0.09087134 -0.37112975 0.054816887 0.18823974 0.14215823 0.46881932 -0.6171602 -0.11566553 -0.0022064846 0.16864477 0.541982 0.39858842 0.31876582 0.55737054 0.27975318 -0.67817986 0.07188534 -0.14035378 -0.77571404 0.3169172 -0.33705258 0.25964624 -0.29713422 -0.4708803 0.63204384 -0.13936053 -0.083242744 0.38881937 -0.60351694 0.75274694 -1.138471 -0.22264037 -0.42122838 -1.2124507 -0.2159585 0.32324418 0.6491782 0.12703633 -0.089564964 0.7909879 0.28303126 -0.13463244 -0.1500626 -0.10639277 0.19609828 0.34417048 0.078057736 0.6401012 0.0751958
708 -0.33891505 -0.5473716 -0.337412 -0.4846795 -0.0025703213 -0.32996556 -0.24369673 -0.13980432 0.11712459 -0.032781832 -0.018964088 -0.1611122 -0.093435474 0.36320212 0.038101237 -0.33660668 0.70038474 0.23485747 -0.008279328 0.19853568 0.06254015 0.1834306 0.4602843 -0.047894333 0.14348048 -0.42216176 0.08573821 0.72739434 0.4886215 -0.26306024 -0.18382515 -0.006153172 0.012562951 0.06335503 -0.5873691 -0.2371898 0.7771823 -0.48517928 -0.1469176 0.51307356 -0.04595487 -0.6241197 0.9625957 -0.095824644 0.3398751 0.12821949 -0.1874518 -0.47562525 -0.58743346 0.43630522 -0.14811708 0.48676565 0.3513473 -0.006002404 0.29466066 0.5481549 -0.11603915 0.16074118 0.2981463 -0.21928301 -0.41954458 0.43592435 -0.22062832 0.20901686
196 0.042918757 -0.71443194 0.06953252 -0.3062698 0.54009616 -0.1096284 -0.65843385 0.40289238 -0.0012927745 -0.070576794 -0.22858188 -0.8483762 0.17869629 -0.011926333 0.0379746 -0.0663609 0.43048024 0.027039245 0.33895722 -0.0047945925 -0.07165721 -0.15607466 -0.021207893 -0.65000105 0.21487188 -0.2915928 0.28457063 0.49782386 0.31447712 -0.47255698 -0.09171762 0.08839843 -0.5861472 0.18355563 0.16290978 -0.33795562 0.63304394 0.11238868 -0.048635613 0.06541297 -0.16651233 -0.26496974 0.3585923 0.0003020721 0.20791578 -0.19850035 -0.019911863 -0.29350492 -0.5242031 -0.0033032938 -0.6893849 0.64534277 -0.31809378 0.18008223 0.27421558 0.082131416 0.29018542 -0.39072156 -0.13847211 0.00940857 -0.5824849 -0.3314983 -0.1330497 -0.06616972
796 -0.022969786 -0.49951497 -0.7169867 -0.39794064 -0.16280925 0.00083369436 -0.1548493 0.15541278 -0.09526065 -0.08654964 -0.32764643 -0.38795558 0.48003313 0.29044697 -0.13317302 0.0013047744 0.5345554 0.13571346 0.3020419 -0.03269647 -0.11013997 -0.2778817 0.10360477 -0.004326068 1.0124711 0.01336747 0.11857619 -0.15151432 0.31554297 -0.3081278 0.046520118 -0.21542497 -0.26531708 0.32388055 0.09826146 -0.558979 -0.13441643 -0.07172169 -0.02111385 0.18205261 -0.20864305 -0.4039021 0.2519263 -0.19028701 0.14543015 -0.27932742 0.25675774 -0.27154043 -0.05243684 0.21105595 -0.09325775 1.0070764 -0.492871 -0.01115842 -0.08842768 -0.43553177 0.421774 -0.19363283 0.0021297783 0.5038613 0.3960925 -0.42485732 0.3601728 -0.15962656
342 -0.35800254 -0.15640225 -0.15962295 -0.09173804 -0.23876153 -0.48245668 0.23875965 -0.051596142 -0.38619798 -0.051677763 -0.4334719 -0.6644721 -0.016664771 0.09979997 0.009663014 -0.1839664 -0.4173754 -0.9835439 0.47275677 0.41341 0.73881215 0.6685187 -0.68143183 -0.47425687 -0.029475193 0.17145112 0.5309752 -0.054027796 0.59330165 -0.26972705 0.108505 0.23451114 1.2968124 0.26062596 -0.6174406 0.19436225 0.31460792 -0.23378915 -0.13147913 0.20718718 -0.18857022 -0.051851556 0.86067754 -0.36721712 -0.040702607 -0.37735775 -0.015203861 -0.33356398 -0.6933605 0.6758451 0.015801013 0.22579657 0.6113571 0.8210105 0.3760738 -0.18505609 0.46039274 0.50313234 0.0366982 0.12750235 0.24652041 1.008399 -0.06557555 0.5659661
706 -0.40406546 -0.16931936 0.034043077 -0.13813373 -0.41221136 -0.11192913 0.26066905 -0.025860967 -0.3930201 0.08508217 -0.32942903 -0.82621855 -0.20414598 -0.036833115 0.07276506 -0.34063396 -0.33912355 -0.84263825 0.3363516 0.31799352 0.81603473 0.6973622 -0.79244184 -0.81739193 0.093191095 0.102098234 0.6143947 0.21025556 0.6009503 -0.7556549 0.17367348 0.07180792 1.1335038 0.40105826 -0.56181836 0.46867245 0.5802181 0.037731778 -0.0064147105 0.19665878 -0.23376088 -0.1263709 0.9213417 -0.47371545 -0.34298044 -0.6030745 -0.09098685 -0.27084163 -0.57433766 0.70264727 -0.08688255 0.4602068 0.53971773 0.40938628 0.2945834 -0.3963299 0.3407423 0.02526696 -0.031713355 -0.027538992 0.49804747 1.0564394 -0.3042149 0.38213322
355 -0.07515941 -0.32148528 -0.5106051 -0.557148 -0.293917 -0.17307137 -0.09143525 -0.053629015 0.21480188 0.25900927 -0.18964745 -0.05853093 0.118407905 -0.18063007 0.3409104 -0.14804898 0.21883231 -0.20282811 0.7790237 -0.15946272 -0.13940209 -0.11006815 0.17617705 0.07621597 0.6217674 0.2037791 -0.1840549 -0.041080218 0.2595815 -0.94004077 0.15634802 0.019604763 -0.48668444 0.21777646 0.1198809 -0.076694615 -0.21191053 -0.28462642 0.20973304 0.1367006 -0.096697226 -0.75401884 -0.04290502 -0.16103652 0.4331001 -0.16617253 -0.0035644444 -0.27036667 -0.30236527 0.12771545 0.14990847 1.1555825 -0.27425513 0.05916592 0.19187626 -0.4035367 0.34269962 -0.32100362 -0.021088189 0.25405475 0.22477603 -0.33384183 0.2229104 -0.09678156
293 0.072193906 -0.27820784 0.12676263 -0.37092915 0.4854674 -0.3869222 -0.72812426 -0.23579936 0.50613517 0.24005592 -0.7214497 -0.64222205 -0.39185944 -0.28842482 0.120396025 0.019273648 0.25188434 -0.25101617 -0.316933 0.3369171 0.021350654 -0.07920374 -0.4752802 -0.5939832 1.1037894 0.23031516 0.09478235 0.20637694 0.4297108 -0.6196394 0.42196032 0.38578978 0.6237085 0.34414518 -0.60236895 0.009412797 0.17555489 -0.27021015 -0.76258457 -0.0055442615 -0.33848828 -0.8046943 -0.4050941 -0.6677163 0.48129246 -0.69905466 0.14615494 0.09342976 0.122447826 0.039781727 0.0071619023 0.31921217 0.33106154 0.26602185 0.068336256 0.08203065 0.10554204 0.8336025 0.11005177 0.20193969 -0.37720576 0.543777 -0.8412016 0.08970364
978 0.0714171 -0.6417659 0.19197722 -0.55568045 0.5485951 -0.88605833 -0.6041348 -0.28871396 0.50450647 0.055738986 -0.65925336 -1.0722058 -0.22235899 -0.1968321 0.34148148 -0.10433664 0.32306805 -0.14800948 -0.30476627 0.34168893 0.09026915 0.1321808 -0.5164367 -0.64405376 0.80691695 0.16400535 0.173212 0.04598925 0.14381726 -0.4711684 0.28532204 0.46563604 0.46775302 0.36623523 -0.5692832 0.10544998 0.29283282 -0.08546346 -0.9455614 0.1492963 -0.39893237 -0.7330746 -0.038405854 -0.46751845 0.28846577 -0.43493843 0.29895636 0.16547349 0.059087984 -0.03705808 0.1438365 0.48973382 0.23307845 0.30211845 -0.05412796 -0.21468465 0.20605421 0.7281148 0.029230766 -0.0371694 -0.025848597 0.6138469 -0.99318653 0.012924717
392 -0.08345109 -0.015403643 -0.6687184 -0.264118 -0.37533358 -0.11978537 -0.14209607 0.04660971 -0.009823731 0.11506073 -0.35291567 0.14280659 -0.116885364 -0.34329206 -0.18525913 -0.38183892 0.41496947 -1.0811917 0.3054134 0.22051464 0.088312194 -0.25857395 0.08628415 0.51395375 0.20707247 0.45177078 -0.4154979 0.05786137 0.2894822 -0.6605639 -0.23984545 0.68660796 0.1010421 0.49974817 0.044011433 -0.3139474 -0.02224706 -0.12738748 -0.08691001 -0.24023172 -0.353095 -0.58036315 -0.5562678 -0.030061813 0.51640064 -0.3496126 -0.03904654 -0.2307817 -0.57664204 0.28858772 0.08832414 0.41406426 0.6609886 0.052955136 0.24412256 0.05876502 0.47385016 0.4755508 0.016812349 -0.04750406 0.25900158 -0.06569068 -0.40589175 0.13259062
839 -0.25814533 -0.21269469 -0.44893375 -0.7145259 -0.12423596 -0.28790218 -0.025234375 0.20234738 -0.06369422 0.2763878 -0.12713209 0.18630113 0.023866186 -0.16759302 0.46539477 0.12570077 0.41342324 -0.59441954 0.4633985 -0.002536479 -0.27112052 -0.05809518 0.2375365 0.3497402 0.1263727 0.363965 -0.4312927 -0.030324705 0.03943473 -0.53143203 0.084027946 0.12246776 -0.21642086 0.4273647 0.23983958 -0.36280498 -0.21923134 -0.13216618 -0.015080534 -0.025904214 -0.0323925 -0.6379071 -0.03518419 0.0788227 0.91298044 -0.21708515 -0.075647086 -0.5881335 -0.35464546 0.04502642 0.23587765 0.74167454 0.18528187 0.088212855 0.47372335 -0.3553763 0.40635532 -0.19058815 -0.214836 0.08493776 0.29001704 -0.27984554 -0.17863713 0.33299437
849 -0.40414 -0.5994627 -0.2950662 -0.51801294 0.35603777 -0.021766009 -0.18694058 -0.05211034 -0.019330515 -0.14060295 -0.33450615 -0.23030348 -0.079295464 -0.08500571 -0.047325097 -0.15447274 0.7759765 0.26989478 0.051261842 0.10189823 0.094080485 0.112954915 0.039541118 -0.3979963 0.16130222 -0.5009058 -0.054987967 0.5558252 0.5575158 -0.141296 0.07629486 0.16166937 -0.2307065 0.20004849 -0.40751612 -0.20671728 0.40983838 -0.3853364 0.19289525 0.29792005 -0.3144641 -0.25091246 0.7018061 0.0994233 0.3839393 -0.2687065 -0.15247172 -0.47345385 -0.4539349 0.43684477 -0.24213162 0.04700202 0.15245244 0.37963152 0.08571847 0.7512936 0.050903965 0.0074836104 0.29741132 -0.16748908 -0.2782128 -0.05604824 -0.0052732453 0.12146745
449 0.7558233 -0.15642038 -0.5191328 -0.3714833 0.23829755 -0.22103491 -0.36607975 -0.02885633 0.09565813 0.025644777 0.15722127 0.24109456 -0.528316 -0.2839919 0.007052181 -0.11800266 0.3487012 -0.85117656 0.14656872 0.1655 0.03472532 -0.29223597 0.0040305667 -0.16320835 0.31623554 0.28621948 -0.56731814 0.06703848 0.08731352 -0.41085693 -0.1103177 0.25586113 0.2282456 0.07413056 -0.52661866 -0.15447176 0.19214901 0.059040822 0.10290222 -0.04849553 0.05420436 -0.35831052 -0.393391 -0.4164269 0.5001037 -0.43371812 0.15058643 -0.6111008 -0.3031764 0.47854185 0.088830076 0.13226075 0.094589025 -0.32657492 -0.051191457 0.17516017 0.7002251 0.3893791 0.17865866 -0.05398331 0.069627024 0.20247762 -0.07585272 0.3907148
73 0.06782955 -0.018018458 -0.531583 -0.15377921 -0.08853079 -0.16687043 -0.11499006 -0.10269207 0.0022540602 0.18699865 -0.13692538 0.34435695 -0.24344 -0.013272546 -0.20024827 -0.30218515 0.42503956 -0.74419254 0.30358762 0.16587445 0.1391271 -0.18299331 0.27196956 0.4177204 0.17216471 0.5293231 -0.49075612 -0.23023531 0.12468018 -0.73389864 -0.17807882 0.5109049 0.085304834 0.34939376 0.14750215 -0.27308482 0.053563185 -0.20036834 -0.2576794 0.038950853 -0.41317937 -0.59152967 -0.407825 -0.18723798 0.4469753 -0.67990726 -0.2327047 -0.5540119 -0.67240816 0.17089605 0.1344726 0.20498425 0.36740056 -0.26791856 -0.077432774 0.22602619 0.8049207 0.24327277 0.1503547 0.16519713 0.38665807 0.09512267 -0.53333086 0.017506605
420 0.317862 -0.06015439 -0.71048945 -0.16948299 -0.16656862 -0.025781093 -0.038407743 0.12636068 0.013808039 0.31968868 -0.47539112 0.01577331 -0.1313683 -0.008180185 0.07639313 -0.3467966 0.5883752 -0.9185296 0.53056717 0.19757463 0.020348841 -0.20566332 0.19752792 0.17614053 0.24537665 0.72090316 -0.5128783 -0.07434211 0.18981704 -0.7487738 -0.32727832 0.57046956 0.1067344 0.3991461 -0.015782207 -0.48936212 0.047325604 -0.197198 -0.24002922 0.05204332 -0.113928474 -0.34597364 -0.46719128 0.10931084 0.6836799 -0.64463544 -0.054682717 -0.41702417 -0.43782932 0.28859696 0.0810114 0.38360032 0.49684852 -0.40409043 0.040472746 0.1892693 0.53192085 0.27755043 0.19659185 0.06393786 0.39345706 0.20254125 -0.37385044 -0.010694907
928 -0.3310987 -0.93635774 -0.765759 0.094627425 -0.13556884 0.35350493 -0.1521029 0.12310187 -0.6956134 -0.6583368 -0.119209245 0.014575121 -0.40479672 -0.015917644 0.40579164 -0.768196 0.60541445 -0.123713955 0.17729795 0.25036523 0.036303118 -0.0033775438 -0.160308 -0.32161102 0.0671187 -0.2751989 -0.085021734 -0.043481212 0.546978 -0.7917807 -0.09218417 0.0011212258 0.44194588 0.51186043 -0.6071893 -0.33431315 -0.06685017 0.1710159 -0.19271821 -0.5613242 -0.8390277 0.18524039 -0.5710777 -0.56017834 0.9825002 -0.15343662 -0.32257316 0.08890285 -0.70487875 0.21026993 0.24302375 0.3292069 0.1617218 -0.35050875 0.460777 0.21376722 0.09712159 0.460721 -0.2294154 0.24251269 0.56575555 0.35143068 -0.08948733 -0.1271672
370 -0.34445947 0.43006295 -0.49822634 -0.44047505 0.022365708 -0.40042853 0.09525978 -0.25115448 -0.57988596 -0.08081548 -0.41630542 -0.4772737 -0.13506794 -0.16637602 0.1402446 -0.33459386 -0.06918381 -0.47427574 0.6374468 0.14048697 0.5864193 0.07540877 -0.06437107 -0.4575123 -0.048394423 0.38781425 0.22013277 0.28687266 0.53358555 -0.5004814 0.49968272 0.3487564 0.920248 0.3973869 -0.7193661 0.10726119 -0.044949632 0.008200251 -0.22251333 -0.025199478 -0.28154185 -0.07926772 0.23120779 -0.43285295 -0.3192901 -0.82009214 -0.0828812 -0.3009634 -0.18657403 0.6134632 -0.560837 0.08019472 0.48823348 0.56017536 0.10571408 0.0051318067 0.6796158 0.7755798 0.12461563 0.029199256 0.29152507 0.90915304 -0.34603393 0.5570086
570 -0.2541131 0.1905515 -0.5631805 -0.4433567 -0.25697196 -0.45601398 -0.025989266 -0.33948547 -0.5255504 -0.06392489 -0.13535842 -0.73174286 0.018327389 -0.29957962 0.064792566 -0.34783104 0.3180495 -0.31091106 0.3837184 0.34229589 0.621201 0.08721406 -0.2394806 -0.5565982 -0.30442163 0.57934624 0.2617245 0.0822874 0.36154076 -0.6874465 0.58220184 0.03415336 0.89834225 0.1397099 -0.5498135 -0.085824296 0.21606793 -0.29437536 -0.03049248 0.10995459 -0.064151354 -0.088441454 0.04799902 -0.7192308 -0.2981429 -0.47631186 0.09408396 -0.21003538 -0.14390539 0.2630619 -0.14293909 0.16903213 0.7430837 0.5503602 0.3198748 0.3248763 0.5803617 0.83072764 0.04873305 0.086477235 0.49596083 0.64793354 -0.34184703 0.7027271
8 -0.35888472 -0.44215962 0.2356163 -0.57453376 0.19197328 0.26555994 -0.24429905 0.4346361 0.16878332 -0.0133623425 -0.021878164 -0.3716605 -0.3397045 -0.58502424 0.2851742 -0.3750344 0.17354612 -0.24281164 -0.4242552 0.6279977 0.6240549 0.07052019 0.04681659 -0.459682 0.46954933 -0.16619302 0.40920636 0.1304762 0.3239987 -1.1219188 -0.3587646 -0.22448093 0.062554374 0.059442118 -0.34162843 -0.20479599 0.7330805 0.23794338 -0.17667554 -0.12412311 -0.11033234 -0.08462229 0.46827805 0.08846939 0.39273274 0.24041997 -0.18010013 0.08052941 -0.42289186 0.22661802 -0.09234974 -0.3181451 -0.06409275 0.54986846 -0.23922358 -0.26551583 0.20234135 -0.07528623 0.20835997 0.8586529 0.40563396 -0.27586177 -0.161829 0.17397782
611 -0.43665934 -0.66179234 -0.28952298 -0.1940601 0.3459231 0.28363872 -0.1799627 0.6365335 -0.51929134 -0.064374305 0.213782 0.052905563 -0.06801464 -0.57448465 0.21536976 -0.61704284 0.36386755 -0.36743838 -0.3457905 0.48809165 1.0195988 -0.081063844 -0.20876586 -0.5386339 0.6827859 -0.1717813 0.35892403 0.20454246 0.42572707 -0.9785794 -0.09820668 -0.14309768 0.088958256 0.53244686 -0.22183144 -0.36793184 0.36073148 0.5944837 -0.43706673 -0.2570034 -0.7211062 -0.037928887 0.46295825 -0.41031364 0.9867097 0.005408165 -0.42592967 0.09102111 -0.47432378 0.38078538 -0.05803361 -0.3935717 -0.10079404 0.10282605 -0.14365676 0.2563137 -0.11338597 -0.116835326 0.2825944 0.7147788 0.9842656 0.1384906 -0.02964346 -0.08935965
85 -0.17337583 -0.52469677 0.10014537 -0.36145046 0.24615692 -0.29611096 0.21008052 -0.122310475 0.29608107 0.14368695 -0.3614822 -0.3589501 0.5300142 0.34017968 0.25742695 0.25390148 0.09795027 -0.9212565 0.5697451 -0.062457897 0.3033696 -0.35800606 0.0706621 0.31128085 0.5424653 0.104378566 0.8430436 0.7165916 0.9905737 0.39951193 0.33397087 0.6070541 -0.13263513 -0.37940505 -0.43502316 -0.17351614 -0.4822928 0.39772928 -0.16119266 0.17964453 -0.8666345 -0.37802628 0.31751135 -1.2078961 0.15514225 -1.1028284 -0.39425337 0.0179191 -1.2014922 -0.27633578 -0.075594924 0.2517348 0.18220317 -0.20333442 0.42810467 -0.3705907 0.36010864 0.31680673 -0.3422625 0.1725055 -0.02007503 -0.40096968 0.98926204 0.034438103
1056 0.22661775 -0.6085154 0.22719164 -0.48914504 0.5146829 -0.6424473 0.010009872 -0.42209703 0.2181734 0.16776334 -0.35262698 -0.54770947 0.35007894 0.3893672 0.23119627 0.23454283 0.2430656 -0.80161446 0.64175594 0.0698289 0.57778144 -0.5351755 0.01407005 0.23080334 0.43552512 0.094135165 0.8103314 0.8339974 1.293644 0.47392595 0.23193665 0.57673854 -0.09979442 -0.49719754 -0.33751154 -0.22199982 -0.25195262 0.18922369 -0.3133555 0.10532442 -0.77042353 -0.58023953 0.20947161 -1.024554 -0.0723245 -0.98437476 -0.22717167 -0.12594967 -0.990791 -0.54319876 -0.14997943 0.11970909 0.13479525 -0.23940283 0.5794916 -0.13236766 0.3138247 0.39868987 -0.061775405 0.09923208 0.14020838 -0.34370738 0.98969805 -0.2505317
138 -0.18574454 -1.1050317 -0.03199374 -0.68919003 0.7888708 -0.21411319 -0.18949883 0.08875803 -0.4379071 0.18537138 -0.12583478 -0.3829117 0.37598944 0.17949271 0.112161815 -0.40178803 0.76258135 0.38755065 0.28298378 0.3367431 -0.010847068 0.16140474 0.6683623 -0.37400335 0.3791634 -0.036742955 -0.40045127 0.5495058 0.6464781 -0.2270108 0.3361307 0.56622636 0.6145417 0.24323428 -0.26545686 -0.21915047 0.57840693 -0.5518232 0.1691691 -0.26507837 -0.4998507 0.20315385 0.09458341 -0.10129613 0.50261664 -0.24445811 0.06227825 -0.13791384 0.2457475 0.058877353 0.40795627 -0.08892457 0.83201045 0.58067757 0.012780706 0.43307453 -0.30396193 0.2880506 0.37334618 -0.053249355 -0.37094426 0.43421674 -0.6589699 0.14536503
830 -0.2565771 -0.8925678 0.0066749486 -0.70565826 0.67684484 -0.2500921 -0.3996373 0.18554267 -0.41273344 0.18019405 -0.083860785 -0.5482938 0.28917897 0.26885408 0.035233777 -0.5168407 0.75508815 0.34185013 0.09107636 0.41141307 0.28467244 0.07009127 0.61413187 -0.32266393 0.48997205 -0.15285173 -0.69367856 0.60344064 0.76194435 -0.10666647 0.30704474 0.3978918 0.5760267 0.24112232 -0.18682565 -0.15281262 0.75752664 -0.46617317 0.24224068 -0.3573576 -0.7385825 0.32204604 0.144028 -0.2614583 0.38250855 -0.21974248 0.05674851 -0.29460996 0.29061714 0.08038552 0.010614296 -0.016941885 0.81216955 0.90396446 0.038286947 0.5558126 -0.097862445 0.6175123 0.015448661 -0.117938906 -0.5249231 0.5935996 -0.5257356 0.0019371308
360 0.086704984 -0.68996644 0.2899036 -0.496516 0.43056563 -0.35320592 -0.032305352 -0.7288639 0.29021668 0.01053056 -0.0152662145 -0.5055451 0.23571165 0.39621574 0.3245248 0.2728153 0.24634364 -0.7247792 0.6715977 0.23755085 0.4362131 -0.35018784 0.08372654 -0.052331418 0.30264977 0.2681854 0.6626738 1.1042627 1.1396729 0.37397656 0.52432895 0.46944824 -0.060455702 -0.5631788 -0.04898119 -0.014660235 -0.3732528 0.16510656 -0.24775296 -0.007277072 -0.5623535 -0.42557666 0.26623073 -0.81859916 0.09707846 -0.6645691 -0.27896476 -0.15500541 -1.1660209 -0.19157182 -0.22877616 0.5008373 0.15768397 -0.2996066 0.67672276 -0.2294905 0.15696687 0.13141492 -0.12006041 0.33582568 -0.10773069 -0.4508512 0.9603603 -0.20372835
228 -0.36067355 -0.8448481 0.17035858 -0.25630632 0.23070794 -0.678808 -0.69879055 -0.19845666 -0.028674183 -0.12766294 -0.5199486 -1.5192813 -0.64869833 -0.32147294 0.25123495 -0.2650747 -0.09888307 -0.2854364 -0.6130331 0.12153018 0.16065662 0.32481965 -0.34492892 -0.64326984 0.3519748 -0.34485188 0.18851835 -0.14519322 0.4639422 -0.8823317 0.18711935 0.30949107 0.1618658 0.4254026 -0.10672961 0.06767745 0.22859934 0.30606154 -0.86550075 0.32829642 -0.5298798 -0.24637593 0.4436084 -0.7318047 0.07738831 -0.07610322 -0.21291128 0.14879607 -0.12053652 0.28464288 0.29173526 0.5913026 0.18501998 0.37716028 -0.24981803 -0.3767095 0.08823289 0.2697444 -0.057130404 -0.45308638 0.2510226 -0.052779797 -0.9654109 0.08947507
1022 -0.2651608 -0.79698 0.24599715 -0.19687442 0.08177218 -0.78706324 -0.82488674 -0.31679 0.16452451 -0.042174406 -0.6900782 -1.3136274 -0.39916998 -0.233035 0.09277964 -0.2257949 0.12988177 -0.27591783 -0.285704 0.36723775 0.049437284 0.5045967 -0.3458449 -0.8450931 0.5661375 -0.033233363 0.36024895 -0.17462139 0.33388448 -0.8887018 -0.023184638 0.4309714 0.25545332 0.59134305 -0.38748223 -0.09171207 0.014320965 0.27003086 -0.7430433 0.16879782 -0.394406 -0.4717838 0.45027554 -0.36254877 0.36257568 -0.020070221 0.022287142 0.045454454 -0.15450823 0.08494115 0.37072054 0.5638782 0.41747862 0.5031696 -0.45810634 -0.0033725451 0.13048057 0.09830667 -0.23525597 -0.056973383 0.09869311 0.08631542 -0.79939765 0.21867922
272 0.36742052 -0.13630174 -0.34971654 -0.7365523 0.20299822 -0.2764 -0.17589544 0.23138195 0.27630192 -0.13363764 -0.073710606 -0.24373645 0.39925689 -0.19737841 0.06464975 -0.035064526 -0.39884079 -0.2109075 0.30370247 0.58521974 0.6123471 -0.7357925 -0.17759669 0.0036499894 0.33463734 0.33952963 -0.55798215 0.27800748 0.92309546 -0.21360524 -0.24810816 -0.32089615 -0.5356908 -0.8221499 0.28863943 -0.273029 -0.21713687 -0.43382496 -0.372621 -0.09809298 -0.62432015 0.007970932 0.077868305 -0.18049952 0.102956526 -1.0383685 -0.7014725 0.06374548 -0.58430797 0.16653603 -0.1263709 0.3550785 0.3548159 -0.054849327 0.05283149 -0.4654872 -0.012290175 0.267864 -0.111994185 0.4486311 0.31268328 0.11519531 0.4504387 0.011768064
636 -0.07414848 -0.42629847 -0.31240362 -0.7760993 0.28436983 -0.056542363 -0.2899493 0.42919704 0.6084027 -0.053818382 -0.43187624 -0.65708894 0.56290114 -0.024059584 0.23569816 -0.20493397 -0.5248024 -0.60022527 0.34665757 0.86920244 0.1667385 -0.64234424 -0.23636135 -0.13968964 0.22993499 0.028251886 -0.17272848 -0.19833463 1.0085378 -0.2297227 -0.38395467 0.30496606 -0.6395835 -0.34998718 0.2763456 -0.17013696 -0.28113863 -0.13964547 -0.44483134 -0.33209252 -0.20305131 0.17121494 0.032512803 -0.16734828 0.0007678048 -0.78191936 -0.088519216 -0.34065962 -0.6093658 0.16001846 -0.30103713 0.41979307 -0.048366915 -0.03717958 0.35749373 -0.31859598 -0.49900383 0.19999371 0.14037333 0.38873565 0.14111364 -0.22211277 0.5758558 0.42066494
243 -0.44736764 -0.9156056 -0.67648405 0.0712993 0.11202458 0.29908353 0.23493722 0.17754924 -0.57462347 -0.3656207 -0.18415025 -0.028096197 -0.09316645 0.049406607 0.5288742 -0.42211872 0.64158815 -0.21900932 0.27405015 0.12163865 -0.31972256 -0.28326714 -0.26255092 -0.8223473 0.30571613 -0.16340733 -0.30828094 -0.18207043 0.5343557 -0.81160027 0.20337191 -0.05989213 0.3041432 0.39667597 -0.23244815 -0.31876028 -0.2429557 -0.37062058 -0.26420918 -0.4238438 -0.5439007 -0.027978497 -0.75053304 -0.14105627 0.9853985 0.19106485 -0.31271932 0.5811124 -0.8375473 0.23138897 0.30423447 0.5107672 0.288619 -0.31591922 0.39035827 -0.0808754 0.7008308 0.3516304 -0.008768666 -0.004811189 0.30624014 0.5015499 -0.0027704814 -0.12133877
440 -0.2838867 -0.89417404 -0.62114215 0.05924648 0.074435875 0.16923134 -0.30020133 0.06287742 -0.82978445 -0.31647438 -0.06525561 -0.05291846 -0.45806015 0.0037494178 0.17062281 -0.8032133 0.6313621 0.21661532 0.1704992 0.24660851 0.066600226 -0.17710005 -0.32377118 -0.48334664 0.11040526 -0.1327666 -0.24911 0.023383021 0.8745068 -0.79905933 0.028983312 -0.21062197 0.3569745 0.39192763 0.08287039 -0.44908088 -0.7632616 -0.10629978 -0.38235724 -0.7618218 -0.72217315 0.008554952 -0.2737653 -0.52019596 1.4377261 -0.17476527 -0.13255362 0.3062369 -0.4170127 0.37954307 0.007335506 0.23418084 0.5316007 -0.06765059 -0.032377526 -0.18056539 0.4612051 0.13950822 0.016111692 0.13642262 0.8281433 0.5785464 0.049259026 -0.3789804
402 -0.020044541 -0.30118248 -0.60843754 -0.59082484 -0.2870923 -0.18747656 -0.19517875 -0.0790573 -0.005586099 0.11413322 -0.053192485 0.011089079 0.3182451 -0.031232035 0.42510867 -0.005422259 0.27659744 -0.10640978 1.0168822 0.13851899 -0.112222746 -0.25185975 0.06977851 0.24713087 0.8159586 0.27060002 -0.22801667 0.16096598 0.013537926 -0.8190216 0.1981352 -0.072445914 -0.5193858 0.31285983 0.22569425 -0.1935931 -0.029222338 -0.18671167 0.15362896 0.026527364 -0.21547554 -0.70366997 0.059547827 -0.16594432 0.32288855 0.047072973 0.13522378 -0.45140788 -0.24549359 -0.036939602 -0.14065462 1.0636964 -0.3311888 0.035991497 0.092334844 -0.5170266 0.42038432 -0.20728034 -0.14311728 0.36942554 0.14574967 -0.23759203 0.029481469 0.15122841
1042 0.193144 -0.13248172 -0.3649695 -0.6570177 -0.034009613 0.049920633 -0.05386802 0.036517367 -0.05620252 0.20153552 -0.014313559 0.039341286 0.35819247 -0.117257275 0.37787583 0.08145712 0.6396971 -0.35286713 0.8756324 0.23286912 -0.0140359085 0.13191476 -0.04003727 0.27013084 0.5969907 0.309261 -0.17429684 0.29019862 0.29868796 -0.9533861 0.17043339 -0.2374938 -0.5330359 0.38825497 0.17761184 -0.2397764 -0.3634917 -0.23463777 0.14562419 0.045337647 -0.09027011 -0.65675426 0.18762895 0.12410189 0.54109716 -0.24577646 0.08170458 -0.33758205 -0.32869563 0.046847925 -0.016997227 1.3177352 -0.346709 0.090711355 0.31399086 -0.50519025 0.31239152 -0.16367683 -0.17631647 0.24803253 0.2391683 -0.32474065 0.078223124 -0.04988665
328 -0.38570863 -0.42217064 -0.19898379 -1.1063437 -0.58422536 -0.5129899 -0.2687256 -0.28458804 -0.05574337 0.40100887 -0.42414588 0.410254 0.16788778 0.021640858 0.34677818 -0.16347952 0.1669699 -0.48972642 0.06574904 -0.21354383 -0.25005218 0.14104867 0.56455976 0.12075473 0.7107597 0.2590075 -0.58714145 0.5414406 0.92563397 -0.4149424 -0.24319497 -0.26686952 0.0070730043 0.46665996 -0.2838609 -0.74171275 -0.1608928 -0.17840949 0.14423572 -0.29209784 0.1495228 -0.21655615 0.37093362 -0.03772611 1.1400527 -0.11625027 0.35708228 -0.5145679 0.004248834 -0.19421417 0.048950378 0.855779 0.7045866 0.22960961 0.41569936 0.036684155 0.56959575 -0.5184659 -0.37733704 -0.26436123 0.18853317 0.25614488 0.4378314 0.5243873
432 -0.32061094 -0.36389685 -0.12067479 -1.1526649 -0.6427801 -0.49933997 -0.39085513 -0.76615673 0.12135537 0.5880498 -0.6151552 0.38633642 0.18869972 0.24777319 0.69626415 -0.076249495 -0.0017106326 -0.42120746 -0.05768471 -0.35733992 -0.11260386 -0.027362082 0.21058686 -0.08708196 0.6895427 0.043953124 -0.48004735 0.5853708 1.1542921 -0.5667408 -0.07085089 -0.27104548 0.0030613686 0.63863873 -0.29344755 -0.7469999 -0.19655232 -0.28841284 0.0045558494 -0.34230807 0.1390387 -0.030769272 0.30035117 0.056085665 1.0426444 -0.44486865 0.13446867 -0.45760107 -0.046768043 0.029229298 -0.037464663 1.0025666 0.81124204 0.11900669 0.6503713 -0.2315611 0.52131754 -0.55057657 -0.23635891 -0.63677233 0.6217329 0.490003 -0.041624345 0.2505625
19 0.26473475 0.023607617 -0.4042979 -0.6956449 0.12195621 -0.25070235 0.10014283 0.3771239 0.42605174 -0.28013295 -0.3512456 -0.18606868 0.4938707 0.17256346 0.028839115 -0.04325667 -0.3072961 -0.07688908 0.24115168 0.40037784 0.70161027 -0.40880695 0.026266713 0.034598168 0.38395992 0.74614996 -0.5779439 -0.14732131 1.0179634 -0.104298286 -0.0041826065 -0.30323094 -0.54857785 -0.3454111 0.039732758 -0.045525845 -0.15174572 -0.3030425 -0.29406387 -0.39140993 -0.48017383 0.13314259 0.04022505 0.017148672 0.12962526 -1.0294521 -0.6723928 0.030306129 -0.5830692 0.1473406 -0.16907881 0.5096772 0.3249555 0.1815692 0.0012623379 -0.537108 -0.017533554 0.29949856 0.026530758 0.47639346 0.28028798 -0.15059505 0.30124995 -0.0723225
499 0.6658177 -0.59105957 -0.4617098 -0.5954683 -0.062467366 -0.096159324 0.060066722 0.16174065 0.38641265 -0.6138257 -0.2668399 -0.4370452 0.33819625 0.016108872 0.19160381 0.15627469 -0.6084044 -0.16617043 0.7986013 0.46148965 0.6296842 -0.47536558 -0.07093884 -0.005815447 0.24801151 0.7638846 -0.150809 0.3091979 1.0702454 -0.20355853 0.07356275 0.178198 -0.21786334 -0.4488891 0.2061882 -0.16996132 -0.42315263 -0.32753357 -0.5962925 -0.10605474 -0.26563948 0.12150898 0.5342898 -0.38652328 0.23458736 -1.1804265 -0.34976766 -0.07569786 -0.22258714 0.1013301 -0.077471726 0.4866563 0.27166477 -0.24079622 -0.19045231 -0.4231387 0.053782932 0.13951746 -0.23986703 0.85884345 0.0037823226 -0.063912004 0.79992336 0.1729862
529 0.006151327 -0.597256 -0.180323 -0.72301954 0.17761904 -0.47046074 0.09687158 0.23481573 -0.10243345 -0.34938356 -0.16153039 -0.07646819 -0.5587427 -0.33269477 -0.37810227 -0.091515966 0.4270025 -0.41167226 0.55608535 0.51903456 0.47496608 -0.11167753 -0.350316 -0.020663781 0.238851 -0.23982476 -0.12852407 -0.04669975 -0.4328353 -0.6047175 -0.14908265 0.06875726 0.26214176 -0.18456785 -0.566454 -0.16784061 0.28164098 0.01760305 0.15555365 0.040728804 0.13298553 -0.05082117 0.0028670055 -0.06923808 0.5995904 -0.29576853 -0.05429981 -0.20971659 -0.7945452 0.90231663 0.0053822575 -0.17748258 0.6186859 -0.007322015 0.19665642 0.40979487 0.3519377 -0.00043189758 0.3447322 0.51397014 -0.24733987 0.40349707 0.0350443 0.6357599
371 0.46879384 -0.5544678 0.033005938 -0.25867966 0.3389261 0.047806825 -0.13641132 0.060791057 0.05871863 -0.25341398 -0.2598409 -0.1307853 0.15821126 -0.085274346 0.09958683 0.12939173 -0.32563296 -0.007574506 0.14058335 -0.27263644 0.8228754 0.19494437 0.018758886 -0.5410329 0.46876034 0.31632823 -0.08868678 0.1805038 -0.2962453 -0.7880947 0.1312645 0.15416376 0.29017666 -0.05071253 0.12232027 -0.12552382 -0.24046889 -0.28200883 0.37944928 -0.6528989 -0.6389208 -0.7892793 0.39694995 0.14006722 -0.11107637 0.049872916 -0.11117266 -0.7555532 -0.61772203 0.08510567 -0.068362094 0.5903707 -0.10172408 -0.091601126 0.117454484 -0.4362809 0.22636594 0.54141206 -0.6630094 -0.0013921948 0.58338267 -0.28050628 0.08863163 0.36838478
855 0.9343794 -0.44965872 -0.080465645 -0.36353123 0.37179855 0.18461524 -0.2868141 0.2957312 -0.26915348 -0.15075295 -0.5310766 -0.05863726 0.05638563 -0.20430316 0.31738597 0.04512507 -0.19315258 -0.27189988 0.09509717 -0.30646 0.7173627 -0.091852844 -0.0410896 -0.7128665 0.36902604 -0.020536683 0.02448175 0.24529852 -0.25588638 -0.87016875 -0.14943084 0.0086252345 0.12289876 -0.111003675 0.166981 -0.10474003 0.076334506 -0.1610008 0.3358188 -0.58862305 -0.7225424 -0.6576801 0.16980961 0.21154116 -0.07933286 -0.15866995 0.108963184 -0.67495686 -0.6065219 0.07265803 0.123340026 0.37483972 -0.075106665 0.059645016 -0.07980872 -0.4317911 0.33334246 0.46444738 -0.55093926 0.23823571 0.47658864 -0.18218887 0.16430192 0.11140862
