1040 64
63 -0.120900825 -0.07804892 -0.17794435 0.2505462 0.38993317 -0.07113445 0.67957544 0.35853255 -0.3818763 0.17629486 0.26584494 0.29515147 -0.024557035 -0.17507023 0.31825197 0.11360395 0.21118768 -0.098420456 -0.12895566 0.48727173 -0.28597876 -0.07067796 -0.1889725 -0.4698183 0.12975404 -0.039213743 0.2877166 0.74543387 0.7819029 -0.2605074 -0.20460622 -0.3002706 0.5386769 -0.3136182 -0.09607351 -0.53942406 1.4784974 0.14277647 -0.3941931 0.12492011 -0.48999113 -0.18905774 -0.43380806 -0.026072077 0.01449772 0.16304572 0.7207558 0.10260321 0.005759274 0.42419976 0.30710202 -0.39478776 0.27459642 0.37910327 0.43351218 -0.11724818 -0.42212573 -0.03561581 0.15838782 0.49072027 -0.7156816 0.16675004 -0.09115162 0.33513433
608 -0.02028987 0.012463835 -0.06828562 0.014207485 0.23729017 0.07905393 0.52878445 0.32841057 -0.46811137 0.15490821 0.5253229 0.07223378 0.034967043 -0.09541761 0.21688446 0.13351803 0.17587079 -0.029965675 -0.21967828 0.61503994 -0.27466702 -0.12705547 -0.17938833 -0.5441636 0.086989544 0.05362605 0.41884172 0.33504075 0.7383945 -0.16370404 -0.16003951 -0.083854124 0.4904689 -0.4418509 -0.07210678 -0.61402035 1.174902 -0.14002116 -0.3224643 0.21983932 -0.18974343 -0.5980645 -0.5228402 -0.16431093 0.10063801 0.16331284 0.7622292 0.057686687 0.00016884989 0.31326488 0.28966278 -0.3217966 0.23613593 0.2739578 0.3626466 -0.18469124 -0.29797432 -0.048483558 0.16233113 0.5370974 -0.61929476 0.20616649 0.048807982 0.24087253
219 0.6862508 -0.027623637 0.37705675 -0.16270033 -0.64991975 0.22733039 0.25870168 -0.17390503 -0.62612534 0.07131664 -1.3428622 -0.28528672 -0.48733544 0.61530083 0.72696024 0.026543215 -0.08794544 0.26392683 -0.09011539 -0.07831844 0.4306681 0.2630534 -0.2615984 -0.91635793 0.32615548 0.16710803 -0.08727987 0.85297495 0.00506945 -0.6508752 0.4580344 -0.46308902 -0.11622824 0.20549211 0.01587167 -0.17061342 0.3854077 -0.48033744 0.299999 0.83265793 0.14063266 -0.5694512 -0.9359911 0.12663096 -0.29073057 0.06202613 0.3462691 0.24543373 -1.015693 -0.31323236 0.36478624 0.16877182 -0.35589707 0.24288066 -0.7563034 0.14196649 0.046202507 -0.18668337 -0.68152153 0.5011395 0.40613094 -0.44641328 -0.35316184 0.61174035
990 0.6227716 -0.07797471 0.10980819 -0.12073323 -0.63253164 0.070307136 0.51922506 -0.29327366 -0.8644692 0.09608026 -0.97330016 -0.31106254 -0.6060437 0.6549434 1.0758655 -0.17837426 0.10534698 0.15715139 0.009982431 -0.060800217 0.21531466 0.22424029 -0.077057235 -0.7476928 0.30581033 0.25453764 -0.24583617 1.0956458 0.24995402 -0.66646194 0.5015802 -0.4913759 -0.027802888 0.31868896 0.34371817 -0.27984437 0.55192405 -0.3252742 0.571618 0.8194135 0.12457683 -0.9184279 -0.9943257 0.23141184 -0.31153008 0.18015562 0.14527372 0.08985877 -1.0287234 -0.22727257 0.58970195 0.18277217 -0.13618636 0.4841054 -0.89510655 0.51736045 -0.020756323 -0.20896836 -0.6309266 0.5835727 0.13784428 -0.1178614 -0.28806788 0.71351194
362 0.008184774 -0.099611424 0.04294174 -0.28502223 0.4787725 0.07659589 0.8383909 0.23253025 0.2368519 0.5614753 -0.3744316 -0.58445615 0.115313016 -0.17928278 0.56807196 0.25003025 -0.24771789 0.0120632835 0.7450335 0.06723271 0.06611718 0.23966037 -0.26774573 -0.36964485 0.2284644 0.0049826475 0.12568651 -0.20762677 0.10974309 -0.28959313 -0.11677188 -0.32950705 -0.06338181 -0.11890428 -0.103095666 -0.40184915 -0.09660437 0.12337701 -0.6480045 0.42188162 -0.13720134 -0.39427352 -0.20919424 0.5869669 0.38863367 -0.18234676 0.52914506 0.32813722 0.64429116 -0.051657353 0.24440987 -0.20365623 -0.15614726 0.23993537 0.07752879 -0.38356546 0.07661005 0.15310907 -0.34448734 -0.2233227 0.3478729 0.24486537 -0.60286707 0.02332633
1063 -0.25408417 -0.19546919 -0.16652678 -0.16105972 0.48377427 0.35021958 0.48501104 0.16377367 0.36846805 0.6873329 -0.30288538 -0.54154813 0.16956078 -0.097692996 0.7032095 0.43094578 -0.100647815 -0.19109468 0.79406255 0.12156596 -0.008452064 -0.011201754 -0.13612847 -0.167074 0.6255624 0.024164917 0.20586261 -0.31061965 0.057177592 -0.17198546 -0.19443287 -0.32572737 -0.0029351122 -0.07358191 -0.49399734 -0.35632458 0.061325815 0.029900393 -0.57277054 0.51162374 -0.20412013 -0.5485083 -0.1079843 0.7018368 0.3900168 -0.24957053 0.41320348 0.15039045 0.724976 0.2099874 0.19244713 -0.09411626 0.09896253 0.29380906 0.054742552 -0.24360768 0.010622778 -0.060458813 -0.42891854 -0.16392055 0.14410563 0.22955185 -0.5475004 0.19396302
135 -0.0018124278 0.17702363 -0.13950093 -0.3263411 0.8321841 0.46161106 0.80920416 -0.036780134 -0.21975403 0.39553082 -0.8956173 0.32855392 0.08272428 0.58853763 -0.0054586786 -0.011172115 -0.34617803 -0.18131043 0.01736577 0.70234865 -0.38635197 0.19729455 -0.28853005 0.08025465 0.11597104 0.08595785 -0.05728952 -0.21990858 0.5722309 0.36545637 0.50046664 -0.81398153 0.6539467 -0.059044044 0.25815764 -0.3824241 0.5899489 -0.4190763 -0.16749519 0.7237861 -0.33985633 -0.39843217 0.02206838 0.03798731 0.14416477 0.46291643 -0.22489701 0.9079827 -0.065491796 -0.38799563 0.48129594 -0.5724301 -0.13634095 -0.19062626 0.33171043 0.7508368 0.14691855 -0.19083361 -0.15948004 0.064922616 0.23333818 -0.7133971 -0.47172648 0.43410942
740 -0.285196 0.19073895 -0.25306553 -0.6000335 1.0302726 -0.21681291 0.8901726 -0.14861861 -0.72910887 0.6264554 -0.8222688 -0.1853669 0.03424181 0.09187807 0.23720004 0.30813995 -0.13594869 -0.5482198 0.42768154 0.4043864 -0.18820933 -0.10057377 0.34019408 -0.041800357 0.026516885 -0.08773901 0.10373226 -0.34468025 0.2895866 0.16191585 0.24659318 -0.71515924 0.35338545 0.16608272 -0.33374652 -0.057456568 -0.07054197 -0.2967921 0.027635947 0.841843 -0.5634878 -0.42507166 -0.054063015 0.51702887 0.4293976 0.49132714 -0.62098205 0.53534526 -0.001734604 0.1076713 0.24738629 -0.6840878 -0.14764759 -0.6986067 0.20732427 0.33513436 -0.046953894 0.1471039 -0.55388147 -0.29300305 -0.07123145 -0.5866078 -0.30571732 0.29952705
101 -0.4176159 -0.27697086 -0.6661408 0.17598584 0.24825253 0.17320612 -0.28331682 0.04104347 -0.049387217 0.9773775 -1.0261171 0.24417442 -0.2792123 -0.21726273 0.3249763 -0.654771 -0.3802542 0.23071101 0.00775214 0.66902316 0.32234508 -0.16319005 -0.111213915 0.048304204 0.49139434 0.4599895 0.1266422 -0.43227613 0.8273345 -1.2590628 0.026698105 -0.010991058 0.2857335 -0.3728616 -0.9242088 0.10319023 0.16633688 0.067944124 -0.29920998 0.33364725 -0.3580528 -0.5037482 -0.5179548 0.53170407 -0.5236006 -0.45782042 0.4469618 0.34002978 0.23667909 0.53953147 0.49802232 -0.27511334 -0.4502309 0.77416945 0.21351871 -0.1230381 -0.15465166 -0.0957685 -0.68954605 0.63937473 -0.29087478 0.5162716 -0.11122839 0.2758262
625 -0.35444042 -0.11749778 -0.75205064 0.30598557 0.29300913 0.0009380767 -0.3529919 0.06900574 0.016541092 0.9311564 -1.041366 0.3462812 -0.441554 -0.22853829 0.3375119 -0.6746629 -0.5187437 0.36297402 -0.06939219 0.85266143 0.48591125 -0.029586853 -0.10299478 -0.13745518 0.40644833 0.50696546 -0.011154625 -0.40262732 0.9738315 -1.4249038 0.11271549 0.017566875 0.30689538 -0.5076077 -0.89520544 -0.14409296 0.12447926 -0.0962264 -0.23388006 0.36195025 -0.2274162 -0.5368117 -0.5820954 0.6035207 -0.6620639 -0.4264599 0.3390272 0.40212098 0.22900672 0.47168845 0.7602163 -0.30151558 -0.600041 0.95582044 0.48148054 -0.04567648 -0.20242387 -0.031515352 -0.8847491 0.4638993 -0.35462856 0.42762074 -0.12698892 0.4921154
114 -0.34403452 -0.26156524 -0.26049978 0.20439658 -0.023536684 0.1457546 0.19294144 -0.75152034 -0.19296959 -0.045371722 -0.47723994 -0.3730787 -0.5083065 -0.27743888 0.18014695 -0.8557724 -0.32665384 0.36172172 0.19179137 -0.21842667 0.20703365 -0.37208036 -0.4623253 0.14155735 0.022503855 0.4858339 -0.3310006 0.014330849 0.6764677 -0.58896154 0.061361767 -0.40160024 -0.065952286 -0.16016127 -0.8059912 -0.6843901 0.4724209 0.03427871 -0.4833357 0.25962013 -0.31795117 -0.16652185 -1.0412211 -0.118338205 -0.6444248 0.4114748 0.39602107 0.66553354 0.5029613 0.7367953 0.24922584 -0.5197824 -0.06404216 0.24726732 0.16609803 -0.53550136 -0.1099671 -0.5960997 -0.19155665 0.36418557 -0.6503142 -0.00032496214 -1.022544 0.28024545
791 -0.08996409 -0.21796758 -0.2995974 0.30883378 -0.13402233 0.2098411 0.04880999 -0.51426476 -0.2213162 0.20636378 -0.57064176 -0.35873452 -0.31347442 -0.6163901 0.13994595 -0.6177591 -0.15914942 -0.13757291 0.35765865 -0.2185362 0.18485515 -0.5286956 -0.4260242 0.07473285 0.45086864 0.36642283 -0.16299224 0.088822916 0.86440724 -0.6560889 0.37896943 -0.08225324 -0.0010341946 -0.32263717 -0.61917746 -0.6791744 0.3864263 -0.01395183 -0.6503972 0.23181881 -0.42008817 -0.09353642 -0.82829064 -0.25533456 -0.34890276 -0.13490029 0.50372523 0.42504922 0.5487539 0.45537224 0.3139239 -0.42480096 -0.42732188 0.07408769 0.3952209 -0.59413034 -0.009063874 -0.16491461 -0.5572067 0.20338544 -0.7676756 -0.15709877 -0.8062305 0.25726235
378 -0.38692567 -0.5063958 -0.36644992 0.12944646 0.37514317 0.8047205 0.45239452 0.06426991 0.41196957 0.12755789 -0.060193557 -0.27436626 -0.30748406 0.19322741 0.118327945 1.0334426 0.15875448 -0.42535183 -0.2597017 0.23684391 -0.84594846 0.2938402 -0.5744407 -0.27808046 0.33685675 0.39234042 0.2873674 0.41323268 0.13310611 0.2885307 -0.40381983 0.5039614 0.06693721 0.4586171 -0.20611914 -0.594761 0.6184217 0.10143059 0.35889226 0.43440753 0.004096577 -0.388214 -1.3155982 -0.05428415 0.22394402 0.18509126 0.19416294 0.13001785 0.43148914 0.20701738 -0.050722715 -0.20557301 0.16758236 -0.40082768 -0.20560285 0.20212652 -0.37808764 -0.6472163 -0.813866 1.2674713 0.51092416 -0.58505034 -0.14855008 0.3054388
761 -0.48688826 -0.5096662 -0.39821166 -0.034179606 0.21674229 0.7223031 0.31787762 -0.06317958 0.37843707 -0.0441561 0.0011618759 -0.38861594 -0.26219562 0.18880953 0.579941 0.91333216 0.078850664 -0.3984282 -0.070165254 0.3331664 -0.6715954 0.23519307 -0.5948071 -0.48091614 0.35477418 0.31513005 0.17746744 0.75669295 -0.05007447 0.52084816 -0.48064727 0.3950871 -0.09683142 0.49919906 -0.17683333 -0.584109 0.7058583 0.028470302 0.02325701 0.33718246 0.12249303 -0.5526162 -1.2799971 0.058701858 0.16497263 0.26251513 0.25474638 0.19311242 0.5567488 0.23017544 0.022304643 -0.39006665 0.12639834 -0.47723207 -0.36394584 0.11678503 -0.4445743 -0.71312916 -0.93872494 1.505918 0.64877105 -0.718236 -0.13286272 0.21111034
37 -0.081567444 -0.08314549 -0.42110232 -0.6978965 0.8206585 -0.045225266 0.8948923 0.13806067 -0.3756573 0.4378475 -0.85909367 -0.16117787 0.58882433 0.26935783 0.26590127 0.03760598 -0.50557667 -0.046087265 0.26505092 0.2136976 -0.4464546 0.21519095 0.08533746 0.27160138 0.08547408 0.27837405 -0.117086686 -0.23954773 0.54383504 0.45385745 0.50342137 -0.38491818 0.63929695 -0.014432589 -0.11133863 -0.37660092 0.85998213 -0.32095572 -0.05010269 0.8192512 -0.46750763 -0.42581064 0.051137064 0.300175 0.19749165 0.5675315 -0.45417595 0.89525104 -0.1124031 -0.35596484 0.32412815 0.05148541 -0.37358162 -0.78543 0.13930628 0.37930068 -0.20108697 0.28355592 -0.32133707 0.5371398 0.16041985 -0.76566356 -0.50287175 0.28429368
899 -0.00021312809 0.24027401 -1.0201962 -0.5855307 0.75062704 0.37292242 0.58636147 0.05002562 0.17499995 -0.0029414971 -0.7138643 -0.19799371 0.76457953 0.18550174 -0.09516222 0.12030207 -0.6530805 0.33830503 0.4088878 0.18868114 -0.14257923 0.48184735 -0.1072456 0.09257752 -0.059201382 0.2701018 -0.14847492 0.17249185 0.41375163 0.30631566 0.2830696 -0.5646814 0.5123361 0.17841667 -0.38732317 -0.5731313 0.9924965 -0.4980606 -0.2738184 0.5757148 -0.34342518 -0.58497876 0.026676616 0.20886764 0.12399996 0.6353858 0.0641474 0.88966405 -0.065903105 -0.08336959 0.20526999 -0.02198647 -0.31529188 -0.7208634 -0.012631793 0.6676145 -0.00051308994 0.27055052 -0.81504 0.5181168 0.35833707 -0.94737655 -0.5905619 -0.19378076
166 0.34186688 0.9150394 -0.05601513 -0.8004978 0.31570268 0.15531132 0.61473596 0.7143522 -0.29546335 0.6586639 -0.6581462 0.44437355 -0.11061104 -0.28427538 0.5408341 -0.090826996 -0.43477708 -0.6490681 0.4707167 0.30117553 0.07494378 0.19753458 0.28693458 0.13722588 0.1652099 0.39154655 -0.68532085 -0.062313493 0.056839015 -0.14735353 0.26897696 -0.70018834 0.19787727 -0.050363027 -0.6214876 -0.5629447 -0.4358884 0.08454729 -0.08615439 0.91296524 -0.2926104 -0.23067735 -0.041182328 0.6896693 0.06181456 0.102869846 0.15020469 0.2832309 0.26718172 0.9435253 0.2987363 -0.1916585 0.54937047 -0.2554286 -0.5388809 0.27148733 0.73254955 -0.5763621 -0.35023603 -0.5110216 0.2740199 -0.15153849 -0.45550573 -0.090524696
757 0.33067715 0.7353222 -0.03470074 -0.9274783 0.6784735 0.36772832 0.870217 0.8038386 -0.4859035 0.44157445 -0.8108908 0.44601336 0.074689925 -0.17517352 0.27568197 0.00232269 -0.3066951 -0.7050017 0.4973303 0.4401304 -0.02371652 0.029706532 0.34763217 0.10467305 -0.083091475 0.14628848 -0.6791837 -0.05969106 0.10507286 0.14889869 0.22772501 -0.8143739 0.34331772 -0.31120867 -0.6743842 -0.49373972 -0.26996025 0.070927784 -0.12375382 0.9692448 -0.30320832 -0.042345647 -0.032903727 0.83639663 0.091265954 0.25375977 -0.04516515 0.07907666 0.09144632 0.831366 0.31764853 -0.21988264 0.44960225 -0.59265625 -0.49534324 0.3359728 0.48282978 -0.3994307 -0.4246587 -0.31916502 0.37350395 -0.32254168 -0.33975536 0.01477687
359 0.023665648 -0.13421388 -0.026264252 -0.30555296 0.43688872 0.20108606 0.76666623 0.23787537 0.30914375 0.5651514 -0.3852498 -0.6537648 0.041268695 -0.20459227 0.6324618 0.1927513 -0.14383587 0.026337253 0.5840487 0.21259297 -0.105778135 0.26023394 -0.37233227 -0.28837845 0.39257076 -0.007843486 0.09684388 -0.26687384 0.20802918 -0.07866801 -0.093541995 -0.10978263 -0.13854678 -0.15275289 -0.18019438 -0.26761338 -0.023354676 0.12478946 -0.5759519 0.5267083 -0.13987947 -0.3056507 -0.1415737 0.72163856 0.45670074 -0.20898566 0.4949277 0.35126185 0.6228185 -0.022988131 0.19024797 -0.20911302 -0.03311427 0.28051764 -0.10378776 -0.28294918 0.04811653 -0.052212525 -0.34623843 -0.31228268 0.32801268 0.2185266 -0.5495876 0.12707512
662 0.3574838 0.26113424 -0.088715896 -0.51514393 0.46413147 -0.18725868 0.645108 0.6155984 0.4440579 0.25595605 -0.26787597 -0.27384573 -0.15627296 -0.31533715 1.078157 0.11298278 -0.25913343 -0.29570585 0.49829048 -0.12083273 0.1343528 -0.112503074 -0.06789668 -0.21612255 0.3972879 0.11286262 0.017135618 0.14158185 0.018955344 -0.2483551 0.07848485 -0.28860536 0.13294314 0.008380714 -0.6453008 -0.6790903 -0.17321822 0.044781607 -0.21168731 0.5783236 -0.18587312 -0.41037515 -0.36563236 0.5533355 0.51912016 -0.22622165 0.3673899 0.13280107 0.6133169 -0.0029980084 0.16879591 0.040383305 0.45228857 0.20431003 -0.061586652 -0.18008439 0.265522 0.011540665 -0.51643205 -0.42750165 0.3025389 0.37961587 -0.7727808 -0.104774244
244 -0.6176917 0.45162538 0.093408465 -0.13373159 0.4227833 0.8105521 0.44759056 0.16439535 -0.17100939 0.25993147 -0.02097065 0.048407007 0.3370363 0.056764986 0.45005965 0.019555373 -0.46229184 -0.576012 -0.36953983 -0.13476786 0.21997955 -0.06696752 -0.24423854 -0.79470897 0.6751465 -0.39132577 0.3105547 0.12210664 0.08337547 0.014907412 0.14211796 0.65415925 -0.7724702 -0.5129452 0.073805965 -0.823366 0.66261476 -0.22457807 -0.55639577 0.9730314 -0.41329435 0.4337618 -0.85974836 -0.12699449 0.048453223 -0.27310547 -0.18826017 -0.07092525 0.15274121 0.5616412 0.54346603 -0.6020644 -0.25005606 0.43142557 -0.4737612 -0.3140045 0.38584042 -0.33931908 -1.1266341 0.46518743 0.65548295 -0.2061364 -0.19278939 0.40917072
937 -0.5603613 0.5833846 -0.0017628741 0.0702574 0.27235624 0.7331953 0.4444427 0.10044458 -0.24817921 0.3572635 0.19983582 -0.04383354 0.16816698 0.2050688 0.5802065 -0.016837364 -0.50539184 -0.48875064 -0.3261871 -0.16504404 0.464393 0.06693334 -0.26787487 -0.748436 0.61298996 -0.3163236 0.34084445 0.22383995 0.10692218 -0.13878742 0.0721212 0.6066457 -0.80222285 -0.65095586 -0.022388026 -0.7557547 0.6723817 -0.20847014 -0.34771815 1.033391 -0.45109838 0.40212598 -1.0552557 -0.28999048 0.017019155 -0.107769154 -0.15331492 -0.045255713 0.32978198 0.6658928 0.73202777 -0.5772997 -0.2019375 0.27719003 -0.21881153 -0.14191246 0.40418604 -0.4483376 -1.0819561 0.45347354 0.90300727 -0.36077935 -0.41871378 0.35513976
239 -0.7443939 -0.2077031 -0.117366195 0.2892867 0.046525598 0.53980654 0.46462497 -0.13638002 0.1641166 0.30829138 -0.119968176 -0.13121812 -0.5726838 -0.0129328165 0.15737578 -0.26818237 -0.054727282 0.14423262 0.38853422 0.16501766 0.2048215 -0.065749 -0.35527408 0.04215204 0.14824747 0.31820568 0.08698579 0.014068357 0.819378 -0.9487213 0.34043753 -0.11458225 0.40974504 -0.23218478 -0.8037005 -0.5315027 0.18497676 -0.32780382 -0.6407293 0.20912908 -0.4134546 -0.0028896309 -0.70512867 0.3794069 -0.35956365 0.030605543 0.69993263 0.01224395 0.23541294 0.46940768 0.6779227 -0.030234983 -0.082206994 0.17350778 0.064641684 -0.33548012 0.259799 -0.25205845 -0.1957357 0.14219773 -0.28012183 0.41120058 -0.123276845 0.03982254
499 -0.6604291 -0.3055517 -0.12581857 0.3098306 0.08257232 0.3045756 0.2204081 -0.17639615 -0.07246024 0.4297201 -0.070737265 -0.17123625 -0.5370771 -0.3360699 -0.048847243 -0.58033234 -0.26755744 0.14607693 0.18542528 0.043437198 0.3616381 -0.24548876 -0.31908876 0.22627656 0.23713002 0.7088853 -0.13539529 0.060144905 0.5483853 -0.79741204 -0.035262782 -0.21035048 0.11133259 -0.08689909 -0.86418813 -0.5375083 0.7452082 0.15502797 -0.4067683 0.15928459 -0.5312591 -0.23073536 -0.9059131 0.11565771 -0.7741797 0.26427463 0.15322983 0.248397 0.7003216 0.99805135 0.6424882 -0.11410753 0.0322866 0.13232043 0.29707238 -0.4634308 0.2206811 -0.43291122 -0.1770902 0.33768678 -0.36537963 0.07684905 -0.7618803 0.1296762
51 0.054392267 -0.47560304 -0.41724336 -0.37821534 -0.25142175 0.5281184 1.0455093 -0.14940928 -0.080244005 -0.15677403 -0.8299915 -0.3496935 0.20758319 0.5077062 0.8073305 0.4037953 -0.020456886 -0.54060966 -0.42699844 0.5632745 0.11752793 0.0029919744 0.4351666 0.24375677 -0.04797881 -0.07570403 0.18932456 0.16250053 0.33903027 -0.15896155 -0.6601031 -0.36921248 0.82325906 -0.44479775 -0.40946034 0.12550707 -0.05244914 -0.28060672 0.035170656 1.2140033 0.2620982 -0.12272044 -0.31401616 0.17476875 -0.4049402 1.0849713 0.10579676 0.037405815 0.4550938 0.17917886 0.8296907 -0.17358615 -0.22200474 -0.16220547 0.16428377 0.31353942 0.14047813 0.40956017 -0.09116538 -0.032957125 -0.09651066 -0.95317686 -0.36961454 0.47660118
767 0.11564922 -0.4746237 -0.17390443 -0.20885769 -0.37229064 0.3188531 0.89274615 -0.43369398 0.09579803 -0.0643904 -0.99350595 -0.3680145 0.30658218 0.32359338 0.43744737 0.35543567 -0.101375476 -0.50111365 -0.5253814 0.8889223 0.1343943 -0.19993521 0.42318916 0.13046335 0.102751315 0.009300762 0.22302762 0.26646578 0.2980351 -0.19648707 -0.5998048 -0.3711162 0.85446584 -0.49490887 -0.3183983 0.1034562 0.22880372 -0.26363122 -0.035439678 0.84980255 0.30522585 0.116984874 -0.45213452 0.3130822 -0.23433152 1.103485 0.2395194 0.053684607 0.54985625 -0.1246901 0.61844325 -0.42506367 -0.17418088 -0.20074816 0.023259519 0.08147427 0.19488779 0.38877428 -0.16506526 -0.04195535 -0.09439401 -0.95302707 -0.16954249 0.4379673
99 0.1774315 0.2908473 -0.11884731 -0.033225514 0.15036896 0.2754599 0.31311378 0.1346205 0.27370498 0.34596118 -0.23309985 0.24473575 -0.09237455 0.4513922 0.2301553 0.39474314 0.49099645 -0.29974478 -0.31883043 0.5046762 -0.27122328 0.30741227 -0.26891622 -0.61938536 -0.09317288 -0.13628247 0.4392806 -0.037797246 0.23352142 0.0159256 -0.022519745 0.10150693 0.40955797 -0.11757583 0.083818905 -0.23924598 0.6946118 -0.21979114 -0.19096011 0.09430594 -0.41206712 -0.5658685 -0.3756268 0.07859512 0.27174312 0.23458815 -0.119929485 -0.12859634 0.21977198 0.39900702 0.67407286 -0.16256274 0.39955217 0.08057505 0.124736324 -0.31263193 -0.41021228 -0.21463513 0.03543999 0.2932813 -0.068206094 -0.101801254 -0.3649093 0.32579094
491 0.25592205 0.1314026 -0.14883426 -0.073438175 0.12921262 0.2762796 0.35466212 0.15525694 -0.024511132 0.69900507 -0.3610895 0.41687956 -0.30967376 0.6049883 -0.04399261 0.37689945 0.0747672 -0.008535166 -0.21650587 0.5754836 -0.19794843 0.3715827 -0.32030705 -0.69932973 -0.18320422 -0.30340064 0.59867996 0.054749236 0.19113885 0.048878357 -0.013216317 0.11070156 0.41254404 -0.16022733 -0.22706929 -0.14644462 0.5543814 0.089612305 -0.18620455 0.099890985 -0.32112977 -0.501549 -0.1973393 0.09702769 0.05808704 0.17076293 0.21617347 -0.11785142 0.4475463 0.29168236 0.6913684 -0.14301218 0.59698343 -0.11261239 0.16556457 -0.08342536 -0.3895557 -0.25163195 -0.02340826 0.341521 -0.0811187 0.009864027 -0.24153963 0.38983208
139 0.077543475 -0.08684209 -0.50687885 -0.21668448 0.46016937 -0.17078917 0.4939586 0.030662578 0.7574305 0.2513103 -0.020312976 -0.7075575 0.30689126 -0.15119341 0.5012476 0.15822384 -0.48691556 -0.16167231 0.4046025 0.37549067 -0.15499024 0.07001989 -0.19712414 -0.4063011 0.36863333 0.49525717 0.6012782 0.3207512 0.46860847 -0.30319893 -0.06336207 0.37778586 -0.60545427 -0.4774458 -0.4248295 -0.35638985 0.17233522 -0.38469744 -0.24012691 0.3377037 -0.6685414 -0.27574688 -0.37692627 0.40004134 -0.1252548 -0.109009184 0.21043058 0.8277837 0.116556026 0.36619425 -0.15186419 -0.6195545 0.019489491 0.28295678 -0.17501034 -0.3504594 0.38135988 -0.4207773 -0.44113937 -0.1567271 0.432739 0.48239696 -0.29085675 -0.26129624
677 -0.08135312 -0.043241687 -0.16934581 -0.13645089 0.25166315 0.050740696 0.74885553 0.17185892 0.584734 0.070568725 -0.22738573 -0.3794012 0.13721846 -0.34330797 0.351588 0.26192075 -0.4193026 -0.102178715 0.3417526 0.34546235 -0.28074235 0.061847795 -0.16993004 -0.6108966 0.17003381 0.7906001 0.6657898 0.07512215 0.3468535 -0.52947253 0.048638254 0.40609217 -0.33519238 -0.46121278 -0.27361304 -0.13081267 -0.022936944 -0.26923746 0.019832237 0.13928765 -0.43112597 -0.3545657 -0.26125905 0.4138336 0.109459616 -0.345617 0.25616217 0.65300345 0.1024597 0.26415005 0.015879057 -0.43162313 -0.16678877 0.2514808 0.0060262345 -0.29042155 0.39996678 -0.39336327 -0.37410918 -0.17613749 0.32799968 0.4368142 -0.5504668 -0.37715077
107 -0.5770923 0.1484996 -0.15335917 -0.14042786 0.2589157 0.2594109 0.5191475 0.15584111 0.21006668 0.11559466 0.048540674 -0.42468476 0.35744768 -0.09635867 0.77540594 -0.15665574 -0.5034426 -0.28539056 0.07784945 0.17550527 0.3625228 0.14797395 -0.42083815 -0.19781493 0.3076859 -0.2560521 -0.0748571 0.37907702 0.27515727 -0.5934685 -0.114838734 0.71278447 -0.69273925 -0.5658107 0.001189048 -0.2660447 0.16282144 -0.1741467 -0.061885945 0.45006523 -0.3791565 -0.20500545 -0.33779934 0.011420643 0.24968669 -0.030284332 0.051016487 0.32912153 0.021980222 0.214067 0.41471577 -0.4318337 0.006137481 0.6381946 -0.2789373 0.03301002 0.24575311 -0.4339659 -0.2622233 -0.15192708 0.0491867 0.13337901 -0.2242003 0.14418994
411 -0.594204 0.33033004 -0.19641714 -0.15091892 0.27455345 0.5670946 0.5678934 0.059129447 0.12653376 0.1797891 0.016890619 -0.36573982 0.47966486 0.009210345 0.36309794 -0.27613536 -0.40063056 -0.4596804 -0.43508965 -0.1304872 0.41737893 -0.049389146 -0.28289837 -0.5394257 0.5360638 -0.34577164 0.047375284 0.2944882 -0.0110853 -0.23352171 0.07590496 0.6779464 -0.9649078 -0.675052 0.029123146 -0.6042245 0.6226379 -0.20015483 -0.2928367 1.0516653 -0.4351274 0.073984176 -0.56906265 -0.16192129 0.27226907 -0.14962186 0.027868776 0.22989601 -0.024371233 0.5592201 0.5162215 -0.64164805 -0.17451225 0.6263331 -0.49667272 -0.055465236 0.3874468 -0.40169752 -0.6953577 0.045019165 0.49836802 -0.0085668955 -0.18808945 0.35153136
259 -0.022005038 0.38767004 -0.22229004 -0.3096921 0.7309236 0.59438974 0.8229385 0.0691591 -0.3099979 0.3262768 -0.7394673 0.35169494 0.0724558 0.64541066 -0.19882493 -0.4459788 -0.06280315 0.008020483 -0.09330064 0.62680185 -0.5132722 0.13188307 -0.15656793 0.034776673 0.086697645 0.20710246 -0.18433416 0.21357036 0.6503188 0.19160144 0.4346437 -0.65229833 0.5849481 0.06868628 -0.005374324 -0.6859258 0.67477375 -0.3336067 -0.1188647 0.83498687 -0.45510292 -0.6721803 -0.03239636 -0.1347279 -0.058180712 0.5912057 0.0704747 0.31686193 0.1545719 -0.3071362 0.19320267 -0.3523726 -0.08642474 -0.55905867 0.08594497 0.73632246 0.19661431 -0.023720283 -0.18625343 0.32761273 0.10841013 -0.93249804 -0.70066714 0.29164103
547 -0.2651335 0.31946772 -0.21500956 -0.52716786 0.73606974 0.64999616 0.804895 -0.17545837 -0.36766237 0.3938785 -0.8277113 0.16332754 0.38530168 0.5133005 -0.018772146 -0.30742654 -0.26596743 0.20477481 -0.032408353 0.7279653 -0.44696376 0.13085759 0.008414661 0.065105535 -0.054664638 0.3499664 -0.48741648 0.03265807 0.5443142 0.3439744 0.40715072 -0.53945535 0.777492 -0.14936331 0.046102155 -0.63359994 0.4420739 -0.39605954 -0.29445648 0.6985875 -0.35915065 -0.7933705 -0.00239648 -0.19169168 -0.011255515 0.50190973 -0.10904948 0.41153473 0.20139076 -0.36242002 0.38223553 -0.3370496 -0.23227835 -0.22553675 0.429987 0.8249089 0.24252306 -0.16699494 -0.22951402 0.3888535 0.37093803 -0.761676 -0.734156 0.06590442
76 -0.09080856 0.1771534 0.45749962 0.32097623 0.36914262 0.35967103 0.23776558 -0.07097965 -0.2724676 0.46344867 -0.32006577 0.029657982 -0.25968173 -0.012746691 0.12082414 0.66246694 0.077095345 -0.57794833 -0.21516034 0.49729005 -0.52791154 -0.0911062 -0.43625912 -0.4616225 0.2736377 0.083358385 -0.5415501 0.41960385 -0.38003758 0.1665686 -0.12051575 0.4473475 0.61123496 0.0101483315 0.010104959 -0.24358892 0.37532002 -0.26739025 0.13304316 0.44777295 0.32944697 -0.57589394 -1.0543692 -0.28140014 -0.23009951 0.21989863 -0.09023582 0.043776825 0.20959485 -0.5503771 0.52608687 -0.106541306 0.3633443 -0.29605517 -0.36505172 -0.3644596 -0.20794967 -0.95608836 -0.2171718 0.9877589 -0.01080079 -0.2517827 -0.27574068 0.037708044
1038 -0.14047383 0.4182903 0.5342578 0.33430335 0.12424244 0.20636934 0.22613865 0.23995239 0.16226394 0.6678956 -0.29531497 0.08313802 -0.39603004 0.19305089 0.23344491 0.5442451 0.23736092 -0.5658919 -0.26283368 1.038132 -0.65657717 -0.40645078 -0.38539204 0.099511124 -0.19088717 0.24388698 -0.26675949 0.11351435 -0.52940434 -0.26915008 -0.30875215 0.42065278 0.6089556 0.23551783 0.18597841 -0.34501958 0.36074156 -0.02432503 -0.14961275 0.91856664 0.4086773 -0.79069424 -0.7831209 -0.24810043 0.1424987 -0.025834925 0.12817205 0.09280777 0.2346196 -0.4080073 0.3277907 -0.41343966 0.115829736 -0.24420556 -0.31311426 -0.19117722 -0.57337534 -1.437426 -0.12213597 0.57735187 -0.1629881 -0.14496967 -0.5289149 -0.16639002
392 0.19214194 -0.16883609 0.017983055 0.070710786 0.2299678 0.41988516 0.5023962 0.18382037 0.0289539 -0.0059207873 0.4901986 -0.04670322 0.019707214 0.39074123 0.18545924 0.019690078 0.01220148 -0.20900531 -0.20205367 0.51607525 0.014019145 0.13037045 -0.10648076 -0.19531442 0.13246642 -0.095015265 0.25419432 0.3975408 0.45994028 0.02105059 -0.12216337 0.2488601 0.38946274 -0.47353643 -0.029047845 -0.55563706 0.8033993 0.14073361 -0.009839435 0.6005793 -0.20947438 -0.5692983 -0.37035173 0.07389257 0.89927334 0.016147194 0.49395218 0.20554915 -0.09732855 0.17321722 0.61558086 -0.45627272 0.17747317 0.33981773 0.20601419 0.1998216 -0.55676293 -0.40991655 -0.2760014 0.1930709 -0.3258295 -0.060561866 0.06436773 0.73688424
1019 0.24601488 0.08703504 -0.06257825 -0.1768993 0.003667503 0.1804048 0.641587 0.15163434 -0.40350443 0.15565538 0.46207738 -0.053256303 -0.021080935 -0.08431508 0.3064461 -0.16111118 -0.17599691 0.0353145 -0.16597487 0.826575 -0.057528708 -0.24007936 0.054312747 -0.40690085 -0.062828705 -0.06716697 0.098217525 0.5022175 0.3199738 0.0015175669 -0.40537435 0.17890385 0.40649274 -0.37281156 -0.25822756 -0.74026084 0.7422395 0.022578368 0.09004965 0.19366708 -0.33601213 -0.63198376 -0.43123376 -0.12208233 0.9365228 -0.028353343 0.57012 0.047372866 0.07450625 0.22571634 0.2803989 -0.38199273 0.061428525 0.12299594 0.1609054 0.0161549 -0.5185733 -0.2668209 -0.22493228 0.37151292 -0.20837966 0.03142271 -0.3038795 0.75938374
8 -0.003010696 0.05558684 -0.12748165 -0.25765496 -0.19818339 -0.0051081236 0.86937594 0.20042899 0.6828323 0.61355186 0.0003758947 -0.4214762 0.098317854 0.11717837 0.28493643 0.14159068 -0.05224919 -0.13704726 0.061080653 0.3507212 0.16477813 0.99875784 0.11240817 -0.81001025 -0.17684518 0.6044491 0.1322633 0.09573612 0.46934134 0.09207483 -0.083104506 0.14099868 0.12408704 0.26254284 -0.5510382 0.3347294 0.3178567 -0.054245442 -0.34787557 -0.083021306 -0.005619534 -0.29171512 -0.2956034 -0.11529566 -0.14878368 0.25163636 -0.20138791 0.32618877 -0.13202862 0.11885883 0.27008584 -0.5554909 -0.087057754 0.04763354 -0.43996868 -0.41919696 0.8678627 -0.32233238 -0.49294665 0.40058 0.044192705 -0.66509455 -0.032925583 -0.58244586
983 0.35115412 0.25315797 -0.1326663 -0.21670154 0.02158887 0.115386635 0.41485026 0.37556395 0.42198646 0.72804344 -0.15633722 -0.03074284 -0.091062084 0.7495041 0.19625987 0.35515147 0.106741235 0.16663504 0.0737576 0.6035837 -0.22974071 1.0012782 -0.030089682 -0.6614018 -0.10329667 -0.2648903 0.19896625 0.26139924 0.276691 -0.0663683 -0.32839158 0.34230036 0.49303153 0.04259987 -0.00860382 -0.2015615 0.87727237 -0.31061694 -0.58583224 -0.0112486025 -0.4170582 -0.17053528 -0.33807603 -0.184996 -0.044541378 0.0077645113 0.28682968 0.38178137 -0.22877483 0.4623502 0.3991823 -0.40109047 0.10442984 -0.15004325 -0.34716025 -0.020796223 0.45934004 -0.2532137 -0.13975273 0.1744801 0.15828133 -0.35645387 0.18443501 -0.2146457
190 0.34704632 -1.0454915 -0.4524121 0.1288751 0.08660109 0.061717924 1.0452911 -0.19470187 0.51921237 0.6249169 -0.44974473 -0.6169132 0.6792088 0.105431296 0.054986175 -0.7235665 -0.44562295 -0.37578362 1.0059787 0.2084568 -0.58952737 0.021603402 0.15387101 -0.4839087 0.63044065 0.7361168 0.74111855 -0.06896284 0.06972553 -0.69443774 -0.56922644 -0.03386547 0.5977536 0.001241299 -0.2549429 -1.0565728 0.11469775 -0.72468 -0.12824395 0.36119762 -0.47240213 -0.42342687 -0.76530993 -0.03603469 0.018831154 -0.28233618 -0.5342753 0.88562167 0.018432923 0.8939467 -0.006507497 0.061512645 -0.13059404 0.7176819 -0.35615814 -0.3045622 0.5051043 -0.5061002 -0.64161724 0.29429924 0.5455096 0.3803306 -1.3095347 0.081330314
926 0.38870654 -1.0836159 -0.24731903 0.070721 0.121062815 0.112247236 1.0943193 -0.25704688 0.54384756 0.52145773 -0.39543003 -0.5541052 0.5395426 0.04473407 0.32851383 -0.504806 -0.45767936 -0.27065676 0.88884306 0.45985022 -0.4332157 0.10652251 -0.0873628 -0.38925812 0.6971509 0.6577909 0.5074203 -0.15898763 -0.13005358 -0.40821365 -0.4250141 0.32597572 0.35061717 -0.23735313 -0.37827024 -0.93738794 0.18831377 -0.7200208 -0.21328154 0.28386188 -0.4747645 -0.40564242 -0.8536342 0.067421325 0.22817242 -0.36218408 -0.34227863 0.9388117 0.053854767 0.542005 -0.20200948 0.08137486 0.13474472 0.63563865 -0.17368603 -0.4319564 0.43411106 -0.59641 -0.5302051 0.061900444 0.5732159 0.1839537 -1.0671335 -0.06958498
382 0.15568228 -0.06941009 0.50731665 -0.30589986 0.33215588 0.44820452 0.35345086 0.29827318 -0.40371653 -0.19231117 -0.76036847 -0.8779512 -0.25144485 0.08695182 0.6206766 -0.29711002 0.35408726 -0.1965961 -0.46025842 0.26259986 -0.57241535 -0.15034348 -0.08629917 -0.47515333 -0.574617 -0.034565553 0.017540645 0.78045315 0.7147344 0.017751127 -0.1588399 -0.12681328 0.20995654 0.23459049 0.23980142 0.5205438 0.76742214 0.21606717 0.13282676 0.6723853 0.3492884 -0.5022378 -0.27735797 -0.16960157 -0.603941 0.67386407 0.075616464 0.113534555 -0.056848574 -0.0027391661 0.6182472 -0.078139864 0.19168982 0.14749797 -0.5167652 0.24981335 -0.1937206 -0.5745654 -0.70751077 -0.101291694 0.1624632 -0.07646578 -0.21542022 -0.32865548
894 0.31585962 -0.001473257 0.24943341 -0.684533 -0.14882258 0.79078096 0.41305804 0.37548044 -0.36575967 -0.3494107 -0.4730178 -0.88355255 -0.1009904 0.33575326 0.6565519 -0.23908323 0.004866562 -0.14020462 -0.46760327 0.64659774 -0.6526679 -0.051151223 0.12791227 -0.59638107 -0.27873713 0.019095628 0.029707108 0.7158668 0.9130202 -0.09972996 -0.37176427 -0.38884187 0.32088834 0.15793696 0.24689065 0.69292444 0.62922627 0.26461315 0.12348122 0.684368 0.4927184 -0.3801608 -0.4005705 -0.27767783 -0.65227664 0.5377109 0.11005163 0.35580665 -0.011811768 -0.008427424 0.62961 -0.045253195 -0.02288817 -0.014734573 -0.5544116 -0.018224617 -0.20599152 -0.3476756 -0.95123225 0.020834588 0.037294477 -0.054127004 -0.025969693 -0.222203
9 -0.14721233 0.2507628 -0.83503693 -0.44787025 0.50875944 -0.15366007 0.57446563 0.1442772 0.43738103 0.04567108 -0.9222199 0.067736104 1.0283693 -0.18405318 0.10746847 0.1476078 -0.6837229 0.17938174 0.14644846 0.27478814 -0.21167454 0.83118314 -0.30076495 -0.17607884 -0.011676785 0.36065438 -0.12431723 0.43460357 0.497808 0.36596254 0.13719529 -0.2013944 0.45194578 -0.07263953 -0.3641769 -0.32608834 0.5822607 -0.6852335 -0.31228098 0.27956074 -0.3058365 -0.54945713 -0.14297768 0.030238794 0.13495083 0.53815335 0.025140297 0.73109823 0.12652504 -0.14778088 0.23558255 0.068993255 -0.37131694 -0.5410769 0.028546505 0.7209513 -0.1995068 0.29973754 -0.5533026 0.5944805 0.49948508 -0.93644685 -0.32198527 -0.24001263
706 0.0054314095 0.105361514 -1.0808427 -0.45634538 0.6817084 0.35418332 0.8547927 -0.059005227 0.14563315 0.09255616 -0.8409048 -0.23854125 0.81278145 -0.027233362 0.070566304 0.16047622 -0.58077 0.14218064 0.30641636 0.1908683 -0.23348893 0.32854435 -0.09403451 0.16529395 -0.21908237 0.19981703 0.087082565 0.2528908 0.46358877 0.505241 0.21903577 -0.3108406 0.3453889 0.20205523 -0.21963625 -0.4252975 0.9995885 -0.613399 -0.24731256 0.5718025 -0.254722 -0.6041787 -0.08958302 0.052449033 0.042259153 0.6295478 -0.0074886745 0.96124154 0.02377998 -0.3247339 0.19826306 0.05404965 -0.40376204 -0.5584436 0.25361088 0.5929117 0.039816525 0.20869407 -0.6585682 0.45579115 0.22121938 -1.0588835 -0.6422166 -0.18002981
134 -0.24167576 -0.17376517 -0.21986812 0.26695016 0.75572705 0.6867087 1.1067725 -0.13851877 -0.15244348 0.57072115 -0.68385667 0.33225635 0.40139607 0.52206635 0.07605021 -0.18243246 -0.30070037 -0.02540536 -0.31170288 0.13436538 -0.20105676 -0.15217523 -0.08036026 0.2419308 0.099601 0.4429007 -0.7208159 -0.00036852094 0.78677 0.37978026 0.58498085 -0.30570978 0.34318164 -0.22141805 0.2683428 -0.43682453 0.5059429 -0.44752005 0.10883583 0.58701557 -0.3071788 -0.56113344 0.36691454 -0.12647073 0.19586445 0.740085 0.12993051 0.85024416 0.31155425 -0.078182764 0.68643534 -0.12541237 -0.02577733 -0.27041838 0.35649565 0.38934723 0.1593403 -0.40584624 -0.33085272 0.5705657 0.07050421 -0.700305 -0.6515499 -0.1291915
554 -0.27308 0.3252475 -0.24213918 -0.32067108 0.99436474 0.6183454 0.8670524 -0.09528263 -0.588149 0.38567615 -0.79982466 0.38433114 0.26791075 0.64921683 0.07755847 -0.43984386 0.02643421 0.08384476 -0.036776092 0.6418113 -0.604309 0.22241862 -0.10674777 0.22827324 0.03283716 0.33501852 -0.29698855 0.08732963 0.29989633 0.33229467 0.63228035 -0.39816937 0.70569766 0.0033935434 -0.017726997 -0.54724175 0.69511455 -0.6077447 -0.15938082 0.74402535 -0.17936388 -0.6584433 0.10607872 0.056935165 0.07311496 0.71685284 0.13182604 0.6696675 0.11491957 -0.42632866 0.47221228 -0.32251152 -0.16738169 -0.25325903 0.13872048 0.36622867 0.21301912 0.0024325142 -0.21815456 0.28256446 0.23582038 -0.63940936 -0.6067482 0.06428576
116 0.37151882 0.25959405 -0.5335758 -0.20878479 0.3913157 0.27378193 0.63026404 0.7117328 0.6793326 0.13820119 -0.16360907 -0.26709664 -0.27121314 -0.04111186 0.365189 0.4861479 -0.44636697 -0.4421952 -0.0357305 0.7839261 -0.16290544 0.42753562 -0.57719177 -0.4195362 0.10094201 0.98824674 0.42164245 0.4427555 0.1319406 0.15271774 -0.7601844 0.29129022 0.31738135 0.2386976 -0.40334177 -0.17271443 0.0009187891 -0.36580113 -0.34649992 0.2103211 0.107968956 -0.23027197 -0.99253106 -0.28826252 -0.32547033 0.18669 -0.26256582 0.106886186 0.27941123 0.20103191 0.77033454 -0.83640975 -0.1722853 -0.20560232 -0.6408459 -0.25331506 0.46941352 -0.91939795 -0.80157423 0.9275327 -0.0152809145 -0.44545156 0.33048922 -0.5480435
611 0.27271003 0.37484196 -0.56569654 -0.36614126 0.32683805 0.15653653 0.7500658 0.47519243 0.7023055 0.19347188 -0.24841441 -0.19000524 -0.21478364 -0.13014746 0.52577204 0.51933956 -0.3308451 -0.45951828 0.14094378 0.5880629 -0.18854581 0.53703475 -0.42816445 -0.39494976 0.025476791 0.878424 0.36516204 0.30994424 0.036555815 0.43465048 -0.5817579 0.2768361 0.09424822 0.37728387 -0.3800102 -0.09623902 0.25544697 -0.4482346 -0.37030217 -0.04699312 0.12615259 -0.3793989 -0.973208 -0.3687143 -0.36205256 0.13422582 -0.31173173 -0.105820075 0.2867465 0.17014045 0.6453719 -0.68909305 -0.16779694 -0.0964731 -0.47864616 -0.30386698 0.4123441 -0.8025327 -0.8631584 0.8499616 0.07044776 -0.6577596 0.21652313 -0.5207971
527 -0.2546798 0.12892362 -0.12721238 0.10752109 0.020965248 -0.021450626 0.66992056 0.10451972 0.31241518 0.19962814 -0.46162555 -0.6205529 -0.19859868 -0.29346317 0.7995033 0.48853767 -0.059586983 -0.04259954 0.65656906 0.14893456 0.038295705 -0.0887389 -0.3740243 -0.43399516 0.47725296 0.19572565 0.019603591 -0.30991796 -0.015463406 -0.3480174 -0.06675697 -0.026092378 -0.3269619 0.10126823 -0.3370221 -0.3461822 0.1220734 -0.039508678 -0.5668909 0.52697575 -0.25606394 -0.7736878 -0.29719034 0.6918509 0.6128873 -0.010357519 0.2500901 0.52246845 0.5619444 -0.053641025 0.09065709 -0.20712532 0.20944612 0.034993514 -0.15032534 -0.0062759304 0.34130841 0.0154118 -0.21907376 -0.3273223 0.27408618 0.18724418 -0.5000965 0.13843238
133 -0.20054163 -0.24507312 -0.024837581 0.054187223 0.3940296 0.34081236 0.17462152 0.65023714 0.16335656 -0.013713488 -0.18346795 -0.036781657 -0.1587601 -0.11768241 0.3731602 0.80920184 -0.20759359 -0.31814474 0.010829209 0.76122296 -0.6399047 0.24271923 -0.88178545 -0.14893752 0.0632428 0.190529 0.17157671 0.45800874 0.18681139 0.2473809 -0.4941302 0.3177686 0.33702055 -0.07990592 0.17075366 -0.5913408 0.15024324 -0.24402876 0.28050166 0.055220228 0.3952779 -0.385213 -1.1296551 -0.083394326 0.33021638 0.18087439 0.123987 -0.15381686 0.34162268 0.13038845 0.59087545 -0.59318036 0.28245768 -0.3366409 -0.12983647 0.036580868 0.028568601 -0.6794151 -0.66378444 0.89165455 0.1699598 -0.7973285 0.09204644 0.21636242
909 -0.122067116 0.20834309 -0.37269205 -0.07306564 0.110271126 0.07731834 0.69376117 0.12403841 0.21841605 -0.34465322 0.12649298 -0.15163848 0.18952331 -0.24838382 0.22801098 0.20072125 -0.19005512 -0.14082193 -0.37840414 0.9890131 -0.36339542 0.30137762 -0.28538325 -0.1943668 -0.05572369 0.5185495 -0.26511794 0.6392331 0.06842489 0.2158218 -0.07627653 -0.17303091 0.19402637 -0.47907788 -0.01646393 -0.34087494 0.8701352 0.08089215 0.19587895 0.34358156 0.08839226 -0.5777799 -0.33870494 -0.37366122 0.94785166 0.31372085 -0.00012286294 0.21886954 0.3363171 0.14444114 0.4676133 -0.37114325 0.05767228 -0.2948657 0.381747 -0.14789462 -0.3281144 -0.023302913 -0.35709614 0.7449178 -0.35565287 -0.41613856 -0.021097876 0.27797177
264 -0.023359524 0.06802856 0.015565867 -0.49866048 0.30491427 0.7263004 0.99954754 0.029880194 -0.24946874 0.7029707 -1.1686414 -0.52463216 -0.09261596 0.2711814 1.1208721 -0.04970819 -0.49685058 -0.49097395 0.06536316 0.733885 0.086323254 0.47278076 -0.5568267 -0.56962687 0.3442465 0.316199 0.08168564 0.50537056 1.0330398 -0.535286 -0.28905827 -0.11268481 1.0563388 -0.28322932 -0.6282888 -0.70688987 1.0011187 -0.49909154 -0.4017457 1.5327128 -0.40382525 -1.2051227 -1.2841923 0.33245993 0.248705 0.28793636 0.5531298 0.8502206 0.61418045 0.27164826 0.82781035 -0.24731342 -0.08394441 0.2944353 -0.25347793 0.26205269 0.058081213 -0.5750795 -1.2653772 0.4461164 -0.09452085 -0.4018692 -1.1364782 0.13115424
426 -0.029332552 0.05330212 -0.015382487 -0.5100945 0.3212467 0.715537 1.0144713 0.031204877 -0.25697494 0.6884304 -1.1558197 -0.5120901 -0.07709519 0.24500604 1.1102183 -0.08452692 -0.5043075 -0.48512253 0.06725683 0.70154124 0.060552634 0.4451708 -0.5578064 -0.5424674 0.3635969 0.3255976 0.05380355 0.57430965 1.05887 -0.5551566 -0.28900403 -0.14724845 1.0501608 -0.2659743 -0.63917506 -0.69726974 1.0374833 -0.46307597 -0.41654488 1.5081645 -0.3797022 -1.1908356 -1.313204 0.33691424 0.26304877 0.28192306 0.5875932 0.83919436 0.6079584 0.26848036 0.8662745 -0.26108557 -0.08658149 0.29921916 -0.27463374 0.26765248 0.03751395 -0.62399465 -1.2753631 0.48917225 -0.088087164 -0.37866655 -1.118441 0.123301014
661 0.35470632 -0.13777362 0.02605389 -0.6414054 0.06679186 0.4828452 -0.019872958 0.22247225 0.0034241944 0.23344168 0.09615384 -0.37003377 0.32776573 0.25390106 0.0061139846 -0.23375478 0.12343476 -0.31203878 -0.18593393 0.7270874 -0.24917372 0.068405405 -0.4039196 -0.31247354 -0.40187085 0.0783345 0.26758686 0.22010799 0.39259946 -0.1778344 -0.23020539 0.27628884 0.39793313 -0.2309764 -0.20599249 -0.66890544 0.6086634 -0.107968636 -0.22271585 -0.017742382 -0.20568308 -0.5689581 -0.6304575 0.06608959 0.87738687 0.3516563 0.13463296 -0.053097125 -0.014676135 0.29681328 0.31432292 -0.40254253 0.37311825 0.31048968 0.38049424 0.2940101 -0.6120505 -0.29875925 -0.21168214 0.26098374 -0.5624893 -0.034267653 -0.049539324 0.8555629
743 0.086548015 0.110326104 -0.12088167 -0.18476373 0.03569174 0.20376736 0.2744405 0.13085704 0.14243844 0.7265143 -0.018484231 0.28319183 -0.0890871 0.743596 0.045311015 0.39651883 0.08661788 -0.4100747 -0.15412024 0.7845681 -0.054351877 0.55278814 -0.1256027 -0.6506878 -0.1297837 0.044941667 0.49420437 0.03241077 0.29113224 -0.26510295 0.042560786 0.32428157 0.4756425 -0.078220375 -0.0025555945 -0.10838449 0.6478149 -0.16584446 -0.28553548 0.17873386 -0.63827246 -0.8080256 -0.36673564 0.066094995 -0.16000982 0.1708674 0.17885388 -0.12975965 0.076554336 0.12959234 0.67632455 -0.17406581 0.49468514 -0.10525292 0.2188044 -0.3060243 -0.59459 0.00076146214 0.042576104 0.37318173 -0.1579318 -0.08451958 -0.2765227 0.24489363
356 -0.48306206 0.042313334 -0.049279325 -0.07296823 -0.38712516 0.19282778 0.6476173 0.028219208 -0.38157684 0.33900324 0.113537475 -0.54097575 0.12354723 -0.2074212 0.7104921 -0.1861411 -0.18030058 -0.47388148 0.19576783 0.13739067 0.20970276 -0.18581301 -0.52415514 0.1915449 -0.11474967 -0.43329123 -0.14948942 0.6288196 0.8584458 -0.47766933 -0.08789168 0.4107878 -0.1754109 -0.3448798 -0.19935103 -0.36406115 0.27902573 -0.082380556 0.09739225 0.32446784 -0.16896878 -0.39421806 -0.13000731 0.1624612 0.5721549 -0.06274857 -0.19685769 0.20069088 0.2415267 0.19367148 0.48550653 -0.3266168 0.03189607 0.5746681 -0.12616144 0.017882911 0.25338882 -0.4059558 -0.10399289 -0.110177964 0.20840946 0.1995427 0.03082653 0.21934898
796 -0.7875958 0.16236752 -0.12918113 -0.20858292 0.013655381 0.15659651 0.5306842 -0.1564099 -0.21838635 0.33823195 -0.3872917 -0.4916462 -0.20115964 -0.25771642 0.6414612 -0.21596715 -0.43737352 -0.3401022 -0.035701536 -0.25005588 0.42786315 -0.22388002 -0.692872 -0.03012496 -0.22308704 -0.23457187 -0.3413046 0.21318083 0.5249721 -0.44183528 -0.078474104 0.505827 0.16759832 0.0480401 -0.036800124 -0.07946707 0.08871066 -0.8153289 -0.034295954 0.40156332 -0.3289689 -0.012599905 -0.3189483 0.006888937 0.73407143 -0.06591405 -0.08851568 0.31900555 0.08959392 0.18982397 0.3879006 -0.2338395 -0.08012368 0.24492379 -0.12403059 -0.36054647 0.43389785 -0.6858947 -0.040668033 -0.1966782 0.12855625 0.025575034 0.21543966 0.2725071
277 -0.44048735 -0.10668823 -0.60799634 0.4449313 -0.037206296 0.38425693 -0.12779392 0.056238186 -0.13837092 0.6185358 -0.7278694 -0.43256497 -0.46721345 -0.35541865 0.09645254 -0.623389 -0.5992898 0.5967568 -0.018804591 0.028114079 0.64114213 -0.14786445 -0.28305152 0.19991668 0.54332465 0.8650324 -0.013409913 -0.080821276 0.62665683 -0.8065699 0.03986525 0.016764112 0.3185419 -0.35248294 -0.24030173 -0.60673326 0.54370326 0.09499378 -0.34323654 0.103358515 -0.40392002 -0.13128947 -0.73704207 0.1245609 -0.28848997 0.028137816 0.28979573 -0.13306858 0.37913 0.72444344 0.5383258 -0.49026117 -0.06567602 0.48003405 0.53876626 -0.106535 0.38117847 -0.74513555 -0.42093766 0.16179658 -0.12633 0.2080841 -0.82507044 0.020910572
56 0.6043412 0.15599717 -0.09438706 0.22020221 0.111417495 0.57354134 0.40084758 0.24322733 -0.23129952 0.045433674 0.21497832 -0.6453565 0.13101348 0.3951097 0.20417103 0.1435583 -0.59908605 -0.124134906 -0.08655434 0.8685677 -0.22475429 0.24672382 -0.30158845 -0.53223306 -0.033607844 -0.18028556 0.29069725 0.13849592 0.34646 0.054346755 -0.14346881 0.28762993 0.15486507 -0.6792431 -0.098076455 -0.9057315 0.47381607 -0.030730434 0.3800296 0.6070116 -0.09714006 -0.4987773 -0.32890934 -0.16064551 0.6686332 -0.18777575 0.35143116 -0.14123116 0.44571894 0.32221618 0.4320214 -0.7426237 0.043480504 0.45173696 0.647722 0.39037964 -0.4030198 -0.36053717 -0.26871943 0.13625677 0.08707763 0.13581795 -0.2125273 0.50931203
776 0.56297475 0.024366267 -0.20605047 0.06525115 0.28813785 0.4202457 0.43267187 0.107458346 -0.37747782 0.06368194 0.48077556 -0.04706037 -0.17301318 0.15083398 0.25996476 -0.09270314 -0.3221936 -0.15590462 -0.04551348 0.81365407 -0.18051335 0.10336218 -0.3239183 -0.25658068 0.1712779 0.026277855 0.15852849 0.5190482 0.40149707 0.09174139 -0.45578608 0.27513173 0.21665147 -0.35972762 -0.19280466 -0.62944895 0.7197299 0.09552839 0.19274156 0.4720596 -0.16047658 -0.7118599 -0.17357421 -0.110489786 0.9996972 0.1958177 0.23594911 0.12114955 0.2807677 0.3465736 0.5081815 -0.6805699 0.19246869 0.24369939 0.55620235 0.22253601 -0.37456647 -0.388167 -0.19267713 0.17635104 -0.13362016 -0.10657177 -0.24855182 0.6388401
310 0.16211988 -0.027503299 -0.18086922 -0.60794044 0.075181216 0.25601304 -0.7948418 -0.51453674 -0.6340125 0.40701833 -0.95862883 -0.16978222 0.036285743 0.020145077 0.13848892 -0.805815 -0.6289802 -0.22950913 0.38138014 -0.44736242 0.38326955 0.9230422 -0.04353403 0.25014707 -0.25150543 0.10655757 0.53306746 0.50227183 0.18437482 -0.28637218 -0.06544953 -0.03502938 0.45161626 0.26937965 -0.47733542 -0.46956053 0.3934581 -0.37067848 -0.07329517 0.69900256 0.17735212 -0.5088568 -0.70850873 0.14862347 -0.13601887 0.28843877 0.19821611 1.0032403 -0.088842764 -0.4099388 0.6152077 0.44695926 -0.32888156 -0.013008616 -0.12385517 0.5635473 -0.45981917 -0.25782058 -0.6495461 0.9161994 -0.32174152 -0.023572436 -0.73197204 -0.7202092
421 0.19604823 -0.05888777 -0.21794258 -0.57720035 0.10075085 0.3074767 -0.44764933 -0.21174002 -0.4943511 0.17116684 -1.005201 -0.024771113 0.03454255 0.16958739 0.22496872 -0.8187761 -0.8315001 -0.2732141 0.3875898 -0.43247795 0.38939643 0.93008935 0.07086387 0.35303792 -0.26481533 -0.22224799 0.6583272 0.6762613 0.014027223 -0.29941157 0.057875317 0.13960339 0.2904825 0.5681303 -0.6997994 -0.53705364 0.3856396 -0.574162 -0.18445753 0.7227639 0.3126442 -0.5661729 -0.6632723 0.37281746 -0.06618732 0.18812342 0.21611519 0.7803445 -0.088176675 -0.5594782 0.6991231 0.25759873 -0.4275875 0.01166672 -0.37838125 0.7754265 -0.3859039 -0.20673317 -0.9244935 1.186699 -0.39904797 -0.13148826 -0.61541176 -0.4849783
763 0.26196927 0.1242334 -0.16128282 -0.10651851 0.25248525 0.45318064 0.63047105 0.07887141 -0.21962449 0.1648741 0.65013206 0.025930587 -0.11238982 0.35631725 0.468715 0.13452287 -0.07213285 -0.17497432 0.077616565 0.58444303 -0.021247461 -0.06427495 0.02108393 -0.24075991 -0.05067325 0.19655558 0.10256459 0.24510773 0.39372402 -0.046562042 -0.16709602 0.43862537 0.63504845 -0.43579692 -0.2127476 -0.53465796 0.9110181 0.17703566 0.16060388 0.3444762 -0.1806248 -0.5364506 -0.21262483 0.0858726 0.9464231 0.38049603 0.4413434 0.13624246 -0.014329765 0.0677939 0.43082654 -0.37568402 -0.058597613 0.2881714 -0.020190604 0.31542632 -0.49868026 -0.15060559 -0.25729623 0.2909461 -0.381807 -0.012558759 -0.28526703 0.8096862
271 -0.45599854 0.40917656 0.032265015 -0.6570872 -0.12039319 0.6631824 0.8027147 0.59971726 0.22845972 0.6259423 -0.29073474 -0.18322523 0.22768316 -0.22913027 0.09696253 0.22269067 -0.9291395 0.087140284 -0.28479263 -0.449978 0.29013297 0.17121206 -0.29676828 0.028170712 0.50712967 0.8079268 0.12047926 -0.01994705 0.40740308 -1.005932 -0.15222144 0.29985368 0.11846389 -0.24203211 -0.5317391 -0.3368538 0.020503122 0.053134587 -0.10630669 0.41985068 -0.78213257 0.26172027 -0.48058528 0.36999366 0.4041155 0.075330526 0.15143219 0.3704098 0.07876551 0.31004578 0.5145994 -0.24744907 0.26077905 -0.14174977 -0.28278404 -0.44637915 0.7325937 -0.5918331 -0.04463385 0.036975913 0.4123534 -0.051709462 0.03100737 -0.093768455
768 -0.06935571 0.58297807 -0.033824492 -0.618246 -0.38621294 0.4896309 0.8482104 0.63695925 0.3653048 0.68322486 -0.020158155 -0.1309891 0.2974775 0.07819801 0.23093523 0.35098022 -0.5696104 -0.01663664 -0.064907 -0.20972633 0.3518317 0.5317148 0.13398893 -0.3256003 0.2755388 0.9108935 -0.14133215 -0.09619923 0.4127174 -0.4682482 -0.11709815 0.20410194 0.09741036 0.013465633 -0.63771635 0.18391703 0.29792073 0.018406082 -0.27906054 0.13166317 -0.35631463 -0.068386555 -0.5767951 0.05910241 0.018833723 0.025640272 -0.07615602 0.4989655 -0.14614837 0.27103877 0.58538526 -0.42030722 0.23202926 -0.3148339 -0.15058112 -0.48987582 0.8509581 -0.6190958 -0.25380355 0.28263354 0.14537747 -0.5744973 0.28530046 -0.47638994
341 -0.18636602 0.18455686 -0.08855841 -0.028867248 -0.06146739 0.74304825 -0.43950525 -0.36561176 -0.49013478 0.34194148 -0.6231747 -0.6698489 -0.3795491 -0.08511633 0.6187157 -0.7632642 -0.18657668 -0.3647373 0.52181345 -0.5437928 0.3439859 0.50128555 -0.12867619 0.0035208631 -0.109845765 -0.25434166 0.16736937 0.14317812 0.43834862 -0.32086667 0.06899855 0.1478837 0.8931678 -0.31681177 -0.7040222 -0.94646955 0.42956758 0.3227698 -0.03896948 0.34862188 0.25840172 -0.346558 -0.93329364 -0.047750615 0.43179974 -0.073980734 0.0036317988 0.71931344 0.47740075 0.06304614 0.07021294 -0.21659632 -0.4562837 0.72988737 0.122112244 0.8861481 -0.60936266 -0.056572746 0.017699892 0.669248 -0.9894925 0.33379668 -0.01868098 0.07759916
563 -0.16329348 0.2481742 -0.148496 0.02431341 0.08968069 0.7302231 -0.3153915 -0.42383724 -0.42813084 0.0989042 -0.4861241 -0.5474351 -0.30715877 -0.0701304 0.7176568 -0.83474535 0.21687074 -0.39426073 0.5980444 -0.5340389 0.46240145 0.2778153 -0.20005853 -0.0011631524 0.22365 0.13038756 0.14889175 0.14109838 0.40629134 -0.45230386 0.36451647 0.15820834 0.61293375 -0.1198573 -0.7443044 -0.4026975 0.4456915 -0.009122719 -0.13126817 0.23737216 0.27994266 0.017911687 -0.87375844 0.114140585 0.35137933 -0.22134097 -0.012459322 0.6666062 0.57136047 0.4079145 0.001408809 0.059386775 -0.088441305 0.50579494 0.03750488 0.4188912 0.0028742887 -0.21568689 -0.029525848 0.55250126 -0.8811468 0.32756868 -0.17501438 -0.3332671
322 0.61284727 0.29094198 -0.25580218 -0.39612305 0.34188664 -0.3488399 0.35362402 0.37491378 0.073164776 0.3071591 -0.16224086 0.036001883 -0.289733 -0.28785068 0.76494217 0.010479387 -0.41031256 -0.56918937 0.3204142 0.006068491 0.1717578 0.07992843 0.08715895 -0.43438545 0.48017058 0.23973924 -0.4289384 0.12787552 0.16152269 -0.7499907 -0.06651688 -0.25307643 0.35896587 0.031175641 -0.54924864 -0.6274715 -0.25092107 -0.01898255 0.11768062 0.84027725 -0.2860988 -0.2536591 -0.53624356 0.4144622 0.73513836 0.062774666 0.46367326 0.21672502 0.29869714 0.011080947 0.047238115 0.103295706 0.52074367 0.32177377 -0.7231899 0.084151365 0.19843341 -0.33506194 -0.47314483 -0.68804646 0.22100966 0.23268065 -0.69296455 -0.22286661
738 0.69258535 0.24559864 -0.3509694 -0.49683347 0.19990295 -0.16718693 0.27530062 0.57657784 0.07047282 0.2724946 -0.028383479 0.034294154 -0.03888786 -0.16298382 0.43190828 -0.053484425 -0.28910214 -0.64944565 0.31310093 0.1176966 0.21626846 0.16951045 0.085079536 -0.39838934 0.3414565 0.3144738 -0.62650114 0.3059039 0.2320576 -0.5645949 -0.18423238 -0.19047466 0.34894708 -0.31255892 -0.64346766 -0.51096964 -0.29706207 -0.35959157 0.28329828 0.7934372 -0.2881298 -0.2707156 -0.71322155 0.5759616 0.6618467 -0.19656843 0.32757464 0.25567493 0.48640823 0.2204074 0.07809966 -0.10198185 0.34008664 0.31075358 -0.3260971 -0.23983015 0.24779144 -0.2907325 -0.6917857 -0.7308166 0.38049933 0.31674662 -0.73350006 -0.12263157
328 -0.38173157 -0.120708406 0.020185016 -0.57588357 -0.28639635 0.18035427 0.8297635 -0.24851471 -0.3463107 0.18621188 0.21237332 -0.56909835 0.23687299 0.19202594 0.11701017 -0.29343465 0.10154171 -0.5717419 -0.035210878 0.056452665 -0.69649863 -0.17812392 -0.02349153 0.21428092 -0.05897999 -0.4545128 -0.13674785 1.3299745 0.86624527 -0.76171875 -0.3662417 -0.20028122 0.27477977 -0.13718773 0.25545382 -0.034261864 0.79260534 0.13680123 0.08455031 0.15264225 -0.009331806 -0.5612128 -0.4511196 -0.12719035 0.3701956 0.37170732 0.18729769 -0.1832715 -0.15547307 -0.1351825 0.71342224 -0.20103464 -0.2560717 0.57845485 -0.62733173 0.32330707 -0.56063175 -0.5701637 -0.8038051 0.1752185 0.14431034 0.511767 -0.28294286 -0.12127434
432 -0.26111263 -0.031747084 -0.12534286 -0.71207917 -0.17428365 0.085954025 0.85405326 -0.43366453 -0.07978271 -0.09047407 -0.1737828 -0.44381636 0.55155915 0.16082579 0.20360376 -0.659774 0.28300336 -0.5222468 -0.012656256 -0.01481033 -0.70281494 -0.36199498 0.2045176 -0.013128937 0.23842558 -0.4189045 -0.29480493 1.422679 0.82284683 -0.6440432 -0.45043933 -0.5775785 0.32729748 -0.13891418 0.14344884 -0.21308483 1.066073 0.21340653 0.12408122 0.0822753 0.052739404 -0.78911865 -0.8063048 0.07257862 0.42489147 0.36794475 0.37381852 -0.26422602 0.1957953 -0.08407652 0.9959909 -0.21931733 -0.282486 0.37177405 -0.73678654 0.686813 -0.33231995 -0.73465174 -0.5814325 0.37117234 0.40615517 0.5391635 -0.13839747 -0.13043451
88 -0.0043302095 -0.09790221 0.69728655 0.14996216 0.48829627 -0.06593708 0.011412325 -0.34743556 -0.71634424 0.21636099 -0.9263176 0.1384426 0.13507827 0.11095934 0.26620805 0.13257684 -0.28771552 0.3068391 -0.4526426 0.080506265 0.5067246 0.6012867 -0.24000388 -0.7664091 -0.5603593 0.74203646 0.24501297 0.97148675 0.22550009 0.10765294 -0.59118193 -0.09744848 0.47830892 0.2966712 -0.26614735 0.3573823 0.5415927 0.12974028 0.60874903 0.66053754 0.12970577 -0.009459826 -0.6691279 -0.17023751 -0.11448137 0.05048455 0.53049827 0.3658863 0.37878484 -0.023589844 0.22093281 0.16725764 -0.2162572 -0.10941738 -0.5944769 0.15498817 0.11664914 -0.2669126 -0.8969415 0.0013382615 0.5745606 0.019449942 -0.40335542 -0.055839762
851 0.16047493 0.14917596 0.7679024 -0.09006762 0.3889566 0.039364412 -0.03685645 -0.03319451 -0.4049072 0.12207206 -0.8979973 -0.3123191 -0.1053664 0.42779955 0.3957802 0.1396466 -0.08445824 0.14786619 -0.3631218 0.16925605 0.45187616 0.3664523 -0.15042259 -0.40143666 -0.3976152 0.5995956 -0.014048732 0.7660943 0.10774053 0.17501165 -0.40425822 0.13435157 0.4503641 0.35012537 -0.11576942 0.41032353 0.39551696 -0.21408832 0.18562487 0.7605282 0.23836471 -0.2710335 -0.7046011 -0.1612492 -0.013415883 0.005070546 0.33670866 0.08631224 0.017709637 -0.08342845 0.11236733 0.13219556 -0.17202164 0.26637173 -0.51018417 0.16341321 0.059957605 -0.42966416 -0.63843095 0.0909647 0.4529545 -0.13785838 -0.25236067 -0.12531507
85 0.0913902 -0.2080316 -0.5016892 -0.3477605 0.15957044 0.49224842 -0.3773467 -0.5271213 -0.25786564 -0.13806947 -0.51735294 -0.26913086 0.02255364 0.013846771 0.6149962 -0.7446892 -0.4574614 0.505356 0.3801763 -0.7366283 0.07691744 -0.25949758 -0.45646098 0.059920497 0.3074588 0.3726865 -0.071429715 0.16186273 0.8204031 -0.29258186 0.46800506 0.054480642 0.21293922 -0.36227036 -0.66209817 -0.4296058 0.17803758 -0.103395596 -0.07780831 0.6333548 -0.06554687 -0.22233415 -1.0688893 0.53040946 -0.8373617 0.4563934 0.27714562 0.5730543 0.61439127 0.8136627 0.13956042 -0.38234416 0.30743092 0.81448734 0.1438106 0.23959047 -0.061615847 -0.3728934 -0.5020748 0.6890609 -0.7798344 0.37680686 -0.61287683 0.20807728
927 -0.07052407 -0.2109277 -0.16534993 -0.14743844 -0.056163758 0.58112615 -0.20010193 -0.34666076 -0.105806276 0.3058928 -0.5195977 0.10083084 -0.03567682 0.01234754 0.3471309 -0.5636675 -0.49211842 0.4218543 0.3254341 -0.1968066 0.016004317 -0.11746271 -0.36754307 0.28128493 0.051297143 0.18928547 -0.018981822 -0.010065401 0.6598294 -0.15998049 0.83192295 0.3297001 -0.17174822 -0.29590636 -0.87149805 -0.073846616 0.32173747 -0.26188457 -0.33666202 0.47173232 -0.22734645 -0.1383851 -0.8672581 0.50059116 -0.11366895 0.22190827 0.49094307 0.28385752 0.9245288 0.84227 -0.012344537 0.004031212 0.12430332 0.21668369 -0.030240586 0.094993785 -0.08721948 -0.6270205 -0.3436425 0.59755933 -0.9550378 0.294845 -0.68573105 0.19648528
404 0.06081894 -0.065939136 0.36054432 -0.36742267 -0.032233898 0.5924544 0.37943947 0.24703209 -0.32329732 -0.26219165 -0.48234808 -0.7903668 -0.13061571 0.5053588 0.6588707 -0.2896105 -0.02878029 -0.14141521 -0.41544148 0.56898224 -0.27936527 -0.13495186 0.12870263 -0.24717581 -0.5512919 -0.121358305 -0.05647557 0.56520003 0.7951444 -0.18111333 -0.4225144 -0.21469627 0.16200267 0.4795937 0.15795748 0.5435335 0.7400891 -0.08473322 0.05750143 0.6400144 0.5316004 -0.35327464 -0.3789806 -0.27925524 -0.49842206 0.5341217 0.14353937 0.20670022 -0.23336434 0.10645532 0.83779895 -0.038377646 -0.09211616 0.13603106 -0.6038058 0.23746559 -0.3852297 -0.5353242 -1.077717 -0.3341442 0.12600091 0.02733788 -0.07330692 -0.2681131
451 0.20974544 0.12954865 0.22969659 -0.39505672 -0.23619945 0.6280173 0.33122587 0.23222494 -0.35211167 -0.2153122 -0.5056701 -0.7868392 -0.33006793 0.41251212 0.5794773 -0.38446212 -0.12668629 0.10045274 -0.444916 0.65793896 -0.6269371 -0.19930527 0.109194286 -0.335546 -0.3799767 0.14498901 0.090237044 0.89261556 0.7063697 0.02492882 -0.17755897 -0.20789973 0.3266912 0.12182202 0.25819728 0.71572053 0.5428953 -0.016295474 0.035603028 0.6758256 0.26280412 -0.41223457 -0.2576339 -0.041565195 -0.6771218 0.39553994 -0.054760292 0.52654713 0.17778203 -0.0326017 0.8460755 -0.16806713 0.11377397 0.06542061 -0.42222074 0.04353396 -0.39159614 -0.44295722 -1.0414512 -0.054516666 0.13044049 -0.03423378 -0.064506546 -0.47380352
968 -0.20588471 0.30176708 -0.17809016 -0.40106612 0.87712145 0.74177325 0.8685308 -0.11494331 -0.25112957 0.33016565 -0.76030934 0.27041027 0.28261083 0.5556865 0.09009721 -0.33287016 -0.030074157 0.069109954 0.023222568 0.81064653 -0.45081002 0.08850342 -0.031100137 0.24788104 -0.0596261 0.25765648 -0.32669157 -0.08254318 0.64725786 0.35707638 0.49681538 -0.5269532 0.5484116 -0.12578146 0.08045879 -0.6451263 0.42133936 -0.40016538 -0.1761109 0.7189723 -0.45047337 -0.68672556 -0.02520125 -0.30321878 -0.08246289 0.37914625 0.14932783 0.3366073 0.12470258 -0.31856522 0.47543994 -0.4052031 -0.15041871 -0.17818567 0.2503821 0.8809866 0.28997454 -0.26021716 -0.20791444 0.5093747 0.4401767 -0.6516915 -0.83084005 0.026371306
725 0.05154926 -0.037593525 -0.10769936 0.11031799 0.50956655 0.80736846 0.12490379 0.4720547 -0.23131904 0.19130419 -0.025279507 0.20892628 -0.10874351 -0.14320144 0.3845047 0.47724503 -0.07953995 -0.59817386 -0.152263 0.62251747 -0.38431114 0.057281926 -0.586328 -0.16357002 0.13006438 0.1343895 0.3134081 0.35197505 0.35479668 0.40615502 -0.6525722 0.545589 0.30755606 -0.2345405 0.19268404 -0.4120307 -0.09763765 0.22087239 0.2917025 0.28132212 0.4405031 -0.65708023 -1.1705337 -0.17356972 0.21860476 0.11746496 0.1788453 -0.123324305 0.41587853 0.32937795 0.62895715 -0.5800999 -0.10582459 -0.19049643 -0.012440715 0.31201324 0.3731648 -0.440607 -1.1016543 0.88160974 0.12594038 -0.72681963 0.4583116 0.38902798
69 0.25759643 0.315764 -0.01831749 -0.45777506 -0.13133912 -0.3356289 -0.030915728 -0.42330053 0.014048798 0.23837352 -0.42353293 -0.7381846 -0.15956931 0.07712793 0.108310536 0.74769455 -0.0023655826 0.10464521 -0.12659751 0.460038 0.45530233 -0.11990557 -0.2658873 -0.9113206 0.39608002 0.07039373 -0.22493653 0.55528754 0.25694922 0.052719053 -0.11861727 -0.38850218 0.4141075 -0.14677915 -0.18084183 0.037211105 0.035447832 -0.47616065 -0.025163246 1.3523791 -0.08070494 -0.60102105 -0.85622954 0.017286481 0.37520903 -0.13628002 0.18688491 0.36551532 -0.246438 -0.42199373 0.094039276 0.20877713 -0.33052588 0.57037836 -0.5511927 0.2432667 0.14606991 -0.20624846 -0.24823445 -0.31131732 0.28455943 -0.09913466 -0.2989081 -0.6086734
982 0.4760508 0.34464845 -0.020093417 -0.3865231 -0.08133445 -0.505536 -0.02166076 -0.19670218 -0.3056452 0.31907135 -0.7908817 -0.68488985 -0.29799083 0.24058439 0.22227377 0.95972 -0.08785349 -0.012656201 -0.21588455 0.33681747 0.3006343 -0.11606218 -0.28508288 -0.9754456 0.50573885 0.13829316 -0.0751561 0.42689508 0.4144126 -0.13773493 0.15918705 -0.2506161 0.46246094 0.08268757 -0.21202956 0.05564899 -0.1890256 -0.5692833 0.16592978 1.1107807 -0.00831358 -0.96749973 -0.930834 -0.051847555 0.12219139 0.0069052316 0.39760882 0.6149849 -0.051379908 -0.45980555 0.09710093 0.14909434 -0.22601762 0.64511085 -0.6554606 0.6625885 0.16911022 -0.40241233 -0.3207757 -0.3180676 0.40605876 0.10933513 -0.23911253 -0.30524996
583 0.18721357 -0.22411263 -0.5295673 -0.09088268 0.027362594 0.39087942 -0.3762414 -0.44077632 -0.34448963 0.039183307 -0.6399977 -0.120412774 -0.17718345 0.08226643 0.34418824 -0.7679852 -0.76069164 0.52930695 0.106215894 -0.42652705 0.18978956 -0.15988104 -0.26920077 0.17365657 0.46866614 0.18574253 0.004205709 -0.051784046 0.72107613 -0.17194577 0.17034209 0.21863402 0.29274076 -0.45749983 -0.88811076 -0.15991676 0.1882156 -0.13497373 -0.18953893 0.38537017 -0.2532059 -0.22496548 -0.8706558 0.53550494 -0.5882003 0.44571573 0.3118059 0.3279585 0.9166833 0.75494635 0.021319378 -0.06343416 -0.064381115 0.9110612 -0.051816907 0.18564484 -0.12097055 -0.32552063 -0.6409165 0.87008 -0.5340007 0.2200262 -0.41515154 0.39250734
517 0.2876777 0.43486258 0.17755862 -0.21926555 0.22649415 0.4762294 0.44044095 0.3600711 0.45790502 0.5011292 -0.3159037 0.13364543 0.051426962 0.5602862 0.06198813 0.30404508 0.084183425 -0.3172648 -0.38850576 0.7453747 -0.03792071 0.17062597 -0.02515001 -0.7372539 -0.10454561 -0.110764325 0.34228075 0.1499487 0.23588005 -0.25515935 -0.26811936 0.07765596 0.29712275 -0.18685809 0.2054866 -0.2619017 0.6814424 0.017367678 -0.36111867 0.053633496 -0.17663006 -0.51274925 -0.41360095 -0.1401203 0.22853789 0.17544682 0.021332946 -0.21188207 0.14203547 0.27151093 0.72823817 -0.21287271 0.68632257 0.08390749 0.3586759 -0.17543697 -0.31684312 -0.11886264 -0.029842254 0.38449296 -0.046882585 -0.06488381 -0.32909143 0.28667176
124 0.3368264 -0.052983567 0.5796072 0.0031563165 0.1051984 0.17424755 -0.239737 0.17058748 -0.4141296 0.20111409 -0.95512635 -0.17304747 -0.2689735 0.45842493 0.3345099 0.12645388 -0.045278408 0.05472864 -0.07252103 0.2689032 0.239537 0.09412821 -0.05621253 -0.5519186 -0.3237457 -0.044724993 -0.04657298 0.54731596 0.25128955 -0.022564758 -0.5035942 0.13828012 0.36405173 0.041799862 0.035546817 0.32535312 0.3159027 -0.119600296 0.15076402 0.667022 -0.11748176 -0.31464797 -0.52683806 0.19733062 -0.027010852 -0.14398843 0.2508953 0.3708584 -0.21489966 -0.19611399 0.29612413 0.080030344 -0.22809625 0.30659103 -0.494448 0.11704449 0.3725984 -0.28502485 -0.37441263 0.05533942 0.14527045 -0.49802902 -0.26824126 -0.3552378
1000 -0.26065704 -0.10823453 0.44209287 0.14246663 0.21112877 -0.30176106 -0.18666431 -0.102773406 -0.5478378 0.606987 -0.6456095 0.041203324 0.38350877 0.22022474 0.43794385 0.09965626 -0.5647379 -0.11327121 -0.22277057 0.40984815 0.2695766 -0.0039038146 -0.040015355 -0.55001795 0.38835824 0.32602432 0.21206619 0.0438541 0.31341004 -0.22406712 -0.016629096 -0.014372864 0.10972174 -0.3304895 -0.06518838 0.3923414 0.6150855 0.28344643 0.074096076 0.36910224 -0.0034958557 -0.42273998 -0.563802 0.34027398 -0.35983557 -0.18616906 0.063434884 0.114859655 -0.007122418 0.056781966 0.1675744 0.09798354 -0.3985947 0.9599212 -0.18437612 -0.5945343 0.6511545 -0.5799889 -0.9540023 -0.08953434 0.28938445 0.034801226 -0.26316985 -0.58578604
181 0.08260786 0.029097734 0.13977566 0.015165696 -0.05832911 0.31364116 0.423617 0.16662313 -0.21433038 -0.03015058 0.4244282 -0.027303575 0.18028742 -0.03928199 0.20986736 -0.07348285 -0.024887407 -0.11675375 -0.06907788 0.6266826 -0.3845932 0.14482117 -0.012183933 -0.22381717 -0.08011976 0.1546761 0.30713728 0.5722224 0.7567384 -0.10085153 -0.28722763 0.15434876 0.21985418 -0.57201225 -0.29631922 -0.48795334 0.7359059 0.34334818 -0.049586434 0.29073617 -0.14752834 -0.68164426 -0.7585075 0.051678836 1.0511546 0.10003035 0.3331221 -0.07315649 0.0021561037 -0.02563289 0.34870026 -0.7634951 -0.080320835 0.1562932 0.4131723 0.064505115 -0.45470122 -0.25093392 -0.1410986 0.2981794 -0.2214292 -0.06687373 -0.15465425 0.638004
273 -0.04845858 -0.39606598 -0.33246374 -0.2673231 -0.29580984 0.4886015 0.8627482 -0.3478172 0.28473175 0.12705506 -0.89388245 -0.25145563 0.30351776 0.35262987 0.6187694 0.54092443 0.12792282 -0.45864007 -0.8249742 0.7603318 0.07448851 -0.123777844 0.38313928 -0.06779532 0.024083953 0.09054405 0.18433425 0.24947296 0.42913023 -0.0096156215 -0.621629 -0.32961145 0.64014816 -0.39893046 -0.48808667 -0.331298 0.059003238 -0.13346758 0.08560993 1.0853817 0.16110519 -0.15585953 -0.4387975 -0.07678285 -0.3600926 0.7801313 0.50465834 -0.22684442 0.41540694 0.17834422 0.69797814 -0.16948733 -0.20929365 -0.27010083 0.3353551 -0.018301578 0.19211143 0.14567173 0.13912056 0.12389359 0.00715049 -0.78850687 -0.2931006 0.19000812
94 0.20182711 -0.35728937 0.8033032 -0.5517045 -0.0917463 -0.2355846 -0.17463893 -0.103744745 -0.32647663 -0.01775787 -0.9255424 0.22661282 0.1811329 0.15799372 0.29696524 -0.6052667 -0.27836812 -0.310295 -0.1375905 -0.10806162 0.2780568 0.10916069 -0.2017363 -0.3230576 -0.42951307 -0.37140498 0.6148055 1.0414805 0.17652667 -0.29141894 0.092036776 0.20482856 0.44819975 0.55721116 -0.56178874 0.033056617 0.3342367 -0.38431102 -0.07871383 0.6366472 0.13114358 -0.5104906 -0.3844701 0.41636515 0.16766715 -0.11336756 0.034261014 0.53043205 -0.27788603 0.037059024 0.358536 0.48471195 -0.23436956 0.100905746 -0.40194917 0.33042178 -0.030407688 -0.26189393 -0.6543462 0.1252057 0.083805524 -0.013383915 -0.45022836 -0.39632133
716 0.5229485 0.09171448 0.75335073 -0.1451226 0.0042763595 -0.0449204 0.15942264 0.12644964 -0.17609106 0.10470467 -0.6406314 -0.12895595 0.41562617 0.03891228 0.24704146 -0.5890003 0.008617976 -0.15621369 -0.016142825 -0.369303 0.66937244 0.16438462 -0.38939345 -0.46563885 -0.07533497 0.008866318 -0.075725414 0.4779869 0.4097576 -0.31332588 -0.107347235 0.07755555 0.5141331 -0.014432394 -0.5080425 0.08513744 0.09904481 0.15809889 -0.040578905 0.92643917 0.18998013 -0.07728476 -0.63620514 0.4413809 0.15110797 -0.22783007 0.059785347 0.62476575 0.21243037 0.19802609 0.06996791 0.39982042 -0.009784956 0.15714565 -0.48623887 0.061343644 0.24520677 -0.12488178 -0.38038355 0.07532244 -0.14867108 0.12040661 0.024931006 -0.44168922
216 0.7349337 0.39690787 -0.25082076 0.01340144 0.79170996 0.436633 0.86806625 -0.32879224 -1.2512382 0.43975845 0.37793702 0.48000088 -0.28764158 -0.63150555 1.2317988 -0.22638196 -1.3654768 0.049358122 -0.1470091 -0.23618351 -0.41542572 -0.5589858 -0.45538524 0.3695846 1.0857669 1.0906646 -0.13809727 1.1098733 0.76437944 0.018381516 0.38440776 -0.74871933 0.89624715 0.6670396 -0.46673888 -0.40569595 0.7379092 -0.0069717304 -1.1925645 0.88384145 0.54419684 -0.3785026 -0.96127605 0.3970564 0.3471932 0.9234692 0.8596303 0.6163405 0.2506341 -0.47182003 0.809792 -0.34982967 -0.8465595 0.30998683 -0.97405636 0.007564672 -0.024409447 -0.729299 -0.99068993 0.40536776 -0.0050904364 -1.0498527 -0.6077549 0.0018789836
572 0.76927084 0.3518704 -0.2979227 -0.063710555 0.83744574 0.4642035 0.89009506 -0.45651513 -1.0781592 0.2844027 0.3281444 0.48027804 -0.46117237 -0.66280186 1.0142951 -0.35312453 -1.3710927 0.2168832 -0.06941248 -0.20490366 -0.48003387 -0.53940696 -0.34493455 0.4332832 1.1567386 1.1946104 -0.11887629 1.1779395 0.74855345 0.0945082 0.4687851 -0.6971244 0.99113595 0.7848673 -0.2575688 -0.42854112 0.82057637 -0.10771934 -1.331807 1.0208492 0.63073665 -0.4558075 -1.1264186 0.4455872 0.16925001 0.94242877 0.99605525 0.6185134 0.12911548 -0.496097 0.7805841 -0.40272042 -0.80047417 0.26653716 -1.0349436 -0.118462585 -0.17400844 -0.8432598 -1.172536 0.2492805 -0.057389047 -1.0501812 -0.7651762 0.05882298
6 -0.14341053 0.20922874 0.5354088 -0.053630274 -0.0013579631 0.7308747 0.6253731 -0.20103537 -0.42514965 -0.09298964 -0.12717634 -0.82808614 -0.097716615 0.53205717 0.45353892 -0.0803212 -0.47726563 -0.74977976 0.45439568 0.29977694 0.29632318 -0.25002387 -0.75259006 0.25879607 0.43628863 0.5173071 -0.1602503 -0.4159235 0.3797201 -0.88708586 0.3289596 0.32146633 0.3109806 -0.38339 -0.44258726 -0.08507917 0.0019420272 -0.13890028 -0.27645707 0.61604995 0.09790103 -0.46697792 0.030001946 0.31146237 0.044973236 -0.058650486 0.29505947 0.99983394 0.76065844 0.036752548 0.19963835 -0.5072393 -0.023160242 0.01636122 0.25153282 -0.8307475 0.069322355 -0.38027874 -1.129275 -0.6287339 -0.074257374 0.6630938 0.096391305 -0.21706912
684 -0.27217343 0.15350689 0.25299504 0.0024575803 0.06778152 0.38191512 0.40525776 -0.2741668 0.041931856 0.16289659 -0.23612967 -0.6142929 0.16238491 -0.06842692 0.54909825 -0.019706035 -0.19072531 -0.54137635 0.14950751 0.10713254 0.08396162 -0.09779194 -0.49922132 0.09988287 -0.15662144 0.21114346 -0.32125917 -0.17702527 0.51473093 -0.5133666 0.036986943 0.36476836 -0.00013232214 -0.40878972 -0.28094015 -0.38251376 0.11547185 -0.14450997 -0.031252626 0.17659414 -0.4350062 -0.24937598 -0.31273782 0.5348819 0.18517523 -0.17837876 0.18303098 0.41953796 0.43870252 0.21334724 0.11925766 0.031139782 -0.3459223 0.185403 0.094514415 -0.28614447 0.28266513 -0.21115424 -0.2344802 -0.2697845 0.40057114 0.5783759 -0.13970913 0.12794772
243 0.1555374 0.16973674 0.033609264 0.31366307 0.1333675 0.755883 0.21746323 0.16936848 -0.30334687 0.43064615 -0.01801687 0.14909421 0.06901494 0.19325286 0.113026604 0.32278508 -0.2085738 -0.7890357 -0.24441795 0.14179623 -0.25776857 -0.109029226 -0.51766145 -0.29918388 0.08076889 -0.32902256 0.2066384 0.05998955 0.5733314 0.14409435 -0.5916887 0.4116581 -0.14650588 -0.1230808 0.30375466 -0.69056743 -0.05049064 0.52133733 0.17933817 0.5842013 0.19418074 -0.49807176 -0.99171376 -0.25064123 0.44403613 0.4292163 0.3281553 -0.22542264 0.312008 0.3957065 0.14766878 -0.52110606 -0.119527936 -0.024515407 0.24711114 0.06320565 0.15864727 -0.39546573 -1.2109289 0.7055707 0.098544054 -0.5214016 0.45908564 0.21417989
928 -0.21583103 -0.23451741 -0.33736813 0.1806033 0.5698301 0.9855347 -0.019071473 0.4534405 -0.14765815 0.17828837 0.09427182 -0.19967523 -0.26681572 -0.21389996 0.4118835 0.772922 -0.0029305236 -0.8903472 -0.108736426 0.37474012 -0.4016684 0.10515929 -0.6373868 -0.42941144 0.1932211 0.096959524 0.1816231 0.18813501 0.29554805 0.28522244 -0.52593374 0.2677332 0.38419238 -0.052683733 0.082467206 -0.36757258 0.02491669 0.54935503 0.2711818 0.3258765 0.17405228 -0.47029707 -1.3753529 -0.24828099 0.4086035 0.39710414 0.10330351 0.050641753 0.36305755 0.27721912 0.2692682 -0.58524376 0.059620645 -0.33958587 -0.004805735 0.18168353 0.33768788 -0.39147153 -1.0589441 0.8456487 0.1445613 -0.9123877 0.078750454 0.34927353
247 -0.061929148 -0.014865523 -0.31955191 0.2262772 0.3427654 0.73771507 0.04624256 -0.24817185 -0.21451318 -0.12891588 -0.6378646 -0.2745433 0.02534591 -0.3033197 0.2976869 -0.83487403 0.1862639 -0.13405034 0.54007554 -0.089932315 0.48838174 -0.06582701 -0.55267936 0.072474405 0.37862688 0.05155538 0.22845212 -0.07015028 0.6982279 -0.85611784 0.2491611 0.32351318 0.8993472 -0.16698767 -0.8586894 -0.50658137 0.5033725 0.2658006 -0.5041534 -0.098307885 -0.039176032 0.3835698 -1.0803796 0.1564928 -0.031801034 -0.3250728 0.42837057 0.6683794 0.15833235 0.2646554 0.2763051 0.3758309 -0.2920056 0.08081523 -0.13744771 -0.019928113 0.2709718 -0.26786816 -0.34739542 0.5526988 -0.8026489 0.1188507 -0.48839462 0.12548889
898 0.10517752 0.085466415 -0.22895734 0.009013038 -0.093567386 0.68576986 0.282088 -0.41336554 -0.18212172 -0.1401834 -0.579071 -0.35106957 -0.23943253 -0.75729513 0.20618618 -0.69476575 0.1560444 -0.31386045 0.5256805 0.137732 0.25136423 -0.44808078 -0.5111903 0.2084899 0.470883 0.22658186 -0.109909326 0.04184354 0.92875385 -1.1513513 0.13501072 0.07664042 0.5835469 -0.3056502 -0.6127462 -0.46002185 0.52954096 0.08081396 -0.822324 -0.020598864 -0.25963113 0.2541124 -1.2073498 -0.18225951 -0.005863522 -0.42354742 0.5288622 0.70438117 0.41905105 0.12706372 0.25242674 -0.012765697 -0.5894374 -0.13974158 0.28872332 -0.24997953 -0.1300594 0.047816664 -0.4471153 0.5016658 -0.79052705 0.12546216 -0.4185021 0.029877963
79 -0.4063763 -0.1423792 -0.41865757 -1.0136007 0.3490255 0.1476409 0.85543793 -0.66777545 0.20103599 -0.3466202 -0.9545399 -0.034447722 0.2689221 -0.21645184 0.2947438 -0.99111944 0.1719247 -0.018929772 0.7256662 0.07621477 -0.8742714 -0.51410896 -0.18139808 0.26481074 0.8912822 -0.03624668 -0.43178406 1.424052 0.840531 -0.69271594 -0.6017623 -1.1575937 0.51612216 -0.04933162 -0.39422375 -0.07011641 1.388525 0.29996496 -0.25156766 0.56430036 0.4459731 -0.6439552 -1.1585404 0.46386573 0.5057353 0.051655106 1.0985526 -0.5141251 0.26685488 -0.0066338396 1.0994666 -0.2175533 -0.4880531 0.43449724 -0.53400314 1.0003899 -0.3185372 -0.4022094 -0.5325652 0.7336626 0.9548713 0.2102782 -0.59122336 0.067359716
856 -0.4415542 -0.20831425 -0.45589036 -0.8747819 0.29314178 0.08718592 0.90303564 -0.6681973 0.25165412 -0.3834002 -0.9324402 0.030423464 0.25478056 -0.29133463 0.42211172 -0.96084267 0.1693465 -0.041887037 0.72055 0.026953373 -0.8703278 -0.609687 -0.178474 0.24374682 0.97503495 0.03608298 -0.5147253 1.3016686 0.76807266 -0.65882343 -0.52541286 -1.2208354 0.52894074 -0.10659719 -0.33080924 0.035931826 1.3715279 0.3029635 -0.2865667 0.6303972 0.3625137 -0.654682 -1.1942642 0.48410344 0.5903811 -0.023393802 1.123727 -0.5366723 0.25494558 0.031368896 0.9934705 -0.2428889 -0.4901289 0.39707142 -0.5709857 0.95788515 -0.19849677 -0.4858258 -0.6317387 0.7919014 0.97058076 0.1913939 -0.6239284 0.20951533
3 0.11188518 0.32690606 0.12652843 -0.17005734 -0.39556193 0.57782644 -0.54283774 -0.4181956 -0.242156 0.06416547 -0.86682194 -0.22450186 -0.42815095 -0.20884718 0.20965347 -0.91464573 -0.2451177 -0.15803708 0.05596183 -0.1862393 0.763567 0.6431127 -0.4153212 -0.04668444 -0.18656652 0.12107288 0.14587604 0.12424248 0.55383164 -0.28952834 0.009206811 0.080568835 0.53294283 0.07015966 -0.42878255 -0.20766173 0.05936579 -0.22831942 -0.3073438 0.027476793 0.40965897 -0.2602756 -0.76931334 0.385489 -0.02689395 0.20723462 0.15651205 0.7973211 0.5501451 -0.105568774 -0.07794835 -0.10860815 0.012769813 0.46308857 -0.010071084 0.47113228 0.14460753 -0.11811676 -0.472688 0.82442105 -0.6381072 0.33253998 -0.5964114 -0.07737373
727 -0.3227107 0.034732096 0.3240834 -0.5802369 0.1105134 0.54100263 -0.66130596 -0.6300168 0.43144184 -0.2911524 -1.062707 -0.1455795 -0.38130605 -0.2499995 0.053071506 -0.669151 -0.15957837 0.37072515 0.1686293 -0.48436254 0.6411792 0.36089823 -0.1971294 0.110751525 0.035147633 0.25619125 -0.17526501 -0.14367105 0.44971085 -0.3881486 -0.30070522 0.17425069 0.656955 0.11227044 -0.24012238 -0.2894222 0.40398383 -0.59505075 -0.3461214 0.2936631 0.53208715 -0.7741618 -0.35881615 0.6093208 -0.14918551 -0.04463707 0.27564353 0.75510335 0.8459084 0.08919727 0.09324841 -0.028630551 0.02197934 0.37636667 -0.25057128 0.2979666 0.4036376 -0.21899828 -0.9344301 0.5641345 -0.8079176 -0.1355239 -0.42005926 0.2953912
201 -0.2683443 -0.6881913 -0.8887498 -0.6470118 -0.33334595 0.68822587 1.0448363 -0.63801265 0.07490011 -0.40835842 -1.0239462 -0.66579527 -0.19840786 0.11031165 0.32871827 -0.06815448 -0.7399751 -0.37824398 -0.10307574 0.892271 0.6918757 0.16743578 0.82882285 0.0008068022 1.0850458 0.36790526 0.78114176 0.37321874 0.21395525 0.14170581 -0.4471793 -0.7155873 0.55288804 -0.47090974 -0.68416077 -0.13747127 -0.14166419 -0.92362684 -0.3961128 1.1361033 0.32944366 0.07903394 -0.7911807 0.36916316 -0.7508723 0.6272045 0.3485033 0.10559925 0.9204183 0.41902903 1.5550337 -0.18443733 -0.66356 -0.15901901 -0.327966 0.7065647 -0.104196705 -0.403579 -0.42679536 0.11843073 -0.33151597 -1.1263375 -0.42720434 0.6684457
961 -0.18183918 -0.87756574 -0.7486395 -0.54945564 -0.25607175 0.54156685 0.99270684 -0.5873602 -0.11283612 -0.37021723 -0.99137986 -0.65781134 -0.24634224 0.22918364 0.3469493 -0.10115854 -0.65129185 -0.3784234 -0.28754047 0.8467316 0.5497627 0.19105808 0.9498572 0.058764357 0.9834221 0.3274471 0.61800784 0.3370921 0.029346775 0.16664188 -0.5617645 -0.920556 0.5573555 -0.463645 -0.49624795 -0.16808322 0.06258996 -0.7449916 -0.28975582 1.1304997 0.4008205 0.06448291 -0.7623951 0.34227517 -0.67480063 0.5741803 0.4782752 0.081868455 0.89182705 0.3566405 1.4898862 -0.018618515 -0.61788976 -0.24524616 -0.33264244 0.6865401 -0.049110223 -0.23372343 -0.43542397 0.2113307 -0.2466634 -1.0422518 -0.41899648 0.807475
839 -0.31253734 0.02197359 0.018784285 -0.22502634 -0.17233102 0.23018008 0.36164594 0.07251019 -0.26207513 0.33585665 0.4754462 -0.57838136 0.027756141 0.033889618 0.18436472 0.036979344 0.02785053 -0.29673925 0.1297664 0.23617075 -0.15231654 -0.06356907 -0.0793526 0.064707026 -0.26377824 -0.27621436 -0.29464966 0.8068282 0.8056051 -0.48895508 -0.39647952 0.21841854 -0.14485301 -0.2825454 -0.09047735 -0.36828053 0.3871403 0.52581775 -0.09237583 0.44543257 -0.21914156 -0.49810794 -0.107747145 -0.29365107 0.6208933 -0.12629053 0.027261343 0.31397074 0.037629455 0.23984216 0.70758706 -0.15052514 -0.20050098 0.72017086 -0.09174798 0.33372134 -0.29521325 -0.4328456 -0.18568203 0.043621175 -0.019390902 -0.032782186 -0.11486194 0.52249205
238 0.13264152 -1.1044565 -0.48383296 0.18828095 0.051763352 0.2608452 1.2727834 0.4442563 0.20837362 0.43401298 -0.51247907 0.27048993 -0.79154056 -0.035492573 0.3343743 -0.770243 -0.668497 -0.48470882 0.9776429 -0.24615975 -0.56215906 -0.21376103 0.4553403 0.063191414 0.45850128 0.62502086 -0.23202147 0.5167093 0.00023010663 -0.7933553 -0.13951193 0.04757879 1.1977168 0.0996876 0.5811567 -1.2288845 0.11032209 -0.5298876 -0.15372358 1.4196309 -0.6349873 -0.7927518 -1.1198947 0.14156017 0.03369007 -0.17882015 -0.19339718 0.7552227 -0.11813837 0.7218977 -0.24576509 -0.07061617 0.14847025 0.23836377 -0.029493868 -0.4411513 -0.43516424 -0.19868182 -0.09599165 0.12535657 0.051540475 0.2104857 -1.5015666 -0.07787736
832 -0.038246185 -0.8547727 -0.54597586 0.3735641 0.23505019 0.2131121 1.0561203 0.47689024 0.08307688 0.5434921 -0.4803687 0.23980142 -0.5341163 -0.06481196 0.1436714 -0.60782474 -0.43874806 -0.59651756 0.7233181 -0.36650658 -0.45595926 -0.31074598 0.35469842 -0.025354877 0.38655853 0.57373905 -0.24652475 0.33343804 0.03700877 -0.6130456 -0.30731872 0.17586106 1.0481693 0.08773211 0.38790426 -1.0876529 -0.14780521 -0.41884145 -0.24031246 1.230017 -0.62601906 -0.57342464 -1.0728723 0.11096802 0.3013875 -0.11193777 -0.2389266 0.82001936 -0.13946876 0.62662774 -0.39372802 -0.07407981 0.15534978 0.27211863 -0.21105139 -0.41894913 -0.46185654 -0.2968476 -0.15653688 0.06954045 -0.043991607 0.1888385 -1.262794 0.015110279
334 0.38526767 0.3415962 -0.23298612 -0.3042307 -0.054750092 -0.64249754 0.010756802 -0.11007733 -0.4646509 0.28624588 -0.5843467 -0.75102925 -0.39274994 0.26487464 0.15279631 0.7919425 0.058888476 0.022818528 0.032750286 0.24157612 0.3939671 -0.3380579 -0.0945983 -0.79299176 0.55294716 0.07345593 -0.17746982 0.41693482 0.35248798 -0.1272886 -0.098517925 -0.08401253 0.6768713 0.18468076 -0.20337039 0.013775586 -0.07428659 -0.1615995 -0.05801248 1.0604507 -0.1792401 -0.6003413 -1.0791861 0.13224515 0.3458714 -0.03949265 0.07558558 0.38349268 -0.32062697 -0.38192436 0.06599717 -0.0595258 -0.124383874 0.5546302 -0.63549536 0.35734487 0.006569461 -0.27458048 -0.5170362 -0.23544805 0.40994436 0.18727912 -0.26886016 -0.37362126
818 0.42921183 0.33477768 0.23771612 -0.3928151 -0.1130991 -0.4077715 -0.24044192 -0.08878301 -0.32825074 0.028703634 -0.66500425 -0.76946694 -0.30644995 0.10669029 0.048137173 0.6753899 -0.061018556 0.032687075 -0.14519593 0.34771124 0.39343593 -0.28413656 -0.15205908 -0.86197066 -0.009345482 0.11642588 0.12096078 0.33918902 0.3951075 -0.2778737 -0.22325127 -0.22655132 0.3976679 0.2561018 0.0049285674 0.0639392 0.09370897 -0.6377901 -0.09111914 0.9422152 0.0813902 -0.7388112 -1.016791 0.19864723 0.2629244 -0.22915906 0.17507836 0.5469126 -0.31606957 -0.23882508 0.29746923 0.14353587 -0.24915928 0.30491272 -0.81581837 0.30891958 0.3239221 -0.27874228 -0.3626948 -0.12572718 0.44539648 -0.059366517 -0.3180053 -0.20538774
183 0.38079792 0.1663997 -0.22287615 -0.1722639 0.4893761 -0.23704344 0.16487788 0.48238945 0.2648067 0.22317639 -0.0004259049 -0.057712782 -0.25440317 -0.016662512 0.5698275 -0.30607486 -0.34986967 -0.53333753 0.2814718 0.00699155 0.029677426 0.101992995 0.056727085 -0.08861209 0.33936006 0.20785335 -0.43874288 0.13647583 0.15764287 -0.7672228 -0.2672447 -0.11741972 0.49723223 -0.1831764 -0.4353971 -0.27869254 -0.35170823 -0.10348482 0.16179554 0.755225 -0.5041261 -0.25294966 -0.5963485 0.49431777 0.69079274 -0.20811132 0.39952394 0.2838055 0.4462012 0.1816884 -0.106979445 -0.28997645 0.29849195 0.2675149 -0.490766 -0.38316467 0.11454895 -0.430177 -0.41228226 -0.445148 0.21430467 0.0977737 -0.87395024 -0.2013288
777 0.5674051 0.17360082 -0.052982535 -0.55294424 0.19837932 -0.22851522 0.3067122 0.3986484 0.3734853 0.27963626 -0.015118902 0.01932344 -0.28897032 -0.068390615 0.7461849 0.00042381007 -0.30122584 -0.6340683 0.42328098 0.2153635 0.2014515 0.19692132 0.2757131 -0.2644132 0.27573347 0.35913652 -0.45202088 0.11926576 -0.02368593 -0.5367039 0.0017631076 -0.3558265 0.269104 -0.076216824 -0.45127568 -0.8129806 -0.30872044 -0.2496045 0.16861616 0.89647484 -0.50691 -0.3262336 -0.60653263 0.70324516 0.7423531 -0.17973632 0.531222 0.41632122 0.2914799 0.08814762 -0.106469154 -0.07579797 0.38458985 0.29178092 -0.5388792 -0.115882486 0.26191813 -0.28948325 -0.58781916 -0.32851985 0.2943059 0.21400726 -0.621363 -0.35078532
100 -0.42053708 0.33250773 -0.57985055 0.41821057 -0.0037867767 -0.23524986 0.4880907 -0.16480727 -0.07149149 0.21824762 -0.3507643 -0.6952329 -0.033163585 -0.01677969 0.37136194 0.6591911 -0.35243306 0.08619634 0.5652167 0.15515462 0.15161626 -0.09994202 -0.4311004 -0.18059291 0.44069842 -0.01304528 -0.26253426 0.36289942 0.4380865 -0.07902207 -0.094775446 0.25220054 0.046008833 -0.17678317 -0.15415075 -0.40742868 -0.47092047 0.017533714 -0.17157377 0.37209907 -0.37557265 -0.6515795 -0.4268843 0.1791641 0.5742879 -0.025413489 -0.011546901 1.0983691 -0.07673497 -0.26204813 0.05400325 0.029825099 0.33327818 -0.008794372 -0.3702033 -0.15459955 0.13652393 -0.36511442 -0.46804202 -0.4942254 0.2160405 0.039607152 -0.25017902 0.31715557
703 0.22019964 0.48484498 -0.064944066 -0.09872982 -0.2505484 -0.5944085 0.41273418 0.22190428 -0.09576578 0.27878106 -0.2030599 -0.46098098 -0.03414018 -0.046552 0.21498135 0.7023788 -0.12842841 -0.21998715 0.22983848 0.1903913 0.47145206 -0.17233098 -0.011329846 -0.6276692 0.5915185 0.3212936 -0.21844783 0.34761643 0.32661715 -0.24110763 0.32036692 -0.071761474 0.14173546 0.030337397 -0.25994185 0.05094255 -0.21598856 -0.26795143 0.12458484 0.857155 0.07810127 -0.5621433 -1.261806 0.54593 0.4760126 0.1626592 0.19506697 0.62079316 -0.15648225 -0.37494144 0.009639448 0.053714536 0.334245 0.26030898 -0.7528343 0.14690444 0.23107438 -0.15456589 -0.41040966 -0.51904446 0.42377844 0.22714166 -0.60604334 -0.28368232
89 0.0019702453 -0.15421897 -0.35102463 0.122887515 0.038156874 0.41897252 0.3348136 0.43355626 0.1588423 0.27533078 0.32203645 -0.025374783 -0.0066903788 -0.34727347 0.53485274 0.40867424 0.029698063 -0.09109797 0.23874225 0.30723542 -0.018220643 -0.08231026 -0.13404001 -0.6817352 -0.18419504 -0.13789314 -0.09669229 0.42174783 0.022131624 -0.22532599 -0.5327551 -0.013708407 0.5479168 -0.27847126 -0.03156256 -0.33916244 0.08214695 0.09150445 -0.35217646 0.8669696 -0.4133505 -0.78401023 -0.2501523 -0.01155614 0.49074703 0.29812855 -0.37005743 0.21600854 0.10920901 0.118590124 -0.051236995 -0.4322253 -0.13031328 -0.1781112 -0.0692326 0.4455401 -0.33343518 -0.42717886 -0.30517593 -0.3381568 0.11119059 0.5570045 -0.35839513 0.5487337
792 0.041975226 0.2722429 -0.03972614 -0.4361788 0.2827695 -0.07483947 0.6484115 0.41354138 0.28893787 0.32266715 0.20202354 0.061455 -0.23941599 -0.26521266 0.5887081 0.43586087 -0.2848807 -0.0963452 0.5131129 -0.026163736 -0.19082716 -0.08366226 -0.02596387 -0.6874115 0.18904127 0.07071784 -0.18851437 -0.02649573 0.20452337 -0.13062511 -0.41467097 -0.041450832 0.5186269 -0.029345553 -0.51866347 -0.5636014 -0.39456412 0.26339754 -0.27406126 0.7845717 -0.25372562 -0.63602847 -0.3847315 0.43164358 0.5771537 -0.0664627 0.03683278 0.050084624 0.20647614 0.08628158 0.26514983 -0.13284649 0.351896 -0.060357977 -0.29088837 0.12865269 -0.5071481 -0.08754861 -0.48518336 -0.61452204 0.14664273 0.42784727 -0.59418553 -0.07957171
401 -0.1272755 -0.35764337 0.5812979 -0.8272499 0.1414422 -0.19766742 0.45795274 -0.5844307 -1.4581746 -0.11600636 -0.7118869 -0.06715694 -0.08710492 0.27861413 0.47764575 -0.30595136 -0.38619015 -0.44690818 -0.15139683 0.26430008 0.16191508 0.47200882 -0.0006187755 -0.32854903 -0.4010584 0.07294824 0.18109865 1.1169722 0.1800941 -0.7225323 -0.65284294 0.23481995 0.7779444 0.44526806 0.320035 0.06595724 0.50300735 -0.14568938 0.19971086 0.20430587 -0.057362203 0.20694934 -0.7290446 0.078423254 0.1394104 -0.68233484 0.029045962 0.3607754 0.31345803 -0.36746988 0.51117843 0.33917361 0.054209907 -0.14812489 -0.32922214 0.7003591 -0.069885075 -0.046306685 -0.63365096 0.24571407 0.6966399 -0.3302798 -0.5746254 0.21532957
550 0.20509854 -0.14853851 0.42164487 -0.23339374 -0.0066416883 0.10545562 0.42129046 -0.41679072 -0.9238162 0.22744212 -0.72622114 0.0955212 0.28408056 0.18208288 0.3049562 -0.045829114 -0.06692205 0.13914333 -0.15851799 0.24284326 0.47443926 0.4545939 -0.1899849 -0.72790164 -0.6186348 0.20635174 0.030533152 0.9241464 0.40659404 -0.19314574 -0.5187613 -0.1394012 0.6152068 0.58093923 0.03700791 0.395916 0.7079691 -0.19138636 0.36764845 0.49246374 0.20484337 0.10321502 -0.84330094 -0.1615419 -0.18405579 -0.6855143 0.13228987 0.24398293 0.26330104 -0.22826979 0.45526752 0.21697854 0.12195919 -0.23056974 -0.17736785 0.39116982 0.19850037 -0.14278747 -0.76375955 -0.07189919 0.49482393 -0.20061135 -0.4241649 -0.04082789
386 0.13196725 -0.36507943 -0.46581012 -0.573848 -0.25568226 0.34284768 0.8365676 -0.2358274 0.238907 0.015537731 -0.8833721 -0.40938148 0.18451317 0.36362305 0.49082074 0.61277306 0.17146432 -0.5368093 -0.7989696 0.7971001 -0.06266598 0.014469739 0.194821 -0.22533034 0.2409985 -0.031581953 0.16837958 0.11557619 0.35357162 -0.070473604 -0.5144237 -0.29563054 0.75249195 -0.2672919 -0.52293485 -0.12273167 0.11371815 -0.1052686 -0.0040172096 1.1756212 0.18016966 -0.13746938 -0.14384042 -0.14204304 -0.18625423 0.87925166 0.442867 0.03463606 0.45535007 0.08367469 0.68824023 -0.0524569 -0.17267972 -0.16343695 0.2935927 0.042539645 0.058901496 0.21098378 -0.035275027 0.089034334 -0.007669736 -0.9408792 -0.4018931 0.23289351
508 -0.12500112 0.14753601 -0.7382679 -0.08898923 -0.24276696 -0.06492417 0.68229467 0.50294966 0.57057405 -0.019409187 -0.2870285 0.092523485 0.6494178 -0.41847238 0.3665804 0.37124032 -0.41351384 0.00274639 0.10444415 0.60257846 0.22449104 0.9512118 -0.14238651 -0.49378884 0.23034784 0.45882463 -0.38662398 0.59241134 0.27920365 0.332606 -0.33114618 -0.06085329 0.1866773 0.07420529 -0.40242866 -0.21776932 0.44193685 -0.54556704 -0.15021658 0.14025843 0.049806587 -0.57533246 -0.15257898 -0.24740826 -0.15312785 0.83550227 -0.016646836 0.6017723 0.05734267 0.15923817 0.15405208 0.26465586 -0.16288786 0.009129843 0.30643725 0.27227116 0.080074966 -0.048920624 -0.585753 0.38632515 0.1892509 -1.1044462 0.037479997 -0.3206481
163 -0.27548555 0.3764223 -0.07827304 -0.27681494 0.28113306 -0.06880068 1.1350778 -0.7331029 -0.55462897 0.31194577 -0.73094165 0.014319262 0.21153238 0.08918488 0.47257626 -0.032779563 0.31788743 -0.68023056 0.081664585 0.76777 0.102040365 -0.02182263 0.2327164 -0.0860285 -0.008668216 0.17346722 0.017563993 -0.12862846 0.3560673 0.13084657 -0.35210463 0.037003674 0.29084033 -0.27500466 0.2905187 -0.01621551 -0.11446454 -0.46804932 0.3938455 0.9032724 -0.5096457 0.13341898 -0.074347734 0.80565274 0.14761022 0.33221468 0.03693597 0.019925077 0.2604007 0.07102368 0.18575643 -0.3646383 0.11441175 -0.28003615 -0.16901246 0.5203512 -0.14527504 -0.017996376 -0.6734879 -0.067558125 -0.30091146 -1.014601 -0.14441177 0.3614037
497 0.2816767 0.2459254 -0.15791383 -0.3582595 -0.24707158 -0.5002667 -0.08341002 -0.097315565 -0.26813957 0.036954805 -0.53892624 -0.7294838 -0.1121224 0.18872792 0.1844388 0.8866277 0.03966234 0.12268612 -0.25946602 0.36827365 0.8619461 -0.3980159 -0.009651336 -0.8881512 0.3625561 0.12693419 -0.22379248 0.33094954 0.35029805 -0.26939744 0.025823453 -0.28302577 0.33892292 0.2413564 -0.28747183 0.2469676 0.06833884 -0.30384532 0.17586592 1.3261214 -0.16839252 -0.7957955 -1.2451214 0.20660254 0.3087218 -0.014734491 0.318658 0.59054786 -0.2548547 -0.1711428 0.18271913 0.24553399 -0.03735182 0.56186336 -0.63346547 0.49293903 0.22631054 -0.4838413 -0.4711872 -0.20817001 0.17592977 -0.11989411 -0.34333336 -0.3236084
81 0.05736247 0.77589273 0.0092898635 -0.19882302 0.26637244 0.5763304 0.8060752 0.3137442 -0.15823998 -0.23113655 -0.784089 0.2534587 -0.34113055 0.48887292 0.17145707 -0.21263556 0.25880957 -0.61527115 -0.6984609 0.3504239 -0.22970411 0.2584264 0.043581516 -0.5420169 -0.020666637 -0.3244128 0.119966276 -0.23072723 -0.16958381 0.29149345 -0.42220724 -0.0036415688 0.4282371 -0.444236 -0.004063646 -0.0039030581 0.3379652 0.2812803 0.04862444 0.7187226 0.12278597 -0.9663044 -0.32837382 -0.2321669 -0.3686369 0.2579167 0.56643677 0.03283133 -0.24575917 0.17801711 0.65772784 0.28598997 -0.13868198 -0.3778642 0.071580134 0.2980947 0.22057459 -0.22618803 -0.16590385 0.36845165 0.8022171 -0.7092395 -0.083126225 0.20361345
904 0.041305672 0.8570072 -0.0044993223 -0.32106745 0.27407944 0.51559895 0.847764 0.2248442 -0.23430699 0.0690319 -0.92710435 0.18555477 -0.15663326 0.492907 -0.109262064 -0.08839683 0.001237448 -0.5098944 -0.96345335 0.5208574 -0.39613757 0.22860669 -0.0868209 -0.5472553 0.25120673 -0.43556207 0.07299358 -0.18774503 -0.09809329 0.18995818 -0.124712296 0.12635343 0.2947759 -0.5541574 -0.23027918 -0.019836877 0.19504799 0.41717586 0.047002956 1.03621 0.19516397 -1.0395036 -0.28834975 -0.36434022 -0.430084 0.26158544 0.71470284 -0.07310032 -0.43749845 0.25258386 0.8244568 0.18606348 0.11721372 -0.46187323 -0.008331792 0.3914675 0.18336968 -0.17365816 -0.30271104 0.5318458 0.6334542 -0.6448897 0.03252487 0.28716052
811 0.6510096 0.091391794 0.7659133 -0.31381986 0.15730727 -0.20110409 0.02049533 0.18718109 -0.019652123 0.23589496 -0.6984067 -0.14318189 0.4793272 -0.19392137 0.3308371 -0.2896357 -0.29961744 -0.29976735 -0.2915382 -0.3826369 0.53077495 0.45744482 -0.020286925 -0.3654756 -0.060796466 0.049136117 -0.09329206 0.4515704 0.61127657 -0.48812038 -0.36872467 0.090588614 0.21855482 -0.032681007 -0.484926 0.048861668 -0.103529364 -0.2889473 0.07530399 0.9929084 0.11813656 -0.29898852 -0.33642802 0.3698496 0.10205243 -0.27937728 0.12782149 0.34565875 0.00073683687 -0.07852187 0.4165929 0.056593597 0.09760193 0.08254639 -0.5089398 -0.027669767 0.20035 -0.24819614 -0.3556806 0.19913608 0.01680067 0.016627828 -0.14188145 -0.55823475
870 -0.13530783 -0.38189438 0.0370234 -0.3286783 0.05283466 0.3790844 0.651843 -0.028628144 0.38162315 0.18932548 -0.7733228 -0.0891504 0.0302882 0.60598147 0.40256763 0.3404654 0.26796865 -0.44115373 -0.5723242 0.84044087 -0.110256456 -0.13437754 -0.0734193 -0.4278598 -0.015002442 -0.10786983 0.383219 0.14756972 0.365178 0.11614031 -0.19490191 -0.17609878 0.39337498 -0.52827644 -0.35987148 -0.024919497 0.17886819 -0.059111815 0.05910564 0.9040519 0.19691958 -0.1465593 -0.22301838 -0.34632736 -0.16596387 0.9105524 0.5156541 -0.021729255 0.18135332 0.24522793 0.55241495 -0.3403927 -0.30231285 -0.07182888 0.3314779 0.064188465 -0.18216886 0.0740911 0.16036677 -0.11972602 0.08075805 -0.58613986 -0.2661842 0.10276822
19 -0.3371087 -0.14341283 -0.18488784 0.2883309 0.033232182 0.5755521 0.58253425 0.22019613 0.22044767 0.5176872 -0.43058762 -0.26975167 -0.43294987 -0.29275432 -0.24627182 -0.48175642 -0.61818075 -0.11845285 0.49428096 0.0017141658 0.3587532 -0.40625373 -0.19428983 0.32000053 0.2552907 0.5424949 -0.3674147 0.20404956 0.68712956 -0.74161726 0.03154696 -0.18300694 0.59937954 -0.12108985 -0.3065883 -0.54179746 0.32557574 -0.4368169 -0.79803115 -0.19999681 -0.7066995 -0.035171285 -0.9216168 0.087818265 -0.25534788 -0.085118815 0.13229898 0.11893474 0.029331492 1.0650821 0.44110122 -0.109602675 0.15688907 0.21558845 0.08390054 -0.30731753 0.06297765 -0.41141254 -0.31084362 0.50342 -0.3167875 0.26151422 -0.51418304 0.06256796
914 -0.48691034 -0.16538616 -0.48943552 0.5239425 -0.09846142 0.513772 0.4766837 0.23523621 -0.055375174 0.31031826 -0.21873845 -0.15550156 -0.2427966 -0.018949725 0.052267674 -0.35472572 -0.46091533 -0.18633054 0.3382522 0.21403725 0.17400265 -0.003318915 -0.34741178 0.45571694 0.13676025 0.53477424 -0.29738787 0.0859486 0.88620895 -0.59761435 0.1893185 -0.02232766 0.50690615 -0.05510498 -0.5000098 -0.334214 0.27572072 -0.39511272 -0.5343381 0.1368377 -0.4775795 -0.07164221 -0.713557 0.28130406 -0.2612381 -0.2718454 0.19238295 0.26409402 0.33247626 0.987207 0.47613657 0.06064495 0.09848731 0.16402186 -0.07421579 -0.47740012 0.2046253 -0.26211894 -0.2040668 0.1650312 -0.46898893 0.5205028 -0.60079366 -0.13005665
297 -0.23948331 0.15105991 0.20381819 0.22995679 0.23589359 0.23448576 0.65751725 -1.0526091 -0.17139328 0.06681807 -0.43806964 -0.6935768 -0.17860672 -0.41949642 0.47369656 0.8212505 -0.67862546 -0.632556 0.4493799 0.8213034 -0.5214417 -0.53137225 -0.9267793 -0.37525806 0.18333511 0.2758126 -0.23849538 0.19805282 0.14061156 0.12576614 -0.3704713 -0.006029077 0.5947399 0.09126121 -0.31583065 -0.5336482 0.23054597 -0.27757028 -0.6408216 0.79875124 0.12710328 -0.9061061 -0.79028434 0.33950344 0.19333997 -0.5312172 -0.22421709 0.3915997 0.14018585 -0.25179964 0.39882118 -0.38635066 0.71900374 -0.858474 -0.54743683 -0.024930798 -0.33687252 -0.44890708 0.061876904 0.1621683 0.5391094 -0.817093 -0.20043807 0.25755197
561 -0.047788687 0.49018496 0.0012397503 0.14105931 -0.093485564 0.05929345 0.7224227 -0.8193658 -0.0406488 0.06683416 -0.060649868 -0.73391664 -0.1223286 -0.26820502 0.49267155 1.0858753 -0.9400776 -0.48788854 0.5718638 0.5849863 -0.44462523 -0.5836973 -0.79216135 -0.25966462 0.025825962 0.31150466 -0.07830436 0.006787362 0.081990294 0.05640103 -0.17890689 -0.08315717 0.47792327 -0.10029907 -0.48816898 -0.30461243 -0.26169056 -0.12119139 -0.49617696 0.5261626 -0.12923127 -0.80345696 -0.8165114 0.2833907 0.41255635 -0.40815082 -0.07235768 0.60392183 0.01107386 -0.14082274 0.2682407 -0.18987165 0.73574334 -0.30753022 -0.22517091 0.097015865 -0.46565878 -0.41176608 -0.09970585 0.054163992 0.3949588 -0.46829367 -0.35873407 -0.043458488
931 0.20077279 -0.9991325 -0.21675028 0.059159525 0.06392917 0.08960514 1.105214 -0.28243044 0.692705 0.57068807 -0.4550211 -0.61742973 0.42456248 0.22553892 0.379896 -0.6558642 -0.477059 -0.2605198 0.91673166 0.4475027 -0.40261886 0.19878119 0.09666691 -0.43853015 0.4927906 0.6935166 0.6857596 -0.09927182 0.1558849 -0.76193637 -0.53756404 0.19534734 0.44378284 -0.116488814 -0.29506832 -0.5521934 -0.005088343 -0.6763174 -0.13318184 0.28787145 -0.6635882 -0.5894015 -0.78305227 0.17828102 0.17673782 -0.2265172 -0.29592568 1.1067979 -0.14609747 0.6513664 -0.108058974 0.12669414 -0.15661629 0.95401543 -0.20158453 -0.5947651 0.4053884 -0.3621561 -0.6552826 0.020030554 0.31216645 0.51344466 -1.116468 0.15118182
400 0.0543898 -0.17909251 -0.27970856 -0.45164698 0.46757144 0.7414779 0.7550749 -0.23128155 -0.29951316 0.23629314 -0.9694029 -0.11515811 -0.15555696 -0.07983629 0.66881084 -0.4664281 -0.44941062 -0.04378208 0.18207407 0.42098096 -0.4439243 0.2239781 -0.29550278 0.06946254 0.59486043 0.5754117 -0.011600418 0.5394486 0.775109 -0.37154293 -0.14432484 -0.5164871 0.6907367 0.034724876 -0.32350105 -0.7858156 0.91872644 -0.2454755 -0.51277155 1.0601599 0.20336047 -0.6747753 -1.1983851 0.22923124 -0.019714577 0.45889357 0.5459516 0.5397854 0.49692702 0.19618121 0.8116514 -0.24630572 -0.15298246 0.20400895 -0.19695853 0.34294713 -0.04023929 -0.40217498 -1.0298387 0.70711404 -0.12920743 -0.46688327 -1.0395205 0.19309773
881 0.011467795 -0.22206458 -0.28290123 -0.45952222 0.48945796 0.7852756 0.7230573 -0.23689719 -0.26187393 0.24384455 -1.0615526 -0.117509685 -0.13966203 -0.056988534 0.60759664 -0.5012622 -0.39836103 -0.046445943 0.20359439 0.43433735 -0.4636155 0.2651976 -0.29821613 0.07775963 0.5430474 0.56554294 0.0023310513 0.49246097 0.7386934 -0.36150914 -0.16327123 -0.5120461 0.70044184 0.044590153 -0.30804646 -0.80387586 0.9126207 -0.24596812 -0.48308462 1.0513598 0.20197825 -0.707959 -1.2207631 0.19743362 -0.042579442 0.44476616 0.5209253 0.5605298 0.5006603 0.2146753 0.7951848 -0.22620885 -0.15314002 0.20904574 -0.16626137 0.38013995 -0.0117526585 -0.39479354 -1.0688541 0.7648374 -0.18033198 -0.46839896 -1.067037 0.20139658
368 -0.56845427 -0.070523866 -0.049493305 0.4237489 -0.22538751 0.22609349 0.4366578 0.5572933 0.20624384 0.6660869 -0.34263784 -0.69680953 0.3041571 0.13158448 0.6306437 0.53752226 -0.19755243 0.08676958 0.65594304 0.53310716 -0.050355338 0.1184127 -0.6597481 -0.4254274 0.29387304 0.33695528 -0.04468909 -0.012504991 -0.16213249 0.38416028 0.356693 -0.38981277 -0.13329408 0.11203419 -0.3093738 -0.65335625 0.34689996 0.15266328 -0.32519042 0.55073506 -0.34990034 -0.62494916 -0.22022648 0.2592036 0.52617043 0.48210064 0.06548851 0.543646 0.69155 -0.47735804 -0.13547899 0.2878836 -0.34004337 -0.5217875 -0.116801955 -0.15259254 -0.124099605 0.31197774 -0.5363491 -0.23831603 0.52481323 -0.19097942 -0.77261305 -0.20508017
579 -0.35543814 -0.011381901 -0.18655181 0.38593072 -0.42278337 0.19231573 0.46328428 0.3170185 0.18362212 0.68534184 -0.1291722 -0.67753845 0.34947717 0.023238866 0.78652674 0.34386948 -0.05847459 -0.05544354 0.4696504 0.40703285 -0.0009691262 0.13448189 -0.28476837 -0.5745539 0.28726715 0.30684415 0.08140838 -0.016519379 0.22082424 0.364053 -0.118867725 -0.3766043 -0.41272342 0.11531226 -0.24572821 -0.72607696 0.3550375 0.382098 -0.37161598 0.60195494 -0.20009051 -0.5298428 -0.11960955 0.285289 0.39562207 0.37582806 -0.02268629 0.40181482 0.5191329 -0.54917574 -0.09522201 0.059326854 -0.32191965 -0.53180534 -0.1870403 0.029536748 -0.10880058 0.28712848 -0.37557587 -0.21767119 0.38363287 -0.107429884 -0.57431906 -0.21415217
347 -0.084456354 -0.09882655 0.01030423 -0.15678297 0.43020636 0.16965145 0.84718984 0.3168494 0.36102962 0.6667679 -0.2041529 -0.52212834 0.0340129 -0.23688555 0.4195431 0.23269455 -0.10195841 0.06588031 0.634168 0.11443772 0.12003417 0.13991629 -0.22920232 -0.3925647 0.3754345 -0.17723326 0.16069226 -0.18344572 0.08458585 -0.31019923 -0.20222944 -0.16458236 -0.07566213 0.096501164 -0.25539213 -0.36630142 0.111379586 0.11279666 -0.5513906 0.37056243 -0.24081643 -0.2949303 -0.14339885 0.717204 0.25626564 -0.014897539 0.42374146 0.38475794 0.6273364 -0.13951996 0.32620993 -0.19835946 -0.028639551 0.33589187 0.022118151 -0.32582125 0.1159755 -0.043003332 -0.48284099 -0.28682762 0.24469033 0.1492044 -0.58272535 0.24668598
1060 -0.11514442 0.030564561 0.036937967 -0.10888078 0.3516511 0.31685683 0.9710474 0.29755548 0.32136214 0.45755488 -0.6362409 -0.61971474 -0.055182427 -0.13243581 0.69149613 0.16123539 -0.23357378 -0.15914431 0.5057981 0.11055405 -0.036485195 -0.017627329 -0.11414792 -0.24595012 0.38935682 0.08830937 0.05864871 -0.24586207 -0.000733632 -0.2649196 -0.21962227 -0.3871012 -0.21475957 -0.027258899 -0.407103 -0.26480952 0.113171205 0.14335595 -0.63151956 0.449198 -0.11179675 -0.44465792 -0.16612513 0.5551927 0.5289269 -0.17820375 0.265272 0.19907656 0.95333284 0.065405786 0.18085004 -0.18552592 0.24617483 0.1930099 0.08616766 -0.29132715 0.14640483 -0.14637074 -0.4566078 -0.40629375 0.20030084 0.35364127 -0.5703283 0.075048454
